FANN_FLO_2.1
num_layers=3
learning_rate=0.400000
connection_rate=1.000000
network_type=0
learning_momentum=0.000000
training_algorithm=2
train_error_function=1
train_stop_function=0
cascade_output_change_fraction=0.010000
quickprop_decay=-0.000100
quickprop_mu=1.750000
rprop_increase_factor=1.200000
rprop_decrease_factor=0.500000
rprop_delta_min=0.000000
rprop_delta_max=50.000000
rprop_delta_zero=0.100000
cascade_output_stagnation_epochs=12
cascade_candidate_change_fraction=0.010000
cascade_candidate_stagnation_epochs=12
cascade_max_out_epochs=150
cascade_max_cand_epochs=150
cascade_num_candidate_groups=2
bit_fail_limit=3.49999999999999977796e-01
cascade_candidate_limit=1.00000000000000000000e+03
cascade_weight_multiplier=4.00000000000000022204e-01
cascade_activation_functions_count=10
cascade_activation_functions=3 5 7 8 10 11 14 15 16 17 
cascade_activation_steepnesses_count=4
cascade_activation_steepnesses=2.50000000000000000000e-01 5.00000000000000000000e-01 7.50000000000000000000e-01 1.00000000000000000000e+00 
layer_sizes=785 101 2 
scale_included=0
neurons (num_inputs, activation_function, activation_steepness)=(0, 0, 0.00000000000000000000e+00) (0, 0, 0.00000000000000000000e+00) (0, 0, 0.00000000000000000000e+00) (0, 0, 0.00000000000000000000e+00) (0, 0, 0.00000000000000000000e+00) (0, 0, 0.00000000000000000000e+00) (0, 0, 0.00000000000000000000e+00) (0, 0, 0.00000000000000000000e+00) (0, 0, 0.00000000000000000000e+00) (0, 0, 0.00000000000000000000e+00) (0, 0, 0.00000000000000000000e+00) (0, 0, 0.00000000000000000000e+00) (0, 0, 0.00000000000000000000e+00) (0, 0, 0.00000000000000000000e+00) (0, 0, 0.00000000000000000000e+00) (0, 0, 0.00000000000000000000e+00) (0, 0, 0.00000000000000000000e+00) (0, 0, 0.00000000000000000000e+00) (0, 0, 0.00000000000000000000e+00) (0, 0, 0.00000000000000000000e+00) (0, 0, 0.00000000000000000000e+00) (0, 0, 0.00000000000000000000e+00) (0, 0, 0.00000000000000000000e+00) (0, 0, 0.00000000000000000000e+00) (0, 0, 0.00000000000000000000e+00) (0, 0, 0.00000000000000000000e+00) (0, 0, 0.00000000000000000000e+00) (0, 0, 0.00000000000000000000e+00) (0, 0, 0.00000000000000000000e+00) (0, 0, 0.00000000000000000000e+00) (0, 0, 0.00000000000000000000e+00) (0, 0, 0.00000000000000000000e+00) (0, 0, 0.00000000000000000000e+00) (0, 0, 0.00000000000000000000e+00) (0, 0, 0.00000000000000000000e+00) (0, 0, 0.00000000000000000000e+00) (0, 0, 0.00000000000000000000e+00) (0, 0, 0.00000000000000000000e+00) (0, 0, 0.00000000000000000000e+00) (0, 0, 0.00000000000000000000e+00) (0, 0, 0.00000000000000000000e+00) (0, 0, 0.00000000000000000000e+00) (0, 0, 0.00000000000000000000e+00) (0, 0, 0.00000000000000000000e+00) (0, 0, 0.00000000000000000000e+00) (0, 0, 0.00000000000000000000e+00) (0, 0, 0.00000000000000000000e+00) (0, 0, 0.00000000000000000000e+00) (0, 0, 0.00000000000000000000e+00) (0, 0, 0.00000000000000000000e+00) (0, 0, 0.00000000000000000000e+00) (0, 0, 0.00000000000000000000e+00) (0, 0, 0.00000000000000000000e+00) (0, 0, 0.00000000000000000000e+00) (0, 0, 0.00000000000000000000e+00) (0, 0, 0.00000000000000000000e+00) (0, 0, 0.00000000000000000000e+00) (0, 0, 0.00000000000000000000e+00) (0, 0, 0.00000000000000000000e+00) (0, 0, 0.00000000000000000000e+00) (0, 0, 0.00000000000000000000e+00) (0, 0, 0.00000000000000000000e+00) (0, 0, 0.00000000000000000000e+00) (0, 0, 0.00000000000000000000e+00) (0, 0, 0.00000000000000000000e+00) (0, 0, 0.00000000000000000000e+00) (0, 0, 0.00000000000000000000e+00) (0, 0, 0.00000000000000000000e+00) (0, 0, 0.00000000000000000000e+00) (0, 0, 0.00000000000000000000e+00) (0, 0, 0.00000000000000000000e+00) (0, 0, 0.00000000000000000000e+00) (0, 0, 0.00000000000000000000e+00) (0, 0, 0.00000000000000000000e+00) (0, 0, 0.00000000000000000000e+00) (0, 0, 0.00000000000000000000e+00) (0, 0, 0.00000000000000000000e+00) (0, 0, 0.00000000000000000000e+00) (0, 0, 0.00000000000000000000e+00) (0, 0, 0.00000000000000000000e+00) (0, 0, 0.00000000000000000000e+00) (0, 0, 0.00000000000000000000e+00) (0, 0, 0.00000000000000000000e+00) (0, 0, 0.00000000000000000000e+00) (0, 0, 0.00000000000000000000e+00) (0, 0, 0.00000000000000000000e+00) (0, 0, 0.00000000000000000000e+00) (0, 0, 0.00000000000000000000e+00) (0, 0, 0.00000000000000000000e+00) (0, 0, 0.00000000000000000000e+00) (0, 0, 0.00000000000000000000e+00) (0, 0, 0.00000000000000000000e+00) (0, 0, 0.00000000000000000000e+00) (0, 0, 0.00000000000000000000e+00) (0, 0, 0.00000000000000000000e+00) (0, 0, 0.00000000000000000000e+00) (0, 0, 0.00000000000000000000e+00) (0, 0, 0.00000000000000000000e+00) (0, 0, 0.00000000000000000000e+00) (0, 0, 0.00000000000000000000e+00) (0, 0, 0.00000000000000000000e+00) (0, 0, 0.00000000000000000000e+00) (0, 0, 0.00000000000000000000e+00) (0, 0, 0.00000000000000000000e+00) (0, 0, 0.00000000000000000000e+00) (0, 0, 0.00000000000000000000e+00) (0, 0, 0.00000000000000000000e+00) (0, 0, 0.00000000000000000000e+00) (0, 0, 0.00000000000000000000e+00) (0, 0, 0.00000000000000000000e+00) (0, 0, 0.00000000000000000000e+00) (0, 0, 0.00000000000000000000e+00) (0, 0, 0.00000000000000000000e+00) (0, 0, 0.00000000000000000000e+00) (0, 0, 0.00000000000000000000e+00) (0, 0, 0.00000000000000000000e+00) (0, 0, 0.00000000000000000000e+00) (0, 0, 0.00000000000000000000e+00) (0, 0, 0.00000000000000000000e+00) (0, 0, 0.00000000000000000000e+00) (0, 0, 0.00000000000000000000e+00) (0, 0, 0.00000000000000000000e+00) (0, 0, 0.00000000000000000000e+00) (0, 0, 0.00000000000000000000e+00) (0, 0, 0.00000000000000000000e+00) (0, 0, 0.00000000000000000000e+00) (0, 0, 0.00000000000000000000e+00) (0, 0, 0.00000000000000000000e+00) (0, 0, 0.00000000000000000000e+00) (0, 0, 0.00000000000000000000e+00) (0, 0, 0.00000000000000000000e+00) (0, 0, 0.00000000000000000000e+00) (0, 0, 0.00000000000000000000e+00) (0, 0, 0.00000000000000000000e+00) (0, 0, 0.00000000000000000000e+00) (0, 0, 0.00000000000000000000e+00) (0, 0, 0.00000000000000000000e+00) (0, 0, 0.00000000000000000000e+00) (0, 0, 0.00000000000000000000e+00) (0, 0, 0.00000000000000000000e+00) (0, 0, 0.00000000000000000000e+00) (0, 0, 0.00000000000000000000e+00) (0, 0, 0.00000000000000000000e+00) (0, 0, 0.00000000000000000000e+00) (0, 0, 0.00000000000000000000e+00) (0, 0, 0.00000000000000000000e+00) (0, 0, 0.00000000000000000000e+00) (0, 0, 0.00000000000000000000e+00) (0, 0, 0.00000000000000000000e+00) (0, 0, 0.00000000000000000000e+00) (0, 0, 0.00000000000000000000e+00) (0, 0, 0.00000000000000000000e+00) (0, 0, 0.00000000000000000000e+00) (0, 0, 0.00000000000000000000e+00) (0, 0, 0.00000000000000000000e+00) (0, 0, 0.00000000000000000000e+00) (0, 0, 0.00000000000000000000e+00) (0, 0, 0.00000000000000000000e+00) (0, 0, 0.00000000000000000000e+00) (0, 0, 0.00000000000000000000e+00) (0, 0, 0.00000000000000000000e+00) (0, 0, 0.00000000000000000000e+00) (0, 0, 0.00000000000000000000e+00) (0, 0, 0.00000000000000000000e+00) (0, 0, 0.00000000000000000000e+00) (0, 0, 0.00000000000000000000e+00) (0, 0, 0.00000000000000000000e+00) (0, 0, 0.00000000000000000000e+00) (0, 0, 0.00000000000000000000e+00) (0, 0, 0.00000000000000000000e+00) (0, 0, 0.00000000000000000000e+00) (0, 0, 0.00000000000000000000e+00) (0, 0, 0.00000000000000000000e+00) (0, 0, 0.00000000000000000000e+00) (0, 0, 0.00000000000000000000e+00) (0, 0, 0.00000000000000000000e+00) (0, 0, 0.00000000000000000000e+00) (0, 0, 0.00000000000000000000e+00) (0, 0, 0.00000000000000000000e+00) (0, 0, 0.00000000000000000000e+00) (0, 0, 0.00000000000000000000e+00) (0, 0, 0.00000000000000000000e+00) (0, 0, 0.00000000000000000000e+00) (0, 0, 0.00000000000000000000e+00) (0, 0, 0.00000000000000000000e+00) (0, 0, 0.00000000000000000000e+00) (0, 0, 0.00000000000000000000e+00) (0, 0, 0.00000000000000000000e+00) (0, 0, 0.00000000000000000000e+00) (0, 0, 0.00000000000000000000e+00) (0, 0, 0.00000000000000000000e+00) (0, 0, 0.00000000000000000000e+00) (0, 0, 0.00000000000000000000e+00) (0, 0, 0.00000000000000000000e+00) (0, 0, 0.00000000000000000000e+00) (0, 0, 0.00000000000000000000e+00) (0, 0, 0.00000000000000000000e+00) (0, 0, 0.00000000000000000000e+00) (0, 0, 0.00000000000000000000e+00) (0, 0, 0.00000000000000000000e+00) (0, 0, 0.00000000000000000000e+00) (0, 0, 0.00000000000000000000e+00) (0, 0, 0.00000000000000000000e+00) (0, 0, 0.00000000000000000000e+00) (0, 0, 0.00000000000000000000e+00) (0, 0, 0.00000000000000000000e+00) (0, 0, 0.00000000000000000000e+00) (0, 0, 0.00000000000000000000e+00) (0, 0, 0.00000000000000000000e+00) (0, 0, 0.00000000000000000000e+00) (0, 0, 0.00000000000000000000e+00) (0, 0, 0.00000000000000000000e+00) (0, 0, 0.00000000000000000000e+00) (0, 0, 0.00000000000000000000e+00) (0, 0, 0.00000000000000000000e+00) (0, 0, 0.00000000000000000000e+00) (0, 0, 0.00000000000000000000e+00) (0, 0, 0.00000000000000000000e+00) (0, 0, 0.00000000000000000000e+00) (0, 0, 0.00000000000000000000e+00) (0, 0, 0.00000000000000000000e+00) (0, 0, 0.00000000000000000000e+00) (0, 0, 0.00000000000000000000e+00) (0, 0, 0.00000000000000000000e+00) (0, 0, 0.00000000000000000000e+00) (0, 0, 0.00000000000000000000e+00) (0, 0, 0.00000000000000000000e+00) (0, 0, 0.00000000000000000000e+00) (0, 0, 0.00000000000000000000e+00) (0, 0, 0.00000000000000000000e+00) (0, 0, 0.00000000000000000000e+00) (0, 0, 0.00000000000000000000e+00) (0, 0, 0.00000000000000000000e+00) (0, 0, 0.00000000000000000000e+00) (0, 0, 0.00000000000000000000e+00) (0, 0, 0.00000000000000000000e+00) (0, 0, 0.00000000000000000000e+00) (0, 0, 0.00000000000000000000e+00) (0, 0, 0.00000000000000000000e+00) (0, 0, 0.00000000000000000000e+00) (0, 0, 0.00000000000000000000e+00) (0, 0, 0.00000000000000000000e+00) (0, 0, 0.00000000000000000000e+00) (0, 0, 0.00000000000000000000e+00) (0, 0, 0.00000000000000000000e+00) (0, 0, 0.00000000000000000000e+00) (0, 0, 0.00000000000000000000e+00) (0, 0, 0.00000000000000000000e+00) (0, 0, 0.00000000000000000000e+00) (0, 0, 0.00000000000000000000e+00) (0, 0, 0.00000000000000000000e+00) (0, 0, 0.00000000000000000000e+00) (0, 0, 0.00000000000000000000e+00) (0, 0, 0.00000000000000000000e+00) (0, 0, 0.00000000000000000000e+00) (0, 0, 0.00000000000000000000e+00) (0, 0, 0.00000000000000000000e+00) (0, 0, 0.00000000000000000000e+00) (0, 0, 0.00000000000000000000e+00) (0, 0, 0.00000000000000000000e+00) (0, 0, 0.00000000000000000000e+00) (0, 0, 0.00000000000000000000e+00) (0, 0, 0.00000000000000000000e+00) (0, 0, 0.00000000000000000000e+00) (0, 0, 0.00000000000000000000e+00) (0, 0, 0.00000000000000000000e+00) (0, 0, 0.00000000000000000000e+00) (0, 0, 0.00000000000000000000e+00) (0, 0, 0.00000000000000000000e+00) (0, 0, 0.00000000000000000000e+00) (0, 0, 0.00000000000000000000e+00) (0, 0, 0.00000000000000000000e+00) (0, 0, 0.00000000000000000000e+00) (0, 0, 0.00000000000000000000e+00) (0, 0, 0.00000000000000000000e+00) (0, 0, 0.00000000000000000000e+00) (0, 0, 0.00000000000000000000e+00) (0, 0, 0.00000000000000000000e+00) (0, 0, 0.00000000000000000000e+00) (0, 0, 0.00000000000000000000e+00) (0, 0, 0.00000000000000000000e+00) (0, 0, 0.00000000000000000000e+00) (0, 0, 0.00000000000000000000e+00) (0, 0, 0.00000000000000000000e+00) (0, 0, 0.00000000000000000000e+00) (0, 0, 0.00000000000000000000e+00) (0, 0, 0.00000000000000000000e+00) (0, 0, 0.00000000000000000000e+00) (0, 0, 0.00000000000000000000e+00) (0, 0, 0.00000000000000000000e+00) (0, 0, 0.00000000000000000000e+00) (0, 0, 0.00000000000000000000e+00) (0, 0, 0.00000000000000000000e+00) (0, 0, 0.00000000000000000000e+00) (0, 0, 0.00000000000000000000e+00) (0, 0, 0.00000000000000000000e+00) (0, 0, 0.00000000000000000000e+00) (0, 0, 0.00000000000000000000e+00) (0, 0, 0.00000000000000000000e+00) (0, 0, 0.00000000000000000000e+00) (0, 0, 0.00000000000000000000e+00) (0, 0, 0.00000000000000000000e+00) (0, 0, 0.00000000000000000000e+00) (0, 0, 0.00000000000000000000e+00) (0, 0, 0.00000000000000000000e+00) (0, 0, 0.00000000000000000000e+00) (0, 0, 0.00000000000000000000e+00) (0, 0, 0.00000000000000000000e+00) (0, 0, 0.00000000000000000000e+00) (0, 0, 0.00000000000000000000e+00) (0, 0, 0.00000000000000000000e+00) (0, 0, 0.00000000000000000000e+00) (0, 0, 0.00000000000000000000e+00) (0, 0, 0.00000000000000000000e+00) (0, 0, 0.00000000000000000000e+00) (0, 0, 0.00000000000000000000e+00) (0, 0, 0.00000000000000000000e+00) (0, 0, 0.00000000000000000000e+00) (0, 0, 0.00000000000000000000e+00) (0, 0, 0.00000000000000000000e+00) (0, 0, 0.00000000000000000000e+00) (0, 0, 0.00000000000000000000e+00) (0, 0, 0.00000000000000000000e+00) (0, 0, 0.00000000000000000000e+00) (0, 0, 0.00000000000000000000e+00) (0, 0, 0.00000000000000000000e+00) (0, 0, 0.00000000000000000000e+00) (0, 0, 0.00000000000000000000e+00) (0, 0, 0.00000000000000000000e+00) (0, 0, 0.00000000000000000000e+00) (0, 0, 0.00000000000000000000e+00) (0, 0, 0.00000000000000000000e+00) (0, 0, 0.00000000000000000000e+00) (0, 0, 0.00000000000000000000e+00) (0, 0, 0.00000000000000000000e+00) (0, 0, 0.00000000000000000000e+00) (0, 0, 0.00000000000000000000e+00) (0, 0, 0.00000000000000000000e+00) (0, 0, 0.00000000000000000000e+00) (0, 0, 0.00000000000000000000e+00) (0, 0, 0.00000000000000000000e+00) (0, 0, 0.00000000000000000000e+00) (0, 0, 0.00000000000000000000e+00) (0, 0, 0.00000000000000000000e+00) (0, 0, 0.00000000000000000000e+00) (0, 0, 0.00000000000000000000e+00) (0, 0, 0.00000000000000000000e+00) (0, 0, 0.00000000000000000000e+00) (0, 0, 0.00000000000000000000e+00) (0, 0, 0.00000000000000000000e+00) (0, 0, 0.00000000000000000000e+00) (0, 0, 0.00000000000000000000e+00) (0, 0, 0.00000000000000000000e+00) (0, 0, 0.00000000000000000000e+00) (0, 0, 0.00000000000000000000e+00) (0, 0, 0.00000000000000000000e+00) (0, 0, 0.00000000000000000000e+00) (0, 0, 0.00000000000000000000e+00) (0, 0, 0.00000000000000000000e+00) (0, 0, 0.00000000000000000000e+00) (0, 0, 0.00000000000000000000e+00) (0, 0, 0.00000000000000000000e+00) (0, 0, 0.00000000000000000000e+00) (0, 0, 0.00000000000000000000e+00) (0, 0, 0.00000000000000000000e+00) (0, 0, 0.00000000000000000000e+00) (0, 0, 0.00000000000000000000e+00) (0, 0, 0.00000000000000000000e+00) (0, 0, 0.00000000000000000000e+00) (0, 0, 0.00000000000000000000e+00) (0, 0, 0.00000000000000000000e+00) (0, 0, 0.00000000000000000000e+00) (0, 0, 0.00000000000000000000e+00) (0, 0, 0.00000000000000000000e+00) (0, 0, 0.00000000000000000000e+00) (0, 0, 0.00000000000000000000e+00) (0, 0, 0.00000000000000000000e+00) (0, 0, 0.00000000000000000000e+00) (0, 0, 0.00000000000000000000e+00) (0, 0, 0.00000000000000000000e+00) (0, 0, 0.00000000000000000000e+00) (0, 0, 0.00000000000000000000e+00) (0, 0, 0.00000000000000000000e+00) (0, 0, 0.00000000000000000000e+00) (0, 0, 0.00000000000000000000e+00) (0, 0, 0.00000000000000000000e+00) (0, 0, 0.00000000000000000000e+00) (0, 0, 0.00000000000000000000e+00) (0, 0, 0.00000000000000000000e+00) (0, 0, 0.00000000000000000000e+00) (0, 0, 0.00000000000000000000e+00) (0, 0, 0.00000000000000000000e+00) (0, 0, 0.00000000000000000000e+00) (0, 0, 0.00000000000000000000e+00) (0, 0, 0.00000000000000000000e+00) (0, 0, 0.00000000000000000000e+00) (0, 0, 0.00000000000000000000e+00) (0, 0, 0.00000000000000000000e+00) (0, 0, 0.00000000000000000000e+00) (0, 0, 0.00000000000000000000e+00) (0, 0, 0.00000000000000000000e+00) (0, 0, 0.00000000000000000000e+00) (0, 0, 0.00000000000000000000e+00) (0, 0, 0.00000000000000000000e+00) (0, 0, 0.00000000000000000000e+00) (0, 0, 0.00000000000000000000e+00) (0, 0, 0.00000000000000000000e+00) (0, 0, 0.00000000000000000000e+00) (0, 0, 0.00000000000000000000e+00) (0, 0, 0.00000000000000000000e+00) (0, 0, 0.00000000000000000000e+00) (0, 0, 0.00000000000000000000e+00) (0, 0, 0.00000000000000000000e+00) (0, 0, 0.00000000000000000000e+00) (0, 0, 0.00000000000000000000e+00) (0, 0, 0.00000000000000000000e+00) (0, 0, 0.00000000000000000000e+00) (0, 0, 0.00000000000000000000e+00) (0, 0, 0.00000000000000000000e+00) (0, 0, 0.00000000000000000000e+00) (0, 0, 0.00000000000000000000e+00) (0, 0, 0.00000000000000000000e+00) (0, 0, 0.00000000000000000000e+00) (0, 0, 0.00000000000000000000e+00) (0, 0, 0.00000000000000000000e+00) (0, 0, 0.00000000000000000000e+00) (0, 0, 0.00000000000000000000e+00) (0, 0, 0.00000000000000000000e+00) (0, 0, 0.00000000000000000000e+00) (0, 0, 0.00000000000000000000e+00) (0, 0, 0.00000000000000000000e+00) (0, 0, 0.00000000000000000000e+00) (0, 0, 0.00000000000000000000e+00) (0, 0, 0.00000000000000000000e+00) (0, 0, 0.00000000000000000000e+00) (0, 0, 0.00000000000000000000e+00) (0, 0, 0.00000000000000000000e+00) (0, 0, 0.00000000000000000000e+00) (0, 0, 0.00000000000000000000e+00) (0, 0, 0.00000000000000000000e+00) (0, 0, 0.00000000000000000000e+00) (0, 0, 0.00000000000000000000e+00) (0, 0, 0.00000000000000000000e+00) (0, 0, 0.00000000000000000000e+00) (0, 0, 0.00000000000000000000e+00) (0, 0, 0.00000000000000000000e+00) (0, 0, 0.00000000000000000000e+00) (0, 0, 0.00000000000000000000e+00) (0, 0, 0.00000000000000000000e+00) (0, 0, 0.00000000000000000000e+00) (0, 0, 0.00000000000000000000e+00) (0, 0, 0.00000000000000000000e+00) (0, 0, 0.00000000000000000000e+00) (0, 0, 0.00000000000000000000e+00) (0, 0, 0.00000000000000000000e+00) (0, 0, 0.00000000000000000000e+00) (0, 0, 0.00000000000000000000e+00) (0, 0, 0.00000000000000000000e+00) (0, 0, 0.00000000000000000000e+00) (0, 0, 0.00000000000000000000e+00) (0, 0, 0.00000000000000000000e+00) (0, 0, 0.00000000000000000000e+00) (0, 0, 0.00000000000000000000e+00) (0, 0, 0.00000000000000000000e+00) (0, 0, 0.00000000000000000000e+00) (0, 0, 0.00000000000000000000e+00) (0, 0, 0.00000000000000000000e+00) (0, 0, 0.00000000000000000000e+00) (0, 0, 0.00000000000000000000e+00) (0, 0, 0.00000000000000000000e+00) (0, 0, 0.00000000000000000000e+00) (0, 0, 0.00000000000000000000e+00) (0, 0, 0.00000000000000000000e+00) (0, 0, 0.00000000000000000000e+00) (0, 0, 0.00000000000000000000e+00) (0, 0, 0.00000000000000000000e+00) (0, 0, 0.00000000000000000000e+00) (0, 0, 0.00000000000000000000e+00) (0, 0, 0.00000000000000000000e+00) (0, 0, 0.00000000000000000000e+00) (0, 0, 0.00000000000000000000e+00) (0, 0, 0.00000000000000000000e+00) (0, 0, 0.00000000000000000000e+00) (0, 0, 0.00000000000000000000e+00) (0, 0, 0.00000000000000000000e+00) (0, 0, 0.00000000000000000000e+00) (0, 0, 0.00000000000000000000e+00) (0, 0, 0.00000000000000000000e+00) (0, 0, 0.00000000000000000000e+00) (0, 0, 0.00000000000000000000e+00) (0, 0, 0.00000000000000000000e+00) (0, 0, 0.00000000000000000000e+00) (0, 0, 0.00000000000000000000e+00) (0, 0, 0.00000000000000000000e+00) (0, 0, 0.00000000000000000000e+00) (0, 0, 0.00000000000000000000e+00) (0, 0, 0.00000000000000000000e+00) (0, 0, 0.00000000000000000000e+00) (0, 0, 0.00000000000000000000e+00) (0, 0, 0.00000000000000000000e+00) (0, 0, 0.00000000000000000000e+00) (0, 0, 0.00000000000000000000e+00) (0, 0, 0.00000000000000000000e+00) (0, 0, 0.00000000000000000000e+00) (0, 0, 0.00000000000000000000e+00) (0, 0, 0.00000000000000000000e+00) (0, 0, 0.00000000000000000000e+00) (0, 0, 0.00000000000000000000e+00) (0, 0, 0.00000000000000000000e+00) (0, 0, 0.00000000000000000000e+00) (0, 0, 0.00000000000000000000e+00) (0, 0, 0.00000000000000000000e+00) (0, 0, 0.00000000000000000000e+00) (0, 0, 0.00000000000000000000e+00) (0, 0, 0.00000000000000000000e+00) (0, 0, 0.00000000000000000000e+00) (0, 0, 0.00000000000000000000e+00) (0, 0, 0.00000000000000000000e+00) (0, 0, 0.00000000000000000000e+00) (0, 0, 0.00000000000000000000e+00) (0, 0, 0.00000000000000000000e+00) (0, 0, 0.00000000000000000000e+00) (0, 0, 0.00000000000000000000e+00) (0, 0, 0.00000000000000000000e+00) (0, 0, 0.00000000000000000000e+00) (0, 0, 0.00000000000000000000e+00) (0, 0, 0.00000000000000000000e+00) (0, 0, 0.00000000000000000000e+00) (0, 0, 0.00000000000000000000e+00) (0, 0, 0.00000000000000000000e+00) (0, 0, 0.00000000000000000000e+00) (0, 0, 0.00000000000000000000e+00) (0, 0, 0.00000000000000000000e+00) (0, 0, 0.00000000000000000000e+00) (0, 0, 0.00000000000000000000e+00) (0, 0, 0.00000000000000000000e+00) (0, 0, 0.00000000000000000000e+00) (0, 0, 0.00000000000000000000e+00) (0, 0, 0.00000000000000000000e+00) (0, 0, 0.00000000000000000000e+00) (0, 0, 0.00000000000000000000e+00) (0, 0, 0.00000000000000000000e+00) (0, 0, 0.00000000000000000000e+00) (0, 0, 0.00000000000000000000e+00) (0, 0, 0.00000000000000000000e+00) (0, 0, 0.00000000000000000000e+00) (0, 0, 0.00000000000000000000e+00) (0, 0, 0.00000000000000000000e+00) (0, 0, 0.00000000000000000000e+00) (0, 0, 0.00000000000000000000e+00) (0, 0, 0.00000000000000000000e+00) (0, 0, 0.00000000000000000000e+00) (0, 0, 0.00000000000000000000e+00) (0, 0, 0.00000000000000000000e+00) (0, 0, 0.00000000000000000000e+00) (0, 0, 0.00000000000000000000e+00) (0, 0, 0.00000000000000000000e+00) (0, 0, 0.00000000000000000000e+00) (0, 0, 0.00000000000000000000e+00) (0, 0, 0.00000000000000000000e+00) (0, 0, 0.00000000000000000000e+00) (0, 0, 0.00000000000000000000e+00) (0, 0, 0.00000000000000000000e+00) (0, 0, 0.00000000000000000000e+00) (0, 0, 0.00000000000000000000e+00) (0, 0, 0.00000000000000000000e+00) (0, 0, 0.00000000000000000000e+00) (0, 0, 0.00000000000000000000e+00) (0, 0, 0.00000000000000000000e+00) (0, 0, 0.00000000000000000000e+00) (0, 0, 0.00000000000000000000e+00) (0, 0, 0.00000000000000000000e+00) (0, 0, 0.00000000000000000000e+00) (0, 0, 0.00000000000000000000e+00) (0, 0, 0.00000000000000000000e+00) (0, 0, 0.00000000000000000000e+00) (0, 0, 0.00000000000000000000e+00) (0, 0, 0.00000000000000000000e+00) (0, 0, 0.00000000000000000000e+00) (0, 0, 0.00000000000000000000e+00) (0, 0, 0.00000000000000000000e+00) (0, 0, 0.00000000000000000000e+00) (0, 0, 0.00000000000000000000e+00) (0, 0, 0.00000000000000000000e+00) (0, 0, 0.00000000000000000000e+00) (0, 0, 0.00000000000000000000e+00) (0, 0, 0.00000000000000000000e+00) (0, 0, 0.00000000000000000000e+00) (0, 0, 0.00000000000000000000e+00) (0, 0, 0.00000000000000000000e+00) (0, 0, 0.00000000000000000000e+00) (0, 0, 0.00000000000000000000e+00) (0, 0, 0.00000000000000000000e+00) (0, 0, 0.00000000000000000000e+00) (0, 0, 0.00000000000000000000e+00) (0, 0, 0.00000000000000000000e+00) (0, 0, 0.00000000000000000000e+00) (0, 0, 0.00000000000000000000e+00) (0, 0, 0.00000000000000000000e+00) (0, 0, 0.00000000000000000000e+00) (0, 0, 0.00000000000000000000e+00) (0, 0, 0.00000000000000000000e+00) (0, 0, 0.00000000000000000000e+00) (0, 0, 0.00000000000000000000e+00) (0, 0, 0.00000000000000000000e+00) (0, 0, 0.00000000000000000000e+00) (0, 0, 0.00000000000000000000e+00) (0, 0, 0.00000000000000000000e+00) (0, 0, 0.00000000000000000000e+00) (0, 0, 0.00000000000000000000e+00) (0, 0, 0.00000000000000000000e+00) (0, 0, 0.00000000000000000000e+00) (0, 0, 0.00000000000000000000e+00) (0, 0, 0.00000000000000000000e+00) (0, 0, 0.00000000000000000000e+00) (0, 0, 0.00000000000000000000e+00) (0, 0, 0.00000000000000000000e+00) (0, 0, 0.00000000000000000000e+00) (0, 0, 0.00000000000000000000e+00) (0, 0, 0.00000000000000000000e+00) (0, 0, 0.00000000000000000000e+00) (0, 0, 0.00000000000000000000e+00) (0, 0, 0.00000000000000000000e+00) (0, 0, 0.00000000000000000000e+00) (0, 0, 0.00000000000000000000e+00) (0, 0, 0.00000000000000000000e+00) (0, 0, 0.00000000000000000000e+00) (0, 0, 0.00000000000000000000e+00) (0, 0, 0.00000000000000000000e+00) (0, 0, 0.00000000000000000000e+00) (0, 0, 0.00000000000000000000e+00) (0, 0, 0.00000000000000000000e+00) (0, 0, 0.00000000000000000000e+00) (0, 0, 0.00000000000000000000e+00) (0, 0, 0.00000000000000000000e+00) (0, 0, 0.00000000000000000000e+00) (0, 0, 0.00000000000000000000e+00) (0, 0, 0.00000000000000000000e+00) (0, 0, 0.00000000000000000000e+00) (0, 0, 0.00000000000000000000e+00) (0, 0, 0.00000000000000000000e+00) (0, 0, 0.00000000000000000000e+00) (0, 0, 0.00000000000000000000e+00) (0, 0, 0.00000000000000000000e+00) (0, 0, 0.00000000000000000000e+00) (0, 0, 0.00000000000000000000e+00) (0, 0, 0.00000000000000000000e+00) (0, 0, 0.00000000000000000000e+00) (0, 0, 0.00000000000000000000e+00) (0, 0, 0.00000000000000000000e+00) (0, 0, 0.00000000000000000000e+00) (0, 0, 0.00000000000000000000e+00) (0, 0, 0.00000000000000000000e+00) (0, 0, 0.00000000000000000000e+00) (0, 0, 0.00000000000000000000e+00) (0, 0, 0.00000000000000000000e+00) (0, 0, 0.00000000000000000000e+00) (0, 0, 0.00000000000000000000e+00) (0, 0, 0.00000000000000000000e+00) (0, 0, 0.00000000000000000000e+00) (0, 0, 0.00000000000000000000e+00) (0, 0, 0.00000000000000000000e+00) (0, 0, 0.00000000000000000000e+00) (0, 0, 0.00000000000000000000e+00) (0, 0, 0.00000000000000000000e+00) (0, 0, 0.00000000000000000000e+00) (0, 0, 0.00000000000000000000e+00) (0, 0, 0.00000000000000000000e+00) (0, 0, 0.00000000000000000000e+00) (0, 0, 0.00000000000000000000e+00) (0, 0, 0.00000000000000000000e+00) (0, 0, 0.00000000000000000000e+00) (0, 0, 0.00000000000000000000e+00) (0, 0, 0.00000000000000000000e+00) (0, 0, 0.00000000000000000000e+00) (0, 0, 0.00000000000000000000e+00) (0, 0, 0.00000000000000000000e+00) (0, 0, 0.00000000000000000000e+00) (0, 0, 0.00000000000000000000e+00) (0, 0, 0.00000000000000000000e+00) (0, 0, 0.00000000000000000000e+00) (0, 0, 0.00000000000000000000e+00) (0, 0, 0.00000000000000000000e+00) (0, 0, 0.00000000000000000000e+00) (0, 0, 0.00000000000000000000e+00) (0, 0, 0.00000000000000000000e+00) (0, 0, 0.00000000000000000000e+00) (0, 0, 0.00000000000000000000e+00) (0, 0, 0.00000000000000000000e+00) (0, 0, 0.00000000000000000000e+00) (0, 0, 0.00000000000000000000e+00) (0, 0, 0.00000000000000000000e+00) (0, 0, 0.00000000000000000000e+00) (0, 0, 0.00000000000000000000e+00) (0, 0, 0.00000000000000000000e+00) (0, 0, 0.00000000000000000000e+00) (0, 0, 0.00000000000000000000e+00) (0, 0, 0.00000000000000000000e+00) (0, 0, 0.00000000000000000000e+00) (0, 0, 0.00000000000000000000e+00) (0, 0, 0.00000000000000000000e+00) (0, 0, 0.00000000000000000000e+00) (0, 0, 0.00000000000000000000e+00) (0, 0, 0.00000000000000000000e+00) (0, 0, 0.00000000000000000000e+00) (0, 0, 0.00000000000000000000e+00) (0, 0, 0.00000000000000000000e+00) (0, 0, 0.00000000000000000000e+00) (0, 0, 0.00000000000000000000e+00) (0, 0, 0.00000000000000000000e+00) (0, 0, 0.00000000000000000000e+00) (0, 0, 0.00000000000000000000e+00) (0, 0, 0.00000000000000000000e+00) (0, 0, 0.00000000000000000000e+00) (0, 0, 0.00000000000000000000e+00) (0, 0, 0.00000000000000000000e+00) (0, 0, 0.00000000000000000000e+00) (0, 0, 0.00000000000000000000e+00) (0, 0, 0.00000000000000000000e+00) (0, 0, 0.00000000000000000000e+00) (0, 0, 0.00000000000000000000e+00) (0, 0, 0.00000000000000000000e+00) (0, 0, 0.00000000000000000000e+00) (0, 0, 0.00000000000000000000e+00) (0, 0, 0.00000000000000000000e+00) (0, 0, 0.00000000000000000000e+00) (0, 0, 0.00000000000000000000e+00) (0, 0, 0.00000000000000000000e+00) (0, 0, 0.00000000000000000000e+00) (0, 0, 0.00000000000000000000e+00) (0, 0, 0.00000000000000000000e+00) (0, 0, 0.00000000000000000000e+00) (0, 0, 0.00000000000000000000e+00) (0, 0, 0.00000000000000000000e+00) (0, 0, 0.00000000000000000000e+00) (0, 0, 0.00000000000000000000e+00) (0, 0, 0.00000000000000000000e+00) (0, 0, 0.00000000000000000000e+00) (0, 0, 0.00000000000000000000e+00) (0, 0, 0.00000000000000000000e+00) (0, 0, 0.00000000000000000000e+00) (0, 0, 0.00000000000000000000e+00) (0, 0, 0.00000000000000000000e+00) (0, 0, 0.00000000000000000000e+00) (0, 0, 0.00000000000000000000e+00) (0, 0, 0.00000000000000000000e+00) (0, 0, 0.00000000000000000000e+00) (0, 0, 0.00000000000000000000e+00) (0, 0, 0.00000000000000000000e+00) (0, 0, 0.00000000000000000000e+00) (0, 0, 0.00000000000000000000e+00) (0, 0, 0.00000000000000000000e+00) (0, 0, 0.00000000000000000000e+00) (0, 0, 0.00000000000000000000e+00) (0, 0, 0.00000000000000000000e+00) (0, 0, 0.00000000000000000000e+00) (0, 0, 0.00000000000000000000e+00) (0, 0, 0.00000000000000000000e+00) (0, 0, 0.00000000000000000000e+00) (0, 0, 0.00000000000000000000e+00) (0, 0, 0.00000000000000000000e+00) (0, 0, 0.00000000000000000000e+00) (0, 0, 0.00000000000000000000e+00) (0, 0, 0.00000000000000000000e+00) (0, 0, 0.00000000000000000000e+00) (0, 0, 0.00000000000000000000e+00) (0, 0, 0.00000000000000000000e+00) (0, 0, 0.00000000000000000000e+00) (0, 0, 0.00000000000000000000e+00) (0, 0, 0.00000000000000000000e+00) (0, 0, 0.00000000000000000000e+00) (0, 0, 0.00000000000000000000e+00) (0, 0, 0.00000000000000000000e+00) (0, 0, 0.00000000000000000000e+00) (0, 0, 0.00000000000000000000e+00) (0, 0, 0.00000000000000000000e+00) (0, 0, 0.00000000000000000000e+00) (0, 0, 0.00000000000000000000e+00) (0, 0, 0.00000000000000000000e+00) (0, 0, 0.00000000000000000000e+00) (0, 0, 0.00000000000000000000e+00) (0, 0, 0.00000000000000000000e+00) (0, 0, 0.00000000000000000000e+00) (0, 0, 0.00000000000000000000e+00) (0, 0, 0.00000000000000000000e+00) (785, 4, 5.00000000000000000000e-01) (785, 4, 5.00000000000000000000e-01) (785, 4, 5.00000000000000000000e-01) (785, 4, 5.00000000000000000000e-01) (785, 4, 5.00000000000000000000e-01) (785, 4, 5.00000000000000000000e-01) (785, 4, 5.00000000000000000000e-01) (785, 4, 5.00000000000000000000e-01) (785, 4, 5.00000000000000000000e-01) (785, 4, 5.00000000000000000000e-01) (785, 4, 5.00000000000000000000e-01) (785, 4, 5.00000000000000000000e-01) (785, 4, 5.00000000000000000000e-01) (785, 4, 5.00000000000000000000e-01) (785, 4, 5.00000000000000000000e-01) (785, 4, 5.00000000000000000000e-01) (785, 4, 5.00000000000000000000e-01) (785, 4, 5.00000000000000000000e-01) (785, 4, 5.00000000000000000000e-01) (785, 4, 5.00000000000000000000e-01) (785, 4, 5.00000000000000000000e-01) (785, 4, 5.00000000000000000000e-01) (785, 4, 5.00000000000000000000e-01) (785, 4, 5.00000000000000000000e-01) (785, 4, 5.00000000000000000000e-01) (785, 4, 5.00000000000000000000e-01) (785, 4, 5.00000000000000000000e-01) (785, 4, 5.00000000000000000000e-01) (785, 4, 5.00000000000000000000e-01) (785, 4, 5.00000000000000000000e-01) (785, 4, 5.00000000000000000000e-01) (785, 4, 5.00000000000000000000e-01) (785, 4, 5.00000000000000000000e-01) (785, 4, 5.00000000000000000000e-01) (785, 4, 5.00000000000000000000e-01) (785, 4, 5.00000000000000000000e-01) (785, 4, 5.00000000000000000000e-01) (785, 4, 5.00000000000000000000e-01) (785, 4, 5.00000000000000000000e-01) (785, 4, 5.00000000000000000000e-01) (785, 4, 5.00000000000000000000e-01) (785, 4, 5.00000000000000000000e-01) (785, 4, 5.00000000000000000000e-01) (785, 4, 5.00000000000000000000e-01) (785, 4, 5.00000000000000000000e-01) (785, 4, 5.00000000000000000000e-01) (785, 4, 5.00000000000000000000e-01) (785, 4, 5.00000000000000000000e-01) (785, 4, 5.00000000000000000000e-01) (785, 4, 5.00000000000000000000e-01) (785, 4, 5.00000000000000000000e-01) (785, 4, 5.00000000000000000000e-01) (785, 4, 5.00000000000000000000e-01) (785, 4, 5.00000000000000000000e-01) (785, 4, 5.00000000000000000000e-01) (785, 4, 5.00000000000000000000e-01) (785, 4, 5.00000000000000000000e-01) (785, 4, 5.00000000000000000000e-01) (785, 4, 5.00000000000000000000e-01) (785, 4, 5.00000000000000000000e-01) (785, 4, 5.00000000000000000000e-01) (785, 4, 5.00000000000000000000e-01) (785, 4, 5.00000000000000000000e-01) (785, 4, 5.00000000000000000000e-01) (785, 4, 5.00000000000000000000e-01) (785, 4, 5.00000000000000000000e-01) (785, 4, 5.00000000000000000000e-01) (785, 4, 5.00000000000000000000e-01) (785, 4, 5.00000000000000000000e-01) (785, 4, 5.00000000000000000000e-01) (785, 4, 5.00000000000000000000e-01) (785, 4, 5.00000000000000000000e-01) (785, 4, 5.00000000000000000000e-01) (785, 4, 5.00000000000000000000e-01) (785, 4, 5.00000000000000000000e-01) (785, 4, 5.00000000000000000000e-01) (785, 4, 5.00000000000000000000e-01) (785, 4, 5.00000000000000000000e-01) (785, 4, 5.00000000000000000000e-01) (785, 4, 5.00000000000000000000e-01) (785, 4, 5.00000000000000000000e-01) (785, 4, 5.00000000000000000000e-01) (785, 4, 5.00000000000000000000e-01) (785, 4, 5.00000000000000000000e-01) (785, 4, 5.00000000000000000000e-01) (785, 4, 5.00000000000000000000e-01) (785, 4, 5.00000000000000000000e-01) (785, 4, 5.00000000000000000000e-01) (785, 4, 5.00000000000000000000e-01) (785, 4, 5.00000000000000000000e-01) (785, 4, 5.00000000000000000000e-01) (785, 4, 5.00000000000000000000e-01) (785, 4, 5.00000000000000000000e-01) (785, 4, 5.00000000000000000000e-01) (785, 4, 5.00000000000000000000e-01) (785, 4, 5.00000000000000000000e-01) (785, 4, 5.00000000000000000000e-01) (785, 4, 5.00000000000000000000e-01) (785, 4, 5.00000000000000000000e-01) (785, 4, 5.00000000000000000000e-01) (0, 0, 0.00000000000000000000e+00) (101, 5, 5.00000000000000000000e-01) (0, 5, 0.00000000000000000000e+00) 
connections (connected_to_neuron, weight)=(0, 8.72376034439923286889e-01) (1, 8.98977155269505501245e-01) (2, 7.20521981300236702417e-01) (3, 8.82267723263623238061e-01) (4, 7.69842805744530678247e-01) (5, 7.37568395615937233423e-01) (6, 7.38878550411583900903e-01) (7, 8.56311539591671944116e-01) (8, 7.44758015902163506006e-01) (9, 8.09411751510025978540e-01) (10, 8.47078169168354988550e-01) (11, 8.48232249201657295679e-01) (12, 8.44012419165493965600e-01) (13, 7.35641384900929451440e-01) (14, 8.60795492709996223901e-01) (15, 7.19414951683403969263e-01) (16, 8.78181899370076179956e-01) (17, 7.63165088774086952661e-01) (18, 7.69548254491211891626e-01) (19, 8.13758450032593727563e-01) (20, 7.13325554908635139917e-01) (21, 8.22816001654984474634e-01) (22, 7.30197551132561684106e-01) (23, 7.37362133742691994165e-01) (24, 7.20239477635743141626e-01) (25, 7.16396043480755806421e-01) (26, 8.61802617491604805444e-01) (27, 8.45987240256192207788e-01) (28, 7.91856373132588386987e-01) (29, 8.17008363486649513696e-01) (30, 8.84000355781437874292e-01) (31, 7.62640143216969490503e-01) (32, 8.14393254400612831567e-01) (33, 7.02930072726132393335e-01) (34, 7.43315598399760246728e-01) (35, 8.82643798769833565210e-01) (36, 7.38906206966759682153e-01) (37, 7.80601891161324501489e-01) (38, 8.37363059104802132104e-01) (39, 7.82071957768322945093e-01) (40, 8.88024872739700987800e-01) (41, 7.82452455361275389656e-01) (42, 7.28315434058098509773e-01) (43, 8.30445012648491576179e-01) (44, 8.16501571436314299568e-01) (45, 8.87915173949124336694e-01) (46, 8.48664218963505745386e-01) (47, 7.93091206450848296150e-01) (48, 7.49091489811329558357e-01) (49, 7.16620209099175453638e-01) (50, 7.05653908134819984888e-01) (51, 7.61221291900994301294e-01) (52, 8.37843934477688789819e-01) (53, 7.34259190441491127466e-01) (54, 7.96991164268376350854e-01) (55, 8.56491158188702583764e-01) (56, 7.49062976272227287744e-01) (57, 7.57201524855019569848e-01) (58, 8.00886141539933205102e-01) (59, 8.39327091754796028589e-01) (60, 8.72617626966359138940e-01) (61, 7.83294232965828896020e-01) (62, 9.00374973596455574487e-01) (63, 7.85418609560849190210e-01) (64, 7.84632044316651344751e-01) (65, 7.41701795359043791755e-01) (66, 7.66073627968220427498e-01) (67, 8.21549473901180937752e-01) (68, 8.20711425145058348640e-01) (69, 6.99165814800724816358e-01) (70, 6.98450631211329775461e-01) (71, 7.96565624738286515161e-01) (72, 7.80422517343029809034e-01) (73, 7.26470240636334252393e-01) (74, 7.36789791484265044197e-01) (75, 8.98406943877129271492e-01) (76, 7.15471758146671965584e-01) (77, 8.83861741621880248054e-01) (78, 7.90302401979355528816e-01) (79, 7.63367491413740828499e-01) (80, 8.98889696796326354011e-01) (81, 7.94760557295205116723e-01) (82, 8.23393034221055031274e-01) (83, 8.35537890375973701929e-01) (84, 8.27427486361386299585e-01) (85, 7.18791934133889198755e-01) (86, 7.90436769307972908472e-01) (87, 8.74898204983593941186e-01) (88, 7.74401197613598823999e-01) (89, 8.89334133465676024421e-01) (90, 8.12236523826508238777e-01) (91, 7.45030047942785933479e-01) (92, 7.71036102075962737068e-01) (93, 8.00044323170732041284e-01) (94, 8.17881475055764695092e-01) (95, 8.02598341288642935787e-01) (96, 8.04840019968278808093e-01) (97, 7.45690083570713424521e-01) (98, 5.98353758564706184053e-01) (99, 4.95817332714966196860e-01) (100, 7.47039577462683124232e-01) (101, 6.48370035032119762519e-01) (102, 7.50492736736621868232e-01) (103, 7.38756253697594456042e-01) (104, 7.96305510201142263682e-01) (105, 7.14077102454798717801e-01) (106, 7.74366434967940442391e-01) (107, 8.17888634683014870141e-01) (108, 8.95645758707909300789e-01) (109, 8.63002652706028938745e-01) (110, 8.80060369552495003198e-01) (111, 8.93736208261372566675e-01) (112, 7.56170949370982170556e-01) (113, 8.01861139418007851098e-01) (114, 8.27681819380642891382e-01) (115, 8.81609669526009276375e-01) (116, 8.18664311070828154548e-01) (117, 7.11458934093277317601e-01) (118, 8.31091683716354667766e-01) (119, 8.13809965423988090905e-01) (120, -6.12521291597687200792e-01) (121, -1.35763337001196604525e+00) (122, -1.15579878294575433273e+00) (123, -1.11699776852238374936e+00) (124, -4.69261201196978117167e+00) (125, -2.40426313644447064988e+00) (126, -4.34720329489856105454e+00) (127, -1.44714790091203671096e+00) (128, -7.15612693742237598871e-02) (129, -3.12446925381150396317e-02) (130, 7.50059669367246995009e-01) (131, 8.50434592275589040788e-01) (132, 8.72117459632597347152e-01) (133, 1.03440590031134260762e+00) (134, 8.89764006482865799086e-01) (135, 9.43590200602712259048e-01) (136, 9.13754803553145311668e-01) (137, 7.96486663104416847681e-01) (138, 8.92606547673134520515e-01) (139, 8.78378531535057738289e-01) (140, 7.57897055180193901514e-01) (141, 8.71471161426426887964e-01) (142, 8.70522460539726927742e-01) (143, 8.12079227168945982918e-01) (144, 7.67764999280501680978e-01) (145, 7.18948733679698692711e-01) (146, -6.28178529986930384021e-02) (147, -4.69022216287537752066e+00) (148, -4.82180696620914961414e+00) (149, -4.82217886397311623625e+00) (150, -3.54141087080582250834e+00) (151, -1.12913750621507369409e+00) (152, -6.63104512584295924249e-01) (153, -3.96798788570822047461e+00) (154, -2.98812870916072670369e+00) (155, -9.08039590593951784214e-01) (156, -5.03702984926640895402e-01) (157, -4.92205327077967436100e-01) (158, 8.82363891213991946572e-02) (159, 9.97426999353087540001e-01) (160, 1.40704558823253189637e+00) (161, 1.28879761377011958778e+00) (162, 1.37806879769325618668e+00) (163, 1.34977640165265166949e+00) (164, 1.18356776786860695694e+00) (165, 8.28529287256678625972e-01) (166, 8.60956022919537544702e-01) (167, 8.59308163107754707788e-01) (168, 8.94664386690976143335e-01) (169, 8.52366799892308235620e-01) (170, 8.36490923942448616479e-01) (171, 7.50572668959288313850e-01) (172, 7.75163947668798369861e-01) (173, 6.27577676281358187715e-01) (174, -1.41951046181493500953e+00) (175, -1.38896962297731141334e+00) (176, -2.39023351586762844434e+00) (177, 1.91864918003638001975e-01) (178, 9.02892762274852711535e-01) (179, 2.29418374320268458888e-01) (180, -5.07613141570259607249e-01) (181, -1.96843101093194161599e+00) (182, -4.77826688275457112098e+00) (183, 7.55324948683893104828e-01) (184, 8.08226654397379840056e-01) (185, 1.32876864917454406978e+00) (186, 6.87921739726236602941e-01) (187, 2.06904020271254296404e+00) (188, 1.89711639988666558310e+00) (189, 3.76849332866479969084e+00) (190, 4.24161635555963822952e+00) (191, 4.54184139295301037009e+00) (192, 1.42444222252241914362e+00) (193, 1.15469010609348310403e+00) (194, 7.45890413178919797765e-01) (195, 7.80600147725464821313e-01) (196, 7.45541027219416618799e-01) (197, 8.78239492358090401147e-01) (198, 7.37919523020176604255e-01) (199, 7.35538029356465172803e-01) (200, 7.57961484279852992785e-01) (201, 4.88015953844437438969e-02) (202, -1.49337305171066003773e+00) (203, 6.54401196598751289102e-01) (204, 7.82831657462975782913e-01) (205, 7.90581692176687722551e-01) (206, 8.83739527508241806686e-01) (207, 1.43599895312209047127e+00) (208, -3.40012338242391054521e+00) (209, 1.61408693529830538083e+00) (210, -6.16587409966777055814e+00) (211, -3.30545200541584982545e+00) (212, 2.72435077910182599226e+01) (213, -9.39032333824139087142e-02) (214, -4.13989645985341780943e+01) (215, 5.18266411531231985244e-01) (216, 1.18355807659267076026e+00) (217, 1.93216537331056725790e+00) (218, 4.03294677511976207285e+00) (219, 4.54148780556834363864e+00) (220, 1.51222924948727643901e+00) (221, 1.18617642029572478712e+00) (222, 9.03659154799899000388e-01) (223, 7.97466146232010841821e-01) (224, 8.01564710618378639673e-01) (225, 8.92435321987988472436e-01) (226, 8.76077524025826170906e-01) (227, 7.96225148059507947806e-01) (228, 1.33750475397512169629e-02) (229, -1.58227819056848439949e+00) (230, 7.07547565801393774088e-01) (231, 7.97862016862719403143e-01) (232, 9.30680818091479067355e-01) (233, 1.13522890040410251444e+00) (234, 9.78289619087284290089e-01) (235, -4.90364229054285694076e+00) (236, 4.18667242680602791349e-01) (237, 2.10543447625668012080e-01) (238, 7.27105182214595746615e-01) (239, 2.27085685638421530541e+00) (240, -1.33354046369237480008e+01) (241, -2.50437747047354164476e-01) (242, 1.84028351204830742383e-01) (243, 6.83723968765229339617e-01) (244, 7.73699316603955966620e-01) (245, 1.29361624862312285522e+00) (246, 1.41610296199628571401e+00) (247, 1.63658433254635959919e+00) (248, 1.74989054174278635401e+00) (249, 1.24486680098071045286e+00) (250, 9.19100164458998780681e-01) (251, 7.93449106098534584497e-01) (252, 8.54496637762906074975e-01) (253, 8.63266850293995857690e-01) (254, 8.88926482398895934089e-01) (255, 7.05180763073345762137e-01) (256, 7.83057349410277492296e-01) (257, 6.89217960341226842935e-01) (258, 8.94421771837921930626e-01) (259, 8.65389710827817237870e-01) (260, 1.26639331495474349865e+00) (261, 1.54508075290075819197e+00) (262, -1.27617000401717928249e+00) (263, -2.65968541662771895684e-01) (264, 1.00255986892728010673e+00) (265, 3.52698425944852758107e+01) (266, -2.07628038546854432056e+00) (267, -4.52478793764112996456e+00) (268, -2.28354832846427724391e+00) (269, -4.80652536936266694401e-01) (270, -5.12420252866288339355e-01) (271, -4.49384716946861217934e+00) (272, -1.34091491096617176915e+00) (273, -1.85337501763849465952e+00) (274, 8.40654794500109714406e-01) (275, 1.74145073278287920715e+00) (276, 5.74420832035734552079e+00) (277, 1.24621849181037536169e+00) (278, 8.78536388227614373214e-01) (279, 7.88046295226933479761e-01) (280, 7.26672703803898811792e-01) (281, 8.37373683632733345483e-01) (282, 8.79506638844399168953e-01) (283, 8.67236746203834507618e-01) (284, 7.47910715719614649366e-01) (285, 8.10291931451195046598e-01) (286, 7.61722888431631162121e-01) (287, 8.94420969295193657445e-01) (288, 1.19822348742230277985e+00) (289, 1.50029725781596434686e+00) (290, -3.45947939279708016613e+00) (291, -5.71408762109374013249e+00) (292, 1.59596749219766165240e+00) (293, 1.15426269035306052757e+01) (294, 1.03660050389319291497e+01) (295, 2.54344146752827029445e+01) (296, -1.95778426748350966591e+01) (297, -1.72428774788949690233e+00) (298, -1.74665269841926940053e+00) (299, -9.34955907316212364577e-01) (300, -5.25653894848395975004e-01) (301, 2.29689143929334456118e+01) (302, 1.07122809003454531052e+01) (303, 9.80861491868656010240e-01) (304, 9.86714266408529327990e-01) (305, 8.81361794663604647404e-01) (306, 8.29688569083746885191e-01) (307, 8.47186083377720833276e-01) (308, 8.61170376123311043237e-01) (309, 7.47999968578009322151e-01) (310, 7.33243613143353178963e-01) (311, 8.73910484564239475880e-01) (312, 8.69806442023354109416e-01) (313, 7.07982466294022394493e-01) (314, 8.96871780104979698933e-01) (315, 1.11322364292021003251e+00) (316, 1.52269996474132685016e+00) (317, 1.34655414552020835650e+00) (318, -4.66478608664353373570e+01) (319, 2.44939223574301401243e+00) (320, 8.57269542948392526682e-01) (321, 5.79324844376730307971e+00) (322, 1.15100571465375733915e+00) (323, 3.95505440305746436280e+00) (324, 1.80249305279277471925e+01) (325, 3.49755860847258048807e+00) (326, -5.29051975757297787695e-01) (327, -4.58709012354853307158e+00) (328, -7.36278660324278622085e+00) (329, -7.06302575286092526596e+00) (330, -3.89178306140524110646e+00) (331, -8.83007769652385476888e-01) (332, 6.25440125519091671968e-01) (333, 8.63188338553496636862e-01) (334, 7.75962675450194594440e-01) (335, 7.27795778413204863533e-01) (336, 7.66588831724049568628e-01) (337, 8.72406324942497923836e-01) (338, 8.73389607866196349129e-01) (339, 7.23091819568142724073e-01) (340, 7.11110435106955263151e-01) (341, 7.07377577735976315054e-01) (342, 7.44067295801783989972e-01) (343, 1.04019498977501734238e+00) (344, 1.05650705868101035811e+00) (345, 1.77434594191887207160e+00) (346, 6.74320869949594747794e+00) (347, 5.85188776851811542912e+00) (348, 1.67896724868273250486e+00) (349, 3.72262496905354245413e+00) (350, -4.76654298538690834874e+00) (351, 4.66613729630199314258e-01) (352, 1.23419627417989441476e+00) (353, -2.23133680602065273546e-02) (354, -5.12592963736119289209e-01) (355, -3.31006468709937884398e+00) (356, -1.39448815504686773892e+01) (357, -1.31527121265649764581e+01) (358, -5.82494241014890068442e+00) (359, -9.45411460192908847944e+00) (360, 1.77333569448930278289e-01) (361, 8.34742924769310667976e-01) (362, 7.91915344478013039087e-01) (363, 7.45405698765902235969e-01) (364, 7.66935373128773689722e-01) (365, 8.63988111199261665796e-01) (366, 7.72005728085427000984e-01) (367, 8.31535434921173766121e-01) (368, 8.32123563869461846387e-01) (369, 7.49397800341365272203e-01) (370, 8.68370936167298101971e-01) (371, 5.31432613569224443495e-01) (372, 8.41756763564503240893e-01) (373, 2.26100608793406587793e+00) (374, 6.61938309689669690528e+00) (375, 6.72863444891337536546e+00) (376, 5.27942502729834561848e+00) (377, 2.72911680633719111455e+00) (378, -2.39031130686082171621e+01) (379, 4.35533525848054159368e-01) (380, -1.19681731910298363997e-01) (381, -3.97901407899426240444e-01) (382, -2.90000917736246099921e+00) (383, -6.13655990473265577911e-01) (384, -2.80849986652839778145e+00) (385, -4.40683023820993913233e+00) (386, -3.99824757611649239664e+00) (387, -1.07448084690648926198e+01) (388, 3.27570416747361981002e-01) (389, 8.71504859312043023145e-01) (390, 8.43617415626434996589e-01) (391, 8.69171163638024046882e-01) (392, 8.08127152205826759790e-01) (393, 7.34337004305245399927e-01) (394, 7.13381110330013945564e-01) (395, 8.73073747952370360359e-01) (396, 8.96336353023438170418e-01) (397, 7.71480548393829845821e-01) (398, 1.27696685748037774832e-01) (399, 3.62532966333599881992e+00) (400, 1.59320819132088598025e+00) (401, 2.09955189553411525338e+00) (402, 4.56108396089349721336e-03) (403, 5.52736053082082534615e+00) (404, 4.78965662284239179769e+00) (405, 3.33861490745524669421e+00) (406, -3.36185887897069601848e+00) (407, -3.70998854960105997614e-02) (408, -1.15688234064760031572e+00) (409, -8.79039129141811925727e-01) (410, -4.07511750203532674419e+00) (411, -2.15216901178760977587e+00) (412, -8.31133716930908539311e-01) (413, -2.68034598429498815975e+00) (414, -3.80581333559935108823e+00) (415, -2.70564771276713966763e-01) (416, 3.18332798754129286944e-01) (417, 7.11394609196648430860e-01) (418, 8.16029457946209624275e-01) (419, 7.40534743697764397119e-01) (420, 8.87457454980732918237e-01) (421, 7.58847626329781532739e-01) (422, 7.08113639254955962166e-01) (423, 7.93595819373516753181e-01) (424, 7.91822800672476789785e-01) (425, 4.75615519309863510333e-01) (426, -3.80468495261852757139e+00) (427, -3.61591908746345891412e-01) (428, 4.04331409949115681002e+01) (429, 4.98749016641988507370e-01) (430, -3.33699507091459512953e-01) (431, 7.67012338129987591984e-01) (432, 1.81647148628769783407e+00) (433, 6.59761286177831696165e-01) (434, -5.89517702365699447498e-01) (435, -4.61238849269502149131e-01) (436, -4.38720251158264462621e-01) (437, -6.53835521112354878248e-01) (438, -9.56154560870014869067e+00) (439, -8.69564158695275146727e+00) (440, -5.30352306124649008900e-01) (441, -2.03663325902327585482e+00) (442, -1.48871378802694476207e+00) (443, -8.30228143509860461169e-02) (444, 3.22427069947477218381e-01) (445, 8.62940655334458184278e-01) (446, 7.52129091520695403084e-01) (447, 7.56899228723170280908e-01) (448, 8.78893236101986885522e-01) (449, 8.67359305204274178003e-01) (450, 7.95445202489285185798e-01) (451, 8.64758411826016426538e-01) (452, 7.26818648848904569348e-01) (453, 6.56474711962712897950e-02) (454, -3.87048536090086248151e+00) (455, -8.82372512866726310676e+00) (456, -5.90431851088026871111e+00) (457, -4.96327652239212557816e+00) (458, -4.77794844962058706805e-01) (459, 1.15979978332264943575e+00) (460, 1.19050642951027763061e+00) (461, 6.32135186233179324766e-01) (462, -5.25545827855068425905e-02) (463, -7.55058391700331732466e-02) (464, 6.69958840442594349973e-02) (465, -3.20871501154975979908e-01) (466, 6.87057963177435571112e+00) (467, -7.52288267647361674761e-01) (468, -5.72489994170807592333e-01) (469, -7.02249756715080497571e-01) (470, -2.29878362919091605576e+00) (471, 3.48148071819542825889e-01) (472, 6.93158246672002431588e-01) (473, 8.25242907984719109571e-01) (474, 8.75018692214874937996e-01) (475, 7.27181980790020943139e-01) (476, 7.92741524459244728540e-01) (477, 7.26348536492707252954e-01) (478, 7.82092435856251433357e-01) (479, 7.70042488755108833764e-01) (480, 8.96917284503695899645e-01) (481, 5.70248789424527835479e-01) (482, 7.28577041490931831547e-01) (483, -3.63948278748415221528e+00) (484, -6.87343514964236401710e+00) (485, -5.63295148172479454018e+00) (486, -2.44285196499404033688e+00) (487, 1.53430681256144065827e+01) (488, 2.09728405674269563486e-01) (489, 7.46203678032200001802e-01) (490, -4.83037910933553985005e-03) (491, 9.00108135347761351142e-02) (492, 1.43002350492395313708e+00) (493, 4.19432688769328265721e-01) (494, -9.47946537625913077107e-01) (495, -6.20884981208724484603e-01) (496, -5.47902368698734210106e-01) (497, -8.33236878716762441321e-01) (498, -4.12290949709517295929e+00) (499, 5.93729868933861482105e-01) (500, 8.20586342605000740313e-01) (501, 8.02889554400829985603e-01) (502, 7.23280324240116789802e-01) (503, 8.34895918549420357202e-01) (504, 7.30011815608860969995e-01) (505, 8.97499779642941475366e-01) (506, 8.60089129407791808113e-01) (507, 8.20764570136456206306e-01) (508, 7.27352099282103869982e-01) (509, 7.72691724668864043934e-01) (510, 1.35940582584455582627e+00) (511, 4.40091668781617428863e+00) (512, -3.09628974297186554399e-01) (513, -6.30122771707704387723e+00) (514, -5.09834741923169865174e+00) (515, -6.08047236598563412002e+00) (516, -9.54035997379553357689e-01) (517, 1.31318486014663293737e+00) (518, 9.72714715809587932016e-02) (519, 1.41586536381803240747e-01) (520, 8.90169306163304363544e-01) (521, 1.79597669021648087551e+00) (522, -6.96790498843903982618e-01) (523, -6.43997749652049478186e-01) (524, -1.65367436450452331975e+00) (525, -1.66643786665436621774e+01) (526, 1.49976106743362896934e-01) (527, 8.03055484016664267166e-01) (528, 8.74276843018481519820e-01) (529, 8.33341589768318846687e-01) (530, 8.08103597362427428230e-01) (531, 7.85645122112156868432e-01) (532, 7.35431882025124550317e-01) (533, 8.30584684790493965600e-01) (534, 7.18948783756615639184e-01) (535, 7.63454927702336028084e-01) (536, 8.29490632583392284438e-01) (537, 9.08719031154651912807e-01) (538, 7.93363627163090168182e-01) (539, 8.99454869809843682305e-01) (540, 2.11799486794800317924e+00) (541, 4.39384645449783572957e+00) (542, 2.46047827530893599146e+01) (543, 9.53103946261706092002e+00) (544, 1.08306461622815097812e+00) (545, 9.88118299476835826312e-01) (546, 1.56659853576595980984e-01) (547, 1.27356531124338007155e-01) (548, 4.54326081478413024151e-01) (549, -7.68327013223396360075e-01) (550, -8.80491902374845758494e-01) (551, -8.13297864371071765888e-01) (552, -1.37983758753697038912e+00) (553, -1.93418877763174498763e-02) (554, 7.06521116537377924516e-01) (555, 8.01160245798088865854e-01) (556, 7.33978367051265179200e-01) (557, 7.78731583257107451423e-01) (558, 8.91685074766068175300e-01) (559, 8.98252318085553169702e-01) (560, 7.11273918331982613061e-01) (561, 7.98592916329292967781e-01) (562, 7.82305175842167854761e-01) (563, 7.44717034150747969612e-01) (564, 7.28559150560857293755e-01) (565, 8.24579976140108805716e-01) (566, 1.13302826656141952810e+00) (567, 1.19905404863643916258e+00) (568, 6.05946569383914557250e+00) (569, 1.15246372989425505118e+00) (570, -1.19151067600718429951e+00) (571, 1.20161691201803444429e+00) (572, 1.67745738814055633803e-01) (573, -4.11611887746072477312e-02) (574, -2.02852323570774761841e-01) (575, 3.44846149649659261538e-01) (576, 1.33951461587406650544e+00) (577, -1.07829207480600119951e+00) (578, -1.05001280196692170499e+00) (579, -6.26189902475280391059e+00) (580, -2.24051265829910362104e-01) (581, 8.25987063044359648423e-01) (582, 8.86474076021449786111e-01) (583, 9.05828907239104808014e-01) (584, 8.75494587721217354392e-01) (585, 8.99516901572136595711e-01) (586, 7.64715729852108672127e-01) (587, 9.00236526907803535913e-01) (588, 7.77449237586380959009e-01) (589, 7.55601561100604057764e-01) (590, 8.96500072081474974617e-01) (591, 7.86734393437294676765e-01) (592, 8.54023618034665310539e-01) (593, 7.54178199755018874306e-01) (594, 9.90502087523419505466e-01) (595, 1.19629002652277072194e+00) (596, 2.01425957444227332616e+00) (597, 5.26787911793018093221e+00) (598, 1.61294741645056904922e+00) (599, 5.07440293408768172689e-01) (600, 3.84748740845737985383e-02) (601, -4.69408870203562533785e-01) (602, -1.99351337109629622724e+00) (603, -6.37867725274472885388e-01) (604, -3.40692836447219260521e-01) (605, -4.88728422748500346273e+00) (606, -2.53916773250612326507e+00) (607, 5.77650910288241226098e-01) (608, 8.06261875820236117995e-01) (609, 8.79865187514560442850e-01) (610, 8.18027952492000220985e-01) (611, 8.88870780268424143244e-01) (612, 8.26081161729638302482e-01) (613, 7.60784259469630241846e-01) (614, 8.29341451109768867944e-01) (615, 7.95796947957398415063e-01) (616, 7.59105408967854500268e-01) (617, 8.92861435593487740014e-01) (618, 7.94441210509659767602e-01) (619, 8.34962392629506111597e-01) (620, 7.47665222015254316013e-01) (621, 7.69776432643773822484e-01) (622, 5.77440602980569872571e-01) (623, 1.01595731867140703919e+00) (624, 1.13585175969388663120e+00) (625, 2.35775057355671568970e+00) (626, 2.49439809872534690172e+00) (627, -1.21067688267798345692e+00) (628, 4.35562469543047781073e-01) (629, -8.84535345171914566542e-02) (630, 6.93992746848175690033e-01) (631, 1.23222478273451008235e-01) (632, -1.39651616585841398255e+00) (633, 1.41558685134587824983e+00) (634, 9.18800981955111062405e-01) (635, 8.50129116872966328344e-01) (636, 8.94024385854190306588e-01) (637, 8.17524615771720197799e-01) (638, 8.54393370420878373039e-01) (639, 7.93311052614272260719e-01) (640, 7.83676939488770485376e-01) (641, 7.07773479105355263208e-01) (642, 7.48065358431460381006e-01) (643, 7.07140947164418220972e-01) (644, 7.66965473474385261987e-01) (645, 8.75814536990048408960e-01) (646, 8.01345633746506691431e-01) (647, 8.24478621066929817651e-01) (648, 8.66917631084414219700e-01) (649, 8.91186697787714754426e-01) (650, 7.36515491523543452956e-01) (651, 8.17894598423328456072e-01) (652, 9.30109024470184175826e-01) (653, 9.45134728848052274586e-01) (654, 6.12603506554397436723e-01) (655, 9.81142859220839547163e+00) (656, 9.14941291909500464818e-01) (657, -3.64623431717204682379e-01) (658, -7.87032201698647959631e+00) (659, 2.20423737689823706631e+00) (660, 1.41636014679550803486e+00) (661, 1.02820683390285250169e+00) (662, 9.45290104539297515451e-01) (663, 7.19298334505517056314e-01) (664, 8.00564538927918678546e-01) (665, 8.98749677019358816921e-01) (666, 7.26442513542414847194e-01) (667, 7.82959885320235526862e-01) (668, 8.09959466041447639917e-01) (669, 8.49326590479733467554e-01) (670, 8.71586585821034431909e-01) (671, 8.92044136704327583764e-01) (672, 8.55507815660359383081e-01) (673, 7.18059668721081734155e-01) (674, 8.97592822493435860132e-01) (675, 7.20484523673443510994e-01) (676, 8.91885450680641844734e-01) (677, 7.88849591889582368864e-01) (678, 8.23798320124986438451e-01) (679, 8.11785940287289453643e-01) (680, 9.30959343727390864487e-01) (681, 1.05704916689421368758e+00) (682, 1.03573777262378285968e+00) (683, 1.03804231147982273242e+00) (684, 1.09935957576417253634e+00) (685, 1.05150875363697582365e+00) (686, 8.89328671674805892877e-01) (687, 8.23293367066777137531e-01) (688, 8.55702489507793262469e-01) (689, 8.97699382772837450872e-01) (690, 8.04971248744244527451e-01) (691, 7.43356955981764877528e-01) (692, 8.69223608991671836677e-01) (693, 7.15070395369915678963e-01) (694, 7.58444084258200645898e-01) (695, 7.63934156329752922510e-01) (696, 7.11829858304383278345e-01) (697, 7.82499874414326668237e-01) (698, 8.44737733186604500268e-01) (699, 8.20197062970520973657e-01) (700, 7.30234207989098549341e-01) (701, 8.14732032300354958032e-01) (702, 8.10648935319306374048e-01) (703, 8.84149769724728584741e-01) (704, 8.30802938540367796882e-01) (705, 8.03574399335846734083e-01) (706, 6.84685985418579168282e-01) (707, 7.97668699533520042522e-01) (708, 6.78183015794334709270e-01) (709, 8.34242249692033310815e-01) (710, 7.65729954194957707081e-01) (711, 7.83527982085371998977e-01) (712, 8.42868664426064673201e-01) (713, 7.43844726247048559920e-01) (714, 7.12789780524499816394e-01) (715, 6.89026925079794350104e-01) (716, 6.72345533099897307849e-01) (717, 7.21254761740028449424e-01) (718, 7.67291232076414031482e-01) (719, 8.75372550089745238289e-01) (720, 7.70733928878693297371e-01) (721, 7.16650276084332182869e-01) (722, 7.17613192678811073755e-01) (723, 7.38197731257798195337e-01) (724, 7.30921427191617012475e-01) (725, 7.74465011836411476587e-01) (726, 8.00539629937531471704e-01) (727, 7.41159024120690346216e-01) (728, 8.55372632326008797143e-01) (729, 7.43685087592722893213e-01) (730, 8.59763825715901375268e-01) (731, 8.84014586390377998804e-01) (732, 8.56824854792477608179e-01) (733, 7.68424003024487212166e-01) (734, 8.66175568302063658699e-01) (735, 7.86035536427883818611e-01) (736, 8.69233382819992406176e-01) (737, 8.56078026544982884083e-01) (738, 6.94388581168586704884e-01) (739, 8.62348613989288304005e-01) (740, 8.00099422883922550831e-01) (741, 7.18270073776551609690e-01) (742, 6.85796596728013740929e-01) (743, 7.43521361464808960839e-01) (744, 8.22660981426764803537e-01) (745, 7.68258255599042150230e-01) (746, 7.19805143853579187940e-01) (747, 8.44074553449539854988e-01) (748, 8.94056311448006346687e-01) (749, 8.83326909144310667976e-01) (750, 8.18251340289501860603e-01) (751, 7.63990993083836555932e-01) (752, 8.99177933515431404565e-01) (753, 8.34668780149342537378e-01) (754, 8.00596462966324806665e-01) (755, 7.28507088900925636743e-01) (756, 7.07541527630211830591e-01) (757, 8.99543831528546333764e-01) (758, 7.68073851646306038354e-01) (759, 8.61321906031491280054e-01) (760, 7.41636651040436745141e-01) (761, 7.26245413006665230249e-01) (762, 8.43744213165165901636e-01) (763, 8.96472743351845458015e-01) (764, 7.93077154655842497810e-01) (765, 8.08327532012848570808e-01) (766, 7.81312523980526640877e-01) (767, 7.65362648864178374275e-01) (768, 7.75153620739369109138e-01) (769, 7.83770562394127678907e-01) (770, 7.35111386033334590628e-01) (771, 8.86001116235642149910e-01) (772, 8.68063843448548033699e-01) (773, 8.00723462005047514900e-01) (774, 7.39301631797938063606e-01) (775, 7.93107612629322722420e-01) (776, 7.21266864438442900642e-01) (777, 8.08652056951908781990e-01) (778, 7.35986402829079344734e-01) (779, 7.14523921193005562280e-01) (780, 7.91179711402775764917e-01) (781, 8.53438491405369759057e-01) (782, 7.76922652901532173608e-01) (783, 7.88765380562664986108e-01) (784, -3.36917267024957334254e-01) (0, 8.78946286178290403512e-01) (1, 8.18699639774024046091e-01) (2, 7.95483712590395963815e-01) (3, 8.76897853351294553903e-01) (4, 8.85181230045020139841e-01) (5, 7.55213350541054762033e-01) (6, 7.16942240036189115671e-01) (7, 7.09834386146723783639e-01) (8, 8.97365298605620420602e-01) (9, 7.12219227588831937936e-01) (10, 8.01715787983595884469e-01) (11, 8.04497082269846952585e-01) (12, 7.92335991299807584909e-01) (13, 8.65882676578223264841e-01) (14, 8.78454950190245664743e-01) (15, 8.77589416242301023630e-01) (16, 9.03146248794257200387e-01) (17, 8.63260295725523985055e-01) (18, 8.44457503891646421579e-01) (19, 8.02673955000102079538e-01) (20, 9.01366185880362547067e-01) (21, 7.36369360721766508249e-01) (22, 8.22745066619574583200e-01) (23, 8.08822487033068693307e-01) (24, 7.71160010731875456003e-01) (25, 8.35676726437270200876e-01) (26, 8.98409929609953916696e-01) (27, 7.23006245232283628610e-01) (28, 7.11007122433840788034e-01) (29, 7.85583053267657316354e-01) (30, 8.07928998506724393991e-01) (31, 8.85341715551077879098e-01) (32, 8.99670985079466856149e-01) (33, 8.98801010585486448434e-01) (34, 8.57627865410506284860e-01) (35, 8.80240526533782041696e-01) (36, 7.49402653909384763864e-01) (37, 8.69958412385642088083e-01) (38, 8.85463204718291319040e-01) (39, 7.42156260199009931711e-01) (40, 8.77169438357081165947e-01) (41, 7.82170788104262104667e-01) (42, 8.41645129675593128837e-01) (43, 7.64893722439732304252e-01) (44, 7.43838273472249067453e-01) (45, 8.15884884930312193063e-01) (46, 7.38267940021216428903e-01) (47, 7.42372822499930418161e-01) (48, 7.74136976058211079277e-01) (49, 8.78113743401228941110e-01) (50, 8.40435084438979185251e-01) (51, 7.71287952101885831979e-01) (52, 7.09871408081709898141e-01) (53, 7.58568443841397321847e-01) (54, 8.75498738623320615915e-01) (55, 7.76419725752532041696e-01) (56, 8.89633473492323911813e-01) (57, 8.69296964741408384469e-01) (58, 7.94814263022601164010e-01) (59, 8.96028887963950193551e-01) (60, 7.50268310791909254220e-01) (61, 8.98131561017691648630e-01) (62, 8.76758900023161924508e-01) (63, 7.45327599830090559152e-01) (64, 8.92320868111311948923e-01) (65, 8.29378553385462513603e-01) (66, 7.20360851642015131979e-01) (67, 7.36516236122968348532e-01) (68, 7.94526188429715785055e-01) (69, 8.98533747931916981777e-01) (70, 7.71382191618879109463e-01) (71, 7.59426951906428060468e-01) (72, 7.76688414950175154416e-01) (73, 7.09011192757887709348e-01) (74, 8.28358017558779469169e-01) (75, 8.18593599552836170830e-01) (76, 8.22962985093321552910e-01) (77, 8.62014257068361988701e-01) (78, 8.56354721541132679619e-01) (79, 8.92884754295077076591e-01) (80, 8.35516311878885975517e-01) (81, 7.92574611044585264352e-01) (82, 7.59957522637307203439e-01) (83, 8.41172528005301511911e-01) (84, 8.46531358099638975290e-01) (85, 7.30844561494051969675e-01) (86, 7.12980542815386808542e-01) (87, 8.31553128100096738962e-01) (88, 8.95529833174407041696e-01) (89, 8.02786604220595112480e-01) (90, 8.22573796565260639824e-01) (91, 7.40789920742239704765e-01) (92, 7.96107387896897944479e-01) (93, 7.86468446752772054609e-01) (94, 7.70796606315723775715e-01) (95, 7.38645181625215641041e-01) (96, 6.74513921707002750416e-01) (97, 6.52854243993186256212e-01) (98, 6.74243303220552037125e-01) (99, 5.52254011564071500828e-01) (100, 6.50050478755854865831e-01) (101, 7.55778872006820701124e-01) (102, 7.42719039775085465571e-01) (103, 8.30357573493984646440e-01) (104, 8.85156385553228730600e-01) (105, 7.98398059344946897653e-01) (106, 7.84973536170184171823e-01) (107, 8.13179318345248258737e-01) (108, 7.55800616646733036674e-01) (109, 7.37113055325209654001e-01) (110, 8.01848885155379331735e-01) (111, 8.87498241401373899606e-01) (112, 8.25075965858161008981e-01) (113, 8.57194703555762327341e-01) (114, 8.24059065914809263376e-01) (115, 7.66995609290062940744e-01) (116, 8.83031063432421436943e-01) (117, 8.28300416104865377953e-01) (118, 8.83646408304140318357e-01) (119, 8.29655273650983016154e-01) (120, 2.48615865387949019905e+00) (121, 1.52370339129565435243e+00) (122, 1.16740780985149811277e-01) (123, 4.11525726660252999523e+00) (124, 2.49749161907678596251e+00) (125, -1.90239749579435279969e+00) (126, -3.93820678544756619388e+00) (127, -1.54973532407333203231e+00) (128, -4.49628847398167372229e-02) (129, -2.12325854208360066677e-02) (130, 6.73388068983171828030e-01) (131, 7.70583245225121782340e-01) (132, 7.96016483938134955523e-01) (133, 9.56991737069749714983e-01) (134, 9.01434235556870744333e-01) (135, 9.50531035518503153448e-01) (136, 9.16179142660767276141e-01) (137, 8.19023255742251432565e-01) (138, 8.95527668947901478447e-01) (139, 7.39665125048815763620e-01) (140, 8.51524618006407774118e-01) (141, 7.93161366618334806589e-01) (142, 7.22155154401983967460e-01) (143, 7.71592364365782490410e-01) (144, 7.42470187535484105190e-01) (145, 7.98226429905384837760e-01) (146, 7.68717452991539818008e-01) (147, 4.87088188101585028988e+00) (148, 3.88658334067606014983e+00) (149, 1.65400130472824136163e+00) (150, -1.34906428468006245325e+00) (151, -2.42403416249718117736e-01) (152, -5.86338001393758134761e-01) (153, -3.66516030461416386643e+00) (154, -3.13852922270746637068e+00) (155, -9.64681240826807395727e-01) (156, -5.86506578826716751252e-01) (157, -4.06021322829907493901e-01) (158, 1.25529560318622168680e-01) (159, 9.33206968822519078444e-01) (160, 1.42704570475213898817e+00) (161, 1.46542166931674167074e+00) (162, 1.43578395802037372952e+00) (163, 1.28139338306141725710e+00) (164, 1.05865852868896226369e+00) (165, 8.91652472085625369402e-01) (166, 7.99210723972975767282e-01) (167, 7.36618388927638090280e-01) (168, 7.77964588738143003610e-01) (169, 7.90523205435931242135e-01) (170, 7.71671813464819944528e-01) (171, 7.24480987245764485039e-01) (172, 8.33305933146803012868e-01) (173, 6.46942848544400761490e-01) (174, -2.54382712507923991474e-01) (175, 3.48281012920037214009e-01) (176, -2.16144761903792481661e+00) (177, 1.36408675373071663905e-01) (178, 7.61404154805676691709e-01) (179, 2.12462533278904769363e-01) (180, -4.54674171239734747907e-01) (181, -1.95466315981737470686e+00) (182, -4.39924083545162147857e+00) (183, 1.70880062788060249623e+00) (184, 7.11331693116598495763e-01) (185, 1.81150072233732073457e+00) (186, 7.90559664621850677335e-01) (187, 2.42664326187708390137e+00) (188, 2.10729740002986343228e+00) (189, 3.80523734853527395572e+00) (190, 4.34977786120078402377e+00) (191, 4.53275629659811762906e+00) (192, 1.50643813741970888920e+00) (193, 1.09304668413153360795e+00) (194, 8.58489060381916302411e-01) (195, 7.39047218597590482858e-01) (196, 7.46076681203305280832e-01) (197, 7.27595326042830503610e-01) (198, 7.70657398457255116142e-01) (199, 8.16155390283067494472e-01) (200, 7.67739900021879306813e-01) (201, 4.29540522040055494646e-01) (202, 5.01735830398313126244e-02) (203, 6.91942391925977728917e-01) (204, 7.27548136408010970300e-01) (205, 7.69321337138843874826e-01) (206, 9.46121242454812882983e-01) (207, 1.41750833295167244508e+00) (208, -1.57107571155993319678e+00) (209, 3.71377399417949671800e+00) (210, -7.56175044660092599003e+00) (211, -3.32754743731962365771e+00) (212, 1.93551890708484748416e+01) (213, 3.23137303137256903796e+00) (214, 8.91959807648319369378e+00) (215, 1.54514714555812870955e+00) (216, 1.25940382856157429003e+00) (217, 1.95686089714946698237e+00) (218, 4.04444577354299550365e+00) (219, 4.60324940235742996464e+00) (220, 1.47856933753027930400e+00) (221, 1.07214489139736879331e+00) (222, 7.43275354266602183984e-01) (223, 8.45650997496306455758e-01) (224, 8.26507669425665891794e-01) (225, 8.44042923784911192087e-01) (226, 8.79490948077562006979e-01) (227, 8.22205715446798435231e-01) (228, 7.49232027849533577246e-01) (229, 1.22507336827945545465e+00) (230, 7.12919448823823520556e-01) (231, 7.79330492597474111527e-01) (232, 9.24910646191739349575e-01) (233, 1.08554531622574113037e+00) (234, 1.27702919040848894561e+00) (235, -5.16430391205422534284e+00) (236, 3.19972704009466923925e-01) (237, -7.29921534719736170294e-02) (238, 2.20149717707503755904e+00) (239, 6.58587093901347575553e+00) (240, 3.82404689405340363351e+01) (241, -1.55097590202443569307e-01) (242, -1.58583924277803489655e-01) (243, 6.97356120006438762182e-01) (244, 8.14150845119109733972e-01) (245, 1.50774771166616528006e+00) (246, 1.46237079389437529819e+00) (247, 1.67934985687771698437e+00) (248, 2.00113233640301935168e+00) (249, 1.05403001106138449749e+00) (250, 7.94272032796809468458e-01) (251, 7.80479711032568967966e-01) (252, 7.54484177119195020822e-01) (253, 7.78044354654013670114e-01) (254, 7.21122503931250324882e-01) (255, 8.30613218813268772145e-01) (256, 6.73702976490944682730e-01) (257, 8.70260730655260550392e-01) (258, 8.37481107165432669959e-01) (259, 9.23328755217637131558e-01) (260, 1.12567485437017178462e+00) (261, 1.38919117842618500269e+00) (262, 2.17813420621316389258e+00) (263, 3.82549557089206793137e-01) (264, 8.67374918675001160828e-01) (265, 1.77550009031451452302e+01) (266, -2.29238027969080526702e+00) (267, -5.04737825318659272256e+00) (268, -3.02250714215964411125e+00) (269, -5.91321931064822892132e-01) (270, -4.72930128337528676852e-01) (271, -8.67208631587675360386e-01) (272, -4.50982108733926134736e-01) (273, 1.17347806964003020802e+00) (274, 1.06567492356555693078e+00) (275, 1.91061514614771721376e+00) (276, 6.57127324223223396871e+00) (277, 1.67665201210229297679e+00) (278, 7.73568102550894476366e-01) (279, 8.09380550420939481882e-01) (280, 8.34678348637282407907e-01) (281, 8.07566699124037779001e-01) (282, 8.84852059836115589775e-01) (283, 8.75901781520590505536e-01) (284, 8.35232414870588413258e-01) (285, 8.66548021898010945030e-01) (286, 8.85081978674912783767e-01) (287, 1.03798325228487908767e+00) (288, 1.26824653277991816758e+00) (289, 1.56367613996046861402e+00) (290, 1.57133587563044940794e+00) (291, -5.13634592204066287024e+00) (292, 1.93380732856752857174e+00) (293, 1.60872860427297794672e+01) (294, 1.32637354997516840882e+01) (295, 1.75824567593205038918e+01) (296, -3.95617180040787586037e+00) (297, -9.20301487123463130002e-02) (298, -4.74939915205323026637e-01) (299, -5.62813094835823646278e-01) (300, -4.66582225530463801100e-01) (301, 2.06147175263094588615e+01) (302, 1.12334061681473045269e+01) (303, 1.21405776017595834482e+00) (304, 9.34725378607204282488e-01) (305, 8.48326422159613957596e-01) (306, 8.83159021842533809021e-01) (307, 8.08030862844645536569e-01) (308, 7.25210343039691007760e-01) (309, 8.95263232941355457939e-01) (310, 7.12403201217379322685e-01) (311, 8.46627928814635000165e-01) (312, 7.89965689680323324140e-01) (313, 8.90162394782502919277e-01) (314, 8.66455120804771161680e-01) (315, 1.10711602118587570942e+00) (316, 1.54178255460543911504e+00) (317, 1.85368969336015543270e+00) (318, -4.87891368359452499703e+01) (319, 2.52729419174829450512e+00) (320, 9.32602758621407956774e-01) (321, 7.55813935752679100233e+00) (322, 9.95689232502764642874e-01) (323, 1.94963442231899364288e+00) (324, 1.65763575078493659021e+01) (325, 3.78940051648216291724e+00) (326, -3.81790950877842094613e-01) (327, -4.62626334426453134085e+00) (328, -7.48107644715916109135e+00) (329, -6.97815324204883058457e+00) (330, -3.88882052891274021533e+00) (331, -9.11402708873730649231e-01) (332, 6.71179077665133405617e-01) (333, 7.54953235371157438394e-01) (334, 7.30767310072245490637e-01) (335, 7.37228576577364957956e-01) (336, 8.30779906845747984079e-01) (337, 8.80559199208941212333e-01) (338, 8.40251230354037037529e-01) (339, 8.48104359051187306484e-01) (340, 8.63354690870985708173e-01) (341, 8.50588309456389524144e-01) (342, 8.32124303359692341076e-01) (343, 1.10736272181669792580e+00) (344, 1.17568674931260153116e+00) (345, 1.77209747683919172090e+00) (346, 6.73785881031863898016e+00) (347, 4.59659658680613247839e+00) (348, -6.44132714631626424051e+00) (349, 9.27808763850031414933e-01) (350, -9.08162820849662111300e+00) (351, 3.39737718420197232216e-01) (352, 1.13658510633736153927e+00) (353, -2.39889735380453272828e-02) (354, -3.99709072117784114386e-01) (355, -4.20260404966227074652e+00) (356, -1.58278260578757841159e+01) (357, -1.31142399849912845156e+01) (358, -5.78384476574244121849e+00) (359, -9.26672229485654241898e+00) (360, 5.83846918389232194535e-01) (361, 7.17483727988126429587e-01) (362, 8.55444428063094175485e-01) (363, 7.47543547953095188774e-01) (364, 7.43215349054991758493e-01) (365, 8.81309357023894346383e-01) (366, 7.80160420293535938896e-01) (367, 8.68987031931605091728e-01) (368, 8.54578229923052656858e-01) (369, 7.20161658820744010612e-01) (370, 8.32423503048840274232e-01) (371, 5.28425124528948075842e-01) (372, 9.58936043629805223709e-01) (373, 2.15531952298481277452e+00) (374, 6.46596131320724776259e+00) (375, 5.93191398303271189008e+00) (376, 5.19398636329268725831e+00) (377, 2.95718942650603677791e+00) (378, -2.87476569433473301274e+01) (379, 5.28313145788184668206e-01) (380, -5.65444083953727041902e-02) (381, -2.80346999317441947230e-01) (382, -1.35652885114550847412e+00) (383, -6.24537910817189345636e-01) (384, -2.86253727102181043662e+00) (385, -4.35716168942949799714e+00) (386, -4.20213211629782712464e+00) (387, -1.02029034926452730758e+01) (388, 4.40605421247175832455e-01) (389, 7.71429450651605397304e-01) (390, 8.38281386251177540458e-01) (391, 7.54748952294316044487e-01) (392, 7.88171235955416715768e-01) (393, 7.89510619378745115426e-01) (394, 7.98077308292116871513e-01) (395, 8.26378383393015614189e-01) (396, 7.65811760629143467582e-01) (397, 8.58042944209778335463e-01) (398, 4.17554733176847325815e-01) (399, 2.22141688535070658261e+00) (400, 2.33431334847106253250e+00) (401, 2.47093114177216000016e+00) (402, -2.46599278615274641879e+01) (403, 6.52368797943234834946e+00) (404, 4.81950481474571823526e+00) (405, 3.36451755046943823402e+00) (406, -1.16015771148592250483e+00) (407, -1.37028264015938650022e-01) (408, -5.91751447938815844374e-01) (409, -9.14480977200976208330e-01) (410, -4.33327388674966940130e+00) (411, -1.85178458325816364116e+00) (412, -7.28798629427199307074e-01) (413, -2.80886962917499305448e+00) (414, -3.81025383728052080556e+00) (415, -2.21297892825838282693e-01) (416, 5.17941640634341338156e-01) (417, 7.29073168178994923672e-01) (418, 7.76458807940211048759e-01) (419, 8.19363993144690549997e-01) (420, 8.02439284063040769723e-01) (421, 7.10921507812201536325e-01) (422, 8.69501241202082386650e-01) (423, 8.85403252002122553854e-01) (424, 7.95820426679312742380e-01) (425, 5.07336669195618483741e-01) (426, -3.57491362339822504879e+00) (427, 1.27536416055712886752e+00) (428, 5.47415244919413410685e+01) (429, 3.76385282941946897051e-01) (430, -2.54810207870994509527e-01) (431, 8.05417419493718589329e-01) (432, 1.97138684181541279372e+00) (433, 7.10193847887820584042e-01) (434, -3.75522979010683377599e-01) (435, -2.74097869381781433784e-01) (436, -4.89032286513460701105e-01) (437, -8.59882863575082839747e-02) (438, 5.30941450950354809635e+00) (439, 4.10349645900204684779e+00) (440, -6.23921042090118782575e-01) (441, -2.06541388038853357401e+00) (442, -1.40051093686978522790e+00) (443, -4.42015876595042225827e-02) (444, 3.72236079044485523859e-01) (445, 7.43027476062972813686e-01) (446, 7.97352553064551106132e-01) (447, 7.50241693592726743844e-01) (448, 7.74037305749117887643e-01) (449, 8.69992685056387937692e-01) (450, 8.64993986225783384469e-01) (451, 8.71665830352163273353e-01) (452, 8.74930123283269356449e-01) (453, 8.92240196819358982738e-02) (454, -3.52982361859647486568e+00) (455, -5.91395494913203823018e+00) (456, -5.22289847019535713457e+00) (457, -4.45605040487830894591e+00) (458, -2.23056032735792747479e-01) (459, 6.83333981579097415882e-01) (460, 8.50003991333829866939e-01) (461, 8.05962932355830830033e-01) (462, -7.57754951498799955711e-02) (463, 5.28461282961096512345e-01) (464, 8.25190685431421599993e-01) (465, -1.74590896399579320608e+00) (466, -3.28576140613109357602e+00) (467, -4.06623312755723331779e-01) (468, -4.70680967533885830090e-01) (469, -7.53478936873269611318e-01) (470, -2.17663085260921373987e+00) (471, 4.92615796352480928011e-01) (472, 7.79774310903742495782e-01) (473, 8.41837869426210194668e-01) (474, 8.17574084455694904960e-01) (475, 8.57493114209830320505e-01) (476, 8.86802014446913755563e-01) (477, 7.11107958591639555124e-01) (478, 9.02726598734583607353e-01) (479, 7.56028557755804020424e-01) (480, 8.77618369706393508523e-01) (481, 5.68682831166441249415e-01) (482, 9.47543650863872155554e-01) (483, -2.09201974702298976183e+00) (484, -6.88186736989334590930e+00) (485, -6.64035114493890521459e+00) (486, -1.08851290648868248567e+00) (487, 2.72156903906792990711e+01) (488, -5.94086385490282697930e-01) (489, 6.45508962669000818657e-01) (490, 8.22272223996483031527e-01) (491, 8.33482365516578616038e-01) (492, 5.29813486990977744462e-01) (493, 6.92459355930521991418e-01) (494, -9.76418187351047683897e-01) (495, -5.04752230483610508927e-01) (496, -4.85293555622172245734e-01) (497, -5.58865577135401969677e-01) (498, -3.56085465722078531314e+00) (499, 6.61352234906768088329e-01) (500, 8.97627269192355248251e-01) (501, 8.55091548320176753073e-01) (502, 8.95523138994898548759e-01) (503, 7.97112752235590971139e-01) (504, 7.96187486983000791696e-01) (505, 8.09278551972567594675e-01) (506, 7.49597646946634998955e-01) (507, 7.78178731539106327553e-01) (508, 8.17953826876304135318e-01) (509, 7.75042364321626098267e-01) (510, 1.83956240674693094483e+00) (511, 1.03346991659224105575e+01) (512, -3.25612474173122501409e-01) (513, -6.14380438089372749033e+00) (514, -7.18548895540939547288e+00) (515, -6.04980876343662465899e+00) (516, -9.27492460352642433818e-01) (517, 1.38526746850620163798e+00) (518, 1.03939930221340270933e+00) (519, 9.86760770379602636382e-01) (520, 8.61175480034413243224e-01) (521, 2.11018098807438381215e+00) (522, -4.98193081343699051278e-01) (523, -5.79338991067497421916e-01) (524, 5.84595031056026503968e-01) (525, 9.61725951230054554308e-01) (526, 2.32125857645748084890e-01) (527, 7.35813281057455581546e-01) (528, 7.17582678856227729192e-01) (529, 8.51832636351313343681e-01) (530, 7.62842477018561115898e-01) (531, 7.05452938116251981882e-01) (532, 8.03304557240664518503e-01) (533, 7.54546940810143507150e-01) (534, 7.97953989840209043649e-01) (535, 8.94284776207330378561e-01) (536, 8.59546429920054588791e-01) (537, 8.71273994105163374080e-01) (538, 6.80373825456666136979e-01) (539, 8.46570927260047678686e-01) (540, 2.46962359511650531019e+00) (541, 4.82150335733138568628e+00) (542, 2.51285582837579823945e+01) (543, 8.92468183150226757050e+00) (544, 9.81076362498715548455e-01) (545, 9.51396953250936872060e-01) (546, 9.61094035345548047822e-01) (547, 9.09401565961150959438e-01) (548, 4.67165631029461070334e-01) (549, -6.07127845502835605807e-01) (550, -7.14592480601384583139e-01) (551, -3.73937981224380544543e-01) (552, 1.03884165642049417499e+01) (553, 5.57123290304623042246e-01) (554, 8.15843287979687192824e-01) (555, 7.24540730517883591055e-01) (556, 7.65265048837138750493e-01) (557, 7.80075185651507130302e-01) (558, 7.49588829184498539604e-01) (559, 7.73082662857234037546e-01) (560, 7.28089128173052824167e-01) (561, 8.08612626529395139841e-01) (562, 7.73923900461852110055e-01) (563, 8.26186409946801814108e-01) (564, 8.58013397019963708345e-01) (565, 8.93452990558547321953e-01) (566, 1.14257055257044237706e+00) (567, 1.16138261691558319910e+00) (568, 6.99159007533084064789e+00) (569, 1.50082450719619520108e+00) (570, 4.34911334543243999207e+00) (571, 1.39141121743782347764e+00) (572, 2.71873468662626238679e-01) (573, 6.82718119984218940743e-01) (574, 4.32316908855860049243e-01) (575, 3.53737178793819229128e+00) (576, 1.32468763811067979930e+01) (577, -9.42040092582806964927e-01) (578, -8.27862232830513966597e-01) (579, 1.37339473858707759035e+01) (580, 2.26188881776517280997e+00) (581, 8.04026863680946668467e-01) (582, 8.80466138170373890937e-01) (583, 7.75905912285359766756e-01) (584, 7.98459994411882090226e-01) (585, 7.99272604937281361259e-01) (586, 7.62128335143055668510e-01) (587, 8.55786886549651182321e-01) (588, 8.75529107189833677438e-01) (589, 8.07898480928599393991e-01) (590, 7.23861337358679524101e-01) (591, 8.98610018844332447685e-01) (592, 7.10961737841134366889e-01) (593, 7.68622333527029910627e-01) (594, 9.82719723712765391710e-01) (595, 1.21034156579655283181e+00) (596, 1.95200455679432294254e+00) (597, 5.30335404578134639308e+00) (598, 1.40251150576707472872e+00) (599, 6.12326866171116535043e-01) (600, -8.52971600650495459517e-02) (601, -1.29055472868976606193e+00) (602, 4.18344482924378424649e-01) (603, -6.02000183427183199747e-01) (604, -2.44508524186147685464e-01) (605, -5.87247490373079905623e+00) (606, -1.67326156518021118558e+00) (607, 6.70089028224919669441e-01) (608, 7.51686813586358915096e-01) (609, 7.27002840662053118059e-01) (610, 9.07439230872669422290e-01) (611, 7.53168400594726561437e-01) (612, 8.42691548575224769202e-01) (613, 8.48072465992629087594e-01) (614, 7.65814055240809476999e-01) (615, 7.35002529359519041208e-01) (616, 7.43129879719674146799e-01) (617, 8.23727194703280485300e-01) (618, 8.86177715397536314157e-01) (619, 7.14047287142931974557e-01) (620, 7.27304667640986335364e-01) (621, 6.94210514378823084769e-01) (622, 5.94391907223316140474e-01) (623, 8.99054756292777756954e-01) (624, 1.12610383414388115497e+00) (625, 2.38330393171127363772e+00) (626, 2.54584959081265038705e+00) (627, 2.57586671433223912686e+00) (628, 4.56468601593875200617e-01) (629, 6.71487807339102626969e-01) (630, 4.23029348923120718240e-01) (631, 1.83968738028478212554e-01) (632, -7.76050408865667673552e-01) (633, 1.42890104473184553768e+00) (634, 9.63192724510883779843e-01) (635, 9.14962155047638114880e-01) (636, 7.47887730723502119901e-01) (637, 9.06177460794286626644e-01) (638, 8.71318434211781456256e-01) (639, 7.93076823343318082493e-01) (640, 7.17696872091948545602e-01) (641, 8.14935442543684995798e-01) (642, 8.11520997918307340768e-01) (643, 8.55486032105147398141e-01) (644, 7.58396208769738233713e-01) (645, 8.72723352647482908395e-01) (646, 8.85876860953032529977e-01) (647, 7.96914387977778471139e-01) (648, 7.91442342753138294853e-01) (649, 8.64168689986665516933e-01) (650, 7.92133664200960985191e-01) (651, 9.74176133525170406813e-01) (652, 1.03896239804770718074e+00) (653, 9.85883983586433587654e-01) (654, 7.50532898308969520507e-01) (655, 1.00277200517053621809e+01) (656, 8.19357554083439687531e-01) (657, -2.03393618285247157473e-01) (658, -7.04200312545265294517e+00) (659, 2.36124490959989064010e+00) (660, 1.52373032072185998764e+00) (661, 9.57898180382509956132e-01) (662, 9.69684911344209532480e-01) (663, 8.01937730493231581974e-01) (664, 7.29221341474669548788e-01) (665, 7.61388946731152427283e-01) (666, 8.72469269145789039221e-01) (667, 7.65599366684021842566e-01) (668, 7.58270174748360670236e-01) (669, 8.09792180097758329538e-01) (670, 8.52021229005515134958e-01) (671, 7.71355342603385008005e-01) (672, 7.20115919149577177194e-01) (673, 7.58930523431956327585e-01) (674, 7.22229671216666258005e-01) (675, 7.73503915126051655449e-01) (676, 7.26446597632291468649e-01) (677, 8.94845761856779775556e-01) (678, 8.54589767706669611869e-01) (679, 8.09400534497983992210e-01) (680, 1.02617765168504626594e+00) (681, 9.27844483336890735181e-01) (682, 8.93346965099271028699e-01) (683, 1.00066072656141114017e+00) (684, 1.19498019972966340596e+00) (685, 1.03648356683572773207e+00) (686, 1.05885021637466247846e+00) (687, 9.25422521862667712966e-01) (688, 7.92625442743947750124e-01) (689, 8.80998910333653073579e-01) (690, 8.74732304938166227437e-01) (691, 7.84254823453753080464e-01) (692, 7.71643557061018836585e-01) (693, 8.04682732279028645195e-01) (694, 8.80011406279265440133e-01) (695, 7.93890733755290067819e-01) (696, 8.61565795279204404977e-01) (697, 8.47578283882796323923e-01) (698, 8.54587700701415098337e-01) (699, 7.15224270260989225534e-01) (700, 7.52758756763398206857e-01) (701, 8.01997233665644682077e-01) (702, 7.81967912352740324167e-01) (703, 7.68262971676051176217e-01) (704, 8.55919548029627552665e-01) (705, 7.96311700185735493740e-01) (706, 8.26445968820206045002e-01) (707, 8.67640810085884450764e-01) (708, 7.88178393825456846677e-01) (709, 7.88037383927456258625e-01) (710, 7.77298415078274129719e-01) (711, 7.52023985954475060467e-01) (712, 8.57912816521180121576e-01) (713, 8.03047215679180914627e-01) (714, 8.40173952846853366871e-01) (715, 8.04976525621607486016e-01) (716, 7.20530722855655780812e-01) (717, 8.22139738883465587271e-01) (718, 7.86331627707741676048e-01) (719, 8.54740866179194203056e-01) (720, 8.41484420652117481865e-01) (721, 7.96063692028250446953e-01) (722, 7.34886315203368223337e-01) (723, 7.08622087276637113717e-01) (724, 8.96927740908324278024e-01) (725, 7.10286010540186918405e-01) (726, 7.97901127970873869089e-01) (727, 8.53881832695662534860e-01) (728, 8.53252601361929929880e-01) (729, 7.47877128905713117746e-01) (730, 8.64494409895598447946e-01) (731, 9.01399638987242735055e-01) (732, 8.45262673235594785837e-01) (733, 7.41454110200133076347e-01) (734, 7.64455343392017039328e-01) (735, 7.96371436473252924948e-01) (736, 8.32697316639495199730e-01) (737, 8.86885182930580495686e-01) (738, 7.59996110571972249836e-01) (739, 7.22033054134592733320e-01) (740, 7.81416589392773031086e-01) (741, 8.09127338795988193532e-01) (742, 7.41563274358609358927e-01) (743, 7.41734356186136922773e-01) (744, 7.54699596604306965908e-01) (745, 7.21815936832754245778e-01) (746, 8.31375934748975864430e-01) (747, 8.19263235385145893730e-01) (748, 7.28486985618796101249e-01) (749, 7.98169380780580195456e-01) (750, 7.70185415185153043893e-01) (751, 8.66152715421378172067e-01) (752, 8.90613463259398496774e-01) (753, 8.00460029876887357858e-01) (754, 8.70163109636961973337e-01) (755, 8.82929485774695432809e-01) (756, 8.06134339905440366891e-01) (757, 7.63452522940098798898e-01) (758, 8.32199614978491819528e-01) (759, 7.54775234050213850168e-01) (760, 8.06717951334178007272e-01) (761, 7.92082321382224119333e-01) (762, 7.51563173270880735544e-01) (763, 7.46972405070986500419e-01) (764, 8.28924738521303883232e-01) (765, 8.11605886275496235527e-01) (766, 8.39327715987887135185e-01) (767, 7.61137836332049122490e-01) (768, 8.04786025341870936423e-01) (769, 7.02940174778898030361e-01) (770, 7.84330563088853627285e-01) (771, 8.92895706648554554619e-01) (772, 8.56100433225359669365e-01) (773, 8.68651157971742304831e-01) (774, 7.38667414242949238457e-01) (775, 7.09462509209837666191e-01) (776, 7.32217912114321745065e-01) (777, 7.11198591346468678154e-01) (778, 8.24510537738528004326e-01) (779, 7.56489702052533186105e-01) (780, 8.05748362577616727975e-01) (781, 8.90480768418967283395e-01) (782, 7.18030717707335508493e-01) (783, 7.91750107443987882760e-01) (784, -3.43154785267516471148e-01) (0, 5.54121749895563411870e-02) (1, -5.81020546657095085519e-02) (2, 5.96817749041071224370e-02) (3, -8.57470092875013412126e-02) (4, 6.94858598011484362988e-02) (5, -9.01546982628355086931e-02) (6, 1.63592415350427913823e-02) (7, -4.30435148579129886470e-02) (8, -4.32032180530080509029e-02) (9, 5.91164546507349300541e-02) (10, -1.18333971272135726749e-01) (11, 6.41874688166132051359e-02) (12, -5.77101684632393054780e-03) (13, -6.14113306206712714075e-02) (14, -3.50426343781003665767e-02) (15, -4.16835970702262529480e-03) (16, 2.15817260044565348287e-02) (17, -4.63621152144918155513e-02) (18, -5.22831139666090141671e-02) (19, -1.37832520109662827468e-02) (20, -1.19098929268369405771e-02) (21, -4.70357967120656680904e-02) (22, 1.38229595917215720285e-02) (23, -4.92649353566261462983e-03) (24, 7.32595490711679814266e-02) (25, 6.57009648579111316113e-02) (26, -1.03789834449912105052e-01) (27, 5.91286139982691097416e-02) (28, -1.20880028377200091083e-01) (29, -1.66514275175580830912e-02) (30, -5.91540021401891838448e-02) (31, 5.80903904932489681401e-02) (32, 4.88047765987863826909e-02) (33, -7.59139788848409713395e-02) (34, -1.04098370443011317699e-01) (35, 4.18488847511758951803e-02) (36, -4.25104258162030887447e-02) (37, 3.58191298740854272009e-02) (38, -7.76363854807863296159e-02) (39, 3.78446149128427652975e-02) (40, 1.84938328760614612012e-02) (41, -7.24121054214487136491e-02) (42, 2.55903171795358944096e-02) (43, -6.37189356190214217790e-02) (44, -1.02651847106465972381e-02) (45, -8.58940651220331252702e-02) (46, 5.56709634560098934331e-02) (47, -6.51252252561101974138e-02) (48, -8.53473269753546662231e-03) (49, -7.30539133352289260515e-02) (50, 4.46497815149774698873e-02) (51, -9.70495773059378008529e-02) (52, 3.46854500946907045450e-03) (53, -1.79690179926404874911e-02) (54, 2.15821879404535441060e-02) (55, 2.86334981297531039439e-04) (56, -2.87098122340688488574e-02) (57, 4.13506048220148234029e-02) (58, -1.70267952186117024760e-02) (59, -2.60315892797956180416e-02) (60, -5.17425817948828012383e-02) (61, 4.73774539726724910893e-02) (62, -4.43829578858861636959e-02) (63, -7.93795642954359115251e-02) (64, -1.04978276560927424876e-01) (65, -2.47598769646176983250e-02) (66, -1.13809238610793103663e-01) (67, -2.37672510128507305516e-02) (68, -6.53825061898717918574e-02) (69, -6.78873727601060905634e-02) (70, -6.23643989246377983271e-02) (71, -1.23330424962569226710e-01) (72, -1.69044268828878255229e-02) (73, -1.13379029701376921047e-01) (74, -6.36543130082140029558e-02) (75, -1.03448170660067589877e-01) (76, -7.55516434591302910029e-02) (77, -8.42619048934469261347e-02) (78, -4.50151371341237713231e-02) (79, 3.93086863178720644085e-02) (80, -3.37575631719121624363e-02) (81, -7.69703110260019363054e-02) (82, 6.56541603106012561231e-02) (83, -1.06893969844008479564e-01) (84, 2.86189185875406482129e-02) (85, 1.07945966022959111141e-02) (86, 1.69506239193430233159e-02) (87, -7.65326452952871383317e-02) (88, -2.42965651256093692623e-02) (89, -7.65179266733179153093e-02) (90, 2.09940242069711832662e-02) (91, 4.76823044437876056301e-02) (92, -1.05419028041888268588e-01) (93, -9.83440365930891430279e-02) (94, -1.07621955432734547897e-01) (95, -8.67707972123480386628e-02) (96, -2.28166989997383032676e-03) (97, -9.98083989058981685405e-02) (98, 4.82348763664889670921e-02) (99, 1.42911355153220120950e-01) (100, 2.21614924207001101619e-01) (101, 1.99459137492457305729e-01) (102, 5.67843504676881008497e-02) (103, 6.35840763123726865347e-02) (104, -1.16001385686923016993e-01) (105, -8.22752098956747168756e-02) (106, -1.17760722064803924347e-01) (107, -6.72339778049478725697e-02) (108, -4.39180763941297222508e-02) (109, -3.93201003705510518382e-02) (110, -1.05617446969176326244e-01) (111, 4.55562042492380428471e-02) (112, 8.35983627018836716882e-03) (113, -1.16405045757914549220e-01) (114, 6.22204857367029476323e-02) (115, -3.94629967910299014888e-02) (116, 1.81109947580805133449e-02) (117, 4.21602909361367458180e-03) (118, 1.02284746510496547117e-02) (119, -8.01246603684911823384e-02) (120, 5.98133959223194483501e-02) (121, -3.13762260529406589171e-02) (122, 7.91124454444135927211e-02) (123, 2.58571324378797151589e-01) (124, 3.13098327694435518698e-01) (125, 3.88325039613926781268e-01) (126, 1.19867549210640711443e+00) (127, 1.15828056181497140997e+00) (128, 2.29788247134630557733e-01) (129, 3.05505427904560977748e-01) (130, 1.91972919258621768646e-02) (131, 6.70188454107112537017e-03) (132, 3.94520570177729068551e-02) (133, 5.67334004640142677833e-02) (134, -8.77577124462519155002e-03) (135, 3.81713746642316845148e-02) (136, -1.04919664132988366134e-01) (137, 1.59582841048149198619e-03) (138, -9.96693281036863665268e-02) (139, -2.11588797670850398136e-02) (140, -1.11982030938292481670e-01) (141, -8.17285237413892806657e-02) (142, -5.20444122654447685616e-02) (143, 2.00992566961755922406e-02) (144, -7.32518620154714722448e-02) (145, -6.35998053210268116109e-02) (146, -9.27954940360786739717e-02) (147, 8.23097813401229144725e-02) (148, 4.75576695646168334797e-01) (149, 8.28252693711070575588e-01) (150, 3.75060123935485878466e-01) (151, 3.89769738916196206713e-01) (152, 8.84258408844772358925e-01) (153, 1.13039167016570529789e+00) (154, 1.68759680680712653711e+00) (155, 9.20796305362211686685e-01) (156, 7.01190482221472732860e-01) (157, 8.03684545699710262134e-01) (158, 1.67586260883463539217e-01) (159, -1.02453274271358217573e-02) (160, -4.34517898407144553818e-01) (161, -1.09023157492673106184e-01) (162, -2.28744947040121937576e-01) (163, -8.80673076244933988876e-02) (164, 6.16333924614221716903e-03) (165, 4.47692359520623014979e-02) (166, -5.56578665685308546229e-02) (167, 3.96289991634836344381e-02) (168, -2.35779715281972598873e-02) (169, -2.96435338956365437846e-02) (170, -5.79716322523603569405e-02) (171, -1.16023024756765000265e-02) (172, 1.35096423962259796353e-02) (173, 1.62080573184004254894e-02) (174, -4.73963229406441782787e-02) (175, 2.73923258301029481920e-01) (176, 2.37810508525858527173e-01) (177, 2.37745760511674536497e-01) (178, 2.98895439917524818885e-01) (179, 2.92897691043935537447e-01) (180, 7.74457119688001571767e-01) (181, 3.35471626597990957297e-01) (182, 4.22918060244121984947e-01) (183, -2.71747957511642335149e+00) (184, -2.55404239699909607619e-01) (185, -2.56020399983193404359e-02) (186, -3.57746234342580571308e-01) (187, -1.19951996104239055896e+00) (188, -8.32220751041885642429e-01) (189, -6.18045215248033685818e-01) (190, -1.12523256773804192221e+00) (191, -7.98287348253109291241e-02) (192, -1.62635004579210457054e-01) (193, -3.77691674938283802887e-02) (194, -3.08600204799601117445e-02) (195, -6.16329873835096755941e-02) (196, -5.34620938402662407296e-02) (197, 4.71227335232248592534e-02) (198, -9.71905472260008174157e-02) (199, 4.78416346647882878562e-02) (200, -5.66998941082010182724e-02) (201, -1.70711644623846164892e-02) (202, 1.11044896710771421461e-03) (203, 3.94297116638176042835e-02) (204, 3.54642133227601602519e-02) (205, 1.46351261764298468115e-01) (206, 9.25760139247405050567e-02) (207, -5.54180896333993033842e-01) (208, 9.96967888923331879703e-02) (209, 3.31252478700038865966e+00) (210, -1.18070990804251096939e-01) (211, -2.22404917525561529601e+00) (212, -1.95248802088454920245e+00) (213, -1.73813876803378764002e+00) (214, -1.12852287945413487513e+00) (215, -5.63511428015134652192e-01) (216, -5.37499534169279535867e-01) (217, -5.61639483838206679533e-02) (218, -1.08958856311188956312e-01) (219, -2.01430626206757029673e-01) (220, -1.73434279293368409647e-01) (221, 4.17824668897382733856e-02) (222, -5.46244149067279458065e-02) (223, -9.09040163194189537732e-02) (224, -4.91631609899053426127e-02) (225, 5.47762083309641170659e-02) (226, -2.66315522175321270359e-02) (227, 2.31956544142713633194e-02) (228, 2.81230407101621879273e-02) (229, 4.61860532038185517961e-03) (230, -5.13018944671178936390e-03) (231, -1.16539546374713365307e-01) (232, -1.29118228116737759903e-01) (233, -1.36217159468133616057e-02) (234, -4.32204471060775030633e-01) (235, -4.27663517848542659716e-02) (236, 2.59085084769078255462e+00) (237, 2.73006063039394408776e+00) (238, 5.36157520523550590319e-01) (239, 9.16892374888913889996e-03) (240, -1.99369300408617361464e-01) (241, 6.89092600494607132600e-02) (242, 8.83400651620342425296e-02) (243, 2.85717368899052859277e-01) (244, 3.74395253343582090633e-01) (245, 4.96509302186809553525e-01) (246, -5.87606305801484166129e-02) (247, -7.31128502862364082482e-01) (248, -9.91700673858161185770e-01) (249, -6.37117211422852380842e-02) (250, -3.11560556300130679641e-02) (251, -1.20561705255950779581e-01) (252, -6.70242292386541427263e-02) (253, 5.60838746326914119877e-02) (254, -8.34348569195756950556e-02) (255, 9.63352646646408079800e-03) (256, 3.66809966784467922363e-02) (257, 1.50552871803904149417e-02) (258, -4.83726846534666757305e-02) (259, -2.66719912999650379803e-02) (260, -1.46836077658154873227e-01) (261, 9.62479427433386020008e-03) (262, 1.71950349086864995307e+00) (263, 3.04651716859956867012e+00) (264, -4.05351431922354166204e+00) (265, 2.21418567003062172205e-01) (266, 4.24681652346275556598e-02) (267, 2.35608553090118910678e-01) (268, 1.28192691165708222423e-01) (269, -1.26549404794554676279e-01) (270, -4.27765699513676267429e-01) (271, 7.43881189878787152381e-01) (272, 1.22072579909794498576e+00) (273, 4.09034964986669247189e-02) (274, -4.23671518789363044100e-02) (275, -6.09293018150778631359e-01) (276, -7.07251178692479443022e-01) (277, 1.58156699221540068823e-02) (278, -5.10704735689130537302e-02) (279, 1.90161791995643500962e-03) (280, -8.37305953306207717546e-02) (281, 5.95314519899835872807e-02) (282, 1.14961755890360256549e-02) (283, -2.57099133273458180238e-02) (284, 3.96450459764147306041e-02) (285, 5.12942222800875369249e-02) (286, -1.05800684299712718928e-01) (287, -1.53870797909547024629e-02) (288, -7.61003521695957363402e-02) (289, -5.28004364792966418563e-01) (290, -2.85422428149622653404e-01) (291, 5.72945990337436672490e+00) (292, -1.28857900938601188656e+00) (293, -6.09574887215687047370e-02) (294, 1.38189386564883442965e-01) (295, 7.07768054948229308199e-02) (296, 4.18394744915395411233e-01) (297, -6.59500179079769544011e-01) (298, 6.31515266703055244690e-01) (299, 6.86332351149317676509e-01) (300, 7.71442359006701661173e-01) (301, -1.59784585322999689305e-01) (302, -1.64756348197703322844e-01) (303, -1.64111626657138853780e-01) (304, 9.57278676107155713365e-04) (305, -1.69679201870199421187e-02) (306, -7.37459634768631439039e-02) (307, 6.33058118122568347363e-02) (308, -3.39892638427266788326e-02) (309, 1.72162073153009700932e-02) (310, -7.85371982865424277109e-03) (311, 7.32505206858162765532e-03) (312, 1.79255639111046698349e-03) (313, -7.34974581143598842958e-02) (314, -1.18865595298489931664e-01) (315, -1.28176524966208904566e-01) (316, -1.67419555778118095413e-01) (317, -1.07465301251278666506e+00) (318, -2.97422021647094547703e+00) (319, -1.89677786592286423684e+00) (320, 1.64356794154613372605e+00) (321, -2.03025856991739850343e+00) (322, 1.65497833624468876357e-01) (323, 5.45443842427614788981e-01) (324, -3.95026479490621251767e-01) (325, 8.11442780835867183420e-01) (326, 5.68616980706895169817e+00) (327, 1.15788021700315169049e+00) (328, 4.25710767011709556584e+00) (329, 3.12216459291076731120e+00) (330, 7.11304309737016082771e-01) (331, 3.36819931144619388874e-01) (332, 6.53496178988281356537e-02) (333, 5.80267926278147175290e-02) (334, -5.94544739512618408694e-02) (335, 2.43990587490549304395e-02) (336, -3.41191716017814113820e-03) (337, 4.69324164566902162637e-03) (338, 1.12631189125528691219e-02) (339, -1.13679725168276776759e-01) (340, -5.32088539860105375068e-02) (341, -8.14609350683351413069e-02) (342, -1.50274510367772919789e-02) (343, -1.98349973107555012375e-02) (344, -1.17608783151540038925e-01) (345, -6.12820034692378090568e+00) (346, -2.51520596394517603756e+00) (347, -2.27978493553799266280e+00) (348, 5.65484206521459031869e-01) (349, 3.45072701925194513795e-01) (350, 8.78857870457072998249e+00) (351, 7.64064355073384549044e-01) (352, 2.24569967228757239042e+00) (353, 4.06429627845405505582e+00) (354, 2.34434744552454343847e+00) (355, 2.69385088698383556860e+00) (356, 3.76226936014646495821e+00) (357, 2.58904147590807021118e+00) (358, 1.18000012620689442855e+00) (359, 7.18075544193724435438e-01) (360, -1.67149172393393982694e-02) (361, -6.95279384534845390498e-02) (362, -1.55617187654027849808e-02) (363, -5.42133358818540564417e-02) (364, -7.77870213192949355729e-02) (365, 5.41341619986048031010e-02) (366, -1.06256043682719264476e-01) (367, 4.25225091595163515179e-02) (368, -1.77823554731855390521e-02) (369, 1.33030104027785402165e-02) (370, 1.58384195563616908542e-01) (371, -4.27682874830244835751e-02) (372, -1.73290725779352533520e-01) (373, -7.36230272633584448272e+00) (374, -4.18583917418208883987e+00) (375, 9.98887422616946962783e-01) (376, 2.84152698097341338546e-01) (377, -8.31483392455897446505e-02) (378, 1.34781445432085367209e-01) (379, 5.48240706004790201433e+00) (380, 6.38577514166071313895e+00) (381, 2.83686296944580496060e+00) (382, 1.41929669024762139529e+00) (383, 8.57298194498224974680e-01) (384, 1.06175810310383167412e+00) (385, 2.00730495978892964359e+00) (386, 1.13986755836442332779e+00) (387, 8.63776311830023568739e-01) (388, -4.86697682408404747045e-02) (389, 9.14639474560265119951e-03) (390, -9.25538423042783775507e-02) (391, -5.92402196946235828218e-03) (392, 6.26140552061548588680e-02) (393, 1.63714902895441341557e-02) (394, 6.34208934801569201856e-02) (395, -9.14515140038023033320e-02) (396, -7.53279199915454604486e-03) (397, 2.63870113305662984393e-02) (398, 1.87862716823363112839e-01) (399, 6.88970059078220040810e-03) (400, -6.20859893938189522089e-01) (401, -1.85906994941281000777e+00) (402, -9.65701178502307522322e-01) (403, 9.30178080329946643801e-01) (404, 1.84132080538657527669e+00) (405, 3.07718761199453294530e-01) (406, 5.02918545833750307850e+00) (407, 3.97032572170520570154e+00) (408, 5.38762090577245356116e+00) (409, 6.26198858904365884825e+00) (410, 4.35419096834363306137e-01) (411, 