FANN_FLO_2.1
num_layers=3
learning_rate=0.400000
connection_rate=1.000000
network_type=0
learning_momentum=0.000000
training_algorithm=2
train_error_function=1
train_stop_function=0
cascade_output_change_fraction=0.010000
quickprop_decay=-0.000100
quickprop_mu=1.750000
rprop_increase_factor=1.200000
rprop_decrease_factor=0.500000
rprop_delta_min=0.000000
rprop_delta_max=50.000000
rprop_delta_zero=0.100000
cascade_output_stagnation_epochs=12
cascade_candidate_change_fraction=0.010000
cascade_candidate_stagnation_epochs=12
cascade_max_out_epochs=150
cascade_max_cand_epochs=150
cascade_num_candidate_groups=2
bit_fail_limit=3.49999999999999977796e-01
cascade_candidate_limit=1.00000000000000000000e+03
cascade_weight_multiplier=4.00000000000000022204e-01
cascade_activation_functions_count=10
cascade_activation_functions=3 5 7 8 10 11 14 15 16 17 
cascade_activation_steepnesses_count=4
cascade_activation_steepnesses=2.50000000000000000000e-01 5.00000000000000000000e-01 7.50000000000000000000e-01 1.00000000000000000000e+00 
layer_sizes=785 101 2 
scale_included=0
neurons (num_inputs, activation_function, activation_steepness)=(0, 0, 0.00000000000000000000e+00) (0, 0, 0.00000000000000000000e+00) (0, 0, 0.00000000000000000000e+00) (0, 0, 0.00000000000000000000e+00) (0, 0, 0.00000000000000000000e+00) (0, 0, 0.00000000000000000000e+00) (0, 0, 0.00000000000000000000e+00) (0, 0, 0.00000000000000000000e+00) (0, 0, 0.00000000000000000000e+00) (0, 0, 0.00000000000000000000e+00) (0, 0, 0.00000000000000000000e+00) (0, 0, 0.00000000000000000000e+00) (0, 0, 0.00000000000000000000e+00) (0, 0, 0.00000000000000000000e+00) (0, 0, 0.00000000000000000000e+00) (0, 0, 0.00000000000000000000e+00) (0, 0, 0.00000000000000000000e+00) (0, 0, 0.00000000000000000000e+00) (0, 0, 0.00000000000000000000e+00) (0, 0, 0.00000000000000000000e+00) (0, 0, 0.00000000000000000000e+00) (0, 0, 0.00000000000000000000e+00) (0, 0, 0.00000000000000000000e+00) (0, 0, 0.00000000000000000000e+00) (0, 0, 0.00000000000000000000e+00) (0, 0, 0.00000000000000000000e+00) (0, 0, 0.00000000000000000000e+00) (0, 0, 0.00000000000000000000e+00) (0, 0, 0.00000000000000000000e+00) (0, 0, 0.00000000000000000000e+00) (0, 0, 0.00000000000000000000e+00) (0, 0, 0.00000000000000000000e+00) (0, 0, 0.00000000000000000000e+00) (0, 0, 0.00000000000000000000e+00) (0, 0, 0.00000000000000000000e+00) (0, 0, 0.00000000000000000000e+00) (0, 0, 0.00000000000000000000e+00) (0, 0, 0.00000000000000000000e+00) (0, 0, 0.00000000000000000000e+00) (0, 0, 0.00000000000000000000e+00) (0, 0, 0.00000000000000000000e+00) (0, 0, 0.00000000000000000000e+00) (0, 0, 0.00000000000000000000e+00) (0, 0, 0.00000000000000000000e+00) (0, 0, 0.00000000000000000000e+00) (0, 0, 0.00000000000000000000e+00) (0, 0, 0.00000000000000000000e+00) (0, 0, 0.00000000000000000000e+00) (0, 0, 0.00000000000000000000e+00) (0, 0, 0.00000000000000000000e+00) (0, 0, 0.00000000000000000000e+00) (0, 0, 0.00000000000000000000e+00) (0, 0, 0.00000000000000000000e+00) (0, 0, 0.00000000000000000000e+00) (0, 0, 0.00000000000000000000e+00) (0, 0, 0.00000000000000000000e+00) (0, 0, 0.00000000000000000000e+00) (0, 0, 0.00000000000000000000e+00) (0, 0, 0.00000000000000000000e+00) (0, 0, 0.00000000000000000000e+00) (0, 0, 0.00000000000000000000e+00) (0, 0, 0.00000000000000000000e+00) (0, 0, 0.00000000000000000000e+00) (0, 0, 0.00000000000000000000e+00) (0, 0, 0.00000000000000000000e+00) (0, 0, 0.00000000000000000000e+00) (0, 0, 0.00000000000000000000e+00) (0, 0, 0.00000000000000000000e+00) (0, 0, 0.00000000000000000000e+00) (0, 0, 0.00000000000000000000e+00) (0, 0, 0.00000000000000000000e+00) (0, 0, 0.00000000000000000000e+00) (0, 0, 0.00000000000000000000e+00) (0, 0, 0.00000000000000000000e+00) (0, 0, 0.00000000000000000000e+00) (0, 0, 0.00000000000000000000e+00) (0, 0, 0.00000000000000000000e+00) (0, 0, 0.00000000000000000000e+00) (0, 0, 0.00000000000000000000e+00) (0, 0, 0.00000000000000000000e+00) (0, 0, 0.00000000000000000000e+00) (0, 0, 0.00000000000000000000e+00) (0, 0, 0.00000000000000000000e+00) (0, 0, 0.00000000000000000000e+00) (0, 0, 0.00000000000000000000e+00) (0, 0, 0.00000000000000000000e+00) (0, 0, 0.00000000000000000000e+00) (0, 0, 0.00000000000000000000e+00) (0, 0, 0.00000000000000000000e+00) (0, 0, 0.00000000000000000000e+00) (0, 0, 0.00000000000000000000e+00) (0, 0, 0.00000000000000000000e+00) (0, 0, 0.00000000000000000000e+00) (0, 0, 0.00000000000000000000e+00) (0, 0, 0.00000000000000000000e+00) (0, 0, 0.00000000000000000000e+00) (0, 0, 0.00000000000000000000e+00) (0, 0, 0.00000000000000000000e+00) (0, 0, 0.00000000000000000000e+00) (0, 0, 0.00000000000000000000e+00) (0, 0, 0.00000000000000000000e+00) (0, 0, 0.00000000000000000000e+00) (0, 0, 0.00000000000000000000e+00) (0, 0, 0.00000000000000000000e+00) (0, 0, 0.00000000000000000000e+00) (0, 0, 0.00000000000000000000e+00) (0, 0, 0.00000000000000000000e+00) (0, 0, 0.00000000000000000000e+00) (0, 0, 0.00000000000000000000e+00) (0, 0, 0.00000000000000000000e+00) (0, 0, 0.00000000000000000000e+00) (0, 0, 0.00000000000000000000e+00) (0, 0, 0.00000000000000000000e+00) (0, 0, 0.00000000000000000000e+00) (0, 0, 0.00000000000000000000e+00) (0, 0, 0.00000000000000000000e+00) (0, 0, 0.00000000000000000000e+00) (0, 0, 0.00000000000000000000e+00) (0, 0, 0.00000000000000000000e+00) (0, 0, 0.00000000000000000000e+00) (0, 0, 0.00000000000000000000e+00) (0, 0, 0.00000000000000000000e+00) (0, 0, 0.00000000000000000000e+00) (0, 0, 0.00000000000000000000e+00) (0, 0, 0.00000000000000000000e+00) (0, 0, 0.00000000000000000000e+00) (0, 0, 0.00000000000000000000e+00) (0, 0, 0.00000000000000000000e+00) (0, 0, 0.00000000000000000000e+00) (0, 0, 0.00000000000000000000e+00) (0, 0, 0.00000000000000000000e+00) (0, 0, 0.00000000000000000000e+00) (0, 0, 0.00000000000000000000e+00) (0, 0, 0.00000000000000000000e+00) (0, 0, 0.00000000000000000000e+00) (0, 0, 0.00000000000000000000e+00) (0, 0, 0.00000000000000000000e+00) (0, 0, 0.00000000000000000000e+00) (0, 0, 0.00000000000000000000e+00) (0, 0, 0.00000000000000000000e+00) (0, 0, 0.00000000000000000000e+00) (0, 0, 0.00000000000000000000e+00) (0, 0, 0.00000000000000000000e+00) (0, 0, 0.00000000000000000000e+00) (0, 0, 0.00000000000000000000e+00) (0, 0, 0.00000000000000000000e+00) (0, 0, 0.00000000000000000000e+00) (0, 0, 0.00000000000000000000e+00) (0, 0, 0.00000000000000000000e+00) (0, 0, 0.00000000000000000000e+00) (0, 0, 0.00000000000000000000e+00) (0, 0, 0.00000000000000000000e+00) (0, 0, 0.00000000000000000000e+00) (0, 0, 0.00000000000000000000e+00) (0, 0, 0.00000000000000000000e+00) (0, 0, 0.00000000000000000000e+00) (0, 0, 0.00000000000000000000e+00) (0, 0, 0.00000000000000000000e+00) (0, 0, 0.00000000000000000000e+00) (0, 0, 0.00000000000000000000e+00) (0, 0, 0.00000000000000000000e+00) (0, 0, 0.00000000000000000000e+00) (0, 0, 0.00000000000000000000e+00) (0, 0, 0.00000000000000000000e+00) (0, 0, 0.00000000000000000000e+00) (0, 0, 0.00000000000000000000e+00) (0, 0, 0.00000000000000000000e+00) (0, 0, 0.00000000000000000000e+00) (0, 0, 0.00000000000000000000e+00) (0, 0, 0.00000000000000000000e+00) (0, 0, 0.00000000000000000000e+00) (0, 0, 0.00000000000000000000e+00) (0, 0, 0.00000000000000000000e+00) (0, 0, 0.00000000000000000000e+00) (0, 0, 0.00000000000000000000e+00) (0, 0, 0.00000000000000000000e+00) (0, 0, 0.00000000000000000000e+00) (0, 0, 0.00000000000000000000e+00) (0, 0, 0.00000000000000000000e+00) (0, 0, 0.00000000000000000000e+00) (0, 0, 0.00000000000000000000e+00) (0, 0, 0.00000000000000000000e+00) (0, 0, 0.00000000000000000000e+00) (0, 0, 0.00000000000000000000e+00) (0, 0, 0.00000000000000000000e+00) (0, 0, 0.00000000000000000000e+00) (0, 0, 0.00000000000000000000e+00) (0, 0, 0.00000000000000000000e+00) (0, 0, 0.00000000000000000000e+00) (0, 0, 0.00000000000000000000e+00) (0, 0, 0.00000000000000000000e+00) (0, 0, 0.00000000000000000000e+00) (0, 0, 0.00000000000000000000e+00) (0, 0, 0.00000000000000000000e+00) (0, 0, 0.00000000000000000000e+00) (0, 0, 0.00000000000000000000e+00) (0, 0, 0.00000000000000000000e+00) (0, 0, 0.00000000000000000000e+00) (0, 0, 0.00000000000000000000e+00) (0, 0, 0.00000000000000000000e+00) (0, 0, 0.00000000000000000000e+00) (0, 0, 0.00000000000000000000e+00) (0, 0, 0.00000000000000000000e+00) (0, 0, 0.00000000000000000000e+00) (0, 0, 0.00000000000000000000e+00) (0, 0, 0.00000000000000000000e+00) (0, 0, 0.00000000000000000000e+00) (0, 0, 0.00000000000000000000e+00) (0, 0, 0.00000000000000000000e+00) (0, 0, 0.00000000000000000000e+00) (0, 0, 0.00000000000000000000e+00) (0, 0, 0.00000000000000000000e+00) (0, 0, 0.00000000000000000000e+00) (0, 0, 0.00000000000000000000e+00) (0, 0, 0.00000000000000000000e+00) (0, 0, 0.00000000000000000000e+00) (0, 0, 0.00000000000000000000e+00) (0, 0, 0.00000000000000000000e+00) (0, 0, 0.00000000000000000000e+00) (0, 0, 0.00000000000000000000e+00) (0, 0, 0.00000000000000000000e+00) (0, 0, 0.00000000000000000000e+00) (0, 0, 0.00000000000000000000e+00) (0, 0, 0.00000000000000000000e+00) (0, 0, 0.00000000000000000000e+00) (0, 0, 0.00000000000000000000e+00) (0, 0, 0.00000000000000000000e+00) (0, 0, 0.00000000000000000000e+00) (0, 0, 0.00000000000000000000e+00) (0, 0, 0.00000000000000000000e+00) (0, 0, 0.00000000000000000000e+00) (0, 0, 0.00000000000000000000e+00) (0, 0, 0.00000000000000000000e+00) (0, 0, 0.00000000000000000000e+00) (0, 0, 0.00000000000000000000e+00) (0, 0, 0.00000000000000000000e+00) (0, 0, 0.00000000000000000000e+00) (0, 0, 0.00000000000000000000e+00) (0, 0, 0.00000000000000000000e+00) (0, 0, 0.00000000000000000000e+00) (0, 0, 0.00000000000000000000e+00) (0, 0, 0.00000000000000000000e+00) (0, 0, 0.00000000000000000000e+00) (0, 0, 0.00000000000000000000e+00) (0, 0, 0.00000000000000000000e+00) (0, 0, 0.00000000000000000000e+00) (0, 0, 0.00000000000000000000e+00) (0, 0, 0.00000000000000000000e+00) (0, 0, 0.00000000000000000000e+00) (0, 0, 0.00000000000000000000e+00) (0, 0, 0.00000000000000000000e+00) (0, 0, 0.00000000000000000000e+00) (0, 0, 0.00000000000000000000e+00) (0, 0, 0.00000000000000000000e+00) (0, 0, 0.00000000000000000000e+00) (0, 0, 0.00000000000000000000e+00) (0, 0, 0.00000000000000000000e+00) (0, 0, 0.00000000000000000000e+00) (0, 0, 0.00000000000000000000e+00) (0, 0, 0.00000000000000000000e+00) (0, 0, 0.00000000000000000000e+00) (0, 0, 0.00000000000000000000e+00) (0, 0, 0.00000000000000000000e+00) (0, 0, 0.00000000000000000000e+00) (0, 0, 0.00000000000000000000e+00) (0, 0, 0.00000000000000000000e+00) (0, 0, 0.00000000000000000000e+00) (0, 0, 0.00000000000000000000e+00) (0, 0, 0.00000000000000000000e+00) (0, 0, 0.00000000000000000000e+00) (0, 0, 0.00000000000000000000e+00) (0, 0, 0.00000000000000000000e+00) (0, 0, 0.00000000000000000000e+00) (0, 0, 0.00000000000000000000e+00) (0, 0, 0.00000000000000000000e+00) (0, 0, 0.00000000000000000000e+00) (0, 0, 0.00000000000000000000e+00) (0, 0, 0.00000000000000000000e+00) (0, 0, 0.00000000000000000000e+00) (0, 0, 0.00000000000000000000e+00) (0, 0, 0.00000000000000000000e+00) (0, 0, 0.00000000000000000000e+00) (0, 0, 0.00000000000000000000e+00) (0, 0, 0.00000000000000000000e+00) (0, 0, 0.00000000000000000000e+00) (0, 0, 0.00000000000000000000e+00) (0, 0, 0.00000000000000000000e+00) (0, 0, 0.00000000000000000000e+00) (0, 0, 0.00000000000000000000e+00) (0, 0, 0.00000000000000000000e+00) (0, 0, 0.00000000000000000000e+00) (0, 0, 0.00000000000000000000e+00) (0, 0, 0.00000000000000000000e+00) (0, 0, 0.00000000000000000000e+00) (0, 0, 0.00000000000000000000e+00) (0, 0, 0.00000000000000000000e+00) (0, 0, 0.00000000000000000000e+00) (0, 0, 0.00000000000000000000e+00) (0, 0, 0.00000000000000000000e+00) (0, 0, 0.00000000000000000000e+00) (0, 0, 0.00000000000000000000e+00) (0, 0, 0.00000000000000000000e+00) (0, 0, 0.00000000000000000000e+00) (0, 0, 0.00000000000000000000e+00) (0, 0, 0.00000000000000000000e+00) (0, 0, 0.00000000000000000000e+00) (0, 0, 0.00000000000000000000e+00) (0, 0, 0.00000000000000000000e+00) (0, 0, 0.00000000000000000000e+00) (0, 0, 0.00000000000000000000e+00) (0, 0, 0.00000000000000000000e+00) (0, 0, 0.00000000000000000000e+00) (0, 0, 0.00000000000000000000e+00) (0, 0, 0.00000000000000000000e+00) (0, 0, 0.00000000000000000000e+00) (0, 0, 0.00000000000000000000e+00) (0, 0, 0.00000000000000000000e+00) (0, 0, 0.00000000000000000000e+00) (0, 0, 0.00000000000000000000e+00) (0, 0, 0.00000000000000000000e+00) (0, 0, 0.00000000000000000000e+00) (0, 0, 0.00000000000000000000e+00) (0, 0, 0.00000000000000000000e+00) (0, 0, 0.00000000000000000000e+00) (0, 0, 0.00000000000000000000e+00) (0, 0, 0.00000000000000000000e+00) (0, 0, 0.00000000000000000000e+00) (0, 0, 0.00000000000000000000e+00) (0, 0, 0.00000000000000000000e+00) (0, 0, 0.00000000000000000000e+00) (0, 0, 0.00000000000000000000e+00) (0, 0, 0.00000000000000000000e+00) (0, 0, 0.00000000000000000000e+00) (0, 0, 0.00000000000000000000e+00) (0, 0, 0.00000000000000000000e+00) (0, 0, 0.00000000000000000000e+00) (0, 0, 0.00000000000000000000e+00) (0, 0, 0.00000000000000000000e+00) (0, 0, 0.00000000000000000000e+00) (0, 0, 0.00000000000000000000e+00) (0, 0, 0.00000000000000000000e+00) (0, 0, 0.00000000000000000000e+00) (0, 0, 0.00000000000000000000e+00) (0, 0, 0.00000000000000000000e+00) (0, 0, 0.00000000000000000000e+00) (0, 0, 0.00000000000000000000e+00) (0, 0, 0.00000000000000000000e+00) (0, 0, 0.00000000000000000000e+00) (0, 0, 0.00000000000000000000e+00) (0, 0, 0.00000000000000000000e+00) (0, 0, 0.00000000000000000000e+00) (0, 0, 0.00000000000000000000e+00) (0, 0, 0.00000000000000000000e+00) (0, 0, 0.00000000000000000000e+00) (0, 0, 0.00000000000000000000e+00) (0, 0, 0.00000000000000000000e+00) (0, 0, 0.00000000000000000000e+00) (0, 0, 0.00000000000000000000e+00) (0, 0, 0.00000000000000000000e+00) (0, 0, 0.00000000000000000000e+00) (0, 0, 0.00000000000000000000e+00) (0, 0, 0.00000000000000000000e+00) (0, 0, 0.00000000000000000000e+00) (0, 0, 0.00000000000000000000e+00) (0, 0, 0.00000000000000000000e+00) (0, 0, 0.00000000000000000000e+00) (0, 0, 0.00000000000000000000e+00) (0, 0, 0.00000000000000000000e+00) (0, 0, 0.00000000000000000000e+00) (0, 0, 0.00000000000000000000e+00) (0, 0, 0.00000000000000000000e+00) (0, 0, 0.00000000000000000000e+00) (0, 0, 0.00000000000000000000e+00) (0, 0, 0.00000000000000000000e+00) (0, 0, 0.00000000000000000000e+00) (0, 0, 0.00000000000000000000e+00) (0, 0, 0.00000000000000000000e+00) (0, 0, 0.00000000000000000000e+00) (0, 0, 0.00000000000000000000e+00) (0, 0, 0.00000000000000000000e+00) (0, 0, 0.00000000000000000000e+00) (0, 0, 0.00000000000000000000e+00) (0, 0, 0.00000000000000000000e+00) (0, 0, 0.00000000000000000000e+00) (0, 0, 0.00000000000000000000e+00) (0, 0, 0.00000000000000000000e+00) (0, 0, 0.00000000000000000000e+00) (0, 0, 0.00000000000000000000e+00) (0, 0, 0.00000000000000000000e+00) (0, 0, 0.00000000000000000000e+00) (0, 0, 0.00000000000000000000e+00) (0, 0, 0.00000000000000000000e+00) (0, 0, 0.00000000000000000000e+00) (0, 0, 0.00000000000000000000e+00) (0, 0, 0.00000000000000000000e+00) (0, 0, 0.00000000000000000000e+00) (0, 0, 0.00000000000000000000e+00) (0, 0, 0.00000000000000000000e+00) (0, 0, 0.00000000000000000000e+00) (0, 0, 0.00000000000000000000e+00) (0, 0, 0.00000000000000000000e+00) (0, 0, 0.00000000000000000000e+00) (0, 0, 0.00000000000000000000e+00) (0, 0, 0.00000000000000000000e+00) (0, 0, 0.00000000000000000000e+00) (0, 0, 0.00000000000000000000e+00) (0, 0, 0.00000000000000000000e+00) (0, 0, 0.00000000000000000000e+00) (0, 0, 0.00000000000000000000e+00) (0, 0, 0.00000000000000000000e+00) (0, 0, 0.00000000000000000000e+00) (0, 0, 0.00000000000000000000e+00) (0, 0, 0.00000000000000000000e+00) (0, 0, 0.00000000000000000000e+00) (0, 0, 0.00000000000000000000e+00) (0, 0, 0.00000000000000000000e+00) (0, 0, 0.00000000000000000000e+00) (0, 0, 0.00000000000000000000e+00) (0, 0, 0.00000000000000000000e+00) (0, 0, 0.00000000000000000000e+00) (0, 0, 0.00000000000000000000e+00) (0, 0, 0.00000000000000000000e+00) (0, 0, 0.00000000000000000000e+00) (0, 0, 0.00000000000000000000e+00) (0, 0, 0.00000000000000000000e+00) (0, 0, 0.00000000000000000000e+00) (0, 0, 0.00000000000000000000e+00) (0, 0, 0.00000000000000000000e+00) (0, 0, 0.00000000000000000000e+00) (0, 0, 0.00000000000000000000e+00) (0, 0, 0.00000000000000000000e+00) (0, 0, 0.00000000000000000000e+00) (0, 0, 0.00000000000000000000e+00) (0, 0, 0.00000000000000000000e+00) (0, 0, 0.00000000000000000000e+00) (0, 0, 0.00000000000000000000e+00) (0, 0, 0.00000000000000000000e+00) (0, 0, 0.00000000000000000000e+00) (0, 0, 0.00000000000000000000e+00) (0, 0, 0.00000000000000000000e+00) (0, 0, 0.00000000000000000000e+00) (0, 0, 0.00000000000000000000e+00) (0, 0, 0.00000000000000000000e+00) (0, 0, 0.00000000000000000000e+00) (0, 0, 0.00000000000000000000e+00) (0, 0, 0.00000000000000000000e+00) (0, 0, 0.00000000000000000000e+00) (0, 0, 0.00000000000000000000e+00) (0, 0, 0.00000000000000000000e+00) (0, 0, 0.00000000000000000000e+00) (0, 0, 0.00000000000000000000e+00) (0, 0, 0.00000000000000000000e+00) (0, 0, 0.00000000000000000000e+00) (0, 0, 0.00000000000000000000e+00) (0, 0, 0.00000000000000000000e+00) (0, 0, 0.00000000000000000000e+00) (0, 0, 0.00000000000000000000e+00) (0, 0, 0.00000000000000000000e+00) (0, 0, 0.00000000000000000000e+00) (0, 0, 0.00000000000000000000e+00) (0, 0, 0.00000000000000000000e+00) (0, 0, 0.00000000000000000000e+00) (0, 0, 0.00000000000000000000e+00) (0, 0, 0.00000000000000000000e+00) (0, 0, 0.00000000000000000000e+00) (0, 0, 0.00000000000000000000e+00) (0, 0, 0.00000000000000000000e+00) (0, 0, 0.00000000000000000000e+00) (0, 0, 0.00000000000000000000e+00) (0, 0, 0.00000000000000000000e+00) (0, 0, 0.00000000000000000000e+00) (0, 0, 0.00000000000000000000e+00) (0, 0, 0.00000000000000000000e+00) (0, 0, 0.00000000000000000000e+00) (0, 0, 0.00000000000000000000e+00) (0, 0, 0.00000000000000000000e+00) (0, 0, 0.00000000000000000000e+00) (0, 0, 0.00000000000000000000e+00) (0, 0, 0.00000000000000000000e+00) (0, 0, 0.00000000000000000000e+00) (0, 0, 0.00000000000000000000e+00) (0, 0, 0.00000000000000000000e+00) (0, 0, 0.00000000000000000000e+00) (0, 0, 0.00000000000000000000e+00) (0, 0, 0.00000000000000000000e+00) (0, 0, 0.00000000000000000000e+00) (0, 0, 0.00000000000000000000e+00) (0, 0, 0.00000000000000000000e+00) (0, 0, 0.00000000000000000000e+00) (0, 0, 0.00000000000000000000e+00) (0, 0, 0.00000000000000000000e+00) (0, 0, 0.00000000000000000000e+00) (0, 0, 0.00000000000000000000e+00) (0, 0, 0.00000000000000000000e+00) (0, 0, 0.00000000000000000000e+00) (0, 0, 0.00000000000000000000e+00) (0, 0, 0.00000000000000000000e+00) (0, 0, 0.00000000000000000000e+00) (0, 0, 0.00000000000000000000e+00) (0, 0, 0.00000000000000000000e+00) (0, 0, 0.00000000000000000000e+00) (0, 0, 0.00000000000000000000e+00) (0, 0, 0.00000000000000000000e+00) (0, 0, 0.00000000000000000000e+00) (0, 0, 0.00000000000000000000e+00) (0, 0, 0.00000000000000000000e+00) (0, 0, 0.00000000000000000000e+00) (0, 0, 0.00000000000000000000e+00) (0, 0, 0.00000000000000000000e+00) (0, 0, 0.00000000000000000000e+00) (0, 0, 0.00000000000000000000e+00) (0, 0, 0.00000000000000000000e+00) (0, 0, 0.00000000000000000000e+00) (0, 0, 0.00000000000000000000e+00) (0, 0, 0.00000000000000000000e+00) (0, 0, 0.00000000000000000000e+00) (0, 0, 0.00000000000000000000e+00) (0, 0, 0.00000000000000000000e+00) (0, 0, 0.00000000000000000000e+00) (0, 0, 0.00000000000000000000e+00) (0, 0, 0.00000000000000000000e+00) (0, 0, 0.00000000000000000000e+00) (0, 0, 0.00000000000000000000e+00) (0, 0, 0.00000000000000000000e+00) (0, 0, 0.00000000000000000000e+00) (0, 0, 0.00000000000000000000e+00) (0, 0, 0.00000000000000000000e+00) (0, 0, 0.00000000000000000000e+00) (0, 0, 0.00000000000000000000e+00) (0, 0, 0.00000000000000000000e+00) (0, 0, 0.00000000000000000000e+00) (0, 0, 0.00000000000000000000e+00) (0, 0, 0.00000000000000000000e+00) (0, 0, 0.00000000000000000000e+00) (0, 0, 0.00000000000000000000e+00) (0, 0, 0.00000000000000000000e+00) (0, 0, 0.00000000000000000000e+00) (0, 0, 0.00000000000000000000e+00) (0, 0, 0.00000000000000000000e+00) (0, 0, 0.00000000000000000000e+00) (0, 0, 0.00000000000000000000e+00) (0, 0, 0.00000000000000000000e+00) (0, 0, 0.00000000000000000000e+00) (0, 0, 0.00000000000000000000e+00) (0, 0, 0.00000000000000000000e+00) (0, 0, 0.00000000000000000000e+00) (0, 0, 0.00000000000000000000e+00) (0, 0, 0.00000000000000000000e+00) (0, 0, 0.00000000000000000000e+00) (0, 0, 0.00000000000000000000e+00) (0, 0, 0.00000000000000000000e+00) (0, 0, 0.00000000000000000000e+00) (0, 0, 0.00000000000000000000e+00) (0, 0, 0.00000000000000000000e+00) (0, 0, 0.00000000000000000000e+00) (0, 0, 0.00000000000000000000e+00) (0, 0, 0.00000000000000000000e+00) (0, 0, 0.00000000000000000000e+00) (0, 0, 0.00000000000000000000e+00) (0, 0, 0.00000000000000000000e+00) (0, 0, 0.00000000000000000000e+00) (0, 0, 0.00000000000000000000e+00) (0, 0, 0.00000000000000000000e+00) (0, 0, 0.00000000000000000000e+00) (0, 0, 0.00000000000000000000e+00) (0, 0, 0.00000000000000000000e+00) (0, 0, 0.00000000000000000000e+00) (0, 0, 0.00000000000000000000e+00) (0, 0, 0.00000000000000000000e+00) (0, 0, 0.00000000000000000000e+00) (0, 0, 0.00000000000000000000e+00) (0, 0, 0.00000000000000000000e+00) (0, 0, 0.00000000000000000000e+00) (0, 0, 0.00000000000000000000e+00) (0, 0, 0.00000000000000000000e+00) (0, 0, 0.00000000000000000000e+00) (0, 0, 0.00000000000000000000e+00) (0, 0, 0.00000000000000000000e+00) (0, 0, 0.00000000000000000000e+00) (0, 0, 0.00000000000000000000e+00) (0, 0, 0.00000000000000000000e+00) (0, 0, 0.00000000000000000000e+00) (0, 0, 0.00000000000000000000e+00) (0, 0, 0.00000000000000000000e+00) (0, 0, 0.00000000000000000000e+00) (0, 0, 0.00000000000000000000e+00) (0, 0, 0.00000000000000000000e+00) (0, 0, 0.00000000000000000000e+00) (0, 0, 0.00000000000000000000e+00) (0, 0, 0.00000000000000000000e+00) (0, 0, 0.00000000000000000000e+00) (0, 0, 0.00000000000000000000e+00) (0, 0, 0.00000000000000000000e+00) (0, 0, 0.00000000000000000000e+00) (0, 0, 0.00000000000000000000e+00) (0, 0, 0.00000000000000000000e+00) (0, 0, 0.00000000000000000000e+00) (0, 0, 0.00000000000000000000e+00) (0, 0, 0.00000000000000000000e+00) (0, 0, 0.00000000000000000000e+00) (0, 0, 0.00000000000000000000e+00) (0, 0, 0.00000000000000000000e+00) (0, 0, 0.00000000000000000000e+00) (0, 0, 0.00000000000000000000e+00) (0, 0, 0.00000000000000000000e+00) (0, 0, 0.00000000000000000000e+00) (0, 0, 0.00000000000000000000e+00) (0, 0, 0.00000000000000000000e+00) (0, 0, 0.00000000000000000000e+00) (0, 0, 0.00000000000000000000e+00) (0, 0, 0.00000000000000000000e+00) (0, 0, 0.00000000000000000000e+00) (0, 0, 0.00000000000000000000e+00) (0, 0, 0.00000000000000000000e+00) (0, 0, 0.00000000000000000000e+00) (0, 0, 0.00000000000000000000e+00) (0, 0, 0.00000000000000000000e+00) (0, 0, 0.00000000000000000000e+00) (0, 0, 0.00000000000000000000e+00) (0, 0, 0.00000000000000000000e+00) (0, 0, 0.00000000000000000000e+00) (0, 0, 0.00000000000000000000e+00) (0, 0, 0.00000000000000000000e+00) (0, 0, 0.00000000000000000000e+00) (0, 0, 0.00000000000000000000e+00) (0, 0, 0.00000000000000000000e+00) (0, 0, 0.00000000000000000000e+00) (0, 0, 0.00000000000000000000e+00) (0, 0, 0.00000000000000000000e+00) (0, 0, 0.00000000000000000000e+00) (0, 0, 0.00000000000000000000e+00) (0, 0, 0.00000000000000000000e+00) (0, 0, 0.00000000000000000000e+00) (0, 0, 0.00000000000000000000e+00) (0, 0, 0.00000000000000000000e+00) (0, 0, 0.00000000000000000000e+00) (0, 0, 0.00000000000000000000e+00) (0, 0, 0.00000000000000000000e+00) (0, 0, 0.00000000000000000000e+00) (0, 0, 0.00000000000000000000e+00) (0, 0, 0.00000000000000000000e+00) (0, 0, 0.00000000000000000000e+00) (0, 0, 0.00000000000000000000e+00) (0, 0, 0.00000000000000000000e+00) (0, 0, 0.00000000000000000000e+00) (0, 0, 0.00000000000000000000e+00) (0, 0, 0.00000000000000000000e+00) (0, 0, 0.00000000000000000000e+00) (0, 0, 0.00000000000000000000e+00) (0, 0, 0.00000000000000000000e+00) (0, 0, 0.00000000000000000000e+00) (0, 0, 0.00000000000000000000e+00) (0, 0, 0.00000000000000000000e+00) (0, 0, 0.00000000000000000000e+00) (0, 0, 0.00000000000000000000e+00) (0, 0, 0.00000000000000000000e+00) (0, 0, 0.00000000000000000000e+00) (0, 0, 0.00000000000000000000e+00) (0, 0, 0.00000000000000000000e+00) (0, 0, 0.00000000000000000000e+00) (0, 0, 0.00000000000000000000e+00) (0, 0, 0.00000000000000000000e+00) (0, 0, 0.00000000000000000000e+00) (0, 0, 0.00000000000000000000e+00) (0, 0, 0.00000000000000000000e+00) (0, 0, 0.00000000000000000000e+00) (0, 0, 0.00000000000000000000e+00) (0, 0, 0.00000000000000000000e+00) (0, 0, 0.00000000000000000000e+00) (0, 0, 0.00000000000000000000e+00) (0, 0, 0.00000000000000000000e+00) (0, 0, 0.00000000000000000000e+00) (0, 0, 0.00000000000000000000e+00) (0, 0, 0.00000000000000000000e+00) (0, 0, 0.00000000000000000000e+00) (0, 0, 0.00000000000000000000e+00) (0, 0, 0.00000000000000000000e+00) (0, 0, 0.00000000000000000000e+00) (0, 0, 0.00000000000000000000e+00) (0, 0, 0.00000000000000000000e+00) (0, 0, 0.00000000000000000000e+00) (0, 0, 0.00000000000000000000e+00) (0, 0, 0.00000000000000000000e+00) (0, 0, 0.00000000000000000000e+00) (0, 0, 0.00000000000000000000e+00) (0, 0, 0.00000000000000000000e+00) (0, 0, 0.00000000000000000000e+00) (0, 0, 0.00000000000000000000e+00) (0, 0, 0.00000000000000000000e+00) (0, 0, 0.00000000000000000000e+00) (0, 0, 0.00000000000000000000e+00) (0, 0, 0.00000000000000000000e+00) (0, 0, 0.00000000000000000000e+00) (0, 0, 0.00000000000000000000e+00) (0, 0, 0.00000000000000000000e+00) (0, 0, 0.00000000000000000000e+00) (0, 0, 0.00000000000000000000e+00) (0, 0, 0.00000000000000000000e+00) (0, 0, 0.00000000000000000000e+00) (0, 0, 0.00000000000000000000e+00) (0, 0, 0.00000000000000000000e+00) (0, 0, 0.00000000000000000000e+00) (0, 0, 0.00000000000000000000e+00) (0, 0, 0.00000000000000000000e+00) (0, 0, 0.00000000000000000000e+00) (0, 0, 0.00000000000000000000e+00) (0, 0, 0.00000000000000000000e+00) (0, 0, 0.00000000000000000000e+00) (0, 0, 0.00000000000000000000e+00) (0, 0, 0.00000000000000000000e+00) (0, 0, 0.00000000000000000000e+00) (0, 0, 0.00000000000000000000e+00) (0, 0, 0.00000000000000000000e+00) (0, 0, 0.00000000000000000000e+00) (0, 0, 0.00000000000000000000e+00) (0, 0, 0.00000000000000000000e+00) (0, 0, 0.00000000000000000000e+00) (0, 0, 0.00000000000000000000e+00) (0, 0, 0.00000000000000000000e+00) (0, 0, 0.00000000000000000000e+00) (0, 0, 0.00000000000000000000e+00) (0, 0, 0.00000000000000000000e+00) (0, 0, 0.00000000000000000000e+00) (0, 0, 0.00000000000000000000e+00) (0, 0, 0.00000000000000000000e+00) (0, 0, 0.00000000000000000000e+00) (0, 0, 0.00000000000000000000e+00) (0, 0, 0.00000000000000000000e+00) (0, 0, 0.00000000000000000000e+00) (0, 0, 0.00000000000000000000e+00) (0, 0, 0.00000000000000000000e+00) (0, 0, 0.00000000000000000000e+00) (0, 0, 0.00000000000000000000e+00) (0, 0, 0.00000000000000000000e+00) (0, 0, 0.00000000000000000000e+00) (0, 0, 0.00000000000000000000e+00) (0, 0, 0.00000000000000000000e+00) (0, 0, 0.00000000000000000000e+00) (0, 0, 0.00000000000000000000e+00) (0, 0, 0.00000000000000000000e+00) (0, 0, 0.00000000000000000000e+00) (0, 0, 0.00000000000000000000e+00) (0, 0, 0.00000000000000000000e+00) (0, 0, 0.00000000000000000000e+00) (0, 0, 0.00000000000000000000e+00) (0, 0, 0.00000000000000000000e+00) (0, 0, 0.00000000000000000000e+00) (0, 0, 0.00000000000000000000e+00) (0, 0, 0.00000000000000000000e+00) (0, 0, 0.00000000000000000000e+00) (0, 0, 0.00000000000000000000e+00) (0, 0, 0.00000000000000000000e+00) (0, 0, 0.00000000000000000000e+00) (0, 0, 0.00000000000000000000e+00) (0, 0, 0.00000000000000000000e+00) (0, 0, 0.00000000000000000000e+00) (0, 0, 0.00000000000000000000e+00) (0, 0, 0.00000000000000000000e+00) (0, 0, 0.00000000000000000000e+00) (0, 0, 0.00000000000000000000e+00) (0, 0, 0.00000000000000000000e+00) (0, 0, 0.00000000000000000000e+00) (0, 0, 0.00000000000000000000e+00) (0, 0, 0.00000000000000000000e+00) (0, 0, 0.00000000000000000000e+00) (0, 0, 0.00000000000000000000e+00) (0, 0, 0.00000000000000000000e+00) (0, 0, 0.00000000000000000000e+00) (0, 0, 0.00000000000000000000e+00) (0, 0, 0.00000000000000000000e+00) (0, 0, 0.00000000000000000000e+00) (0, 0, 0.00000000000000000000e+00) (0, 0, 0.00000000000000000000e+00) (0, 0, 0.00000000000000000000e+00) (0, 0, 0.00000000000000000000e+00) (0, 0, 0.00000000000000000000e+00) (0, 0, 0.00000000000000000000e+00) (0, 0, 0.00000000000000000000e+00) (0, 0, 0.00000000000000000000e+00) (0, 0, 0.00000000000000000000e+00) (0, 0, 0.00000000000000000000e+00) (0, 0, 0.00000000000000000000e+00) (0, 0, 0.00000000000000000000e+00) (0, 0, 0.00000000000000000000e+00) (0, 0, 0.00000000000000000000e+00) (785, 4, 5.00000000000000000000e-01) (785, 4, 5.00000000000000000000e-01) (785, 4, 5.00000000000000000000e-01) (785, 4, 5.00000000000000000000e-01) (785, 4, 5.00000000000000000000e-01) (785, 4, 5.00000000000000000000e-01) (785, 4, 5.00000000000000000000e-01) (785, 4, 5.00000000000000000000e-01) (785, 4, 5.00000000000000000000e-01) (785, 4, 5.00000000000000000000e-01) (785, 4, 5.00000000000000000000e-01) (785, 4, 5.00000000000000000000e-01) (785, 4, 5.00000000000000000000e-01) (785, 4, 5.00000000000000000000e-01) (785, 4, 5.00000000000000000000e-01) (785, 4, 5.00000000000000000000e-01) (785, 4, 5.00000000000000000000e-01) (785, 4, 5.00000000000000000000e-01) (785, 4, 5.00000000000000000000e-01) (785, 4, 5.00000000000000000000e-01) (785, 4, 5.00000000000000000000e-01) (785, 4, 5.00000000000000000000e-01) (785, 4, 5.00000000000000000000e-01) (785, 4, 5.00000000000000000000e-01) (785, 4, 5.00000000000000000000e-01) (785, 4, 5.00000000000000000000e-01) (785, 4, 5.00000000000000000000e-01) (785, 4, 5.00000000000000000000e-01) (785, 4, 5.00000000000000000000e-01) (785, 4, 5.00000000000000000000e-01) (785, 4, 5.00000000000000000000e-01) (785, 4, 5.00000000000000000000e-01) (785, 4, 5.00000000000000000000e-01) (785, 4, 5.00000000000000000000e-01) (785, 4, 5.00000000000000000000e-01) (785, 4, 5.00000000000000000000e-01) (785, 4, 5.00000000000000000000e-01) (785, 4, 5.00000000000000000000e-01) (785, 4, 5.00000000000000000000e-01) (785, 4, 5.00000000000000000000e-01) (785, 4, 5.00000000000000000000e-01) (785, 4, 5.00000000000000000000e-01) (785, 4, 5.00000000000000000000e-01) (785, 4, 5.00000000000000000000e-01) (785, 4, 5.00000000000000000000e-01) (785, 4, 5.00000000000000000000e-01) (785, 4, 5.00000000000000000000e-01) (785, 4, 5.00000000000000000000e-01) (785, 4, 5.00000000000000000000e-01) (785, 4, 5.00000000000000000000e-01) (785, 4, 5.00000000000000000000e-01) (785, 4, 5.00000000000000000000e-01) (785, 4, 5.00000000000000000000e-01) (785, 4, 5.00000000000000000000e-01) (785, 4, 5.00000000000000000000e-01) (785, 4, 5.00000000000000000000e-01) (785, 4, 5.00000000000000000000e-01) (785, 4, 5.00000000000000000000e-01) (785, 4, 5.00000000000000000000e-01) (785, 4, 5.00000000000000000000e-01) (785, 4, 5.00000000000000000000e-01) (785, 4, 5.00000000000000000000e-01) (785, 4, 5.00000000000000000000e-01) (785, 4, 5.00000000000000000000e-01) (785, 4, 5.00000000000000000000e-01) (785, 4, 5.00000000000000000000e-01) (785, 4, 5.00000000000000000000e-01) (785, 4, 5.00000000000000000000e-01) (785, 4, 5.00000000000000000000e-01) (785, 4, 5.00000000000000000000e-01) (785, 4, 5.00000000000000000000e-01) (785, 4, 5.00000000000000000000e-01) (785, 4, 5.00000000000000000000e-01) (785, 4, 5.00000000000000000000e-01) (785, 4, 5.00000000000000000000e-01) (785, 4, 5.00000000000000000000e-01) (785, 4, 5.00000000000000000000e-01) (785, 4, 5.00000000000000000000e-01) (785, 4, 5.00000000000000000000e-01) (785, 4, 5.00000000000000000000e-01) (785, 4, 5.00000000000000000000e-01) (785, 4, 5.00000000000000000000e-01) (785, 4, 5.00000000000000000000e-01) (785, 4, 5.00000000000000000000e-01) (785, 4, 5.00000000000000000000e-01) (785, 4, 5.00000000000000000000e-01) (785, 4, 5.00000000000000000000e-01) (785, 4, 5.00000000000000000000e-01) (785, 4, 5.00000000000000000000e-01) (785, 4, 5.00000000000000000000e-01) (785, 4, 5.00000000000000000000e-01) (785, 4, 5.00000000000000000000e-01) (785, 4, 5.00000000000000000000e-01) (785, 4, 5.00000000000000000000e-01) (785, 4, 5.00000000000000000000e-01) (785, 4, 5.00000000000000000000e-01) (785, 4, 5.00000000000000000000e-01) (785, 4, 5.00000000000000000000e-01) (785, 4, 5.00000000000000000000e-01) (785, 4, 5.00000000000000000000e-01) (0, 0, 0.00000000000000000000e+00) (101, 5, 5.00000000000000000000e-01) (0, 5, 0.00000000000000000000e+00) 
connections (connected_to_neuron, weight)=(0, 8.45042237349640790178e-01) (1, 7.78037795134674969866e-01) (2, 9.39380460687767926409e-01) (3, 8.07900504478108349993e-01) (4, 9.16413196631562176897e-01) (5, 8.65999774345051709368e-01) (6, 9.22397145339142743303e-01) (7, 9.09524151393067303850e-01) (8, 9.29564410158287945940e-01) (9, 8.67010572262894574358e-01) (10, 9.01174673148285809710e-01) (11, 8.07730318316113415911e-01) (12, 8.92184720643650952532e-01) (13, 8.64561901696812573626e-01) (14, 7.94190877386223736956e-01) (15, 8.36828732200753155901e-01) (16, 9.47488346406113568499e-01) (17, 7.73600765772950116350e-01) (18, 8.00426275738369885637e-01) (19, 7.80673765846383038713e-01) (20, 9.16545399733673993303e-01) (21, 9.15862285801064435198e-01) (22, 8.24316476740729275896e-01) (23, 8.72087494739186230852e-01) (24, 9.22653862544190350725e-01) (25, 9.37332698413025799944e-01) (26, 9.34014224716317120745e-01) (27, 8.12140760280978146746e-01) (28, 9.32013848134171429827e-01) (29, 9.02149611421715680315e-01) (30, 8.91313472100388470842e-01) (31, 8.06621031173359814836e-01) (32, 9.09752332874428693010e-01) (33, 8.60258863576542798235e-01) (34, 8.44086469420086804583e-01) (35, 8.55730490096699658586e-01) (36, 9.55823564239632550432e-01) (37, 7.96048560448777142717e-01) (38, 7.94819579728733960344e-01) (39, 9.14952912636887494280e-01) (40, 8.92624081381451550676e-01) (41, 9.25559201546799603655e-01) (42, 9.52248179622780743792e-01) (43, 8.14373736538779202654e-01) (44, 8.19686034031998578264e-01) (45, 7.76004002698552075579e-01) (46, 8.80767406233441296770e-01) (47, 7.96739326127659741594e-01) (48, 7.79169702240120831682e-01) (49, 9.10758623191010419085e-01) (50, 8.06978033193242016985e-01) (51, 9.25280043192994061663e-01) (52, 8.56185847231041852190e-01) (53, 8.60859447427880231096e-01) (54, 8.26932483621727887346e-01) (55, 8.08404648014199200823e-01) (56, 8.27757080354582730486e-01) (57, 7.90511654027592602922e-01) (58, 8.50110345789086285784e-01) (59, 7.89335870453011456682e-01) (60, 9.22226199217926922991e-01) (61, 7.70988756128441754534e-01) (62, 8.25521839120280209734e-01) (63, 8.61543477781903210833e-01) (64, 8.60812560924183789446e-01) (65, 8.99173253484856549456e-01) (66, 9.46838909097802106096e-01) (67, 8.46201070853363934710e-01) (68, 9.24786755152832928850e-01) (69, 7.71223419614922467424e-01) (70, 7.90718921729218426897e-01) (71, 8.46975767322670880510e-01) (72, 9.26347562380921307756e-01) (73, 7.72532039590966168596e-01) (74, 8.90914441355359021379e-01) (75, 7.75598527201306287004e-01) (76, 7.78100983508717480852e-01) (77, 8.01246793278347912981e-01) (78, 8.01902794548165265276e-01) (79, 7.86835626968037549211e-01) (80, 9.41570350237976971819e-01) (81, 8.38445768960606518938e-01) (82, 9.41680618830811444475e-01) (83, 8.27321146883856717302e-01) (84, 9.28870150157105389788e-01) (85, 7.98178040691506329729e-01) (86, 8.65290732391964856340e-01) (87, 7.86192179926526013567e-01) (88, 8.18254639663588467791e-01) (89, 9.44966026850830975725e-01) (90, 8.05092991598736706926e-01) (91, 9.70045768924843732073e-01) (92, 9.45199606434179995240e-01) (93, 8.60179768212925854876e-01) (94, 8.61154192396294537737e-01) (95, 8.35897223361622754290e-01) (96, 5.72457220014812806497e-01) (97, 6.21097299811127045999e-01) (98, 6.95202488061668844033e-01) (99, 7.26808908936264486123e-01) (100, 6.21885653194668153176e-01) (101, 7.15486351010086507607e-01) (102, 6.03349614497902253518e-01) (103, 7.94258893736493054583e-01) (104, 9.34044071742188397600e-01) (105, 9.40289744444977704241e-01) (106, 7.99422362156998578264e-01) (107, 9.41710003920685712053e-01) (108, 7.71101468511712018206e-01) (109, 8.30890094199072781755e-01) (110, 9.58110564657341901018e-01) (111, 9.42236774870049420549e-01) (112, 8.98900800653588238909e-01) (113, 9.29356121727120343401e-01) (114, 7.99122856267582837297e-01) (115, 8.57335896500241223528e-01) (116, 9.57099103637825909807e-01) (117, 8.93978537329327527239e-01) (118, 8.73093025096547070696e-01) (119, 8.04598560050799105348e-01) (120, 8.68189377204252932252e-01) (121, 6.90358085285608269466e-01) (122, 5.86822142121545597959e-01) (123, 6.24223561329074416726e-01) (124, 5.76512492766698247948e-01) (125, 6.25677854007901101951e-01) (126, 6.40169635081471510851e-01) (127, 5.45343529527736903262e-01) (128, 7.39704485981141357520e-01) (129, 6.29146930635674839216e-01) (130, 5.68766805019808918686e-01) (131, 6.11714902011777361679e-01) (132, 5.93311648416224857172e-01) (133, 6.20185368573453854601e-01) (134, 6.37325823072855124352e-01) (135, 7.75405519910942975237e-01) (136, 8.08043116041314068987e-01) (137, 8.83093976684700909807e-01) (138, 9.46680450149666730120e-01) (139, 8.08709525772225323870e-01) (140, 9.43549015828263226702e-01) (141, 9.34355967947136822893e-01) (142, 7.80511238881241742327e-01) (143, 8.72014747270237866594e-01) (144, 8.93277027913224164202e-01) (145, 8.09199036368023816301e-01) (146, 9.58915599890839520647e-01) (147, 8.79941069790017071917e-01) (148, 7.14460406923284718772e-01) (149, 6.45103208401157646179e-01) (150, 6.45190672524345587568e-01) (151, 3.77946465656791852350e-01) (152, 3.45730947087322382227e-01) (153, 4.98084274534423998571e-01) (154, 4.51278265209501538990e-01) (155, 4.23443166277046034729e-01) (156, 5.78966149489422376995e-01) (157, 5.23277861190096005295e-01) (158, 5.68696012492075131384e-01) (159, 5.61815605079526658727e-01) (160, 6.95173202106569854131e-01) (161, 6.66557746397384076609e-01) (162, 7.05121683909203822438e-01) (163, 7.44524114810792281283e-01) (164, 9.57624980517517987444e-01) (165, 8.08788367816101971819e-01) (166, 9.68778618880402508928e-01) (167, 7.95233042248379651262e-01) (168, 9.21447285720002118303e-01) (169, 9.45024022170197430803e-01) (170, 8.33507509239804211809e-01) (171, 8.94561247237812939836e-01) (172, 9.08944913455140057756e-01) (173, 8.43583689340245190813e-01) (174, 7.95820814982725832643e-01) (175, 8.29095284832046530710e-01) (176, 6.62572013931636449868e-01) (177, 5.63860754411433462430e-01) (178, 3.41761255186096568615e-01) (179, 2.58404339585448394878e-01) (180, 3.65218722464840772624e-01) (181, -2.23986669389622972126e-01) (182, -2.14046318070647112464e+00) (183, -1.83845921825695896024e-02) (184, 2.25633252000420458927e+00) (185, -6.32613375887726259172e-01) (186, 3.30930620299979383336e-01) (187, 7.19011769912518139414e-01) (188, 6.84869502568544064047e-01) (189, 6.26573861124004927170e-01) (190, 6.21171846374847125283e-01) (191, 6.42368802326852117446e-01) (192, 5.62059562097312670481e-01) (193, 8.15167564198385874441e-01) (194, 8.56124998339306775286e-01) (195, 9.67414223858010235979e-01) (196, 8.54132877000462475969e-01) (197, 8.54468570359837475969e-01) (198, 7.92212211795937482073e-01) (199, 8.53827661272667182146e-01) (200, 8.77419969592655224488e-01) (201, 9.03647104803884548829e-01) (202, 9.76090531849133968834e-01) (203, 9.63625094856414565747e-01) (204, 9.18208828830137990806e-01) (205, 9.47116895215341147996e-01) (206, 4.15592508858477260869e-01) (207, -1.09978277240261962389e-01) (208, -5.21159301337975833235e-01) (209, -5.94919178314870311652e+00) (210, -6.45789083216917969565e+00) (211, -2.32261417486080823380e+00) (212, 4.12073397002692909386e-01) (213, 6.74452731392467264016e+00) (214, 1.29106174778518911772e+00) (215, 1.83529892145545825421e+00) (216, 8.69159780134921455819e-01) (217, 5.71684850913578346265e-01) (218, 5.97435396906232485392e-01) (219, 6.40754453695632664179e-01) (220, 6.69749896417380918834e-01) (221, 8.93435723379265467337e-01) (222, 9.49932822295319501116e-01) (223, 8.97703879781853619768e-01) (224, 9.39392232605111066057e-01) (225, 8.35622758873593274309e-01) (226, 9.43670409671352627967e-01) (227, 8.90605664102013694361e-01) (228, 1.12034157533705225340e+00) (229, 1.10399639148924277876e+00) (230, 1.20668747626922812088e+00) (231, 1.33717758530622155000e+00) (232, 1.16589673008643934793e+00) (233, 2.84144490867241694687e+00) (234, -4.38107175608256849131e+00) (235, -2.79627098907246463000e+01) (236, -1.44037117756881059449e+02) (237, -5.66243197298406926166e+01) (238, -1.11987915934181447852e+01) (239, -1.77068370928346241477e+00) (240, -7.83431622374819891519e+00) (241, 2.05563430090887200308e+00) (242, -1.19587636974308910709e+01) (243, -1.12938879603662041262e+01) (244, 5.46707419147360318412e-01) (245, 9.07314977492675200921e-01) (246, 6.63072385660694263443e-01) (247, 5.90518729726911439926e-01) (248, 7.51847052518131442334e-01) (249, 8.76885495379578272512e-01) (250, 8.86139312096726361467e-01) (251, 8.86399367161881390764e-01) (252, 8.01110157080780926897e-01) (253, 8.73060862579087659796e-01) (254, 8.80825848920943954568e-01) (255, 1.24226599586812791465e+00) (256, 1.19525294559203998368e+00) (257, 1.12545234997484611128e+00) (258, 1.38156936294025656231e+00) (259, 2.09561774280093215950e+00) (260, 2.07878418864437053415e+00) (261, 9.95244102615027492753e-01) (262, -3.05846601358747038901e+00) (263, -1.62331224136926763890e+01) (264, -1.90318056624177356362e+00) (265, 2.75543900394685925548e+00) (266, 8.68538415004968866739e-01) (267, 4.47551783313419893062e+00) (268, 2.23927639523104377028e-01) (269, -1.45270925398889172442e+00) (270, 7.58210144530174878774e-01) (271, 3.34989599837003559912e+00) (272, 1.51884162522493926240e+00) (273, 9.25425998897382418029e-01) (274, 9.09822425836525505716e-01) (275, 6.31742484599132625434e-01) (276, 7.04618847070839104951e-01) (277, 9.60232206889283124163e-01) (278, 8.75558399864327374651e-01) (279, 9.19871502824913922503e-01) (280, 8.67294625648152295305e-01) (281, 8.39945210513256323992e-01) (282, 9.03880998937077739797e-01) (283, 1.13124018639144585663e+00) (284, 1.15058803688976163393e+00) (285, 1.06692522663548894357e+00) (286, 1.28773646396956142901e+00) (287, 1.13050736376184590704e+00) (288, 1.14811199635500860161e+00) (289, 1.32655958119511119264e+00) (290, 1.82895244445672733313e+00) (291, 4.36338158657867491996e+00) (292, 2.75604514037180123864e+01) (293, 4.33890599353947337136e+00) (294, 1.18667273091747804692e+00) (295, -2.27607101825431895614e-01) (296, -2.33366351520734038871e+00) (297, 3.78998975298497997599e+00) (298, 3.00533625205527421542e+00) (299, 6.77036217955487540365e+00) (300, 1.35912081873352375005e+00) (301, 9.45193864351226209486e-01) (302, 8.48639195649510957864e-01) (303, 6.06541036016740808812e-01) (304, 6.98805663697482759567e-01) (305, 7.76006668105732599905e-01) (306, 9.01281588979851666643e-01) (307, 8.68606121548306409075e-01) (308, 9.66415801354538861467e-01) (309, 8.73257787067392099445e-01) (310, 8.87025696406537722538e-01) (311, 1.09582943881073702208e+00) (312, 1.05978658834615457884e+00) (313, 9.28581529567197971886e-01) (314, 7.83980802482805216869e-01) (315, 8.77049661104432831671e-01) (316, 7.89059166876397710677e-02) (317, 1.43934840342505809829e+00) (318, 1.45742602333330339981e+00) (319, 6.91378158565735700947e-01) (320, 5.64299782300312968708e-01) (321, 3.16502685542376260841e-01) (322, 4.66934702384776856299e-01) (323, 6.59700786604250466461e-01) (324, -7.68443008650295400486e+00) (325, 1.89843321621300331614e+00) (326, 4.65792114452847094697e+00) (327, 3.64664471930404454625e+00) (328, 9.14453050043611659348e-01) (329, 7.55320464727513574132e-01) (330, 7.27993504491520893041e-01) (331, 6.98537000735943713892e-01) (332, 5.93607121649982527600e-01) (333, 8.37417067297589245989e-01) (334, 7.72612319596898022844e-01) (335, 9.57899206586968365862e-01) (336, 8.43600676664006177141e-01) (337, 9.52141402658603919207e-01) (338, 9.24657154230515643256e-01) (339, 1.07339356094462234914e+00) (340, 1.12745805604047744097e+00) (341, 9.00439740651731601595e-01) (342, 5.55189280409231100677e-01) (343, 2.82175724668919547522e-01) (344, 4.92884388454589217332e+00) (345, 2.70668554857690757398e-01) (346, -1.43777547065737199006e-01) (347, -2.92277586726862714794e-01) (348, 1.87838093320760984861e-01) (349, 9.62634204051244501965e-02) (350, 5.15687695992866623751e-02) (351, 2.41044933512196690728e+00) (352, 2.31104289294078313333e+00) (353, 5.05533468570152022536e-01) (354, 1.74144790344214470679e+01) (355, 3.79007210875878586265e+00) (356, 7.60427949172864936500e-01) (357, 6.06135445537065553623e-01) (358, 6.01151567914543494275e-01) (359, 7.12519780923788093041e-01) (360, 6.79726196180765018795e-01) (361, 9.33802177969014102210e-01) (362, 8.81411717542302075579e-01) (363, 9.37363856741082135393e-01) (364, 8.00479376026284161760e-01) (365, 8.83588985808979932024e-01) (366, 9.92210443455686430525e-01) (367, 9.23253374614643962381e-01) (368, 8.65996368948042660740e-01) (369, 5.88074324831487360576e-01) (370, 5.22158741354176170191e-01) (371, -2.20048555217416758056e-01) (372, -3.73895215730684793431e-01) (373, -2.22673739337970771901e-01) (374, -1.00586525861286490979e+00) (375, -6.64601513279301170378e-01) (376, -4.95984704055455416505e-01) (377, -1.03391976083913150752e+00) (378, 7.77582379061744344284e+00) (379, 7.40747690683689707924e+00) (380, -5.04237193069885902830e-01) (381, -1.03842753074715110628e+00) (382, 6.55586562634685243722e+00) (383, 1.14708842224819385081e+00) (384, 7.79259312038403928469e-01) (385, 5.63779194467690980552e-01) (386, 6.07816479589275870943e-01) (387, 7.31915405766548121669e-01) (388, 6.14853721223261207030e-01) (389, 9.49808051649128848304e-01) (390, 9.13983651705872479631e-01) (391, 9.57693659969460431292e-01) (392, 9.12565552898537579729e-01) (393, 8.24960311212431851580e-01) (394, 9.73305015262745154558e-01) (395, 9.91292430457256568133e-01) (396, 9.34174628503129600432e-01) (397, 6.48180443813398343700e-01) (398, 1.26567618163201806025e-01) (399, -4.55339324179721671726e-01) (400, -6.67079031161682656226e-01) (401, 1.28440046089517478922e-01) (402, -1.06566905173654635774e+00) (403, -9.18998012081821302743e-01) (404, -1.13390179817434244569e+00) (405, -6.27930930645951512759e+00) (406, 1.98128397811458722977e+00) (407, 6.35326970055557183059e+00) (408, -4.10585342637412253897e-01) (409, -1.33670230638563321268e-02) (410, 8.43714844326110213757e-01) (411, 1.57182952273358922390e+00) (412, 1.21319687875581672110e+00) (413, 8.68401870543595300056e-01) (414, 6.02326886195049482353e-01) (415, 7.62498528079099235910e-01) (416, 6.08613568208124178227e-01) (417, 9.37950427689294263800e-01) (418, 9.38912549325119916155e-01) (419, 8.86424110540043774797e-01) (420, 9.09594842501770917131e-01) (421, 8.82461131819378796770e-01) (422, 8.73682716199051800920e-01) (423, 8.50793208382917831578e-01) (424, 7.13106276210421885509e-01) (425, 4.31072849403515256927e-01) (426, 1.22591001945458799582e-01) (427, -3.41031605069199328373e-01) (428, -6.22676521556226769682e-01) (429, -9.85613703155554410351e-01) (430, 2.15579305913655955296e-01) (431, 2.12184502100015411410e-03) (432, -3.85314233891400226284e+00) (433, 1.63036552314346550041e+00) (434, 6.34288271226694622129e+00) (435, -4.77927915371575487424e-02) (436, 2.73404277341922852251e-01) (437, 8.30576350060242551976e-01) (438, 5.94082966148306823584e+00) (439, 1.52251936554777111965e+00) (440, 6.40575447157500921236e+00) (441, 7.61213154119893764538e-01) (442, 5.85959238286537398288e-01) (443, 6.61773816159665351222e-01) (444, 6.05783724007694424074e-01) (445, 8.91731859453808728411e-01) (446, 8.47011470504891339495e-01) (447, 8.77614223667275372698e-01) (448, 8.51823442884575787737e-01) (449, 8.15488954343687955095e-01) (450, 7.93603279896866742327e-01) (451, 7.90051098368956039586e-01) (452, 7.03634919341677989024e-01) (453, 4.64093040951816582229e-01) (454, 1.35136789967351955699e-01) (455, -3.39197123663888933098e-01) (456, -4.26823896039702166405e-01) (457, -1.06428390617999046874e+00) (458, -9.38946864558713012450e-01) (459, -8.82342458429466569569e-01) (460, -1.19205289717103368741e-01) (461, 1.40809355097777260113e+01) (462, 2.36475562468517574999e+00) (463, 7.05686106126271139871e-01) (464, -2.00172531491676197746e+00) (465, 5.17658060197965341764e-01) (466, 6.10766743584691851332e-01) (467, 7.51620288685500348436e-01) (468, 6.69525173436928966453e-01) (469, 8.97288780691681275847e-01) (470, 5.91814351254153048210e-01) (471, 6.34108625790406610356e-01) (472, 6.27917880512122050796e-01) (473, 9.09517671631647428576e-01) (474, 9.44654875703942242815e-01) (475, 9.01942425676476422503e-01) (476, 8.32274590887915555193e-01) (477, 8.21231288173090878679e-01) (478, 8.09121591308009091570e-01) (479, 9.12730860911203811803e-01) (480, 6.47010725883141901704e-01) (481, 4.51815581148726330696e-01) (482, 2.12730007132419185467e-01) (483, 1.09192183694307221042e-01) (484, -4.89713000933054309893e-01) (485, -7.38682815625839039875e-01) (486, -6.31283298243889734458e-01) (487, 9.01757464957551047036e-02) (488, 4.85803570829807573883e-01) (489, 1.04697097313838582977e+01) (490, 9.75954837363533167505e-01) (491, 5.45361255326120342168e-01) (492, 1.52496442991905869491e+01) (493, 1.70333583086183093513e+00) (494, 1.61916453729272658002e+00) (495, 1.94642026975513693365e-01) (496, 2.53464483956586383862e-01) (497, 3.45450440391899205039e-01) (498, 4.11331045844709586312e-01) (499, 7.11704937349352584341e-01) (500, 6.12701683129720175991e-01) (501, 8.10279998227965037039e-01) (502, 8.22422270932089749529e-01) (503, 9.12294560381066266253e-01) (504, 9.51434740134369794085e-01) (505, 7.96642088600289288713e-01) (506, 8.43801916845929089739e-01) (507, 8.12342140279604385533e-01) (508, 6.25178488291148082290e-01) (509, 5.03105372927782235060e-01) (510, 2.35021056493648156094e-01) (511, 2.27070726544906537070e-01) (512, 2.28634747426121304192e-01) (513, -3.96032302249852752318e-01) (514, -5.17782961606651048747e-01) (515, 5.47618977663913639176e-02) (516, 3.19313419837187195682e-01) (517, 2.73291761959235968149e+00) (518, 1.07645557067756492131e+00) (519, -1.45968133608244321486e+00) (520, 4.19626544222846231680e-01) (521, 3.31022777803006984509e-01) (522, 1.14942865481783881854e-01) (523, -8.45856997221544615329e-02) (524, -1.48529554739724789503e-01) (525, 6.42237863231001487874e-02) (526, 4.09595512798327510140e-01) (527, 6.24786935391972386711e-01) (528, 6.38731541418442350100e-01) (529, 9.24008964791905085256e-01) (530, 8.67041469820630017473e-01) (531, 9.25048613258492413713e-01) (532, 9.65077900596749249651e-01) (533, 9.19028678246628705217e-01) (534, 8.66908119329106274797e-01) (535, 9.45465578928600947073e-01) (536, 7.24406979281324914233e-01) (537, 5.30034418254855754782e-01) (538, 3.14666081382725323912e-02) (539, 1.92215305329918803579e-02) (540, -6.23522474796769254901e-01) (541, -5.39428497129997186477e-01) (542, -3.53140210731952564061e-01) (543, -7.24401452290513309107e-02) (544, 6.01793768950866558853e-01) (545, -1.54474699774637369565e+00) (546, -1.33565764020826751590e+01) (547, 4.61185871004125447215e-01) (548, 3.28072913585487277444e-02) (549, -2.09972821754002593464e-02) (550, -8.50452914874910703702e-02) (551, -3.36772820520175697467e+00) (552, -1.05621956430465413490e+01) (553, -1.75888270083317799219e+00) (554, 4.27753662001359669098e-01) (555, 5.89204513617739400466e-01) (556, 8.20753331202096370056e-01) (557, 8.36774732373548935094e-01) (558, 9.52007153340470257952e-01) (559, 9.17866268464219037249e-01) (560, 7.91892753251683179094e-01) (561, 8.48613553949486676409e-01) (562, 8.72479819961678448870e-01) (563, 7.83877881607557225330e-01) (564, 5.70980031006813049110e-01) (565, 6.83760053967908398853e-01) (566, 1.57320098517320261511e-01) (567, -4.09601523635351405517e-01) (568, -3.75108659896602858463e-01) (569, -3.27082782565204122083e-01) (570, -5.18884501039167805869e-02) (571, 2.49383974824508969359e-01) (572, 7.73500304755456946637e-01) (573, 1.26614505432529944606e+00) (574, 4.42136677720155746307e-01) (575, 5.16041801883849182708e-01) (576, -4.04218584140965175866e-01) (577, 9.82500369602097578525e-02) (578, -5.59084366136937838121e+00) (579, -1.52653892128437504994e+01) (580, -2.12288594939835206787e+01) (581, 1.21975969436784945077e-01) (582, 5.32156702261248670816e-01) (583, 6.28291947842175901862e-01) (584, 8.59811408717534808588e-01) (585, 8.07943188854348126604e-01) (586, 9.06651594945084515764e-01) (587, 9.18282308884751263811e-01) (588, 8.75214980252873364641e-01) (589, 8.88223686524521771624e-01) (590, 8.65713500686776105120e-01) (591, 8.95740556917978714146e-01) (592, 7.42291122138684533738e-01) (593, 7.39678119688671698029e-01) (594, 5.14132727679574408342e-01) (595, 7.30330155000316755265e-02) (596, 8.98150054747578058256e-02) (597, 1.10781859368814822320e-01) (598, 5.17085454148006662400e-01) (599, 8.37473640810036168425e-01) (600, 1.07885976193809574042e+00) (601, -2.31307229309707346188e-01) (602, -4.42097624455398907628e-01) (603, 6.16058887867111337755e+00) (604, 6.43891871971976059719e-01) (605, 5.83777658039712279980e-02) (606, -5.13297949598457403653e+00) (607, -8.49611162158914723364e+00) (608, -3.67927520103517036176e-01) (609, 5.27844722588589831958e-01) (610, 6.02348648769837180517e-01) (611, 6.69416997137400993090e-01) (612, 7.82324052646767298391e-01) (613, 9.06706565328728619768e-01) (614, 7.76164987393509808733e-01) (615, 8.75848808594834271624e-01) (616, 9.44214695402275983049e-01) (617, 9.12381523557793561174e-01) (618, 8.23696048267971936419e-01) (619, 8.48994621344696942522e-01) (620, 8.29558137103926340750e-01) (621, 7.02655357698490523610e-01) (622, 5.59441101864388001808e-01) (623, 5.65857750885975563371e-01) (624, 5.55149963757358810845e-01) (625, 7.24665814985284928440e-01) (626, 6.30395258122363855158e-01) (627, 1.04951365101938298707e+00) (628, 1.09476523245508761129e+00) (629, 2.05011654515221453110e+00) (630, 7.03545537473439508425e-01) (631, -3.26738866848103215457e-01) (632, 8.26319657670442242470e-01) (633, -4.79342654078081797930e-01) (634, -1.02686128601187864895e+00) (635, -9.90032025581539354420e-01) (636, -3.84357600439204971643e-01) (637, 5.89331304068534067575e-01) (638, 5.66061150777680155421e-01) (639, 8.51922053167817550090e-01) (640, 9.50542756625306073381e-01) (641, 8.56254459627758923723e-01) (642, 7.76672520943772259905e-01) (643, 9.63043757983338299944e-01) (644, 7.92525963195454541399e-01) (645, 7.82402449556481305315e-01) (646, 8.68457497366558972551e-01) (647, 9.66305592366349164202e-01) (648, 9.32843953528607827685e-01) (649, 1.08205243023836095162e+00) (650, 5.77408365761860764565e+00) (651, 3.01678952389523091782e+00) (652, 8.33267258611884775732e-01) (653, 9.47418603810998405379e-01) (654, -1.78816018374912144573e+00) (655, 7.57596463389120566845e-01) (656, 2.80689741236473633279e+00) (657, -3.61638346241518054969e-02) (658, -2.86024649050604304334e-02) (659, -5.51910971284545226467e+00) (660, 6.61477645139914138817e-01) (661, 5.72352720985764951145e-01) (662, 3.90339991384047846346e-01) (663, 4.21222300872542768091e-02) (664, 4.90127769644229827062e-01) (665, 6.58520587826501024864e-01) (666, 9.33282157895467090469e-01) (667, 8.22080814964435413472e-01) (668, 8.00986142166745129778e-01) (669, 9.57949587412964764788e-01) (670, 9.10322570510994855120e-01) (671, 7.81093837031018201067e-01) (672, 8.43768977829110089495e-01) (673, 9.16560032673966351702e-01) (674, 7.73702533253323498919e-01) (675, 8.65859882243763867571e-01) (676, 9.97510557243997286747e-01) (677, 3.01395943663525978096e+00) (678, 1.31163825156072881839e+01) (679, 2.65431192554600459133e+00) (680, 1.17120611667745744278e+00) (681, 1.22088913279584221350e+00) (682, 1.33354656320047526563e+00) (683, 2.66247686306539144141e+00) (684, 2.46309558230248537569e+00) (685, 2.66899759167394767800e+00) (686, 1.69289175933730584589e+00) (687, 9.57522162943464039131e-01) (688, 1.08208816714982103413e+00) (689, 9.96091082689617324242e-01) (690, 7.21050705052038276577e-01) (691, 7.34161527002583746970e-01) (692, 6.21764757356406905231e-01) (693, 8.78125748155019092422e-01) (694, 7.90828221983716606047e-01) (695, 8.59304769236943988275e-01) (696, 8.00135129400383893206e-01) (697, 9.61920493551384869768e-01) (698, 9.17339333602082196428e-01) (699, 8.30686205335747662737e-01) (700, 9.49435004302155438616e-01) (701, 8.57226834901463452532e-01) (702, 8.41344991036545697405e-01) (703, 8.30192717768887922247e-01) (704, 8.72334939608747195194e-01) (705, 9.32294681241453981890e-01) (706, 1.19428651304238231390e+00) (707, 1.34674438793648154622e+00) (708, 1.20142049375062631711e+00) (709, 1.36008471411459397338e+00) (710, 1.78293792930964367649e+00) (711, 1.74471762585080769625e+00) (712, 1.78699054344001906358e+00) (713, 1.74626377378246933070e+00) (714, 1.98072075244225476176e+00) (715, 1.07329592918921701283e+00) (716, 1.04963934581528040013e+00) (717, 9.96912820092904938818e-01) (718, 8.91787452462708407630e-01) (719, 9.37215363446270877112e-01) (720, 9.30804920732601015487e-01) (721, 8.69765184119354883840e-01) (722, 9.29643317356716791799e-01) (723, 8.12574784502398173025e-01) (724, 7.82373429545056287004e-01) (725, 9.54588079162728253557e-01) (726, 9.05592897244584027483e-01) (727, 8.12073500164639416887e-01) (728, 9.46073510953080121233e-01) (729, 8.52497161635052624895e-01) (730, 8.72324646719586316301e-01) (731, 9.25073453494202557756e-01) (732, 9.39288937755715314104e-01) (733, 9.91917131837986243426e-01) (734, 8.43025158022453591222e-01) (735, 1.00405871686195591330e+00) (736, 1.04677437461075917291e+00) (737, 1.15422361509151572001e+00) (738, 1.14861232474982788432e+00) (739, 9.80283712228289250135e-01) (740, 1.14808081133557071674e+00) (741, 1.09568395801684004276e+00) (742, 1.05005365589299759499e+00) (743, 1.20012928309424626860e+00) (744, 1.12603028627618062529e+00) (745, 8.49719206396902126954e-01) (746, 8.18731789746176663591e-01) (747, 9.17965277329098383596e-01) (748, 7.79263279631745020559e-01) (749, 9.39779379674088422014e-01) (750, 8.85052779027115765764e-01) (751, 9.43864622422348920061e-01) (752, 8.39721502073895398333e-01) (753, 8.44873034664284650042e-01) (754, 7.86616341479908887102e-01) (755, 8.51659880288731518938e-01) (756, 8.29026063241850796892e-01) (757, 9.21774172493111554338e-01) (758, 8.93298314221989575579e-01) (759, 8.04664508708607617571e-01) (760, 8.03836272367131177141e-01) (761, 7.95187906631123486711e-01) (762, 9.59302910872590008928e-01) (763, 7.72690155812394086077e-01) (764, 9.68292226854359561194e-01) (765, 9.66275164195191327288e-01) (766, 7.81884576239327833136e-01) (767, 8.14964347787987652971e-01) (768, 9.69688682254932654558e-01) (769, 1.03409338845679865670e+00) (770, 9.04261441070535409992e-01) (771, 9.81643983263471353595e-01) (772, 9.11718143519542945086e-01) (773, 9.36576014753959906756e-01) (774, 9.80208494801023233478e-01) (775, 7.87501097925793591692e-01) (776, 9.18815144606720868303e-01) (777, 9.61652347155701581194e-01) (778, 9.35643323966156903460e-01) (779, 9.28255372949730817034e-01) (780, 9.30996665068757001116e-01) (781, 8.50261041232239667131e-01) (782, 9.01684933611046735003e-01) (783, 8.00283120282780591204e-01) (784, -3.27158344808008150206e-01) (0, 9.17340608874165241993e-01) (1, 8.80982334354721730030e-01) (2, 7.82764414885842030323e-01) (3, 8.68679727056824391163e-01) (4, 8.03845594266258900440e-01) (5, 8.16993861088358586109e-01) (6, 9.02080955544315998829e-01) (7, 8.28598445841871922291e-01) (8, 8.05861706474625294483e-01) (9, 9.04336037674748127735e-01) (10, 8.26150818357073490894e-01) (11, 8.01701808908783619678e-01) (12, 9.08361765185200398243e-01) (13, 8.70680103638970082081e-01) (14, 9.52272879520260517872e-01) (15, 9.05167224446140950000e-01) (16, 9.37653618493878071583e-01) (17, 8.96628933587872212208e-01) (18, 7.97767753341995899952e-01) (19, 8.55112003722988789356e-01) (20, 8.39549491742455189502e-01) (21, 8.14833792486988728321e-01) (22, 8.03492094019257252491e-01) (23, 8.30766792038284962452e-01) (24, 7.80042054692112629688e-01) (25, 9.61312415638767903125e-01) (26, 7.91328402796589558399e-01) (27, 8.59868029692970936573e-01) (28, 8.92562265137039845264e-01) (29, 8.21176464298569386280e-01) (30, 8.14131988772951786792e-01) (31, 8.39993419686161701954e-01) (32, 9.32249339857899372852e-01) (33, 8.26986944863402073658e-01) (34, 9.38763680497013752735e-01) (35, 9.66185482779347126758e-01) (36, 8.74071354606949513233e-01) (37, 8.70935174265705769336e-01) (38, 8.24874466845595066822e-01) (39, 9.10023602286183064258e-01) (40, 8.05361750164829914844e-01) (41, 8.81115826407276814258e-01) (42, 9.41815959850155537403e-01) (43, 9.43814056554638569629e-01) (44, 7.81886468270622914112e-01) (45, 9.24179377594792073047e-01) (46, 8.79071826675736134327e-01) (47, 9.49630620518528645313e-01) (48, 8.50898841956459706104e-01) (49, 9.06930136123501484668e-01) (50, 8.34833177367054646290e-01) (51, 9.20538889804684345997e-01) (52, 9.51854469815098469532e-01) (53, 8.68415812590920155323e-01) (54, 7.81396212616764729297e-01) (55, 9.61987050810658161915e-01) (56, 8.59818759003483479297e-01) (57, 8.02815156617962544239e-01) (58, 8.51945626178585713184e-01) (59, 7.82471562364899342334e-01) (60, 8.54082162121140187061e-01) (61, 8.96168159881436054981e-01) (62, 8.52555523255669300831e-01) (63, 8.16422043928705876148e-01) (64, 9.53245642224156086719e-01) (65, 8.21409749427639668262e-01) (66, 8.12698064932429020679e-01) (67, 8.57407527604901020801e-01) (68, 9.22435464897953694141e-01) (69, 8.67663072982632344043e-01) (70, 7.97521668115460102833e-01) (71, 9.57887756267391865528e-01) (72, 7.78869445064865772999e-01) (73, 9.69428169170223896778e-01) (74, 9.31792365947567646778e-01) (75, 7.90846454540096943653e-01) (76, 9.23698070088230793750e-01) (77, 8.40954730847679798877e-01) (78, 7.70567620733582203663e-01) (79, 8.04687450269066517627e-01) (80, 7.77975390294396107471e-01) (81, 8.35491339305245106495e-01) (82, 9.55316888728939717090e-01) (83, 9.59920408764683430469e-01) (84, 9.33997693100773518360e-01) (85, 9.66803627649151509083e-01) (86, 9.51997997799717610157e-01) (87, 8.23906986603342716968e-01) (88, 7.99709329942070668018e-01) (89, 8.34034154752098744190e-01) (90, 8.36469093898140614307e-01) (91, 8.83882040718399708545e-01) (92, 9.61157218761291676223e-01) (93, 9.19979528732147389114e-01) (94, 9.30394622126423542774e-01) (95, 9.43629028836094563282e-01) (96, 5.54154713539077858897e-01) (97, 5.56722489086582283946e-01) (98, 6.14666362194015603038e-01) (99, 7.06680727092220517527e-01) (100, 6.54476110724403481456e-01) (101, 6.42278571514083962413e-01) (102, 6.94659021583988400828e-01) (103, 8.79896829465233509815e-01) (104, 8.58258018830620472706e-01) (105, 8.73002658227287953174e-01) (106, 9.00833832660519306934e-01) (107, 8.12046623417936985767e-01) (108, 9.44047930279576008594e-01) (109, 9.01492002049290364063e-01) (110, 8.46824626067482655323e-01) (111, 9.52113869229160969532e-01) (112, 9.67073860207401936329e-01) (113, 8.32232041844927494800e-01) (114, 9.42124786415898030079e-01) (115, 9.31162106433712666309e-01) (116, 8.29126215169035618580e-01) (117, 9.24213322439991658008e-01) (118, 7.85159627536141102588e-01) (119, 8.59790452964153462112e-01) (120, 7.88110385729636875318e-01) (121, 6.35030900480704429967e-01) (122, 5.56210291924433830602e-01) (123, 5.62033032419638867161e-01) (124, 5.83027229033654337265e-01) (125, 6.66942726576737698885e-01) (126, 6.85411593171120880896e-01) (127, 5.33977279481957389784e-01) (128, 7.16311006983174958229e-01) (129, 5.94521396070386454191e-01) (130, 7.37355896963908463704e-01) (131, 6.20177918805911221334e-01) (132, 6.85569702870135633255e-01) (133, 6.80808084874206187465e-01) (134, 7.32075985069709500586e-01) (135, 7.91701385028209858596e-01) (136, 8.00030821211185627639e-01) (137, 8.78596718052231495655e-01) (138, 8.32974183002316181934e-01) (139, 7.73304904440247242725e-01) (140, 8.10179243424736683643e-01) (141, 9.09889342823826496875e-01) (142, 9.55509307423435871875e-01) (143, 8.07343656757675831592e-01) (144, 7.72211926618420307911e-01) (145, 9.27963096150799415796e-01) (146, 9.68834761032505653588e-01) (147, 8.31667139628573082177e-01) (148, 6.65222755150025935045e-01) (149, 5.67921300572925114025e-01) (150, 6.53762006918362170715e-01) (151, 4.50379679644371089253e-01) (152, 4.15050911713386705415e-01) (153, 4.73010960003967473320e-01) (154, 4.57655054177208142629e-01) (155, 4.97768923089921433434e-01) (156, 5.98710141053914290943e-01) (157, 5.97782771706345417151e-01) (158, 6.40192417241619349255e-01) (159, 5.64917365009283245492e-01) (160, 7.14203951317100460550e-01) (161, 6.92462573553214832955e-01) (162, 7.01350270190211566579e-01) (163, 6.49908285635993343554e-01) (164, 8.39282947673167911695e-01) (165, 8.99195405283772175586e-01) (166, 8.89056223073803608692e-01) (167, 8.68767569402062123096e-01) (168, 8.07882661560379689014e-01) (169, 9.52120962181889241016e-01) (170, 8.72163015046917622364e-01) (171, 8.48152446189724629200e-01) (172, 8.92100843230091755665e-01) (173, 8.58001317331238411157e-01) (174, 8.85359007014598575758e-01) (175, 8.93347393295680580749e-01) (176, 5.95793228154897214210e-01) (177, 6.64692680233001209622e-01) (178, 3.60356737412712457846e-01) (179, 3.45536948078448591382e-01) (180, 3.92952996305130197729e-01) (181, -1.30945794094364742488e-01) (182, -2.06041931484112694761e+00) (183, -6.75323109542280364259e-01) (184, 3.18757980116194916675e+00) (185, 9.30744928976611068938e-02) (186, 2.92293529559256803907e-01) (187, 5.31330956401191434324e-01) (188, 6.98347293304413696546e-01) (189, 6.59121206381293456289e-01) (190, 6.38181745370032915687e-01) (191, 6.66105191918841654797e-01) (192, 6.05952390822129371983e-01) (193, 8.12253403106533711231e-01) (194, 7.83354642430149739063e-01) (195, 8.92241875270210926807e-01) (196, 9.41539349594914143360e-01) (197, 9.02501406708561604297e-01) (198, 7.91099982896649067676e-01) (199, 8.28195109692905440113e-01) (200, 9.32303467367503690966e-01) (201, 9.41909262338877839582e-01) (202, 9.04484496956393657641e-01) (203, 8.03389239906890373355e-01) (204, 7.74806308536876486848e-01) (205, 7.67012112921434008328e-01) (206, 5.19403988875859146113e-01) (207, -1.19477903175230548705e-01) (208, -8.36151537559123747556e-01) (209, -5.32396180820807174428e+00) (210, -6.10313457759714861339e+00) (211, -3.85733519106970579315e+00) (212, 2.43272346091381763689e-01) (213, 5.67996891878642617968e+00) (214, 1.55280380997565492507e+00) (215, 1.97671599714656331948e+00) (216, 8.69125586315303677587e-01) (217, 5.88613529827457848675e-01) (218, 7.46926271635084959577e-01) (219, 6.34320506423030616716e-01) (220, 6.83788982120945076915e-01) (221, 8.41928290763699238575e-01) (222, 9.65504767933689778125e-01) (223, 9.52981042304836933887e-01) (224, 8.84272235074841206348e-01) (225, 7.78949933687054341114e-01) (226, 9.23667201176116892114e-01) (227, 9.24340210722176425229e-01) (228, 1.11368552247233809638e+00) (229, 1.08363293106529678944e+00) (230, 1.21659873023943632120e+00) (231, 1.38465678655124158070e+00) (232, 1.18872954478101156006e+00) (233, 2.37243410860931769335e+00) (234, -9.63629139715222748919e+00) (235, -2.03088889178308278360e+01) (236, -1.20806099763274673364e+02) (237, -4.92311649837549083486e+01) (238, -1.06575545883474589459e+01) (239, -1.72509684719701117395e+00) (240, -1.52385656844045556113e+01) (241, 1.67853166674113962742e+00) (242, -1.31095789570258798307e+01) (243, -2.54088256130332634797e+00) (244, 7.44258154471689081788e-01) (245, 7.74353715567536626807e-01) (246, 6.48699160077234382449e-01) (247, 7.23657127185341586539e-01) (248, 5.96010261920724926377e-01) (249, 8.11703725347124760425e-01) (250, 8.17206895539366429126e-01) (251, 9.42572819629513447559e-01) (252, 8.83722561040722554004e-01) (253, 8.20225984194926427406e-01) (254, 9.92788005616423108179e-01) (255, 1.06813560895824122277e+00) (256, 1.08504759595678823558e+00) (257, 1.01743055631901779812e+00) (258, 1.44088338900998680359e+00) (259, 2.18113404758333340183e+00) (260, 5.01663354360220026251e-02) (261, 8.78762987499981162998e-01) (262, -3.23536399725626111490e+00) (263, -2.13112841171035256593e+01) (264, -2.33291601616223909232e+00) (265, 2.97834940252691415807e+00) (266, 2.09489945819729550536e+00) (267, 9.93128026878450365089e-01) (268, -1.36677016213297042313e+00) (269, -3.99221954788879962450e+00) (270, -2.56352260004246090830e+00) (271, 2.87460862128917815639e+00) (272, 1.47418411431506757303e+00) (273, 7.89645484746664183540e-01) (274, 8.49910931976972428004e-01) (275, 7.42785813091740076963e-01) (276, 6.10699422105918876547e-01) (277, 9.17750197091900532520e-01) (278, 9.23447998801075642383e-01) (279, 8.69573573211037342823e-01) (280, 9.59544482270085041797e-01) (281, 8.19427989152763380787e-01) (282, 9.10346211407009886507e-01) (283, 1.10543312002369487068e+00) (284, 1.07824343643953612926e+00) (285, 9.84642945491422505455e-01) (286, 1.29029657954040422041e+00) (287, 1.15143622138616130712e+00) (288, 1.17132430206538895590e+00) (289, 1.19252815946925250223e+00) (290, 1.73173953281758263856e+00) (291, 4.57897522368833875817e+00) (292, 3.22117791072532284602e+01) (293, 4.28592410775627730146e+00) (294, 1.15885394717992307179e+00) (295, -8.71116048358446137811e-01) (296, -4.26304999439284237894e+00) (297, 3.17591982773890002534e+00) (298, 2.28453561297173379785e+00) (299, 6.82105171279971678189e+00) (300, 1.32845597457671305008e+00) (301, 8.83255501929392727867e-01) (302, 8.31865965980095212196e-01) (303, 7.33442933100786231826e-01) (304, 7.03243104162173504612e-01) (305, 9.38939409890972798145e-01) (306, 9.38210668602787678516e-01) (307, 7.77272517422043507374e-01) (308, 8.86780152657829945362e-01) (309, 9.58299139550745526783e-01) (310, 9.47343079321370296064e-01) (311, 1.10551586531168521965e+00) (312, 1.12121048256182476166e+00) (313, 9.93819851428648592950e-01) (314, 7.72601865264806231259e-01) (315, 8.68596085637084680542e-01) (316, 6.38138233024563156226e-02) (317, 1.48286438639924966765e+00) (318, 1.46189052677302111505e+00) (319, 6.93343620011651062818e-01) (320, 6.32341962828515624651e-01) (321, 4.33775331539822783800e-01) (322, 5.48395683750993345740e-01) (323, 6.49361244991805142135e-01) (324, 6.58153205614787850664e-01) (325, 2.16866290152364848964e+00) (326, 3.31777365315517913658e+00) (327, 3.65048358289707941537e+00) (328, 9.28271935423717220459e-01) (329, 8.03291768230606662016e-01) (330, 6.06631110156734432159e-01) (331, 6.86512958980419196742e-01) (332, 5.86982831511340674702e-01) (333, 9.05892076531254475391e-01) (334, 8.84899670818649952686e-01) (335, 9.54513537326657002247e-01) (336, 8.74922017196022694385e-01) (337, 9.01883423057888045093e-01) (338, 1.03228303598640969163e+00) (339, 1.02700560642848293114e+00) (340, 9.61786619891358385281e-01) (341, 8.66589877812488307285e-01) (342, 5.26322844482684404355e-01) (343, 3.82200418779697070892e-01) (344, 4.66489276943595487790e-01) (345, 4.17462208596513117964e-01) (346, -2.49736001724433526183e-01) (347, -2.79044783295634868381e-01) (348, 1.39718954612082474354e-01) (349, 2.13652936017295264071e-01) (350, 6.40522892547718825096e-02) (351, 1.14431853844476005833e+00) (352, 2.63262685919505579069e-01) (353, 5.91113621263208210976e-01) (354, 3.41681552181928012146e+01) (355, 3.96374891540287910274e+00) (356, 7.28040222873471587484e-01) (357, 5.52003674116252174287e-01) (358, 5.85405291282957707111e-01) (359, 6.96629352037801519160e-01) (360, 6.74174765410075704786e-01) (361, 7.94204302284179930460e-01) (362, 8.49480497279965107715e-01) (363, 9.27023890057408039844e-01) (364, 9.31367697754704182422e-01) (365, 9.64470701852642720020e-01) (366, 9.78771571066137768824e-01) (367, 8.85656485023529005396e-01) (368, 8.96799878033588404591e-01) (369, 6.82958636700303989286e-01) (370, 4.44820814454786883640e-01) (371, -1.50104585791629052682e-01) (372, -5.66052867675685633664e-01) (373, -9.66566564630422009330e-01) (374, -1.03618894773282788080e+00) (375, -5.79714233546599455593e-01) (376, -4.56966212390349402206e-01) (377, -9.75623687687650953393e-01) (378, 1.06723388213638585853e+01) (379, 6.34033830721257540830e+00) (380, 1.11434927752250900745e+00) (381, -1.02897140013683130455e+00) (382, 1.15536283882414814173e+01) (383, 1.15998115322253503301e+00) (384, 8.01991665175256995823e-01) (385, 5.66223066677780217937e-01) (386, 5.82691899590319861701e-01) (387, 7.30991029407359715897e-01) (388, 5.66207308456359359461e-01) (389, 9.06952396187244658243e-01) (390, 8.95494567790829365528e-01) (391, 9.06865167060696308887e-01) (392, 9.33608832398258869922e-01) (393, 7.75065603295170491016e-01) (394, 9.12662148205135359547e-01) (395, 9.43749643591735853931e-01) (396, 9.67487386541237448512e-01) (397, 5.84470779535860018861e-01) (398, 2.50475849438043574047e-01) (399, -3.91277240426823935682e-01) (400, -6.49737554928513372232e-01) (401, -1.13071221818593192765e+00) (402, -1.08222887800371903033e+00) (403, -1.11599671168682101907e+00) (404, -1.22202574028116717209e+00) (405, -6.17649488622136200178e+00) (406, 2.42983827762410742324e+00) (407, 6.45564144440768039601e+00) (408, -2.73255331577069937588e-01) (409, 1.09359089469041659282e-01) (410, 1.14479423992992801473e+00) (411, 1.42359719611837820530e+00) (412, 9.83576377781154365110e-01) (413, 9.17996091362999866448e-01) (414, 5.39887875667432570737e-01) (415, 5.96389378930770264198e-01) (416, 5.54675556854106854843e-01) (417, 8.50754928180627034706e-01) (418, 7.73496384361588185108e-01) (419, 7.85962822476231282032e-01) (420, 7.81554872730576222217e-01) (421, 8.99081485906445210254e-01) (422, 9.22918530741535847461e-01) (423, 9.44162253723465183519e-01) (424, 6.83659350810350341376e-01) (425, 4.40679763043465122507e-01) (426, 2.50518454312561145159e-01) (427, -3.37005504365700869762e-01) (428, -7.14881904145487800939e-01) (429, -1.29451506542457206450e+00) (430, -8.03091835490366695582e-02) (431, 1.19074525856614332059e-02) (432, -3.35598804094578451185e+00) (433, 1.75293897016563904323e+00) (434, 2.47311434292483367514e+00) (435, -1.57204207079518015755e-01) (436, 3.91424634947983518529e-01) (437, 7.59762766973448577801e-01) (438, 6.73620073654885853642e+00) (439, 1.94447735400741272827e+00) (440, 7.15433963551676654902e+00) (441, 1.24000896267891880242e+00) (442, 5.89685773557583114979e-01) (443, 7.39615179870816152885e-01) (444, 7.50075234380088939901e-01) (445, 8.34736221678104572952e-01) (446, 9.60997017660938923633e-01) (447, 9.68121948281132405079e-01) (448, 9.07293545642697041309e-01) (449, 9.64583935776554768360e-01) (450, 7.84175308981739704883e-01) (451, 9.18711322440471378492e-01) (452, 6.72810502630914353261e-01) (453, 5.20848038872273044753e-01) (454, 1.82173044754227964059e-01) (455, -4.03737181548223411642e-01) (456, -6.03292896381590115773e-01) (457, -1.30860265988875967835e+00) (458, -8.12809310275362850717e-01) (459, -9.24452143524194691615e-01) (460, -2.77429183807603174650e-01) (461, 1.25378082308167329018e+01) (462, 1.81126054614334663917e+00) (463, 7.14112775203624705611e-01) (464, -1.45580767473469951945e+00) (465, 4.57132536544071932383e-01) (466, 9.79198259366576562179e-01) (467, 8.32705894553787517864e-01) (468, 7.62583593681594562597e-01) (469, 1.41981569481566682889e+00) (470, 5.45240452893043903160e-01) (471, 6.00584825844134861939e-01) (472, 6.36591038512124618443e-01) (473, 8.66547058417167392896e-01) (474, 7.86120275595986073291e-01) (475, 8.52569202521645252979e-01) (476, 9.30737080612980549610e-01) (477, 7.77207838931881611622e-01) (478, 8.50781689027153675831e-01) (479, 8.67029156968914249681e-01) (480, 5.53812808710201220919e-01) (481, 4.91953542904590812590e-01) (482, 1.05660068295221176715e-01) (483, 1.85588489286977548209e-01) (484, -6.16313880340603081898e-01) (485, -6.35453041288240538798e-01) (486, -6.24782752347465053511e-01) (487, -7.59253717088368834665e-02) (488, 5.83158335993401055752e-01) (489, 1.27832404742257619290e+01) (490, 1.02694433325543932334e+00) (491, 5.57927510578854368717e-01) (492, 2.79238327874262548534e+00) (493, 2.92592480867720405868e+00) (494, 2.11202098693603490531e+00) (495, 3.28442842368625420590e-01) (496, 2.97490497381811602740e-01) (497, 3.24494265154946226470e-01) (498, 4.38908288624803466504e-01) (499, 6.49309802549035919306e-01) (500, 5.91201443545764093734e-01) (501, 7.84863452056252186573e-01) (502, 9.18658929506146137989e-01) (503, 8.95176472702824299610e-01) (504, 8.81728681364857380665e-01) (505, 9.34869753757321064747e-01) (506, 7.77836198547684376514e-01) (507, 8.42328677965965000318e-01) (508, 7.22598566140382980727e-01) (509, 4.85614432470535539732e-01) (510, 2.27935311681788460580e-01) (511, 2.32893629550481623403e-01) (512, 2.41861290644026977192e-01) (513, -5.30574073214859387448e-01) (514, -4.43354118341358571787e-01) (515, -5.72218640753504315111e-02) (516, 5.04440432760414836366e-01) (517, 2.49667419890008623895e+00) (518, 1.20673004374841519315e+00) (519, -1.81485418964251188356e+00) (520, 4.28814089421050148587e-01) (521, 8.96266455474484469157e-01) (522, 6.91689646889633441562e-02) (523, -1.33678044935568424156e-01) (524, -1.52579640876509270431e-01) (525, 7.35798537373657524086e-02) (526, 5.07433363114065505428e-01) (527, 6.47403772164701796221e-01) (528, 6.13604165038834969970e-01) (529, 8.41849038937889759815e-01) (530, 8.17534743437372868335e-01) (531, 8.72006768921219532764e-01) (532, 8.56803039649330799854e-01) (533, 9.66284217873417561329e-01) (534, 7.97273772397839253223e-01) (535, 9.68164225059642613580e-01) (536, 7.13737452163531571614e-01) (537, 4.13240613791591493431e-01) (538, 1.22779581625776609832e-01) (539, 1.47748144509627504783e-01) (540, -5.52357467349725683725e-01) (541, -5.04530093010276292631e-01) (542, -2.69868947880021636809e-01) (543, -1.79501688139981872838e-02) (544, 5.08090644910932587308e-01) (545, -1.11797978183235557914e+00) (546, -2.22751373283814011472e+01) (547, 3.30790038179898271409e-01) (548, 5.08230472042283887291e-01) (549, -4.07785632220853885843e-02) (550, -5.54903784341503822364e-02) (551, -3.31978972520332682450e+00) (552, -9.43448683137172494639e+00) (553, -1.20212922954385570407e+00) (554, 4.70683828408420379397e-01) (555, 7.34351895670716570130e-01) (556, 8.06532213823138555142e-01) (557, 9.58536687387790409254e-01) (558, 9.13441585937344258106e-01) (559, 8.71092076042496388233e-01) (560, 8.30703909138046925342e-01) (561, 9.61066859403454487598e-01) (562, 7.73189383188091938770e-01) (563, 9.16551157321178200377e-01) (564, 7.35289660984746906713e-01) (565, 5.28383470896508500303e-01) (566, 1.81019748194425816878e-01) (567, -1.32677881693954669018e-01) (568, -4.75409287032550920138e-01) (569, -3.24894603533397163808e-01) (570, -2.33722832504856606328e-02) (571, 4.50862383842622393981e-01) (572, 8.30868838195345960074e-01) (573, 1.37101123181871331624e+00) (574, 5.07043307891855588032e-01) (575, -2.18359750060425128471e-01) (576, 1.37134663936406747675e-01) (577, 2.34277070693035237292e-02) (578, -5.48974690468840353930e+00) (579, -1.76186390844942906142e+01) (580, -1.88672240099881065589e+01) (581, 8.19996630591847547320e-02) (582, 5.09845560324772240079e-01) (583, 6.51275452194105763937e-01) (584, 9.11371197125827370300e-01) (585, 8.04663332739674275196e-01) (586, 8.69693199733101551807e-01) (587, 9.50702133217655842579e-01) (588, 7.93518195489250843799e-01) (589, 8.13225316444241230762e-01) (590, 8.51884754935108845508e-01) (591, 8.53266328062259438170e-01) (592, 5.84583908321421819032e-01) (593, 6.32528791759461306299e-01) (594, 4.09198282671177804293e-01) (595, 7.61963629024904887110e-02) (596, 7.09466835291389444351e-03) (597, 1.17557337801323422144e-01) (598, 6.68790068236689960735e-01) (599, 1.37045528031140728675e-01) (600, 2.56689972648088515772e-01) (601, -2.66119329358296907717e-01) (602, -2.57592033120381758149e-01) (603, 6.10091100040551825856e+00) (604, 5.36062010976047997879e-01) (605, 5.56765507368430639934e-03) (606, -6.99008148859432143496e+00) (607, -7.60971807096197672138e+00) (608, -1.10972282896630469740e-01) (609, 6.14438930434568875150e-01) (610, 6.71958561231510986822e-01) (611, 6.02962165496121804686e-01) (612, 9.23336925545536701954e-01) (613, 9.44039004484020893848e-01) (614, 9.26699163952671711719e-01) (615, 8.65854571202599232471e-01) (616, 7.78792882898651783741e-01) (617, 8.26482905635439579761e-01) (618, 8.46647250095211689747e-01) (619, 8.01309626982532718920e-01) (620, 8.69340729850425542047e-01) (621, 7.11374976569037698049e-01) (622, 6.70063052910639167514e-01) (623, 6.39593391853493731247e-01) (624, 4.47308568274682960553e-01) (625, 7.30196119924716779970e-01) (626, 7.21975101814617437057e-01) (627, 1.09090387049197312663e+00) (628, 2.19242357724692776832e-01) (629, 7.07439275922831845023e-01) (630, 7.68217597645669658668e-01) (631, 2.52609822774089887165e-01) (632, 8.32460053214401529686e-01) (633, -4.85319694466109452513e-01) (634, -1.07160110073087300187e+00) (635, -1.02491377113221870943e+00) (636, -8.15882067496875584833e-02) (637, 6.36175729097728015482e-01) (638, 6.14776499912439211570e-01) (639, 8.74304466438304173082e-01) (640, 8.73256641069256489551e-01) (641, 9.67751073280178730762e-01) (642, 9.27991929093205158985e-01) (643, 8.26684112289749806202e-01) (644, 9.41880615988575642383e-01) (645, 8.84781631270252888477e-01) (646, 9.22629239598118489063e-01) (647, 9.50764047542416279590e-01) (648, 9.51035120590459248646e-01) (649, 8.26111813915402892761e-01) (650, 2.49348607316667036926e+00) (651, 3.39133176224274324184e+00) (652, 9.24148310890627877612e-01) (653, 1.11184017945086255352e+00) (654, 1.68141797450399899105e+00) (655, 1.18531201237144867555e+00) (656, 2.93530369183212824780e+00) (657, -4.02921409023112131464e-01) (658, -1.75379321080870204108e-01) (659, 2.00205570366850271746e-01) (660, 7.30565968464045756292e-01) (661, 6.16695226730494039380e-01) (662, 4.10184917794312875472e-01) (663, 1.30865539752346576874e-01) (664, 5.26206717511744970217e-01) (665, 6.53987301159372536041e-01) (666, 8.62331325547038396451e-01) (667, 7.99600276670371590271e-01) (668, 8.36799840071999256885e-01) (669, 9.29959597626530354297e-01) (670, 9.06473072806202595508e-01) (671, 9.40147029796444599903e-01) (672, 9.27801194229923908985e-01) (673, 8.64555540123783772266e-01) (674, 7.96921680310570423877e-01) (675, 8.99772348442875569141e-01) (676, 8.49811589625325547459e-01) (677, 1.96513446965399607436e+00) (678, 1.23926386681087876696e+01) (679, 2.61058650538843917133e+00) (680, 1.12244651597674272026e+00) (681, 1.15009227048446716068e+00) (682, 7.42186533844943707727e-01) (683, 2.71093151730070358596e+00) (684, 2.48097144829542992639e+00) (685, 2.51050553886984495477e+00) (686, 1.48480987537042530278e+00) (687, 1.05705214068693220675e+00) (688, 9.69589607017959931312e-01) (689, 8.30281218336827997462e-01) (690, 6.83225735778814624588e-01) (691, 6.53240112388475568928e-01) (692, 7.01029088316121984370e-01) (693, 8.39168139290820347398e-01) (694, 9.48101516387378273620e-01) (695, 7.71340313873206673279e-01) (696, 9.50990530291401570118e-01) (697, 8.43231568673454945362e-01) (698, 8.03142959812485401905e-01) (699, 8.17880912313067143238e-01) (700, 8.03281704524361317432e-01) (701, 9.39706566372715657032e-01) (702, 7.88118484059178059375e-01) (703, 9.68597237357548879189e-01) (704, 9.04124539587464415291e-01) (705, 9.00846669554722034867e-01) (706, 1.17356781415823374637e+00) (707, 1.22957901555087523171e+00) (708, 1.04937121454233683870e+00) (709, 1.36515210634398975742e+00) (710, 1.73939182040108297755e+00) (711, 1.74964133913342845261e+00) (712, 1.93492368514817103531e+00) (713, 1.82191067363230430054e+00) (714, 1.81502100870967031376e+00) (715, 1.03267436309393789706e+00) (716, 1.18827084546172190294e+00) (717, 8.79366491170979536207e-01) (718, 9.13858536602913607005e-01) (719, 9.53770650658069762962e-01) (720, 8.51361471733962593689e-01) (721, 8.53673915459480014967e-01) (722, 8.63467198298298099779e-01) (723, 8.06540403948150852464e-01) (724, 9.24582096377216999805e-01) (725, 8.43807170728050892627e-01) (726, 8.10119176843964283741e-01) (727, 9.05663179794155781543e-01) (728, 9.17129280606114094532e-01) (729, 8.43352685311638539112e-01) (730, 9.53634622135960285938e-01) (731, 9.50501518884503071583e-01) (732, 8.13149793634020512378e-01) (733, 8.20526204732749953052e-01) (734, 1.00808783110577238062e+00) (735, 1.10697122169076145326e+00) (736, 1.04611431839319424242e+00) (737, 1.09227062267600238954e+00) (738, 1.13748780823814454877e+00) (739, 1.02795150316822114789e+00) (740, 1.07804136693072649678e+00) (741, 1.03476594812880784424e+00) (742, 1.10444712318192750367e+00) (743, 1.07893154449473649414e+00) (744, 1.14285438803826977505e+00) (745, 9.56118785025931394728e-01) (746, 8.60860208609902088916e-01) (747, 8.78696451975669590162e-01) (748, 9.68438330187167850660e-01) (749, 8.04610068538986866749e-01) (750, 8.64206070640885060108e-01) (751, 8.51173880139195149219e-01) (752, 8.88602154889904682911e-01) (753, 9.58855810204350178516e-01) (754, 8.88896832803093617237e-01) (755, 8.43274796942078297413e-01) (756, 8.32753519156777088916e-01) (757, 9.29106535950504963672e-01) (758, 7.79028507510029499805e-01) (759, 7.79973330536686604297e-01) (760, 8.02549759486519520557e-01) (761, 9.62753670850598042286e-01) (762, 9.60565390625797932422e-01) (763, 8.45790098050438587940e-01) (764, 9.64359056439339279443e-01) (765, 9.32421433368527119434e-01) (766, 9.60897419938496755165e-01) (767, 8.11843285897576039112e-01) (768, 8.74086919901464476368e-01) (769, 1.00166854452234432848e+00) (770, 9.51185898372709837112e-01) (771, 1.01678160022836805432e+00) (772, 8.20371404019687666676e-01) (773, 8.38885932890270247242e-01) (774, 8.97517459503233472340e-01) (775, 9.15483164230190937793e-01) (776, 9.27957775631748860157e-01) (777, 9.21918260494076435840e-01) (778, 8.24497776666485493458e-01) (779, 9.26714273730122273243e-01) (780, 9.56618862787090962208e-01) (781, 9.18794395962559407032e-01) (782, 8.07978684643112843311e-01) (783, 8.75311563351952259815e-01) (784, -3.43127832449247438529e-01) (0, 9.26222714031827876191e-01) (1, 9.47933541978490779023e-01) (2, 7.69841442252290675263e-01) (3, 8.85419788206708857636e-01) (4, 9.57052590693128535371e-01) (5, 7.79905313993585536103e-01) (6, 9.18060096348417231660e-01) (7, 9.49896799768102595429e-01) (8, 7.70561242843759486298e-01) (9, 7.93940725172651240449e-01) (10, 9.44675194467199275117e-01) (11, 9.33073209966314265351e-01) (12, 7.77504893387449214082e-01) (13, 7.86609033490312525849e-01) (14, 7.88568118954790064912e-01) (15, 9.42714022840154597382e-01) (16, 9.00651516760480830293e-01) (17, 9.68890296662939021211e-01) (18, 9.44493400300634333711e-01) (19, 9.20945437992704341035e-01) (20, 8.29948345566881129365e-01) (21, 8.90067102755201289277e-01) (22, 8.78993744398248622041e-01) (23, 7.81957136834752986054e-01) (24, 9.44655420626295039277e-01) (25, 8.35798548902166316132e-01) (26, 9.68666540826452204804e-01) (27, 8.93540347362649867158e-01) (28, 8.73867774749887415986e-01) (29, 8.74068634952199885468e-01) (30, 8.31371626253021189790e-01) (31, 8.30924360449207255463e-01) (32, 8.52836067224634120088e-01) (33, 8.32046950603616664033e-01) (34, 9.47178038204801509004e-01) (35, 8.40722555662286707978e-01) (36, 8.42786157871377894502e-01) (37, 8.96072017396581599336e-01) (38, 8.21210743434724999013e-01) (39, 8.44181279088151881318e-01) (40, 9.20846628392827937226e-01) (41, 7.96962330485475489716e-01) (42, 8.08088375623119303803e-01) (43, 9.29185392702711054902e-01) (44, 8.14405242348802516084e-01) (45, 8.27490380401504466157e-01) (46, 9.02733298386228510957e-01) (47, 9.45890652383459040742e-01) (48, 8.27214567358386942963e-01) (49, 8.78060581530225703339e-01) (50, 8.97669958318365046601e-01) (51, 8.87996795023572871308e-01) (52, 7.98961567128789851289e-01) (53, 8.07497581834686228852e-01) (54, 9.00787817681920954804e-01) (55, 7.74450878049028346162e-01) (56, 8.74130012835157343964e-01) (57, 9.00288241351736018281e-01) (58, 8.98825111235273310761e-01) (59, 7.78831670428407618623e-01) (60, 8.05190751696718165498e-01) (61, 9.61030619586599299531e-01) (62, 8.40589920426500269990e-01) (63, 8.88860704744947383027e-01) (64, 8.23911460484159419160e-01) (65, 8.18601837749374339204e-01) (66, 9.60174640215931129994e-01) (67, 8.97531496728551814179e-01) (68, 9.45507737244260737519e-01) (69, 8.12704267347944209199e-01) (70, 7.72546658660066554170e-01) (71, 8.97188233579290339570e-01) (72, 8.40500483657014796357e-01) (73, 8.11468927557361552338e-01) (74, 8.57207509125364253144e-01) (75, 8.85739619279993006806e-01) (76, 8.69793193782461115937e-01) (77, 7.90774690354955622773e-01) (78, 8.62464132155073115449e-01) (79, 9.27841650689733454804e-01) (80, 8.99669157708776423554e-01) (81, 7.90967973316801020722e-01) (82, 8.46672321106088587861e-01) (83, 9.29464610661161372285e-01) (84, 8.29299440975082347016e-01) (85, 7.78294021631372401338e-01) (86, 9.34749367083204218964e-01) (87, 9.34263335908544489961e-01) (88, 9.09416141356122920136e-01) (89, 8.64408368612420985322e-01) (90, 9.43928899611127802949e-01) (91, 9.45188619492933423949e-01) (92, 8.55799972456322000092e-01) (93, 8.14879808020220086640e-01) (94, 8.65135381365907618623e-01) (95, 9.11018224800718257050e-01) (96, 6.48327690257314070976e-01) (97, 6.39925670518163070000e-01) (98, 6.22922864450696334160e-01) (99, 6.24669302894357070244e-01) (100, 6.83463823689702487663e-01) (101, 6.26303416384938582695e-01) (102, 7.52691414846662021354e-01) (103, 7.71258930112016627412e-01) (104, 8.85066965962541529755e-01) (105, 8.57193554187906214814e-01) (106, 8.87832427765024134736e-01) (107, 7.85694042588365504365e-01) (108, 8.78802122915876338105e-01) (109, 7.81130442763460108857e-01) (110, 9.44369571651113459687e-01) (111, 8.09305163468015620332e-01) (112, 8.02932301903856227021e-01) (113, 8.21875771875274607758e-01) (114, 7.69603656972539851289e-01) (115, 8.63065632427823969941e-01) (116, 8.31003679330242106538e-01) (117, 9.35186909879339167695e-01) (118, 8.28162862355602213960e-01) (119, 7.70780808668957040375e-01) (120, 8.29956266474352166718e-01) (121, 5.85992010027385434867e-01) (122, 7.30594740897632433096e-01) (123, 7.00823026346242605733e-01) (124, 6.30148687890467407158e-01) (125, 5.77074283120839859329e-01) (126, 5.92570673818143656142e-01) (127, 6.77345918109887534797e-01) (128, 7.10757085867374072130e-01) (129, 7.10854052411775239051e-01) (130, 5.98807314739847607044e-01) (131, 6.44347790922500385236e-01) (132, 5.86490648435628481039e-01) (133, 5.99971617208993501791e-01) (134, 6.46856302963769502767e-01) (135, 9.18852232693121107054e-01) (136, 9.04711963976514765839e-01) (137, 7.82235520328176447968e-01) (138, 9.35632335389745661836e-01) (139, 8.14347969735753962617e-01) (140, 7.94199848915231654267e-01) (141, 9.10835789884221980195e-01) (142, 8.54487019027364680390e-01) (143, 8.27966044093263575654e-01) (144, 9.63545443857801386933e-01) (145, 8.54924561823499629121e-01) (146, 9.21865569795263239961e-01) (147, 8.25140507467088890614e-01) (148, 6.03131155494321613553e-01) (149, 5.64660672838664945417e-01) (150, 5.61405536731403809192e-01) (151, 4.32194884319606953405e-01) (152, 3.64739955932983583864e-01) (153, 3.57097984130266221658e-01) (154, 3.81587787717333037918e-01) (155, 4.97634228611482154481e-01) (156, 5.94606469841600038251e-01) (157, 6.26197468514667288098e-01) (158, 5.82011581192768634452e-01) (159, 5.53591401110447467460e-01) (160, 6.59072531190663668532e-01) (161, 6.97479386127277334317e-01) (162, 7.15104605483421917889e-01) (163, 6.98639348869344312121e-01) (164, 9.65505440842798878798e-01) (165, 8.28429593140972087006e-01) (166, 8.65215273941648432832e-01) (167, 9.00733041013372370820e-01) (168, 8.41498995567453333955e-01) (169, 8.31681484724176356416e-01) (170, 9.45914896572721430879e-01) (171, 8.66532737756860682588e-01) (172, 7.73351150001180598359e-01) (173, 8.31564594753540053951e-01) (174, 9.25200554225216298398e-01) (175, 9.66566848373949794038e-01) (176, 6.98988794900745835648e-01) (177, 6.59155263229880050702e-01) (178, 2.28304695059278445202e-01) (179, 3.86461226182727102252e-01) (180, 3.85851889037836126573e-01) (181, 2.68069012517392679662e-01) (182, -9.06724650485397298816e-01) (183, -1.01702586772457456710e-01) (184, 1.99599091330485278739e+00) (185, -4.44690008582809825910e-01) (186, 2.33304901174780615625e-01) (187, 5.85664644798480460430e-01) (188, 6.75138956302262505105e-01) (189, 7.41438385880470507416e-01) (190, 6.80785786758955291376e-01) (191, 5.88835607220063450562e-01) (192, 6.93916364968103605015e-01) (193, 8.67075234948084028197e-01) (194, 9.53046204889905879121e-01) (195, 9.06079935277593562226e-01) (196, 9.26590877021444270234e-01) (197, 8.49095369125497767548e-01) (198, 8.37646844233167597871e-01) (199, 8.47606323196076649751e-01) (200, 9.60953300058507320358e-01) (201, 8.61821879433101178947e-01) (202, 9.42971325041382257837e-01) (203, 9.11467853277015072067e-01) (204, 8.67955354111601740108e-01) (205, 8.46994328331947210486e-01) (206, 5.04797396478565252309e-01) (207, -1.27246044244916672872e-01) (208, -8.78023247489555291878e-01) (209, -4.92545764074347847128e+00) (210, -7.35172401739543612820e+00) (211, -4.28572477613495816939e+00) (212, 2.80525064618889707901e-01) (213, 5.31619525322688968316e+00) (214, 1.31973319237023445361e+00) (215, 1.86645762811000981429e+00) (216, 8.81126221067546011589e-01) (217, 7.37234438459177576775e-01) (218, 6.91263861535815204995e-01) (219, 6.21103475004108673829e-01) (220, 7.15822571423540110480e-01) (221, 8.25779140292093427611e-01) (222, 8.74077262724531123261e-01) (223, 8.72605616594446131806e-01) (224, 9.24192594731939265351e-01) (225, 8.57957357908380457978e-01) (226, 8.58201983852767247285e-01) (227, 9.49816985788282552861e-01) (228, 1.14045178971450122951e+00) (229, 1.06428857873135207512e+00) (230, 1.25994299865565606567e+00) (231, 1.43859188558432227190e+00) (232, 1.29160650868272530722e+00) (233, 4.45004458804487357249e-01) (234, -1.85628337072274227637e+01) (235, -1.51946005008799680525e+01) (236, -1.20063735584068211892e+02) (237, -4.62349353993276963593e+01) (238, -1.02067966387083917112e+01) (239, -1.68250124691905122987e+00) (240, -2.00655208178865258617e+01) (241, 1.58180638081638069714e+00) (242, -1.14473236417655783725e+01) (243, -3.26233075780883963191e+00) (244, 8.43302162630220175643e-01) (245, 8.88517007470871367225e-01) (246, 7.66743602310740568484e-01) (247, 6.37629054852186016866e-01) (248, 6.59402764428665078000e-01) (249, 8.71316835580751569701e-01) (250, 9.16363211716306635957e-01) (251, 8.38106254483354518037e-01) (252, 9.28434195364606806855e-01) (253, 8.28698150957565715657e-01) (254, 1.00877971320854609161e+00) (255, 1.15477016525042475159e+00) (256, 1.17565899229031556317e+00) (257, 9.68924447824404122542e-01) (258, 1.35084595058932421807e+00) (259, 2.09634969870858833829e+00) (260, -1.07072510479108307102e+00) (261, 1.03385474295388113397e+00) (262, -3.23063233164169583134e+00) (263, -3.63613446164730547139e+01) (264, 1.93676202682737530480e+00) (265, 2.85729610675100031969e+00) (266, 1.64338644850943715880e+00) (267, 1.43858150005895690793e-01) (268, -3.08739331861293320181e-01) (269, -2.41577281755758033199e+00) (270, -4.24322256900330596618e-01) (271, 3.42807555230217841924e+00) (272, 1.34962436622535175701e+00) (273, 9.56567409245702604537e-01) (274, 7.61908355235162426666e-01) (275, 7.19315203117707024916e-01) (276, 6.82134431494954451836e-01) (277, 9.48562564695966670136e-01) (278, 8.12538234884632060151e-01) (279, 8.04988550389898249726e-01) (280, 8.50965457404745051484e-01) (281, 1.00841788156189915426e+00) (282, 9.42951690157559085925e-01) (283, 1.04469754600767195107e+00) (284, 1.07661358065590029298e+00) (285, 1.03267742165204734484e+00) (286, 1.31308476709809784921e+00) (287, 1.23779807380805761952e+00) (288, 1.17016818060720684258e+00) (289, 1.34627872442039708822e+00) (290, 1.73868581393037646698e+00) (291, 4.40498978248979788930e+00) (292, 2.18293673493738964453e+01) (293, 4.35735056975816270608e+00) (294, 1.12593869297848647726e+00) (295, -8.62850077631988288118e-01) (296, -1.64986980559471829721e+00) (297, 3.49803264738643093779e+00) (298, 2.96273627435600950264e+00) (299, 6.81523164762160060803e+00) (300, 1.38007541644138642667e+00) (301, 8.79814826070360211929e-01) (302, 9.08455996674381927036e-01) (303, 6.53109841845408545247e-01) (304, 6.61600331412828035482e-01) (305, 9.28387346113813349824e-01) (306, 8.34740111971986720185e-01) (307, 8.07742284978521296601e-01) (308, 9.07783793653142878632e-01) (309, 9.44662192679752155122e-01) (310, 9.12587720652725864490e-01) (311, 1.01993672955961600657e+00) (312, 1.09903505105705634470e+00) (313, 9.92005736589159581307e-01) (314, 8.23148145213825066513e-01) (315, 8.45211540274798056593e-01) (316, 1.10478465827000035815e-01) (317, 1.32587202848055252247e+00) (318, 1.54721714552256206510e+00) (319, 7.57665427987035955404e-01) (320, 6.37153605877023965220e-01) (321, 2.94529474197858243123e-01) (322, 5.36549676753520832229e-01) (323, 7.58695215754369711725e-01) (324, 3.50918721544493772413e-01) (325, 2.30212415979573625791e+00) (326, 3.85839091125084454603e+00) (327, 3.60613115247205762159e+00) (328, 8.93762440861351148413e-01) (329, 8.01651189435275357553e-01) (330, 7.53013763069129704597e-01) (331, 6.97897623199344230294e-01) (332, 5.87393898343026465980e-01) (333, 9.27470790589940974336e-01) (334, 8.17731494451654383759e-01) (335, 9.13897129143369624238e-01) (336, 8.86692012096536585908e-01) (337, 9.31988052560471791352e-01) (338, 1.02149629940619779411e+00) (339, 1.06014570647052774888e+00) (340, 9.79960999794409204355e-01) (341, 8.24017613820094085852e-01) (342, 4.70653951911311596579e-01) (343, 3.74069600005376867724e-01) (344, 1.69645308954969120663e+00) (345, 1.89285265646383216165e+00) (346, -2.76662302462938769487e-01) (347, -2.74444892845960963790e-01) (348, 2.12379206807099596421e-01) (349, 2.47055514813558058096e-01) (350, -7.64337749300651320139e-02) (351, 1.12000233978240970600e+00) (352, 2.89647698434314060378e+00) (353, 6.04286488653402509286e-01) (354, 4.30659326935412636317e+01) (355, 3.90845806340663903811e+00) (356, 7.24287563776711551533e-01) (357, 5.96110888591111831580e-01) (358, 4.84099106063311857007e-01) (359, 6.60077305958590265789e-01) (360, 7.14668493544042049415e-01) (361, 8.36796822394025752168e-01) (362, 8.25896619255435893159e-01) (363, 9.67608498777044245820e-01) (364, 7.95101495827329585175e-01) (365, 8.74462003255975672822e-01) (366, 9.79573452169765324093e-01) (367, 9.62817322362773730937e-01) (368, 8.37426841657203269165e-01) (369, 6.75025088839819709108e-01) (370, 5.54364672042485961967e-01) (371, -1.93474751468647038211e-01) (372, -3.62456574650746599087e-01) (373, -1.13775544523641441996e-01) (374, -8.85027515548721388505e-01) (375, -6.67225016131456460933e-01) (376, -5.98643775553093449027e-01) (377, -1.05909930927705131509e+00) (378, 1.75692610870818590740e+01) (379, 6.18400871817786335072e+00) (380, 5.53241748222147333713e-01) (381, -1.07008077779218457870e+00) (382, 1.44009941214547989574e+01) (383, 1.02093835067225824353e+00) (384, 8.19345752210472344501e-01) (385, 5.80675861450630104166e-01) (386, 5.88916260345976994017e-01) (387, 7.44281591820693866346e-01) (388, 6.22101461412098988291e-01) (389, 8.09642920638215968232e-01) (390, 8.71793406451833674531e-01) (391, 8.02063877130639979463e-01) (392, 8.77273636306417414765e-01) (393, 9.28523900354993769746e-01) (394, 8.49188819064282673921e-01) (395, 9.51891578270577687348e-01) (396, 8.31361250259979200905e-01) (397, 7.21689974756576146930e-01) (398, 1.34348450796103746629e-01) (399, -3.84902693154549946364e-01) (400, -7.23139826868062662868e-01) (401, -1.56257250431274141711e+00) (402, -1.07404963949846354865e+00) (403, -9.79648605892300072817e-01) (404, -1.17018238311366373772e+00) (405, -6.23905346523316062246e+00) (406, 2.53083586263628745883e+00) (407, 6.73005377794073744724e+00) (408, -5.42109762926991312071e+00) (409, -9.44864764691361880278e-02) (410, 1.02246655183846768544e+00) (411, 1.39348699128109632106e+00) (412, 1.06935035449120952045e+00) (413, 6.69547606566291197971e-01) (414, 6.03745161900797411292e-01) (415, 6.96155882545918092141e-01) (416, 6.38154502784192390052e-01) (417, 9.21210978324156215535e-01) (418, 8.85943370307577082734e-01) 