FANN_FLO_2.1
num_layers=3
learning_rate=0.400000
connection_rate=1.000000
network_type=0
learning_momentum=0.000000
training_algorithm=2
train_error_function=1
train_stop_function=0
cascade_output_change_fraction=0.010000
quickprop_decay=-0.000100
quickprop_mu=1.750000
rprop_increase_factor=1.200000
rprop_decrease_factor=0.500000
rprop_delta_min=0.000000
rprop_delta_max=50.000000
rprop_delta_zero=0.100000
cascade_output_stagnation_epochs=12
cascade_candidate_change_fraction=0.010000
cascade_candidate_stagnation_epochs=12
cascade_max_out_epochs=150
cascade_max_cand_epochs=150
cascade_num_candidate_groups=2
bit_fail_limit=3.49999999999999977796e-01
cascade_candidate_limit=1.00000000000000000000e+03
cascade_weight_multiplier=4.00000000000000022204e-01
cascade_activation_functions_count=10
cascade_activation_functions=3 5 7 8 10 11 14 15 16 17 
cascade_activation_steepnesses_count=4
cascade_activation_steepnesses=2.50000000000000000000e-01 5.00000000000000000000e-01 7.50000000000000000000e-01 1.00000000000000000000e+00 
layer_sizes=785 101 2 
scale_included=0
neurons (num_inputs, activation_function, activation_steepness)=(0, 0, 0.00000000000000000000e+00) (0, 0, 0.00000000000000000000e+00) (0, 0, 0.00000000000000000000e+00) (0, 0, 0.00000000000000000000e+00) (0, 0, 0.00000000000000000000e+00) (0, 0, 0.00000000000000000000e+00) (0, 0, 0.00000000000000000000e+00) (0, 0, 0.00000000000000000000e+00) (0, 0, 0.00000000000000000000e+00) (0, 0, 0.00000000000000000000e+00) (0, 0, 0.00000000000000000000e+00) (0, 0, 0.00000000000000000000e+00) (0, 0, 0.00000000000000000000e+00) (0, 0, 0.00000000000000000000e+00) (0, 0, 0.00000000000000000000e+00) (0, 0, 0.00000000000000000000e+00) (0, 0, 0.00000000000000000000e+00) (0, 0, 0.00000000000000000000e+00) (0, 0, 0.00000000000000000000e+00) (0, 0, 0.00000000000000000000e+00) (0, 0, 0.00000000000000000000e+00) (0, 0, 0.00000000000000000000e+00) (0, 0, 0.00000000000000000000e+00) (0, 0, 0.00000000000000000000e+00) (0, 0, 0.00000000000000000000e+00) (0, 0, 0.00000000000000000000e+00) (0, 0, 0.00000000000000000000e+00) (0, 0, 0.00000000000000000000e+00) (0, 0, 0.00000000000000000000e+00) (0, 0, 0.00000000000000000000e+00) (0, 0, 0.00000000000000000000e+00) (0, 0, 0.00000000000000000000e+00) (0, 0, 0.00000000000000000000e+00) (0, 0, 0.00000000000000000000e+00) (0, 0, 0.00000000000000000000e+00) (0, 0, 0.00000000000000000000e+00) (0, 0, 0.00000000000000000000e+00) (0, 0, 0.00000000000000000000e+00) (0, 0, 0.00000000000000000000e+00) (0, 0, 0.00000000000000000000e+00) (0, 0, 0.00000000000000000000e+00) (0, 0, 0.00000000000000000000e+00) (0, 0, 0.00000000000000000000e+00) (0, 0, 0.00000000000000000000e+00) (0, 0, 0.00000000000000000000e+00) (0, 0, 0.00000000000000000000e+00) (0, 0, 0.00000000000000000000e+00) (0, 0, 0.00000000000000000000e+00) (0, 0, 0.00000000000000000000e+00) (0, 0, 0.00000000000000000000e+00) (0, 0, 0.00000000000000000000e+00) (0, 0, 0.00000000000000000000e+00) (0, 0, 0.00000000000000000000e+00) (0, 0, 0.00000000000000000000e+00) (0, 0, 0.00000000000000000000e+00) (0, 0, 0.00000000000000000000e+00) (0, 0, 0.00000000000000000000e+00) (0, 0, 0.00000000000000000000e+00) (0, 0, 0.00000000000000000000e+00) (0, 0, 0.00000000000000000000e+00) (0, 0, 0.00000000000000000000e+00) (0, 0, 0.00000000000000000000e+00) (0, 0, 0.00000000000000000000e+00) (0, 0, 0.00000000000000000000e+00) (0, 0, 0.00000000000000000000e+00) (0, 0, 0.00000000000000000000e+00) (0, 0, 0.00000000000000000000e+00) (0, 0, 0.00000000000000000000e+00) (0, 0, 0.00000000000000000000e+00) (0, 0, 0.00000000000000000000e+00) (0, 0, 0.00000000000000000000e+00) (0, 0, 0.00000000000000000000e+00) (0, 0, 0.00000000000000000000e+00) (0, 0, 0.00000000000000000000e+00) (0, 0, 0.00000000000000000000e+00) (0, 0, 0.00000000000000000000e+00) (0, 0, 0.00000000000000000000e+00) (0, 0, 0.00000000000000000000e+00) (0, 0, 0.00000000000000000000e+00) (0, 0, 0.00000000000000000000e+00) (0, 0, 0.00000000000000000000e+00) (0, 0, 0.00000000000000000000e+00) (0, 0, 0.00000000000000000000e+00) (0, 0, 0.00000000000000000000e+00) (0, 0, 0.00000000000000000000e+00) (0, 0, 0.00000000000000000000e+00) (0, 0, 0.00000000000000000000e+00) (0, 0, 0.00000000000000000000e+00) (0, 0, 0.00000000000000000000e+00) (0, 0, 0.00000000000000000000e+00) (0, 0, 0.00000000000000000000e+00) (0, 0, 0.00000000000000000000e+00) (0, 0, 0.00000000000000000000e+00) (0, 0, 0.00000000000000000000e+00) (0, 0, 0.00000000000000000000e+00) (0, 0, 0.00000000000000000000e+00) (0, 0, 0.00000000000000000000e+00) (0, 0, 0.00000000000000000000e+00) (0, 0, 0.00000000000000000000e+00) (0, 0, 0.00000000000000000000e+00) (0, 0, 0.00000000000000000000e+00) (0, 0, 0.00000000000000000000e+00) (0, 0, 0.00000000000000000000e+00) (0, 0, 0.00000000000000000000e+00) (0, 0, 0.00000000000000000000e+00) (0, 0, 0.00000000000000000000e+00) (0, 0, 0.00000000000000000000e+00) (0, 0, 0.00000000000000000000e+00) (0, 0, 0.00000000000000000000e+00) (0, 0, 0.00000000000000000000e+00) (0, 0, 0.00000000000000000000e+00) (0, 0, 0.00000000000000000000e+00) (0, 0, 0.00000000000000000000e+00) (0, 0, 0.00000000000000000000e+00) (0, 0, 0.00000000000000000000e+00) (0, 0, 0.00000000000000000000e+00) (0, 0, 0.00000000000000000000e+00) (0, 0, 0.00000000000000000000e+00) (0, 0, 0.00000000000000000000e+00) (0, 0, 0.00000000000000000000e+00) (0, 0, 0.00000000000000000000e+00) (0, 0, 0.00000000000000000000e+00) (0, 0, 0.00000000000000000000e+00) (0, 0, 0.00000000000000000000e+00) (0, 0, 0.00000000000000000000e+00) (0, 0, 0.00000000000000000000e+00) (0, 0, 0.00000000000000000000e+00) (0, 0, 0.00000000000000000000e+00) (0, 0, 0.00000000000000000000e+00) (0, 0, 0.00000000000000000000e+00) (0, 0, 0.00000000000000000000e+00) (0, 0, 0.00000000000000000000e+00) (0, 0, 0.00000000000000000000e+00) (0, 0, 0.00000000000000000000e+00) (0, 0, 0.00000000000000000000e+00) (0, 0, 0.00000000000000000000e+00) (0, 0, 0.00000000000000000000e+00) (0, 0, 0.00000000000000000000e+00) (0, 0, 0.00000000000000000000e+00) (0, 0, 0.00000000000000000000e+00) (0, 0, 0.00000000000000000000e+00) (0, 0, 0.00000000000000000000e+00) (0, 0, 0.00000000000000000000e+00) (0, 0, 0.00000000000000000000e+00) (0, 0, 0.00000000000000000000e+00) (0, 0, 0.00000000000000000000e+00) (0, 0, 0.00000000000000000000e+00) (0, 0, 0.00000000000000000000e+00) (0, 0, 0.00000000000000000000e+00) (0, 0, 0.00000000000000000000e+00) (0, 0, 0.00000000000000000000e+00) (0, 0, 0.00000000000000000000e+00) (0, 0, 0.00000000000000000000e+00) (0, 0, 0.00000000000000000000e+00) (0, 0, 0.00000000000000000000e+00) (0, 0, 0.00000000000000000000e+00) (0, 0, 0.00000000000000000000e+00) (0, 0, 0.00000000000000000000e+00) (0, 0, 0.00000000000000000000e+00) (0, 0, 0.00000000000000000000e+00) (0, 0, 0.00000000000000000000e+00) (0, 0, 0.00000000000000000000e+00) (0, 0, 0.00000000000000000000e+00) (0, 0, 0.00000000000000000000e+00) (0, 0, 0.00000000000000000000e+00) (0, 0, 0.00000000000000000000e+00) (0, 0, 0.00000000000000000000e+00) (0, 0, 0.00000000000000000000e+00) (0, 0, 0.00000000000000000000e+00) (0, 0, 0.00000000000000000000e+00) (0, 0, 0.00000000000000000000e+00) (0, 0, 0.00000000000000000000e+00) (0, 0, 0.00000000000000000000e+00) (0, 0, 0.00000000000000000000e+00) (0, 0, 0.00000000000000000000e+00) (0, 0, 0.00000000000000000000e+00) (0, 0, 0.00000000000000000000e+00) (0, 0, 0.00000000000000000000e+00) (0, 0, 0.00000000000000000000e+00) (0, 0, 0.00000000000000000000e+00) (0, 0, 0.00000000000000000000e+00) (0, 0, 0.00000000000000000000e+00) (0, 0, 0.00000000000000000000e+00) (0, 0, 0.00000000000000000000e+00) (0, 0, 0.00000000000000000000e+00) (0, 0, 0.00000000000000000000e+00) (0, 0, 0.00000000000000000000e+00) (0, 0, 0.00000000000000000000e+00) (0, 0, 0.00000000000000000000e+00) (0, 0, 0.00000000000000000000e+00) (0, 0, 0.00000000000000000000e+00) (0, 0, 0.00000000000000000000e+00) (0, 0, 0.00000000000000000000e+00) (0, 0, 0.00000000000000000000e+00) (0, 0, 0.00000000000000000000e+00) (0, 0, 0.00000000000000000000e+00) (0, 0, 0.00000000000000000000e+00) (0, 0, 0.00000000000000000000e+00) (0, 0, 0.00000000000000000000e+00) (0, 0, 0.00000000000000000000e+00) (0, 0, 0.00000000000000000000e+00) (0, 0, 0.00000000000000000000e+00) (0, 0, 0.00000000000000000000e+00) (0, 0, 0.00000000000000000000e+00) (0, 0, 0.00000000000000000000e+00) (0, 0, 0.00000000000000000000e+00) (0, 0, 0.00000000000000000000e+00) (0, 0, 0.00000000000000000000e+00) (0, 0, 0.00000000000000000000e+00) (0, 0, 0.00000000000000000000e+00) (0, 0, 0.00000000000000000000e+00) (0, 0, 0.00000000000000000000e+00) (0, 0, 0.00000000000000000000e+00) (0, 0, 0.00000000000000000000e+00) (0, 0, 0.00000000000000000000e+00) (0, 0, 0.00000000000000000000e+00) (0, 0, 0.00000000000000000000e+00) (0, 0, 0.00000000000000000000e+00) (0, 0, 0.00000000000000000000e+00) (0, 0, 0.00000000000000000000e+00) (0, 0, 0.00000000000000000000e+00) (0, 0, 0.00000000000000000000e+00) (0, 0, 0.00000000000000000000e+00) (0, 0, 0.00000000000000000000e+00) (0, 0, 0.00000000000000000000e+00) (0, 0, 0.00000000000000000000e+00) (0, 0, 0.00000000000000000000e+00) (0, 0, 0.00000000000000000000e+00) (0, 0, 0.00000000000000000000e+00) (0, 0, 0.00000000000000000000e+00) (0, 0, 0.00000000000000000000e+00) (0, 0, 0.00000000000000000000e+00) (0, 0, 0.00000000000000000000e+00) (0, 0, 0.00000000000000000000e+00) (0, 0, 0.00000000000000000000e+00) (0, 0, 0.00000000000000000000e+00) (0, 0, 0.00000000000000000000e+00) (0, 0, 0.00000000000000000000e+00) (0, 0, 0.00000000000000000000e+00) (0, 0, 0.00000000000000000000e+00) (0, 0, 0.00000000000000000000e+00) (0, 0, 0.00000000000000000000e+00) (0, 0, 0.00000000000000000000e+00) (0, 0, 0.00000000000000000000e+00) (0, 0, 0.00000000000000000000e+00) (0, 0, 0.00000000000000000000e+00) (0, 0, 0.00000000000000000000e+00) (0, 0, 0.00000000000000000000e+00) (0, 0, 0.00000000000000000000e+00) (0, 0, 0.00000000000000000000e+00) (0, 0, 0.00000000000000000000e+00) (0, 0, 0.00000000000000000000e+00) (0, 0, 0.00000000000000000000e+00) (0, 0, 0.00000000000000000000e+00) (0, 0, 0.00000000000000000000e+00) (0, 0, 0.00000000000000000000e+00) (0, 0, 0.00000000000000000000e+00) (0, 0, 0.00000000000000000000e+00) (0, 0, 0.00000000000000000000e+00) (0, 0, 0.00000000000000000000e+00) (0, 0, 0.00000000000000000000e+00) (0, 0, 0.00000000000000000000e+00) (0, 0, 0.00000000000000000000e+00) (0, 0, 0.00000000000000000000e+00) (0, 0, 0.00000000000000000000e+00) (0, 0, 0.00000000000000000000e+00) (0, 0, 0.00000000000000000000e+00) (0, 0, 0.00000000000000000000e+00) (0, 0, 0.00000000000000000000e+00) (0, 0, 0.00000000000000000000e+00) (0, 0, 0.00000000000000000000e+00) (0, 0, 0.00000000000000000000e+00) (0, 0, 0.00000000000000000000e+00) (0, 0, 0.00000000000000000000e+00) (0, 0, 0.00000000000000000000e+00) (0, 0, 0.00000000000000000000e+00) (0, 0, 0.00000000000000000000e+00) (0, 0, 0.00000000000000000000e+00) (0, 0, 0.00000000000000000000e+00) (0, 0, 0.00000000000000000000e+00) (0, 0, 0.00000000000000000000e+00) (0, 0, 0.00000000000000000000e+00) (0, 0, 0.00000000000000000000e+00) (0, 0, 0.00000000000000000000e+00) (0, 0, 0.00000000000000000000e+00) (0, 0, 0.00000000000000000000e+00) (0, 0, 0.00000000000000000000e+00) (0, 0, 0.00000000000000000000e+00) (0, 0, 0.00000000000000000000e+00) (0, 0, 0.00000000000000000000e+00) (0, 0, 0.00000000000000000000e+00) (0, 0, 0.00000000000000000000e+00) (0, 0, 0.00000000000000000000e+00) (0, 0, 0.00000000000000000000e+00) (0, 0, 0.00000000000000000000e+00) (0, 0, 0.00000000000000000000e+00) (0, 0, 0.00000000000000000000e+00) (0, 0, 0.00000000000000000000e+00) (0, 0, 0.00000000000000000000e+00) (0, 0, 0.00000000000000000000e+00) (0, 0, 0.00000000000000000000e+00) (0, 0, 0.00000000000000000000e+00) (0, 0, 0.00000000000000000000e+00) (0, 0, 0.00000000000000000000e+00) (0, 0, 0.00000000000000000000e+00) (0, 0, 0.00000000000000000000e+00) (0, 0, 0.00000000000000000000e+00) (0, 0, 0.00000000000000000000e+00) (0, 0, 0.00000000000000000000e+00) (0, 0, 0.00000000000000000000e+00) (0, 0, 0.00000000000000000000e+00) (0, 0, 0.00000000000000000000e+00) (0, 0, 0.00000000000000000000e+00) (0, 0, 0.00000000000000000000e+00) (0, 0, 0.00000000000000000000e+00) (0, 0, 0.00000000000000000000e+00) (0, 0, 0.00000000000000000000e+00) (0, 0, 0.00000000000000000000e+00) (0, 0, 0.00000000000000000000e+00) (0, 0, 0.00000000000000000000e+00) (0, 0, 0.00000000000000000000e+00) (0, 0, 0.00000000000000000000e+00) (0, 0, 0.00000000000000000000e+00) (0, 0, 0.00000000000000000000e+00) (0, 0, 0.00000000000000000000e+00) (0, 0, 0.00000000000000000000e+00) (0, 0, 0.00000000000000000000e+00) (0, 0, 0.00000000000000000000e+00) (0, 0, 0.00000000000000000000e+00) (0, 0, 0.00000000000000000000e+00) (0, 0, 0.00000000000000000000e+00) (0, 0, 0.00000000000000000000e+00) (0, 0, 0.00000000000000000000e+00) (0, 0, 0.00000000000000000000e+00) (0, 0, 0.00000000000000000000e+00) (0, 0, 0.00000000000000000000e+00) (0, 0, 0.00000000000000000000e+00) (0, 0, 0.00000000000000000000e+00) (0, 0, 0.00000000000000000000e+00) (0, 0, 0.00000000000000000000e+00) (0, 0, 0.00000000000000000000e+00) (0, 0, 0.00000000000000000000e+00) (0, 0, 0.00000000000000000000e+00) (0, 0, 0.00000000000000000000e+00) (0, 0, 0.00000000000000000000e+00) (0, 0, 0.00000000000000000000e+00) (0, 0, 0.00000000000000000000e+00) (0, 0, 0.00000000000000000000e+00) (0, 0, 0.00000000000000000000e+00) (0, 0, 0.00000000000000000000e+00) (0, 0, 0.00000000000000000000e+00) (0, 0, 0.00000000000000000000e+00) (0, 0, 0.00000000000000000000e+00) (0, 0, 0.00000000000000000000e+00) (0, 0, 0.00000000000000000000e+00) (0, 0, 0.00000000000000000000e+00) (0, 0, 0.00000000000000000000e+00) (0, 0, 0.00000000000000000000e+00) (0, 0, 0.00000000000000000000e+00) (0, 0, 0.00000000000000000000e+00) (0, 0, 0.00000000000000000000e+00) (0, 0, 0.00000000000000000000e+00) (0, 0, 0.00000000000000000000e+00) (0, 0, 0.00000000000000000000e+00) (0, 0, 0.00000000000000000000e+00) (0, 0, 0.00000000000000000000e+00) (0, 0, 0.00000000000000000000e+00) (0, 0, 0.00000000000000000000e+00) (0, 0, 0.00000000000000000000e+00) (0, 0, 0.00000000000000000000e+00) (0, 0, 0.00000000000000000000e+00) (0, 0, 0.00000000000000000000e+00) (0, 0, 0.00000000000000000000e+00) (0, 0, 0.00000000000000000000e+00) (0, 0, 0.00000000000000000000e+00) (0, 0, 0.00000000000000000000e+00) (0, 0, 0.00000000000000000000e+00) (0, 0, 0.00000000000000000000e+00) (0, 0, 0.00000000000000000000e+00) (0, 0, 0.00000000000000000000e+00) (0, 0, 0.00000000000000000000e+00) (0, 0, 0.00000000000000000000e+00) (0, 0, 0.00000000000000000000e+00) (0, 0, 0.00000000000000000000e+00) (0, 0, 0.00000000000000000000e+00) (0, 0, 0.00000000000000000000e+00) (0, 0, 0.00000000000000000000e+00) (0, 0, 0.00000000000000000000e+00) (0, 0, 0.00000000000000000000e+00) (0, 0, 0.00000000000000000000e+00) (0, 0, 0.00000000000000000000e+00) (0, 0, 0.00000000000000000000e+00) (0, 0, 0.00000000000000000000e+00) (0, 0, 0.00000000000000000000e+00) (0, 0, 0.00000000000000000000e+00) (0, 0, 0.00000000000000000000e+00) (0, 0, 0.00000000000000000000e+00) (0, 0, 0.00000000000000000000e+00) (0, 0, 0.00000000000000000000e+00) (0, 0, 0.00000000000000000000e+00) (0, 0, 0.00000000000000000000e+00) (0, 0, 0.00000000000000000000e+00) (0, 0, 0.00000000000000000000e+00) (0, 0, 0.00000000000000000000e+00) (0, 0, 0.00000000000000000000e+00) (0, 0, 0.00000000000000000000e+00) (0, 0, 0.00000000000000000000e+00) (0, 0, 0.00000000000000000000e+00) (0, 0, 0.00000000000000000000e+00) (0, 0, 0.00000000000000000000e+00) (0, 0, 0.00000000000000000000e+00) (0, 0, 0.00000000000000000000e+00) (0, 0, 0.00000000000000000000e+00) (0, 0, 0.00000000000000000000e+00) (0, 0, 0.00000000000000000000e+00) (0, 0, 0.00000000000000000000e+00) (0, 0, 0.00000000000000000000e+00) (0, 0, 0.00000000000000000000e+00) (0, 0, 0.00000000000000000000e+00) (0, 0, 0.00000000000000000000e+00) (0, 0, 0.00000000000000000000e+00) (0, 0, 0.00000000000000000000e+00) (0, 0, 0.00000000000000000000e+00) (0, 0, 0.00000000000000000000e+00) (0, 0, 0.00000000000000000000e+00) (0, 0, 0.00000000000000000000e+00) (0, 0, 0.00000000000000000000e+00) (0, 0, 0.00000000000000000000e+00) (0, 0, 0.00000000000000000000e+00) (0, 0, 0.00000000000000000000e+00) (0, 0, 0.00000000000000000000e+00) (0, 0, 0.00000000000000000000e+00) (0, 0, 0.00000000000000000000e+00) (0, 0, 0.00000000000000000000e+00) (0, 0, 0.00000000000000000000e+00) (0, 0, 0.00000000000000000000e+00) (0, 0, 0.00000000000000000000e+00) (0, 0, 0.00000000000000000000e+00) (0, 0, 0.00000000000000000000e+00) (0, 0, 0.00000000000000000000e+00) (0, 0, 0.00000000000000000000e+00) (0, 0, 0.00000000000000000000e+00) (0, 0, 0.00000000000000000000e+00) (0, 0, 0.00000000000000000000e+00) (0, 0, 0.00000000000000000000e+00) (0, 0, 0.00000000000000000000e+00) (0, 0, 0.00000000000000000000e+00) (0, 0, 0.00000000000000000000e+00) (0, 0, 0.00000000000000000000e+00) (0, 0, 0.00000000000000000000e+00) (0, 0, 0.00000000000000000000e+00) (0, 0, 0.00000000000000000000e+00) (0, 0, 0.00000000000000000000e+00) (0, 0, 0.00000000000000000000e+00) (0, 0, 0.00000000000000000000e+00) (0, 0, 0.00000000000000000000e+00) (0, 0, 0.00000000000000000000e+00) (0, 0, 0.00000000000000000000e+00) (0, 0, 0.00000000000000000000e+00) (0, 0, 0.00000000000000000000e+00) (0, 0, 0.00000000000000000000e+00) (0, 0, 0.00000000000000000000e+00) (0, 0, 0.00000000000000000000e+00) (0, 0, 0.00000000000000000000e+00) (0, 0, 0.00000000000000000000e+00) (0, 0, 0.00000000000000000000e+00) (0, 0, 0.00000000000000000000e+00) (0, 0, 0.00000000000000000000e+00) (0, 0, 0.00000000000000000000e+00) (0, 0, 0.00000000000000000000e+00) (0, 0, 0.00000000000000000000e+00) (0, 0, 0.00000000000000000000e+00) (0, 0, 0.00000000000000000000e+00) (0, 0, 0.00000000000000000000e+00) (0, 0, 0.00000000000000000000e+00) (0, 0, 0.00000000000000000000e+00) (0, 0, 0.00000000000000000000e+00) (0, 0, 0.00000000000000000000e+00) (0, 0, 0.00000000000000000000e+00) (0, 0, 0.00000000000000000000e+00) (0, 0, 0.00000000000000000000e+00) (0, 0, 0.00000000000000000000e+00) (0, 0, 0.00000000000000000000e+00) (0, 0, 0.00000000000000000000e+00) (0, 0, 0.00000000000000000000e+00) (0, 0, 0.00000000000000000000e+00) (0, 0, 0.00000000000000000000e+00) (0, 0, 0.00000000000000000000e+00) (0, 0, 0.00000000000000000000e+00) (0, 0, 0.00000000000000000000e+00) (0, 0, 0.00000000000000000000e+00) (0, 0, 0.00000000000000000000e+00) (0, 0, 0.00000000000000000000e+00) (0, 0, 0.00000000000000000000e+00) (0, 0, 0.00000000000000000000e+00) (0, 0, 0.00000000000000000000e+00) (0, 0, 0.00000000000000000000e+00) (0, 0, 0.00000000000000000000e+00) (0, 0, 0.00000000000000000000e+00) (0, 0, 0.00000000000000000000e+00) (0, 0, 0.00000000000000000000e+00) (0, 0, 0.00000000000000000000e+00) (0, 0, 0.00000000000000000000e+00) (0, 0, 0.00000000000000000000e+00) (0, 0, 0.00000000000000000000e+00) (0, 0, 0.00000000000000000000e+00) (0, 0, 0.00000000000000000000e+00) (0, 0, 0.00000000000000000000e+00) (0, 0, 0.00000000000000000000e+00) (0, 0, 0.00000000000000000000e+00) (0, 0, 0.00000000000000000000e+00) (0, 0, 0.00000000000000000000e+00) (0, 0, 0.00000000000000000000e+00) (0, 0, 0.00000000000000000000e+00) (0, 0, 0.00000000000000000000e+00) (0, 0, 0.00000000000000000000e+00) (0, 0, 0.00000000000000000000e+00) (0, 0, 0.00000000000000000000e+00) (0, 0, 0.00000000000000000000e+00) (0, 0, 0.00000000000000000000e+00) (0, 0, 0.00000000000000000000e+00) (0, 0, 0.00000000000000000000e+00) (0, 0, 0.00000000000000000000e+00) (0, 0, 0.00000000000000000000e+00) (0, 0, 0.00000000000000000000e+00) (0, 0, 0.00000000000000000000e+00) (0, 0, 0.00000000000000000000e+00) (0, 0, 0.00000000000000000000e+00) (0, 0, 0.00000000000000000000e+00) (0, 0, 0.00000000000000000000e+00) (0, 0, 0.00000000000000000000e+00) (0, 0, 0.00000000000000000000e+00) (0, 0, 0.00000000000000000000e+00) (0, 0, 0.00000000000000000000e+00) (0, 0, 0.00000000000000000000e+00) (0, 0, 0.00000000000000000000e+00) (0, 0, 0.00000000000000000000e+00) (0, 0, 0.00000000000000000000e+00) (0, 0, 0.00000000000000000000e+00) (0, 0, 0.00000000000000000000e+00) (0, 0, 0.00000000000000000000e+00) (0, 0, 0.00000000000000000000e+00) (0, 0, 0.00000000000000000000e+00) (0, 0, 0.00000000000000000000e+00) (0, 0, 0.00000000000000000000e+00) (0, 0, 0.00000000000000000000e+00) (0, 0, 0.00000000000000000000e+00) (0, 0, 0.00000000000000000000e+00) (0, 0, 0.00000000000000000000e+00) (0, 0, 0.00000000000000000000e+00) (0, 0, 0.00000000000000000000e+00) (0, 0, 0.00000000000000000000e+00) (0, 0, 0.00000000000000000000e+00) (0, 0, 0.00000000000000000000e+00) (0, 0, 0.00000000000000000000e+00) (0, 0, 0.00000000000000000000e+00) (0, 0, 0.00000000000000000000e+00) (0, 0, 0.00000000000000000000e+00) (0, 0, 0.00000000000000000000e+00) (0, 0, 0.00000000000000000000e+00) (0, 0, 0.00000000000000000000e+00) (0, 0, 0.00000000000000000000e+00) (0, 0, 0.00000000000000000000e+00) (0, 0, 0.00000000000000000000e+00) (0, 0, 0.00000000000000000000e+00) (0, 0, 0.00000000000000000000e+00) (0, 0, 0.00000000000000000000e+00) (0, 0, 0.00000000000000000000e+00) (0, 0, 0.00000000000000000000e+00) (0, 0, 0.00000000000000000000e+00) (0, 0, 0.00000000000000000000e+00) (0, 0, 0.00000000000000000000e+00) (0, 0, 0.00000000000000000000e+00) (0, 0, 0.00000000000000000000e+00) (0, 0, 0.00000000000000000000e+00) (0, 0, 0.00000000000000000000e+00) (0, 0, 0.00000000000000000000e+00) (0, 0, 0.00000000000000000000e+00) (0, 0, 0.00000000000000000000e+00) (0, 0, 0.00000000000000000000e+00) (0, 0, 0.00000000000000000000e+00) (0, 0, 0.00000000000000000000e+00) (0, 0, 0.00000000000000000000e+00) (0, 0, 0.00000000000000000000e+00) (0, 0, 0.00000000000000000000e+00) (0, 0, 0.00000000000000000000e+00) (0, 0, 0.00000000000000000000e+00) (0, 0, 0.00000000000000000000e+00) (0, 0, 0.00000000000000000000e+00) (0, 0, 0.00000000000000000000e+00) (0, 0, 0.00000000000000000000e+00) (0, 0, 0.00000000000000000000e+00) (0, 0, 0.00000000000000000000e+00) (0, 0, 0.00000000000000000000e+00) (0, 0, 0.00000000000000000000e+00) (0, 0, 0.00000000000000000000e+00) (0, 0, 0.00000000000000000000e+00) (0, 0, 0.00000000000000000000e+00) (0, 0, 0.00000000000000000000e+00) (0, 0, 0.00000000000000000000e+00) (0, 0, 0.00000000000000000000e+00) (0, 0, 0.00000000000000000000e+00) (0, 0, 0.00000000000000000000e+00) (0, 0, 0.00000000000000000000e+00) (0, 0, 0.00000000000000000000e+00) (0, 0, 0.00000000000000000000e+00) (0, 0, 0.00000000000000000000e+00) (0, 0, 0.00000000000000000000e+00) (0, 0, 0.00000000000000000000e+00) (0, 0, 0.00000000000000000000e+00) (0, 0, 0.00000000000000000000e+00) (0, 0, 0.00000000000000000000e+00) (0, 0, 0.00000000000000000000e+00) (0, 0, 0.00000000000000000000e+00) (0, 0, 0.00000000000000000000e+00) (0, 0, 0.00000000000000000000e+00) (0, 0, 0.00000000000000000000e+00) (0, 0, 0.00000000000000000000e+00) (0, 0, 0.00000000000000000000e+00) (0, 0, 0.00000000000000000000e+00) (0, 0, 0.00000000000000000000e+00) (0, 0, 0.00000000000000000000e+00) (0, 0, 0.00000000000000000000e+00) (0, 0, 0.00000000000000000000e+00) (0, 0, 0.00000000000000000000e+00) (0, 0, 0.00000000000000000000e+00) (0, 0, 0.00000000000000000000e+00) (0, 0, 0.00000000000000000000e+00) (0, 0, 0.00000000000000000000e+00) (0, 0, 0.00000000000000000000e+00) (0, 0, 0.00000000000000000000e+00) (0, 0, 0.00000000000000000000e+00) (0, 0, 0.00000000000000000000e+00) (0, 0, 0.00000000000000000000e+00) (0, 0, 0.00000000000000000000e+00) (0, 0, 0.00000000000000000000e+00) (0, 0, 0.00000000000000000000e+00) (0, 0, 0.00000000000000000000e+00) (0, 0, 0.00000000000000000000e+00) (0, 0, 0.00000000000000000000e+00) (0, 0, 0.00000000000000000000e+00) (0, 0, 0.00000000000000000000e+00) (0, 0, 0.00000000000000000000e+00) (0, 0, 0.00000000000000000000e+00) (0, 0, 0.00000000000000000000e+00) (0, 0, 0.00000000000000000000e+00) (0, 0, 0.00000000000000000000e+00) (0, 0, 0.00000000000000000000e+00) (0, 0, 0.00000000000000000000e+00) (0, 0, 0.00000000000000000000e+00) (0, 0, 0.00000000000000000000e+00) (0, 0, 0.00000000000000000000e+00) (0, 0, 0.00000000000000000000e+00) (0, 0, 0.00000000000000000000e+00) (0, 0, 0.00000000000000000000e+00) (0, 0, 0.00000000000000000000e+00) (0, 0, 0.00000000000000000000e+00) (0, 0, 0.00000000000000000000e+00) (0, 0, 0.00000000000000000000e+00) (0, 0, 0.00000000000000000000e+00) (0, 0, 0.00000000000000000000e+00) (0, 0, 0.00000000000000000000e+00) (0, 0, 0.00000000000000000000e+00) (0, 0, 0.00000000000000000000e+00) (0, 0, 0.00000000000000000000e+00) (0, 0, 0.00000000000000000000e+00) (0, 0, 0.00000000000000000000e+00) (0, 0, 0.00000000000000000000e+00) (0, 0, 0.00000000000000000000e+00) (0, 0, 0.00000000000000000000e+00) (0, 0, 0.00000000000000000000e+00) (0, 0, 0.00000000000000000000e+00) (0, 0, 0.00000000000000000000e+00) (0, 0, 0.00000000000000000000e+00) (0, 0, 0.00000000000000000000e+00) (0, 0, 0.00000000000000000000e+00) (0, 0, 0.00000000000000000000e+00) (0, 0, 0.00000000000000000000e+00) (0, 0, 0.00000000000000000000e+00) (0, 0, 0.00000000000000000000e+00) (0, 0, 0.00000000000000000000e+00) (0, 0, 0.00000000000000000000e+00) (0, 0, 0.00000000000000000000e+00) (0, 0, 0.00000000000000000000e+00) (0, 0, 0.00000000000000000000e+00) (0, 0, 0.00000000000000000000e+00) (0, 0, 0.00000000000000000000e+00) (0, 0, 0.00000000000000000000e+00) (0, 0, 0.00000000000000000000e+00) (0, 0, 0.00000000000000000000e+00) (0, 0, 0.00000000000000000000e+00) (0, 0, 0.00000000000000000000e+00) (0, 0, 0.00000000000000000000e+00) (0, 0, 0.00000000000000000000e+00) (0, 0, 0.00000000000000000000e+00) (0, 0, 0.00000000000000000000e+00) (0, 0, 0.00000000000000000000e+00) (0, 0, 0.00000000000000000000e+00) (0, 0, 0.00000000000000000000e+00) (0, 0, 0.00000000000000000000e+00) (0, 0, 0.00000000000000000000e+00) (0, 0, 0.00000000000000000000e+00) (0, 0, 0.00000000000000000000e+00) (0, 0, 0.00000000000000000000e+00) (0, 0, 0.00000000000000000000e+00) (0, 0, 0.00000000000000000000e+00) (0, 0, 0.00000000000000000000e+00) (0, 0, 0.00000000000000000000e+00) (0, 0, 0.00000000000000000000e+00) (0, 0, 0.00000000000000000000e+00) (0, 0, 0.00000000000000000000e+00) (0, 0, 0.00000000000000000000e+00) (0, 0, 0.00000000000000000000e+00) (0, 0, 0.00000000000000000000e+00) (0, 0, 0.00000000000000000000e+00) (0, 0, 0.00000000000000000000e+00) (0, 0, 0.00000000000000000000e+00) (0, 0, 0.00000000000000000000e+00) (0, 0, 0.00000000000000000000e+00) (0, 0, 0.00000000000000000000e+00) (0, 0, 0.00000000000000000000e+00) (0, 0, 0.00000000000000000000e+00) (0, 0, 0.00000000000000000000e+00) (0, 0, 0.00000000000000000000e+00) (0, 0, 0.00000000000000000000e+00) (0, 0, 0.00000000000000000000e+00) (0, 0, 0.00000000000000000000e+00) (0, 0, 0.00000000000000000000e+00) (0, 0, 0.00000000000000000000e+00) (0, 0, 0.00000000000000000000e+00) (0, 0, 0.00000000000000000000e+00) (0, 0, 0.00000000000000000000e+00) (0, 0, 0.00000000000000000000e+00) (0, 0, 0.00000000000000000000e+00) (0, 0, 0.00000000000000000000e+00) (0, 0, 0.00000000000000000000e+00) (0, 0, 0.00000000000000000000e+00) (0, 0, 0.00000000000000000000e+00) (0, 0, 0.00000000000000000000e+00) (0, 0, 0.00000000000000000000e+00) (0, 0, 0.00000000000000000000e+00) (0, 0, 0.00000000000000000000e+00) (0, 0, 0.00000000000000000000e+00) (0, 0, 0.00000000000000000000e+00) (0, 0, 0.00000000000000000000e+00) (0, 0, 0.00000000000000000000e+00) (0, 0, 0.00000000000000000000e+00) (0, 0, 0.00000000000000000000e+00) (0, 0, 0.00000000000000000000e+00) (0, 0, 0.00000000000000000000e+00) (0, 0, 0.00000000000000000000e+00) (0, 0, 0.00000000000000000000e+00) (0, 0, 0.00000000000000000000e+00) (0, 0, 0.00000000000000000000e+00) (0, 0, 0.00000000000000000000e+00) (0, 0, 0.00000000000000000000e+00) (0, 0, 0.00000000000000000000e+00) (0, 0, 0.00000000000000000000e+00) (0, 0, 0.00000000000000000000e+00) (0, 0, 0.00000000000000000000e+00) (0, 0, 0.00000000000000000000e+00) (0, 0, 0.00000000000000000000e+00) (0, 0, 0.00000000000000000000e+00) (0, 0, 0.00000000000000000000e+00) (0, 0, 0.00000000000000000000e+00) (0, 0, 0.00000000000000000000e+00) (0, 0, 0.00000000000000000000e+00) (0, 0, 0.00000000000000000000e+00) (0, 0, 0.00000000000000000000e+00) (0, 0, 0.00000000000000000000e+00) (0, 0, 0.00000000000000000000e+00) (0, 0, 0.00000000000000000000e+00) (0, 0, 0.00000000000000000000e+00) (0, 0, 0.00000000000000000000e+00) (0, 0, 0.00000000000000000000e+00) (0, 0, 0.00000000000000000000e+00) (0, 0, 0.00000000000000000000e+00) (0, 0, 0.00000000000000000000e+00) (0, 0, 0.00000000000000000000e+00) (0, 0, 0.00000000000000000000e+00) (0, 0, 0.00000000000000000000e+00) (0, 0, 0.00000000000000000000e+00) (0, 0, 0.00000000000000000000e+00) (0, 0, 0.00000000000000000000e+00) (0, 0, 0.00000000000000000000e+00) (785, 4, 5.00000000000000000000e-01) (785, 4, 5.00000000000000000000e-01) (785, 4, 5.00000000000000000000e-01) (785, 4, 5.00000000000000000000e-01) (785, 4, 5.00000000000000000000e-01) (785, 4, 5.00000000000000000000e-01) (785, 4, 5.00000000000000000000e-01) (785, 4, 5.00000000000000000000e-01) (785, 4, 5.00000000000000000000e-01) (785, 4, 5.00000000000000000000e-01) (785, 4, 5.00000000000000000000e-01) (785, 4, 5.00000000000000000000e-01) (785, 4, 5.00000000000000000000e-01) (785, 4, 5.00000000000000000000e-01) (785, 4, 5.00000000000000000000e-01) (785, 4, 5.00000000000000000000e-01) (785, 4, 5.00000000000000000000e-01) (785, 4, 5.00000000000000000000e-01) (785, 4, 5.00000000000000000000e-01) (785, 4, 5.00000000000000000000e-01) (785, 4, 5.00000000000000000000e-01) (785, 4, 5.00000000000000000000e-01) (785, 4, 5.00000000000000000000e-01) (785, 4, 5.00000000000000000000e-01) (785, 4, 5.00000000000000000000e-01) (785, 4, 5.00000000000000000000e-01) (785, 4, 5.00000000000000000000e-01) (785, 4, 5.00000000000000000000e-01) (785, 4, 5.00000000000000000000e-01) (785, 4, 5.00000000000000000000e-01) (785, 4, 5.00000000000000000000e-01) (785, 4, 5.00000000000000000000e-01) (785, 4, 5.00000000000000000000e-01) (785, 4, 5.00000000000000000000e-01) (785, 4, 5.00000000000000000000e-01) (785, 4, 5.00000000000000000000e-01) (785, 4, 5.00000000000000000000e-01) (785, 4, 5.00000000000000000000e-01) (785, 4, 5.00000000000000000000e-01) (785, 4, 5.00000000000000000000e-01) (785, 4, 5.00000000000000000000e-01) (785, 4, 5.00000000000000000000e-01) (785, 4, 5.00000000000000000000e-01) (785, 4, 5.00000000000000000000e-01) (785, 4, 5.00000000000000000000e-01) (785, 4, 5.00000000000000000000e-01) (785, 4, 5.00000000000000000000e-01) (785, 4, 5.00000000000000000000e-01) (785, 4, 5.00000000000000000000e-01) (785, 4, 5.00000000000000000000e-01) (785, 4, 5.00000000000000000000e-01) (785, 4, 5.00000000000000000000e-01) (785, 4, 5.00000000000000000000e-01) (785, 4, 5.00000000000000000000e-01) (785, 4, 5.00000000000000000000e-01) (785, 4, 5.00000000000000000000e-01) (785, 4, 5.00000000000000000000e-01) (785, 4, 5.00000000000000000000e-01) (785, 4, 5.00000000000000000000e-01) (785, 4, 5.00000000000000000000e-01) (785, 4, 5.00000000000000000000e-01) (785, 4, 5.00000000000000000000e-01) (785, 4, 5.00000000000000000000e-01) (785, 4, 5.00000000000000000000e-01) (785, 4, 5.00000000000000000000e-01) (785, 4, 5.00000000000000000000e-01) (785, 4, 5.00000000000000000000e-01) (785, 4, 5.00000000000000000000e-01) (785, 4, 5.00000000000000000000e-01) (785, 4, 5.00000000000000000000e-01) (785, 4, 5.00000000000000000000e-01) (785, 4, 5.00000000000000000000e-01) (785, 4, 5.00000000000000000000e-01) (785, 4, 5.00000000000000000000e-01) (785, 4, 5.00000000000000000000e-01) (785, 4, 5.00000000000000000000e-01) (785, 4, 5.00000000000000000000e-01) (785, 4, 5.00000000000000000000e-01) (785, 4, 5.00000000000000000000e-01) (785, 4, 5.00000000000000000000e-01) (785, 4, 5.00000000000000000000e-01) (785, 4, 5.00000000000000000000e-01) (785, 4, 5.00000000000000000000e-01) (785, 4, 5.00000000000000000000e-01) (785, 4, 5.00000000000000000000e-01) (785, 4, 5.00000000000000000000e-01) (785, 4, 5.00000000000000000000e-01) (785, 4, 5.00000000000000000000e-01) (785, 4, 5.00000000000000000000e-01) (785, 4, 5.00000000000000000000e-01) (785, 4, 5.00000000000000000000e-01) (785, 4, 5.00000000000000000000e-01) (785, 4, 5.00000000000000000000e-01) (785, 4, 5.00000000000000000000e-01) (785, 4, 5.00000000000000000000e-01) (785, 4, 5.00000000000000000000e-01) (785, 4, 5.00000000000000000000e-01) (785, 4, 5.00000000000000000000e-01) (785, 4, 5.00000000000000000000e-01) (785, 4, 5.00000000000000000000e-01) (0, 0, 0.00000000000000000000e+00) (101, 5, 5.00000000000000000000e-01) (0, 5, 0.00000000000000000000e+00) 
connections (connected_to_neuron, weight)=(0, -1.46505794793668105147e-02) (1, 5.05634030994746731108e-03) (2, -1.37446079340607263397e-01) (3, 1.20055713385042867047e-02) (4, 2.06130929916796441781e-02) (5, -2.88744530946316996234e-02) (6, -6.76185078293385505299e-02) (7, -1.65623884585529845825e-01) (8, -1.21096268233686896187e-01) (9, -1.64670161277356320861e-02) (10, -1.09642106977135209145e-01) (11, -1.41963038530975860230e-01) (12, -2.69676707059445623649e-02) (13, -7.54849798351826667409e-02) (14, 1.90463252991137227399e-02) (15, -7.91920609146656989674e-02) (16, -1.35829739210039712738e-01) (17, -7.43861831099095344166e-02) (18, -8.33015925556721686940e-02) (19, -1.76840629366070312134e-01) (20, -1.21006343451172324044e-01) (21, -9.07531268269124308246e-02) (22, -6.00208676725926260076e-02) (23, 2.27536895006594380719e-02) (24, -3.84768656760754723667e-02) (25, -1.13606046822697190346e-01) (26, -1.02714095202118424477e-01) (27, -1.46452020791203063599e-01) (28, -1.06790151384502915444e-01) (29, -3.93184832603039879917e-02) (30, -1.15397039738327530922e-01) (31, -1.44374836173683684937e-01) (32, -5.71962482601704874652e-02) (33, -7.57772363096776008229e-02) (34, -1.55303385046154540650e-01) (35, -5.95172531277241706471e-02) (36, -1.27585805889994186035e-01) (37, -4.58559952050748009800e-02) (38, -4.80752549439969201206e-02) (39, -7.16161913544239997487e-02) (40, -8.52571315437855720143e-02) (41, 1.93485208481249566781e-02) (42, -3.65133247644009728550e-02) (43, -1.35158911284834482025e-01) (44, -7.90705642968716621022e-02) (45, -4.04011271268429894565e-02) (46, -3.72850857049527306675e-02) (47, -3.78344170123639245151e-02) (48, -1.37721422997147180389e-01) (49, -1.43520791021019500366e-01) (50, -3.76091561585965294956e-02) (51, -8.16618762284817695241e-02) (52, -5.72080276280942240374e-02) (53, -1.20564136591583700997e-01) (54, -8.18422994882168769459e-02) (55, -1.18619006064564228020e-01) (56, -5.71042931944432535785e-02) (57, -7.49051192107823369387e-03) (58, -8.80051440865102091449e-02) (59, 1.31714381903109273297e-02) (60, -6.97431004911961555104e-02) (61, -2.63362936050000467914e-02) (62, -1.54137503293186706177e-01) (63, -1.49873454061180633179e-01) (64, -1.25047635224491665573e-01) (65, -1.32375001844793893646e-01) (66, -3.23248169690671105503e-02) (67, -7.55675471693577766041e-02) (68, -1.16510310474064607625e-03) (69, -1.03334184673458603920e-01) (70, -1.70117843833595794312e-01) (71, -1.09356347408920792641e-01) (72, -1.06919769135147599282e-01) (73, -2.95652858287396708148e-02) (74, -6.74493721992077827077e-02) (75, -8.92445066276219972634e-03) (76, -9.29005257159772196429e-02) (77, -1.27668570664555114380e-01) (78, -6.96929729849400519948e-02) (79, -5.35560659438672204136e-02) (80, -9.41234714657368937152e-02) (81, -1.30236249354511834930e-01) (82, -1.58152047482162994019e-01) (83, -1.74265611854225677124e-01) (84, -7.37344882756772040944e-02) (85, -6.29284567505421221778e-02) (86, -1.15818731424242524208e-01) (87, -1.53772901681095641724e-01) (88, -9.33530814320149698871e-02) (89, -2.67579815656247381461e-02) (90, -1.63535568800598662964e-01) (91, 1.39697231977877339704e-02) (92, -7.60283730298581122975e-02) (93, -1.40607181873947661988e-01) (94, -1.58837851074368041626e-01) (95, 5.50064094621889529413e-02) (96, -2.07902948804157550189e-02) (97, 5.97714551978858060766e-02) (98, -5.06420300307777043747e-02) (99, -4.31442239476599737058e-02) (100, -1.53508476085224415675e-01) (101, -1.26446701721440735167e-01) (102, -6.01581182651813664575e-02) (103, -7.15259571753748824019e-02) (104, -1.69370133169771119874e-01) (105, -1.42689462688595336548e-01) (106, -1.02077525046497849526e-01) (107, -8.38977805644574164967e-02) (108, -9.32921431333127298968e-02) (109, 5.29539963898036526030e-03) (110, -1.60387951818138640991e-01) (111, -1.03497318297925341990e-02) (112, -1.47874969926506560913e-01) (113, -1.41474109080463927857e-01) (114, -7.54946091476109502200e-03) (115, -4.45435754329266686558e-02) (116, -2.73366681605878118766e-02) (117, -1.47358195570443412104e-01) (118, -2.72051162520174812098e-02) (119, -1.61393243402086689064e-01) (120, -1.39364549215180936331e-02) (121, -6.93472168945131639539e-01) (122, -8.38340170286951402723e-01) (123, -7.99306835484416833282e-01) (124, -1.40564487500921919683e+00) (125, -9.29808277825825202356e-01) (126, -3.09223647424967085229e+00) (127, -7.15085938403344084646e-02) (128, -1.33594609676454145752e-01) (129, -2.09287753595055261990e-02) (130, 3.75063721091763863091e-02) (131, -5.86170829764881134993e-02) (132, 6.15202467763668464640e-02) (133, -1.05963549534731551333e-02) (134, 6.93955251825513763642e-02) (135, 7.39154024051244251670e-02) (136, -7.39252603918614387135e-02) (137, -1.52855012503296416870e-01) (138, -1.23673997756868894737e-01) (139, 9.84847924408289998599e-03) (140, -1.70493740525871795288e-01) (141, -1.06996055629879502358e-01) (142, -2.34353504449429789203e-02) (143, -1.41302812781960052124e-01) (144, -7.28713362782064666412e-02) (145, -2.36967698692882144940e-01) (146, -7.35875384530344067713e-01) (147, -7.51603479730624579602e-01) (148, -4.97166899573763254594e-01) (149, -9.64260197503645777317e-01) (150, -1.51038868945554094481e+00) (151, -5.60032083634233845970e-01) (152, -2.97480482157790460107e+00) (153, -1.86181833709349220385e+00) (154, 2.81022971491834150370e+00) (155, 1.11105705261875331580e+00) (156, -2.65146282119746334871e-01) (157, 6.31306949106767767432e-01) (158, 2.52632007278100978453e-01) (159, 1.18889055413227667790e-01) (160, 8.75780711050360566317e-02) (161, 8.02208617088182585064e-02) (162, -4.63297017779097861090e-02) (163, 4.49658520733183589280e-02) (164, 1.11671905529731538276e-01) (165, -2.37768850595059672015e-02) (166, -1.23646363553434904259e-01) (167, -7.49522037178578376393e-02) (168, 4.33985206454728868371e-04) (169, -7.02544710904660224537e-02) (170, -8.80378223330083170550e-02) (171, 6.59498966079722932082e-03) (172, -1.83233411073291385662e-01) (173, -8.65274427841296267516e-01) (174, -8.96068988660033705074e-01) (175, -5.82023834085619307110e-01) (176, -2.15273091868593180465e+00) (177, -1.40467159218252768405e+00) (178, -4.16044158085558635207e+00) (179, -1.58042498353506633002e+00) (180, 2.23807730538109517227e+00) (181, 2.21575535730555162051e-01) (182, 5.66514629284082249505e-01) (183, 8.86868650026951255150e-02) (184, 1.30018644078601613989e-01) (185, -1.73081857931760629832e+00) (186, 8.54076954033815227696e-01) (187, 5.84622738875527001023e-02) (188, 4.41907110292521568273e-02) (189, 3.92051072618449583662e-02) (190, 2.79692047801469931279e-02) (191, 2.48226291368709092722e-02) (192, -5.26097652817172009576e-02) (193, -1.15215323802858857216e-01) (194, -1.78503356248441054366e-02) (195, -1.56761262503296416870e-01) (196, -1.61926317897469085327e-01) (197, -1.64430808213383239380e-01) (198, -5.46475685507359643101e-02) (199, 1.55735649794039397037e-02) (200, -7.72367590826950833893e-01) (201, -9.04688109134562878921e-01) (202, -6.33649476217782448018e-01) (203, -5.65456365382564274391e-01) (204, -9.28153325824363162333e-01) (205, 6.75987802261927422931e-02) (206, 1.36080369721161636987e-01) (207, -1.98410142250284615706e+00) (208, -7.50836997100465364241e+00) (209, -1.77381015964896993076e+00) (210, -1.19781884282462991465e+00) (211, 2.23453000986461036703e-01) (212, 3.00410751803884712441e-01) (213, 2.76178543325598761793e-02) (214, -1.32761622118519095892e+00) (215, 1.11958071737736905571e-01) (216, -2.25582951697919208839e-03) (217, -5.89072596739328227522e-02) (218, 1.52951191098379624123e-01) (219, 2.47535514098577130726e-01) (220, 2.60578908374673630377e-02) (221, -1.39540832427174188446e-01) (222, -1.20886903193623038155e-01) (223, -5.71377090484204569476e-02) (224, -7.76902622849049567799e-02) (225, -1.61671344128281158081e-01) (226, -3.68330738812985558628e-02) (227, -6.57045595878811700130e-02) (228, -8.66975523029585137813e-01) (229, -8.37801004474278632195e-01) (230, -7.07977804999426640897e-01) (231, -1.36234753143947118215e-01) (232, -8.10442132880795189365e-03) (233, 1.69159592570669620182e-01) (234, 2.25963158853126427905e-01) (235, 2.49446595386248276549e-01) (236, -2.17199417102561048720e-01) (237, 1.32893393920890678928e+00) (238, 2.09828971163656641252e+00) (239, 3.89956641816732008099e-01) (240, 7.52046523075055817209e-01) (241, 4.58193959229672209688e-01) (242, 4.31182955982116256077e-01) (243, -7.98413387896756143736e-02) (244, -9.19549719733530751542e-02) (245, -4.90456324412963991927e-03) (246, 1.15425097395174383608e-01) (247, 3.17591846954236922684e+00) (248, 6.64657431699949008408e-02) (249, -2.98211677418148100871e-02) (250, -3.87280545503201623081e-02) (251, -6.47151091399815730359e-03) (252, 6.89761719402644680327e-03) (253, 1.74509473770556172711e-02) (254, -8.65433327228131571429e-02) (255, -9.72917876174025503255e-02) (256, -8.58502147270158166847e-01) (257, -8.45667156612100789914e-01) (258, 3.32405206618879289771e-02) (259, -3.33900500632608801532e-02) (260, -1.03222916998700602748e-02) (261, 1.21310261560985677143e+00) (262, 1.68099235264979296467e+00) (263, 6.68891932221198715069e+00) (264, 3.62577271307689841251e+00) (265, 3.61743557835487283825e-01) (266, 7.08776386673465874644e-02) (267, -1.69280233064215079875e-01) (268, 3.68359134965001056017e+00) (269, -3.24077334095162872263e-01) (270, 2.45270244617219440597e-01) (271, -2.82107115593693724698e-01) (272, -2.40466262097060984315e-01) (273, 1.81924049677851112916e-02) (274, 1.94938350885612704522e-02) (275, 9.22534582842178541018e-03) (276, 7.84801781440925966260e-02) (277, -1.35944500502974130463e-01) (278, -1.52633450299802103656e-02) (279, -1.44208583918243926636e-01) (280, 1.04939379423556050641e-02) (281, -7.69255048901143073659e-02) (282, -1.73614207592636626831e-01) (283, -9.10757993956131176039e-03) (284, -9.81659868471665142398e-02) (285, -6.21314500398742475262e-02) (286, 4.17944139785082508648e-03) (287, 6.17895164269476049324e-02) (288, 4.17445978239058435033e-01) (289, 2.26201829295033141065e+00) (290, 5.45687770336138644467e+00) (291, 1.01131509317987084984e+01) (292, 1.39581860929394641069e+00) (293, 6.40894960797127044572e-02) (294, -6.38368724343805871158e-01) (295, -1.93378568270179873601e+00) (296, -2.78331041078935603750e+00) (297, -1.49660648210458457896e+00) (298, -1.36595445901564416236e-01) (299, -7.03279511888375674644e-01) (300, -6.82224334810389940881e-03) (301, 8.77230222529986197744e-02) (302, -5.07397816412096316907e-02) (303, -9.89885737293870124343e-03) (304, -4.15580043815360414272e-02) (305, -1.02224338737160233559e-01) (306, -1.06716442790657548012e-01) (307, -1.69614341047436278931e-01) (308, -6.11029527455868443075e-02) (309, -1.44913900581032317749e-01) (310, -1.36757034745842553924e-01) (311, -7.35431201130452155690e-02) (312, -4.37424679693500587097e-02) (313, -5.98939873687076226871e-02) (314, 3.35691919761325410776e-02) (315, -1.61593273435208591333e-03) (316, 7.36547374059667858681e-01) (317, 2.37560860788424177414e+00) (318, 2.04418740569078138947e+00) (319, -1.54505142166518760760e+00) (320, 1.09904656278149559512e+00) (321, -1.25717156337133029176e+00) (322, -2.67601909451482677937e+00) (323, -2.01795435847821647002e+00) (324, -1.61140921734266862053e+00) (325, -3.07552591709672729081e+00) (326, -2.73972618912234500144e+00) (327, -3.41620927996758722012e-02) (328, 7.71497455020867806130e-02) (329, 5.21258680114348241230e-02) (330, 1.22586112001768582358e-01) (331, -3.10343810005777199362e-03) (332, -1.22169952446393198509e-01) (333, -8.50264349284795065143e-03) (334, -4.75867352754178185581e-02) (335, -7.73770026237072944264e-02) (336, -1.33661091265112497162e-01) (337, 2.27627196043429097516e-02) (338, -6.99254534513058662037e-02) (339, -1.76981649667325331710e-02) (340, -1.35984067529213936698e-01) (341, 1.06548131702253370823e-01) (342, 3.44099126059257270915e-02) (343, 1.38634878674199130133e-01) (344, 1.23523719976326273873e+00) (345, 2.16281828838612089072e+00) (346, 2.82468303362111594623e-01) (347, -1.83039229316159324235e+00) (348, -3.07069324941505072957e+00) (349, -2.15007460233083058654e+00) (350, -3.86790699568658480345e+00) (351, -1.84023147288168709146e+00) (352, 1.19413684600067893093e+00) (353, -4.78183058729415411126e-01) (354, 1.77784546086092093420e-01) (355, 1.36125560402997780596e-01) (356, 8.52678152216444634748e-02) (357, 3.46685751922102478040e-02) (358, 2.28830658742507631054e-01) (359, 2.13984556554900583192e-02) (360, 9.22393527555604580970e-02) (361, -5.10947964459958214878e-02) (362, -1.84748730928006484053e-02) (363, -1.43354881492287200562e-01) (364, -8.25315526992383002858e-02) (365, -8.89957136780324259417e-02) (366, -4.36659864455762047886e-02) (367, -3.91267500192227501987e-02) (368, -6.86841539169901621475e-02) (369, 1.61028429034128922614e-02) (370, 6.94400450292810694775e-02) (371, 8.28794722707568570774e-02) (372, 4.07057809863969888298e-01) (373, 1.84617256682964292480e+00) (374, 1.00924862550154115226e+00) (375, 1.02838682426568950312e+00) (376, 5.64082757778898158385e-01) (377, -1.01774109539614365794e+00) (378, -1.02497238642439536527e+00) (379, -2.79804737443558992904e-01) (380, 2.59206594367979936688e-01) (381, -1.99397937426691630736e-02) (382, 7.46021403232687285723e-02) (383, 1.38957025728700195311e-01) (384, 1.13044836865974371309e-01) (385, -4.04775629376571619011e-02) (386, 6.29933851550255385909e-01) (387, 5.03852342092314942068e-02) (388, -1.26364547743253370117e-03) (389, -2.56330482036176005023e-02) (390, 1.85841508835253438336e-02) (391, -1.11407030311256913246e-01) (392, -9.96619648605885782855e-02) (393, -2.28248200685086562178e-02) (394, -7.76960215837063788991e-02) (395, -4.72441984706547732364e-03) (396, -1.25653435200226842872e-01) (397, -1.07776575403057406355e-02) (398, 8.01011813463744504205e-02) (399, 8.24020894053804631163e-02) (400, 3.06333016628897482347e-02) (401, 9.60052710808551923449e-01) (402, 1.91002432072667760465e-01) (403, -2.01721669260179342631e-01) (404, 1.85993959845998491076e+00) (405, -5.94925610080179745331e-01) (406, 8.05269628306756746206e-02) (407, 1.12985286501638704237e+00) (408, 1.20629619703706270073e+00) (409, -5.39498849570434702017e-01) (410, -2.20909259522213519134e+00) (411, -5.83822045477105297517e-02) (412, -3.69180166126694755957e-02) (413, -2.40956472315258449224e-02) (414, -6.37670257284627256533e-02) (415, -3.63756196093018360771e-02) (416, -3.10928458346312781846e-02) (417, 1.91581287115511651742e-02) (418, -4.74945715934338708042e-02) (419, -3.68056259423794884800e-02) (420, -2.94090322524609842914e-02) (421, -5.18445334703030724643e-02) (422, -1.71146769014030974976e-01) (423, -1.51601902380520375813e-01) (424, -9.43643476300582012550e-02) (425, 2.95002759813020737356e-02) (426, 1.69132233232615947216e-01) (427, 9.07218202488303121500e-02) (428, 1.00086003722658925530e-01) (429, 5.27156913423685202780e-01) (430, 8.15889869364220476911e-01) (431, 6.05942051005134096897e-01) (432, 9.06732553890350456705e-01) (433, 1.06664689869468842787e+00) (434, -8.34202685677002730991e-01) (435, 2.29797782189387156393e+00) (436, 9.91795985214986131062e-01) (437, 1.37345023719923453598e+01) (438, 2.13043324679722617665e-01) (439, -1.00533537658389765523e-01) (440, -2.67061814633680394415e-01) (441, -8.85174455245671815140e-02) (442, -4.26251107841021589784e-02) (443, 2.51043403206854948140e-02) (444, -5.96114494134371494805e-02) (445, -1.19754367828063118528e-01) (446, -4.72999922305646081089e-02) (447, -9.54534299046101847308e-02) (448, -1.24561391708284910362e-01) (449, -1.17728684034973621331e-01) (450, -1.56836052795338909416e-01) (451, -1.91430118071812704894e-01) (452, -1.35530603536245908280e-01) (453, -4.77298671179251718377e-02) (454, 1.46413580520670261881e-02) (455, 2.85884788731742937873e-02) (456, 1.59181570043616188448e-01) (457, 1.53229481806326406357e+00) (458, 2.14443316852058840638e+00) (459, 2.07698743938524943431e+00) (460, 9.19055445869064957520e-01) (461, 1.58843168460756700711e+00) (462, 7.30393772858558443239e-01) (463, 7.52313344502811509606e-01) (464, 3.97886640862450347012e-01) (465, 2.27605452677680009099e-01) (466, -1.46275649339770952295e+00) (467, -2.78212562642452931883e+00) (468, -2.56554573145629183362e-01) (469, -1.71915830891700460725e+00) (470, -1.47133734013496747517e-01) (471, 3.81526809263246710624e-02) (472, -3.78387652813182220890e-02) (473, -1.00498247002164045605e-01) (474, -1.36902972993284799408e-01) (475, -1.00657720056206254067e-01) (476, -4.50240335732998986362e-02) (477, -7.13708617988255498293e-03) (478, -2.11585439602139102622e-02) (479, -1.72108431339647205416e-01) (480, -2.99006978645173782105e-01) (481, 2.44936518466665642535e-01) (482, 2.47864528159050190315e-01) (483, -3.87556731401432902340e-02) (484, 9.04622410509348884311e-01) (485, 2.00714383436303878128e+00) (486, 3.57683150574926100873e+00) (487, 3.60717709017532550675e+00) (488, 2.64677650522141938438e+00) (489, 3.17557203493040551834e+00) (490, 1.52802636549290093981e+00) (491, 2.24091483806770658260e-01) (492, 1.92006092295247787760e-01) (493, -1.13343632489453019496e-01) (494, -1.32681391308047036404e+00) (495, -1.96694054056965828003e+00) (496, -4.50497461897120740626e-02) (497, -6.30888737174489344639e-01) (498, -1.77128115352892884227e-01) (499, 2.12498223257302047695e-02) (500, -8.07938607411101683553e-02) (501, -4.89442599580474438370e-02) (502, -1.28168000881472898822e-01) (503, -1.26488253411680739990e-01) (504, -6.17712325722279270712e-02) (505, -8.88113565117421427386e-02) (506, -5.04912396635435814507e-02) (507, -1.33532476658713128437e+00) (508, -1.06673393289321150057e+00) (509, -1.73123835267764369927e-01) (510, 1.34400179509988365600e-01) (511, 5.13225923133952335875e-02) (512, 8.84929265459401648286e-01) (513, 2.11835882772399175522e+00) (514, 2.57400607302399064835e+00) (515, 2.59630225945966630618e+00) (516, 1.67759722727945548293e+00) (517, 1.41109747338676205786e+00) (518, 6.29642670761293654635e-01) (519, 9.44278274510023246657e-02) (520, 2.09649042851442792001e-02) (521, -7.84104503363244109693e-01) (522, -3.95427047746896020985e-01) (523, -1.92627957120387516277e+00) (524, 1.77637425880317362248e-01) (525, -1.79511517337772069647e-01) (526, 4.13871483838543913203e-02) (527, 1.00278456328014894949e-01) (528, 8.12502230336498015850e-02) (529, -8.55941166744418335810e-02) (530, -8.98682288199963846820e-02) (531, -2.31644473344388319991e-02) (532, -1.34649176088005639862e-01) (533, -4.17766086131634850620e-02) (534, -1.72586817231804412476e-01) (535, -1.22001193347524927724e+00) (536, -1.10304896276782393727e+00) (537, -9.85223149092470884547e-01) (538, 1.03314025638246265171e-01) (539, 3.48201969897671478882e-02) (540, 1.26424112361970086837e+00) (541, 1.13205318993954229256e+00) (542, 1.42462101182741340821e+00) (543, 1.46281365390205797539e+00) (544, 1.42383765525791705642e+00) (545, 6.71387850486336090761e-01) (546, 2.02817805988082966451e+00) (547, 2.00897247499862041664e+00) (548, -1.53716177806557974250e+00) (549, -3.17192928064763890461e+00) (550, -2.38819625937928103898e-01) (551, -9.52373074010020720381e-02) (552, 1.24372427261936091547e-01) (553, 2.80798284433844275165e-02) (554, -4.42170529984967364268e-02) (555, 4.56313971466112688891e-02) (556, 1.16031196871684658123e-01) (557, -6.65224184856600952997e-02) (558, -9.55697856217923441546e-02) (559, -4.07702437907757897495e-02) (560, -1.52227345791489165894e-01) (561, -8.37212422195103903033e-03) (562, -8.68688038856091776507e-02) (563, -1.23612206237157118416e+00) (564, -1.08341804498621563368e+00) (565, -8.52683803200293022329e-01) (566, -4.01611850446164597717e-01) (567, 6.27794971008215074715e-02) (568, 3.28484793864655844065e-01) (569, 3.91538964722973337196e-01) (570, 2.58791048103431720051e+00) (571, 5.18353920931789957649e+00) (572, 2.52277742146944961021e+00) (573, 4.18373995817233090833e+00) (574, 1.88168223178690530162e+00) (575, 3.58727648158067635720e+00) (576, -4.36577571214804768807e-03) (577, -2.15442345570691573542e+00) (578, -1.22403637160207967582e+00) (579, 1.26164026691874941316e-02) (580, -4.58134671049802849607e-02) (581, 6.16103822059620651053e-02) (582, 1.19741232565429636669e-01) (583, -2.58235656984077757703e-02) (584, 2.67176406236683053330e-02) (585, -6.16303842443213026336e-02) (586, -2.70214937001767400993e-02) (587, -9.62505749732556620257e-02) (588, -1.27823151585489791504e-01) (589, -1.45525399532944244019e-01) (590, -1.59954924073845428101e-01) (591, -1.22856793454556867395e+00) (592, -1.16186048231354766003e+00) (593, -8.39379917434740274729e-01) (594, -4.21125200428672685771e-01) (595, -3.45346003065751139260e-01) (596, -2.69460584775436176597e-02) (597, 1.28555988281864275180e+00) (598, 8.33234771477293101327e+00) (599, 6.44197271279501304519e+00) (600, 1.12433282859559096067e+01) (601, 4.52224564771938120078e-01) (602, 1.57478679749551570000e-01) (603, -2.81815788936875311066e-01) (604, -4.97684113729993937714e-01) (605, -1.55448264426974769314e+00) (606, 7.89552224138715397217e-02) (607, -2.58249908835245026162e-02) (608, -1.46708812669737922313e-02) (609, 1.12377425244362338930e-01) (610, 1.02686065467236020687e-01) (611, 4.63585782206728247434e-02) (612, 3.73802264531781017198e-02) (613, -1.95255688697400404952e-02) (614, -2.13490090638699843428e-02) (615, -1.55752200570732635132e-01) (616, 7.76206335720393270083e-03) (617, -7.13046080738606452565e-02) (618, -7.49368853241505622487e-02) (619, -7.47036351961513855890e-01) (620, -1.02344758224497711652e+00) (621, -9.77083877565533054366e-01) (622, -6.11215531230746789149e-01) (623, -1.13126197788119031706e+00) (624, 2.16345099630732295992e+00) (625, 1.83320555191334810807e+00) (626, 5.14430117694672020545e-02) (627, -5.13429565445315483352e-01) (628, -8.82720961739771325938e-02) (629, -2.62839308220782941206e-01) (630, -2.68226023049650375008e-01) (631, -5.21244026947546235107e-01) (632, -1.59497921080586113618e+00) (633, 8.47211313903151463922e-02) (634, -3.22025574471763217227e-03) (635, -1.32516031853912086280e-01) (636, 4.50483131030145617091e-02) (637, -7.67806162562250683890e-03) (638, -7.61303945754184530070e-02) (639, 1.07288823830673563098e-01) (640, -4.58035384244780754970e-02) (641, -8.07210424247411031939e-03) (642, -6.43827206760945319752e-02) (643, -1.02676711350980151560e-02) (644, -5.05317709714474816440e-02) (645, -1.08665835049778489174e-01) (646, 1.10460110634264703500e-02) (647, -6.57038352757992744069e-02) (648, -6.85588727799842367894e-01) (649, -1.07958308233299105083e+00) (650, -1.02355548366312798514e+00) (651, -9.95828217575223217928e-01) (652, -2.69527612988138154382e-01) (653, -6.39030225568539500536e-01) (654, 1.07034481465252895305e+00) (655, -1.18147575210350663788e+00) (656, -1.23984833608680553030e-01) (657, 1.31464176261041232330e-01) (658, 6.79391396398833702364e+00) (659, 7.11240038793310991316e-02) (660, 1.03603036318027807994e-01) (661, 1.81804683263993294151e-02) (662, -1.42647337513246097451e-01) (663, -1.23327173328738369865e-03) (664, -1.99130646599936372843e-02) (665, -7.20175772283687398723e-02) (666, -6.97585267400458730602e-02) (667, -5.30529519884986953265e-03) (668, -1.11617799785763291420e-01) (669, -1.62162523654133361450e-01) (670, -1.15599892407956504614e-02) (671, -6.82785696655812263112e-02) (672, 6.83126232323024492471e-03) (673, -9.88768226772847452777e-02) (674, -1.01480353561073807778e-01) (675, -6.66346214086117744069e-02) (676, -3.19438292949262708786e-02) (677, -1.25619152776795561799e+00) (678, -1.30361960785951702668e+00) (679, -1.31256151950164134945e+00) (680, -1.25185266511303772141e+00) (681, -1.12259524321348447273e+00) (682, -1.53574829455480665885e+00) (683, -1.04588042261862512738e+00) (684, -2.84433356118509561572e-01) (685, -1.09880079314443376143e-02) (686, 1.21523621354832092600e-01) (687, 4.84383419880729318430e-02) (688, 8.75087943611126961585e-02) (689, -1.38224689090265095287e-02) (690, -2.90373719558537114749e-02) (691, 6.00493718077526814070e-02) (692, 1.06863680544076938839e-01) (693, 1.69695394973727164273e-03) (694, -1.62105251041084807984e-01) (695, -1.43224622991711181275e-01) (696, 3.00361594852778697462e-03) (697, -1.49435516384274047486e-01) (698, -1.72495078232914489380e-01) (699, -1.31548300322920419525e-01) (700, -1.34532153543860055755e-01) (701, -6.98917725387242314700e-03) (702, -2.27609685927930190108e-02) (703, -1.50635000255734008423e-01) (704, -1.28800120142132379364e-01) (705, -1.47175434914261382691e-01) (706, -4.02037314445080895542e-02) (707, 1.65589412340894385697e-03) (708, -2.63395372990632092858e-01) (709, -1.95222256418066203443e-01) (710, -2.39728378537218289601e-01) (711, -2.24209890721862814544e-01) (712, -6.95102272656760306058e-02) (713, -4.50703408087153797879e-02) (714, -1.67050037200641571244e-01) (715, -2.99392018319052932718e-02) (716, -1.49090232041810294428e-01) (717, -1.68142607828355744592e-01) (718, -1.02944623696721082595e-01) (719, -1.70261394050789244270e-01) (720, -9.72123124927681825369e-02) (721, -6.29345206962023950847e-02) (722, -3.98540905982556481479e-02) (723, -1.17435548391968250237e-01) (724, -9.00177470714154520648e-02) (725, -2.48934439689221659320e-02) (726, -8.35942811638417243580e-02) (727, -1.09948243883282212319e-01) (728, 2.73692986664149460335e-03) (729, -7.90234691769185065846e-02) (730, -6.44306577116551398854e-02) (731, -1.54729332712322753540e-01) (732, -1.08946759191185502114e-01) (733, -1.10125739064842728676e-01) (734, -1.28298442748219054810e-01) (735, -6.06809891134800771795e-02) (736, -8.02352837592663764577e-02) (737, 9.36998888393287578114e-03) (738, -6.50198338971530315211e-02) (739, 1.43836537900646228155e-02) (740, -3.17497601208011695495e-02) (741, -1.49189730494908606717e-01) (742, -1.37544505560723617776e-01) (743, -1.07137721773853819562e-01) (744, -3.69626521783566943519e-03) (745, -1.28175765213400405518e-01) (746, -1.60206962314278167359e-01) (747, -1.72564069782296436451e-01) (748, -1.16976014380255829983e-01) (749, -8.96307043105664530414e-02) (750, -1.72373633769184630982e-01) (751, -4.33796606332364220737e-02) (752, -1.76305618074566405884e-01) (753, -3.51618341476025719761e-02) (754, 1.62506886452135762555e-02) (755, -8.92574749261441507953e-02) (756, -8.29893834263386726002e-02) (757, -9.02777052790227213519e-02) (758, -2.21398285895886733077e-02) (759, -1.03186566320091752114e-01) (760, 7.76471576389643758365e-03) (761, -1.09504599061638382973e-01) (762, -8.08500162631573676686e-02) (763, -1.24116163638264234703e-01) (764, -4.25644479066434044956e-02) (765, -3.20825687915387361415e-02) (766, -7.73125508132603816297e-03) (767, -1.45733844426304381958e-01) (768, -4.64529655248227257847e-02) (769, -9.64914745956960001605e-02) (770, -1.55315350678593200318e-01) (771, -1.02167878237396744789e-01) (772, -6.96463621527256965260e-02) (773, -1.17370638933807849846e-01) (774, -3.20012531549039372369e-02) (775, -9.49823743969502726214e-02) (776, -6.84805176526608466725e-02) (777, -1.51423177987637797015e-02) (778, -9.12868268162312784808e-02) (779, -9.19691839519170412087e-03) (780, -1.27707138595015090576e-01) (781, -8.65945703655782023089e-02) (782, -7.55106843382420539479e-02) (783, -1.26946866449743789307e-01) (784, 3.69860266714856888992e-01) (0, 2.73046557839674075563e-01) (1, 3.16102218862337247529e-01) (2, 3.04626655813020841279e-01) (3, 3.59834757681650296846e-01) (4, 2.71028270061773379762e-01) (5, 1.78505969281953558170e-01) (6, 3.44665345783990995088e-01) (7, 3.38589561219972745576e-01) (8, 2.74721835788053592164e-01) (9, 1.97615076835912450992e-01) (10, 2.73091000552934726198e-01) (11, 2.19705157961410268985e-01) (12, 3.66949704523843900361e-01) (13, 3.04423046346468106904e-01) (14, 3.50318086381715909639e-01) (15, 2.47524109717172396961e-01) (16, 3.26173585887712613740e-01) (17, 2.25216099109214529239e-01) (18, 3.54943630333704129853e-01) (19, 1.85868826742929205142e-01) (20, 3.70280739899438993135e-01) (21, 2.37027139451068652454e-01) (22, 2.94454199310106357057e-01) (23, 3.32204309340280667939e-01) (24, 3.22806206579965726533e-01) (25, 2.62323175605100655794e-01) (26, 1.81563054259580358707e-01) (27, 2.13277508552831396305e-01) (28, 3.63878381486696378389e-01) (29, 2.31682074304384005847e-01) (30, 2.45652888949674380603e-01) (31, 2.58750167723459267854e-01) (32, 3.69609517093462125459e-01) (33, 3.72104761238855497041e-01) (34, 2.40410131450456393543e-01) (35, 2.62463008101743722200e-01) (36, 3.72435954447549955049e-01) (37, 2.06900705631536230289e-01) (38, 2.22877786542934164249e-01) (39, 2.68983011182111819704e-01) (40, 2.26341002668899282657e-01) (41, 3.17794007297319547334e-01) (42, 3.10513404246133939424e-01) (43, 2.15115924413961157047e-01) (44, 2.44042274590295565906e-01) (45, 2.82656704123777469118e-01) (46, 2.84465258057874759157e-01) (47, 1.92041081424516424381e-01) (48, 3.29698023434442655244e-01) (49, 2.61234109338087105989e-01) (50, 1.99735132094186529361e-01) (51, 3.21803984280389920869e-01) (52, 3.20086476441187040010e-01) (53, 3.16014555331033841767e-01) (54, 2.75833507116598208864e-01) (55, 2.64717896517080331087e-01) (56, 2.00162951882642492496e-01) (57, 2.79221777852338870485e-01) (58, 2.99820636447233335176e-01) (59, 1.85866554315847143375e-01) (60, 3.32729083534044400849e-01) (61, 3.67298749323648587861e-01) (62, 2.66441945966047311067e-01) (63, 3.24163821574014798799e-01) (64, 3.61228731509012357392e-01) (65, 3.28677308793825284639e-01) (66, 2.08452050622266515933e-01) (67, 3.55489892001909391084e-01) (68, 3.57403230901521817842e-01) (69, 2.53155057366651448092e-01) (70, 2.46298124130529177966e-01) (71, 2.05569450791639074527e-01) (72, 1.92774285610479101383e-01) (73, 1.78785470899709503234e-01) (74, 2.42659328159459897201e-01) (75, 2.58641784127515816927e-01) (76, 2.83118662472528537233e-01) (77, 3.48801088567537442842e-01) (78, 2.72508089478773196657e-01) (79, 2.34641910578769458118e-01) (80, 2.31860411401551974597e-01) (81, 2.94068452950281222780e-01) (82, 1.78271112080377325260e-01) (83, 3.73772111769479886689e-01) (84, 2.31908221777242434802e-01) (85, 2.75929843123716433961e-01) (86, 2.60315221782487893343e-01) (87, 2.53896390136045535524e-01) (88, 3.76976859803957120576e-01) (89, 1.82690391833484344630e-01) (90, 2.61588168378633523226e-01) (91, 3.32260476941765026115e-01) (92, 3.71814357633293346428e-01) (93, 3.84946082764820118882e-01) (94, 3.11881646091756725703e-01) (95, 3.90400949459842661060e-01) (96, 3.36006486063777198847e-01) (97, 3.52613774955853886972e-01) (98, 3.76266191627404655851e-01) (99, 3.15234945362387830592e-01) (100, 2.91529444967849715731e-01) (101, 3.07035803078806623923e-01) (102, 4.15546093268807426035e-01) (103, 2.31738708491143807766e-01) (104, 2.00768726463020019679e-01) (105, 3.70358803046096751732e-01) (106, 2.77993013736375915723e-01) (107, 3.04025285613883922142e-01) (108, 3.41943112250131742158e-01) (109, 3.72177598114771024385e-01) (110, 3.61450430985254422822e-01) (111, 1.95628752048772558414e-01) (112, 2.88071272011560519655e-01) (113, 3.61546781893533841767e-01) (114, 1.91226077314180120670e-01) (115, 3.41804710264963285127e-01) (116, 3.33128074406662977314e-01) (117, 3.82322190794998961749e-01) (118, 3.26681214141090359160e-01) (119, 3.67258804606636068968e-01) (120, 3.86069247382282321190e-01) (121, 4.09699486659680034428e-01) (122, 3.31493219160478802543e-01) (123, 1.93733749351404915817e-01) (124, 2.68905306316431724767e-01) (125, 5.45849308946754874228e-01) (126, 6.15920785317357388777e-01) (127, 5.12257676977435183474e-01) (128, 3.45848606731185392871e-01) (129, 2.47287860612184134945e-01) (130, 3.33628667984496418697e-01) (131, 2.46137743250857299326e-01) (132, 2.16472863303743018326e-01) (133, 2.23542300365783014326e-01) (134, 2.62858599605495735219e-01) (135, 2.41198606970245615910e-01) (136, 2.17205163759340014185e-01) (137, 3.63903430338663236299e-01) (138, 3.69382453199190274873e-01) (139, 1.81931522723001226627e-01) (140, 3.57906249399942533174e-01) (141, 3.52658120032114164033e-01) (142, 1.99385498698514684879e-01) (143, 3.41628970800915754413e-01) (144, 4.44543329184555136013e-01) (145, 3.21873541292919174150e-01) (146, 3.40257411156191014179e-01) (147, 3.37519079975360181134e-01) (148, 1.77871756590199298076e-01) (149, 4.38168351322266780290e-01) (150, 3.29936186658741859024e-01) (151, 2.77685135376892766601e-01) (152, 8.70012820959514543429e-02) (153, 4.11314449856808539430e-01) (154, 3.78022416386592730042e-01) (155, 1.88789186908553441313e+00) (156, 7.01712948133505376447e-01) (157, 1.39461167107802735954e-01) (158, 1.33603756290685105057e-01) (159, 2.95075105684541150186e-01) (160, 1.12666471121090405738e-01) (161, 8.99715486291928351337e-02) (162, 2.23344746568383545338e-01) (163, 2.14474186345251532915e-01) (164, 2.67295404443046002996e-01) (165, 2.78172259267133792360e-01) (166, 2.94412952895921786745e-01) (167, 3.09498203035158292451e-01) (168, 2.63900910552305245638e-01) (169, 2.85620627041620334108e-01) (170, 3.13254934783739225068e-01) (171, 3.51820048628384451916e-01) (172, 3.69540701923145364916e-01) (173, 4.43933606223453625095e-01) (174, 4.43736538913040434728e-01) (175, 1.76385883218089040136e-01) (176, 4.76325161906891669794e-01) (177, 3.43913700802278565760e-01) (178, 3.06372445268089793613e-02) (179, -6.41079637928095746879e-01) (180, -4.87306918818904588608e-01) (181, -2.20090849115991943341e-01) (182, -1.88710989049683447449e-01) (183, -8.13953421719896125230e-02) (184, 1.05932988521318849351e+00) (185, 1.19743704602492662126e+00) (186, 1.37177539476747991642e+01) (187, -2.54347123552936149604e-01) (188, 1.56896057919482606602e-01) (189, 2.64218437729204058684e-01) (190, 5.33994414347558787881e-01) (191, 3.01555246557749623282e-01) (192, 3.73883851053650295704e-01) (193, 3.72940324914802501244e-01) (194, 2.96249610420030728974e-01) (195, 2.66594183679384311159e-01) (196, 2.73895812269014438112e-01) (197, 2.12487776811879858219e-01) (198, 1.97917607661050543033e-01) (199, 4.67809621928269248059e-01) (200, 4.28422376506580437905e-01) (201, 4.41530302756836079414e-01) (202, 3.34309022144823164702e-01) (203, 5.33629328889550919035e-02) (204, 1.99871714579976794690e-01) (205, -5.15128400396259750887e-03) (206, 6.86503563168717051424e-02) (207, -1.28975955719346746520e+00) (208, -2.36086447958333556230e-01) (209, 1.02709849635142291824e-01) (210, 4.63524905041045320875e-01) (211, 1.43849066352448207162e+00) (212, 1.04013892546069119938e+00) (213, 1.15883708638323601470e+00) (214, 1.30338475128677411252e-01) (215, 3.83996305333293153073e-01) (216, 2.10802544841296984890e-01) (217, 1.88418220501622130092e-01) (218, 4.03055454995340234348e+00) (219, 5.45495272020682042680e-01) (220, 1.82822265412575318821e-01) (221, 2.83498898816455735528e-01) (222, 3.40212461586755887666e-01) (223, 1.81616147096914037906e-01) (224, 2.80180473860067447145e-01) (225, 2.58287292953294778108e-01) (226, 2.70035562153619845827e-01) (227, 4.84089185236031394055e-01) (228, 4.01377034990562542305e-01) (229, 3.98267135017170037514e-01) (230, 4.51966523476931669734e-01) (231, 2.29623815485200277742e-01) (232, 8.84212499985189276375e-02) (233, -6.14466571056874966139e-01) (234, 1.79869459063170172852e-01) (235, 8.28081237387751856183e-01) (236, 1.78938823772134814050e+00) (237, 1.23325333206575860068e+00) (238, 8.11501099117330371158e-01) (239, 9.88532921219796301138e-01) (240, -1.22670343395075556736e-01) (241, 1.78276914252694784757e+00) (242, 5.35501403394023789417e+00) (243, 7.38638863097289322113e-01) (244, 3.18174706077202884558e-01) (245, 3.61924270169584672008e-01) (246, 5.09391530738365183595e-01) (247, 9.85827068589968602552e-01) (248, 2.07099883264340062228e-01) (249, 2.18955180337233296095e-01) (250, 1.83839914437097295963e-01) (251, 2.15596531565946325504e-01) (252, 3.24249533053201810517e-01) (253, 3.45877614851755277314e-01) (254, 2.19037906314891561710e-01) (255, 3.35210888180786870105e-01) (256, 3.34766858874334383156e-01) (257, 4.17667982125998871190e-01) (258, 1.70850608332803993727e-01) (259, 8.45486070856261984208e-02) (260, -8.75653172468585760946e-01) (261, -5.00001410583389649389e-01) (262, -9.12180272176522755068e-01) (263, -1.60061547755021127415e+00) (264, -1.48498989045836582434e-01) (265, 1.15230275740888579716e-01) (266, 3.20762566965462903035e-01) (267, 3.80418139901687268889e-01) (268, 3.01267577403045061502e+00) (269, 4.42272577685029366634e-01) (270, 1.38714510861041273593e+00) (271, 9.19044134156101311106e-01) (272, 4.37950547722439298415e-01) (273, 2.51583523263872232967e-01) (274, 3.10908403177706738063e-01) (275, 3.04601389858123794419e-01) (276, 2.20989924605852677830e-01) (277, 2.46348512944349118392e-01) (278, 2.27413320030730947696e-01) (279, 2.53764187033933774629e-01) (280, 2.85992381211084445436e-01) (281, 2.33078462119859469714e-01) (282, 2.91185949977201541383e-01) (283, 3.06661356245080007898e-01) (284, 2.02278603166759163301e-01) (285, 3.26848084994920573543e-01) (286, 7.22389215322899597149e-02) (287, -3.24019640940928110862e-01) (288, -8.08869193278087816878e-01) (289, -2.01238232345664869172e+00) (290, -1.37078663302131031898e+00) (291, -1.73116386806696231915e+00) (292, -9.73925037501340518098e-01) (293, 9.11857765089752331233e-02) (294, 1.89572775993654607518e+00) (295, 7.71665316434984305261e+00) (296, 1.00056882147766512681e+00) (297, 2.89778582660634824453e-02) (298, 2.37160470777438492362e+00) (299, 5.58927145080844578473e+00) (300, 8.99422765280777469776e-01) (301, 2.02996347562598045133e-01) (302, 2.73600589563044116481e-01) (303, 3.44731983754863025027e-01) (304, 2.65328395082257306736e-01) (305, 2.49159370597165835681e-01) (306, 2.83409033950132449586e-01) (307, 3.10401720042986051240e-01) (308, 3.17184370990556852021e-01) (309, 3.32647574182314054170e-01) (310, 1.85991135474008306705e-01) (311, 2.25731289530694656520e-01) (312, 1.82610242030152775117e-01) (313, 2.99805192788412500082e-01) (314, 4.96667401132945940390e-01) (315, -8.66028047357412011920e-01) (316, -7.24049091608911621343e-01) (317, -1.91279687613961879578e+00) (318, -1.56274165094573103119e+00) (319, -1.27972991176711858863e+00) (320, 1.49278677627239098058e+00) (321, 3.47261057445794607546e-01) (322, 8.31341234345983504106e-01) (323, 2.29186441656215400542e+00) (324, 1.08189163170140312253e+00) (325, 1.36065369567049421207e+00) (326, 1.52208070648797666458e+00) (327, 4.10736423942857364899e-01) (328, 1.14311806989965430992e-01) (329, 1.45291993706346073134e-01) (330, 3.07963346314090724576e-01) (331, 3.39568661617685896292e-01) (332, 2.48111161305210797812e-01) (333, 2.22999420996469244205e-01) (334, 3.05390221114915982881e-01) (335, 3.36362165447038785615e-01) (336, 2.93984000619215091188e-01) (337, 2.10624468560975774967e-01) (338, 2.68589113887113650758e-01) (339, 2.32993596281570208850e-01) (340, 3.63721944572861111133e-01) (341, 2.71598163401778613935e-01) (342, 1.19377850956096209778e+00) (343, -8.95877464129795186842e-01) (344, -1.53662685215861294363e-01) (345, -1.48573261621371210950e+00) (346, 1.43035796948022553288e+00) (347, 1.15366309420841650635e+00) (348, 6.40256524056481968188e+00) (349, 8.17176408545338794909e-01) (350, 1.30497674194055690577e+00) (351, 2.55571115267733572907e-01) (352, -3.79808199988185962725e-02) (353, 5.63706674306756028159e-01) (354, 6.09552449657808970152e-01) (355, 2.91344781907293057244e-02) (356, -3.04579121198551627803e-01) (357, 2.77564998011527452881e-01) (358, 3.97493389481123171603e-01) (359, 3.21536899294621203449e-01) (360, 2.54145269867547984877e-01) (361, 2.92195205624860843141e-01) (362, 2.84602862830919345338e-01) (363, 3.24481618638795987764e-01) (364, 3.37019857998651639619e-01) (365, 2.11818297441762670719e-01) (366, 2.82669005032342990358e-01) (367, 2.53935823182643960472e-01) (368, 2.42558509793049437153e-01) (369, 3.68276025509532367597e-01) (370, 1.07352410923059005121e+00) (371, -1.00050753265220615518e+00) (372, -8.09263205311225752858e-01) (373, -4.10695846866462821456e-01) (374, -3.46167879879850481917e-01) (375, -4.64308959573952073629e-01) (376, 1.42511912316587857630e-01) (377, 1.46665158897019226591e-01) (378, 8.77242538362000695562e-02) (379, -2.98047578745832986158e-01) (380, -2.15627683374641249126e-01) (381, 5.89511681340904480919e+00) (382, 3.14006483896003163458e-01) (383, 2.94535802122519695112e-02) (384, -1.02236252078498096596e-01) (385, 1.87910560798588643916e-01) (386, 2.80160553471539064407e-01) (387, 2.65960306610829033680e-01) (388, 2.76280525042317481876e-01) (389, 2.91573588784498294313e-01) (390, 2.12741409476560339176e-01) (391, 3.52650982375902311006e-01) (392, 2.05594022806447729312e-01) (393, 3.19169488783640042939e-01) (394, 2.98957821961206571260e-01) (395, 3.64439097281259671846e-01) (396, 3.47872002384195133651e-01) (397, 1.79490074233505964019e-01) (398, 1.19329782768957248784e+00) (399, 4.13205890377816575931e-01) (400, -3.89443764358836541639e-01) (401, -4.44025072442355214775e-02) (402, 1.39475102082284169169e-01) (403, -8.85025237770420414307e-01) (404, -5.64222588037811889627e-01) (405, -2.69501645517094157167e-01) (406, 3.28454263672009139086e-01) (407, 6.54281376621301952179e-02) (408, -5.69805015287930816115e-01) (409, -3.05614582925738564878e-01) (410, 1.01382971605835692230e+00) (411, 2.48499411151094223849e-01) (412, 3.01555901793607472605e-01) (413, 2.68063370440311588005e-01) (414, 2.50808164842995007238e-01) (415, 2.77600743057663301716e-01) (416, 3.33681492468843265975e-01) (417, 2.06144348454822268213e-01) (418, 3.68471098180574552217e-01) (419, 2.37276949967902911487e-01) (420, 3.20501175757211820283e-01) (421, 2.03037713702481970035e-01) (422, 2.12482462222278289943e-01) (423, 3.48649742598236278557e-01) (424, 3.43074419272293040795e-01) (425, 3.31160880806381618946e-01) (426, 9.02755194372373837020e-01) (427, 9.54532113581858299156e-01) (428, -3.93996709608224360277e-01) (429, -3.43779901749791727550e-01) (430, 1.98382355067975246765e-01) (431, 3.79046609375950582788e-01) (432, 4.13301850515776947326e-01) (433, 1.27378689115725229897e+01) (434, 8.51332492196611312352e+00) (435, 4.24707345656203028028e+00) (436, -2.06980940081538750119e-01) (437, -9.82775474432756901422e+00) (438, 3.63253956302780878218e+00) (439, 3.76390861594640691035e-01) (440, -1.63791903052990441836e+01) (441, 4.29343210154939647349e-01) (442, 2.48296022228262497356e-01) (443, 2.36709126878279357831e-01) (444, 2.42193155658591979806e-01) (445, 3.47833432925094554466e-01) (446, 3.41626209255022184053e-01) (447, 2.03598898883622869693e-01) (448, 3.77719027038377896943e-01) (449, 3.31922513480943814912e-01) (450, 3.36527297495881116962e-01) (451, 4.28558659856819235134e-01) (452, 4.64639894757507387890e-01) (453, 2.94904127898151791065e-01) (454, 3.43570561937072582737e-01) (455, 3.98321877485814546116e-01) (456, -4.52878770474786473965e-01) (457, -2.27756120564666292294e-01) (458, -4.43056010708443026580e-01) (459, 6.79404062166532929368e-01) (460, 2.20533124244347966680e+00) (461, 1.42794781137756188194e+00) (462, 8.03935772219146649320e+00) (463, 1.52513690790943501341e+00) (464, 3.84751855401118503242e-01) (465, 1.70725164629665748794e-01) (466, -1.96778989027651091126e-01) (467, 7.36235214227903944639e-01) (468, 3.04078604115237238759e-01) (469, -5.59181089045992862907e+00) (470, 5.17291659590600416685e-01) (471, 2.54039915539260086064e-01) (472, 3.59115429890502879662e-01) (473, 2.43590028768562977257e-01) (474, 3.14728465910715238252e-01) (475, 2.25049831952613577091e-01) (476, 2.14325641330045446598e-01) (477, 2.78179888661665042360e-01) (478, 3.58661618767315726330e-01) (479, 3.22358645491851836251e-01) (480, 3.39656055433630088558e-01) (481, 3.33521404616452687986e-01) (482, 2.65195516806941977705e+00) (483, 1.11348686015667566740e-01) (484, -5.36164543317731001615e-01) (485, -1.03147803138602500717e+00) (486, 4.64140804638751736100e-01) (487, 4.85748278597947713564e+00) (488, -2.61953987848835057051e-01) (489, -1.66565739121378814103e-01) (490, 7.19109905727016607280e-01) (491, -6.60791892992491219916e-02) (492, 4.02453755723888081247e-04) (493, 1.29309858949633815772e-01) (494, 1.79739920861303387190e-01) (495, 9.26834190608305630299e-01) (496, 1.55310177528901832700e-01) (497, -3.80677764376623084530e+00) (498, 5.18962098894724221942e-01) (499, 3.00396913923259178958e-01) (500, 2.35277939768965022038e-01) (501, 2.05416208793921223341e-01) (502, 3.72338873382372037568e-01) (503, 2.18551923569005712711e-01) (504, 2.69962613518995364625e-01) (505, 3.08892560239595548310e-01) (506, 3.73614643452698569348e-01) (507, 4.23769895601331991752e-01) (508, 3.17386411123527556466e-01) (509, 4.33572072251686480016e-01) (510, 9.31576166124135629509e-01) (511, -2.87268021812310259122e-01) (512, -1.45178380512170301930e-01) (513, -8.95454083837762149223e-01) (514, 2.25492710951045971512e+00) (515, 5.05035014862921194378e+00) (516, -3.40217657071551105030e-01) (517, -2.80603825102432147265e-01) (518, -6.38128760758874605252e-03) (519, 1.01804696291181856482e-01) (520, 9.30895504061356016123e-01) (521, 4.18638871148509172926e-01) (522, 1.19657194884519690881e+00) (523, 2.37406714298834131682e+00) (524, 3.76240507958513992204e-01) (525, 1.17683832046804170979e+00) (526, 3.88740122549278643849e-01) (527, 1.59658104832283292973e-01) (528, 1.91771960264481206027e-01) (529, 3.60127626647753829037e-01) (530, 3.04579389329713956514e-01) (531, 2.52390113707345820071e-01) (532, 1.85393449898523077213e-01) (533, 2.98743483658594266572e-01) (534, 4.00225616275465767568e-01) (535, 3.97398530994564347374e-01) (536, 4.56530269126764143284e-01) (537, 2.76673056399449723841e-01) (538, 1.05442229865374725861e+00) (539, 6.08412636048389493526e-02) (540, -2.61213773243080871200e-01) (541, -3.38460564455088708247e-01) (542, -2.88555748917760160333e-02) (543, -2.51307432150846499219e-01) (544, -1.09920747620013192769e-01) (545, -8.68906149168656993798e-02) (546, -2.70079133054242324918e-02) (547, 3.82197595421906621826e-01) (548, 1.04693508829910597591e+00) (549, 5.04752668661850822929e+00) (550, 8.29325355579120793159e-02) (551, 3.28757673086298052301e-01) (552, 3.70221672106334331875e-01) (553, 5.07640275849481015236e-01) (554, 1.38753714729297233932e-01) (555, 2.52469173287269033068e-01) (556, 3.03871849120675385780e-01) (557, 3.48674110426963557163e-01) (558, 3.19941026206773893037e-01) (559, 3.33607164259714261689e-01) (560, 3.27666384216112271943e-01) (561, 2.46345636482995761218e-01) (562, 3.15280861436522230612e-01) (563, 4.52349474870741230514e-01) (564, 5.93868152056231890512e-01) (565, 4.94222764849247597763e-01) (566, 1.23093857364669795329e-01) (567, 2.50493658595981161241e-01) (568, 2.91364675881691015391e-01) (569, 2.63958082626671730608e+00) (570, 1.12685912305527669020e+00) (571, 5.14796204694418890746e-01) (572, 5.50808333092272839338e-01) (573, 5.43792401610189601868e-01) (574, 6.27847376655476097085e+00) (575, 8.29892718668961038020e+00) (576, 6.88095934329946312680e-01) (577, 6.54728233046287577679e-01) (578, 1.20860367908350019306e+00) (579, 8.81142394728347877475e-01) (580, 1.70900620441922979076e+00) (581, 2.37555758503898567513e-01) (582, 1.84227349975407100890e-01) (583, 1.68402055421836810423e-01) (584, 2.70469202107228079424e-01) (585, 2.75544618841776001172e-01) (586, 3.21901452775758878389e-01) (587, 2.12304418023389562808e-01) (588, 2.43922446902555239978e-01) (589, 2.63667699929040932894e-01) (590, 4.75195168732798378652e-01) (591, 3.02772919879109148056e-01) (592, 5.59855568423858418470e-01) (593, 9.41316693714752406041e-02) (594, 5.40306563617977908542e-01) (595, 3.56934843978821136901e-01) (596, 1.39373128244137889364e-01) (597, -2.51632583169164314452e-01) (598, 3.99219326800482110507e-01) (599, 7.84846924985667215857e-01) (600, 5.15415828615005788826e-01) (601, 1.43457305244191046789e+00) (602, 4.52733074428252890709e-01) (603, 5.06958833406909836761e-01) (604, 2.79160041729245644859e+00) (605, -7.27608218683788721126e-02) (606, 2.38670700876538216528e-01) (607, 5.43201087955273220764e-01) (608, 1.01367949004291510451e-01) (609, 2.22921407830376977488e-01) (610, 2.66696104383865428833e-01) (611, 2.82896795810281098671e-01) (612, 2.48995297901250189909e-01) (613, 3.72190841210235545677e-01) (614, 3.04999736185831205049e-01) (615, 3.44908234711450711885e-01) (616, 2.70369966562551578004e-01) (617, 2.48726402457517398181e-01) (618, 2.86496221303141340719e-01) (619, 4.44305305121476035168e-01) (620, 4.52361689309546954885e-01) (621, 4.78585363920419615269e-01) (622, 4.61386262257217183436e-01) (623, 4.90623900404254131846e-01) (624, -8.05141962999713634019e-01) (625, -1.31283621625315594095e+00) (626, -2.55939941021433511881e-03) (627, -5.26570250870752265548e-01) (628, -1.93864959342153975186e-01) (629, -3.09442280184532292342e-01) (630, -9.84161833071987568466e-01) (631, 2.98762036818239429259e-01) (632, -2.68548022188901003293e-01) (633, -4.60378621899262749362e-02) (634, -3.49522133493956471684e-02) (635, 1.17221331582416127270e-01) (636, 1.31577578001934786256e-01) (637, 1.84847235426208150733e-01) (638, 2.59123277742860591566e-01) (639, 3.35308201792175686329e-01) (640, 1.89377171572812835754e-01) (641, 1.88666996594232305728e-01) (642, 2.55404000218671878297e-01) (643, 2.61527803774637246370e-01) (644, 1.83641073342126592838e-01) (645, 1.82228957351011022769e-01) (646, 3.01358178943535781613e-01) (647, 3.84023931561047415784e-01) (648, 3.61696997540592257714e-01) (649, 3.47728773943960456361e-01) (650, 1.53444231030022915085e-01) (651, 4.01450138277117229979e-01) (652, 4.81220405206089385519e-01) (653, 1.67163940791518500495e-01) (654, 1.73647744273031712225e+00) (655, -2.47594205379706444603e-01) (656, -2.21550699937057421485e-01) (657, 6.13234177931669607875e-02) (658, -3.47112204815623826004e-01) (659, 1.09719240465166512077e-01) (660, -6.84076658213020882826e-01) (661, 8.25044236090556465379e-02) (662, 1.36907871976881728715e-01) (663, 2.18914430365488493768e-01) (664, 1.43016840149170681995e-01) (665, 2.58840051372049129164e-01) (666, 2.74807907822067598591e-01) (667, 2.86720115668710751056e-01) (668, 3.29997685786050931611e-01) (669, 3.73004701967996732392e-01) (670, 2.44938475127977145496e-01) (671, 3.41051367159647123017e-01) (672, 1.83496912058156713687e-01) (673, 3.22167706723970548310e-01) (674, 2.24404388155502065860e-01) (675, 2.97150877056652829022e-01) (676, 4.34735101764701925564e-01) (677, 3.83399616561187817076e-01) (678, 4.07129940758377384391e-01) (679, 3.57440050290809940847e-01) (680, 4.79523836472403153230e-01) (681, 2.77922847591334010176e-01) (682, 1.66092766611833003720e-01) (683, 3.01399696794779348163e-01) (684, 5.01125662813547201324e-01) (685, 5.05486999435084127796e-01) (686, 3.28184785575313497930e-01) (687, 3.39801756409930544311e-01) (688, 3.58395175368034724084e-01) (689, 1.51406470583565599952e-01) (690, 1.83865465213385287369e-01) (691, 1.73692303569515843487e-01) (692, 3.43432317444452128719e-01) (693, 3.16551400682458683455e-01) (694, 3.57626076764997580248e-01) (695, 3.54025014412750194115e-01) (696, 2.18030651148122534000e-01) (697, 2.55344142254156192262e-01) (698, 2.63237972791952157259e-01) (699, 3.69853583212656156221e-01) (700, 2.50174057718080322665e-01) (701, 3.30001679297250882783e-01) (702, 3.32730156417650357881e-01) (703, 2.55496193702978213746e-01) (704, 3.47820827960053480243e-01) (705, 2.52785997687855423788e-01) (706, 3.74472287235791068127e-01) (707, 3.31639025465241155111e-01) (708, 3.84712602314724039232e-01) (709, 4.84171289322151254808e-01) (710, 3.64719846377998702103e-01) (711, 3.43046789239078775413e-01) (712, 4.58988314886120130076e-01) (713, 4.15277453794157314082e-01) (714, 2.46473418988486098202e-01) (715, 3.32205597309051803290e-01) (716, 2.90004333465578911788e-01) (717, 2.43945032699182967617e-01) (718, 2.91501634163931488963e-01) (719, 2.72946920384526281467e-01) (720, 3.09635235330591007674e-01) (721, 2.12012296196588317931e-01) (722, 2.91084406551488983350e-01) (723, 2.85034795339864810426e-01) (724, 3.55181214447778836885e-01) (725, 2.70096589859289248903e-01) (726, 2.61843030389112496614e-01) (727, 1.95037086542409643375e-01) (728, 3.47265956040186063447e-01) (729, 3.46906227107805387178e-01) (730, 1.86715875800412878238e-01) (731, 2.19265238430064901554e-01) (732, 2.98733119900983945527e-01) (733, 3.41271248694223539033e-01) (734, 2.96586652334493772187e-01) (735, 1.95282253021896057277e-01) (736, 3.42785554523170665764e-01) (737, 1.84696500237745031558e-01) (738, 2.38419861580890429797e-01) (739, 2.38199324083675140207e-01) (740, 1.81404998180040161193e-01) (741, 3.05088413533338709271e-01) (742, 2.83814478642877621173e-01) (743, 3.42019034203657312787e-01) (744, 2.23804731589902605737e-01) (745, 3.15573223603118846459e-01) (746, 2.95325075324339048066e-01) (747, 3.37289728892196605248e-01) (748, 1.88230306578029360498e-01) (749, 2.15538759763997778141e-01) (750, 2.37864979590934527698e-01) (751, 3.25589803095621244111e-01) (752, 2.49227558310788882556e-01) (753, 3.50625884767336026826e-01) (754, 2.32449808206123126331e-01) (755, 2.26233989979785665714e-01) (756, 2.42547688122552645984e-01) (757, 3.16118073697847501435e-01) (758, 2.43096296723645938220e-01) (759, 2.11638872559827551090e-01) (760, 2.84849521752161105592e-01) (761, 2.51637403901380340976e-01) (762, 2.52729331191343165042e-01) (763, 2.05407870050233587467e-01) (764, 2.14733880992692693912e-01) (765, 3.71141222353738919892e-01) (766, 2.21786030616325124942e-01) (767, 1.78615351255696996891e-01) (768, 3.77662939067644254365e-01) (769, 2.82031116123956759889e-01) (770, 2.39597910131973040881e-01) (771, 1.80744429167073950016e-01) (772, 2.08796021576684698307e-01) (773, 3.44947245951456205049e-01) (774, 3.44439950819772855439e-01) (775, 2.55383987959188540895e-01) (776, 2.83303697641653140504e-01) (777, 2.61590247090620064974e-01) (778, 2.15456944938462957584e-01) (779, 2.94317227836412509401e-01) (780, 2.98954230781358853974e-01) (781, 2.75147144730848391969e-01) (782, 2.41732244427961123767e-01) (783, 3.70007005568308011689e-01) (784, 6.05780471909770495964e-02) (0, 7.61783037742449931073e-01) (1, 6.83841973950936488080e-01) (2, 7.77746912499739817548e-01) (3, 6.99726324936225108075e-01) (4, 7.48763490876032999921e-01) (5, 8.11211001535727671552e-01) (6, 8.06401070615126780439e-01) (7, 8.22226118704154185224e-01) (8, 6.85765557398869685102e-01) (9, 8.33634164592101267743e-01) (10, 6.58785220643355540204e-01) (11, 6.78731989523245982099e-01) (12, 6.77245412429644755292e-01) (13, 6.59225803276374033857e-01) (14, 6.78220149537398508954e-01) (15, 7.81101759930922678876e-01) (16, 7.20648941060378245282e-01) (17, 6.80789802631213358808e-01) (18, 8.11722990533187083173e-01) (19, 6.87421396782471827436e-01) (20, 6.47054974397494486738e-01) (21, 6.88932210614754847455e-01) (22, 7.92550322076155833173e-01) (23, 7.30470445414855173993e-01) (24, 7.26214383205249003339e-01) (25, 7.08692770859076670575e-01) (26, 6.51249889692141703534e-01) (27, 8.23186751862837962079e-01) (28, 7.72250246664359263349e-01) (29, 8.43082126637770823407e-01) (30, 6.92610212078168085981e-01) (31, 6.90082744171693018842e-01) (32, 6.82973560353591135907e-01) (33, 8.26406594773604563642e-01) (34, 7.45858539303614787030e-01) (35, 7.87786525150611094404e-01) (36, 7.93667059799506358075e-01) (37, 7.08309065958335093427e-01) (38, 7.65502907302119339761e-01) (39, 8.34922887351252640542e-01) (40, 6.97992690315320185590e-01) (41, 7.80896794458701304364e-01) (42, 6.70263540407492808271e-01) (43, 7.31287565490081004071e-01) (44, 7.96172064205481699872e-01) (45, 7.04533152690007380414e-01) (46, 6.68438781460597208905e-01) (47, 6.72870468756034068036e-01) (48, 7.41372418066336802411e-01) (49, 8.36211245914771250654e-01) (50, 7.16341335734202555585e-01) (51, 7.44476858934237650800e-01) (52, 6.81192923744990519452e-01) (53, 6.64941113849951914716e-01) (54, 8.30996763368918589521e-01) (55, 7.63456765970065287519e-01) (56, 7.29683343728854350019e-01) (57, 8.38296126982047251630e-01) (58, 7.42692981323077372480e-01) (59, 6.57983053883387736249e-01) (60, 8.37427717109992197919e-01) (61, 7.91352656146361521650e-01) (62, 7.04115264525487116742e-01) (63, 6.76450733503176859784e-01) (64, 7.73808714410140208173e-01) (65, 8.05464066531397904214e-01) (66, 8.19727532531954850015e-01) (67, 7.23525237699820689130e-01) (68, 6.70381796022727183271e-01) (69, 7.42398295959307841230e-01) (70, 7.15056781133486918378e-01) (71, 7.24423949083163432050e-01) (72, 6.77735919095941441448e-01) (73, 7.37262844514553483677e-01) (74, 8.07654030096237596226e-01) (75, 8.29957449771829502971e-01) (76, 8.01393218304850663003e-01) (77, 8.36249228974654368329e-01) (78, 6.60486024280860117841e-01) (79, 6.99374296178891352582e-01) (80, 8.28509938379599741864e-01) (81, 7.32876826485469035077e-01) (82, 7.99900617858245066571e-01) (83, 6.65752333065344981122e-01) (84, 7.53867399355246714521e-01) (85, 7.86946859618498972821e-01) (86, 7.85258572956397227216e-01) (87, 8.39600217005088023114e-01) (88, 7.81292435189559153486e-01) (89, 6.84001006593777827192e-01) (90, 6.53632741829230479169e-01) (91, 7.74969790737292441030e-01) (92, 8.31403132935836008954e-01) (93, 7.51238083175156723392e-01) (94, 8.44151229795811697265e-01) (95, 8.01232202499650325578e-01) (96, 7.23200088012319053377e-01) (97, 8.53849883436647361101e-01) (98, 9.11079879164186423601e-01) (99, 7.46173013660512474132e-01) (100, 7.96293875481706159292e-01) (101, 8.22279621994024378928e-01) (102, 8.90688722490599160686e-01) (103, 7.53574660503247173438e-01) (104, 8.09361514111830882001e-01) (105, 7.47169078644365436404e-01) (106, 7.01647115256637698977e-01) (107, 7.63947130497545368044e-01) (108, 7.42324821617343033608e-01) (109, 7.21598867734744242597e-01) (110, 8.22787147423102549482e-01) (111, 7.27443430980517558027e-01) (112, 8.10525160690619639325e-01) (113, 7.78737228771521738935e-01) (114, 7.49245230516268900800e-01) (115, 7.20442030986621073652e-01) (116, 7.94830460215263490120e-01) (117, 8.04526019495422795025e-01) (118, 8.30159032057703583085e-01) (119, 7.75498579801387366572e-01) (120, 8.47026858092612799922e-01) (121, 8.36821410474678173408e-01) (122, 9.15100353227259577515e-01) (123, 1.50324306396894114002e+00) (124, 1.63788427002107073172e+00) (125, 4.34932221830780108007e+00) (126, 3.22240264077960869571e+00) (127, 9.97922669402039330677e-01) (128, 7.58959183796530156840e-01) (129, 8.92863439676185199900e-01) (130, 7.28912219075371403676e-01) (131, 7.34862939417977201195e-01) (132, 6.93266269596806483655e-01) (133, 8.16797636371156765556e-01) (134, 7.96551696877977444267e-01) (135, 6.57737113457223965263e-01) (136, 7.28134499446786986887e-01) (137, 6.65782850842139395375e-01) (138, 7.89068114420249155927e-01) (139, 8.30284070631339243818e-01) (140, 7.43231017550303629804e-01) (141, 7.67904725333525828290e-01) (142, 7.13776972552611521650e-01) (143, 7.82902557516746644417e-01) (144, 8.16664181303675129620e-01) (145, 9.36157893985758882138e-01) (146, 9.05576029359802747720e-01) (147, 9.18263040691679077732e-01) (148, 2.14575514251511823005e+00) (149, 6.26248939359081457923e+00) (150, 4.46406529664180506956e+00) (151, 4.94087889308392291809e+00) (152, 3.62508969605834785455e+00) (153, 4.41631201269329931591e+00) (154, 4.09191587103516418722e+00) (155, 5.15873489032641252550e+00) (156, 1.26527059162636379419e+00) (157, 1.04468461154806985247e-01) (158, -1.39946317043680990011e-01) (159, 6.85760227422435808542e-01) (160, 7.44062622206011714532e-01) (161, 5.39476524181479510922e-01) (162, 5.73901836060860537359e-01) (163, 6.04288118610446844947e-01) (164, 6.91402112068129515166e-01) (165, 7.45658175982900517376e-01) (166, 6.84150424262358836103e-01) (167, 7.85628240963294199872e-01) (168, 7.68898968061282328534e-01) (169, 8.29268005153014353681e-01) (170, 7.71961775084807566571e-01) (171, 7.79705959050485009065e-01) (172, 8.70575755193409128729e-01) (173, 9.61355104302391572091e-01) (174, 8.53601440047249360177e-01) (175, 3.60117149452401363874e+00) (176, 5.47144671471212884484e+00) (177, 6.19232572186014618154e+00) (178, 3.52101542471746364882e+00) (179, 2.48248278660727361711e+00) (180, 2.77582200965843828300e+00) (181, 1.71237232750277557081e+00) (182, 7.49668742061633253115e-01) (183, 7.00865945271976986675e-01) (184, 1.58494057691163381385e+00) (185, 2.01899557605955859430e+00) (186, 8.28424471598409581929e+01) (187, -1.89585341401316775922e+00) (188, 6.44320488522975631795e-01) (189, 5.23075799434816635092e-01) (190, 4.85515265272061402602e-01) (191, 4.39799383825785705771e-01) (192, 7.32327215295335842704e-01) (193, 7.99940520481504546702e-01) (194, 6.83529812808968628701e-01) (195, 7.94522997399642161298e-01) (196, 7.06472892721965006757e-01) (197, 7.24288907309844187665e-01) (198, 7.35641501810290421304e-01) (199, 9.41758689617639643821e-01) (200, 8.30033180586775221066e-01) (201, 7.85612373488726700721e-01) (202, 7.75217130040154023263e-01) (203, 2.12492362268631795885e+00) (204, 3.52636336557895546662e+00) (205, 1.49553920830532605102e+00) (206, 9.53938211961014803641e-01) (207, 3.91428051469241311544e-01) (208, 4.33223257334756917114e-01) (209, -1.69452125298835576395e-01) (210, 6.24135357839718740713e-01) (211, 8.49964748312528328711e-01) (212, 5.82761198386350653955e-01) (213, 5.82194903367699079233e-01) (214, 6.99161680016417097505e-01) (215, 9.81530756434399798138e-01) (216, 8.13379237913330888077e-01) (217, 7.20750819244611484748e-01) (218, 4.92596460447179251840e-01) (219, 5.32788403701342838659e-01) (220, 7.72042878072978555615e-01) (221, 6.74507170280183809830e-01) (222, 6.98819328065850342568e-01) (223, 6.78601045569255045820e-01) (224, 8.37639745732619456220e-01) (225, 7.39516999980284861493e-01) (226, 8.28814476893469875840e-01) (227, 8.11688611893483513704e-01) (228, 9.40685378436621255638e-01) (229, 8.42253694359835214378e-01) (230, 7.92098048622792316742e-01) (231, 7.02055959087558578702e-01) (232, 6.27865137592537259081e-01) (233, -3.09980900858307517609e+00) (234, 3.80793032504246453662e-01) (235, 1.23021169167141897205e+00) (236, 2.60727666919142730961e+00) (237, -1.06039492147865122007e+00) (238, 8.40502032113807806546e-01) (239, 4.41795508272615100598e-01) (240, 1.00019643780138967060e+00) (241, 2.71687680056636216008e+00) (242, -1.63121146293196872534e+01) (243, -6.72720660994739461103e+01) (244, 8.62226451236297930514e-01) (245, 8.39423839692036821702e-01) (246, 6.77856481095837959394e-01) (247, 6.55196156318290756637e-01) (248, 7.43730835188851413520e-01) (249, 8.25213452056877461160e-01) (250, 8.32951120998599137124e-01) (251, 6.94754522701575449872e-01) (252, 6.64513934811427287030e-01) (253, 6.88379101421572769937e-01) (254, 7.29405042191817454267e-01) (255, 7.71038829768649680574e-01) (256, 9.04931572548826612667e-01) (257, 8.24513877419747132080e-01) (258, 6.90626993835862346138e-01) (259, 6.38665883600055606095e-01) (260, 2.30769396158827255761e+00) (261, -2.77028361805951783836e+00) (262, 1.06137352875137105923e-01) (263, -2.22205280129660165400e+00) (264, -4.90676548510992904806e-01) (265, 3.14916540943625034021e-01) (266, 8.82107263580316325324e-01) (267, 5.15620193934979376138e+00) (268, 5.84700609197260856575e+00) (269, 4.60113541540908954630e+00) (270, -1.46075888047384800927e+01) (271, -9.78909899606441591402e-01) (272, 8.52446121881191398728e-01) (273, 7.34943852214699377967e-01) (274, 6.71241464813085997321e-01) (275, 7.54436787589235602347e-01) (276, 7.21259029510119331619e-01) (277, 6.59533303779994750649e-01) (278, 7.40591669219613946140e-01) (279, 8.43861278554274729657e-01) (280, 6.49444375594927958417e-01) (281, 7.31401041116454209146e-01) (282, 6.92856462436796105564e-01) (283, 7.45061840289111709801e-01) (284, 7.78905164171354913449e-01) (285, 7.73487675783074757341e-01) (286, 5.20874341073038760186e-01) (287, -1.11381075650586369719e+00) (288, -1.33164584371981198352e-01) (289, -4.59573182795668699896e+00) (290, -9.34864163234679496073e-02) (291, -1.75985426595339444766e-01) (292, -3.88618821101346822999e-01) (293, 7.43064478413680284952e-01) (294, -3.81265427723076699706e+00) (295, -3.65144764767082108392e+01) (296, 2.16405948267350423109e+00) (297, 3.08033619547533588090e+00) (298, 2.76553434490444693949e+01) (299, 2.78134226454347199819e+00) (300, 1.01194316680704332612e+00) (301, 7.87348688522337414319e-01) (302, 8.19830052246803830940e-01) (303, 8.28966554275301303889e-01) (304, 6.68785644357281938710e-01) (305, 6.90864523637176430881e-01) (306, 7.78520546819903458413e-01) (307, 7.61218432744815043378e-01) (308, 7.12086897751166514325e-01) (309, 6.77529674431159190107e-01) (310, 7.59320372480035699070e-01) (311, 7.17580739816500834394e-01) (312, 7.58372557536000746481e-01) (313, 6.99249190962856759235e-01) (314, -2.46447325960648770671e-02) (315, -2.27715837286758082669e+00) (316, -2.04938842836652623802e+00) (317, -2.69473407140316778552e+00) (318, -1.09321859507395036104e-01) (319, 1.33536217468875384462e+00) (320, 9.67438798968759527952e+00) (321, 6.70177972512439446007e+00) (322, 6.36706009059986755005e+00) (323, 4.02203659541189306736e+00) (324, -2.06225993981281447986e+01) (325, 1.01593517800558359454e+01) (326, 3.99425771813950181155e+00) (327, 1.08532339126585930522e+00) (328, 2.54500328551407806188e-01) (329, 4.99433894654505383670e-01) (330, 6.58540356435970197779e-01) (331, 6.96635071110031200980e-01) (332, 7.70575967589096522126e-01) (333, 6.86099376694485729722e-01) (334, 6.97007604351117304731e-01) (335, 8.04258745571448496747e-01) (336, 7.35181209107711008954e-01) (337, 8.32136806508376292157e-01) (338, 7.20967441763617600259e-01) (339, 8.01708931066461460979e-01) (340, 6.58277589848783817317e-01) (341, 5.66901583632987815520e-01) (342, -6.26023547702781968383e+00) (343, -2.72940464988674635904e+00) (344, -2.65841469639511318590e+00) (345, 4.02433754956054290375e+00) (346, -8.62870880819603058853e-01) (347, -7.00135519672130723912e-01) (348, 6.36665390708912237727e+00) (349, 5.44044295258756083200e+00) (350, 6.37357577622469939627e+00) (351, 2.73093143479680700025e+00) (352, -2.58787534506921410582e+01) (353, -1.87611580224880936107e+00) (354, 2.44355844936491140018e+00) (355, -7.58524003408670571824e-02) (356, -1.61931381518713735090e+00) (357, 4.69669442093177569308e-01) (358, 6.43081432995039836698e-01) (359, 7.73023737423273682445e-01) (360, 7.00414534133379396152e-01) (361, 7.87708349492289627847e-01) (362, 6.44260157307460001874e-01) (363, 8.35024234315230540204e-01) (364, 8.30775436421706370282e-01) (365, 6.97317231854273966718e-01) (366, 7.94773228432871903237e-01) (367, 7.20397451855607884319e-01) (368, 6.75349565150835884353e-01) (369, 4.32302751485032443757e-01) (370, -1.73956241792701549187e+00) (371, -2.75914241575820939900e+00) (372, -5.55489451622569255229e-02) (373, -5.10305830536463744806e+00) (374, -3.31511964336501341322e+00) (375, 1.24562801733957462247e+00) (376, 2.81979212002318435637e+00) (377, 4.79160114975235451595e+00) (378, 3.71973381368929700841e+00) (379, 1.57017696970939013568e+00) (380, -3.31824613816329927474e+00) (381, -9.20998340010641669551e+01) (382, 6.82521704641212312303e-01) (383, -9.12396746636760375138e-02) (384, -4.69952991230310812565e-01) (385, 6.94652588520022651331e-01) (386, 6.29283002433020488553e-01) (387, 8.13047716358061611786e-01) (388, 7.07744617918209528717e-01) (389, 8.26792681552835362346e-01) (390, 7.68192056974246195722e-01) (391, 7.72192877193762949872e-01) (392, 7.72718321939780405927e-01) (393, 7.68501673301531962323e-01) (394, 7.63266567548587016034e-01) (395, 7.59184174404666012315e-01) (396, 8.14901707147778986418e-01) (397, 5.90797680345420128667e-01) (398, -4.39469801526824621618e+00) (399, -3.71517191663007961822e+00) (400, -5.51966534839439026960e-01) (401, -2.21457133319530630189e+00) (402, -4.57605806954592894686e-02) (403, 4.53660436501646446850e-01) (404, 3.52019222626727135150e-02) (405, 1.29006745864794436507e+00) (406, 