FANN_FLO_2.1
num_layers=3
learning_rate=0.400000
connection_rate=1.000000
network_type=0
learning_momentum=0.000000
training_algorithm=2
train_error_function=1
train_stop_function=0
cascade_output_change_fraction=0.010000
quickprop_decay=-0.000100
quickprop_mu=1.750000
rprop_increase_factor=1.200000
rprop_decrease_factor=0.500000
rprop_delta_min=0.000000
rprop_delta_max=50.000000
rprop_delta_zero=0.100000
cascade_output_stagnation_epochs=12
cascade_candidate_change_fraction=0.010000
cascade_candidate_stagnation_epochs=12
cascade_max_out_epochs=150
cascade_max_cand_epochs=150
cascade_num_candidate_groups=2
bit_fail_limit=3.49999999999999977796e-01
cascade_candidate_limit=1.00000000000000000000e+03
cascade_weight_multiplier=4.00000000000000022204e-01
cascade_activation_functions_count=10
cascade_activation_functions=3 5 7 8 10 11 14 15 16 17 
cascade_activation_steepnesses_count=4
cascade_activation_steepnesses=2.50000000000000000000e-01 5.00000000000000000000e-01 7.50000000000000000000e-01 1.00000000000000000000e+00 
layer_sizes=785 101 2 
scale_included=0
neurons (num_inputs, activation_function, activation_steepness)=(0, 0, 0.00000000000000000000e+00) (0, 0, 0.00000000000000000000e+00) (0, 0, 0.00000000000000000000e+00) (0, 0, 0.00000000000000000000e+00) (0, 0, 0.00000000000000000000e+00) (0, 0, 0.00000000000000000000e+00) (0, 0, 0.00000000000000000000e+00) (0, 0, 0.00000000000000000000e+00) (0, 0, 0.00000000000000000000e+00) (0, 0, 0.00000000000000000000e+00) (0, 0, 0.00000000000000000000e+00) (0, 0, 0.00000000000000000000e+00) (0, 0, 0.00000000000000000000e+00) (0, 0, 0.00000000000000000000e+00) (0, 0, 0.00000000000000000000e+00) (0, 0, 0.00000000000000000000e+00) (0, 0, 0.00000000000000000000e+00) (0, 0, 0.00000000000000000000e+00) (0, 0, 0.00000000000000000000e+00) (0, 0, 0.00000000000000000000e+00) (0, 0, 0.00000000000000000000e+00) (0, 0, 0.00000000000000000000e+00) (0, 0, 0.00000000000000000000e+00) (0, 0, 0.00000000000000000000e+00) (0, 0, 0.00000000000000000000e+00) (0, 0, 0.00000000000000000000e+00) (0, 0, 0.00000000000000000000e+00) (0, 0, 0.00000000000000000000e+00) (0, 0, 0.00000000000000000000e+00) (0, 0, 0.00000000000000000000e+00) (0, 0, 0.00000000000000000000e+00) (0, 0, 0.00000000000000000000e+00) (0, 0, 0.00000000000000000000e+00) (0, 0, 0.00000000000000000000e+00) (0, 0, 0.00000000000000000000e+00) (0, 0, 0.00000000000000000000e+00) (0, 0, 0.00000000000000000000e+00) (0, 0, 0.00000000000000000000e+00) (0, 0, 0.00000000000000000000e+00) (0, 0, 0.00000000000000000000e+00) (0, 0, 0.00000000000000000000e+00) (0, 0, 0.00000000000000000000e+00) (0, 0, 0.00000000000000000000e+00) (0, 0, 0.00000000000000000000e+00) (0, 0, 0.00000000000000000000e+00) (0, 0, 0.00000000000000000000e+00) (0, 0, 0.00000000000000000000e+00) (0, 0, 0.00000000000000000000e+00) (0, 0, 0.00000000000000000000e+00) (0, 0, 0.00000000000000000000e+00) (0, 0, 0.00000000000000000000e+00) (0, 0, 0.00000000000000000000e+00) (0, 0, 0.00000000000000000000e+00) (0, 0, 0.00000000000000000000e+00) (0, 0, 0.00000000000000000000e+00) (0, 0, 0.00000000000000000000e+00) (0, 0, 0.00000000000000000000e+00) (0, 0, 0.00000000000000000000e+00) (0, 0, 0.00000000000000000000e+00) (0, 0, 0.00000000000000000000e+00) (0, 0, 0.00000000000000000000e+00) (0, 0, 0.00000000000000000000e+00) (0, 0, 0.00000000000000000000e+00) (0, 0, 0.00000000000000000000e+00) (0, 0, 0.00000000000000000000e+00) (0, 0, 0.00000000000000000000e+00) (0, 0, 0.00000000000000000000e+00) (0, 0, 0.00000000000000000000e+00) (0, 0, 0.00000000000000000000e+00) (0, 0, 0.00000000000000000000e+00) (0, 0, 0.00000000000000000000e+00) (0, 0, 0.00000000000000000000e+00) (0, 0, 0.00000000000000000000e+00) (0, 0, 0.00000000000000000000e+00) (0, 0, 0.00000000000000000000e+00) (0, 0, 0.00000000000000000000e+00) (0, 0, 0.00000000000000000000e+00) (0, 0, 0.00000000000000000000e+00) (0, 0, 0.00000000000000000000e+00) (0, 0, 0.00000000000000000000e+00) (0, 0, 0.00000000000000000000e+00) (0, 0, 0.00000000000000000000e+00) (0, 0, 0.00000000000000000000e+00) (0, 0, 0.00000000000000000000e+00) (0, 0, 0.00000000000000000000e+00) (0, 0, 0.00000000000000000000e+00) (0, 0, 0.00000000000000000000e+00) (0, 0, 0.00000000000000000000e+00) (0, 0, 0.00000000000000000000e+00) (0, 0, 0.00000000000000000000e+00) (0, 0, 0.00000000000000000000e+00) (0, 0, 0.00000000000000000000e+00) (0, 0, 0.00000000000000000000e+00) (0, 0, 0.00000000000000000000e+00) (0, 0, 0.00000000000000000000e+00) (0, 0, 0.00000000000000000000e+00) (0, 0, 0.00000000000000000000e+00) (0, 0, 0.00000000000000000000e+00) (0, 0, 0.00000000000000000000e+00) (0, 0, 0.00000000000000000000e+00) (0, 0, 0.00000000000000000000e+00) (0, 0, 0.00000000000000000000e+00) (0, 0, 0.00000000000000000000e+00) (0, 0, 0.00000000000000000000e+00) (0, 0, 0.00000000000000000000e+00) (0, 0, 0.00000000000000000000e+00) (0, 0, 0.00000000000000000000e+00) (0, 0, 0.00000000000000000000e+00) (0, 0, 0.00000000000000000000e+00) (0, 0, 0.00000000000000000000e+00) (0, 0, 0.00000000000000000000e+00) (0, 0, 0.00000000000000000000e+00) (0, 0, 0.00000000000000000000e+00) (0, 0, 0.00000000000000000000e+00) (0, 0, 0.00000000000000000000e+00) (0, 0, 0.00000000000000000000e+00) (0, 0, 0.00000000000000000000e+00) (0, 0, 0.00000000000000000000e+00) (0, 0, 0.00000000000000000000e+00) (0, 0, 0.00000000000000000000e+00) (0, 0, 0.00000000000000000000e+00) (0, 0, 0.00000000000000000000e+00) (0, 0, 0.00000000000000000000e+00) (0, 0, 0.00000000000000000000e+00) (0, 0, 0.00000000000000000000e+00) (0, 0, 0.00000000000000000000e+00) (0, 0, 0.00000000000000000000e+00) (0, 0, 0.00000000000000000000e+00) (0, 0, 0.00000000000000000000e+00) (0, 0, 0.00000000000000000000e+00) (0, 0, 0.00000000000000000000e+00) (0, 0, 0.00000000000000000000e+00) (0, 0, 0.00000000000000000000e+00) (0, 0, 0.00000000000000000000e+00) (0, 0, 0.00000000000000000000e+00) (0, 0, 0.00000000000000000000e+00) (0, 0, 0.00000000000000000000e+00) (0, 0, 0.00000000000000000000e+00) (0, 0, 0.00000000000000000000e+00) (0, 0, 0.00000000000000000000e+00) (0, 0, 0.00000000000000000000e+00) (0, 0, 0.00000000000000000000e+00) (0, 0, 0.00000000000000000000e+00) (0, 0, 0.00000000000000000000e+00) (0, 0, 0.00000000000000000000e+00) (0, 0, 0.00000000000000000000e+00) (0, 0, 0.00000000000000000000e+00) (0, 0, 0.00000000000000000000e+00) (0, 0, 0.00000000000000000000e+00) (0, 0, 0.00000000000000000000e+00) (0, 0, 0.00000000000000000000e+00) (0, 0, 0.00000000000000000000e+00) (0, 0, 0.00000000000000000000e+00) (0, 0, 0.00000000000000000000e+00) (0, 0, 0.00000000000000000000e+00) (0, 0, 0.00000000000000000000e+00) (0, 0, 0.00000000000000000000e+00) (0, 0, 0.00000000000000000000e+00) (0, 0, 0.00000000000000000000e+00) (0, 0, 0.00000000000000000000e+00) (0, 0, 0.00000000000000000000e+00) (0, 0, 0.00000000000000000000e+00) (0, 0, 0.00000000000000000000e+00) (0, 0, 0.00000000000000000000e+00) (0, 0, 0.00000000000000000000e+00) (0, 0, 0.00000000000000000000e+00) (0, 0, 0.00000000000000000000e+00) (0, 0, 0.00000000000000000000e+00) (0, 0, 0.00000000000000000000e+00) (0, 0, 0.00000000000000000000e+00) (0, 0, 0.00000000000000000000e+00) (0, 0, 0.00000000000000000000e+00) (0, 0, 0.00000000000000000000e+00) (0, 0, 0.00000000000000000000e+00) (0, 0, 0.00000000000000000000e+00) (0, 0, 0.00000000000000000000e+00) (0, 0, 0.00000000000000000000e+00) (0, 0, 0.00000000000000000000e+00) (0, 0, 0.00000000000000000000e+00) (0, 0, 0.00000000000000000000e+00) (0, 0, 0.00000000000000000000e+00) (0, 0, 0.00000000000000000000e+00) (0, 0, 0.00000000000000000000e+00) (0, 0, 0.00000000000000000000e+00) (0, 0, 0.00000000000000000000e+00) (0, 0, 0.00000000000000000000e+00) (0, 0, 0.00000000000000000000e+00) (0, 0, 0.00000000000000000000e+00) (0, 0, 0.00000000000000000000e+00) (0, 0, 0.00000000000000000000e+00) (0, 0, 0.00000000000000000000e+00) (0, 0, 0.00000000000000000000e+00) (0, 0, 0.00000000000000000000e+00) (0, 0, 0.00000000000000000000e+00) (0, 0, 0.00000000000000000000e+00) (0, 0, 0.00000000000000000000e+00) (0, 0, 0.00000000000000000000e+00) (0, 0, 0.00000000000000000000e+00) (0, 0, 0.00000000000000000000e+00) (0, 0, 0.00000000000000000000e+00) (0, 0, 0.00000000000000000000e+00) (0, 0, 0.00000000000000000000e+00) (0, 0, 0.00000000000000000000e+00) (0, 0, 0.00000000000000000000e+00) (0, 0, 0.00000000000000000000e+00) (0, 0, 0.00000000000000000000e+00) (0, 0, 0.00000000000000000000e+00) (0, 0, 0.00000000000000000000e+00) (0, 0, 0.00000000000000000000e+00) (0, 0, 0.00000000000000000000e+00) (0, 0, 0.00000000000000000000e+00) (0, 0, 0.00000000000000000000e+00) (0, 0, 0.00000000000000000000e+00) (0, 0, 0.00000000000000000000e+00) (0, 0, 0.00000000000000000000e+00) (0, 0, 0.00000000000000000000e+00) (0, 0, 0.00000000000000000000e+00) (0, 0, 0.00000000000000000000e+00) (0, 0, 0.00000000000000000000e+00) (0, 0, 0.00000000000000000000e+00) (0, 0, 0.00000000000000000000e+00) (0, 0, 0.00000000000000000000e+00) (0, 0, 0.00000000000000000000e+00) (0, 0, 0.00000000000000000000e+00) (0, 0, 0.00000000000000000000e+00) (0, 0, 0.00000000000000000000e+00) (0, 0, 0.00000000000000000000e+00) (0, 0, 0.00000000000000000000e+00) (0, 0, 0.00000000000000000000e+00) (0, 0, 0.00000000000000000000e+00) (0, 0, 0.00000000000000000000e+00) (0, 0, 0.00000000000000000000e+00) (0, 0, 0.00000000000000000000e+00) (0, 0, 0.00000000000000000000e+00) (0, 0, 0.00000000000000000000e+00) (0, 0, 0.00000000000000000000e+00) (0, 0, 0.00000000000000000000e+00) (0, 0, 0.00000000000000000000e+00) (0, 0, 0.00000000000000000000e+00) (0, 0, 0.00000000000000000000e+00) (0, 0, 0.00000000000000000000e+00) (0, 0, 0.00000000000000000000e+00) (0, 0, 0.00000000000000000000e+00) (0, 0, 0.00000000000000000000e+00) (0, 0, 0.00000000000000000000e+00) (0, 0, 0.00000000000000000000e+00) (0, 0, 0.00000000000000000000e+00) (0, 0, 0.00000000000000000000e+00) (0, 0, 0.00000000000000000000e+00) (0, 0, 0.00000000000000000000e+00) (0, 0, 0.00000000000000000000e+00) (0, 0, 0.00000000000000000000e+00) (0, 0, 0.00000000000000000000e+00) (0, 0, 0.00000000000000000000e+00) (0, 0, 0.00000000000000000000e+00) (0, 0, 0.00000000000000000000e+00) (0, 0, 0.00000000000000000000e+00) (0, 0, 0.00000000000000000000e+00) (0, 0, 0.00000000000000000000e+00) (0, 0, 0.00000000000000000000e+00) (0, 0, 0.00000000000000000000e+00) (0, 0, 0.00000000000000000000e+00) (0, 0, 0.00000000000000000000e+00) (0, 0, 0.00000000000000000000e+00) (0, 0, 0.00000000000000000000e+00) (0, 0, 0.00000000000000000000e+00) (0, 0, 0.00000000000000000000e+00) (0, 0, 0.00000000000000000000e+00) (0, 0, 0.00000000000000000000e+00) (0, 0, 0.00000000000000000000e+00) (0, 0, 0.00000000000000000000e+00) (0, 0, 0.00000000000000000000e+00) (0, 0, 0.00000000000000000000e+00) (0, 0, 0.00000000000000000000e+00) (0, 0, 0.00000000000000000000e+00) (0, 0, 0.00000000000000000000e+00) (0, 0, 0.00000000000000000000e+00) (0, 0, 0.00000000000000000000e+00) (0, 0, 0.00000000000000000000e+00) (0, 0, 0.00000000000000000000e+00) (0, 0, 0.00000000000000000000e+00) (0, 0, 0.00000000000000000000e+00) (0, 0, 0.00000000000000000000e+00) (0, 0, 0.00000000000000000000e+00) (0, 0, 0.00000000000000000000e+00) (0, 0, 0.00000000000000000000e+00) (0, 0, 0.00000000000000000000e+00) (0, 0, 0.00000000000000000000e+00) (0, 0, 0.00000000000000000000e+00) (0, 0, 0.00000000000000000000e+00) (0, 0, 0.00000000000000000000e+00) (0, 0, 0.00000000000000000000e+00) (0, 0, 0.00000000000000000000e+00) (0, 0, 0.00000000000000000000e+00) (0, 0, 0.00000000000000000000e+00) (0, 0, 0.00000000000000000000e+00) (0, 0, 0.00000000000000000000e+00) (0, 0, 0.00000000000000000000e+00) (0, 0, 0.00000000000000000000e+00) (0, 0, 0.00000000000000000000e+00) (0, 0, 0.00000000000000000000e+00) (0, 0, 0.00000000000000000000e+00) (0, 0, 0.00000000000000000000e+00) (0, 0, 0.00000000000000000000e+00) (0, 0, 0.00000000000000000000e+00) (0, 0, 0.00000000000000000000e+00) (0, 0, 0.00000000000000000000e+00) (0, 0, 0.00000000000000000000e+00) (0, 0, 0.00000000000000000000e+00) (0, 0, 0.00000000000000000000e+00) (0, 0, 0.00000000000000000000e+00) (0, 0, 0.00000000000000000000e+00) (0, 0, 0.00000000000000000000e+00) (0, 0, 0.00000000000000000000e+00) (0, 0, 0.00000000000000000000e+00) (0, 0, 0.00000000000000000000e+00) (0, 0, 0.00000000000000000000e+00) (0, 0, 0.00000000000000000000e+00) (0, 0, 0.00000000000000000000e+00) (0, 0, 0.00000000000000000000e+00) (0, 0, 0.00000000000000000000e+00) (0, 0, 0.00000000000000000000e+00) (0, 0, 0.00000000000000000000e+00) (0, 0, 0.00000000000000000000e+00) (0, 0, 0.00000000000000000000e+00) (0, 0, 0.00000000000000000000e+00) (0, 0, 0.00000000000000000000e+00) (0, 0, 0.00000000000000000000e+00) (0, 0, 0.00000000000000000000e+00) (0, 0, 0.00000000000000000000e+00) (0, 0, 0.00000000000000000000e+00) (0, 0, 0.00000000000000000000e+00) (0, 0, 0.00000000000000000000e+00) (0, 0, 0.00000000000000000000e+00) (0, 0, 0.00000000000000000000e+00) (0, 0, 0.00000000000000000000e+00) (0, 0, 0.00000000000000000000e+00) (0, 0, 0.00000000000000000000e+00) (0, 0, 0.00000000000000000000e+00) (0, 0, 0.00000000000000000000e+00) (0, 0, 0.00000000000000000000e+00) (0, 0, 0.00000000000000000000e+00) (0, 0, 0.00000000000000000000e+00) (0, 0, 0.00000000000000000000e+00) (0, 0, 0.00000000000000000000e+00) (0, 0, 0.00000000000000000000e+00) (0, 0, 0.00000000000000000000e+00) (0, 0, 0.00000000000000000000e+00) (0, 0, 0.00000000000000000000e+00) (0, 0, 0.00000000000000000000e+00) (0, 0, 0.00000000000000000000e+00) (0, 0, 0.00000000000000000000e+00) (0, 0, 0.00000000000000000000e+00) (0, 0, 0.00000000000000000000e+00) (0, 0, 0.00000000000000000000e+00) (0, 0, 0.00000000000000000000e+00) (0, 0, 0.00000000000000000000e+00) (0, 0, 0.00000000000000000000e+00) (0, 0, 0.00000000000000000000e+00) (0, 0, 0.00000000000000000000e+00) (0, 0, 0.00000000000000000000e+00) (0, 0, 0.00000000000000000000e+00) (0, 0, 0.00000000000000000000e+00) (0, 0, 0.00000000000000000000e+00) (0, 0, 0.00000000000000000000e+00) (0, 0, 0.00000000000000000000e+00) (0, 0, 0.00000000000000000000e+00) (0, 0, 0.00000000000000000000e+00) (0, 0, 0.00000000000000000000e+00) (0, 0, 0.00000000000000000000e+00) (0, 0, 0.00000000000000000000e+00) (0, 0, 0.00000000000000000000e+00) (0, 0, 0.00000000000000000000e+00) (0, 0, 0.00000000000000000000e+00) (0, 0, 0.00000000000000000000e+00) (0, 0, 0.00000000000000000000e+00) (0, 0, 0.00000000000000000000e+00) (0, 0, 0.00000000000000000000e+00) (0, 0, 0.00000000000000000000e+00) (0, 0, 0.00000000000000000000e+00) (0, 0, 0.00000000000000000000e+00) (0, 0, 0.00000000000000000000e+00) (0, 0, 0.00000000000000000000e+00) (0, 0, 0.00000000000000000000e+00) (0, 0, 0.00000000000000000000e+00) (0, 0, 0.00000000000000000000e+00) (0, 0, 0.00000000000000000000e+00) (0, 0, 0.00000000000000000000e+00) (0, 0, 0.00000000000000000000e+00) (0, 0, 0.00000000000000000000e+00) (0, 0, 0.00000000000000000000e+00) (0, 0, 0.00000000000000000000e+00) (0, 0, 0.00000000000000000000e+00) (0, 0, 0.00000000000000000000e+00) (0, 0, 0.00000000000000000000e+00) (0, 0, 0.00000000000000000000e+00) (0, 0, 0.00000000000000000000e+00) (0, 0, 0.00000000000000000000e+00) (0, 0, 0.00000000000000000000e+00) (0, 0, 0.00000000000000000000e+00) (0, 0, 0.00000000000000000000e+00) (0, 0, 0.00000000000000000000e+00) (0, 0, 0.00000000000000000000e+00) (0, 0, 0.00000000000000000000e+00) (0, 0, 0.00000000000000000000e+00) (0, 0, 0.00000000000000000000e+00) (0, 0, 0.00000000000000000000e+00) (0, 0, 0.00000000000000000000e+00) (0, 0, 0.00000000000000000000e+00) (0, 0, 0.00000000000000000000e+00) (0, 0, 0.00000000000000000000e+00) (0, 0, 0.00000000000000000000e+00) (0, 0, 0.00000000000000000000e+00) (0, 0, 0.00000000000000000000e+00) (0, 0, 0.00000000000000000000e+00) (0, 0, 0.00000000000000000000e+00) (0, 0, 0.00000000000000000000e+00) (0, 0, 0.00000000000000000000e+00) (0, 0, 0.00000000000000000000e+00) (0, 0, 0.00000000000000000000e+00) (0, 0, 0.00000000000000000000e+00) (0, 0, 0.00000000000000000000e+00) (0, 0, 0.00000000000000000000e+00) (0, 0, 0.00000000000000000000e+00) (0, 0, 0.00000000000000000000e+00) (0, 0, 0.00000000000000000000e+00) (0, 0, 0.00000000000000000000e+00) (0, 0, 0.00000000000000000000e+00) (0, 0, 0.00000000000000000000e+00) (0, 0, 0.00000000000000000000e+00) (0, 0, 0.00000000000000000000e+00) (0, 0, 0.00000000000000000000e+00) (0, 0, 0.00000000000000000000e+00) (0, 0, 0.00000000000000000000e+00) (0, 0, 0.00000000000000000000e+00) (0, 0, 0.00000000000000000000e+00) (0, 0, 0.00000000000000000000e+00) (0, 0, 0.00000000000000000000e+00) (0, 0, 0.00000000000000000000e+00) (0, 0, 0.00000000000000000000e+00) (0, 0, 0.00000000000000000000e+00) (0, 0, 0.00000000000000000000e+00) (0, 0, 0.00000000000000000000e+00) (0, 0, 0.00000000000000000000e+00) (0, 0, 0.00000000000000000000e+00) (0, 0, 0.00000000000000000000e+00) (0, 0, 0.00000000000000000000e+00) (0, 0, 0.00000000000000000000e+00) (0, 0, 0.00000000000000000000e+00) (0, 0, 0.00000000000000000000e+00) (0, 0, 0.00000000000000000000e+00) (0, 0, 0.00000000000000000000e+00) (0, 0, 0.00000000000000000000e+00) (0, 0, 0.00000000000000000000e+00) (0, 0, 0.00000000000000000000e+00) (0, 0, 0.00000000000000000000e+00) (0, 0, 0.00000000000000000000e+00) (0, 0, 0.00000000000000000000e+00) (0, 0, 0.00000000000000000000e+00) (0, 0, 0.00000000000000000000e+00) (0, 0, 0.00000000000000000000e+00) (0, 0, 0.00000000000000000000e+00) (0, 0, 0.00000000000000000000e+00) (0, 0, 0.00000000000000000000e+00) (0, 0, 0.00000000000000000000e+00) (0, 0, 0.00000000000000000000e+00) (0, 0, 0.00000000000000000000e+00) (0, 0, 0.00000000000000000000e+00) (0, 0, 0.00000000000000000000e+00) (0, 0, 0.00000000000000000000e+00) (0, 0, 0.00000000000000000000e+00) (0, 0, 0.00000000000000000000e+00) (0, 0, 0.00000000000000000000e+00) (0, 0, 0.00000000000000000000e+00) (0, 0, 0.00000000000000000000e+00) (0, 0, 0.00000000000000000000e+00) (0, 0, 0.00000000000000000000e+00) (0, 0, 0.00000000000000000000e+00) (0, 0, 0.00000000000000000000e+00) (0, 0, 0.00000000000000000000e+00) (0, 0, 0.00000000000000000000e+00) (0, 0, 0.00000000000000000000e+00) (0, 0, 0.00000000000000000000e+00) (0, 0, 0.00000000000000000000e+00) (0, 0, 0.00000000000000000000e+00) (0, 0, 0.00000000000000000000e+00) (0, 0, 0.00000000000000000000e+00) (0, 0, 0.00000000000000000000e+00) (0, 0, 0.00000000000000000000e+00) (0, 0, 0.00000000000000000000e+00) (0, 0, 0.00000000000000000000e+00) (0, 0, 0.00000000000000000000e+00) (0, 0, 0.00000000000000000000e+00) (0, 0, 0.00000000000000000000e+00) (0, 0, 0.00000000000000000000e+00) (0, 0, 0.00000000000000000000e+00) (0, 0, 0.00000000000000000000e+00) (0, 0, 0.00000000000000000000e+00) (0, 0, 0.00000000000000000000e+00) (0, 0, 0.00000000000000000000e+00) (0, 0, 0.00000000000000000000e+00) (0, 0, 0.00000000000000000000e+00) (0, 0, 0.00000000000000000000e+00) (0, 0, 0.00000000000000000000e+00) (0, 0, 0.00000000000000000000e+00) (0, 0, 0.00000000000000000000e+00) (0, 0, 0.00000000000000000000e+00) (0, 0, 0.00000000000000000000e+00) (0, 0, 0.00000000000000000000e+00) (0, 0, 0.00000000000000000000e+00) (0, 0, 0.00000000000000000000e+00) (0, 0, 0.00000000000000000000e+00) (0, 0, 0.00000000000000000000e+00) (0, 0, 0.00000000000000000000e+00) (0, 0, 0.00000000000000000000e+00) (0, 0, 0.00000000000000000000e+00) (0, 0, 0.00000000000000000000e+00) (0, 0, 0.00000000000000000000e+00) (0, 0, 0.00000000000000000000e+00) (0, 0, 0.00000000000000000000e+00) (0, 0, 0.00000000000000000000e+00) (0, 0, 0.00000000000000000000e+00) (0, 0, 0.00000000000000000000e+00) (0, 0, 0.00000000000000000000e+00) (0, 0, 0.00000000000000000000e+00) (0, 0, 0.00000000000000000000e+00) (0, 0, 0.00000000000000000000e+00) (0, 0, 0.00000000000000000000e+00) (0, 0, 0.00000000000000000000e+00) (0, 0, 0.00000000000000000000e+00) (0, 0, 0.00000000000000000000e+00) (0, 0, 0.00000000000000000000e+00) (0, 0, 0.00000000000000000000e+00) (0, 0, 0.00000000000000000000e+00) (0, 0, 0.00000000000000000000e+00) (0, 0, 0.00000000000000000000e+00) (0, 0, 0.00000000000000000000e+00) (0, 0, 0.00000000000000000000e+00) (0, 0, 0.00000000000000000000e+00) (0, 0, 0.00000000000000000000e+00) (0, 0, 0.00000000000000000000e+00) (0, 0, 0.00000000000000000000e+00) (0, 0, 0.00000000000000000000e+00) (0, 0, 0.00000000000000000000e+00) (0, 0, 0.00000000000000000000e+00) (0, 0, 0.00000000000000000000e+00) (0, 0, 0.00000000000000000000e+00) (0, 0, 0.00000000000000000000e+00) (0, 0, 0.00000000000000000000e+00) (0, 0, 0.00000000000000000000e+00) (0, 0, 0.00000000000000000000e+00) (0, 0, 0.00000000000000000000e+00) (0, 0, 0.00000000000000000000e+00) (0, 0, 0.00000000000000000000e+00) (0, 0, 0.00000000000000000000e+00) (0, 0, 0.00000000000000000000e+00) (0, 0, 0.00000000000000000000e+00) (0, 0, 0.00000000000000000000e+00) (0, 0, 0.00000000000000000000e+00) (0, 0, 0.00000000000000000000e+00) (0, 0, 0.00000000000000000000e+00) (0, 0, 0.00000000000000000000e+00) (0, 0, 0.00000000000000000000e+00) (0, 0, 0.00000000000000000000e+00) (0, 0, 0.00000000000000000000e+00) (0, 0, 0.00000000000000000000e+00) (0, 0, 0.00000000000000000000e+00) (0, 0, 0.00000000000000000000e+00) (0, 0, 0.00000000000000000000e+00) (0, 0, 0.00000000000000000000e+00) (0, 0, 0.00000000000000000000e+00) (0, 0, 0.00000000000000000000e+00) (0, 0, 0.00000000000000000000e+00) (0, 0, 0.00000000000000000000e+00) (0, 0, 0.00000000000000000000e+00) (0, 0, 0.00000000000000000000e+00) (0, 0, 0.00000000000000000000e+00) (0, 0, 0.00000000000000000000e+00) (0, 0, 0.00000000000000000000e+00) (0, 0, 0.00000000000000000000e+00) (0, 0, 0.00000000000000000000e+00) (0, 0, 0.00000000000000000000e+00) (0, 0, 0.00000000000000000000e+00) (0, 0, 0.00000000000000000000e+00) (0, 0, 0.00000000000000000000e+00) (0, 0, 0.00000000000000000000e+00) (0, 0, 0.00000000000000000000e+00) (0, 0, 0.00000000000000000000e+00) (0, 0, 0.00000000000000000000e+00) (0, 0, 0.00000000000000000000e+00) (0, 0, 0.00000000000000000000e+00) (0, 0, 0.00000000000000000000e+00) (0, 0, 0.00000000000000000000e+00) (0, 0, 0.00000000000000000000e+00) (0, 0, 0.00000000000000000000e+00) (0, 0, 0.00000000000000000000e+00) (0, 0, 0.00000000000000000000e+00) (0, 0, 0.00000000000000000000e+00) (0, 0, 0.00000000000000000000e+00) (0, 0, 0.00000000000000000000e+00) (0, 0, 0.00000000000000000000e+00) (0, 0, 0.00000000000000000000e+00) (0, 0, 0.00000000000000000000e+00) (0, 0, 0.00000000000000000000e+00) (0, 0, 0.00000000000000000000e+00) (0, 0, 0.00000000000000000000e+00) (0, 0, 0.00000000000000000000e+00) (0, 0, 0.00000000000000000000e+00) (0, 0, 0.00000000000000000000e+00) (0, 0, 0.00000000000000000000e+00) (0, 0, 0.00000000000000000000e+00) (0, 0, 0.00000000000000000000e+00) (0, 0, 0.00000000000000000000e+00) (0, 0, 0.00000000000000000000e+00) (0, 0, 0.00000000000000000000e+00) (0, 0, 0.00000000000000000000e+00) (0, 0, 0.00000000000000000000e+00) (0, 0, 0.00000000000000000000e+00) (0, 0, 0.00000000000000000000e+00) (0, 0, 0.00000000000000000000e+00) (0, 0, 0.00000000000000000000e+00) (0, 0, 0.00000000000000000000e+00) (0, 0, 0.00000000000000000000e+00) (0, 0, 0.00000000000000000000e+00) (0, 0, 0.00000000000000000000e+00) (0, 0, 0.00000000000000000000e+00) (0, 0, 0.00000000000000000000e+00) (0, 0, 0.00000000000000000000e+00) (0, 0, 0.00000000000000000000e+00) (0, 0, 0.00000000000000000000e+00) (0, 0, 0.00000000000000000000e+00) (0, 0, 0.00000000000000000000e+00) (0, 0, 0.00000000000000000000e+00) (0, 0, 0.00000000000000000000e+00) (0, 0, 0.00000000000000000000e+00) (0, 0, 0.00000000000000000000e+00) (0, 0, 0.00000000000000000000e+00) (0, 0, 0.00000000000000000000e+00) (0, 0, 0.00000000000000000000e+00) (0, 0, 0.00000000000000000000e+00) (0, 0, 0.00000000000000000000e+00) (0, 0, 0.00000000000000000000e+00) (0, 0, 0.00000000000000000000e+00) (0, 0, 0.00000000000000000000e+00) (0, 0, 0.00000000000000000000e+00) (0, 0, 0.00000000000000000000e+00) (0, 0, 0.00000000000000000000e+00) (0, 0, 0.00000000000000000000e+00) (0, 0, 0.00000000000000000000e+00) (0, 0, 0.00000000000000000000e+00) (0, 0, 0.00000000000000000000e+00) (0, 0, 0.00000000000000000000e+00) (0, 0, 0.00000000000000000000e+00) (0, 0, 0.00000000000000000000e+00) (0, 0, 0.00000000000000000000e+00) (0, 0, 0.00000000000000000000e+00) (0, 0, 0.00000000000000000000e+00) (0, 0, 0.00000000000000000000e+00) (0, 0, 0.00000000000000000000e+00) (0, 0, 0.00000000000000000000e+00) (0, 0, 0.00000000000000000000e+00) (0, 0, 0.00000000000000000000e+00) (0, 0, 0.00000000000000000000e+00) (0, 0, 0.00000000000000000000e+00) (0, 0, 0.00000000000000000000e+00) (0, 0, 0.00000000000000000000e+00) (0, 0, 0.00000000000000000000e+00) (0, 0, 0.00000000000000000000e+00) (0, 0, 0.00000000000000000000e+00) (0, 0, 0.00000000000000000000e+00) (0, 0, 0.00000000000000000000e+00) (0, 0, 0.00000000000000000000e+00) (0, 0, 0.00000000000000000000e+00) (0, 0, 0.00000000000000000000e+00) (0, 0, 0.00000000000000000000e+00) (0, 0, 0.00000000000000000000e+00) (0, 0, 0.00000000000000000000e+00) (0, 0, 0.00000000000000000000e+00) (0, 0, 0.00000000000000000000e+00) (0, 0, 0.00000000000000000000e+00) (0, 0, 0.00000000000000000000e+00) (0, 0, 0.00000000000000000000e+00) (0, 0, 0.00000000000000000000e+00) (0, 0, 0.00000000000000000000e+00) (0, 0, 0.00000000000000000000e+00) (0, 0, 0.00000000000000000000e+00) (0, 0, 0.00000000000000000000e+00) (0, 0, 0.00000000000000000000e+00) (0, 0, 0.00000000000000000000e+00) (0, 0, 0.00000000000000000000e+00) (0, 0, 0.00000000000000000000e+00) (0, 0, 0.00000000000000000000e+00) (0, 0, 0.00000000000000000000e+00) (0, 0, 0.00000000000000000000e+00) (0, 0, 0.00000000000000000000e+00) (0, 0, 0.00000000000000000000e+00) (0, 0, 0.00000000000000000000e+00) (0, 0, 0.00000000000000000000e+00) (0, 0, 0.00000000000000000000e+00) (0, 0, 0.00000000000000000000e+00) (0, 0, 0.00000000000000000000e+00) (0, 0, 0.00000000000000000000e+00) (0, 0, 0.00000000000000000000e+00) (0, 0, 0.00000000000000000000e+00) (0, 0, 0.00000000000000000000e+00) (0, 0, 0.00000000000000000000e+00) (0, 0, 0.00000000000000000000e+00) (0, 0, 0.00000000000000000000e+00) (0, 0, 0.00000000000000000000e+00) (0, 0, 0.00000000000000000000e+00) (0, 0, 0.00000000000000000000e+00) (0, 0, 0.00000000000000000000e+00) (0, 0, 0.00000000000000000000e+00) (0, 0, 0.00000000000000000000e+00) (0, 0, 0.00000000000000000000e+00) (0, 0, 0.00000000000000000000e+00) (0, 0, 0.00000000000000000000e+00) (0, 0, 0.00000000000000000000e+00) (0, 0, 0.00000000000000000000e+00) (0, 0, 0.00000000000000000000e+00) (0, 0, 0.00000000000000000000e+00) (0, 0, 0.00000000000000000000e+00) (0, 0, 0.00000000000000000000e+00) (0, 0, 0.00000000000000000000e+00) (0, 0, 0.00000000000000000000e+00) (0, 0, 0.00000000000000000000e+00) (0, 0, 0.00000000000000000000e+00) (0, 0, 0.00000000000000000000e+00) (0, 0, 0.00000000000000000000e+00) (0, 0, 0.00000000000000000000e+00) (0, 0, 0.00000000000000000000e+00) (0, 0, 0.00000000000000000000e+00) (0, 0, 0.00000000000000000000e+00) (0, 0, 0.00000000000000000000e+00) (0, 0, 0.00000000000000000000e+00) (0, 0, 0.00000000000000000000e+00) (0, 0, 0.00000000000000000000e+00) (0, 0, 0.00000000000000000000e+00) (0, 0, 0.00000000000000000000e+00) (0, 0, 0.00000000000000000000e+00) (0, 0, 0.00000000000000000000e+00) (0, 0, 0.00000000000000000000e+00) (0, 0, 0.00000000000000000000e+00) (0, 0, 0.00000000000000000000e+00) (0, 0, 0.00000000000000000000e+00) (0, 0, 0.00000000000000000000e+00) (0, 0, 0.00000000000000000000e+00) (0, 0, 0.00000000000000000000e+00) (0, 0, 0.00000000000000000000e+00) (0, 0, 0.00000000000000000000e+00) (0, 0, 0.00000000000000000000e+00) (0, 0, 0.00000000000000000000e+00) (0, 0, 0.00000000000000000000e+00) (0, 0, 0.00000000000000000000e+00) (0, 0, 0.00000000000000000000e+00) (0, 0, 0.00000000000000000000e+00) (0, 0, 0.00000000000000000000e+00) (0, 0, 0.00000000000000000000e+00) (0, 0, 0.00000000000000000000e+00) (0, 0, 0.00000000000000000000e+00) (0, 0, 0.00000000000000000000e+00) (0, 0, 0.00000000000000000000e+00) (0, 0, 0.00000000000000000000e+00) (0, 0, 0.00000000000000000000e+00) (0, 0, 0.00000000000000000000e+00) (0, 0, 0.00000000000000000000e+00) (0, 0, 0.00000000000000000000e+00) (0, 0, 0.00000000000000000000e+00) (0, 0, 0.00000000000000000000e+00) (0, 0, 0.00000000000000000000e+00) (0, 0, 0.00000000000000000000e+00) (0, 0, 0.00000000000000000000e+00) (0, 0, 0.00000000000000000000e+00) (0, 0, 0.00000000000000000000e+00) (0, 0, 0.00000000000000000000e+00) (0, 0, 0.00000000000000000000e+00) (0, 0, 0.00000000000000000000e+00) (0, 0, 0.00000000000000000000e+00) (0, 0, 0.00000000000000000000e+00) (0, 0, 0.00000000000000000000e+00) (0, 0, 0.00000000000000000000e+00) (0, 0, 0.00000000000000000000e+00) (0, 0, 0.00000000000000000000e+00) (0, 0, 0.00000000000000000000e+00) (0, 0, 0.00000000000000000000e+00) (785, 4, 5.00000000000000000000e-01) (785, 4, 5.00000000000000000000e-01) (785, 4, 5.00000000000000000000e-01) (785, 4, 5.00000000000000000000e-01) (785, 4, 5.00000000000000000000e-01) (785, 4, 5.00000000000000000000e-01) (785, 4, 5.00000000000000000000e-01) (785, 4, 5.00000000000000000000e-01) (785, 4, 5.00000000000000000000e-01) (785, 4, 5.00000000000000000000e-01) (785, 4, 5.00000000000000000000e-01) (785, 4, 5.00000000000000000000e-01) (785, 4, 5.00000000000000000000e-01) (785, 4, 5.00000000000000000000e-01) (785, 4, 5.00000000000000000000e-01) (785, 4, 5.00000000000000000000e-01) (785, 4, 5.00000000000000000000e-01) (785, 4, 5.00000000000000000000e-01) (785, 4, 5.00000000000000000000e-01) (785, 4, 5.00000000000000000000e-01) (785, 4, 5.00000000000000000000e-01) (785, 4, 5.00000000000000000000e-01) (785, 4, 5.00000000000000000000e-01) (785, 4, 5.00000000000000000000e-01) (785, 4, 5.00000000000000000000e-01) (785, 4, 5.00000000000000000000e-01) (785, 4, 5.00000000000000000000e-01) (785, 4, 5.00000000000000000000e-01) (785, 4, 5.00000000000000000000e-01) (785, 4, 5.00000000000000000000e-01) (785, 4, 5.00000000000000000000e-01) (785, 4, 5.00000000000000000000e-01) (785, 4, 5.00000000000000000000e-01) (785, 4, 5.00000000000000000000e-01) (785, 4, 5.00000000000000000000e-01) (785, 4, 5.00000000000000000000e-01) (785, 4, 5.00000000000000000000e-01) (785, 4, 5.00000000000000000000e-01) (785, 4, 5.00000000000000000000e-01) (785, 4, 5.00000000000000000000e-01) (785, 4, 5.00000000000000000000e-01) (785, 4, 5.00000000000000000000e-01) (785, 4, 5.00000000000000000000e-01) (785, 4, 5.00000000000000000000e-01) (785, 4, 5.00000000000000000000e-01) (785, 4, 5.00000000000000000000e-01) (785, 4, 5.00000000000000000000e-01) (785, 4, 5.00000000000000000000e-01) (785, 4, 5.00000000000000000000e-01) (785, 4, 5.00000000000000000000e-01) (785, 4, 5.00000000000000000000e-01) (785, 4, 5.00000000000000000000e-01) (785, 4, 5.00000000000000000000e-01) (785, 4, 5.00000000000000000000e-01) (785, 4, 5.00000000000000000000e-01) (785, 4, 5.00000000000000000000e-01) (785, 4, 5.00000000000000000000e-01) (785, 4, 5.00000000000000000000e-01) (785, 4, 5.00000000000000000000e-01) (785, 4, 5.00000000000000000000e-01) (785, 4, 5.00000000000000000000e-01) (785, 4, 5.00000000000000000000e-01) (785, 4, 5.00000000000000000000e-01) (785, 4, 5.00000000000000000000e-01) (785, 4, 5.00000000000000000000e-01) (785, 4, 5.00000000000000000000e-01) (785, 4, 5.00000000000000000000e-01) (785, 4, 5.00000000000000000000e-01) (785, 4, 5.00000000000000000000e-01) (785, 4, 5.00000000000000000000e-01) (785, 4, 5.00000000000000000000e-01) (785, 4, 5.00000000000000000000e-01) (785, 4, 5.00000000000000000000e-01) (785, 4, 5.00000000000000000000e-01) (785, 4, 5.00000000000000000000e-01) (785, 4, 5.00000000000000000000e-01) (785, 4, 5.00000000000000000000e-01) (785, 4, 5.00000000000000000000e-01) (785, 4, 5.00000000000000000000e-01) (785, 4, 5.00000000000000000000e-01) (785, 4, 5.00000000000000000000e-01) (785, 4, 5.00000000000000000000e-01) (785, 4, 5.00000000000000000000e-01) (785, 4, 5.00000000000000000000e-01) (785, 4, 5.00000000000000000000e-01) (785, 4, 5.00000000000000000000e-01) (785, 4, 5.00000000000000000000e-01) (785, 4, 5.00000000000000000000e-01) (785, 4, 5.00000000000000000000e-01) (785, 4, 5.00000000000000000000e-01) (785, 4, 5.00000000000000000000e-01) (785, 4, 5.00000000000000000000e-01) (785, 4, 5.00000000000000000000e-01) (785, 4, 5.00000000000000000000e-01) (785, 4, 5.00000000000000000000e-01) (785, 4, 5.00000000000000000000e-01) (785, 4, 5.00000000000000000000e-01) (785, 4, 5.00000000000000000000e-01) (785, 4, 5.00000000000000000000e-01) (785, 4, 5.00000000000000000000e-01) (0, 0, 0.00000000000000000000e+00) (101, 5, 5.00000000000000000000e-01) (0, 5, 0.00000000000000000000e+00) 
connections (connected_to_neuron, weight)=(0, -3.35237699342586514817e-02) (1, -9.35902314973691001887e-02) (2, -5.06063717199184345819e-02) (3, 4.91321143912456723135e-02) (4, 6.12579641150615902823e-02) (5, -4.47779687834598469354e-02) (6, -7.79969001901963249201e-02) (7, -1.06673458476147911544e-01) (8, -1.21034266312203667160e-01) (9, 2.45719609069011482583e-02) (10, -9.02964639259198204035e-02) (11, -4.34954639204522281598e-03) (12, 5.88487443732403012198e-02) (13, -5.78055771780826496697e-02) (14, -9.72068625284054632640e-02) (15, 5.73306736754558773916e-02) (16, 7.02552256392619395298e-02) (17, 3.91909984158657284659e-02) (18, 5.09360787676952572745e-02) (19, -8.90133212102273002619e-02) (20, -3.39426788283206937180e-02) (21, -4.67483269763805317498e-02) (22, 7.09578749941966319126e-02) (23, -2.01332363081791337889e-02) (24, 5.59247110358694968224e-03) (25, 4.32227012919567318838e-02) (26, -6.03287833524562763787e-02) (27, -7.87015500260212913508e-02) (28, 4.26229295539043637198e-02) (29, -8.42369514299252525324e-02) (30, -6.59126218088647644611e-03) (31, -6.42938109827854986644e-02) (32, -5.12201356483318256951e-02) (33, 6.94094208287379527134e-02) (34, -8.85546634686806694026e-02) (35, -6.33551346851208146971e-02) (36, -4.87615111065723347283e-02) (37, -3.99445238304950642205e-02) (38, -4.34215533328868794061e-02) (39, -4.31311450398303916631e-02) (40, -8.94927298616746136339e-02) (41, -7.05337742928048832408e-03) (42, -1.20931254584870598312e-01) (43, -1.03780144885335240401e-01) (44, 6.12200851885936758734e-02) (45, -9.20014847667553897770e-02) (46, -1.20156826941952982191e-01) (47, 5.66816384237594367290e-02) (48, -1.26203449502740122634e-01) (49, 5.77006991355083695416e-02) (50, -1.04323940411362919845e-01) (51, -3.30686884713985440598e-02) (52, -6.19702058626033502886e-02) (53, -1.06288628537736198898e-01) (54, -1.26594887931428201622e-01) (55, 7.02293125199458384555e-02) (56, 6.35411051320216441196e-02) (57, -6.03166314555026936151e-02) (58, -8.18652006579258934016e-02) (59, 3.27710715340755742719e-02) (60, -1.79465430570461687010e-02) (61, 3.81505844401500912588e-02) (62, -1.04915702600560462043e-01) (63, 5.74403462218425961416e-02) (64, 3.41670272158764096182e-02) (65, -2.54499582089058318246e-01) (66, -2.68030301783608759791e-01) (67, -2.77180412143468279940e-01) (68, -3.86270650190251252365e-01) (69, -4.02857625255481965887e-01) (70, -4.20689321088347500943e-01) (71, -3.47253413552340073345e-01) (72, -4.82292198427239748870e-01) (73, -4.16025318155370749107e-01) (74, -5.35182184505020530629e-01) (75, -5.04448830115352797598e-01) (76, -3.69483426995793728942e-01) (77, -3.00549560342358856868e-01) (78, -2.91891441796349848659e-01) (79, 3.54998766360587747482e-02) (80, 7.29511288212916636509e-02) (81, -8.04153810036995903010e-02) (82, -6.94050694597580924983e-02) (83, -6.24120401931621271441e-02) (84, -6.00969659877635883904e-02) (85, -6.93929175628045097346e-02) (86, -6.55756908250668540949e-02) (87, -6.99488240075924888606e-02) (88, -3.10250546463510011932e-03) (89, -2.13042516858913816291e-02) (90, -1.11355523138032236341e-01) (91, -9.39140116411068814894e-02) (92, -5.63066303880550358962e-02) (93, -9.09808914281065167495e-02) (94, -3.00878328614682555298e-01) (95, -2.70923318609732899365e-01) (96, -1.60906887121723241041e-01) (97, -4.24374773362757640172e-01) (98, -4.51488504690274239373e-01) (99, -5.10424345762164777263e-01) (100, -3.62938961650424996019e-01) (101, -3.70417388756674237360e-01) (102, -1.03514579063781386736e+00) (103, -1.22247243991079379555e+00) (104, -1.30090760995862697591e+00) (105, -8.74507573077303868025e-01) (106, -2.40045281881890254505e-01) (107, -4.62428930319481318323e-02) (108, -7.80277570444757734291e-02) (109, -2.09131407333233293455e-02) (110, -8.09481647463181491764e-02) (111, -7.65984783662179008479e-02) (112, 2.52785143660686287270e-02) (113, -2.32757943464138444822e-02) (114, -1.24034750057079624919e-02) (115, -1.08211414773545525070e-01) (116, 3.39383390950344296377e-02) (117, 4.86278739976070614737e-02) (118, -5.10251989203311870358e-02) (119, -4.23435369704105238342e-02) (120, -4.61437408614017371966e-02) (121, -6.51992101202889234174e-03) (122, 2.93112686031239029483e-02) (123, 1.13742142629130876808e-01) (124, 9.39724125320494790836e-02) (125, 5.85662853786499681963e-02) (126, -2.41780370954754672552e-02) (127, 3.23508453889615466004e-01) (128, 4.30014499070215994170e-01) (129, -6.84984007426711616340e-01) (130, -7.65671926456808038530e-01) (131, -1.01735122089435781056e+00) (132, -2.35274476290848477689e+00) (133, -2.70489158878365054672e-01) (134, -1.76313660994697196660e-01) (135, 3.27390011045113893395e-02) (136, 7.09859765244939908829e-03) (137, -9.91036198910257709604e-03) (138, -7.97347555650094047541e-02) (139, 5.78057972001217099112e-02) (140, -1.04744465906701361702e-01) (141, -3.36054730010845181809e-02) (142, -9.21856480432370201106e-02) (143, 4.71410957383297177237e-02) (144, 6.92553724496028227930e-02) (145, 2.17611167497775773172e-02) (146, 6.52799282140872072500e-02) (147, 3.25451433801906900301e-02) (148, 2.83928543745548753185e-02) (149, 1.50110541668118879777e-01) (150, 2.81313126708014782373e-01) (151, 2.59732434390150368486e-01) (152, 3.79941633492725305832e-01) (153, 3.64998323173488792293e-02) (154, 6.49829424726319104799e-01) (155, 4.85015711163023777175e-01) (156, 5.73814780653933764754e-01) (157, 3.72255268657250282249e-01) (158, -9.68364120231919867088e-02) (159, 2.20025452434798790557e-01) (160, 2.24039127360167955594e-01) (161, 2.27610656479257655871e-01) (162, -2.65795984254525927137e-02) (163, -9.24260194344702634694e-02) (164, -4.42254190879680583737e-02) (165, -1.59551782735416793069e-02) (166, -1.25450910885415295448e-01) (167, -1.10790984590134880539e-01) (168, -1.01080441732487952278e-01) (169, -7.85786191714623466487e-02) (170, -1.26378150541863687462e-01) (171, -7.86898640530922927061e-02) (172, 1.49509439629695716628e-02) (173, -9.14287661748745955625e-02) (174, -9.53259545322650558852e-02) (175, 7.22305383751710994300e-02) (176, 2.69956146174824218598e-01) (177, 1.96660437192407888674e-01) (178, 7.94066290360859849962e-01) (179, 4.88429692493516587337e-01) (180, -2.52452597419147117819e+00) (181, 2.95943049985886164066e-01) (182, 3.22582565537595566951e+00) (183, 1.92997225731547872307e-01) (184, 3.35063735656451033851e-01) (185, 5.25610126320920356680e-02) (186, 3.06745809798431079418e-01) (187, 3.78858908382883996513e-01) (188, 3.89489380335397927801e-01) (189, 4.76872015804572890740e-01) (190, 1.73457603867809090348e-01) (191, 3.11589208092858893639e-01) (192, -6.90538428004696391849e-02) (193, 1.80517001973560034522e-02) (194, -8.96500741678097762266e-02) (195, -2.19251530958034929197e-02) (196, -7.44123252821782127375e-02) (197, -8.90219452572682395930e-02) (198, -6.10909785755655090900e-03) (199, -4.83577197032787273190e-02) (200, -4.04655282932140300534e-02) (201, -3.80865535455437781084e-03) (202, 5.98150373646577984688e-02) (203, 1.49240143009393755325e-01) (204, 2.54789927487309830756e-01) (205, 4.18354928339153941952e-01) (206, 8.83167736510588552434e-01) (207, 1.22698167826223625276e+00) (208, 1.01623209443354278747e+00) (209, 3.87404494392539433534e-01) (210, 1.22074162055796575643e+00) (211, 7.91444473640093737465e-01) (212, 1.02160969272748336500e+00) (213, 2.95558964909613264282e+00) (214, 4.59565494941139540686e+00) (215, 1.64328960313438621199e+00) (216, 6.07155420507616616632e-01) (217, 9.34736343853319051611e-01) (218, 1.19605754508534278813e+00) (219, 4.80471489968900822287e-01) (220, -3.65040413412675568416e-02) (221, 9.68944446958807867332e-03) (222, -9.25386195617535628477e-02) (223, -5.98660426927425312615e-02) (224, -4.87677174402095722772e-02) (225, -5.66376539660312580682e-02) (226, 4.48158440398357602041e-02) (227, 3.95500458899954686343e-03) (228, -1.85245519119121987428e-02) (229, -3.26146637530872474109e-02) (230, -5.53695905075893765601e-02) (231, 1.09387039741126151915e-01) (232, 7.04990237350082427081e-02) (233, 2.05122973885911774605e-01) (234, 1.00798495038839544535e-01) (235, 4.57621024228131778600e-01) (236, 1.77711272617784166172e+00) (237, 2.10638482810879557050e+00) (238, 5.98746277590113562539e-01) (239, 9.90137205224065675147e-01) (240, 1.41185586507602023332e+00) (241, 2.57859459857525186166e+00) (242, 8.39266306032768483192e+00) (243, 4.65131289745514386880e+00) (244, 2.76777483009290348193e+00) (245, 1.52207995478954805080e+00) (246, 1.25614005610789569722e+00) (247, 6.88817743517115221863e-01) (248, 1.02141735201361952279e-01) (249, 6.40352233277728388749e-02) (250, 4.50032891503742496497e-02) (251, -1.20624335367760918136e-01) (252, -2.78420921095391682432e-03) (253, -1.22750224430642387863e-01) (254, -5.38833382321216511346e-02) (255, -1.24416882320008567731e-01) (256, -5.10048384748317887305e-02) (257, -7.32637507195369186430e-02) (258, 4.20346352201260015091e-02) (259, 6.14184077276480472340e-02) (260, 1.17430830981913331829e-02) (261, 1.20024176852587288744e-01) (262, 2.44083670257465690234e-01) (263, 1.55125556629457456159e-01) (264, 1.73423934364731935354e+00) (265, 9.74562436509260221484e-01) (266, 2.47353158697806080335e-01) (267, 4.12681491802340927322e-01) (268, 8.38434911356820022910e-01) (269, 2.56291901967715762822e+00) (270, 8.74118472521542599907e+00) (271, 2.93058227157410478014e+00) (272, 2.98514258601064197407e+00) (273, 4.03771250274608295427e+00) (274, 1.08908116458231440937e+00) (275, 5.19276294037847696572e-01) (276, -3.37806743926969688108e-02) (277, 5.87482470344647608740e-02) (278, -1.02721145583016662539e-01) (279, 6.16105106877467972870e-02) (280, 3.91470548915050717276e-02) (281, 6.63012919234416270298e-02) (282, 6.75932225989482188266e-02) (283, -3.65021174388744304440e-02) (284, 7.06861148041865589020e-02) (285, -5.74891404350826237812e-02) (286, -3.39420142367908433956e-02) (287, -5.95477911158870595876e-02) (288, -2.38658702256034456132e-03) (289, -9.69515178485436807110e-02) (290, -3.11030465406539509410e-02) (291, 3.83455226771169943589e-01) (292, 6.21232873114868322517e+00) (293, -1.49580489029489366315e-01) (294, 3.38491157364547046171e-01) (295, 1.32013522181200704253e+00) (296, -3.70914220930672278165e-01) (297, 3.15672558968272420898e+00) (298, 7.32723599945600234662e+00) (299, 3.09343408796091878799e+00) (300, 1.62326934979490822286e+00) (301, 7.93035012080444356997e-01) (302, 2.13063911550931239791e-01) (303, 3.12687137611036558571e-02) (304, -7.13677793677085781088e-02) (305, -4.27564543890849094177e-02) (306, 7.32427551375796626054e-02) (307, -5.55271821809627461053e-02) (308, -7.46473948253014579768e-02) (309, -1.05987245102010033126e-01) (310, -6.73096309197762504573e-02) (311, -1.08365306778512263119e-01) (312, -1.11773308817658664771e-01) (313, -7.31765789121964355113e-02) (314, -3.14597958318928380694e-02) (315, -1.60963140847365904218e-01) (316, -6.28013334947188361923e-02) (317, -2.20311732756092795715e-02) (318, -3.14885720742829333663e-01) (319, -4.42308084643396604019e-01) (320, -3.96323696341906916984e+00) (321, -5.73745577623633762343e-01) (322, 1.13471914460095121835e-01) (323, 1.17233666377261713798e+00) (324, 7.20865978640540583378e-01) (325, 8.39564006831797549069e+00) (326, 1.17319246172370732495e+01) (327, 1.88546391346138086931e+00) (328, 1.03050586801286248040e+00) (329, 5.88237474705820342913e-02) (330, 4.76660475851263323865e-02) (331, -6.92888367115906868982e-03) (332, 5.86684995531245659373e-02) (333, 7.81644583729994152366e-02) (334, -8.70158685507764068090e-02) (335, -1.00774804015240943000e-01) (336, -5.29624390197612690545e-02) (337, -9.36020779205182090754e-02) (338, -2.96949463678219255369e-02) (339, -2.50008383248531132134e-04) (340, -7.17495049922211580729e-02) (341, 2.84489496051138768262e-02) (342, -7.75280139282529326406e-03) (343, -3.43608231547303299980e-01) (344, -3.15028781868420038048e-01) (345, -1.24134013852874758310e-01) (346, -8.33738263077227537146e-01) (347, -7.03833142131088607130e+00) (348, -5.82571047569315947356e+00) (349, -6.80474048197287295636e-01) (350, 2.00452053993994155912e-01) (351, 5.20292735752278523442e-01) (352, 1.48098700523389736894e+00) (353, -1.14421464349136225991e+01) (354, 1.99222612399741483280e-01) (355, 2.25416606399798657989e+00) (356, 1.79144173787065486003e-01) (357, -8.25145599869417656347e-02) (358, -7.99216597550894913837e-01) (359, -1.15775851574334520677e+00) (360, -2.55426911319944105472e-01) (361, -1.13550535716206796311e-01) (362, -1.01183125897012032857e-01) (363, -6.80046806825020805354e-02) (364, -1.17848152179799339767e-01) (365, -6.67340065134385124201e-02) (366, -4.21724485946514057733e-02) (367, -4.34507843641979210614e-02) (368, -3.08885657530633093992e-02) (369, 5.33557356337852062289e-02) (370, -3.16959210436779326159e-01) (371, -4.30517303885653568329e-01) (372, -1.40162500083883256874e-01) (373, -1.54081673945175334772e+00) (374, -1.11578502827883463411e+00) (375, -6.29772843140909355242e+00) (376, -1.06172296188937620443e+00) (377, -1.28068133892205726632e-02) (378, 1.47267430547270483654e-01) (379, 7.26398101481868674334e-01) (380, 6.28921991805159591449e-02) (381, 1.75477606904359872964e+00) (382, 3.83727870407130577934e-01) (383, 2.09969459127701818524e-01) (384, 2.12426410703644534539e-02) (385, -5.66439511043638432852e-01) (386, -9.38046694260362245998e-01) (387, -3.71455958709374289839e+00) (388, -6.35110028943029925053e-01) (389, -1.03304958177430419863e-01) (390, -3.02707796531536572904e-02) (391, 2.37828235544957169480e-04) (392, -9.44587456775524969554e-02) (393, -5.90287323721429627033e-03) (394, 5.88401762055538388174e-02) (395, -8.56998543036797538752e-02) (396, 5.65121096002033293515e-02) (397, -5.93699479272047983547e-02) (398, -2.01656275194126460848e-01) (399, -6.23538544912587866520e-01) (400, -1.50073080076599557620e-01) (401, -1.54665071460262604219e+00) (402, -9.06650753241001194915e-01) (403, -4.34924354840817972701e+00) (404, 5.86201383998246824958e-02) (405, 3.88113190768594851221e+00) (406, 1.53182177278392850361e+00) (407, 1.79360164188879900315e-01) (408, 3.75891146954246802014e-01) (409, 3.89454884987518656914e+00) (410, 2.06485082037868217242e+00) (411, -1.37633344599255358354e-01) (412, -2.80534102142450614270e-01) (413, -8.89054708224339407252e-01) (414, -2.99152453650400351748e+00) (415, -1.34399826799338706351e+00) (416, -5.61133233899415495571e-01) (417, -1.93598998912403487405e-02) (418, 4.02206348555369467418e-04) (419, -4.40061184359409260369e-02) (420, 1.35428283683279994214e-03) (421, -1.05083489675603186653e-01) (422, -1.17161260802827141281e-01) (423, 3.40305844706676671740e-02) (424, 1.81626152621677146304e-02) (425, 9.46952523612875213255e-02) (426, -1.57858374683894797652e-01) (427, 1.98313164393790000717e-02) (428, -5.80500036541634623077e-02) (429, -1.63924157372596468463e+00) (430, 5.10505543956567275909e-02) (431, 5.60318177312406295876e-01) (432, 5.61099962884786851447e+00) (433, 7.44367587493822302491e+00) (434, 1.39569484997188630881e-01) (435, 3.76388159486804818599e-01) (436, 7.16207408908771880895e-01) (437, 1.85583888850289979722e+00) (438, 1.93188121293404790890e+00) (439, -4.91095555726139443298e-01) (440, -3.36804555286066231723e-01) (441, -6.95696193645834015662e-01) (442, -1.72334863374156266325e+00) (443, -1.10554882691677924811e+00) (444, -5.23347217695569244533e-01) (445, -6.18498308785983899605e-02) (446, -8.68667273052761979013e-02) (447, -7.73018168998578086848e-02) (448, 4.28094324874065609854e-02) (449, 3.75546273993633480948e-02) (450, 5.29909704200247702599e-03) (451, -2.87012477951862771119e-02) (452, 6.03721083871296207435e-02) (453, 4.22250532846923792851e-02) (454, 9.78668232973551460718e-02) (455, 1.57465060747468771352e-01) (456, 6.89198960095573492923e-02) (457, -1.41958451390710505002e+00) (458, -4.68461470525777690099e-01) (459, 2.15761758079278859190e-01) (460, 6.16904135890643079421e+00) (461, 1.27557046532880069556e+00) (462, 9.17752779770986570895e-01) (463, 1.75086923491993418089e+00) (464, 1.92698677681937091677e+01) (465, 5.07903513437470532921e+00) (466, -3.26300222997729261198e-01) (467, -2.02739597477650779211e+00) (468, -1.77038754524058083994e+00) (469, -3.12909006278370760423e-01) (470, -4.94163848469798772101e-01) (471, -4.14700385287506467780e-01) (472, -1.54465004628219743088e-01) (473, -8.85154069436619728162e-02) (474, -1.01660764051301269473e-01) (475, 4.73951903390072079580e-02) (476, -2.68740820480205949705e-02) (477, -6.45083392752030249095e-02) (478, -1.03299582262120520637e-01) (479, -5.69296275812007854245e-02) (480, -7.74072522906663895714e-02) (481, 2.26351727707885946872e-01) (482, 3.53353868297115736308e-01) (483, 1.74467980633001701340e-01) (484, -5.26426847026343486258e-02) (485, -6.17410248443717279976e-01) (486, -4.69569275731994295597e+00) (487, -4.16716825927976805555e-02) (488, 3.83104211606201872087e+00) (489, 1.07093878443365597697e+00) (490, 6.31275786409342742900e+00) (491, 2.08286633110114998146e+01) (492, 5.30438956225193614102e+00) (493, 1.10610662574579809991e+00) (494, -9.55070475750638192558e-01) (495, -2.07958696534120512922e+00) (496, -6.65351431327822373518e-01) (497, -4.00831700231745746699e-01) (498, -5.04371972863647322072e-01) (499, -4.84658062994131166867e-01) (500, -3.43123575274780281963e-02) (501, -2.29047451036999173690e-02) (502, 2.69212813846042460508e-02) (503, -8.82199535859444633479e-02) (504, 1.10150036620281048527e-02) (505, 4.92796656893871518057e-02) (506, -1.14217715222916862960e-01) (507, -8.87240564065793074766e-02) (508, -4.88755733551941989878e-02) (509, 1.31314826455148608852e-01) (510, 3.50455531084737925696e-01) (511, 1.66986245681320394363e-01) (512, 1.58264642110630848748e-01) (513, -8.65897739981101977058e-01) (514, -2.85769871584402501696e+00) (515, -4.06769087062173095859e+00) (516, -1.49277220365603513486e+00) (517, 2.68141642496671739337e+00) (518, 1.06458828429123952830e+00) (519, -2.61795513087906472904e+00) (520, -2.79633085836532124802e+00) (521, -4.40723770768857159297e-01) (522, -4.34821482139727244487e+00) (523, -2.05438018845230185860e+00) (524, -2.64350099820880859655e-03) (525, -2.29569755206256692626e-01) (526, 6.23807592921084216875e-02) (527, 2.25692176140916724025e-02) (528, -2.36495731825922157754e-02) (529, 3.36324326496265577080e-02) (530, -1.31337811785557090349e-02) (531, -1.70360374046184953611e-02) (532, -6.65464828503945365901e-02) (533, -6.14274012637950686533e-02) (534, 2.13510451125285896645e-02) (535, 7.16035494965693714020e-02) (536, 1.03879051676558697981e-01) (537, 3.62489649508978384329e-01) (538, 4.81250031941846845296e-01) (539, 2.54325732385561054105e-01) (540, 2.00321655364046030678e-01) (541, -4.08680566617833562759e+00) (542, -5.05371553733630474170e+00) (543, -8.11870581579410277584e+00) (544, -9.35474349640324653876e+00) (545, -1.72604101862020042901e+00) (546, -4.08042650802663109388e-01) (547, -9.93007593745074079727e-01) (548, -7.31557237854271735777e-01) (549, -4.98225905927516254934e+00) (550, -2.20806426433899316564e+00) (551, -6.46893096679703183405e-01) (552, 4.46099252620408160547e-03) (553, 7.38369159053153395478e-02) (554, 1.14097971359790328894e-01) (555, -1.30571574277559242228e-02) (556, 3.10800256322766831063e-02) (557, -9.43282788052418469382e-02) (558, 5.35806812468985621534e-03) (559, -1.24234574628689121989e-02) (560, 6.33766708182475352329e-02) (561, -8.22246799958565727229e-02) (562, -1.02852450568757330940e-01) (563, -7.60347714262822188536e-02) (564, 2.67467198582632507964e-02) (565, 3.73315919656528438786e-01) (566, 5.87889244054414894514e-01) (567, 5.77247765747463947861e-01) (568, 5.93628941063430559666e-01) (569, -1.34974821338445433172e-01) (570, -2.39752419581319253794e+00) (571, -3.50564799455923470362e+00) (572, -3.78091227640161609003e+00) (573, -9.34887052192959977504e-01) (574, -3.99848481462726956792e+00) (575, -3.82215263466238130974e+00) (576, -5.22849837606560274850e+00) (577, -3.03342044458068427204e+00) (578, -2.59630437897444103779e-03) (579, 6.63277765990453183065e-02) (580, 2.79879343537414226883e-01) (581, 3.64706305028293098491e-01) (582, 3.00700224166261131931e-01) (583, 6.39651553574987069561e-02) (584, 5.25295895604542054103e-02) (585, 3.04357687396190450257e-02) (586, 6.02355507420681279829e-02) (587, -6.39777648044445867992e-02) (588, 6.11832794951580258291e-02) (589, -8.32735176809808533283e-03) (590, 5.02058324622295590323e-02) (591, 5.11669871615551205557e-02) (592, 3.71569500647953229744e-02) (593, 1.05095923820823736183e-01) (594, 5.64947309443395884188e-01) (595, 6.03765288392293597575e-01) (596, 9.21862549948187282034e-01) (597, 6.50099736067705546994e-01) (598, 3.04177656231145288057e-01) (599, -4.45502805448213212713e+00) (600, -1.47742341383679072209e+01) (601, -6.08685577135037458874e+00) (602, -4.23718386123218326844e+00) (603, -4.69820329216927135008e+00) (604, -2.73480466190177384789e+00) (605, 8.08551461236420992984e-02) (606, 7.72543340634860159488e-02) (607, 8.90831030525700146017e-02) (608, 3.14078450720281510122e-01) (609, 2.83120717840459223957e-01) (610, -2.28021196057581337913e-02) (611, -4.11428345523568231301e-03) (612, -1.12398641331753992856e-01) (613, -9.92774419363520038706e-03) (614, -7.23687427831509605403e-02) (615, 6.48584422873637461704e-02) (616, -5.39409386707164692498e-02) (617, -8.55261514676430717463e-02) (618, -7.25122707677701011653e-02) (619, -6.61506335032799736018e-02) (620, 3.35599329205654300923e-02) (621, 8.17455653682059857346e-02) (622, 1.11750738561654225367e-01) (623, 6.55820574338918160784e-01) (624, 4.37270702784411269270e-01) (625, 2.83476281239381344701e-01) (626, 4.42775094083350417851e-01) (627, 2.50176733401011930358e-01) (628, 8.29921454327990359978e-01) (629, -5.68865971360804967283e-01) (630, 1.09830005133108721260e+00) (631, 1.62577975553788389718e-01) (632, 1.40271746399298097296e-01) (633, 2.24029048554645532354e-01) (634, 1.80054781812847924938e-01) (635, 1.71727570871453877333e-01) (636, 1.63788095326168919863e-01) (637, 9.64905745705431881765e-03) (638, -1.21950639613697293939e-02) (639, -1.00277221036774902285e-01) (640, -5.00678142147876689694e-02) (641, 3.30205241603039045817e-02) (642, 1.96276364134929381944e-02) (643, -3.69154157830097126580e-02) (644, -5.13561832500316547967e-02) (645, -1.26134062070927865928e-01) (646, -4.54499291969158100701e-02) (647, 2.13099179076335701333e-02) (648, -8.50531774354794517512e-02) (649, 9.17283989612081851472e-03) (650, -1.16123729230744626717e-01) (651, 5.25683740620918465991e-02) (652, 2.29824202625798418298e-01) (653, 2.70453336509401121024e-01) (654, 3.73273914323573208218e-01) (655, 4.55886003013040108645e-01) (656, 3.71034234190393608088e-01) (657, 3.64866115924644462964e-01) (658, 2.50902828339897354670e-01) (659, 3.04243676015661157486e-01) (660, 2.09065431438899163030e-01) (661, 1.84104650269866082501e-01) (662, 5.81059650904660052184e-02) (663, -9.34160804691311352776e-02) (664, -7.65820237589695945735e-02) (665, -8.94097333389142073790e-02) (666, -2.70232727366306740846e-02) (667, 1.19891891640804132413e-02) (668, 1.46057287615917047452e-02) (669, -1.14433238167844078537e-01) (670, 3.64970621871135922354e-02) (671, -1.09911056120476982589e-01) (672, 4.46663257884166928213e-02) (673, -1.72682645512440141600e-02) (674, -2.02194246245243486326e-02) (675, -8.00828243387558952326e-02) (676, -1.67952942443706926268e-02) (677, 6.09376934575222295454e-02) (678, 6.78341445731303477329e-02) (679, 2.60525287858417338438e-02) (680, -2.22849897275658121246e-03) (681, -1.21922562720162677707e-01) (682, 2.03415574558097805857e-01) (683, 1.41021308804527290004e-01) (684, 1.01888268507749499281e-01) (685, 1.32806550363128050840e-01) (686, 1.43727132403331125943e-01) (687, 2.18888102918010085673e-01) (688, 6.88348893382479953829e-02) (689, -3.73590672522136416078e-02) (690, -1.09022268107468886522e-01) (691, 9.00009265845105161340e-04) (692, 7.16820746573855749340e-02) (693, 4.43880388898037145373e-02) (694, 3.99068568221548798658e-03) (695, -7.91164579583027854914e-02) (696, -1.19470650215230247970e-01) (697, -9.69535502386906500316e-02) (698, 5.89517710017345639151e-02) (699, 2.12141183423183235512e-02) (700, -8.47797523034432426448e-02) (701, 2.20558700369975838051e-02) (702, 3.79101095008037777823e-02) (703, -1.13506393392167351242e-01) (704, -6.86053613913872734065e-02) (705, -5.57022931767322468377e-02) (706, -6.69821779025414482112e-02) (707, 4.12063953684948178213e-02) (708, -6.81575665963509574885e-02) (709, -7.20130076247075118223e-02) (710, -6.90000705297967413532e-03) (711, 5.51670322579525182483e-02) (712, -6.91984688478329695860e-02) (713, -5.33260167611667515453e-02) (714, -5.45829222572872044261e-02) (715, -1.84862078202793524151e-02) (716, 2.18910737859180255793e-02) (717, 3.01858094739101238957e-02) (718, -5.82373010707714008904e-02) (719, 1.24698934363506146183e-02) (720, -8.18337778342583671565e-02) (721, -4.19200825286724018670e-02) (722, -6.08466136051036762811e-02) (723, -8.43682120335915580744e-02) (724, -7.14530068231442466731e-02) (725, 6.97511044549128794712e-02) (726, -3.68776264382221150018e-02) (727, -6.43166209352829809642e-02) (728, -1.00595401485047614143e-01) (729, -5.13188260389186787225e-02) (730, -1.16495469470105431076e-01) (731, -5.87681102348186421014e-02) (732, -1.02655919153771674202e-01) (733, 4.80216798590801449698e-02) (734, -4.56674712491847920037e-02) (735, -4.46542369914867329217e-02) (736, -8.10735876453736320491e-02) (737, 1.39573869513652630558e-02) (738, -7.68408159507134452815e-02) (739, -2.26241144133427080076e-02) (740, 6.80234191226146006626e-02) (741, 4.23382130669735165518e-02) (742, -4.13780453396655964471e-02) (743, -7.50960129094937339778e-02) (744, -8.62027088893273368830e-02) (745, 2.88241264628551277505e-02) (746, 3.12028882311962268981e-02) (747, 6.04734477805279058149e-02) (748, -1.43830346656658482341e-02) (749, -1.00427390892586981819e-01) (750, -4.49621934972011579740e-04) (751, 3.03902236031673399219e-02) (752, -1.57404335928776062392e-02) (753, 6.53107968377253794712e-02) (754, 7.26290551232478404087e-02) (755, 3.94136068629406186026e-02) (756, 6.16689530419490677948e-02) (757, -3.76415419174053120233e-02) (758, -9.82959734989025946117e-02) (759, -1.12319419045529625412e-01) (760, 3.76466718720577450674e-02) (761, -8.81844068659165397639e-02) (762, -4.44804894519664692498e-02) (763, 6.15977999972484452362e-02) (764, -1.13555701334557793136e-01) (765, 3.64590791272304745596e-02) (766, -5.64494075966693806268e-02) (767, -6.80222491515496269221e-02) (768, -2.29764970732548173826e-02) (769, -6.68318744429132263751e-03) (770, 3.59606799887798520010e-02) (771, -2.83460336519100603025e-02) (772, -3.77379300785877155877e-02) (773, -7.88103359533169761653e-02) (774, 2.31649932669780525551e-02) (775, 2.66640458575705119326e-03) (776, -1.23379180092892920539e-01) (777, -1.90250891042568620604e-02) (778, -1.02531182361461879748e-02) (779, -1.11551749301769496936e-02) (780, 7.15457473269918899778e-03) (781, -8.40957033229687705989e-02) (782, -5.41579070282794880486e-02) (783, -8.19788257373192802424e-02) (784, 2.98305697736636732387e-01) (0, -2.57666705460432410302e-01) (1, -3.18703068704489000940e-01) (2, -3.06646755249384228570e-01) (3, -1.68701207549455972634e-01) (4, -2.90392002375009838921e-01) (5, -2.92359134466532055718e-01) (6, -2.04447476477506911996e-01) (7, -2.51969365687254143182e-01) (8, -2.10232584090116775277e-01) (9, -2.16242654533270212136e-01) (10, -2.38918034644010873757e-01) (11, -2.47166475565317483865e-01) (12, -1.46085014850977273904e-01) (13, -1.80333232791307779275e-01) (14, -1.43535932810190530740e-01) (15, -2.26161180348280282937e-01) (16, -2.17765530855539651833e-01) (17, -2.45274922163370462380e-01) (18, -1.37292063147905679665e-01) (19, -1.69968834431055398904e-01) (20, -2.95502884597662274224e-01) (21, -2.08018621713999068978e-01) (22, -1.66740974695566507302e-01) (23, -1.87920933873537338021e-01) (24, -2.91664699376705471856e-01) (25, -2.51289105327013317925e-01) (26, -2.54159329743269268853e-01) (27, -2.49153366596582742654e-01) (28, -1.78839972526911111794e-01) (29, -2.09531111926916396859e-01) (30, -2.14724188954714095834e-01) (31, -3.07154758186224285943e-01) (32, -1.98882257850054061654e-01) (33, -1.92019021422746932748e-01) (34, -1.46504035503748269997e-01) (35, -1.59922337443712564431e-01) (36, -1.55026233107927652322e-01) (37, -2.21599599630716653786e-01) (38, -2.82539790780428234918e-01) (39, -2.35906904847505899392e-01) (40, -3.09025880044847767181e-01) (41, -1.92641440874487201995e-01) (42, -1.53721457631471963845e-01) (43, -3.25758982545286457366e-01) (44, -2.43622776216417646911e-01) (45, -1.68441001421362257506e-01) (46, -2.22568232661634779479e-01) (47, -1.32036376840025254653e-01) (48, -2.84364007508903837707e-01) (49, -2.30508376008421278502e-01) (50, -1.72117745787981363259e-01) (51, -2.49979434819105450494e-01) (52, -3.08639524788740404748e-01) (53, -2.09506793231848037484e-01) (54, -3.08548448891523607873e-01) (55, -2.70952308834675137383e-01) (56, -1.31443983228090588433e-01) (57, -2.33355848402860971413e-01) (58, -1.90753748924616134408e-01) (59, -1.80932035953882547341e-01) (60, -3.13535047979238756799e-01) (61, -2.76126021803501431329e-01) (62, -1.58734878809336038552e-01) (63, -1.83065390498522134743e-01) (64, -1.49024363422864375428e-01) (65, -1.75886994511965127908e-01) (66, -2.25769444651339828978e-01) (67, -1.66369849635704253332e-01) (68, -2.78910208231841039161e-01) (69, -1.87830434381986627335e-01) (70, -2.92029203116918600891e-01) (71, -6.13445829087359228993e-01) (72, -5.95750402146441260243e-01) (73, -5.79452594545988186603e-01) (74, -5.06076691819023927188e-01) (75, -1.52550406896194284956e-01) (76, -1.44712278246423187156e-01) (77, -1.47958993262980759154e-01) (78, -1.48687012044521643661e-01) (79, -2.91647180465790023529e-01) (80, -2.36446259827497812234e-01) (81, -1.88227689177873885873e-01) (82, -2.09049551100614822152e-01) (83, -2.15733869285467477761e-01) (84, -2.68382573784473665857e-01) (85, -1.88246077210787093881e-01) (86, -1.57334244162920328103e-01) (87, -2.70474637211445156915e-01) (88, -2.92250013263109509332e-01) (89, -2.18736080736997934304e-01) (90, -3.22054757089498766565e-01) (91, -2.67907108572753460685e-01) (92, -1.56300157288583319026e-01) (93, -1.52037715042744658867e-01) (94, -6.90822488197279510613e-02) (95, -1.29754207522982861756e-01) (96, -1.54253992679423523882e-01) (97, -1.80208149585443150320e-01) (98, -3.59249885301396065795e-01) (99, -3.45848160861379760878e-01) (100, -5.44326056600943353203e-01) (101, -6.47213177556526964018e-01) (102, -3.08250825890468593826e+00) (103, -1.06955476613513145168e+00) (104, -1.65962538278080296017e+00) (105, -3.84724072524983751187e-01) (106, -4.78468614215594778560e-01) (107, -3.48694715347555139751e-01) (108, -1.75478328114897108581e-01) (109, -1.82198947579744668923e-01) (110, -2.81441187770250622613e-01) (111, -2.82037129909876171929e-01) (112, -2.41074731857660623513e-01) (113, -1.61138808638933511697e-01) (114, -1.68419068963411661111e-01) (115, -1.71579352972539428412e-01) (116, -2.20568519181162214782e-01) (117, -1.96401393325212753060e-01) (118, -3.02159259798354840054e-01) (119, -1.63340352586997944462e-01) (120, -1.11458471871708611478e-01) (121, 1.23030879558455166767e-01) (122, 3.40407630247741121998e-01) (123, 3.65964208457224382531e-01) (124, 5.12406233696965918156e-01) (125, 1.50904998602914647288e-01) (126, 3.56124640466890518553e-02) (127, -5.16348248038111384828e-02) (128, -5.90541183383387568995e-01) (129, 2.37724890815746575656e-02) (130, -4.15045783491974490387e-02) (131, -1.28014102631618831296e+00) (132, -8.17740824248195385948e-01) (133, -5.04109763457662229946e-01) (134, -2.78646420184246790264e-01) (135, -2.72525739869796113091e-01) (136, -1.75673557445833544710e-01) (137, -1.87318775348759264388e-01) (138, -2.52088515372160149042e-01) (139, -2.22074276120546670876e-01) (140, -2.50795988650205914361e-01) (141, -2.04177772910478866342e-01) (142, -1.74759483249071451150e-01) (143, -1.62518790275934549294e-01) (144, -2.27974196168481357816e-01) (145, -1.95889951539310186446e-01) (146, -1.81332019638282215812e-01) (147, 7.05476103661937248290e-02) (148, 1.51460336197878187026e-01) (149, 3.23734618046780942002e-01) (150, 1.06178493140708574138e+00) (151, 4.03516677120723166183e+00) (152, 6.91955427363131869711e-01) (153, 2.51301953838728842072e+00) (154, 1.42495105831906054838e+00) (155, 9.26756060094306999275e-01) (156, 7.49766904302835213159e-01) (157, -8.41754892600879156550e-02) (158, 1.46017866955469137469e-02) (159, -5.33203720202744257950e-02) (160, -3.14961963696411495484e-01) (161, 2.24595791213564183186e-01) (162, 1.03964582044595965638e-01) (163, 5.52496897732736996778e-02) (164, -1.41721449508574459664e-01) (165, -2.80846440276667386193e-01) (166, -2.58008791417959570946e-01) (167, -2.09512768597486770394e-01) (168, -1.78414797694567056618e-01) (169, -1.80745384008768411599e-01) (170, -3.02235124916914288384e-01) (171, -2.99858859093073193414e-01) (172, -2.47580756637155063871e-01) (173, 5.50223576067467440298e-02) (174, 2.64925999279062462932e-01) (175, 2.74479060162838961467e-01) (176, 2.96765662053128598252e-01) (177, 5.27252947575309605099e-01) (178, 7.34764443855308702069e-01) (179, 1.12414760932573232211e+00) (180, 9.33927531508161878904e-01) (181, 1.07706293331550528869e+00) (182, 2.92802655845083759090e+00) (183, 3.36074754778066564498e+00) (184, 1.83585149095211530579e+00) (185, -1.67166268105074344863e-01) (186, 1.06265591614847165758e+00) (187, -7.17681549937187468480e-02) (188, 4.00005689485758264556e-01) (189, 5.30944378397237404243e-01) (190, 5.82871991242505549380e-01) (191, 2.57331938368949020290e-01) (192, 2.02651381746810688167e-01) (193, -1.74028911671206487632e-01) (194, -1.78951225636037297706e-01) (195, -2.20529197068098398171e-01) (196, -1.83466052920702255014e-01) (197, -3.16134115965250261926e-01) (198, -3.00690045864466015679e-01) (199, -2.32007074794123052675e-01) (200, -1.59537096711694248441e-01) (201, 2.49933793416684500721e-02) (202, 1.95647269666884365824e-01) (203, 1.44933066499624674250e-01) (204, 1.52456110412239526086e-01) (205, 3.61950860415098385481e-01) (206, 5.49946620847208023086e-01) (207, 1.25220066895624260184e+00) (208, 2.35787062971998651051e+00) (209, 1.19800696325662947572e+00) (210, 2.31914528756526294728e+00) (211, 8.32903858298242205649e-01) (212, 2.85301375089827358167e+00) (213, 2.61445203245193713570e+00) (214, 7.18265906292750511142e+00) (215, 1.13035576788814662308e+00) (216, 3.50962218070468512376e-01) (217, 1.22006579059373820861e+00) (218, 2.29432630689394967405e+00) (219, 7.07579804524954170120e-01) (220, 1.83941453665721676991e-01) (221, -2.36740563466833447981e-01) (222, -1.26162178275617126166e-01) (223, -2.63547836155775316858e-01) (224, -1.54447024972322793923e-01) (225, -1.92813536436441695932e-01) (226, -1.54725110442522378884e-01) (227, -1.99513283359506105041e-01) (228, -1.61062412477825100954e-01) (229, 7.07243540087176131292e-02) (230, 1.11114342124341486384e-01) (231, 2.75967246686455780491e-01) (232, 1.28360653614860487082e-01) (233, 2.03220682072310754318e-01) (234, 3.47233584029666253468e-01) (235, 1.95332251616503316249e+00) (236, 8.53544742666263567266e-01) (237, 1.54304169685680087065e-01) (238, 4.04945969841391029131e-01) (239, 1.17197205423550254721e+00) (240, 4.38714148723598729163e+00) (241, 5.38930862600112181582e+00) (242, 7.24562445915654063100e+00) (243, 1.44410438920316064326e+00) (244, 4.33485271320980736220e+00) (245, 8.61767958144974088874e-01) (246, 2.29516130167305654197e+00) (247, 1.45306130713973535862e+00) (248, 3.14026443328424276213e-01) (249, -1.38028487534382265922e-01) (250, -1.69655839918865125604e-01) (251, -2.27146623940351816140e-01) (252, -1.33832982094171826226e-01) (253, -1.95554828555467880014e-01) (254, -1.61342537314775796853e-01) (255, -1.39859239342040947429e-01) (256, -2.31958444151756176810e-01) (257, 1.32790241887212889793e-01) (258, 1.85118385715459465857e-01) (259, 2.31208900812805180766e-04) (260, 1.96081134714680360709e-01) (261, 1.54278107164310840371e-01) (262, 2.89078101204059079166e-01) (263, 3.54987983633932024929e-01) (264, 3.54737961811022572967e-01) (265, 8.51897371754873788952e-01) (266, -9.31720726666854931475e-02) (267, 1.84708806332653990845e-01) (268, 1.41913315308910298329e-01) (269, 6.44544042726017707423e+00) (270, 1.98344755959147978075e+00) (271, 2.12316921323153096068e+00) (272, 4.05487327334251013156e+00) (273, 1.99633081345053975397e+00) (274, 2.34175600531143457417e+00) (275, 2.03065188862433343431e+00) (276, 1.32935233321447965338e-01) (277, -1.46279135613063521193e-01) (278, -1.40665405473277160819e-01) (279, -1.35702168853166882379e-01) (280, -2.43340162844541879617e-01) (281, -2.30503348917845102273e-01) (282, -2.33496887893560739480e-01) (283, -2.38773350405194789703e-01) (284, -2.69648264083740041297e-01) (285, 4.11692934418168149380e-02) (286, 2.52033637010042818605e-02) (287, -3.73095760065687565010e-02) (288, -3.21436870100787058790e-02) (289, 1.87568511173013124926e-01) (290, -8.29572438601134665159e-02) (291, -1.03974565451110403935e-01) (292, -6.38336641095876067276e-01) (293, -7.13641339322221845975e-01) (294, 3.27743528435770759000e-01) (295, 2.57468515692895194569e-01) (296, 2.05366343937348627691e+00) (297, 4.59798929740862505344e-01) (298, 1.36313725371031857492e+00) (299, 3.09038729807893419732e+00) (300, 2.67910028878859085566e+00) (301, 1.14831258000253844109e+00) (302, 1.56254989790754761358e+00) (303, 1.83355348293957720607e-01) (304, 1.03675466257457563057e-01) (305, -2.12450359839196217804e-01) (306, -1.95445438160286977247e-01) (307, -2.74691762686851803643e-01) (308, -3.10788719267729052209e-01) (309, -2.58879026682260870995e-01) (310, -2.81042022914770428521e-01) (311, -2.24776966781500192605e-01) (312, -1.52039979788362034085e-01) (313, 6.88272320799098065447e-03) (314, 2.55757865210206949969e-02) (315, -2.01487137298312135592e-01) (316, -5.15201189014903304653e-02) (317, -2.32214712223759514598e-03) (318, 4.80831655973179339369e-01) (319, 1.78972122949246442714e-01) (320, -5.96903865946205769433e+00) (321, -1.07335954217764029117e+00) (322, 2.76659982532373116548e-01) (323, 5.82962799578913726251e-01) (324, 5.05703528788194578425e-01) (325, 1.02394939799339779185e+00) (326, 1.91810080321795095593e+00) (327, 1.05234133127289175569e+00) (328, 1.12917072430256459903e+00) (329, 4.57415474308827396666e-01) (330, 4.04921753528301897607e-01) (331, 1.36510968252025272074e-01) (332, -3.18206420453668148429e-01) (333, -2.13573892845498158888e-01) (334, -3.05454219627677547866e-01) (335, -2.82984318495872799737e-01) (336, -1.57205498130205484353e-01) (337, -2.07138961465242660287e-01) (338, -2.28324158401373239480e-01) (339, -1.36591123625168564537e-01) (340, -1.28675584885178995176e-01) (341, -1.89396221260318492474e-01) (342, -1.11567802509414851220e-01) (343, -6.94691188866485703768e-02) (344, 1.06007785737441503904e-01) (345, -4.96646926221384177325e-01) (346, 9.62274524349271853652e-01) (347, -1.16664996840301737890e+00) (348, -1.91405711521044663570e+00) (349, -3.59717491790135235341e-01) (350, 1.54551330499483136061e-01) (351, 5.51971443514667980956e-01) (352, 1.03852995383268620344e+00) (353, 9.19036698647890060165e-01) (354, 8.06133681347384611904e-01) (355, 1.10592510529175425127e+00) (356, 1.51715903190239476128e-01) (357, 7.03737225925973319818e-02) (358, -2.56006980249762428059e-01) (359, -5.72978670698287673169e-01) (360, -3.48173625348627391318e-01) (361, -1.41754885447799655607e-01) (362, -1.52257208721034931198e-01) (363, -2.88291508616092984063e-01) (364, -2.61856077523115404748e-01) (365, -1.52038520486238809548e-01) (366, -2.41923896880033822976e-01) (367, -2.89187811008045470018e-01) (368, -2.20777679967381984527e-01) (369, 5.15153917960358490036e-02) (370, -1.98427545272670063925e-01) (371, -2.14322547652822936737e-01) (372, 5.62167804923074179713e-02) (373, 9.99476812197656494519e-01) (374, 3.09309894559776921152e-01) (375, -2.05493728901257677322e+00) (376, -7.97783386716087838941e-01) (377, -2.12415379199818676881e-01) (378, 3.01174856022767611918e-01) (379, -1.24954000506602214138e+00) (380, 4.97221530875121553450e-01) (381, -3.69489246488752975939e-01) (382, -1.53907386400639473178e-01) (383, 5.54865793716918132006e-01) (384, 2.65824554718742223081e-01) (385, -1.18429453541308937758e+00) (386, -1.52405399731076962588e+00) (387, -1.96911179216128884306e+00) (388, -4.41633780225389516172e-01) (389, -1.57466689022644823481e-01) (390, -1.99325001151445663217e-01) (391, -2.62443846375826128625e-01) (392, -1.94636768014314925912e-01) (393, -2.33466862053755136452e-01) (394, -2.21383421034696908913e-01) (395, -3.27140933186891802453e-01) (396, -2.47627444026502135932e-01) (397, 1.51860631508226179287e-01) (398, -2.21969436534450198506e-01) (399, -1.11713633496184083782e+00) (400, 1.61973272376782023718e-01) (401, -8.42654597257171400493e-01) (402, -1.16625254166543501633e+00) (403, -8.40446809472009531694e-02) (404, -3.94751588719696247520e-02) (405, 2.99496143279049276131e+00) (406, 1.22797772028530771671e+00) (407, -2.09939897425049704083e-01) (408, 1.16213676560726431042e+00) (409, 5.84065285075247575541e-02) (410, -6.62631998290742901814e-02) (411, 1.75614650325364718420e+00) (412, -5.11681853926913426944e-02) (413, -1.23194879202610141355e+00) (414, -2.00334407954102955429e+00) (415, -1.44234680741194698506e+00) (416, -3.86294702576590209819e-01) (417, -1.55560663489172357199e-01) (418, -3.13755383103825891133e-01) (419, -1.76835557730081888161e-01) (420, -1.97205981523874557260e-01) (421, -1.93460321338060653451e-01) (422, -3.09927484304788836145e-01) (423, -2.62490822286489733361e-01) (424, -2.44009939203992508999e-03) (425, 1.68141236849094988237e-01) (426, 7.52287114491900776869e-02) (427, -1.74707528518701249443e-01) (428, 4.86655425191719837041e-01) (429, -3.40422545365334838774e-01) (430, -1.09945393238978295081e+00) (431, -1.45454547823254243255e+00) (432, -6.60981081832812789045e-01) (433, 3.39184807103659968774e+00) (434, 3.10805592289767507186e-01) (435, 3.94059904396369908852e+00) (436, 2.88844526089308262229e+00) (437, 3.14568704274315935621e-01) (438, 3.44073809733244706521e+00) (439, 1.00180166201106435331e+00) (440, 1.07022078815233890464e-02) (441, -1.18670100291160363071e+00) (442, -1.78683662510557694780e+00) (443, -7.65873821906144947036e-01) (444, -4.34395538935776481804e-01) (445, -2.95719622222254008292e-01) (446, -2.41247842507137238988e-01) (447, -1.34099906594637219293e-01) (448, -3.24916085512521990442e-01) (449, -2.55261896462324444634e-01) (450, -1.81583544523599954568e-01) (451, -1.84244103190930791358e-01) (452, 6.26527398055992112980e-02) (453, 2.11012653576347075646e-01) (454, 1.70341107922029194599e-01) (455, -2.55888530264244441759e-02) (456, 4.71982744004790233383e-01) (457, 9.91171453974912686213e-01) (458, -6.40572431993620544644e-02) (459, -6.53729863887550610713e-01) (460, 1.96688105287715880864e-01) (461, -6.00629094979185707004e-01) (462, 1.05292573706472669670e+00) (463, 2.32862307269439705593e+00) (464, 5.28601818490303868026e-02) (465, 5.65152660960838826298e-01) (466, 4.58349755402114256153e-01) (467, 2.52631504302103770954e+00) (468, -7.24584568845069276755e-01) (469, -2.18982161839371608503e-01) (470, -4.58349100457608737980e-01) (471, -3.78019627083115039579e-01) (472, -3.50493118868273223487e-01) (473, -2.65696627917154815091e-01) (474, -3.07282129721416163992e-01) (475, -2.03096440346124923471e-01) (476, -2.45594857544782968484e-01) (477, -2.58935464830282568993e-01) (478, -2.07844434590223586801e-01) (479, -2.32632994113000396430e-01) (480, 2.00138571241008839108e-01) (481, 3.15308295537612470749e-01) (482, 2.15686156279620872001e-01) (483, 1.73304832449618001489e-01) (484, -1.70238351558148863496e-02) (485, -1.52383326501217419846e+00) (486, -1.37630831880948223400e+00) (487, -1.66978535381854920061e+00) (488, 8.28753617872638043140e-02) (489, -5.98171693636256329718e-01) (490, 9.45042031324644371537e-01) (491, 2.15818925099812997104e+00) (492, -4.39664535639656128829e-01) (493, 3.05626322725081234211e+00) (494, 1.08943026570704967759e-02) (495, -9.12008199056458579435e-01) (496, -5.37805072853326654458e-02) (497, -1.51366514256883466505e-01) (498, -1.31268552303945462700e-01) (499, -1.50845479566086571044e-01) (500, -1.68240972663256688202e-01) (501, -1.09720064024776339795e-01) (502, -1.50656165973915040501e-01) (503, -1.47114401967409463845e-01) (504, -2.86379004181507412774e-01) (505, -1.68343773395899148904e-01) (506, -2.20858937413576456033e-01) (507, -1.94095916507276006202e-01) (508, 8.70566615248795916404e-02) (509, 4.51978727058689133678e-01) (510, 2.38434846482039441984e-01) (511, -1.80103137594810919220e-01) (512, -2.54206006238846649037e-01) (513, -4.57956931448595483403e+00) (514, -2.20724193834709936368e+00) (515, 7.94510973170369561025e-01) (516, -4.30852144601449627004e+00) (517, -3.60244209542047666428e-01) (518, -6.37723147299179449199e-01) (519, -2.89779897895074700642e+00) (520, -3.40852867675147042092e+00) (521, -1.51835428944206873858e+00) (522, -5.04013564253181467478e+00) (523, -1.23168148050833714535e+00) (524, -1.17239168369046593138e-02) (525, -1.32705238757160864926e-01) (526, -2.24618846085774918897e-02) (527, -2.05080376492350405226e-02) (528, 1.74261571137820897581e-01) (529, -5.32226618695714054352e-02) (530, -2.50114954469235872825e-01) (531, -2.95832215161207501275e-01) (532, -2.03109523565653121713e-01) (533, -2.99823930771234814507e-01) (534, -3.13594697327497728967e-01) (535, -2.32692354935122094894e-02) (536, 2.45358342521244138235e-01) (537, 6.79856877871043652206e-01) (538, 4.29995406292084159094e-01) (539, 4.07621660622141113173e-01) (540, -1.44056585718736140933e+00) (541, -7.74516975964415710365e+00) (542, -9.05012754537016483880e+00) (543, -2.84617806108349835625e+00) (544, -2.71670188381713595405e+00) (545, -6.56324525353298160457e-02) (546, -3.28254277879360145675e+00) (547, -1.43320681496583612891e+00) (548, -8.49445724782568856170e-01) (549, -2.09010832950725777835e+00) (550, -9.49696397139250914066e-01) (551, -1.70656076948053581077e+00) (552, 1.23140812998675477918e-01) (553, 1.67429995741210729809e-01) (554, 2.72806879495222087684e-01) (555, 2.69720715710011882393e-01) (556, 1.34865533040112867136e-01) (557, -1.77061701896018858227e-01) (558, -2.49423473534615997016e-01) (559, -2.83988172472599331719e-01) (560, -2.61242447705152813775e-01) (561, -1.87238550097826278451e-01) (562, -2.50468461127165142877e-01) (563, -1.26474014875920776069e-01) (564, 2.27273436763393482662e-01) (565, 6.71060666663895410977e-01) (566, 1.15369192862723846105e+00) (567, 1.17022389067660315121e+00) (568, 3.83275848390229212370e-01) (569, -1.16706961316252244565e+00) (570, -9.59526910246268727178e+00) (571, -2.56665716713490743572e+00) (572, 7.37572381643001206974e-01) (573, 6.90964443183290288886e+00) (574, -3.89348990097654645837e+00) (575, -3.72765650694464589776e+00) (576, -4.73552592479591449859e+00) (577, 1.13302246078867829837e+00) (578, -2.38999663976986576053e-01) (579, -3.16862589043754916407e-01) (580, 3.81426187695633356345e-01) (581, 4.71189289437484448708e-01) (582, 2.92473235916829554792e-01) (583, 2.54592756791467089705e-01) (584, 1.37968847080191803212e-01) (585, -2.69206568059953188499e-01) (586, -2.27063460559728952370e-01) (587, -2.19333550245645853005e-01) (588, -1.44511213810327859841e-01) (589, -1.55661022574785562478e-01) (590, -1.73969796211603494607e-01) (591, -2.67875715551408322135e-01) (592, 8.94570392637441258454e-02) (593, 3.86702353411182031540e-01) (594, 1.14167257270823885307e+00) (595, 1.03402432595688487105e+00) (596, 1.20430350900355276345e+00) (597, 4.05056985755978038455e-01) (598, -7.01613929093952426452e-02) (599, 2.37482863177015918188e-01) (600, -1.16213076288588523788e+00) (601, -1.82106038489629806776e+00) (602, -1.21078796579569192282e+00) (603, 1.72358348706099584469e+00) (604, 8.18732116832416090269e-01) (605, -1.92139798040585874084e+00) (606, 2.05306428915435712490e-01) (607, 3.20384755293063983039e-01) (608, 5.67786075695391634355e-01) (609, 2.16084475390521474347e-01) (610, 2.06398117117492146955e-01) (611, 8.65638877848542848126e-02) (612, -2.86252991482212948426e-01) (613, -1.39436728713544372260e-01) (614, -1.50479516298654886208e-01) (615, -1.35154670388582531793e-01) (616, -2.96343436748865429742e-01) (617, -2.48191049606684061013e-01) (618, -2.25136300833109231911e-01) (619, -3.11502730758074053430e-01) (620, 2.35052067995899297004e-02) (621, 1.18489336020274504957e-01) (622, 3.18951470973494133343e-01) (623, 1.16844318325881446619e+00) (624, 1.04044204001623774580e+00) (625, 1.05662204591833619460e+00) (626, 6.54996021065714639775e-01) (627, 6.20804551080094668691e+00) (628, -1.18464301905855995400e+00) (629, -4.65601220004956228848e+00) (630, 2.85356798801510924690e+00) (631, 3.46249999710353972837e-01) (632, 3.31471408806871314923e-01) (633, 3.43346983974932518091e-01) (634, 3.03076305345366947552e-01) (635, 2.35531729184604826655e-01) (636, 1.23470321699777493829e-01) (637, 6.92691412385387089712e-02) (638, 5.34010451706817684814e-02) (639, -1.21904183512201752526e-01) (640, -2.15526787256755725242e-01) (641, -1.54492324502352090798e-01) (642, -2.91131282509449307305e-01) (643, -1.98699837834718978646e-01) (644, -1.73103159577730508767e-01) (645, -3.12258875281694658899e-01) (646, -2.04502588422182357553e-01) (647, -1.40094673545244546853e-01) (648, -2.31098002107027383767e-01) (649, -1.00517832747981053498e-01) (650, -2.39607168962828187553e-02) (651, 2.25060755121084143937e-01) (652, 3.36356281653342192861e-01) (653, 3.21410219882595049601e-01) (654, 3.68948522114574573028e-01) (655, 5.84045702727728377468e-01) (656, 3.14267478880753126091e+00) (657, 3.00366814254023362096e+00) (658, 2.27892632625557894910e-01) (659, 3.31261457654653868055e-01) (660, 2.86077521607564666528e-01) (661, 2.26915218224690712345e-01) (662, 1.67760594716564986895e-01) (663, 7.38014470241524778160e-02) (664, 1.10652165245956099482e-01) (665, 3.36331319943697082397e-02) (666, -1.32200029598718155066e-01) (667, -2.13823367642858058746e-01) (668, -1.54556951878102782905e-01) (669, -2.57590612680796027245e-01) (670, -2.20210550637129159890e-01) (671, -2.60123050124529242577e-01) (672, -2.82731017382028881890e-01) (673, -1.81989899189356180154e-01) (674, -1.29470965177896774057e-01) (675, -3.26482257158640154504e-01) (676, -1.64896866590860696755e-01) (677, -2.04621633798960006478e-01) (678, -1.37225007922533365212e-01) (679, -6.70457063925627150258e-02) (680, 1.18884740955443823918e-01) (681, 1.71911155194763659582e-01) (682, -1.17955210852580434644e-02) (683, 1.73356739148486996283e-02) (684, 4.86029177150337221569e-02) (685, 1.14454085128008267724e-01) (686, 8.31200435713158047868e-02) (687, 1.28786345529740109406e-01) (688, 9.20946089732364026048e-02) (689, -3.94688728990986135992e-03) (690, 1.63897817993732014541e-01) (691, -1.17754904516494632305e-01) (692, -3.23209924907568224572e-01) (693, -2.06897257180097854379e-01) (694, -2.87249988229158703668e-01) (695, -2.55842050821665167870e-01) (696, -2.42452038736227365456e-01) (697, -2.98898419649484936578e-01) (698, -1.49361377866152139626e-01) (699, -2.76183093250873867852e-01) (700, -2.27137109548929544411e-01) (701, -2.40220008702162118874e-01) (702, -2.06954224319341933969e-01) (703, -1.80516204149607034646e-01) (704, -2.92857988090399090630e-01) (705, -2.07073269696119582894e-01) (706, -1.77646538526895853005e-01) (707, -3.28402934880140551233e-01) (708, -2.82342976243379895074e-01) (709, 1.00032416252219882868e-02) (710, -6.66185745113790639405e-02) (711, -1.33024861189929149985e-01) (712, 1.27890876418649390017e-02) (713, -5.01101548591107726072e-02) (714, -8.70144047850073543149e-02) (715, -1.13102408551249727919e-01) (716, -1.14258209668669924453e-01) (717, -2.61105804057005286278e-01) (718, -2.36000744910124155007e-01) (719, -1.88863238603952682260e-01) (720, -2.30826197476271005593e-01) (721, -2.37876443476560922585e-01) (722, -1.77835455448511453591e-01) (723, -2.24684199602487894021e-01) (724, -3.15421780855539568567e-01) (725, -1.35733520896318737847e-01) (726, -1.51174327642801614724e-01) (727, -2.28521889359835000954e-01) (728, -3.05280020744684521539e-01) (729, -1.71183800608995767556e-01) (730, -1.75353071005228372536e-01) (731, -2.03065207512262618783e-01) (732, -2.82051874608877484185e-01) (733, -2.52955375523451098108e-01) (734, -2.54229499311331097466e-01) (735, -2.45557947368505807839e-01) (736, -1.30676722438219372613e-01) (737, -3.02524118037107769830e-01) (738, -2.44608959467295022927e-01) (739, -2.83667767704609219415e-01) (740, -1.58691829354647012673e-01) (741, -1.80950975329759927712e-01) (742, -2.82863578112009350640e-01) (743, -2.15626200945261331521e-01) (744, -3.01478354544523541314e-01) (745, -2.39601431698683114968e-01) (746, -1.95421418459299361947e-01) (747, -2.82429369450691525323e-01) (748, -1.71355327875498147927e-01) (749, -3.02070243568304364068e-01) (750, -1.41940688998583169900e-01) (751, -2.72829594374779049737e-01) (752, -2.10594756812933242562e-01) (753, -1.90424209744814193490e-01) (754, -1.68161874921205850564e-01) (755, -1.96664607436540878060e-01) (756, -1.96805810840013778451e-01) (757, -1.89984282762888229135e-01) (758, -2.95834584445837323052e-01) (759, -1.72733908803346963845e-01) (760, -2.31816148669603677712e-01) (761, -1.41835725219133707009e-01) (762, -2.46447203965071054421e-01) (763, -1.84516107947710311654e-01) (764, -2.65439180941465624475e-01) (765, -1.71324780495050760232e-01) (766, -3.00722128064516369683e-01) (767, -2.66763976127985302789e-01) (768, -1.44496983201387735329e-01) (769, -2.15979164750460000954e-01) (770, -2.21079824776533456765e-01) (771, -1.73836892754915567361e-01) (772, -2.67578235180261914117e-01) (773, -1.74591472656610818825e-01) (774, -2.60111166448477149071e-01) (775, -2.39704666943434091531e-01) (776, -2.84840995730045620782e-01) (777, -3.26180657656076677942e-01) (778, -1.92782109887483871224e-01) (779, -3.26844392628553637170e-01) (780, -2.98898978443029705865e-01) (781, -2.05370871634367263558e-01) (782, -2.70322067947271593713e-01) (783, -1.80141812474611612283e-01) (784, 5.89875682064550765915e-01) (0, 3.87145223359546097885e-01) (1, 4.48822738866290482651e-01) (2, 5.62380189339598657305e-01) (3, 5.26512870828589440997e-01) (4, 4.82340077201804551255e-01) (5, 5.18998185436209791277e-01) (6, 4.24048634509524735581e-01) (7, 4.69856264333209427964e-01) (8, 4.01902901272258195053e-01) (9, 3.68884446362933549057e-01) (10, 5.33769006173094751055e-01) (11, 5.59930036107977868731e-01) (12, 3.97514241079768571030e-01) (13, 3.96356942395648392807e-01) (14, 5.44784987608870507891e-01) (15, 5.10886991660078892963e-01) (16, 5.04629040400465744831e-01) (17, 5.00300014655074010150e-01) (18, 3.72660683731517228257e-01) (19, 4.59389480094394120346e-01) (20, 3.69540775458297166001e-01) (21, 4.62307939569434556137e-01) (22, 5.03900418321570287006e-01) (23, 3.72712040583571824204e-01) (24, 3.98877742032489213120e-01) (25, 5.06407926122626195209e-01) (26, 4.03164984921893509995e-01) (27, 5.22858793179472924884e-01) (28, 5.65437788407286645587e-01) (29, 5.52375087778052331622e-01) (30, 3.85767536501368912827e-01) (31, 3.85657692591628464829e-01) (32, 4.34272500018557938706e-01) (33, 3.81222384314021500717e-01) (34, 5.45245239774664880450e-01) (35, 5.49687246124228479083e-01) (36, 5.32981026335906160618e-01) (37, 4.02054305537890788180e-01) (38, 4.52618183831653031479e-01) (39, 3.68814210480985948948e-01) (40, 4.04869037753877947239e-01) (41, 4.20003227031765291599e-01) (42, 5.61277563015898706134e-01) (43, 4.34916580359420212876e-01) (44, 4.48893474678477677475e-01) (45, 5.39137223998984338458e-01) (46, 3.79419620222387621311e-01) (47, 3.86668155799970880704e-01) (48, 4.73053286856947252659e-01) (49, 3.84613605479678544175e-01) (50, 4.79061344901999863755e-01) (51, 4.75127363841018113266e-01) (52, 4.79996221403560074936e-01) (53, 4.16036421696624192368e-01) (54, 4.80914080779036912094e-01) (55, 5.11948639790495874102e-01) (56, 5.55519039074858667071e-01) (57, 5.17153749505957716082e-01) (58, 4.67882098893603715073e-01) (59, 5.54031500856360437091e-01) (60, 5.02603495757063756244e-01) (61, 4.86724304298839005600e-01) (62, 3.72763866822204026352e-01) (63, 3.69636449381064768893e-01) (64, 5.01021379868468175189e-01) (65, 5.42528412892224976005e-01) (66, 5.39721482965740406712e-01) (67, 4.65875303962533682256e-01) (68, 1.90016401737579498921e-01) (69, 2.43119157020389664581e-01) (70, 2.11841871907149065235e-01) (71, 1.67502785221443878383e-01) (72, 2.32765770350891548768e-01) (73, 2.04444429496056068185e-01) (74, 2.34969248528772461926e-01) (75, 1.75758742329581663100e-01) (76, 4.21453745060237805475e-01) (77, 4.88354562736519726140e-01) (78, 3.78830999531496181998e-01) (79, 5.40889526049574853594e-01) (80, 5.21561796109160535906e-01) (81, 5.37355030204392458693e-01) (82, 4.49091563264808091294e-01) (83, 4.34632683436355027329e-01) (84, 5.53829098383864404376e-01) (85, 5.63080320398291589434e-01) (86, 4.12293019022085094338e-01) (87, 5.42422810832938195880e-01) (88, 5.13308728377303125079e-01) (89, 5.10611436878071645040e-01) (90, 5.62166000033951673842e-01) (91, 4.80910258774662369152e-01) (92, 4.32335110788250320812e-01) (93, 6.44766895157480091072e-01) (94, 5.67951306958989099449e-01) (95, 4.82028131676929039173e-01) (96, 4.79719656830919882751e-01) (97, 2.46122433612431357197e-01) (98, 8.83685895511018837389e-02) (99, 6.68453151573846077182e-02) (100, 3.79824313358836859744e-02) (101, 4.29664995436456059741e-02) (102, -2.29212114533912797443e-01) (103, 3.17870843704146349012e-03) (104, 8.48109769139263336424e-02) (105, 3.00842158996126041171e-01) (106, 4.09705442812197340174e-01) (107, 4.84548726974915355825e-01) (108, 4.45993835503113889018e-01) (109, 4.64937778453311356675e-01) (110, 4.75294793288192185532e-01) (111, 4.12711533050021561753e-01) (112, 4.02730452160319718491e-01) (113, 5.57461032907446862872e-01) (114, 5.12741688042489318633e-01) (115, 4.22271238888837718850e-01) (116, 5.83614684258328075828e-01) (117, 5.25472360998002430144e-01) (118, 5.97055072371864503644e-01) (119, 6.15646995251272310945e-01) (120, 7.30663063689180436455e-01) (121, 8.51561418487735588556e-01) (122, 7.08504182282173156082e-01) (123, 1.31260132926762662642e+00) (124, 6.63357565987826247600e-01) (125, 1.15933034607483831380e+00) (126, 2.25790955866191911383e-01) (127, 1.55202201436093911724e+00) (128, 8.70010576101432175911e-01) (129, 3.13253019692325718193e-01) (130, 4.86854117243978659624e-02) (131, 1.23054515904725381148e-01) (132, 7.32195033312278420468e-02) (133, 2.96399872543615217069e-01) (134, 5.01611499635333468738e-01) (135, 4.95062136947106212759e-01) (136, 4.05310115830169404028e-01) (137, 4.52927104504423305720e-01) (138, 4.78572081178037511684e-01) (139, 4.95538139979323777329e-01) (140, 5.17115691940268629168e-01) (141, 5.54618770520171167071e-01) (142, 5.42246072606311302344e-01) (143, 5.85557842876053724623e-01) (144, 5.75153134380207653464e-01) (145, 4.88641786696033642023e-01) (146, 4.87464706958973426065e-01) (147, 8.66129725300224473372e-01) (148, 7.18303480356642487514e-01) (149, 1.22020600950837776466e+00) (150, 2.10488179324700874773e+00) (151, 4.97743718876634488879e+00) (152, 4.44967019568442001543e+00) (153, 3.71172156678492504156e+00) (154, 1.18201764486485472183e+00) (155, 1.96026290311834028302e+00) (156, 1.76759122157751891180e+00) (157, 6.78371969402595254017e-01) (158, 4.70651074459812190920e-01) (159, 5.04207190200625543497e-01) (160, 4.16020435884196404519e-01) (161, 4.28033193497616148981e-01) (162, 5.79429643092891244471e-01) (163, 6.39955026338847710043e-01) (164, 5.16579959588761683520e-01) (165, 4.78159572976346258777e-01) (166, 5.01995298387126420714e-01) (167, 5.20531112591704481218e-01) (168, 4.96825555602988633286e-01) (169, 5.47495404521903039630e-01) (170, 4.49143933395823868882e-01) (171, 4.80839792014675304621e-01) (172, 5.69777091708863148156e-01) (173, 4.55466306244039886852e-01) (174, 7.91559202049259114098e-01) (175, 9.22655323675931060556e-01) (176, 1.37183554710784538777e+00) (177, 1.29235634904777119125e+00) (178, 4.74640745763806126689e+00) (179, 4.54835860204145259189e+00) (180, 1.43412748306046111679e+00) (181, 1.14797271914982834673e+00) (182, 3.70520994342537202115e+00) (183, 1.30391286730410027594e+00) (184, 1.45975369357485162958e+00) (185, 3.42739073630640156409e+00) (186, 1.52431318229844703360e+00) (187, 3.68374479848661895431e-01) (188, 8.31269791431018312267e-01) (189, 1.16924933279997622648e+00) (190, 1.21243228222268339955e+00) (191, 9.52102958526191089916e-01) (192, 6.74690265856527804367e-01) (193, 4.18545706476883216940e-01) (194, 5.41102076356315908612e-01) (195, 4.73807426418401622659e-01) (196, 4.62885247806987198960e-01) (197, 4.10424834380826386582e-01) (198, 3.94776197413882645737e-01) (199, 4.24708838050270431896e-01) (200, 4.24818772198276684016e-01) (201, 5.92642366533372988435e-01) (202, 8.82113414040864296517e-01) (203, 9.69403432272827991767e-01) (204, 1.41282627267455063169e+00) (205, 1.24694781882696692499e+00) (206, 2.17317676080123423077e+00) (207, 3.22556425075484565212e+00) (208, 3.88234545528869112729e+00) (209, 1.09936574553912036478e+00) (210, 1.85838712353067925243e+00) (211, 2.78103172175923507581e+00) (212, 3.28990106327848907952e+00) (213, 2.89623500126707744684e+00) (214, 6.40541907121298859096e+00) (215, 6.50800687211100559182e+00) (216, 1.22798833300620806597e+01) (217, 1.42048807618415717791e+00) (218, 4.40496623792969721478e+00) (219, 2.46049819245641243626e+00) (220, 7.92773668427288025207e-01) (221, 4.38714804407076164328e-01) (222, 5.15826600079441477398e-01) (223, 4.06917657106725561000e-01) (224, 4.23569644133529099594e-01) (225, 4.26156645904263886582e-01) (226, 4.48839957158049973618e-01) (227, 5.51452929561043081463e-01) (228, 5.04337246685229612098e-01) (229, 5.93928444388324594527e-01) (230, 9.55534727834618458076e-01) (231, 9.03870733045495144964e-01) (232, 7.29693079902803520831e-01) (233, 7.66873001753166749772e-01) (234, 7.44616439244081051996e-01) (235, 2.46417661215058636515e+00) (236, 3.65093306318674537536e+00) (237, 3.57674896315276699688e-02) (238, 3.38708700818889107964e+00) (239, 3.70562541715005755449e+00) (240, 3.38335657799577882443e+00) (241, 3.74985053330278317318e+00) (242, 3.83865624621103496139e+00) (243, 1.59251302806572656579e+01) (244, 2.42778857568846255788e+01) (245, 1.29672876389905038508e+01) (246, 4.43692030289494532269e+00) (247, 4.72479845849079982401e+00) (248, 9.01276765376288979681e-01) (249, 5.49771524399177202724e-01) (250, 4.04075380461926703113e-01) (251, 5.84421093882636188965e-01) (252, 4.73424675206622513901e-01) (253, 4.87541364769420060288e-01) (254, 5.58874257048106781731e-01) (255, 5.61992356960678285382e-01) (256, 5.78696037118339723371e-01) (257, 5.54934963017360338711e-01) (258, 8.92818243764794461370e-01) (259, 5.73555293219201067778e-01) (260, 5.45247912708000326276e-01) (261, 4.78204418579855961013e-01) (262, 3.80012090182741957278e-01) (263, 3.64018074982186812250e+00) (264, 4.81195664474683093559e-01) (265, 2.67064037180369684421e+00) (266, 8.94796560517930039680e+00) (267, 6.41749142761435820148e+00) (268, 1.30169126689672420838e+00) (269, 6.57118737943486319608e+00) (270, 4.39915769786218113779e+00) (271, 9.96200036013503797960e+00) (272, 1.67111285385752523780e+01) (273, 5.15453046683373727888e+00) (274, 2.38494745200265434448e+00) (275, 2.55371091138948180799e+00) (276, 9.56088373593152129892e-01) (277, 5.09575130218785532499e-01) (278, 5.77689219313378465870e-01) (279, 5.13278584330884246612e-01) (280, 4.47552817205867203842e-01) (281, 5.47815406958540918048e-01) (282, 4.98451563836650790584e-01) (283, 5.85975537483596986554e-01) (284, 5.00354806368256133098e-01) (285, 4.88498087663188695906e-01) (286, 5.55101355519225347912e-01) (287, 4.26915460039697880479e-01) (288, 4.94507218726926267571e-01) (289, 4.17321270954468803716e-01) (290, 6.11691130526518800359e-01) (291, -2.18100126020998569265e-01) (292, 3.74603232876959735265e+00) (293, 3.71605787498354211973e-01) (294, 2.79547049551772852638e+00) (295, 2.20976868669669190837e+00) (296, 1.09329626386513449887e+01) (297, 1.13391126570208844448e+00) (298, -1.78871945241704821683e+01) (299, 2.63409005846484323143e+00) (300, 8.95055999195459683904e+00) (301, 4.48677687972408900663e+00) (302, 1.40873423105138773082e+00) (303, 8.41844200145279608627e-01) (304, 5.97035294343787770188e-01) (305, 4.51960834536966560293e-01) (306, 5.84399689036126268604e-01) (307, 4.63138587148504421442e-01) (308, 4.24934609125337037216e-01) (309, 5.28139720003088952716e-01) (310, 5.43345192710837365802e-01) (311, 5.39385970057563057800e-01) (312, 5.42853649081305733581e-01) (313, 4.39629325474659493622e-01) (314, 4.76622211378410653992e-01) (315, 3.56354968592378085201e-01) (316, 4.79355744765216029712e-01) (317, 4.06629563742213095967e-01) (318, -5.40648095021509580982e-02) (319, 7.20790634631000570742e-01) (320, -1.03355752723988181252e+00) (321, 2.56239676569452179411e-01) (322, 6.13353804354869414084e-01) (323, 6.93443919227654514970e+00) (324, 4.24060323609749723062e+00) (325, 7.52254186571707061937e-01) (326, 8.21756999548385769216e-01) (327, 2.79682341158638880785e+00) (328, 2.87403037316554099689e+00) (329, 6.83291299086985381983e-01) (330, 4.47610711428796048672e-01) (331, 5.32703103235887764910e-01) (332, 5.30063245386057757536e-01) (333, 4.37779987247323254529e-01) (334, 4.60910864221568350452e-01) (335, 4.09087988882867681362e-01) (336, 4.47685027758559617173e-01) (337, 4.11361361185988816391e-01) (338, 4.39154597262820634018e-01) (339, 5.37617678229713735760e-01) (340, 4.06399610759334728449e-01) (341, 4.01365613696914536046e-01) (342, 3.99534069492103904864e-01) (343, 3.72413665810800764699e-01) (344, 3.97591777162673631896e-01) (345, 9.80653540441531190730e-02) (346, -1.00433350487202047163e-01) (347, -5.99988396100340160011e-01) (348, -4.04084560762400291090e-01) (349, 4.41304809679297749270e-01) (350, 2.26829330274885276886e-01) (351, 3.14546794138902630067e+00) (352, 3.95846165094400570528e-01) (353, 3.70076343409379351912e-02) (354, 1.76735171209682051519e+00) (355, 9.31674230921326396171e-01) (356, 4.69005007483496827447e-01) (357, 5.08683968058016855451e-01) (358, 3.30858752873929296001e-01) (359, 2.89077001305559244670e-01) (360, 5.21656721267869105674e-01) (361, 4.84531264127807781428e-01) (362, 4.39604594679193660944e-01) (363, 4.74983847753272736547e-01) (364, 4.85992672185382279526e-01) (365, 4.66254340748271378647e-01) (366, 4.83902016918143662583e-01) (367, 6.00576232494429707032e-01) (368, 5.44202301698441748279e-01) (369, 5.38206279383900310087e-01) (370, 4.40222582816952923146e-01) (371, 3.77795811682547999499e-01) (372, 1.72609052590164624430e-01) (373, -1.95661128139063023035e+00) (374, -8.71412841356293710326e-01) (375, -5.52283113277757475856e-01) (376, 7.82479995164110653239e-02) (377, 7.80402391758777236319e-01) (378, 2.97732537855745027500e+00) (379, 2.86476556116862374202e-02) (380, -2.97662861234009668010e+00) (381, -9.00262037619199873006e-01) (382, 1.22162092535478672417e+00) (383, -5.76859376939771982540e-03) (384, 2.51542921235563987636e-01) (385, 1.41901993652833346982e-01) (386, 1.95659647523869079100e-01) (387, -2.34634354034094633201e-01) (388, 3.09650291076848327432e-01) (389, 4.77088149969294439412e-01) (390, 4.97841494564915110210e-01) (391, 5.88361318530158161622e-01) (392, 5.59689114133795739825e-01) (393, 5.04773551861723679401e-01) (394, 4.61674260239085587632e-01) (395, 5.12580315889434201537e-01) (396, 4.37614481943364386218e-01) (397, 3.61135564378190332402e-01) 