FANN_FLO_2.1
num_layers=3
learning_rate=0.400000
connection_rate=1.000000
network_type=0
learning_momentum=0.000000
training_algorithm=2
train_error_function=1
train_stop_function=0
cascade_output_change_fraction=0.010000
quickprop_decay=-0.000100
quickprop_mu=1.750000
rprop_increase_factor=1.200000
rprop_decrease_factor=0.500000
rprop_delta_min=0.000000
rprop_delta_max=50.000000
rprop_delta_zero=0.100000
cascade_output_stagnation_epochs=12
cascade_candidate_change_fraction=0.010000
cascade_candidate_stagnation_epochs=12
cascade_max_out_epochs=150
cascade_max_cand_epochs=150
cascade_num_candidate_groups=2
bit_fail_limit=3.49999999999999977796e-01
cascade_candidate_limit=1.00000000000000000000e+03
cascade_weight_multiplier=4.00000000000000022204e-01
cascade_activation_functions_count=10
cascade_activation_functions=3 5 7 8 10 11 14 15 16 17 
cascade_activation_steepnesses_count=4
cascade_activation_steepnesses=2.50000000000000000000e-01 5.00000000000000000000e-01 7.50000000000000000000e-01 1.00000000000000000000e+00 
layer_sizes=785 101 2 
scale_included=0
neurons (num_inputs, activation_function, activation_steepness)=(0, 0, 0.00000000000000000000e+00) (0, 0, 0.00000000000000000000e+00) (0, 0, 0.00000000000000000000e+00) (0, 0, 0.00000000000000000000e+00) (0, 0, 0.00000000000000000000e+00) (0, 0, 0.00000000000000000000e+00) (0, 0, 0.00000000000000000000e+00) (0, 0, 0.00000000000000000000e+00) (0, 0, 0.00000000000000000000e+00) (0, 0, 0.00000000000000000000e+00) (0, 0, 0.00000000000000000000e+00) (0, 0, 0.00000000000000000000e+00) (0, 0, 0.00000000000000000000e+00) (0, 0, 0.00000000000000000000e+00) (0, 0, 0.00000000000000000000e+00) (0, 0, 0.00000000000000000000e+00) (0, 0, 0.00000000000000000000e+00) (0, 0, 0.00000000000000000000e+00) (0, 0, 0.00000000000000000000e+00) (0, 0, 0.00000000000000000000e+00) (0, 0, 0.00000000000000000000e+00) (0, 0, 0.00000000000000000000e+00) (0, 0, 0.00000000000000000000e+00) (0, 0, 0.00000000000000000000e+00) (0, 0, 0.00000000000000000000e+00) (0, 0, 0.00000000000000000000e+00) (0, 0, 0.00000000000000000000e+00) (0, 0, 0.00000000000000000000e+00) (0, 0, 0.00000000000000000000e+00) (0, 0, 0.00000000000000000000e+00) (0, 0, 0.00000000000000000000e+00) (0, 0, 0.00000000000000000000e+00) (0, 0, 0.00000000000000000000e+00) (0, 0, 0.00000000000000000000e+00) (0, 0, 0.00000000000000000000e+00) (0, 0, 0.00000000000000000000e+00) (0, 0, 0.00000000000000000000e+00) (0, 0, 0.00000000000000000000e+00) (0, 0, 0.00000000000000000000e+00) (0, 0, 0.00000000000000000000e+00) (0, 0, 0.00000000000000000000e+00) (0, 0, 0.00000000000000000000e+00) (0, 0, 0.00000000000000000000e+00) (0, 0, 0.00000000000000000000e+00) (0, 0, 0.00000000000000000000e+00) (0, 0, 0.00000000000000000000e+00) (0, 0, 0.00000000000000000000e+00) (0, 0, 0.00000000000000000000e+00) (0, 0, 0.00000000000000000000e+00) (0, 0, 0.00000000000000000000e+00) (0, 0, 0.00000000000000000000e+00) (0, 0, 0.00000000000000000000e+00) (0, 0, 0.00000000000000000000e+00) (0, 0, 0.00000000000000000000e+00) (0, 0, 0.00000000000000000000e+00) (0, 0, 0.00000000000000000000e+00) (0, 0, 0.00000000000000000000e+00) (0, 0, 0.00000000000000000000e+00) (0, 0, 0.00000000000000000000e+00) (0, 0, 0.00000000000000000000e+00) (0, 0, 0.00000000000000000000e+00) (0, 0, 0.00000000000000000000e+00) (0, 0, 0.00000000000000000000e+00) (0, 0, 0.00000000000000000000e+00) (0, 0, 0.00000000000000000000e+00) (0, 0, 0.00000000000000000000e+00) (0, 0, 0.00000000000000000000e+00) (0, 0, 0.00000000000000000000e+00) (0, 0, 0.00000000000000000000e+00) (0, 0, 0.00000000000000000000e+00) (0, 0, 0.00000000000000000000e+00) (0, 0, 0.00000000000000000000e+00) (0, 0, 0.00000000000000000000e+00) (0, 0, 0.00000000000000000000e+00) (0, 0, 0.00000000000000000000e+00) (0, 0, 0.00000000000000000000e+00) (0, 0, 0.00000000000000000000e+00) (0, 0, 0.00000000000000000000e+00) (0, 0, 0.00000000000000000000e+00) (0, 0, 0.00000000000000000000e+00) (0, 0, 0.00000000000000000000e+00) (0, 0, 0.00000000000000000000e+00) (0, 0, 0.00000000000000000000e+00) (0, 0, 0.00000000000000000000e+00) (0, 0, 0.00000000000000000000e+00) (0, 0, 0.00000000000000000000e+00) (0, 0, 0.00000000000000000000e+00) (0, 0, 0.00000000000000000000e+00) (0, 0, 0.00000000000000000000e+00) (0, 0, 0.00000000000000000000e+00) (0, 0, 0.00000000000000000000e+00) (0, 0, 0.00000000000000000000e+00) (0, 0, 0.00000000000000000000e+00) (0, 0, 0.00000000000000000000e+00) (0, 0, 0.00000000000000000000e+00) (0, 0, 0.00000000000000000000e+00) (0, 0, 0.00000000000000000000e+00) (0, 0, 0.00000000000000000000e+00) (0, 0, 0.00000000000000000000e+00) (0, 0, 0.00000000000000000000e+00) (0, 0, 0.00000000000000000000e+00) (0, 0, 0.00000000000000000000e+00) (0, 0, 0.00000000000000000000e+00) (0, 0, 0.00000000000000000000e+00) (0, 0, 0.00000000000000000000e+00) (0, 0, 0.00000000000000000000e+00) (0, 0, 0.00000000000000000000e+00) (0, 0, 0.00000000000000000000e+00) (0, 0, 0.00000000000000000000e+00) (0, 0, 0.00000000000000000000e+00) (0, 0, 0.00000000000000000000e+00) (0, 0, 0.00000000000000000000e+00) (0, 0, 0.00000000000000000000e+00) (0, 0, 0.00000000000000000000e+00) (0, 0, 0.00000000000000000000e+00) (0, 0, 0.00000000000000000000e+00) (0, 0, 0.00000000000000000000e+00) (0, 0, 0.00000000000000000000e+00) (0, 0, 0.00000000000000000000e+00) (0, 0, 0.00000000000000000000e+00) (0, 0, 0.00000000000000000000e+00) (0, 0, 0.00000000000000000000e+00) (0, 0, 0.00000000000000000000e+00) (0, 0, 0.00000000000000000000e+00) (0, 0, 0.00000000000000000000e+00) (0, 0, 0.00000000000000000000e+00) (0, 0, 0.00000000000000000000e+00) (0, 0, 0.00000000000000000000e+00) (0, 0, 0.00000000000000000000e+00) (0, 0, 0.00000000000000000000e+00) (0, 0, 0.00000000000000000000e+00) (0, 0, 0.00000000000000000000e+00) (0, 0, 0.00000000000000000000e+00) (0, 0, 0.00000000000000000000e+00) (0, 0, 0.00000000000000000000e+00) (0, 0, 0.00000000000000000000e+00) (0, 0, 0.00000000000000000000e+00) (0, 0, 0.00000000000000000000e+00) (0, 0, 0.00000000000000000000e+00) (0, 0, 0.00000000000000000000e+00) (0, 0, 0.00000000000000000000e+00) (0, 0, 0.00000000000000000000e+00) (0, 0, 0.00000000000000000000e+00) (0, 0, 0.00000000000000000000e+00) (0, 0, 0.00000000000000000000e+00) (0, 0, 0.00000000000000000000e+00) (0, 0, 0.00000000000000000000e+00) (0, 0, 0.00000000000000000000e+00) (0, 0, 0.00000000000000000000e+00) (0, 0, 0.00000000000000000000e+00) (0, 0, 0.00000000000000000000e+00) (0, 0, 0.00000000000000000000e+00) (0, 0, 0.00000000000000000000e+00) (0, 0, 0.00000000000000000000e+00) (0, 0, 0.00000000000000000000e+00) (0, 0, 0.00000000000000000000e+00) (0, 0, 0.00000000000000000000e+00) (0, 0, 0.00000000000000000000e+00) (0, 0, 0.00000000000000000000e+00) (0, 0, 0.00000000000000000000e+00) (0, 0, 0.00000000000000000000e+00) (0, 0, 0.00000000000000000000e+00) (0, 0, 0.00000000000000000000e+00) (0, 0, 0.00000000000000000000e+00) (0, 0, 0.00000000000000000000e+00) (0, 0, 0.00000000000000000000e+00) (0, 0, 0.00000000000000000000e+00) (0, 0, 0.00000000000000000000e+00) (0, 0, 0.00000000000000000000e+00) (0, 0, 0.00000000000000000000e+00) (0, 0, 0.00000000000000000000e+00) (0, 0, 0.00000000000000000000e+00) (0, 0, 0.00000000000000000000e+00) (0, 0, 0.00000000000000000000e+00) (0, 0, 0.00000000000000000000e+00) (0, 0, 0.00000000000000000000e+00) (0, 0, 0.00000000000000000000e+00) (0, 0, 0.00000000000000000000e+00) (0, 0, 0.00000000000000000000e+00) (0, 0, 0.00000000000000000000e+00) (0, 0, 0.00000000000000000000e+00) (0, 0, 0.00000000000000000000e+00) (0, 0, 0.00000000000000000000e+00) (0, 0, 0.00000000000000000000e+00) (0, 0, 0.00000000000000000000e+00) (0, 0, 0.00000000000000000000e+00) (0, 0, 0.00000000000000000000e+00) (0, 0, 0.00000000000000000000e+00) (0, 0, 0.00000000000000000000e+00) (0, 0, 0.00000000000000000000e+00) (0, 0, 0.00000000000000000000e+00) (0, 0, 0.00000000000000000000e+00) (0, 0, 0.00000000000000000000e+00) (0, 0, 0.00000000000000000000e+00) (0, 0, 0.00000000000000000000e+00) (0, 0, 0.00000000000000000000e+00) (0, 0, 0.00000000000000000000e+00) (0, 0, 0.00000000000000000000e+00) (0, 0, 0.00000000000000000000e+00) (0, 0, 0.00000000000000000000e+00) (0, 0, 0.00000000000000000000e+00) (0, 0, 0.00000000000000000000e+00) (0, 0, 0.00000000000000000000e+00) (0, 0, 0.00000000000000000000e+00) (0, 0, 0.00000000000000000000e+00) (0, 0, 0.00000000000000000000e+00) (0, 0, 0.00000000000000000000e+00) (0, 0, 0.00000000000000000000e+00) (0, 0, 0.00000000000000000000e+00) (0, 0, 0.00000000000000000000e+00) (0, 0, 0.00000000000000000000e+00) (0, 0, 0.00000000000000000000e+00) (0, 0, 0.00000000000000000000e+00) (0, 0, 0.00000000000000000000e+00) (0, 0, 0.00000000000000000000e+00) (0, 0, 0.00000000000000000000e+00) (0, 0, 0.00000000000000000000e+00) (0, 0, 0.00000000000000000000e+00) (0, 0, 0.00000000000000000000e+00) (0, 0, 0.00000000000000000000e+00) (0, 0, 0.00000000000000000000e+00) (0, 0, 0.00000000000000000000e+00) (0, 0, 0.00000000000000000000e+00) (0, 0, 0.00000000000000000000e+00) (0, 0, 0.00000000000000000000e+00) (0, 0, 0.00000000000000000000e+00) (0, 0, 0.00000000000000000000e+00) (0, 0, 0.00000000000000000000e+00) (0, 0, 0.00000000000000000000e+00) (0, 0, 0.00000000000000000000e+00) (0, 0, 0.00000000000000000000e+00) (0, 0, 0.00000000000000000000e+00) (0, 0, 0.00000000000000000000e+00) (0, 0, 0.00000000000000000000e+00) (0, 0, 0.00000000000000000000e+00) (0, 0, 0.00000000000000000000e+00) (0, 0, 0.00000000000000000000e+00) (0, 0, 0.00000000000000000000e+00) (0, 0, 0.00000000000000000000e+00) (0, 0, 0.00000000000000000000e+00) (0, 0, 0.00000000000000000000e+00) (0, 0, 0.00000000000000000000e+00) (0, 0, 0.00000000000000000000e+00) (0, 0, 0.00000000000000000000e+00) (0, 0, 0.00000000000000000000e+00) (0, 0, 0.00000000000000000000e+00) (0, 0, 0.00000000000000000000e+00) (0, 0, 0.00000000000000000000e+00) (0, 0, 0.00000000000000000000e+00) (0, 0, 0.00000000000000000000e+00) (0, 0, 0.00000000000000000000e+00) (0, 0, 0.00000000000000000000e+00) (0, 0, 0.00000000000000000000e+00) (0, 0, 0.00000000000000000000e+00) (0, 0, 0.00000000000000000000e+00) (0, 0, 0.00000000000000000000e+00) (0, 0, 0.00000000000000000000e+00) (0, 0, 0.00000000000000000000e+00) (0, 0, 0.00000000000000000000e+00) (0, 0, 0.00000000000000000000e+00) (0, 0, 0.00000000000000000000e+00) (0, 0, 0.00000000000000000000e+00) (0, 0, 0.00000000000000000000e+00) (0, 0, 0.00000000000000000000e+00) (0, 0, 0.00000000000000000000e+00) (0, 0, 0.00000000000000000000e+00) (0, 0, 0.00000000000000000000e+00) (0, 0, 0.00000000000000000000e+00) (0, 0, 0.00000000000000000000e+00) (0, 0, 0.00000000000000000000e+00) (0, 0, 0.00000000000000000000e+00) (0, 0, 0.00000000000000000000e+00) (0, 0, 0.00000000000000000000e+00) (0, 0, 0.00000000000000000000e+00) (0, 0, 0.00000000000000000000e+00) (0, 0, 0.00000000000000000000e+00) (0, 0, 0.00000000000000000000e+00) (0, 0, 0.00000000000000000000e+00) (0, 0, 0.00000000000000000000e+00) (0, 0, 0.00000000000000000000e+00) (0, 0, 0.00000000000000000000e+00) (0, 0, 0.00000000000000000000e+00) (0, 0, 0.00000000000000000000e+00) (0, 0, 0.00000000000000000000e+00) (0, 0, 0.00000000000000000000e+00) (0, 0, 0.00000000000000000000e+00) (0, 0, 0.00000000000000000000e+00) (0, 0, 0.00000000000000000000e+00) (0, 0, 0.00000000000000000000e+00) (0, 0, 0.00000000000000000000e+00) (0, 0, 0.00000000000000000000e+00) (0, 0, 0.00000000000000000000e+00) (0, 0, 0.00000000000000000000e+00) (0, 0, 0.00000000000000000000e+00) (0, 0, 0.00000000000000000000e+00) (0, 0, 0.00000000000000000000e+00) (0, 0, 0.00000000000000000000e+00) (0, 0, 0.00000000000000000000e+00) (0, 0, 0.00000000000000000000e+00) (0, 0, 0.00000000000000000000e+00) (0, 0, 0.00000000000000000000e+00) (0, 0, 0.00000000000000000000e+00) (0, 0, 0.00000000000000000000e+00) (0, 0, 0.00000000000000000000e+00) (0, 0, 0.00000000000000000000e+00) (0, 0, 0.00000000000000000000e+00) (0, 0, 0.00000000000000000000e+00) (0, 0, 0.00000000000000000000e+00) (0, 0, 0.00000000000000000000e+00) (0, 0, 0.00000000000000000000e+00) (0, 0, 0.00000000000000000000e+00) (0, 0, 0.00000000000000000000e+00) (0, 0, 0.00000000000000000000e+00) (0, 0, 0.00000000000000000000e+00) (0, 0, 0.00000000000000000000e+00) (0, 0, 0.00000000000000000000e+00) (0, 0, 0.00000000000000000000e+00) (0, 0, 0.00000000000000000000e+00) (0, 0, 0.00000000000000000000e+00) (0, 0, 0.00000000000000000000e+00) (0, 0, 0.00000000000000000000e+00) (0, 0, 0.00000000000000000000e+00) (0, 0, 0.00000000000000000000e+00) (0, 0, 0.00000000000000000000e+00) (0, 0, 0.00000000000000000000e+00) (0, 0, 0.00000000000000000000e+00) (0, 0, 0.00000000000000000000e+00) (0, 0, 0.00000000000000000000e+00) (0, 0, 0.00000000000000000000e+00) (0, 0, 0.00000000000000000000e+00) (0, 0, 0.00000000000000000000e+00) (0, 0, 0.00000000000000000000e+00) (0, 0, 0.00000000000000000000e+00) (0, 0, 0.00000000000000000000e+00) (0, 0, 0.00000000000000000000e+00) (0, 0, 0.00000000000000000000e+00) (0, 0, 0.00000000000000000000e+00) (0, 0, 0.00000000000000000000e+00) (0, 0, 0.00000000000000000000e+00) (0, 0, 0.00000000000000000000e+00) (0, 0, 0.00000000000000000000e+00) (0, 0, 0.00000000000000000000e+00) (0, 0, 0.00000000000000000000e+00) (0, 0, 0.00000000000000000000e+00) (0, 0, 0.00000000000000000000e+00) (0, 0, 0.00000000000000000000e+00) (0, 0, 0.00000000000000000000e+00) (0, 0, 0.00000000000000000000e+00) (0, 0, 0.00000000000000000000e+00) (0, 0, 0.00000000000000000000e+00) (0, 0, 0.00000000000000000000e+00) (0, 0, 0.00000000000000000000e+00) (0, 0, 0.00000000000000000000e+00) (0, 0, 0.00000000000000000000e+00) (0, 0, 0.00000000000000000000e+00) (0, 0, 0.00000000000000000000e+00) (0, 0, 0.00000000000000000000e+00) (0, 0, 0.00000000000000000000e+00) (0, 0, 0.00000000000000000000e+00) (0, 0, 0.00000000000000000000e+00) (0, 0, 0.00000000000000000000e+00) (0, 0, 0.00000000000000000000e+00) (0, 0, 0.00000000000000000000e+00) (0, 0, 0.00000000000000000000e+00) (0, 0, 0.00000000000000000000e+00) (0, 0, 0.00000000000000000000e+00) (0, 0, 0.00000000000000000000e+00) (0, 0, 0.00000000000000000000e+00) (0, 0, 0.00000000000000000000e+00) (0, 0, 0.00000000000000000000e+00) (0, 0, 0.00000000000000000000e+00) (0, 0, 0.00000000000000000000e+00) (0, 0, 0.00000000000000000000e+00) (0, 0, 0.00000000000000000000e+00) (0, 0, 0.00000000000000000000e+00) (0, 0, 0.00000000000000000000e+00) (0, 0, 0.00000000000000000000e+00) (0, 0, 0.00000000000000000000e+00) (0, 0, 0.00000000000000000000e+00) (0, 0, 0.00000000000000000000e+00) (0, 0, 0.00000000000000000000e+00) (0, 0, 0.00000000000000000000e+00) (0, 0, 0.00000000000000000000e+00) (0, 0, 0.00000000000000000000e+00) (0, 0, 0.00000000000000000000e+00) (0, 0, 0.00000000000000000000e+00) (0, 0, 0.00000000000000000000e+00) (0, 0, 0.00000000000000000000e+00) (0, 0, 0.00000000000000000000e+00) (0, 0, 0.00000000000000000000e+00) (0, 0, 0.00000000000000000000e+00) (0, 0, 0.00000000000000000000e+00) (0, 0, 0.00000000000000000000e+00) (0, 0, 0.00000000000000000000e+00) (0, 0, 0.00000000000000000000e+00) (0, 0, 0.00000000000000000000e+00) (0, 0, 0.00000000000000000000e+00) (0, 0, 0.00000000000000000000e+00) (0, 0, 0.00000000000000000000e+00) (0, 0, 0.00000000000000000000e+00) (0, 0, 0.00000000000000000000e+00) (0, 0, 0.00000000000000000000e+00) (0, 0, 0.00000000000000000000e+00) (0, 0, 0.00000000000000000000e+00) (0, 0, 0.00000000000000000000e+00) (0, 0, 0.00000000000000000000e+00) (0, 0, 0.00000000000000000000e+00) (0, 0, 0.00000000000000000000e+00) (0, 0, 0.00000000000000000000e+00) (0, 0, 0.00000000000000000000e+00) (0, 0, 0.00000000000000000000e+00) (0, 0, 0.00000000000000000000e+00) (0, 0, 0.00000000000000000000e+00) (0, 0, 0.00000000000000000000e+00) (0, 0, 0.00000000000000000000e+00) (0, 0, 0.00000000000000000000e+00) (0, 0, 0.00000000000000000000e+00) (0, 0, 0.00000000000000000000e+00) (0, 0, 0.00000000000000000000e+00) (0, 0, 0.00000000000000000000e+00) (0, 0, 0.00000000000000000000e+00) (0, 0, 0.00000000000000000000e+00) (0, 0, 0.00000000000000000000e+00) (0, 0, 0.00000000000000000000e+00) (0, 0, 0.00000000000000000000e+00) (0, 0, 0.00000000000000000000e+00) (0, 0, 0.00000000000000000000e+00) (0, 0, 0.00000000000000000000e+00) (0, 0, 0.00000000000000000000e+00) (0, 0, 0.00000000000000000000e+00) (0, 0, 0.00000000000000000000e+00) (0, 0, 0.00000000000000000000e+00) (0, 0, 0.00000000000000000000e+00) (0, 0, 0.00000000000000000000e+00) (0, 0, 0.00000000000000000000e+00) (0, 0, 0.00000000000000000000e+00) (0, 0, 0.00000000000000000000e+00) (0, 0, 0.00000000000000000000e+00) (0, 0, 0.00000000000000000000e+00) (0, 0, 0.00000000000000000000e+00) (0, 0, 0.00000000000000000000e+00) (0, 0, 0.00000000000000000000e+00) (0, 0, 0.00000000000000000000e+00) (0, 0, 0.00000000000000000000e+00) (0, 0, 0.00000000000000000000e+00) (0, 0, 0.00000000000000000000e+00) (0, 0, 0.00000000000000000000e+00) (0, 0, 0.00000000000000000000e+00) (0, 0, 0.00000000000000000000e+00) (0, 0, 0.00000000000000000000e+00) (0, 0, 0.00000000000000000000e+00) (0, 0, 0.00000000000000000000e+00) (0, 0, 0.00000000000000000000e+00) (0, 0, 0.00000000000000000000e+00) (0, 0, 0.00000000000000000000e+00) (0, 0, 0.00000000000000000000e+00) (0, 0, 0.00000000000000000000e+00) (0, 0, 0.00000000000000000000e+00) (0, 0, 0.00000000000000000000e+00) (0, 0, 0.00000000000000000000e+00) (0, 0, 0.00000000000000000000e+00) (0, 0, 0.00000000000000000000e+00) (0, 0, 0.00000000000000000000e+00) (0, 0, 0.00000000000000000000e+00) (0, 0, 0.00000000000000000000e+00) (0, 0, 0.00000000000000000000e+00) (0, 0, 0.00000000000000000000e+00) (0, 0, 0.00000000000000000000e+00) (0, 0, 0.00000000000000000000e+00) (0, 0, 0.00000000000000000000e+00) (0, 0, 0.00000000000000000000e+00) (0, 0, 0.00000000000000000000e+00) (0, 0, 0.00000000000000000000e+00) (0, 0, 0.00000000000000000000e+00) (0, 0, 0.00000000000000000000e+00) (0, 0, 0.00000000000000000000e+00) (0, 0, 0.00000000000000000000e+00) (0, 0, 0.00000000000000000000e+00) (0, 0, 0.00000000000000000000e+00) (0, 0, 0.00000000000000000000e+00) (0, 0, 0.00000000000000000000e+00) (0, 0, 0.00000000000000000000e+00) (0, 0, 0.00000000000000000000e+00) (0, 0, 0.00000000000000000000e+00) (0, 0, 0.00000000000000000000e+00) (0, 0, 0.00000000000000000000e+00) (0, 0, 0.00000000000000000000e+00) (0, 0, 0.00000000000000000000e+00) (0, 0, 0.00000000000000000000e+00) (0, 0, 0.00000000000000000000e+00) (0, 0, 0.00000000000000000000e+00) (0, 0, 0.00000000000000000000e+00) (0, 0, 0.00000000000000000000e+00) (0, 0, 0.00000000000000000000e+00) (0, 0, 0.00000000000000000000e+00) (0, 0, 0.00000000000000000000e+00) (0, 0, 0.00000000000000000000e+00) (0, 0, 0.00000000000000000000e+00) (0, 0, 0.00000000000000000000e+00) (0, 0, 0.00000000000000000000e+00) (0, 0, 0.00000000000000000000e+00) (0, 0, 0.00000000000000000000e+00) (0, 0, 0.00000000000000000000e+00) (0, 0, 0.00000000000000000000e+00) (0, 0, 0.00000000000000000000e+00) (0, 0, 0.00000000000000000000e+00) (0, 0, 0.00000000000000000000e+00) (0, 0, 0.00000000000000000000e+00) (0, 0, 0.00000000000000000000e+00) (0, 0, 0.00000000000000000000e+00) (0, 0, 0.00000000000000000000e+00) (0, 0, 0.00000000000000000000e+00) (0, 0, 0.00000000000000000000e+00) (0, 0, 0.00000000000000000000e+00) (0, 0, 0.00000000000000000000e+00) (0, 0, 0.00000000000000000000e+00) (0, 0, 0.00000000000000000000e+00) (0, 0, 0.00000000000000000000e+00) (0, 0, 0.00000000000000000000e+00) (0, 0, 0.00000000000000000000e+00) (0, 0, 0.00000000000000000000e+00) (0, 0, 0.00000000000000000000e+00) (0, 0, 0.00000000000000000000e+00) (0, 0, 0.00000000000000000000e+00) (0, 0, 0.00000000000000000000e+00) (0, 0, 0.00000000000000000000e+00) (0, 0, 0.00000000000000000000e+00) (0, 0, 0.00000000000000000000e+00) (0, 0, 0.00000000000000000000e+00) (0, 0, 0.00000000000000000000e+00) (0, 0, 0.00000000000000000000e+00) (0, 0, 0.00000000000000000000e+00) (0, 0, 0.00000000000000000000e+00) (0, 0, 0.00000000000000000000e+00) (0, 0, 0.00000000000000000000e+00) (0, 0, 0.00000000000000000000e+00) (0, 0, 0.00000000000000000000e+00) (0, 0, 0.00000000000000000000e+00) (0, 0, 0.00000000000000000000e+00) (0, 0, 0.00000000000000000000e+00) (0, 0, 0.00000000000000000000e+00) (0, 0, 0.00000000000000000000e+00) (0, 0, 0.00000000000000000000e+00) (0, 0, 0.00000000000000000000e+00) (0, 0, 0.00000000000000000000e+00) (0, 0, 0.00000000000000000000e+00) (0, 0, 0.00000000000000000000e+00) (0, 0, 0.00000000000000000000e+00) (0, 0, 0.00000000000000000000e+00) (0, 0, 0.00000000000000000000e+00) (0, 0, 0.00000000000000000000e+00) (0, 0, 0.00000000000000000000e+00) (0, 0, 0.00000000000000000000e+00) (0, 0, 0.00000000000000000000e+00) (0, 0, 0.00000000000000000000e+00) (0, 0, 0.00000000000000000000e+00) (0, 0, 0.00000000000000000000e+00) (0, 0, 0.00000000000000000000e+00) (0, 0, 0.00000000000000000000e+00) (0, 0, 0.00000000000000000000e+00) (0, 0, 0.00000000000000000000e+00) (0, 0, 0.00000000000000000000e+00) (0, 0, 0.00000000000000000000e+00) (0, 0, 0.00000000000000000000e+00) (0, 0, 0.00000000000000000000e+00) (0, 0, 0.00000000000000000000e+00) (0, 0, 0.00000000000000000000e+00) (0, 0, 0.00000000000000000000e+00) (0, 0, 0.00000000000000000000e+00) (0, 0, 0.00000000000000000000e+00) (0, 0, 0.00000000000000000000e+00) (0, 0, 0.00000000000000000000e+00) (0, 0, 0.00000000000000000000e+00) (0, 0, 0.00000000000000000000e+00) (0, 0, 0.00000000000000000000e+00) (0, 0, 0.00000000000000000000e+00) (0, 0, 0.00000000000000000000e+00) (0, 0, 0.00000000000000000000e+00) (0, 0, 0.00000000000000000000e+00) (0, 0, 0.00000000000000000000e+00) (0, 0, 0.00000000000000000000e+00) (0, 0, 0.00000000000000000000e+00) (0, 0, 0.00000000000000000000e+00) (0, 0, 0.00000000000000000000e+00) (0, 0, 0.00000000000000000000e+00) (0, 0, 0.00000000000000000000e+00) (0, 0, 0.00000000000000000000e+00) (0, 0, 0.00000000000000000000e+00) (0, 0, 0.00000000000000000000e+00) (0, 0, 0.00000000000000000000e+00) (0, 0, 0.00000000000000000000e+00) (0, 0, 0.00000000000000000000e+00) (0, 0, 0.00000000000000000000e+00) (0, 0, 0.00000000000000000000e+00) (0, 0, 0.00000000000000000000e+00) (0, 0, 0.00000000000000000000e+00) (0, 0, 0.00000000000000000000e+00) (0, 0, 0.00000000000000000000e+00) (0, 0, 0.00000000000000000000e+00) (0, 0, 0.00000000000000000000e+00) (0, 0, 0.00000000000000000000e+00) (0, 0, 0.00000000000000000000e+00) (0, 0, 0.00000000000000000000e+00) (0, 0, 0.00000000000000000000e+00) (0, 0, 0.00000000000000000000e+00) (0, 0, 0.00000000000000000000e+00) (0, 0, 0.00000000000000000000e+00) (0, 0, 0.00000000000000000000e+00) (0, 0, 0.00000000000000000000e+00) (0, 0, 0.00000000000000000000e+00) (0, 0, 0.00000000000000000000e+00) (0, 0, 0.00000000000000000000e+00) (0, 0, 0.00000000000000000000e+00) (0, 0, 0.00000000000000000000e+00) (0, 0, 0.00000000000000000000e+00) (0, 0, 0.00000000000000000000e+00) (0, 0, 0.00000000000000000000e+00) (0, 0, 0.00000000000000000000e+00) (0, 0, 0.00000000000000000000e+00) (0, 0, 0.00000000000000000000e+00) (0, 0, 0.00000000000000000000e+00) (0, 0, 0.00000000000000000000e+00) (0, 0, 0.00000000000000000000e+00) (0, 0, 0.00000000000000000000e+00) (0, 0, 0.00000000000000000000e+00) (0, 0, 0.00000000000000000000e+00) (0, 0, 0.00000000000000000000e+00) (0, 0, 0.00000000000000000000e+00) (0, 0, 0.00000000000000000000e+00) (0, 0, 0.00000000000000000000e+00) (0, 0, 0.00000000000000000000e+00) (0, 0, 0.00000000000000000000e+00) (0, 0, 0.00000000000000000000e+00) (0, 0, 0.00000000000000000000e+00) (0, 0, 0.00000000000000000000e+00) (0, 0, 0.00000000000000000000e+00) (0, 0, 0.00000000000000000000e+00) (0, 0, 0.00000000000000000000e+00) (0, 0, 0.00000000000000000000e+00) (0, 0, 0.00000000000000000000e+00) (0, 0, 0.00000000000000000000e+00) (0, 0, 0.00000000000000000000e+00) (0, 0, 0.00000000000000000000e+00) (0, 0, 0.00000000000000000000e+00) (0, 0, 0.00000000000000000000e+00) (0, 0, 0.00000000000000000000e+00) (0, 0, 0.00000000000000000000e+00) (0, 0, 0.00000000000000000000e+00) (0, 0, 0.00000000000000000000e+00) (0, 0, 0.00000000000000000000e+00) (0, 0, 0.00000000000000000000e+00) (0, 0, 0.00000000000000000000e+00) (0, 0, 0.00000000000000000000e+00) (0, 0, 0.00000000000000000000e+00) (0, 0, 0.00000000000000000000e+00) (0, 0, 0.00000000000000000000e+00) (0, 0, 0.00000000000000000000e+00) (0, 0, 0.00000000000000000000e+00) (0, 0, 0.00000000000000000000e+00) (0, 0, 0.00000000000000000000e+00) (0, 0, 0.00000000000000000000e+00) (0, 0, 0.00000000000000000000e+00) (0, 0, 0.00000000000000000000e+00) (0, 0, 0.00000000000000000000e+00) (0, 0, 0.00000000000000000000e+00) (0, 0, 0.00000000000000000000e+00) (0, 0, 0.00000000000000000000e+00) (0, 0, 0.00000000000000000000e+00) (0, 0, 0.00000000000000000000e+00) (0, 0, 0.00000000000000000000e+00) (0, 0, 0.00000000000000000000e+00) (0, 0, 0.00000000000000000000e+00) (0, 0, 0.00000000000000000000e+00) (0, 0, 0.00000000000000000000e+00) (0, 0, 0.00000000000000000000e+00) (0, 0, 0.00000000000000000000e+00) (0, 0, 0.00000000000000000000e+00) (0, 0, 0.00000000000000000000e+00) (0, 0, 0.00000000000000000000e+00) (0, 0, 0.00000000000000000000e+00) (0, 0, 0.00000000000000000000e+00) (0, 0, 0.00000000000000000000e+00) (0, 0, 0.00000000000000000000e+00) (0, 0, 0.00000000000000000000e+00) (0, 0, 0.00000000000000000000e+00) (0, 0, 0.00000000000000000000e+00) (0, 0, 0.00000000000000000000e+00) (0, 0, 0.00000000000000000000e+00) (0, 0, 0.00000000000000000000e+00) (0, 0, 0.00000000000000000000e+00) (0, 0, 0.00000000000000000000e+00) (0, 0, 0.00000000000000000000e+00) (0, 0, 0.00000000000000000000e+00) (0, 0, 0.00000000000000000000e+00) (0, 0, 0.00000000000000000000e+00) (0, 0, 0.00000000000000000000e+00) (0, 0, 0.00000000000000000000e+00) (0, 0, 0.00000000000000000000e+00) (0, 0, 0.00000000000000000000e+00) (0, 0, 0.00000000000000000000e+00) (0, 0, 0.00000000000000000000e+00) (0, 0, 0.00000000000000000000e+00) (0, 0, 0.00000000000000000000e+00) (0, 0, 0.00000000000000000000e+00) (0, 0, 0.00000000000000000000e+00) (0, 0, 0.00000000000000000000e+00) (0, 0, 0.00000000000000000000e+00) (0, 0, 0.00000000000000000000e+00) (0, 0, 0.00000000000000000000e+00) (0, 0, 0.00000000000000000000e+00) (0, 0, 0.00000000000000000000e+00) (0, 0, 0.00000000000000000000e+00) (0, 0, 0.00000000000000000000e+00) (0, 0, 0.00000000000000000000e+00) (0, 0, 0.00000000000000000000e+00) (0, 0, 0.00000000000000000000e+00) (0, 0, 0.00000000000000000000e+00) (0, 0, 0.00000000000000000000e+00) (0, 0, 0.00000000000000000000e+00) (0, 0, 0.00000000000000000000e+00) (0, 0, 0.00000000000000000000e+00) (0, 0, 0.00000000000000000000e+00) (0, 0, 0.00000000000000000000e+00) (0, 0, 0.00000000000000000000e+00) (0, 0, 0.00000000000000000000e+00) (0, 0, 0.00000000000000000000e+00) (0, 0, 0.00000000000000000000e+00) (0, 0, 0.00000000000000000000e+00) (0, 0, 0.00000000000000000000e+00) (0, 0, 0.00000000000000000000e+00) (0, 0, 0.00000000000000000000e+00) (0, 0, 0.00000000000000000000e+00) (0, 0, 0.00000000000000000000e+00) (0, 0, 0.00000000000000000000e+00) (0, 0, 0.00000000000000000000e+00) (0, 0, 0.00000000000000000000e+00) (0, 0, 0.00000000000000000000e+00) (0, 0, 0.00000000000000000000e+00) (0, 0, 0.00000000000000000000e+00) (0, 0, 0.00000000000000000000e+00) (0, 0, 0.00000000000000000000e+00) (0, 0, 0.00000000000000000000e+00) (0, 0, 0.00000000000000000000e+00) (0, 0, 0.00000000000000000000e+00) (0, 0, 0.00000000000000000000e+00) (0, 0, 0.00000000000000000000e+00) (0, 0, 0.00000000000000000000e+00) (0, 0, 0.00000000000000000000e+00) (0, 0, 0.00000000000000000000e+00) (0, 0, 0.00000000000000000000e+00) (0, 0, 0.00000000000000000000e+00) (0, 0, 0.00000000000000000000e+00) (0, 0, 0.00000000000000000000e+00) (0, 0, 0.00000000000000000000e+00) (0, 0, 0.00000000000000000000e+00) (0, 0, 0.00000000000000000000e+00) (0, 0, 0.00000000000000000000e+00) (0, 0, 0.00000000000000000000e+00) (0, 0, 0.00000000000000000000e+00) (0, 0, 0.00000000000000000000e+00) (0, 0, 0.00000000000000000000e+00) (0, 0, 0.00000000000000000000e+00) (0, 0, 0.00000000000000000000e+00) (0, 0, 0.00000000000000000000e+00) (0, 0, 0.00000000000000000000e+00) (0, 0, 0.00000000000000000000e+00) (0, 0, 0.00000000000000000000e+00) (0, 0, 0.00000000000000000000e+00) (0, 0, 0.00000000000000000000e+00) (0, 0, 0.00000000000000000000e+00) (0, 0, 0.00000000000000000000e+00) (0, 0, 0.00000000000000000000e+00) (0, 0, 0.00000000000000000000e+00) (0, 0, 0.00000000000000000000e+00) (0, 0, 0.00000000000000000000e+00) (0, 0, 0.00000000000000000000e+00) (0, 0, 0.00000000000000000000e+00) (0, 0, 0.00000000000000000000e+00) (0, 0, 0.00000000000000000000e+00) (0, 0, 0.00000000000000000000e+00) (0, 0, 0.00000000000000000000e+00) (0, 0, 0.00000000000000000000e+00) (0, 0, 0.00000000000000000000e+00) (0, 0, 0.00000000000000000000e+00) (0, 0, 0.00000000000000000000e+00) (785, 4, 5.00000000000000000000e-01) (785, 4, 5.00000000000000000000e-01) (785, 4, 5.00000000000000000000e-01) (785, 4, 5.00000000000000000000e-01) (785, 4, 5.00000000000000000000e-01) (785, 4, 5.00000000000000000000e-01) (785, 4, 5.00000000000000000000e-01) (785, 4, 5.00000000000000000000e-01) (785, 4, 5.00000000000000000000e-01) (785, 4, 5.00000000000000000000e-01) (785, 4, 5.00000000000000000000e-01) (785, 4, 5.00000000000000000000e-01) (785, 4, 5.00000000000000000000e-01) (785, 4, 5.00000000000000000000e-01) (785, 4, 5.00000000000000000000e-01) (785, 4, 5.00000000000000000000e-01) (785, 4, 5.00000000000000000000e-01) (785, 4, 5.00000000000000000000e-01) (785, 4, 5.00000000000000000000e-01) (785, 4, 5.00000000000000000000e-01) (785, 4, 5.00000000000000000000e-01) (785, 4, 5.00000000000000000000e-01) (785, 4, 5.00000000000000000000e-01) (785, 4, 5.00000000000000000000e-01) (785, 4, 5.00000000000000000000e-01) (785, 4, 5.00000000000000000000e-01) (785, 4, 5.00000000000000000000e-01) (785, 4, 5.00000000000000000000e-01) (785, 4, 5.00000000000000000000e-01) (785, 4, 5.00000000000000000000e-01) (785, 4, 5.00000000000000000000e-01) (785, 4, 5.00000000000000000000e-01) (785, 4, 5.00000000000000000000e-01) (785, 4, 5.00000000000000000000e-01) (785, 4, 5.00000000000000000000e-01) (785, 4, 5.00000000000000000000e-01) (785, 4, 5.00000000000000000000e-01) (785, 4, 5.00000000000000000000e-01) (785, 4, 5.00000000000000000000e-01) (785, 4, 5.00000000000000000000e-01) (785, 4, 5.00000000000000000000e-01) (785, 4, 5.00000000000000000000e-01) (785, 4, 5.00000000000000000000e-01) (785, 4, 5.00000000000000000000e-01) (785, 4, 5.00000000000000000000e-01) (785, 4, 5.00000000000000000000e-01) (785, 4, 5.00000000000000000000e-01) (785, 4, 5.00000000000000000000e-01) (785, 4, 5.00000000000000000000e-01) (785, 4, 5.00000000000000000000e-01) (785, 4, 5.00000000000000000000e-01) (785, 4, 5.00000000000000000000e-01) (785, 4, 5.00000000000000000000e-01) (785, 4, 5.00000000000000000000e-01) (785, 4, 5.00000000000000000000e-01) (785, 4, 5.00000000000000000000e-01) (785, 4, 5.00000000000000000000e-01) (785, 4, 5.00000000000000000000e-01) (785, 4, 5.00000000000000000000e-01) (785, 4, 5.00000000000000000000e-01) (785, 4, 5.00000000000000000000e-01) (785, 4, 5.00000000000000000000e-01) (785, 4, 5.00000000000000000000e-01) (785, 4, 5.00000000000000000000e-01) (785, 4, 5.00000000000000000000e-01) (785, 4, 5.00000000000000000000e-01) (785, 4, 5.00000000000000000000e-01) (785, 4, 5.00000000000000000000e-01) (785, 4, 5.00000000000000000000e-01) (785, 4, 5.00000000000000000000e-01) (785, 4, 5.00000000000000000000e-01) (785, 4, 5.00000000000000000000e-01) (785, 4, 5.00000000000000000000e-01) (785, 4, 5.00000000000000000000e-01) (785, 4, 5.00000000000000000000e-01) (785, 4, 5.00000000000000000000e-01) (785, 4, 5.00000000000000000000e-01) (785, 4, 5.00000000000000000000e-01) (785, 4, 5.00000000000000000000e-01) (785, 4, 5.00000000000000000000e-01) (785, 4, 5.00000000000000000000e-01) (785, 4, 5.00000000000000000000e-01) (785, 4, 5.00000000000000000000e-01) (785, 4, 5.00000000000000000000e-01) (785, 4, 5.00000000000000000000e-01) (785, 4, 5.00000000000000000000e-01) (785, 4, 5.00000000000000000000e-01) (785, 4, 5.00000000000000000000e-01) (785, 4, 5.00000000000000000000e-01) (785, 4, 5.00000000000000000000e-01) (785, 4, 5.00000000000000000000e-01) (785, 4, 5.00000000000000000000e-01) (785, 4, 5.00000000000000000000e-01) (785, 4, 5.00000000000000000000e-01) (785, 4, 5.00000000000000000000e-01) (785, 4, 5.00000000000000000000e-01) (785, 4, 5.00000000000000000000e-01) (785, 4, 5.00000000000000000000e-01) (785, 4, 5.00000000000000000000e-01) (785, 4, 5.00000000000000000000e-01) (0, 0, 0.00000000000000000000e+00) (101, 5, 5.00000000000000000000e-01) (0, 5, 0.00000000000000000000e+00) 
connections (connected_to_neuron, weight)=(0, 1.75166260207108293034e-02) (1, -1.24909246364790935124e-01) (2, 2.66848038638046874960e-02) (3, -6.43421504890510920216e-02) (4, -5.67220393812247480891e-02) (5, -1.11816842352934955190e-02) (6, -6.26027453934738520314e-02) (7, 2.57011186087540283163e-02) (8, 4.27200924361161374354e-02) (9, -8.61452916819678516866e-04) (10, -3.52226386423789249169e-03) (11, -1.64461825286933288615e-02) (12, 3.57725154364518238559e-02) (13, -1.11458906928260048641e-01) (14, -6.16001133119651947401e-02) (15, 2.40610223019531860311e-02) (16, -1.02977754572589147442e-01) (17, -8.19670986628124598194e-02) (18, -6.50962759053299311329e-02) (19, -2.90089939033576216243e-02) (20, -9.09695085382053736378e-02) (21, -8.80381707346031550099e-02) (22, 5.10944556200913571620e-02) (23, -4.51166574155875202412e-02) (24, 1.05568300688675762583e-02) (25, 1.93852316344193115194e-02) (26, -8.95459484552929285694e-02) (27, 5.08500616753510617518e-02) (28, -1.22841464379984888211e-01) (29, -4.26076541300497973336e-03) (30, 6.10975306237153056865e-02) (31, 2.80949603522232665975e-02) (32, 4.24977948312081285631e-03) (33, 2.12021153176239623983e-02) (34, -1.02827409306723821514e-01) (35, -1.19052479067999983364e-01) (36, -5.65597731864043440364e-02) (37, -3.20103708898612018818e-02) (38, 4.00684009993485593104e-02) (39, -8.04199036454746607472e-02) (40, -9.94520429765770319630e-02) (41, -3.00340745842047791847e-02) (42, 3.65536939108780933871e-02) (43, -1.30259754160601620709e-01) (44, -8.07319770212851749169e-03) (45, -9.16266348456928614308e-02) (46, 2.72210519516876831014e-02) (47, 2.23688315356186523397e-02) (48, -4.01739571487494465107e-02) (49, -1.04455435672957647197e-01) (50, -7.32203852629253748585e-02) (51, 2.27632929925240335214e-03) (52, -5.90738300478049691011e-02) (53, -8.87061488127300623585e-02) (54, -1.09420547286231267803e-01) (55, -1.15097211698252877010e-01) (56, 6.40988629067353044011e-02) (57, -6.55467082058975580861e-02) (58, -1.30827369192797665631e-01) (59, -1.25322813192564969098e-01) (60, 6.36122952902725968816e-02) (61, 6.36899601424149169882e-02) (62, 3.61919235194138599887e-02) (63, 1.28187050465859470223e-03) (64, 1.83118562901428902356e-02) (65, -1.33215704957205777204e-01) (66, 1.56491677964142664181e-02) (67, -1.04828136066157567852e-01) (68, -3.18062994873114582295e-02) (69, -1.08626429235526202749e-02) (70, -5.18282596265860692752e-02) (71, 2.16144134644783835614e-03) (72, -1.07476936677653567287e-01) (73, -8.18547811603138331105e-02) (74, 5.32147099618233629381e-03) (75, 1.78696494305542671888e-02) (76, -4.00616321956702228779e-02) (77, -3.40376887714453693623e-02) (78, -2.63417456543036873629e-02) (79, 5.31841944659165524745e-02) (80, -5.07335553522788619552e-03) (81, 3.38576566183976246371e-02) (82, -1.11196954047270892690e-02) (83, -1.30727397302348141706e-01) (84, -1.21428707638938052082e-01) (85, 1.28795485699585796763e-02) (86, -1.12404825190264900936e-01) (87, -1.23910063902098688260e-01) (88, -1.19247386256415510708e-01) (89, -1.09812410572726448788e-01) (90, -1.15813093284327719990e-01) (91, -1.22215302685458271359e-01) (92, -1.11217676833933507008e-01) (93, 5.37986140454224728846e-02) (94, 1.24863516295365215708e-02) (95, 4.40540535929527521386e-02) (96, 5.90277983429756403222e-02) (97, -4.07575548100049811495e-02) (98, -1.34692239801841529001e-01) (99, -4.97687035356644685846e-02) (100, -1.17618832415789784096e-01) (101, -5.04029507936460327566e-02) (102, -1.01559341971343877753e-01) (103, -8.12164640529683540260e-02) (104, 8.00377338135658915330e-03) (105, 3.49637492182579140421e-02) (106, 6.13447110855988506084e-02) (107, -1.05864712992865789287e-01) (108, -7.06792567169258478810e-02) (109, -3.15772462880202289814e-02) (110, -1.19260730246264601284e-01) (111, 5.76671790087632182842e-02) (112, -6.42998013889381769825e-02) (113, 3.03935815934456687176e-03) (114, 6.03595655167511943584e-02) (115, -5.23087326681204931034e-02) (116, -5.06613198911734577412e-02) (117, -1.18625471392829112682e-01) (118, -4.61687895652044752448e-02) (119, -3.77871779245631811417e-02) (120, -9.33741500743389546413e-02) (121, -2.47639136060091996638e-02) (122, -2.48560400350901627986e-02) (123, -7.26570395895004689235e-02) (124, -4.08638144551132301285e-02) (125, -8.69813044395181811375e-02) (126, -1.07660478784655427864e-01) (127, 1.89284907395969814736e-01) (128, 2.51530879291976927625e-01) (129, 2.03207525833024246764e-02) (130, 9.05258221603314899850e-02) (131, 4.20204516964385044187e-02) (132, -1.15301290206686803813e-02) (133, 6.91413821228151065368e-02) (134, -1.18370860945907555029e-01) (135, -7.89579117116604584092e-02) (136, 2.13674922272032163928e-02) (137, -1.28631467024046902692e-01) (138, -5.64279351627417768977e-02) (139, -1.10799344280917366756e-01) (140, -2.67889295017310555269e-02) (141, -4.22688890492506977314e-02) (142, -1.19712376991469526821e-01) (143, 4.23310529196671628260e-02) (144, -1.02269652282814593747e-01) (145, -1.25466874624709151531e-01) (146, -7.91658695170181919698e-02) (147, -2.56592418381470059596e-02) (148, -3.81931317636856823561e-02) (149, 5.76143470175165123282e-02) (150, -1.06884245713718004089e-01) (151, -2.14707404533393958479e-01) (152, -1.27701887910891792588e-01) (153, -1.66217960480736087758e-01) (154, -8.00181120882716978571e-01) (155, -5.93127032565827594368e+00) (156, -2.80568605779417357127e+00) (157, -1.73416910788472278249e+00) (158, -3.58450477094528208166e-02) (159, 3.20418099372342260814e-03) (160, 5.42722429461124922234e-02) (161, -1.07400568770233822979e-01) (162, -1.78904955201609899840e-02) (163, -3.20528926176919248814e-02) (164, -1.30503563965777419353e-01) (165, -3.83544657623358722920e-02) (166, 1.52338724339417339732e-02) (167, 2.89101879799774780233e-02) (168, -3.35661564266272541279e-02) (169, -1.07774289349276797267e-01) (170, 5.15306275093964719081e-02) (171, -1.23395207321266547895e-01) (172, -1.79683278101999167886e-02) (173, 6.26300637295943984917e-02) (174, 4.58835535639030497879e-02) (175, 6.02273146841792936246e-02) (176, -9.33500652467259411926e-02) (177, -9.98409909390869827750e-03) (178, -3.60198982408673137878e-02) (179, -5.20804470913974970614e-01) (180, -9.88760804277441507359e-01) (181, -1.75907232758638110148e+00) (182, -3.16174912577868838515e-01) (183, -5.93110069488292035444e-01) (184, -6.92929146610548163387e-01) (185, -1.42552048251445651061e+00) (186, 1.49054449639252140081e+00) (187, -3.62636828469510008599e-01) (188, -5.51368616944694373699e-03) (189, -1.63559741761884480660e-01) (190, -9.50696990247725109979e-02) (191, -1.71726305630501077659e-02) (192, -9.27943343023020644766e-02) (193, 2.13095311203696513580e-02) (194, -8.84618602550685112496e-02) (195, -9.75709054863045099903e-02) (196, -8.78350939845631006886e-02) (197, 5.87067883217743877178e-02) (198, 6.47590737545898909033e-02) (199, 1.55586274508433611286e-02) (200, -1.18357354858265789721e-01) (201, 4.61478399316207973935e-02) (202, 9.33363817425785120829e-03) (203, -2.10386707328850501575e-02) (204, 1.98044989863437048694e-02) (205, 4.05487399784165009065e-02) (206, -1.34263633955982952806e-01) (207, -6.66454149653526561892e-01) (208, -6.85040576456936500804e-01) (209, -2.89702539740216813424e-01) (210, 3.18095910424777361669e-01) (211, 4.33338057617840832769e-01) (212, -2.13750518115673748820e-01) (213, -3.35087571317669363768e-01) (214, -5.19512901054745590557e+00) (215, -4.46636139559822353817e+00) (216, -1.09854204525951154592e-01) (217, -6.49395686438294789111e-02) (218, -1.23917594562552552118e-01) (219, -1.61026499278437512652e-01) (220, -2.03796743440635502731e-01) (221, 5.96029183169645010443e-02) (222, -1.09484009575573013051e-01) (223, -7.69797470664570215870e-02) (224, 2.89566626195229348886e-03) (225, -7.10361842310020807911e-02) (226, -4.11308724677153583760e-02) (227, 4.84803449118546628260e-02) (228, -8.25036538191647184082e-02) (229, -5.20526190486695836124e-02) (230, -2.08901378551745904588e-02) (231, -1.01912362511857798597e-01) (232, -1.73673703251384259350e-01) (233, -5.77967485661958324528e-01) (234, -6.26861189356067854961e-02) (235, -1.06878350532170340870e+00) (236, -4.69929595308941960852e-01) (237, 1.28304725293542698505e-01) (238, 7.03358101212443642680e+00) (239, 1.45288485752532126050e+00) (240, 3.97400343566718339261e+00) (241, -6.35007588379237652987e+00) (242, -3.50031449926621884838e-01) (243, -1.57230386684794187779e+00) (244, -8.22322458025778607604e-02) (245, -1.03055454580044475454e-01) (246, -1.22143805913470362978e-01) (247, -2.35735471145451430663e-01) (248, -1.12892731154500478019e-01) (249, -1.07604829844301821962e-01) (250, 2.42892028931574882611e-02) (251, 3.38272433484009746318e-02) (252, -3.85731850063391681904e-02) (253, 3.96597664559296750331e-02) (254, -1.09732719162661751522e-01) (255, -1.02257752815444219463e-01) (256, -1.03049268873089072684e-01) (257, -2.96170186986241257276e-02) (258, -1.50373443897745123765e-01) (259, -3.99574026932853432204e-01) (260, -1.27194697951081803211e+00) (261, -3.76969378940866484129e+00) (262, -1.71360637488584650612e+01) (263, -1.21545554232690911078e+00) (264, -4.50375859389853516745e+00) (265, 4.14722403507373160725e-01) (266, 7.04809913682518196509e+00) (267, 2.49302213489177759698e+00) (268, 9.00333393201458775934e-01) (269, 9.01268407118580167081e-02) (270, -1.60451895905821428912e+00) (271, 1.40010823331747132764e-02) (272, -7.58595659166281355290e-01) (273, -3.48089907009336396726e-01) (274, -2.92074489647823620775e-01) (275, -3.26022449179381668127e-01) (276, -2.05127464716850810289e-01) (277, -4.97559459325943032049e-02) (278, -4.75482971600276124735e-02) (279, -6.92885146853600281114e-02) (280, 5.42694907391480588221e-02) (281, -9.61844865476677302052e-02) (282, -1.07066581050116765850e-01) (283, -4.93989132202325986754e-02) (284, -1.28197563739173986397e-01) (285, -2.16676580758217579570e-01) (286, -2.56462195972574025227e-01) (287, -1.99907943251644004690e+00) (288, -2.89146336797670189256e+00) (289, -3.15935472280479334728e+00) (290, -1.53973999116189013137e+01) (291, -8.74730392436201142914e+00) (292, -9.12895343655325763876e-01) (293, -3.12875831362062761798e-02) (294, 7.17176266701630427125e-02) (295, 1.08824398067735761408e+00) (296, 2.18744977156079295488e-01) (297, 5.02568082203976862488e-01) (298, 4.83800999387784258499e-01) (299, 6.05392710972129100000e-01) (300, -7.51931015578578776370e-01) (301, -2.74934646646929126135e-01) (302, -2.82313560383564643441e-01) (303, -4.26956945690740385935e-01) (304, -2.18497069426896561861e-01) (305, -5.57753667854888959821e-02) (306, -1.21423764942906506348e-01) (307, -1.09054270183662926907e-01) (308, 3.16771697009018624036e-02) (309, -4.17216141020842548603e-02) (310, -5.34881968295165197147e-02) (311, 2.43915392639961169097e-02) (312, -1.06661413922006058363e-02) (313, -1.61531998728958486877e-01) (314, -8.05619790344041408758e-01) (315, -1.43654934719078641869e+00) (316, -4.15782881333336007401e+00) (317, -7.92704769675825904329e+00) (318, -1.03086126452449100555e+00) (319, -3.65843168133831575517e+00) (320, -8.64381278175678957609e+00) (321, -3.76151419350853111201e-01) (322, -1.38859099758769843902e+00) (323, -4.37092173337537137634e-01) (324, -5.39938784762699408581e-01) (325, 2.30672381521161901086e-01) (326, 3.53289746613547084308e+00) (327, -2.52163573043759425829e+00) (328, -1.82328772651560111484e-01) (329, -2.69747600982570390205e-01) (330, -7.53051453502050494038e-01) (331, -3.89984838536831357469e-01) (332, -2.18609089880019508145e-01) (333, -1.40012509180803351727e-01) (334, -2.66224871305234880858e-02) (335, 6.75732860228927534330e-02) (336, -4.24673799669333454365e-02) (337, -1.78149063384124145548e-02) (338, -1.17342935899455255710e-01) (339, -7.58854292190730278511e-02) (340, -1.32296571613758157104e-01) (341, -5.12029113216077233495e-02) (342, -3.52399711435207041443e-01) (343, -8.55656375843235339484e-02) (344, -2.61255148020106797713e-01) (345, -2.32361920109496494780e-01) (346, -7.68908986413279649241e-01) (347, -2.35316837096285425002e-01) (348, -3.56028045676276050369e-01) (349, -1.45414537020816947432e+01) (350, -7.85946465118656650839e-02) (351, 2.40468649820204660728e+00) (352, -1.15694558458819651836e-01) (353, 1.38329485332258830116e-02) (354, 6.50702556090043504611e+00) (355, 9.93252450544459620022e-06) (356, -6.09056981962060109415e-02) (357, -2.91410004238239705998e-01) (358, -9.33691894426218194081e-02) (359, -8.96592503874271834485e-02) (360, 4.47507644928301431819e-02) (361, -4.60125445742690791784e-02) (362, 2.67639290297440185507e-02) (363, -4.70232671239463190238e-02) (364, -3.50124333297797199482e-02) (365, -6.62629399692604426075e-02) (366, -5.75134773051329817317e-02) (367, 5.74249707304776979555e-02) (368, 4.90158410270235614381e-02) (369, -4.85196310772682271040e-02) (370, -9.77515082926555256559e-02) (371, 7.84142160072681254634e-02) (372, 1.87619741403041551120e-01) (373, 5.38401720168985797876e-01) (374, 1.98239459996500055894e-01) (375, 3.01127382376916108431e-01) (376, -2.41580586443265454832e+00) (377, -4.35032829972570755928e+00) (378, -5.44352403396395345681e-01) (379, 3.75074811530949903116e-01) (380, 1.61210025424783964798e-01) (381, 4.34832120443533387544e+00) (382, 1.50351970824817082750e+00) (383, 4.28690522018133679527e-01) (384, 3.56154471264315611312e-03) (385, 2.59885614101384512797e-02) (386, -9.53489378200891163351e-02) (387, 2.88352868573837559096e-03) (388, -1.22422446012228555712e-01) (389, -3.78976950998984561669e-03) (390, 5.35564552748612546229e-02) (391, -1.27993555763918881452e-01) (392, -1.09876612225730141414e-01) (393, 1.37401651347092510630e-02) (394, -4.73386738693305011982e-02) (395, -1.14692766463347552847e-02) (396, -1.14403985035664193526e-01) (397, 2.94369812475404127317e-02) (398, -2.12401692403593606029e-02) (399, 2.31325777215514005736e-01) (400, 9.90137229792657169725e-01) (401, 9.53765337098322896203e-01) (402, 6.61603334002698106886e-01) (403, -2.45352539312291062501e+00) (404, 3.63739429568990413344e+00) (405, -2.06438758305174729912e+00) (406, 1.35539737565586931867e-01) (407, 9.11630751292795915575e-01) (408, 5.29904850138957161931e-01) (409, 5.10267036061015133441e+00) (410, 7.73289424475227082922e-01) (411, 9.30077459278563223322e-01) (412, 2.48166938483735832754e-01) (413, 1.01524851522757544875e-01) (414, -1.10378346533622537229e-01) (415, -1.08055597405009570777e-01) (416, 9.22871543926687305792e-03) (417, -6.51066927071615175748e-02) (418, 1.19021963084153057505e-02) (419, 1.45981739962509991099e-02) (420, 6.09832238161973003154e-02) (421, -1.12156758661948472225e-03) (422, 2.00244020426682128866e-02) (423, -1.15799696604488230878e-01) (424, -4.92626201036039934600e-02) (425, -9.18036293575665990341e-02) (426, 1.94963252451438757984e-02) (427, 1.81175164178482756006e-01) (428, 1.25257388537141101104e+00) (429, 7.93833676869471371873e-01) (430, 8.15872495504685768530e-01) (431, -3.73653758409887659653e+00) (432, -1.16198481014824217539e+00) (433, -3.09060509844738806606e+00) (434, 5.65490980998882564190e-03) (435, 9.67525917101079852012e-02) (436, 3.69347979201836107421e+00) (437, 2.55613168585088024187e+00) (438, 1.01198156684835094410e+00) (439, 9.56332765690158681515e-01) (440, 1.23739419049630505754e+00) (441, 2.52128551993637040063e-01) (442, -4.72924850295445564630e-02) (443, -9.63714638456319473703e-03) (444, -3.40043141050866276620e-02) (445, -2.45662731882138260509e-02) (446, 6.55611680381905544135e-03) (447, -1.08812356392104375713e-01) (448, 3.66666298115662647739e-02) (449, -4.96069211756773806310e-02) (450, 3.92056088650635861659e-02) (451, 3.07435454328081336772e-02) (452, -1.09678880331774378232e-01) (453, -5.25934662317249432273e-03) (454, 5.19799638851482712076e-02) (455, 1.13459739736038359159e-01) (456, 4.88414357314890967832e-01) (457, 5.96728942700191500315e-01) (458, 1.02690193470198545822e-01) (459, 4.92226411334457392144e+00) (460, -2.10365350323108613040e+00) (461, -2.75602999854121666345e+00) (462, -4.82922871727140323728e-01) (463, -5.47871052268923741657e-01) (464, 9.61158833045780564008e-02) (465, 5.67397225050267794977e-01) (466, 8.80707389675835394804e-01) (467, 1.01889456641278797200e+00) (468, 8.82462056487550383643e-01) (469, 3.33768009592253889206e-01) (470, -4.78900369458951646884e-02) (471, 3.58795167402693737646e-02) (472, -6.79742777922350688291e-02) (473, 1.28288635871323438570e-02) (474, -5.09937722479887958760e-02) (475, 1.50830875838211895396e-02) (476, -8.75993576144764307667e-02) (477, -1.12502882281501015438e-01) (478, 3.96905224526337765956e-02) (479, -1.17839039723155805661e-01) (480, -2.10601771452624056402e-02) (481, 1.44650411126733390715e-02) (482, 1.14470959135070965429e-01) (483, 4.86578076489285887840e-02) (484, 3.10740922030031917200e-02) (485, 5.92401813844038449552e-02) (486, 9.24743807448281707195e+00) (487, 5.58625576862045480908e+00) (488, -1.19816337211068510982e+01) (489, -5.70792696146398181867e+00) (490, -5.81225732090907332150e+00) (491, -1.95229621267853281630e+00) (492, -4.43054755059757610081e-01) (493, 6.48323560971362788941e-01) (494, 8.68863836707211789623e-01) (495, -9.87741290920119419106e-01) (496, 6.67329761447023273035e-01) (497, 2.31746259521440844953e-01) (498, 5.94153707023594435110e-02) (499, 7.21719355778166343773e-02) (500, 4.18622904799851244806e-02) (501, -7.61040763655859847647e-02) (502, 2.40147243941239013632e-02) (503, -1.06466868916709173076e-01) (504, 5.71763049567154887920e-02) (505, -9.35592744743416193653e-02) (506, 4.20360099280289792323e-02) (507, -9.19781775591049927110e-02) (508, -7.04992063790723239025e-02) (509, 9.34951351013814553614e-03) (510, -2.66484367972992172713e-02) (511, -8.53277635792383942759e-02) (512, -8.81759208958224904862e-02) (513, 6.16760420266125389266e-02) (514, -3.51483365127984548337e+00) (515, -1.18836262046814695736e+01) (516, -1.84247920827148838896e+01) (517, 2.58726146426975153747e-02) (518, -1.91125286825108223199e-02) (519, -1.98730139947108724874e-01) (520, -6.58513512158833802523e-01) (521, 6.38587301480834423906e-01) (522, 8.12843984204116076775e-01) (523, 1.81636188252298158563e-01) (524, 1.85750012637912909064e-01) (525, 2.06041935781511365011e-01) (526, -9.74629171073431027628e-02) (527, 4.42979142258421998424e-02) (528, -1.06080820570345554787e-01) (529, -9.29426137364784549222e-02) (530, 4.56918459141663693690e-02) (531, 5.58297913277558330303e-02) (532, -5.09387720620223041768e-02) (533, 3.12633623723305607497e-03) (534, -1.17217296758849329197e-01) (535, -5.31160587171274761742e-02) (536, 4.51300233155326052659e-02) (537, 5.10035898231439299710e-02) (538, 3.79046914158985837062e-02) (539, -1.29278931826861481769e-01) (540, 3.06859557424170925621e-01) (541, -9.16976534580814406361e-01) (542, -1.04235806091873062229e+01) (543, -4.66271958169868128152e+00) (544, 9.43321575754797331248e-02) (545, 4.91477770619385467832e-01) (546, 6.47630926252474314886e-01) (547, 2.10321209192405184085e-01) (548, -1.08295685864641430540e-01) (549, 5.62663866082507291289e-01) (550, 5.96943077353220052927e-01) (551, 2.10481505964107251661e-01) (552, 1.50034445137286004401e-01) (553, -6.82165113855650179220e-02) (554, -4.96549436620379661123e-02) (555, -9.17454847225459141358e-02) (556, 5.53712903963398880847e-02) (557, 4.30272136708220254500e-04) (558, -1.03903034726340520733e-01) (559, -1.23497532705027598943e-01) (560, 3.23560517037323677747e-02) (561, -1.24791407982070001736e-01) (562, 6.57520424330642755395e-02) (563, -7.79363082448202987296e-02) (564, 1.34946748642996838113e-02) (565, -1.17884488648543880873e-01) (566, 6.82724234507995908494e-02) (567, 2.22062459047864535489e-02) (568, -1.37185177822212733822e-01) (569, -6.20522205992921294104e-01) (570, -4.18156480993509482857e+00) (571, 3.51279921017742857714e-01) (572, 5.49498979930273079297e-01) (573, 1.36911216890032005900e+00) (574, 1.23547973677353462030e+00) (575, -4.41755782809161667846e-01) (576, 7.18387709702685506308e-01) (577, -2.47516182201409407071e+00) (578, -3.44799102379291122489e+00) (579, 4.53070027172803924120e-01) (580, 1.66756210508642394030e-01) (581, -1.07979276032445933864e-01) (582, -1.33138524606428985432e-03) (583, 6.04053672802016411447e-02) (584, -7.46590223266879043917e-02) (585, -8.88170653680521865470e-02) (586, -8.74393452202865961720e-02) (587, -8.53152554726192835499e-02) (588, 3.73401920998505665317e-02) (589, -5.79225961362906660579e-02) (590, -7.53930043673107508351e-02) (591, 1.03426596423429103394e-02) (592, -4.88280642881193382987e-02) (593, -7.57205487305636776307e-02) (594, 4.65823289246124760954e-02) (595, 4.87160462934576390936e-02) (596, 1.51428619857777613245e-01) (597, 2.80645718462347149025e-01) (598, -2.49115449470892524886e+00) (599, 2.36408823080336150113e+00) (600, 3.20768708824464843232e+00) (601, 2.00770906940813498309e+00) (602, 2.60875880278327043627e+00) (603, 5.74587216994613569909e-01) (604, -1.25795690288130285195e-01) (605, 1.34634768434015866800e-01) (606, -1.56934061110895872737e+00) (607, -1.21394898727811659245e-01) (608, 2.70476315666729819065e-02) (609, -6.37279922350946353982e-02) (610, 1.98576809845341581418e-02) (611, 4.46648459778032219658e-02) (612, 9.16718057252974803661e-03) (613, -2.19010712024841451562e-02) (614, 4.29105441773347043299e-02) (615, -1.33004376689154629743e-01) (616, 1.04499142373017175900e-02) (617, -1.11109012762267311825e-01) (618, -8.48998446261474970509e-02) (619, -1.15634703735071637382e-02) (620, -3.51456690683164818534e-02) (621, -1.85917206389099379238e-02) (622, -8.98036655317984433555e-02) (623, 7.05923016791135948811e-02) (624, 2.44601882973130041465e-01) (625, 2.06220288316818156638e-01) (626, -8.36203401943388158202e-01) (627, -1.39143064143210115624e+00) (628, -6.84059377964319148546e-01) (629, -6.84452223685050653579e-01) (630, -1.24047793017084773126e+00) (631, -1.76158566186203263682e-01) (632, 2.03323869661820522126e+00) (633, -2.07320947431257812665e-01) (634, -1.65162200200460485000e+00) (635, -2.11503978322451768879e-02) (636, -8.97107130861303156411e-03) (637, -3.06529222443909232787e-02) (638, -7.51763773232472093389e-02) (639, 8.66394433567269604823e-03) (640, -1.13488226021746727024e-01) (641, -1.05066480139453161113e-01) (642, -1.33078489696570496925e-02) (643, 2.81664263213089599569e-02) (644, 1.42714192513741506933e-03) (645, -3.69775239622183796162e-02) (646, 2.85818259919098510702e-02) (647, -4.96780575630340615056e-02) (648, -7.44011790549339510625e-03) (649, -1.20748210124482072136e-01) (650, 6.30530851807946657317e-02) (651, -1.12879253296019818609e-01) (652, 1.01785359016412363387e-02) (653, -6.35383610764361367318e-02) (654, 9.86725123791944724871e+00) (655, -1.65663387593687372323e+00) (656, -2.71086344371580478807e+00) (657, -6.06991693960663791785e+00) (658, -6.50580348516503015333e+00) (659, -8.24289303714520471544e+00) (660, -3.38773565977703139396e+00) (661, -3.38192754882457569110e+00) (662, -2.93494285854468406338e-01) (663, -2.39425262481212153265e-01) (664, 1.67530180598785966017e-02) (665, -3.65255233404369120120e-02) (666, 4.80890350409191660863e-02) (667, -8.03130630229512317009e-03) (668, -9.27469433662567871446e-02) (669, -8.24899506067821863819e-02) (670, -6.36530611908028010060e-02) (671, -7.83066395914146784474e-02) (672, -5.41366432106085912479e-02) (673, 5.64588587487153056865e-02) (674, -1.16720439890582269871e-01) (675, -1.14264622461524953390e-01) (676, -3.98722419241625269937e-02) (677, 4.57473408327302849541e-02) (678, -4.13039438265490541080e-02) (679, -1.27879692996958754803e-01) (680, 5.51384638211419794707e-02) (681, -9.73969182728894912471e-03) (682, 1.34829906915521057637e-02) (683, 2.33495295072875835851e-01) (684, 7.65134604089082515088e-01) (685, 5.78812761396202524189e-01) (686, 2.34585793566082473349e-01) (687, -3.24360616842373494784e-01) (688, -3.52875751005459759035e-01) (689, -2.64081469341686303487e-01) (690, -2.44892489779291816498e-01) (691, -2.73554855251258666193e-01) (692, -5.89692591675295557652e-03) (693, -3.24380735830350321394e-03) (694, -9.14853180941333637977e-02) (695, -1.30598747829157573602e-02) (696, -8.63813489533126060982e-02) (697, -1.01647818485457647197e-01) (698, -9.30132474994251612355e-02) (699, -5.22186104452201024784e-02) (700, -5.07179815566130634541e-02) (701, -2.32465211546012337496e-02) (702, 2.89453377370156106699e-03) (703, 2.85651515925339355428e-02) (704, -2.61412465671259572342e-02) (705, 2.68205127021115645458e-02) (706, 4.16763782011341996081e-02) (707, 5.19341736542058077242e-02) (708, 3.51856524417191313114e-03) (709, -5.78893633336994006822e-02) (710, 6.49413081281688536750e-02) (711, -1.94062818479157636956e-03) (712, 2.14867828370688018769e-01) (713, 3.82477716905828685201e-02) (714, -1.83201321754500739969e-02) (715, -2.76846183432825666826e-02) (716, -9.08496528738543390746e-02) (717, -1.18984801627290540105e-01) (718, -4.11506656847576701708e-02) (719, -7.48194379497064548934e-02) (720, -9.28555845921303843471e-03) (721, 3.08512839292610389560e-03) (722, -6.14242160419184585196e-02) (723, -7.25346134421501892442e-02) (724, -6.73338715231010798146e-02) (725, -2.33466122543403084566e-02) (726, 3.55735551321915699496e-02) (727, -2.17804406082221443941e-02) (728, 8.42536797169960577358e-03) (729, -1.24019900361258539334e-01) (730, 5.94207327568940166240e-02) (731, -1.08872840205390203350e-01) (732, -1.23616449392496604437e-02) (733, -2.77995242244589687089e-03) (734, 5.81372006419029474511e-02) (735, -1.06568103442545566995e-01) (736, -4.55096667745200356148e-02) (737, 3.64537259837430654974e-02) (738, -1.26955776299456618572e-01) (739, -1.11964449800558654702e-01) (740, -9.45845896104533095938e-02) (741, 7.12514540454190353769e-02) (742, 9.03027409527717810078e-03) (743, 6.05700632830899893255e-02) (744, -1.15666894028540231942e-01) (745, 2.86283325159958496053e-02) (746, -6.07971642410347137830e-02) (747, -8.96824430918285731007e-02) (748, 4.29605971777848386073e-02) (749, 3.62368952238968922153e-02) (750, -2.66138483082839424898e-02) (751, -3.84709928428717609639e-02) (752, -3.29998452460356708760e-02) (753, 3.81550770008973264003e-02) (754, 1.73890720808914933659e-02) (755, 3.30860744917801583020e-02) (756, -5.17717469727583742833e-02) (757, -1.36175696050711853707e-02) (758, -5.52745927369185582889e-02) (759, -1.09926605621535500301e-01) (760, -4.21768615599356789386e-03) (761, -6.24340866005012803952e-02) (762, -8.53796657418796900441e-02) (763, -8.46445467567036036183e-02) (764, -1.33279258409697537457e-01) (765, -9.88477859890053156544e-02) (766, -6.50194976722786310841e-02) (767, -5.11107761656828876728e-02) (768, 6.37990962469986572225e-02) (769, -5.39965556380424538396e-02) (770, -3.22025792119178672079e-02) (771, -1.03107347325152129414e-01) (772, -6.15770612155983124159e-02) (773, -1.02407457331378209942e-01) (774, -1.17829130986888117039e-01) (775, -5.10508138930388447041e-02) (776, 5.96406589949540141826e-02) (777, -4.52065039670058246846e-02) (778, -7.31347689982138945280e-03) (779, 3.60210370028428150668e-02) (780, -7.55498428141662958790e-02) (781, -1.00507536927420842998e-01) (782, -6.90301750099251154591e-02) (783, 2.48700957501343383749e-02) (784, 2.77917277739976709139e-01) (0, 1.29970519377229226654e-01) (1, 2.39567777647016061371e-01) (2, 2.00907191766736520355e-01) (3, 2.49772741033074868744e-01) (4, 1.17712958289620722718e-01) (5, 2.24400369955537332123e-01) (6, 1.78974828256604739929e-01) (7, 1.88698662950036594177e-01) (8, 2.72440491749284530165e-01) (9, 2.27750069035527719086e-01) (10, 1.88839188350675174499e-01) (11, 3.07012482120035012922e-01) (12, 2.96150355173585733137e-01) (13, 2.71148203445909286025e-01) (14, 3.04231359197137674055e-01) (15, 1.70548478646514484192e-01) (16, 1.67340303344962665344e-01) (17, 1.33058792485234778091e-01) (18, 2.42391197515962136810e-01) (19, 1.98352626098630441254e-01) (20, 1.48649445308682959244e-01) (21, 1.24760171903607691712e-01) (22, 1.91413065923688480163e-01) (23, 2.36862725152013314789e-01) (24, 2.50866486264703592024e-01) (25, 1.60853876306054660583e-01) (26, 2.94732658697603067122e-01) (27, 2.83778740598199630263e-01) (28, 2.25243492557046426361e-01) (29, 2.53022535277841409407e-01) (30, 2.88265837861535867415e-01) (31, 2.40441961719033731049e-01) (32, 1.77818259729383060241e-01) (33, 1.74400983883378574157e-01) (34, 1.75442642106053897644e-01) (35, 1.80759167803762027527e-01) (36, 2.84029303623674178603e-01) (37, 2.39645427597997201508e-01) (38, 2.54685773087976297102e-01) (39, 2.41697742177484048431e-01) (40, 1.52623439712760489151e-01) (41, 1.28752908243176950043e-01) (42, 2.33938178552625192230e-01) (43, 1.34001737965581457779e-01) (44, 2.85129054023263772688e-01) (45, 2.23397484554288400238e-01) (46, 1.89778170122144290710e-01) (47, 1.37697300447461645767e-01) (48, 2.41684226824281228607e-01) (49, 1.17397321893212641664e-01) (50, 2.21277876330850137299e-01) (51, 2.75561614467141891005e-01) (52, 1.27385443581578744476e-01) (53, 2.97918884588716348372e-01) (54, 1.97652278973100198334e-01) (55, 2.63479887081621011458e-01) (56, 1.44000715149877112076e-01) (57, 1.77612891925809451843e-01) (58, 2.32486567033765328949e-01) (59, 2.54472150041101297102e-01) (60, 1.15863374008176173158e-01) (61, 2.05980351699826730316e-01) (62, 1.80142058564660617614e-01) (63, 1.78909583522317477966e-01) (64, 2.65609277917383035383e-01) (65, 2.40812643004891885345e-01) (66, 2.44896693660256875580e-01) (67, 2.34866528345582498138e-01) (68, 1.65686017407414981628e-01) (69, 1.84810421003339359070e-01) (70, 1.61792224778173038269e-01) (71, 2.03537403179643167084e-01) (72, 1.98791271580693734711e-01) (73, 2.80958353115556502821e-01) (74, 2.22767098380563272064e-01) (75, 1.69148276133773395324e-01) (76, 1.89583777023789951111e-01) (77, 2.97773210836885293684e-01) (78, 1.92073530091283389831e-01) (79, 1.16495950652596796937e-01) (80, 3.00398482514856179915e-01) (81, 2.98579348756311258040e-01) (82, 2.77285514904496932509e-01) (83, 3.13011883331773654859e-01) (84, 2.81726195050714278700e-01) (85, 1.60165740682122775818e-01) (86, 2.61719702316758950911e-01) (87, 3.10954852534768899641e-01) (88, 2.23006589843270791595e-01) (89, 1.79434208704469272400e-01) (90, 2.50654949380395619674e-01) (91, 2.24097898735044015472e-01) (92, 2.70642517639634871962e-01) (93, 1.16024954749581660218e-01) (94, 2.88235439492700418196e-01) (95, 2.21479742361543191498e-01) (96, 2.42065547539231790131e-01) (97, 2.18763287450406573864e-01) (98, 2.12108377437635386986e-01) (99, 3.61372348788241648521e-01) (100, 3.59320058887603710485e-01) (101, 2.61082712913997372350e-01) (102, 2.53559553484435873383e-01) (103, 1.74327010033534623989e-01) (104, 1.56332720398864255529e-01) (105, 2.89739920331476052962e-01) (106, 2.26793891324040902679e-01) (107, 2.29592411352632058685e-01) (108, 2.72741077972886825087e-01) (109, 3.04095371200082620344e-01) (110, 2.31316311789987100189e-01) (111, 2.58367507292268594465e-01) (112, 2.87902666760919412337e-01) (113, 1.93829773499009677673e-01) (114, 2.56607337428567727766e-01) (115, 2.54856808616159280501e-01) (116, 2.39223471416471017426e-01) (117, 2.03554986549851907318e-01) (118, 2.51039622856614907942e-01) (119, 1.47457993163106482193e-01) (120, 2.68217159940240701399e-01) (121, 1.86922511590955325866e-01) (122, 3.27318009059473280509e-01) (123, 3.01186324247285586164e-01) (124, 2.64741834895927619087e-01) (125, 3.05904061568290863704e-01) (126, 2.15086767692978575450e-01) (127, 3.14503735430817721319e-01) (128, 3.87989906875319923163e-01) (129, 2.80586821623560633832e-01) (130, 3.92812806743815579047e-01) (131, 3.84513945440417337363e-01) (132, 3.06160752185198226094e-01) (133, 1.61762794039056329032e-01) (134, 1.65107278658387729431e-01) (135, 2.71428449584481978896e-01) (136, 1.35173053617951927086e-01) (137, 2.77129127217767501357e-01) (138, 1.82991830734193644536e-01) (139, 2.93586088849542459212e-01) (140, 2.66452445222375711165e-01) (141, 3.02793084217546304426e-01) (142, 2.37181535495755685394e-01) (143, 2.39583058787820352142e-01) (144, 1.81850804521081516052e-01) (145, 1.79016827179429599548e-01) (146, 1.82214853780555241514e-01) (147, 3.82465437000019337077e-01) (148, 4.05209188082703397615e-01) (149, 2.40800527414129883486e-01) (150, 2.49335993735980337993e-01) (151, 2.59283442776979677902e-01) (152, 1.70895855686839293064e-01) (153, -4.28840220206768846234e-02) (154, -3.08421003024211115573e+00) (155, -2.19705205005124648565e+00) (156, -8.82124661100643359113e-01) (157, -6.52037572526965258923e-01) (158, 1.83227896103817344819e-01) (159, 1.99447002813517321185e-01) (160, 2.41490757760951024746e-01) (161, 3.09261951913253507751e-01) (162, 2.86797818170519747127e-01) (163, 3.14797923709203175680e-01) (164, 2.89514583962249549831e-01) (165, 2.58563219143388589583e-01) (166, 2.62713222338197549544e-01) (167, 3.07812540365693887434e-01) (168, 2.20920285715100778168e-01) (169, 1.34189984334943335220e-01) (170, 2.86626576019761880598e-01) (171, 1.72600666566131183410e-01) (172, 1.22211000455853785462e-01) (173, 2.11583105342673716276e-01) (174, 3.73574897592289234538e-01) (175, 3.20630176608590666820e-01) (176, 3.67456403388268182386e-01) (177, 2.42456991023054097001e-01) (178, 1.68994375624380382961e-01) (179, -7.43722387129213902135e-01) (180, -4.89966195359281186938e+00) (181, -1.46303962444603752324e+00) (182, -4.90970200432903514098e-01) (183, -5.22021657365093316727e-01) (184, -5.30160892029617136778e-01) (185, -1.18228845212013267130e+00) (186, -1.49646189229588011393e+00) (187, 8.03391503023961062180e-02) (188, 1.75528487432300650539e-01) (189, 1.12186169509499167329e-01) (190, 1.28769832542607598480e-01) (191, 2.59879870833286064080e-01) (192, 2.61501919979762909030e-01) (193, 2.47189311815736306732e-01) (194, 2.46303139759538186615e-01) (195, 2.29429564012525094574e-01) (196, 1.90980485214231082702e-01) (197, 1.94244316352841922546e-01) (198, 2.22470051182744515961e-01) (199, 2.97128705812928994856e-01) (200, 2.13662243021962655609e-01) (201, 1.96871613579082005430e-01) (202, 2.23065257626530871748e-01) (203, 2.72673736990088511067e-01) (204, 3.09953221921327015664e-01) (205, 1.62085299310058522648e-01) (206, -3.14419060322784715833e-01) (207, -2.49469709228938940626e+00) (208, -1.09328852248783858769e+00) (209, -2.41365792334280668263e-02) (210, 5.62401108328591137209e-01) (211, 3.69211401682177808858e-01) (212, 6.29379214440392242835e-01) (213, 1.64656112604728205318e-01) (214, -8.83241949036544293783e-01) (215, -2.03643284753022157929e+00) (216, 1.34055513687190319683e-01) (217, 1.83246366715224928701e-01) (218, 5.93972216900454236255e-02) (219, 1.59612481822700130740e-01) (220, 2.01384693785748497552e-01) (221, 2.76154745382084731986e-01) (222, 2.16296485198972238129e-01) (223, 1.83178900314805576111e-01) (224, 2.17996245755193246429e-01) (225, 1.47827571763036291763e-01) (226, 2.97836421562669595442e-01) (227, 2.94204665853021463118e-01) (228, 2.27299830450055612152e-01) (229, 2.00660549716190073077e-01) (230, 3.27332080818188875249e-01) (231, 1.51651362157113722695e-01) (232, -2.42889975114268491518e-01) (233, -2.15620438841598760504e+00) (234, -3.38615105132727411963e-01) (235, -1.05228222857809394775e+00) (236, -3.23251929840145557637e-01) (237, 7.75770696409049387299e-01) (238, 4.62665722318901639909e+00) (239, 2.17776504170042395359e+00) (240, 2.98318190060392574026e+00) (241, 3.93898012375596739965e-01) (242, -1.43534198977319726875e-01) (243, -8.01339087255236393048e-01) (244, 1.85192182078461525796e-01) (245, -2.69347465504245452139e-02) (246, -1.55058712891866946199e-02) (247, -4.09200136284760263017e-02) (248, 1.60145854488888184086e-01) (249, 8.57525334316010107161e-02) (250, 1.49177459572595538795e-01) (251, 2.02551310984075333410e-01) (252, 2.93722553683755716047e-01) (253, 2.55433185531137307844e-01) (254, 2.74215130640504622939e-01) (255, 1.96946746243474496429e-01) (256, 2.84254215478044747201e-01) (257, 2.42511234157876842676e-01) (258, 1.15833613755910877496e-01) (259, -1.01326432428056514845e-01) (260, -2.23523568495587010574e+00) (261, -2.26461494875359159451e+00) (262, -8.79780589966094095367e-01) (263, -1.18359926319034425291e+00) (264, -1.10856880648314448656e+00) (265, 3.92949062836837725854e-01) (266, 8.47886558171961679520e-01) (267, 1.13868149222236447748e+00) (268, 5.68913861376061924524e-01) (269, 7.90452629427216280078e-01) (270, 2.75385168826769111128e-01) (271, -1.37182937963229134581e+00) (272, -1.30315137137804987200e-01) (273, -9.02365640297115301216e-02) (274, -6.43186436207541234467e-01) (275, -3.79017236780224309189e-01) (276, 5.04280334712182368856e-03) (277, 9.35801835366651540982e-02) (278, 1.14272029061221927493e-01) (279, 2.94702856375215371809e-01) (280, 1.41353114081857217377e-01) (281, 1.58448556943175861145e-01) (282, 1.85739091171262332702e-01) (283, 1.20303614570138300843e-01) (284, 2.93997864703560041200e-01) (285, 1.02565611058141048506e-01) (286, 9.40221646572812069786e-02) (287, -1.38865947186432947547e+00) (288, -1.24720103269989124328e+01) (289, -6.19904253063158083847e+00) (290, -2.57191216479743145484e+00) (291, -1.47525829988630774459e+00) (292, -5.69151922603243626275e-02) (293, 2.57053905892983491910e-01) (294, -7.16804855355959880114e+00) (295, 8.87920180848336904056e-01) (296, 5.66023748402115334244e-01) (297, 9.11963454476763635270e-01) (298, -1.10972308146249543093e+00) (299, -1.38439939556322233472e+00) (300, -9.87491775611394895229e-02) (301, -9.64366230015364700456e-01) (302, -2.34001804412437675040e+00) (303, -2.22334293238104357959e-01) (304, 1.24540527854320015599e-01) (305, 1.47278865310473405792e-01) (306, 1.63371398865324063410e-01) (307, 2.82742975784776473525e-01) (308, 2.06215298308370126312e-01) (309, 1.72145693136689731384e-01) (310, 2.62673764063356240950e-01) (311, 2.32796362174985421722e-01) (312, 2.10414826636669077820e-01) (313, 9.05694943001152386053e-02) (314, 1.29871780588792007372e-01) (315, -2.28746051789357895956e+00) (316, -5.99487465662909357889e+00) (317, -3.96006561833774206605e+00) (318, -1.51143210155234186676e-01) (319, -1.47655416273524142667e+00) (320, -1.39028117505236958884e+00) (321, -9.37849012279920679624e-01) (322, -1.91501683727434979243e-01) (323, 7.04347627385985219917e-01) (324, 2.42529074587948728636e-01) (325, -2.83401855921119105730e-01) (326, -7.78138872997710562274e-01) (327, -1.33395057498759572745e+00) (328, -1.02484646374885884912e-01) (329, -1.30565243899782923442e+00) (330, -1.21547125491915597451e+00) (331, 2.87781336929262276936e-02) (332, 2.34099296210947133146e-01) (333, 2.89825685435713409355e-01) (334, 2.13995389460664736658e-01) (335, 2.41105197502610696381e-01) (336, 1.77090639753577777649e-01) (337, 2.71063698960778975966e-01) (338, 2.09076097740170968597e-01) (339, 2.68533884121415933333e-01) (340, 1.23636166681745374163e-01) (341, 1.41435653719573922737e-01) (342, 9.25084623951007850584e-02) (343, 1.69357519535239336994e-01) (344, -3.04856139074676846246e-01) (345, -3.49292012169674370714e-01) (346, -9.77422994218592189331e-02) (347, -9.28403842017587521696e-01) (348, -1.70234431478457737263e+00) (349, 2.10061980903781186925e+00) (350, 7.01408326330113102154e-02) (351, -2.69077119194076119779e-01) (352, -1.00191334186207092749e+00) (353, -3.64013978655161052345e-01) (354, 3.32257975608186262306e-01) (355, 1.54372714609028710564e-01) (356, -6.05711558388326687385e-01) (357, -3.68419267478359707679e-02) (358, 1.93948306411057730392e-01) (359, 2.55631340025606390576e-01) (360, 8.43816254277947735973e-02) (361, 1.16881139459207389342e-01) (362, 2.83553971079767319630e-01) (363, 2.99425913526056131087e-01) (364, 3.10591949655053933821e-01) (365, 1.90268753601548740173e-01) (366, 2.25759050382611764496e-01) (367, 1.72910528762576648498e-01) (368, 1.46116406794068870445e-01) (369, 1.15257072535589047413e-01) (370, 1.15191826141558942287e-01) (371, 4.24329301451665530376e-01) (372, 4.04087881458576492211e-01) (373, 4.16617755692724189842e-01) (374, 4.99222913036312609947e-01) (375, -1.18640379073570656487e+00) (376, -2.70858115391393194926e+00) (377, -1.70609422524657738940e+00) (378, -1.32010469543366926182e+00) (379, -1.65997895452261490234e+00) (380, 1.12439926887808328004e+00) (381, 5.65449820835840810673e+00) (382, 4.25425926514314711735e-01) (383, 4.81624002434914599835e-01) (384, 4.14496791599416103402e-01) (385, 2.95593952977239837754e-01) (386, 1.96095450692968242823e-01) (387, 2.22375500807029446992e-01) (388, 2.96024950748188020455e-01) (389, 1.58924179656741687561e-01) (390, 2.21003493799207223480e-01) (391, 3.11335517598626931868e-01) (392, 1.65431241078612872863e-01) (393, 1.93042388690946170593e-01) (394, 2.95989392830369790754e-01) (395, 1.61251133812902042175e-01) (396, 2.68539084626672586165e-01) (397, 2.10675986575339729834e-01) (398, 2.97994624534484220391e-01) (399, 6.57381127762064032538e-01) (400, 8.77280311501246967687e-01) (401, 2.99612485421479846082e+00) (402, 6.06435887020082664556e-01) (403, -2.86932474937668269277e+00) (404, -1.43881822493821642794e+00) (405, -1.26021912253499834833e+00) (406, 6.34065119898979401292e-02) (407, 4.20584191598183387839e+00) (408, 1.27944898706975482838e+01) (409, -1.74743338207337339796e-01) (410, 1.18989541515304408925e+00) (411, 6.68025983720080041017e-01) (412, 6.04840907682062445261e-01) (413, 4.48757589786726196479e-01) (414, 2.85216986557884577547e-01) (415, 2.57360110852230039580e-01) (416, 2.88678379922294392479e-01) (417, 3.01235465837953408919e-01) (418, 1.62640875710485049987e-01) (419, 2.70839376880166793349e-01) (420, 1.45387596024510901138e-01) (421, 2.68872319294450601301e-01) (422, 2.67402841283319314680e-01) (423, 1.96046790613172067230e-01) (424, 1.47545854832265427303e-01) (425, 2.53200864806063130619e-01) (426, 6.12062450756282405706e-01) (427, 8.26487313022812752905e-01) (428, 7.06433458299923766610e-01) (429, 1.01559048981090582764e+00) (430, 7.58297064324003455837e-01) (431, -5.56327843314006864617e-01) (432, -7.60315763908888109235e-01) (433, -1.44068599026923771511e+00) (434, -1.54259366380326423673e+00) (435, -5.57504150447614477137e-01) (436, -3.06532982551746158162e-01) (437, 8.04463683176665944607e-01) (438, 1.36162996528077151481e+00) (439, 1.11243951588144684983e+00) (440, 1.51197580858646585256e+00) (441, 9.36350056538969410802e-01) (442, 2.84972206056482602055e-01) (443, 2.11743100852832544234e-01) (444, 1.28591919510745472666e-01) (445, 3.05742500854966958723e-01) (446, 2.69697843624589761458e-01) (447, 2.96597777439592202864e-01) (448, 2.92205913497445901594e-01) (449, 1.17566658689019526429e-01) (450, 2.52665086223123391829e-01) (451, 1.22821463777062739320e-01) (452, 2.72508559856900811624e-01) (453, 2.82300732578510349402e-01) (454, 5.30838747452715087327e-01) (455, 5.93305300591927431419e-01) (456, 3.42506074859751818984e-01) (457, 3.01528619515097517922e-01) (458, 3.32469791430877625871e-01) (459, -7.02990277143346053990e-02) (460, -9.81941145343514398824e-01) (461, 5.39244284893666825376e-01) (462, -2.16549711701546715448e-01) (463, -1.14748850534481272589e+00) (464, -6.29301269407910424114e-01) (465, 8.19259518228736549617e-01) (466, 3.98473433815866284746e+00) (467, 1.05497971138277213399e+00) (468, 1.14785117017445026377e+00) (469, 9.28779949874602994697e-01) (470, 2.86005828659319949470e-01) (471, 3.39696037253431337710e-01) (472, 2.86672594218635279351e-01) (473, 3.04379759861467202864e-01) (474, 2.92534648014543374739e-01) (475, 2.94591976834771951399e-01) (476, 2.95350207520959695540e-01) (477, 2.47460438443658364838e-01) (478, 2.76417686177728438857e-01) (479, 2.72784067822931075575e-01) (480, 2.50693464062604509657e-01) (481, 2.84880111135347502405e-01) (482, 5.82111696623990315658e-01) (483, 3.40340838461417827254e-01) (484, 3.42888894843079217178e-01) (485, 1.82562368208600667163e-01) (486, 2.69688244960578193954e+00) (487, 5.65107978455115511629e-01) (488, 5.61576676703779087418e-01) (489, -9.14210117071765082652e-02) (490, -2.48803607231161594271e+00) (491, -6.36504323581520425890e-01) (492, -2.65151021350060855930e-01) (493, 4.47327455300560672402e-01) (494, 9.35679356534397932421e-01) (495, 8.36859701614773521250e-01) (496, 9.01380198917486330501e-01) (497, 5.06577744171793797889e-01) (498, 2.83605053304230192435e-01) (499, 1.58410090328576530494e-01) (500, 1.54957277802408061040e-01) (501, 3.01400227977273782454e-01) (502, 1.19939422739980067201e-01) (503, 1.27164548768041146820e-01) (504, 2.91007919742105325422e-01) (505, 2.97702027989862283430e-01) (506, 3.06984467936990579329e-01) (507, 2.71586074067590499403e-01) (508, 3.07395249153846805701e-01) (509, 3.27815004175131152753e-01) (510, 2.46909849585250806836e-01) (511, 1.01434158996402973979e-02) (512, 4.70167713351927821219e-02) (513, -8.62653351968542016215e-03) (514, -7.85467032899712647165e-01) (515, -1.84633935802258530856e+00) (516, 2.82685168616344073556e+00) (517, 8.82219621997487879472e-02) (518, 4.73792558329442170528e-01) (519, -7.89915398581522848476e-02) (520, 7.64094682035696276534e-02) (521, 4.75787557368631097710e-01) (522, 8.00657818426122269706e-01) (523, -1.18532765914339865976e-01) (524, 6.14763890208458452236e-01) (525, 4.77536619360370728771e-01) (526, 2.19335814480900892498e-01) (527, 2.20336145962869850434e-01) (528, 2.30502883771932398638e-01) (529, 2.53046739186380209574e-01) (530, 2.03658877445695413178e-01) (531, 2.76798857881067061903e-01) (532, 2.39271706475255502289e-01) (533, 2.08826257421014321869e-01) (534, 2.89191363884446939192e-01) (535, 2.15910773064229510876e-01) (536, 2.62728809286554509939e-01) (537, 3.38940910682033025303e-01) (538, 1.81412050800666774242e-01) (539, 1.97782363808527733573e-01) (540, -5.39898774199212061475e-01) (541, -1.94688199293998859263e-01) (542, -2.26649265133508359682e+00) (543, 1.14491586839725781322e-01) (544, 1.79601281323593986450e-01) (545, 5.97717518510399559162e-01) (546, 1.15698434850563414145e-01) (547, 3.59647689842493345491e-01) (548, 2.28892532521637714904e-01) (549, 9.22915810655839385923e-01) (550, 6.58826043938872119021e-01) (551, 5.34564962394730169848e-01) (552, 6.39118088890948232716e-01) (553, 5.49114301062811893672e-01) (554, 3.56529885794405032584e-01) (555, 3.36600019891072355094e-01) (556, 2.94930387994896403558e-01) (557, 1.35810440911290686294e-01) (558, 1.17275139822003687806e-01) (559, 2.13179586960313333099e-01) (560, 2.73681922389505172255e-01) (561, 2.06161967052457345551e-01) (562, 1.75206402821776935363e-01) (563, 2.01131822734260029550e-01) (564, 3.76463385544998363486e-01) (565, 2.05108479697673179443e-01) (566, 3.18223913621273113428e-01) (567, -6.72739938750134491841e-01) (568, -2.55724039404187419855e-01) (569, -5.49979282279317027715e-01) (570, -2.57984249571682555668e+00) (571, 3.39568945785908515855e-01) (572, 3.99736202820939745539e-01) (573, -9.05358869851141112584e-01) (574, -8.77610061502322125193e-01) (575, 2.27745942359726422088e-01) (576, 1.96856181988566736329e+00) (577, -8.84832295375721611386e-01) (578, -1.73267623074611010203e+00) (579, 4.92691409481112507773e-01) (580, 5.49575767246807456168e-01) (581, 2.30392759217175641107e-01) (582, 3.68709438990687699000e-01) (583, 3.63131798789692927798e-01) (584, 2.98835738135812600813e-01) (585, 2.88255883885858377180e-01) (586, 2.60786576701639016829e-01) (587, 2.78658656908509994032e-01) (588, 3.09294267131326516829e-01) (589, 2.63289673758981546126e-01) (590, 1.77066201849219867492e-01) (591, 2.68607336367700400004e-01) (592, 2.30926802628023147834e-01) (593, 3.02014406374391142229e-01) (594, 1.57463629960871764890e-01) (595, 1.03648638568742706978e-01) (596, -1.55403933316594383696e-01) (597, -7.21290913533516153677e+00) (598, -2.81516355627934400374e+00) (599, 2.39408841601870658877e+00) (600, 4.78595832101858142948e+00) (601, 3.29894055550837483892e+00) (602, 9.37265072272556731825e-01) (603, -9.19628477823033751992e-02) (604, 5.06936714493801066084e-01) (605, -9.73727012698465399509e-02) (606, -6.34605047654940745971e-01) (607, 2.66723480936855439349e-01) (608, 2.54251014363016170083e-01) (609, 1.75062022753983637102e-01) (610, 2.01094727653136462475e-01) (611, 1.92886502619264210701e-01) (612, 1.73817688792132857278e-01) (613, 1.33156126870152990982e-01) (614, 1.79769261313912936950e-01) (615, 1.54931130392787497208e-01) (616, 3.06639953090188821516e-01) (617, 1.25783784820077404465e-01) (618, 1.18817737831113184876e-01) (619, 3.01162167026040872297e-01) (620, 3.50548627101165966025e-01) (621, 2.57166527922030319075e-01) (622, 2.85403799445602734952e-01) (623, 2.99555253538620724907e-01) (624, 2.53108803673897542197e-01) (625, -2.97024708793408274976e-02) (626, -2.82555853615977481397e+00) (627, -4.07283655730378835180e-01) (628, 2.50511172986003158303e-02) (629, -5.86297799475694936255e-01) (630, -4.85338162017479257671e-01) (631, -5.38091672037143697871e-01) (632, -1.43836458599385008661e+00) (633, -4.93354332806348050422e-01) (634, 1.02719088844370670666e-01) (635, 1.95085080627874191128e-01) (636, 2.68608635211185886593e-01) (637, 1.89228758801292862302e-01) (638, 1.34761758031442635541e-01) (639, 1.68104832197902287483e-01) (640, 1.97296667183969043347e-01) (641, 1.64846038950917789245e-01) (642, 2.47107280923364175385e-01) (643, 2.52988873554704507551e-01) (644, 1.83230115605828830505e-01) (645, 3.12104477120874301832e-01) (646, 2.93147950006959756575e-01) (647, 1.75098008049962589050e-01) (648, 1.25344055734824544324e-01) (649, 3.85408811049351041067e-01) (650, 2.49784296462293636809e-01) (651, 3.60055546833727757594e-01) (652, 1.43505385476598884553e-01) (653, 2.87191993161730108053e-01) (654, -9.43428127018312023822e-01) (655, -1.17625168871785223956e+00) (656, -1.95429705358069760734e+00) (657, -1.88313806161484986745e+00) (658, -2.24748461994063708502e+00) (659, -5.04266125298461975746e+00) (660, -2.27408938924512149526e+00) (661, -2.77357271380770464830e+00) (662, -1.39800721344245718059e-02) (663, 2.20944297789278182309e-01) (664, 1.64931136944241191200e-01) (665, 2.66328521658253269955e-01) (666, 1.66739095466587050609e-01) (667, 1.55396199358937781021e-01) (668, 1.54207254333732168838e-01) (669, 1.96130952371594918793e-01) (670, 2.09172977639672769135e-01) (671, 2.36328667534825814789e-01) (672, 2.46204941107270730560e-01) (673, 1.41508205367562783783e-01) (674, 1.74545484168765613342e-01) (675, 3.14663006497857944410e-01) (676, 1.41790883808516954279e-01) (677, 1.60372539491366983277e-01) (678, 1.88024246287527202481e-01) (679, 2.48956366466268785853e-01) (680, 2.47083395600826483118e-01) (681, 2.91173997736480894005e-01) (682, 5.86707822735123452063e-01) (683, 3.36299464353376986736e-01) (684, 3.54984233572337604112e-01) (685, 1.25685229968856809757e-01) (686, -3.38596897523872897295e-01) (687, -1.62580493377504714525e-01) (688, -5.61953530226137476511e-01) (689, 7.06826361362936084198e-02) (690, 8.09566009717730267203e-02) (691, 1.28404972987301718712e-01) (692, 2.54770025982452130719e-01) (693, 1.49043821226936351598e-01) (694, 1.39181716872689764664e-01) (695, 1.73974960382316190532e-01) (696, 3.11749799682138339918e-01) (697, 1.96152939034936441010e-01) (698, 2.14195905758378518646e-01) (699, 1.51184997095105688736e-01) (700, 2.77511848641870284560e-01) (701, 3.08596833182809671126e-01) (702, 2.72741614414689803603e-01) (703, 2.08944729103086007660e-01) (704, 1.35332985354898016617e-01) (705, 1.35465288727664445734e-01) (706, 2.11785922019862599130e-01) (707, 1.68142673368502859610e-01) (708, 1.95356994968004904489e-01) (709, 4.17576913512220704305e-01) (710, 3.49376007399217647365e-01) (711, 3.48796955725805324366e-01) (712, 6.22821462062187691799e-01) (713, 3.03619914254416145560e-01) (714, 2.85549675221159926508e-01) (715, 2.76522667771647634449e-01) (716, 1.52122980742840169244e-01) (717, 1.55591275134309203754e-01) (718, 1.22049005035856070189e-01) (719, 1.14994965376451346861e-01) (720, 2.56115062264383408497e-01) (721, 1.43656103445527594253e-01) (722, 1.83755985034940311218e-01) (723, 2.41212694479463113373e-01) (724, 1.82366362346646854187e-01) (725, 2.08165644241807473724e-01) (726, 3.00012408329484780989e-01) (727, 1.79344108833310672546e-01) (728, 2.89546533061502298079e-01) (729, 1.99436253441808236664e-01) (730, 2.15757055713174356049e-01) (731, 2.52286328507898172102e-01) (732, 1.93261033429143497253e-01) (733, 1.73726613207099506164e-01) (734, 1.46459004415509741470e-01) (735, 2.13821968568799508637e-01) (736, 1.91469608379838535095e-01) (737, 2.40522636605737222260e-01) (738, 2.61401729851150288475e-01) (739, 2.48079526940152672587e-01) (740, 1.95206369544599134258e-01) (741, 1.38444015949153398370e-01) (742, 1.27778104381264717704e-01) (743, 2.56419885243509115824e-01) (744, 2.13225546564195178600e-01) (745, 2.69620730115411599837e-01) (746, 2.10701471699712289398e-01) (747, 2.57747604085443338118e-01) (748, 1.22578373683926905580e-01) (749, 2.22059598697659982269e-01) (750, 2.62368498875139077864e-01) (751, 2.67178370191095193587e-01) (752, 2.50943659378526640058e-01) (753, 1.31352430714604895279e-01) (754, 1.93619004024503299499e-01) (755, 1.18537961079118098207e-01) (756, 2.24746017290589822357e-01) (757, 1.78859359158513614441e-01) (758, 1.83110019697187015320e-01) (759, 1.99520504607198251312e-01) (760, 2.63523562385080178938e-01) (761, 2.84095002843377852919e-01) (762, 1.37034779919621985123e-01) (763, 1.42012542618749154633e-01) (764, 1.43049574030873816177e-01) (765, 1.68721730394599506164e-01) (766, 2.41062460972306741303e-01) (767, 2.19747132195470346039e-01) (768, 2.94472305609224160872e-01) (769, 1.84741898013589450622e-01) (770, 1.52337009592292349502e-01) (771, 1.74503421916005679870e-01) (772, 2.05463624133107675140e-01) (773, 1.61390120668647357727e-01) (774, 1.15748061372277583070e-01) (775, 3.03513927890298684797e-01) (776, 1.16238793863293971009e-01) (777, 2.11677482856748117035e-01) (778, 2.46489478780267251556e-01) (779, 1.24045117331979107278e-01) (780, 1.18965035809514368959e-01) (781, 1.94085924459931918884e-01) (782, 2.76451437307832503798e-01) (783, 2.55136637522218545637e-01) (784, 9.56776801713991875697e-02) (0, 5.35780557744143792753e-01) (1, 6.39384714268086740141e-01) (2, 5.01122442386983113494e-01) (3, 5.99867870412705728178e-01) (4, 5.07722673319219053312e-01) (5, 5.85870904229520150786e-01) (6, 5.48619368426440545683e-01) (7, 6.77045640848515817289e-01) (8, 6.08133626483319589262e-01) (9, 5.75859857104657479887e-01) (10, 5.05323161683915555997e-01) (11, 6.62083310387967416411e-01) (12, 5.02150257430909241485e-01) (13, 6.10298236213563272123e-01) (14, 6.41783562801717111235e-01) (15, 5.72120105229256936674e-01) (16, 6.47863191865323373442e-01) (17, 5.01514924071667755889e-01) (18, 6.62811679147122689848e-01) (19, 6.94481266044019052153e-01) (20, 5.02490942679284069428e-01) (21, 6.51553553841946908598e-01) (22, 4.95948014162419403839e-01) (23, 5.99396382771371194487e-01) (24, 5.83270986877320596342e-01) (25, 5.05221081279157102628e-01) (26, 6.03589353464482614164e-01) (27, 6.62584868572591134672e-01) (28, 6.66900468371747323637e-01) (29, 5.43953945241807290678e-01) (30, 5.58479120336411782866e-01) (31, 5.07426803313134611173e-01) (32, 6.88084435962079354887e-01) (33, 5.64347346626160928373e-01) (34, 6.12040457628606149321e-01) (35, 5.00552897654412354278e-01) (36, 6.54964027307866403227e-01) (37, 6.65405613683102914457e-01) (38, 6.82344314955113717680e-01) (39, 5.67843434713719674711e-01) (40, 5.46011244259713479643e-01) (41, 6.92413253091214486723e-01) (42, 5.34672522298930474882e-01) (43, 5.52907285593388864164e-01) (44, 6.07457277677892037993e-01) (45, 6.81201857827542611723e-01) (46, 6.29773182175992318754e-01) (47, 5.60066257916329690580e-01) (48, 6.87462565801976510649e-01) (49, 5.97330642245648690825e-01) (50, 5.59293312333463021879e-01) (51, 6.94699299834607431059e-01) (52, 5.53629980735419580107e-01) (53, 5.59987110398648568754e-01) (54, 5.98841448627351113920e-01) (55, 6.41646740339635202055e-01) (56, 5.69953975580571481352e-01) (57, 5.07176597915528715177e-01) (58, 6.08977389834760018950e-01) (59, 5.41600228600142785673e-01) (60, 5.55876323334811517363e-01) (61, 6.72202286623357125883e-01) (62, 5.53772815816043206816e-01) (63, 5.48706547670005151396e-01) (64, 5.41295417897342034941e-01) (65, 6.70559061072705575590e-01) (66, 5.54005221776603051786e-01) (67, 5.01005229853032196807e-01) (68, 6.40710455678342172270e-01) (69, 5.41095321379540750151e-01) (70, 5.73594448469518014555e-01) (71, 6.91467476390240975981e-01) (72, 5.38254359118579217558e-01) (73, 6.13012750945924111967e-01) (74, 5.49120542906163522368e-01) (75, 6.50457424424527475004e-01) (76, 5.98960389696000405912e-01) (77, 6.83639508984921762114e-01) (78, 5.15269463263390958829e-01) (79, 5.91168743871091195707e-01) (80, 5.85715932153104135161e-01) (81, 5.79308559499619790678e-01) (82, 5.90613817177651712065e-01) (83, 6.44091693065999337797e-01) (84, 6.44041461251614877348e-01) (85, 6.94201064608929940825e-01) (86, 5.90484221778748818998e-01) (87, 5.18741210304139555021e-01) (88, 5.06123435996411741300e-01) (89, 5.04207392536042409148e-01) (90, 5.65087219081757852202e-01) (91, 5.66745546959279367094e-01) (92, 6.81155470512746163969e-01) (93, 6.23605829976437875395e-01) (94, 6.20197882257340737944e-01) (95, 5.27196673057912179594e-01) (96, 5.98910664521096536284e-01) (97, 6.79055805345478824542e-01) (98, 2.81165288530686396928e-01) (99, 2.91574037426497012504e-01) (100, 2.72054733995033770633e-01) (101, 3.58407507183994611388e-01) (102, 2.87496602963589142909e-01) (103, 5.67045464819561861880e-01) (104, 5.28301782613884829409e-01) (105, 5.94734470365403500303e-01) (106, 5.23138490640149389499e-01) (107, 6.32897776686177526706e-01) (108, 5.82831760249970742827e-01) (109, 5.43008585773347207670e-01) (110, 5.28667149446843454008e-01) (111, 6.73293468855260202055e-01) (112, 6.27062929175732919340e-01) (113, 6.24026757977841683989e-01) (114, 6.22130942843793222075e-01) (115, 5.75850156448720285063e-01) (116, 6.22973603509305307036e-01) (117, 5.17360938094495237394e-01) (118, 5.99337158106206246977e-01) (119, 6.32708380094639255553e-01) (120, 5.24709286089340642967e-01) (121, 6.68280920514855325543e-01) (122, 2.62345209701412951375e-01) (123, 2.98612226202592534463e-01) (124, 3.61026426495801855410e-01) (125, 4.20588412327547733760e-01) (126, 3.57680201927522589678e-01) (127, 4.16019673924529931330e-01) (128, 7.77253657365010841573e-01) (129, 5.15352496496618739386e-01) (130, 7.48940394593628488984e-01) (131, 4.22803088112853997504e-01) (132, 2.46567506073308184700e-01) (133, 5.95731896079693679091e-01) (134, 5.15761723920456827130e-01) (135, 5.31394800349823781538e-01) (136, 6.94954213820920263522e-01) (137, 5.43783271066783258085e-01) (138, 6.69175637267468759184e-01) (139, 5.82386595509885141020e-01) (140, 5.91537644468186685209e-01) (141, 5.02588567636845673370e-01) (142, 5.60425845287679025297e-01) (143, 5.23346347115872689848e-01) (144, 6.31361109517453500395e-01) (145, 6.87302572034238168364e-01) (146, 6.08859096995225446136e-01) (147, 3.17291960567592790099e-01) (148, 8.99191661957471632949e-02) (149, 6.54743964953112544958e-02) (150, 1.41385392012566141196e-01) (151, 5.99439934990839362605e-01) (152, 5.89772382587414822908e-01) (153, 4.58410273167190962518e-01) (154, 2.17078399566040509683e+01) (155, 3.96193734601408431573e+00) (156, 4.24014932607908878737e+00) (157, 1.32430976318003462699e-01) (158, 1.43138578586202802612e+00) (159, 7.54523156194800370677e-01) (160, 4.30840544105819012177e-01) (161, 3.84500523794449544646e-01) (162, 2.70227702974784156353e-01) (163, 5.27156764280685030677e-01) (164, 5.71830709594836728016e-01) (165, 5.30822801409123745664e-01) (166, 5.31984811030267068510e-01) (167, 5.45086809746859857206e-01) (168, 5.79063852630494424467e-01) (169, 5.05906236670850217862e-01) (170, 6.32219192884801217680e-01) (171, 6.75347281001447030668e-01) (172, 5.13240588210462034269e-01) (173, 5.02307621172299878509e-01) (174, 8.39500596094701345695e-02) (175, 2.05293868214841329634e-01) (176, 2.25890427199910592826e-01) (177, 6.71098229638771526240e-01) (178, 6.97364163973800410545e-01) (179, 4.88231935274605177710e-01) (180, 5.38331089779674254459e+00) (181, 3.39664103580454357356e+00) (182, 1.20256762299573960462e+00) (183, 1.60412777746020585035e+00) (184, 1.51398696230675411378e+00) (185, 2.31671294779230674266e+00) (186, 2.60004582430559594286e+00) (187, 1.90676965582192292636e+00) (188, 7.89706704942201631603e-01) (189, 9.24196208870143198766e-01) (190, 7.61289634565532780108e-01) (191, 5.28543488420264884198e-01) (192, 5.71632352787604824940e-01) (193, 5.57006426009843180758e-01) (194, 5.20337457774041500791e-01) (195, 5.95611368618844339018e-01) (196, 5.91609654329655954008e-01) (197, 5.56780056409476586943e-01) (198, 6.45443958543179818754e-01) (199, 6.75419298313496896391e-01) (200, 5.68634473352502500809e-01) (201, 5.89158114345135541789e-01) (202, 4.04966234758455390086e-01) (203, 2.31183375857805118586e-03) (204, 4.20781338193268017456e-01) (205, 4.97912697003276283336e-01) (206, 9.72025487737931848109e-01) (207, 6.31069901252065612596e+00) (208, 1.11670944399973826044e+00) (209, -1.56434259972205613742e-01) (210, -4.57487953654491852351e-01) (211, -8.54320427745883903548e-01) (212, -6.44954388098804454188e-01) (213, 4.06280269348294920118e-01) (214, 1.45953329951818533416e+00) (215, 5.18454887283276999455e+00) (216, 1.25575092445518943229e+00) (217, 9.82217759392417288922e-01) (218, 1.35922173631057563448e+00) (219, 9.72137058794834696407e-01) (220, 6.71248362375391094403e-01) (221, 6.37401717401657852413e-01) (222, 6.07943083165047970517e-01) (223, 5.82075697682736703520e-01) (224, 4.98601478837369049835e-01) (225, 6.32450324796078988676e-01) (226, 6.82432842753766366606e-01) (227, 5.94956924520371743803e-01) (228, 6.95178561477731382645e-01) (229, 6.38104443709540003482e-01) (230, 2.63358264752767190497e-01) (231, 3.84622420179544788343e-01) (232, 9.90484397940105676383e-01) (233, 2.14563817238519982666e+00) (234, 1.31970591364382894284e+01) (235, 3.00850036882608762312e+00) (236, 7.55184764337621383667e-01) (237, -5.15723590684536659090e-01) (238, -9.95193906504790426482e+00) (239, -8.18936385974360625539e+00) (240, -4.23419187767181259829e+00) (241, 1.38224502447262342919e+00) (242, 1.38424346574290790812e+00) (243, 2.19886321067439194366e+00) (244, 1.72455680898111607391e+00) (245, 1.31158480183234171790e+00) (246, 1.34203750494854534558e+00) (247, 1.40603830377061789214e+00) (248, 1.07407491605606142393e+00) (249, 7.97136866564428725468e-01) (250, 6.77858746180329263531e-01) (251, 5.08713004492162279568e-01) (252, 5.98565449319718667631e-01) (253, 5.91148873172639199858e-01) (254, 5.95534493528245278959e-01) (255, 6.01912712059853860502e-01) (256, 5.29547378985952055253e-01) (257, 5.56036062982941836630e-01) (258, 6.76999708114237819245e-01) (259, 1.69643157745301431660e+00) (260, 4.65459923920668316999e-01) (261, 4.00784247395198001129e+00) (262, 1.02819985689593007550e+01) (263, 2.60295222008198434693e+00) (264, 2.34407080868104822358e+00) (265, -4.26747577566572444674e-01) (266, 1.98598202811544888302e-02) (267, -1.15938807803697851995e+00) (268, -4.29621744920041126470e-01) (269, 4.74600089920362133711e+00) (270, -2.70919667279110154556e-01) (271, 3.18541813366656079154e+00) (272, 6.26678479878574723472e+00) (273, 5.25826689358592425094e+00) (274, 1.81365301559183667024e+00) (275, 1.65466333180605729147e+00) (276, 1.08378759077656838805e+00) (277, 7.74625204222957775002e-01) (278, 6.74626913227888591607e-01) (279, 6.49766532085774728422e-01) (280, 6.08250332377789804106e-01) (281, 6.58369091652272531157e-01) (282, 6.63225320480702706938e-01) (283, 5.11329722562879007697e-01) (284, 5.24511394441969702740e-01) (285, 6.91357549987957509252e-01) (286, 9.57680881775581527293e-01) (287, 2.20293564850815037914e+00) (288, 1.99228144893550829231e+00) (289, 6.81988486520315895234e+00) (290, 8.55231147681874226407e+00) (291, 3.26668187563577117061e+00) (292, 3.86286172051942910954e+00) (293, 4.43446740437125674905e-01) (294, -1.10389521239931398533e+00) (295, -2.73117588009630685164e+00) (296, -1.05740856586492060210e+00) (297, 1.52815043119215676626e+00) (298, 2.77900262329390734806e+00) (299, 3.38670811151891459900e+00) (300, 7.34370803963485663246e+00) (301, 1.99208709565765884619e+00) (302, 1.54399291400402871588e+00) (303, 1.23589666926283525683e+00) (304, 9.24532376178139325695e-01) (305, 8.01723277266028766519e-01) (306, 5.82510178112015997165e-01) (307, 5.16351660095094144864e-01) (308, 6.29915041230557748442e-01) (309, 5.61986108623383828764e-01) (310, 6.70863968633054086332e-01) (311, 5.42911150805590936308e-01) (312, 4.85988582402991031728e-01) (313, 7.91895695181995762368e-01) (314, 8.98679316796028304637e-01) (315, 2.53464255636854307596e+00) (316, 1.55857704665443952408e+00) (317, 3.45031151167133032232e+00) (318, 5.00876210247057329639e+00) (319, 3.46273049364465324018e+00) (320, 9.32352660785689835166e+00) (321, 2.38319263177251317032e+00) (322, 8.18381909660025663733e-01) (323, -1.84728352257835293226e-01) (324, 4.14133047257327024937e-01) (325, 1.18199129712321893138e+00) (326, 2.16895270304216980506e+00) (327, 3.54659843504203697861e+00) (328, 1.66906611332391330293e+00) (329, 1.81870194768806148211e+00) (330, 1.95628536304233757726e+00) (331, 1.08491688840606470556e+00) (332, 7.27176020133714184901e-01) (333, 5.34870305767334297542e-01) (334, 6.22998041235432897800e-01) (335, 5.94760355852483102446e-01) (336, 5.55452042572139093046e-01) (337, 5.09963688753484301053e-01) (338, 6.15857799850343057280e-01) (339, 6.90112871430753060942e-01) (340, 5.75806333253178537213e-01) (341, 5.70813340252721346246e-01) (342, 7.95032512521167689101e-01) (343, 8.02924604363153715525e-01) (344, 1.86127924505131780997e+00) (345, 4.09877717589408074872e+00) (346, 2.14402754327492317543e+00) (347, 4.07049381998853121445e+00) (348, 5.79185689873690368046e+00) (349, 3.65928420052365499515e+00) (350, 2.11330248282893817802e+00) (351, 1.49026753105655496157e+00) (352, 2.60019464458750659830e+00) (353, 1.09715240439602079725e+00) (354, 1.50793585568201171654e+00) (355, 1.00147089046669890422e+00) (356, 1.29049792009330821507e+00) (357, 7.67721414690633707778e-01) (358, 7.49188711775721993824e-01) (359, 7.58982402015507928716e-01) (360, 7.91968630027818143446e-01) (361, 5.16704570696623566306e-01) (362, 5.36164791457877432101e-01) (363, 5.17222193382619321866e-01) (364, 5.93508963786004373198e-01) (365, 6.63618308804868051176e-01) (366, 6.16728325687287637358e-01) (367, 6.53706786535619088774e-01) (368, 6.77757353076569368788e-01) (369, 5.05988748077589423069e-01) (370, 6.06276425608556879254e-01) (371, -5.94963142806266609419e-01) (372, -3.42115127980023581156e-01) (373, 4.59792778525599313277e-02) (374, -1.59222965248025476181e-02) (375, 4.33763013985465306632e+00) (376, 1.73747778348976247287e+01) (377, 5.04857188728026784474e+00) (378, 4.53553855272871775384e+00) (379, 3.18120627625505525415e+00) (380, 1.62404324086774187741e+00) (381, -2.56210031709736309191e-02) (382, -5.51254960982977992856e-01) (383, -5.66453926742023106122e-01) (384, -6.11561614244960249920e-01) (385, 3.00814127725243407596e-01) (386, 5.28362611398020876052e-01) (387, 6.35800701171777449261e-01) (388, 6.56918386382266961121e-01) (389, 5.94212888309750497662e-01) (390, 5.72837134204743692045e-01) (391, 6.23086494706509896879e-01) (392, 6.15862583123086282377e-01) (393, 6.13602568708298989897e-01) (394, 6.45054471991895028715e-01) (395, 5.14117327831624448820e-01) (396, 5.81164389993988783623e-01) (397, 5.66014310182892610435e-01) (398, 4.85211230992070863266e-01) (399, -7.58341097162039567969e-01) (400, -4.05841153434016610468e-01) (401, -2.40324546316470888385e+00) (402, -1.92552844708172909982e+00) (403, 7.68566358312016451038e+00) (404, 1.03378598291460424008e+01) (405, 1.01086447920910149634e+01) (406, 