FANN_FLO_2.1
num_layers=3
learning_rate=0.400000
connection_rate=1.000000
network_type=0
learning_momentum=0.000000
training_algorithm=2
train_error_function=1
train_stop_function=0
cascade_output_change_fraction=0.010000
quickprop_decay=-0.000100
quickprop_mu=1.750000
rprop_increase_factor=1.200000
rprop_decrease_factor=0.500000
rprop_delta_min=0.000000
rprop_delta_max=50.000000
rprop_delta_zero=0.100000
cascade_output_stagnation_epochs=12
cascade_candidate_change_fraction=0.010000
cascade_candidate_stagnation_epochs=12
cascade_max_out_epochs=150
cascade_max_cand_epochs=150
cascade_num_candidate_groups=2
bit_fail_limit=3.49999999999999977796e-01
cascade_candidate_limit=1.00000000000000000000e+03
cascade_weight_multiplier=4.00000000000000022204e-01
cascade_activation_functions_count=10
cascade_activation_functions=3 5 7 8 10 11 14 15 16 17 
cascade_activation_steepnesses_count=4
cascade_activation_steepnesses=2.50000000000000000000e-01 5.00000000000000000000e-01 7.50000000000000000000e-01 1.00000000000000000000e+00 
layer_sizes=785 101 11 
scale_included=0
neurons (num_inputs, activation_function, activation_steepness)=(0, 0, 0.00000000000000000000e+00) (0, 0, 0.00000000000000000000e+00) (0, 0, 0.00000000000000000000e+00) (0, 0, 0.00000000000000000000e+00) (0, 0, 0.00000000000000000000e+00) (0, 0, 0.00000000000000000000e+00) (0, 0, 0.00000000000000000000e+00) (0, 0, 0.00000000000000000000e+00) (0, 0, 0.00000000000000000000e+00) (0, 0, 0.00000000000000000000e+00) (0, 0, 0.00000000000000000000e+00) (0, 0, 0.00000000000000000000e+00) (0, 0, 0.00000000000000000000e+00) (0, 0, 0.00000000000000000000e+00) (0, 0, 0.00000000000000000000e+00) (0, 0, 0.00000000000000000000e+00) (0, 0, 0.00000000000000000000e+00) (0, 0, 0.00000000000000000000e+00) (0, 0, 0.00000000000000000000e+00) (0, 0, 0.00000000000000000000e+00) (0, 0, 0.00000000000000000000e+00) (0, 0, 0.00000000000000000000e+00) (0, 0, 0.00000000000000000000e+00) (0, 0, 0.00000000000000000000e+00) (0, 0, 0.00000000000000000000e+00) (0, 0, 0.00000000000000000000e+00) (0, 0, 0.00000000000000000000e+00) (0, 0, 0.00000000000000000000e+00) (0, 0, 0.00000000000000000000e+00) (0, 0, 0.00000000000000000000e+00) (0, 0, 0.00000000000000000000e+00) (0, 0, 0.00000000000000000000e+00) (0, 0, 0.00000000000000000000e+00) (0, 0, 0.00000000000000000000e+00) (0, 0, 0.00000000000000000000e+00) (0, 0, 0.00000000000000000000e+00) (0, 0, 0.00000000000000000000e+00) (0, 0, 0.00000000000000000000e+00) (0, 0, 0.00000000000000000000e+00) (0, 0, 0.00000000000000000000e+00) (0, 0, 0.00000000000000000000e+00) (0, 0, 0.00000000000000000000e+00) (0, 0, 0.00000000000000000000e+00) (0, 0, 0.00000000000000000000e+00) (0, 0, 0.00000000000000000000e+00) (0, 0, 0.00000000000000000000e+00) (0, 0, 0.00000000000000000000e+00) (0, 0, 0.00000000000000000000e+00) (0, 0, 0.00000000000000000000e+00) (0, 0, 0.00000000000000000000e+00) (0, 0, 0.00000000000000000000e+00) (0, 0, 0.00000000000000000000e+00) (0, 0, 0.00000000000000000000e+00) (0, 0, 0.00000000000000000000e+00) (0, 0, 0.00000000000000000000e+00) (0, 0, 0.00000000000000000000e+00) (0, 0, 0.00000000000000000000e+00) (0, 0, 0.00000000000000000000e+00) (0, 0, 0.00000000000000000000e+00) (0, 0, 0.00000000000000000000e+00) (0, 0, 0.00000000000000000000e+00) (0, 0, 0.00000000000000000000e+00) (0, 0, 0.00000000000000000000e+00) (0, 0, 0.00000000000000000000e+00) (0, 0, 0.00000000000000000000e+00) (0, 0, 0.00000000000000000000e+00) (0, 0, 0.00000000000000000000e+00) (0, 0, 0.00000000000000000000e+00) (0, 0, 0.00000000000000000000e+00) (0, 0, 0.00000000000000000000e+00) (0, 0, 0.00000000000000000000e+00) (0, 0, 0.00000000000000000000e+00) (0, 0, 0.00000000000000000000e+00) (0, 0, 0.00000000000000000000e+00) (0, 0, 0.00000000000000000000e+00) (0, 0, 0.00000000000000000000e+00) (0, 0, 0.00000000000000000000e+00) (0, 0, 0.00000000000000000000e+00) (0, 0, 0.00000000000000000000e+00) (0, 0, 0.00000000000000000000e+00) (0, 0, 0.00000000000000000000e+00) (0, 0, 0.00000000000000000000e+00) (0, 0, 0.00000000000000000000e+00) (0, 0, 0.00000000000000000000e+00) (0, 0, 0.00000000000000000000e+00) (0, 0, 0.00000000000000000000e+00) (0, 0, 0.00000000000000000000e+00) (0, 0, 0.00000000000000000000e+00) (0, 0, 0.00000000000000000000e+00) (0, 0, 0.00000000000000000000e+00) (0, 0, 0.00000000000000000000e+00) (0, 0, 0.00000000000000000000e+00) (0, 0, 0.00000000000000000000e+00) (0, 0, 0.00000000000000000000e+00) (0, 0, 0.00000000000000000000e+00) (0, 0, 0.00000000000000000000e+00) (0, 0, 0.00000000000000000000e+00) (0, 0, 0.00000000000000000000e+00) (0, 0, 0.00000000000000000000e+00) (0, 0, 0.00000000000000000000e+00) (0, 0, 0.00000000000000000000e+00) (0, 0, 0.00000000000000000000e+00) (0, 0, 0.00000000000000000000e+00) (0, 0, 0.00000000000000000000e+00) (0, 0, 0.00000000000000000000e+00) (0, 0, 0.00000000000000000000e+00) (0, 0, 0.00000000000000000000e+00) (0, 0, 0.00000000000000000000e+00) (0, 0, 0.00000000000000000000e+00) (0, 0, 0.00000000000000000000e+00) (0, 0, 0.00000000000000000000e+00) (0, 0, 0.00000000000000000000e+00) (0, 0, 0.00000000000000000000e+00) (0, 0, 0.00000000000000000000e+00) (0, 0, 0.00000000000000000000e+00) (0, 0, 0.00000000000000000000e+00) (0, 0, 0.00000000000000000000e+00) (0, 0, 0.00000000000000000000e+00) (0, 0, 0.00000000000000000000e+00) (0, 0, 0.00000000000000000000e+00) (0, 0, 0.00000000000000000000e+00) (0, 0, 0.00000000000000000000e+00) (0, 0, 0.00000000000000000000e+00) (0, 0, 0.00000000000000000000e+00) (0, 0, 0.00000000000000000000e+00) (0, 0, 0.00000000000000000000e+00) (0, 0, 0.00000000000000000000e+00) (0, 0, 0.00000000000000000000e+00) (0, 0, 0.00000000000000000000e+00) (0, 0, 0.00000000000000000000e+00) (0, 0, 0.00000000000000000000e+00) (0, 0, 0.00000000000000000000e+00) (0, 0, 0.00000000000000000000e+00) (0, 0, 0.00000000000000000000e+00) (0, 0, 0.00000000000000000000e+00) (0, 0, 0.00000000000000000000e+00) (0, 0, 0.00000000000000000000e+00) (0, 0, 0.00000000000000000000e+00) (0, 0, 0.00000000000000000000e+00) (0, 0, 0.00000000000000000000e+00) (0, 0, 0.00000000000000000000e+00) (0, 0, 0.00000000000000000000e+00) (0, 0, 0.00000000000000000000e+00) (0, 0, 0.00000000000000000000e+00) (0, 0, 0.00000000000000000000e+00) (0, 0, 0.00000000000000000000e+00) (0, 0, 0.00000000000000000000e+00) (0, 0, 0.00000000000000000000e+00) (0, 0, 0.00000000000000000000e+00) (0, 0, 0.00000000000000000000e+00) (0, 0, 0.00000000000000000000e+00) (0, 0, 0.00000000000000000000e+00) (0, 0, 0.00000000000000000000e+00) (0, 0, 0.00000000000000000000e+00) (0, 0, 0.00000000000000000000e+00) (0, 0, 0.00000000000000000000e+00) (0, 0, 0.00000000000000000000e+00) (0, 0, 0.00000000000000000000e+00) (0, 0, 0.00000000000000000000e+00) (0, 0, 0.00000000000000000000e+00) (0, 0, 0.00000000000000000000e+00) (0, 0, 0.00000000000000000000e+00) (0, 0, 0.00000000000000000000e+00) (0, 0, 0.00000000000000000000e+00) (0, 0, 0.00000000000000000000e+00) (0, 0, 0.00000000000000000000e+00) (0, 0, 0.00000000000000000000e+00) (0, 0, 0.00000000000000000000e+00) (0, 0, 0.00000000000000000000e+00) (0, 0, 0.00000000000000000000e+00) (0, 0, 0.00000000000000000000e+00) (0, 0, 0.00000000000000000000e+00) (0, 0, 0.00000000000000000000e+00) (0, 0, 0.00000000000000000000e+00) (0, 0, 0.00000000000000000000e+00) (0, 0, 0.00000000000000000000e+00) (0, 0, 0.00000000000000000000e+00) (0, 0, 0.00000000000000000000e+00) (0, 0, 0.00000000000000000000e+00) (0, 0, 0.00000000000000000000e+00) (0, 0, 0.00000000000000000000e+00) (0, 0, 0.00000000000000000000e+00) (0, 0, 0.00000000000000000000e+00) (0, 0, 0.00000000000000000000e+00) (0, 0, 0.00000000000000000000e+00) (0, 0, 0.00000000000000000000e+00) (0, 0, 0.00000000000000000000e+00) (0, 0, 0.00000000000000000000e+00) (0, 0, 0.00000000000000000000e+00) (0, 0, 0.00000000000000000000e+00) (0, 0, 0.00000000000000000000e+00) (0, 0, 0.00000000000000000000e+00) (0, 0, 0.00000000000000000000e+00) (0, 0, 0.00000000000000000000e+00) (0, 0, 0.00000000000000000000e+00) (0, 0, 0.00000000000000000000e+00) (0, 0, 0.00000000000000000000e+00) (0, 0, 0.00000000000000000000e+00) (0, 0, 0.00000000000000000000e+00) (0, 0, 0.00000000000000000000e+00) (0, 0, 0.00000000000000000000e+00) (0, 0, 0.00000000000000000000e+00) (0, 0, 0.00000000000000000000e+00) (0, 0, 0.00000000000000000000e+00) (0, 0, 0.00000000000000000000e+00) (0, 0, 0.00000000000000000000e+00) (0, 0, 0.00000000000000000000e+00) (0, 0, 0.00000000000000000000e+00) (0, 0, 0.00000000000000000000e+00) (0, 0, 0.00000000000000000000e+00) (0, 0, 0.00000000000000000000e+00) (0, 0, 0.00000000000000000000e+00) (0, 0, 0.00000000000000000000e+00) (0, 0, 0.00000000000000000000e+00) (0, 0, 0.00000000000000000000e+00) (0, 0, 0.00000000000000000000e+00) (0, 0, 0.00000000000000000000e+00) (0, 0, 0.00000000000000000000e+00) (0, 0, 0.00000000000000000000e+00) (0, 0, 0.00000000000000000000e+00) (0, 0, 0.00000000000000000000e+00) (0, 0, 0.00000000000000000000e+00) (0, 0, 0.00000000000000000000e+00) (0, 0, 0.00000000000000000000e+00) (0, 0, 0.00000000000000000000e+00) (0, 0, 0.00000000000000000000e+00) (0, 0, 0.00000000000000000000e+00) (0, 0, 0.00000000000000000000e+00) (0, 0, 0.00000000000000000000e+00) (0, 0, 0.00000000000000000000e+00) (0, 0, 0.00000000000000000000e+00) (0, 0, 0.00000000000000000000e+00) (0, 0, 0.00000000000000000000e+00) (0, 0, 0.00000000000000000000e+00) (0, 0, 0.00000000000000000000e+00) (0, 0, 0.00000000000000000000e+00) (0, 0, 0.00000000000000000000e+00) (0, 0, 0.00000000000000000000e+00) (0, 0, 0.00000000000000000000e+00) (0, 0, 0.00000000000000000000e+00) (0, 0, 0.00000000000000000000e+00) (0, 0, 0.00000000000000000000e+00) (0, 0, 0.00000000000000000000e+00) (0, 0, 0.00000000000000000000e+00) (0, 0, 0.00000000000000000000e+00) (0, 0, 0.00000000000000000000e+00) (0, 0, 0.00000000000000000000e+00) (0, 0, 0.00000000000000000000e+00) (0, 0, 0.00000000000000000000e+00) (0, 0, 0.00000000000000000000e+00) (0, 0, 0.00000000000000000000e+00) (0, 0, 0.00000000000000000000e+00) (0, 0, 0.00000000000000000000e+00) (0, 0, 0.00000000000000000000e+00) (0, 0, 0.00000000000000000000e+00) (0, 0, 0.00000000000000000000e+00) (0, 0, 0.00000000000000000000e+00) (0, 0, 0.00000000000000000000e+00) (0, 0, 0.00000000000000000000e+00) (0, 0, 0.00000000000000000000e+00) (0, 0, 0.00000000000000000000e+00) (0, 0, 0.00000000000000000000e+00) (0, 0, 0.00000000000000000000e+00) (0, 0, 0.00000000000000000000e+00) (0, 0, 0.00000000000000000000e+00) (0, 0, 0.00000000000000000000e+00) (0, 0, 0.00000000000000000000e+00) (0, 0, 0.00000000000000000000e+00) (0, 0, 0.00000000000000000000e+00) (0, 0, 0.00000000000000000000e+00) (0, 0, 0.00000000000000000000e+00) (0, 0, 0.00000000000000000000e+00) (0, 0, 0.00000000000000000000e+00) (0, 0, 0.00000000000000000000e+00) (0, 0, 0.00000000000000000000e+00) (0, 0, 0.00000000000000000000e+00) (0, 0, 0.00000000000000000000e+00) (0, 0, 0.00000000000000000000e+00) (0, 0, 0.00000000000000000000e+00) (0, 0, 0.00000000000000000000e+00) (0, 0, 0.00000000000000000000e+00) (0, 0, 0.00000000000000000000e+00) (0, 0, 0.00000000000000000000e+00) (0, 0, 0.00000000000000000000e+00) (0, 0, 0.00000000000000000000e+00) (0, 0, 0.00000000000000000000e+00) (0, 0, 0.00000000000000000000e+00) (0, 0, 0.00000000000000000000e+00) (0, 0, 0.00000000000000000000e+00) (0, 0, 0.00000000000000000000e+00) (0, 0, 0.00000000000000000000e+00) (0, 0, 0.00000000000000000000e+00) (0, 0, 0.00000000000000000000e+00) (0, 0, 0.00000000000000000000e+00) (0, 0, 0.00000000000000000000e+00) (0, 0, 0.00000000000000000000e+00) (0, 0, 0.00000000000000000000e+00) (0, 0, 0.00000000000000000000e+00) (0, 0, 0.00000000000000000000e+00) (0, 0, 0.00000000000000000000e+00) (0, 0, 0.00000000000000000000e+00) (0, 0, 0.00000000000000000000e+00) (0, 0, 0.00000000000000000000e+00) (0, 0, 0.00000000000000000000e+00) (0, 0, 0.00000000000000000000e+00) (0, 0, 0.00000000000000000000e+00) (0, 0, 0.00000000000000000000e+00) (0, 0, 0.00000000000000000000e+00) (0, 0, 0.00000000000000000000e+00) (0, 0, 0.00000000000000000000e+00) (0, 0, 0.00000000000000000000e+00) (0, 0, 0.00000000000000000000e+00) (0, 0, 0.00000000000000000000e+00) (0, 0, 0.00000000000000000000e+00) (0, 0, 0.00000000000000000000e+00) (0, 0, 0.00000000000000000000e+00) (0, 0, 0.00000000000000000000e+00) (0, 0, 0.00000000000000000000e+00) (0, 0, 0.00000000000000000000e+00) (0, 0, 0.00000000000000000000e+00) (0, 0, 0.00000000000000000000e+00) (0, 0, 0.00000000000000000000e+00) (0, 0, 0.00000000000000000000e+00) (0, 0, 0.00000000000000000000e+00) (0, 0, 0.00000000000000000000e+00) (0, 0, 0.00000000000000000000e+00) (0, 0, 0.00000000000000000000e+00) (0, 0, 0.00000000000000000000e+00) (0, 0, 0.00000000000000000000e+00) (0, 0, 0.00000000000000000000e+00) (0, 0, 0.00000000000000000000e+00) (0, 0, 0.00000000000000000000e+00) (0, 0, 0.00000000000000000000e+00) (0, 0, 0.00000000000000000000e+00) (0, 0, 0.00000000000000000000e+00) (0, 0, 0.00000000000000000000e+00) (0, 0, 0.00000000000000000000e+00) (0, 0, 0.00000000000000000000e+00) (0, 0, 0.00000000000000000000e+00) (0, 0, 0.00000000000000000000e+00) (0, 0, 0.00000000000000000000e+00) (0, 0, 0.00000000000000000000e+00) (0, 0, 0.00000000000000000000e+00) (0, 0, 0.00000000000000000000e+00) (0, 0, 0.00000000000000000000e+00) (0, 0, 0.00000000000000000000e+00) (0, 0, 0.00000000000000000000e+00) (0, 0, 0.00000000000000000000e+00) (0, 0, 0.00000000000000000000e+00) (0, 0, 0.00000000000000000000e+00) (0, 0, 0.00000000000000000000e+00) (0, 0, 0.00000000000000000000e+00) (0, 0, 0.00000000000000000000e+00) (0, 0, 0.00000000000000000000e+00) (0, 0, 0.00000000000000000000e+00) (0, 0, 0.00000000000000000000e+00) (0, 0, 0.00000000000000000000e+00) (0, 0, 0.00000000000000000000e+00) (0, 0, 0.00000000000000000000e+00) (0, 0, 0.00000000000000000000e+00) (0, 0, 0.00000000000000000000e+00) (0, 0, 0.00000000000000000000e+00) (0, 0, 0.00000000000000000000e+00) (0, 0, 0.00000000000000000000e+00) (0, 0, 0.00000000000000000000e+00) (0, 0, 0.00000000000000000000e+00) (0, 0, 0.00000000000000000000e+00) (0, 0, 0.00000000000000000000e+00) (0, 0, 0.00000000000000000000e+00) (0, 0, 0.00000000000000000000e+00) (0, 0, 0.00000000000000000000e+00) (0, 0, 0.00000000000000000000e+00) (0, 0, 0.00000000000000000000e+00) (0, 0, 0.00000000000000000000e+00) (0, 0, 0.00000000000000000000e+00) (0, 0, 0.00000000000000000000e+00) (0, 0, 0.00000000000000000000e+00) (0, 0, 0.00000000000000000000e+00) (0, 0, 0.00000000000000000000e+00) (0, 0, 0.00000000000000000000e+00) (0, 0, 0.00000000000000000000e+00) (0, 0, 0.00000000000000000000e+00) (0, 0, 0.00000000000000000000e+00) (0, 0, 0.00000000000000000000e+00) (0, 0, 0.00000000000000000000e+00) (0, 0, 0.00000000000000000000e+00) (0, 0, 0.00000000000000000000e+00) (0, 0, 0.00000000000000000000e+00) (0, 0, 0.00000000000000000000e+00) (0, 0, 0.00000000000000000000e+00) (0, 0, 0.00000000000000000000e+00) (0, 0, 0.00000000000000000000e+00) (0, 0, 0.00000000000000000000e+00) (0, 0, 0.00000000000000000000e+00) (0, 0, 0.00000000000000000000e+00) (0, 0, 0.00000000000000000000e+00) (0, 0, 0.00000000000000000000e+00) (0, 0, 0.00000000000000000000e+00) (0, 0, 0.00000000000000000000e+00) (0, 0, 0.00000000000000000000e+00) (0, 0, 0.00000000000000000000e+00) (0, 0, 0.00000000000000000000e+00) (0, 0, 0.00000000000000000000e+00) (0, 0, 0.00000000000000000000e+00) (0, 0, 0.00000000000000000000e+00) (0, 0, 0.00000000000000000000e+00) (0, 0, 0.00000000000000000000e+00) (0, 0, 0.00000000000000000000e+00) (0, 0, 0.00000000000000000000e+00) (0, 0, 0.00000000000000000000e+00) (0, 0, 0.00000000000000000000e+00) (0, 0, 0.00000000000000000000e+00) (0, 0, 0.00000000000000000000e+00) (0, 0, 0.00000000000000000000e+00) (0, 0, 0.00000000000000000000e+00) (0, 0, 0.00000000000000000000e+00) (0, 0, 0.00000000000000000000e+00) (0, 0, 0.00000000000000000000e+00) (0, 0, 0.00000000000000000000e+00) (0, 0, 0.00000000000000000000e+00) (0, 0, 0.00000000000000000000e+00) (0, 0, 0.00000000000000000000e+00) (0, 0, 0.00000000000000000000e+00) (0, 0, 0.00000000000000000000e+00) (0, 0, 0.00000000000000000000e+00) (0, 0, 0.00000000000000000000e+00) (0, 0, 0.00000000000000000000e+00) (0, 0, 0.00000000000000000000e+00) (0, 0, 0.00000000000000000000e+00) (0, 0, 0.00000000000000000000e+00) (0, 0, 0.00000000000000000000e+00) (0, 0, 0.00000000000000000000e+00) (0, 0, 0.00000000000000000000e+00) (0, 0, 0.00000000000000000000e+00) (0, 0, 0.00000000000000000000e+00) (0, 0, 0.00000000000000000000e+00) (0, 0, 0.00000000000000000000e+00) (0, 0, 0.00000000000000000000e+00) (0, 0, 0.00000000000000000000e+00) (0, 0, 0.00000000000000000000e+00) (0, 0, 0.00000000000000000000e+00) (0, 0, 0.00000000000000000000e+00) (0, 0, 0.00000000000000000000e+00) (0, 0, 0.00000000000000000000e+00) (0, 0, 0.00000000000000000000e+00) (0, 0, 0.00000000000000000000e+00) (0, 0, 0.00000000000000000000e+00) (0, 0, 0.00000000000000000000e+00) (0, 0, 0.00000000000000000000e+00) (0, 0, 0.00000000000000000000e+00) (0, 0, 0.00000000000000000000e+00) (0, 0, 0.00000000000000000000e+00) (0, 0, 0.00000000000000000000e+00) (0, 0, 0.00000000000000000000e+00) (0, 0, 0.00000000000000000000e+00) (0, 0, 0.00000000000000000000e+00) (0, 0, 0.00000000000000000000e+00) (0, 0, 0.00000000000000000000e+00) (0, 0, 0.00000000000000000000e+00) (0, 0, 0.00000000000000000000e+00) (0, 0, 0.00000000000000000000e+00) (0, 0, 0.00000000000000000000e+00) (0, 0, 0.00000000000000000000e+00) (0, 0, 0.00000000000000000000e+00) (0, 0, 0.00000000000000000000e+00) (0, 0, 0.00000000000000000000e+00) (0, 0, 0.00000000000000000000e+00) (0, 0, 0.00000000000000000000e+00) (0, 0, 0.00000000000000000000e+00) (0, 0, 0.00000000000000000000e+00) (0, 0, 0.00000000000000000000e+00) (0, 0, 0.00000000000000000000e+00) (0, 0, 0.00000000000000000000e+00) (0, 0, 0.00000000000000000000e+00) (0, 0, 0.00000000000000000000e+00) (0, 0, 0.00000000000000000000e+00) (0, 0, 0.00000000000000000000e+00) (0, 0, 0.00000000000000000000e+00) (0, 0, 0.00000000000000000000e+00) (0, 0, 0.00000000000000000000e+00) (0, 0, 0.00000000000000000000e+00) (0, 0, 0.00000000000000000000e+00) (0, 0, 0.00000000000000000000e+00) (0, 0, 0.00000000000000000000e+00) (0, 0, 0.00000000000000000000e+00) (0, 0, 0.00000000000000000000e+00) (0, 0, 0.00000000000000000000e+00) (0, 0, 0.00000000000000000000e+00) (0, 0, 0.00000000000000000000e+00) (0, 0, 0.00000000000000000000e+00) (0, 0, 0.00000000000000000000e+00) (0, 0, 0.00000000000000000000e+00) (0, 0, 0.00000000000000000000e+00) (0, 0, 0.00000000000000000000e+00) (0, 0, 0.00000000000000000000e+00) (0, 0, 0.00000000000000000000e+00) (0, 0, 0.00000000000000000000e+00) (0, 0, 0.00000000000000000000e+00) (0, 0, 0.00000000000000000000e+00) (0, 0, 0.00000000000000000000e+00) (0, 0, 0.00000000000000000000e+00) (0, 0, 0.00000000000000000000e+00) (0, 0, 0.00000000000000000000e+00) (0, 0, 0.00000000000000000000e+00) (0, 0, 0.00000000000000000000e+00) (0, 0, 0.00000000000000000000e+00) (0, 0, 0.00000000000000000000e+00) (0, 0, 0.00000000000000000000e+00) (0, 0, 0.00000000000000000000e+00) (0, 0, 0.00000000000000000000e+00) (0, 0, 0.00000000000000000000e+00) (0, 0, 0.00000000000000000000e+00) (0, 0, 0.00000000000000000000e+00) (0, 0, 0.00000000000000000000e+00) (0, 0, 0.00000000000000000000e+00) (0, 0, 0.00000000000000000000e+00) (0, 0, 0.00000000000000000000e+00) (0, 0, 0.00000000000000000000e+00) (0, 0, 0.00000000000000000000e+00) (0, 0, 0.00000000000000000000e+00) (0, 0, 0.00000000000000000000e+00) (0, 0, 0.00000000000000000000e+00) (0, 0, 0.00000000000000000000e+00) (0, 0, 0.00000000000000000000e+00) (0, 0, 0.00000000000000000000e+00) (0, 0, 0.00000000000000000000e+00) (0, 0, 0.00000000000000000000e+00) (0, 0, 0.00000000000000000000e+00) (0, 0, 0.00000000000000000000e+00) (0, 0, 0.00000000000000000000e+00) (0, 0, 0.00000000000000000000e+00) (0, 0, 0.00000000000000000000e+00) (0, 0, 0.00000000000000000000e+00) (0, 0, 0.00000000000000000000e+00) (0, 0, 0.00000000000000000000e+00) (0, 0, 0.00000000000000000000e+00) (0, 0, 0.00000000000000000000e+00) (0, 0, 0.00000000000000000000e+00) (0, 0, 0.00000000000000000000e+00) (0, 0, 0.00000000000000000000e+00) (0, 0, 0.00000000000000000000e+00) (0, 0, 0.00000000000000000000e+00) (0, 0, 0.00000000000000000000e+00) (0, 0, 0.00000000000000000000e+00) (0, 0, 0.00000000000000000000e+00) (0, 0, 0.00000000000000000000e+00) (0, 0, 0.00000000000000000000e+00) (0, 0, 0.00000000000000000000e+00) (0, 0, 0.00000000000000000000e+00) (0, 0, 0.00000000000000000000e+00) (0, 0, 0.00000000000000000000e+00) (0, 0, 0.00000000000000000000e+00) (0, 0, 0.00000000000000000000e+00) (0, 0, 0.00000000000000000000e+00) (0, 0, 0.00000000000000000000e+00) (0, 0, 0.00000000000000000000e+00) (0, 0, 0.00000000000000000000e+00) (0, 0, 0.00000000000000000000e+00) (0, 0, 0.00000000000000000000e+00) (0, 0, 0.00000000000000000000e+00) (0, 0, 0.00000000000000000000e+00) (0, 0, 0.00000000000000000000e+00) (0, 0, 0.00000000000000000000e+00) (0, 0, 0.00000000000000000000e+00) (0, 0, 0.00000000000000000000e+00) (0, 0, 0.00000000000000000000e+00) (0, 0, 0.00000000000000000000e+00) (0, 0, 0.00000000000000000000e+00) (0, 0, 0.00000000000000000000e+00) (0, 0, 0.00000000000000000000e+00) (0, 0, 0.00000000000000000000e+00) (0, 0, 0.00000000000000000000e+00) (0, 0, 0.00000000000000000000e+00) (0, 0, 0.00000000000000000000e+00) (0, 0, 0.00000000000000000000e+00) (0, 0, 0.00000000000000000000e+00) (0, 0, 0.00000000000000000000e+00) (0, 0, 0.00000000000000000000e+00) (0, 0, 0.00000000000000000000e+00) (0, 0, 0.00000000000000000000e+00) (0, 0, 0.00000000000000000000e+00) (0, 0, 0.00000000000000000000e+00) (0, 0, 0.00000000000000000000e+00) (0, 0, 0.00000000000000000000e+00) (0, 0, 0.00000000000000000000e+00) (0, 0, 0.00000000000000000000e+00) (0, 0, 0.00000000000000000000e+00) (0, 0, 0.00000000000000000000e+00) (0, 0, 0.00000000000000000000e+00) (0, 0, 0.00000000000000000000e+00) (0, 0, 0.00000000000000000000e+00) (0, 0, 0.00000000000000000000e+00) (0, 0, 0.00000000000000000000e+00) (0, 0, 0.00000000000000000000e+00) (0, 0, 0.00000000000000000000e+00) (0, 0, 0.00000000000000000000e+00) (0, 0, 0.00000000000000000000e+00) (0, 0, 0.00000000000000000000e+00) (0, 0, 0.00000000000000000000e+00) (0, 0, 0.00000000000000000000e+00) (0, 0, 0.00000000000000000000e+00) (0, 0, 0.00000000000000000000e+00) (0, 0, 0.00000000000000000000e+00) (0, 0, 0.00000000000000000000e+00) (0, 0, 0.00000000000000000000e+00) (0, 0, 0.00000000000000000000e+00) (0, 0, 0.00000000000000000000e+00) (0, 0, 0.00000000000000000000e+00) (0, 0, 0.00000000000000000000e+00) (0, 0, 0.00000000000000000000e+00) (0, 0, 0.00000000000000000000e+00) (0, 0, 0.00000000000000000000e+00) (0, 0, 0.00000000000000000000e+00) (0, 0, 0.00000000000000000000e+00) (0, 0, 0.00000000000000000000e+00) (0, 0, 0.00000000000000000000e+00) (0, 0, 0.00000000000000000000e+00) (0, 0, 0.00000000000000000000e+00) (0, 0, 0.00000000000000000000e+00) (0, 0, 0.00000000000000000000e+00) (0, 0, 0.00000000000000000000e+00) (0, 0, 0.00000000000000000000e+00) (0, 0, 0.00000000000000000000e+00) (0, 0, 0.00000000000000000000e+00) (0, 0, 0.00000000000000000000e+00) (0, 0, 0.00000000000000000000e+00) (0, 0, 0.00000000000000000000e+00) (0, 0, 0.00000000000000000000e+00) (0, 0, 0.00000000000000000000e+00) (0, 0, 0.00000000000000000000e+00) (0, 0, 0.00000000000000000000e+00) (0, 0, 0.00000000000000000000e+00) (0, 0, 0.00000000000000000000e+00) (0, 0, 0.00000000000000000000e+00) (0, 0, 0.00000000000000000000e+00) (0, 0, 0.00000000000000000000e+00) (0, 0, 0.00000000000000000000e+00) (0, 0, 0.00000000000000000000e+00) (0, 0, 0.00000000000000000000e+00) (0, 0, 0.00000000000000000000e+00) (0, 0, 0.00000000000000000000e+00) (0, 0, 0.00000000000000000000e+00) (0, 0, 0.00000000000000000000e+00) (0, 0, 0.00000000000000000000e+00) (0, 0, 0.00000000000000000000e+00) (0, 0, 0.00000000000000000000e+00) (0, 0, 0.00000000000000000000e+00) (0, 0, 0.00000000000000000000e+00) (0, 0, 0.00000000000000000000e+00) (0, 0, 0.00000000000000000000e+00) (0, 0, 0.00000000000000000000e+00) (0, 0, 0.00000000000000000000e+00) (0, 0, 0.00000000000000000000e+00) (0, 0, 0.00000000000000000000e+00) (0, 0, 0.00000000000000000000e+00) (0, 0, 0.00000000000000000000e+00) (0, 0, 0.00000000000000000000e+00) (0, 0, 0.00000000000000000000e+00) (0, 0, 0.00000000000000000000e+00) (0, 0, 0.00000000000000000000e+00) (0, 0, 0.00000000000000000000e+00) (0, 0, 0.00000000000000000000e+00) (0, 0, 0.00000000000000000000e+00) (0, 0, 0.00000000000000000000e+00) (0, 0, 0.00000000000000000000e+00) (0, 0, 0.00000000000000000000e+00) (0, 0, 0.00000000000000000000e+00) (0, 0, 0.00000000000000000000e+00) (0, 0, 0.00000000000000000000e+00) (0, 0, 0.00000000000000000000e+00) (0, 0, 0.00000000000000000000e+00) (0, 0, 0.00000000000000000000e+00) (0, 0, 0.00000000000000000000e+00) (0, 0, 0.00000000000000000000e+00) (0, 0, 0.00000000000000000000e+00) (0, 0, 0.00000000000000000000e+00) (0, 0, 0.00000000000000000000e+00) (0, 0, 0.00000000000000000000e+00) (0, 0, 0.00000000000000000000e+00) (0, 0, 0.00000000000000000000e+00) (0, 0, 0.00000000000000000000e+00) (0, 0, 0.00000000000000000000e+00) (0, 0, 0.00000000000000000000e+00) (0, 0, 0.00000000000000000000e+00) (0, 0, 0.00000000000000000000e+00) (0, 0, 0.00000000000000000000e+00) (0, 0, 0.00000000000000000000e+00) (0, 0, 0.00000000000000000000e+00) (0, 0, 0.00000000000000000000e+00) (0, 0, 0.00000000000000000000e+00) (0, 0, 0.00000000000000000000e+00) (0, 0, 0.00000000000000000000e+00) (0, 0, 0.00000000000000000000e+00) (0, 0, 0.00000000000000000000e+00) (0, 0, 0.00000000000000000000e+00) (0, 0, 0.00000000000000000000e+00) (0, 0, 0.00000000000000000000e+00) (0, 0, 0.00000000000000000000e+00) (0, 0, 0.00000000000000000000e+00) (0, 0, 0.00000000000000000000e+00) (0, 0, 0.00000000000000000000e+00) (0, 0, 0.00000000000000000000e+00) (0, 0, 0.00000000000000000000e+00) (0, 0, 0.00000000000000000000e+00) (0, 0, 0.00000000000000000000e+00) (0, 0, 0.00000000000000000000e+00) (0, 0, 0.00000000000000000000e+00) (0, 0, 0.00000000000000000000e+00) (0, 0, 0.00000000000000000000e+00) (0, 0, 0.00000000000000000000e+00) (0, 0, 0.00000000000000000000e+00) (0, 0, 0.00000000000000000000e+00) (0, 0, 0.00000000000000000000e+00) (0, 0, 0.00000000000000000000e+00) (0, 0, 0.00000000000000000000e+00) (0, 0, 0.00000000000000000000e+00) (0, 0, 0.00000000000000000000e+00) (0, 0, 0.00000000000000000000e+00) (0, 0, 0.00000000000000000000e+00) (0, 0, 0.00000000000000000000e+00) (0, 0, 0.00000000000000000000e+00) (0, 0, 0.00000000000000000000e+00) (0, 0, 0.00000000000000000000e+00) (0, 0, 0.00000000000000000000e+00) (0, 0, 0.00000000000000000000e+00) (0, 0, 0.00000000000000000000e+00) (0, 0, 0.00000000000000000000e+00) (0, 0, 0.00000000000000000000e+00) (0, 0, 0.00000000000000000000e+00) (0, 0, 0.00000000000000000000e+00) (0, 0, 0.00000000000000000000e+00) (0, 0, 0.00000000000000000000e+00) (0, 0, 0.00000000000000000000e+00) (0, 0, 0.00000000000000000000e+00) (0, 0, 0.00000000000000000000e+00) (0, 0, 0.00000000000000000000e+00) (0, 0, 0.00000000000000000000e+00) (0, 0, 0.00000000000000000000e+00) (0, 0, 0.00000000000000000000e+00) (0, 0, 0.00000000000000000000e+00) (0, 0, 0.00000000000000000000e+00) (0, 0, 0.00000000000000000000e+00) (0, 0, 0.00000000000000000000e+00) (0, 0, 0.00000000000000000000e+00) (0, 0, 0.00000000000000000000e+00) (0, 0, 0.00000000000000000000e+00) (0, 0, 0.00000000000000000000e+00) (0, 0, 0.00000000000000000000e+00) (0, 0, 0.00000000000000000000e+00) (0, 0, 0.00000000000000000000e+00) (0, 0, 0.00000000000000000000e+00) (0, 0, 0.00000000000000000000e+00) (0, 0, 0.00000000000000000000e+00) (0, 0, 0.00000000000000000000e+00) (0, 0, 0.00000000000000000000e+00) (0, 0, 0.00000000000000000000e+00) (0, 0, 0.00000000000000000000e+00) (0, 0, 0.00000000000000000000e+00) (0, 0, 0.00000000000000000000e+00) (0, 0, 0.00000000000000000000e+00) (0, 0, 0.00000000000000000000e+00) (0, 0, 0.00000000000000000000e+00) (0, 0, 0.00000000000000000000e+00) (0, 0, 0.00000000000000000000e+00) (0, 0, 0.00000000000000000000e+00) (0, 0, 0.00000000000000000000e+00) (0, 0, 0.00000000000000000000e+00) (0, 0, 0.00000000000000000000e+00) (0, 0, 0.00000000000000000000e+00) (0, 0, 0.00000000000000000000e+00) (0, 0, 0.00000000000000000000e+00) (0, 0, 0.00000000000000000000e+00) (0, 0, 0.00000000000000000000e+00) (0, 0, 0.00000000000000000000e+00) (0, 0, 0.00000000000000000000e+00) (0, 0, 0.00000000000000000000e+00) (0, 0, 0.00000000000000000000e+00) (0, 0, 0.00000000000000000000e+00) (0, 0, 0.00000000000000000000e+00) (0, 0, 0.00000000000000000000e+00) (0, 0, 0.00000000000000000000e+00) (0, 0, 0.00000000000000000000e+00) (0, 0, 0.00000000000000000000e+00) (0, 0, 0.00000000000000000000e+00) (0, 0, 0.00000000000000000000e+00) (785, 4, 5.00000000000000000000e-01) (785, 4, 5.00000000000000000000e-01) (785, 4, 5.00000000000000000000e-01) (785, 4, 5.00000000000000000000e-01) (785, 4, 5.00000000000000000000e-01) (785, 4, 5.00000000000000000000e-01) (785, 4, 5.00000000000000000000e-01) (785, 4, 5.00000000000000000000e-01) (785, 4, 5.00000000000000000000e-01) (785, 4, 5.00000000000000000000e-01) (785, 4, 5.00000000000000000000e-01) (785, 4, 5.00000000000000000000e-01) (785, 4, 5.00000000000000000000e-01) (785, 4, 5.00000000000000000000e-01) (785, 4, 5.00000000000000000000e-01) (785, 4, 5.00000000000000000000e-01) (785, 4, 5.00000000000000000000e-01) (785, 4, 5.00000000000000000000e-01) (785, 4, 5.00000000000000000000e-01) (785, 4, 5.00000000000000000000e-01) (785, 4, 5.00000000000000000000e-01) (785, 4, 5.00000000000000000000e-01) (785, 4, 5.00000000000000000000e-01) (785, 4, 5.00000000000000000000e-01) (785, 4, 5.00000000000000000000e-01) (785, 4, 5.00000000000000000000e-01) (785, 4, 5.00000000000000000000e-01) (785, 4, 5.00000000000000000000e-01) (785, 4, 5.00000000000000000000e-01) (785, 4, 5.00000000000000000000e-01) (785, 4, 5.00000000000000000000e-01) (785, 4, 5.00000000000000000000e-01) (785, 4, 5.00000000000000000000e-01) (785, 4, 5.00000000000000000000e-01) (785, 4, 5.00000000000000000000e-01) (785, 4, 5.00000000000000000000e-01) (785, 4, 5.00000000000000000000e-01) (785, 4, 5.00000000000000000000e-01) (785, 4, 5.00000000000000000000e-01) (785, 4, 5.00000000000000000000e-01) (785, 4, 5.00000000000000000000e-01) (785, 4, 5.00000000000000000000e-01) (785, 4, 5.00000000000000000000e-01) (785, 4, 5.00000000000000000000e-01) (785, 4, 5.00000000000000000000e-01) (785, 4, 5.00000000000000000000e-01) (785, 4, 5.00000000000000000000e-01) (785, 4, 5.00000000000000000000e-01) (785, 4, 5.00000000000000000000e-01) (785, 4, 5.00000000000000000000e-01) (785, 4, 5.00000000000000000000e-01) (785, 4, 5.00000000000000000000e-01) (785, 4, 5.00000000000000000000e-01) (785, 4, 5.00000000000000000000e-01) (785, 4, 5.00000000000000000000e-01) (785, 4, 5.00000000000000000000e-01) (785, 4, 5.00000000000000000000e-01) (785, 4, 5.00000000000000000000e-01) (785, 4, 5.00000000000000000000e-01) (785, 4, 5.00000000000000000000e-01) (785, 4, 5.00000000000000000000e-01) (785, 4, 5.00000000000000000000e-01) (785, 4, 5.00000000000000000000e-01) (785, 4, 5.00000000000000000000e-01) (785, 4, 5.00000000000000000000e-01) (785, 4, 5.00000000000000000000e-01) (785, 4, 5.00000000000000000000e-01) (785, 4, 5.00000000000000000000e-01) (785, 4, 5.00000000000000000000e-01) (785, 4, 5.00000000000000000000e-01) (785, 4, 5.00000000000000000000e-01) (785, 4, 5.00000000000000000000e-01) (785, 4, 5.00000000000000000000e-01) (785, 4, 5.00000000000000000000e-01) (785, 4, 5.00000000000000000000e-01) (785, 4, 5.00000000000000000000e-01) (785, 4, 5.00000000000000000000e-01) (785, 4, 5.00000000000000000000e-01) (785, 4, 5.00000000000000000000e-01) (785, 4, 5.00000000000000000000e-01) (785, 4, 5.00000000000000000000e-01) (785, 4, 5.00000000000000000000e-01) (785, 4, 5.00000000000000000000e-01) (785, 4, 5.00000000000000000000e-01) (785, 4, 5.00000000000000000000e-01) (785, 4, 5.00000000000000000000e-01) (785, 4, 5.00000000000000000000e-01) (785, 4, 5.00000000000000000000e-01) (785, 4, 5.00000000000000000000e-01) (785, 4, 5.00000000000000000000e-01) (785, 4, 5.00000000000000000000e-01) (785, 4, 5.00000000000000000000e-01) (785, 4, 5.00000000000000000000e-01) (785, 4, 5.00000000000000000000e-01) (785, 4, 5.00000000000000000000e-01) (785, 4, 5.00000000000000000000e-01) (785, 4, 5.00000000000000000000e-01) (785, 4, 5.00000000000000000000e-01) (785, 4, 5.00000000000000000000e-01) (785, 4, 5.00000000000000000000e-01) (0, 0, 0.00000000000000000000e+00) (101, 5, 5.00000000000000000000e-01) (101, 5, 5.00000000000000000000e-01) (101, 5, 5.00000000000000000000e-01) (101, 5, 5.00000000000000000000e-01) (101, 5, 5.00000000000000000000e-01) (101, 5, 5.00000000000000000000e-01) (101, 5, 5.00000000000000000000e-01) (101, 5, 5.00000000000000000000e-01) (101, 5, 5.00000000000000000000e-01) (101, 5, 5.00000000000000000000e-01) (0, 5, 0.00000000000000000000e+00) 
connections (connected_to_neuron, weight)=(0, 1.29832391904410258121e+02) (1, 1.29751811356958285160e+02) (2, 1.29781270833429232425e+02) (3, 1.29778203742321863956e+02) (4, 1.29741890759881869144e+02) (5, 1.29734053151425257511e+02) (6, 1.29677511064078942127e+02) (7, 1.29678607126441136188e+02) (8, 1.29664481209334269352e+02) (9, 1.29818420814093485660e+02) (10, 1.29800620259460345096e+02) (11, 1.29681514603760376758e+02) (12, 1.29737254330631628818e+02) (13, 1.29683765211817160434e+02) (14, 1.29829062105831042118e+02) (15, 1.29656382174905672855e+02) (16, 1.29775985615071192569e+02) (17, 1.29741344460960760898e+02) (18, 1.29693369565274849720e+02) (19, 1.29696841491129532642e+02) (20, 1.29740398714062109775e+02) (21, 1.29670270407315626926e+02) (22, 1.29713579142209425754e+02) (23, 1.29687381388362780399e+02) (24, 1.29729831473645106144e+02) (25, 1.29708148376759424991e+02) (26, 1.29709288434800043888e+02) (27, 1.29801544429477587528e+02) (28, 1.29719500535842314548e+02) (29, 1.29812195317562952823e+02) (30, 1.29689607443031206913e+02) (31, 1.29716532522555723972e+02) (32, 1.29728646764274969883e+02) (33, 1.29635518366214171238e+02) (34, 1.29659376347180739231e+02) (35, 1.29835177616890803165e+02) (36, 1.29734211595472231693e+02) (37, 1.29701527500268355197e+02) (38, 1.29678424818184510059e+02) (39, 1.29763332890089884586e+02) (40, 1.29684588385489121265e+02) (41, 1.29643685163673296756e+02) (42, 1.29809487582858935184e+02) (43, 1.29786482797678843326e+02) (44, 1.29692090460773840732e+02) (45, 1.29803189770993128604e+02) (46, 1.29807505072769060916e+02) (47, 1.29832716168578997440e+02) (48, 1.29709174314257040805e+02) (49, 1.29665514709171191043e+02) (50, 1.29694197742011681385e+02) (51, 1.29814213113602534122e+02) (52, 1.29700425201770201511e+02) (53, 1.29772416965779200382e+02) (54, 1.29666234576817885227e+02) (55, 1.29794896768149271793e+02) (56, 1.29645205424841776676e+02) (57, 1.29740163096901312656e+02) (58, 1.29761081279930010624e+02) (59, 1.29729346038516894168e+02) (60, 1.29716998511668577976e+02) (61, 1.29815328793343439884e+02) (62, 1.29810518638905421085e+02) (63, 1.29810285361226931400e+02) (64, 1.29815487252291575260e+02) (65, 1.29834535078820124454e+02) (66, 1.29810103045519724674e+02) (67, 1.29714338922616377658e+02) (68, 1.29700702653941050357e+02) (69, 1.29653167949732676334e+02) (70, 1.29642311895009413547e+02) (71, 1.29749931128438845462e+02) (72, 1.29661493198689356632e+02) (73, 1.29816439555701151676e+02) (74, 1.29701054008420840091e+02) (75, 1.29718223744746580905e+02) (76, 1.29784269408997431583e+02) (77, 1.29673199159767762012e+02) (78, 1.29715579988178149051e+02) (79, 1.29658083798107043094e+02) (80, 1.29703353950497046299e+02) (81, 1.29774417819198504276e+02) (82, 1.29636936986562147922e+02) (83, 1.29768419237550631351e+02) (84, 1.29711474859830275363e+02) (85, 1.29667811656113997287e+02) (86, 1.29727956088003054447e+02) (87, 1.29721320369955435581e+02) (88, 1.29772614838298693485e+02) (89, 1.29653677442785635776e+02) (90, 1.29815306501206293888e+02) (91, 1.29654253432270422763e+02) (92, 1.29833646328863039798e+02) (93, 1.29790465222414866275e+02) (94, 1.29829178871330157108e+02) (95, 1.29813773663457766361e+02) (96, 1.29789640383538142032e+02) (97, 1.29803922014054194278e+02) (98, 1.29692752672102585620e+02) (99, 1.29654983112331763095e+02) (100, 1.29821730034169092960e+02) (101, 1.29699704656120673008e+02) (102, 1.29769554333504572696e+02) (103, 1.29647863322612181491e+02) (104, 1.29680784294124975986e+02) (105, 1.29835248427208796329e+02) (106, 1.29730727160092726535e+02) (107, 1.29829693780955210514e+02) (108, 1.29673087665554419345e+02) (109, 1.29810947226103678531e+02) (110, 1.29652417661365404911e+02) (111, 1.29741081701334849186e+02) (112, 1.29750005120154753513e+02) (113, 1.29653994733210936374e+02) (114, 1.29674141024913922138e+02) (115, 1.29826120080169573612e+02) (116, 1.29686446470883026905e+02) (117, 1.29766737194475069828e+02) (118, 1.29712080524977579898e+02) (119, 1.29823701398190394229e+02) (120, 1.29785054729994669742e+02) (121, 1.29692027101036444492e+02) (122, 1.29642594912763968296e+02) (123, 1.29783341141160860843e+02) (124, 1.29647132405754462070e+02) (125, 5.71534048643393575162e+01) (126, 1.29761754886921778507e+02) (127, 1.29801412867125407047e+02) (128, 1.29804975958284273929e+02) (129, 1.29819147648033037967e+02) (130, 1.29821036057289973087e+02) (131, 1.29791346089657679386e+02) (132, 1.29683492375280991382e+02) (133, 1.29755230480548277683e+02) (134, 1.29803849490102663822e+02) (135, 1.29728916758414641208e+02) (136, 1.29755118990060225315e+02) (137, 1.29699216732498541660e+02) (138, 1.29723250621673003025e+02) (139, 1.29792846740898028202e+02) (140, 1.29674804044630661792e+02) (141, 1.29740308368321791477e+02) (142, 1.29698568517085448093e+02) (143, 1.29789449261244669742e+02) (144, 1.29758943186816111393e+02) (145, 1.29737349623557463474e+02) (146, 1.29780209408816233463e+02) (147, 1.29810029746707812137e+02) (148, 1.29668726915236845798e+02) (149, 1.29656930016096964664e+02) (150, 1.29798371227201357669e+02) (151, 1.29818421737965479679e+02) (152, 1.29713597202416792697e+02) (153, 1.29805606217798128910e+02) (154, 7.61125572064592006427e+01) (155, 4.10062167843891245411e+01) (156, 4.61317601659757414723e+01) (157, 4.09736450104130369709e+01) (158, 5.03684269277457872249e+01) (159, 8.02765212509768559812e+01) (160, 8.01768306907253816007e+01) (161, 1.29677098793652191944e+02) (162, 1.29732262374576464481e+02) (163, 1.29724718102928534336e+02) (164, 1.29796969370659724063e+02) (165, 1.29700751954432860202e+02) (166, 1.29818274931725397892e+02) (167, 1.29716728428121939487e+02) (168, 1.29764608757313624210e+02) (169, 1.29706165635701552219e+02) (170, 1.29674215251323118991e+02) (171, 1.29804052890952959842e+02) (172, 1.29811114089306727237e+02) (173, 1.29737423861142531223e+02) (174, 1.29758142227050200290e+02) (175, 1.29734697358425989933e+02) (176, 1.29639413567003145999e+02) (177, 1.29702991718169585056e+02) (178, 1.29709367179986372776e+02) (179, 1.29672780567523375339e+02) (180, 7.60707160869313838703e+01) (181, 4.59974784785372534657e+01) (182, 9.81534226056296610352e+00) (183, 8.62888787359680797806e+00) (184, 2.01587531357795057829e+01) (185, 7.66390698995235553070e+00) (186, 4.09736559851182562397e+01) (187, 5.04909293292169252254e+01) (188, 8.01445684585707738279e+01) (189, 1.29748871618625059909e+02) (190, 1.29754841336723700351e+02) (191, 1.29685549137857094593e+02) (192, 1.29790610508736506290e+02) (193, 1.29651743793603316135e+02) (194, 1.29774907322343722171e+02) (195, 1.29752219939347639865e+02) (196, 1.29717135825868979282e+02) (197, 1.29757822358724013156e+02) (198, 1.29833588452752962894e+02) (199, 1.29646384672936335392e+02) (200, 1.29828628079708948917e+02) (201, 1.29672443786379233188e+02) (202, 1.29815077649172678775e+02) (203, 1.29804382251318827457e+02) (204, 8.02747527811663701414e+01) (205, 8.02381050068872525571e+01) (206, 8.02039647329586102842e+01) (207, 1.29778561385091677494e+02) (208, 7.61516460219098689777e+01) (209, 1.68186320275773937283e+01) (210, 5.99951524302972494240e+00) (211, 1.88355780916294568428e+00) (212, 2.57002528722359935287e+00) (213, 4.27920646292404853739e+01) (214, 4.09429799666715723561e+01) (215, 8.03222554478781773923e+01) (216, 8.02882350388901784299e+01) (217, 1.29719581844028368778e+02) (218, 1.29800575526174441165e+02) (219, 1.29796953500923052616e+02) (220, 1.29833093540486231632e+02) (221, 1.29720056945201292820e+02) (222, 1.29647142717358008213e+02) (223, 1.29788344131525889225e+02) (224, 1.29736440824087992496e+02) (225, 1.29786690132435694522e+02) (226, 1.29705204153176680393e+02) (227, 1.29818216727789774723e+02) (228, 1.29709152558561697788e+02) (229, 5.72204236936254559964e+01) (230, 5.73462324839515744657e+01) (231, 3.65945146415594919631e+01) (232, 1.96664045896318384621e+01) (233, 1.97348472323205896828e+01) (234, 5.71884340446872769803e+01) (235, 3.09905767768428461295e+02) (236, 9.41946253316740467199e+01) (237, 2.10430173998091873955e+01) (238, 6.03424876088236472604e-01) (239, -1.17606730380429986837e+01) (240, 1.36278915335523143071e+00) (241, 1.70396643338774147480e+01) (242, 1.20625643802189841836e+02) (243, 8.01618005041020467161e+01) (244, 3.66966864872936113784e+01) (245, 5.72846888255758344144e+01) (246, 5.71651969280524312467e+01) (247, 1.29757222639140024967e+02) (248, 1.29651919768866434879e+02) (249, 1.29813421534117594547e+02) (250, 1.29718816214915648288e+02) (251, 1.29649653399106398410e+02) (252, 1.29698118561622038669e+02) (253, 1.29730599010106459446e+02) (254, 1.29802637623366251773e+02) (255, 1.29799199478443995304e+02) (256, 5.71989202190620957822e+01) (257, 5.71894728567881642789e+01) (258, 3.66741502095226152846e+01) (259, 1.87843261588095700176e+01) (260, 1.28338491158670660042e+01) (261, 1.08357660332966609928e+01) (262, 1.44057683430034444427e+02) (263, 3.09871814679161445838e+02) (264, 1.96772940952655517322e+01) (265, 5.32924749098261596458e+00) (266, 9.48475400811387481248e-01) (267, 6.76601052434909755462e-02) (268, -3.95930833207354226921e-01) (269, 4.73132982064638074604e+00) (270, 5.68730452003519530990e+01) (271, 1.78157233029480259745e+01) (272, 3.65377436761025293777e+01) (273, 5.72944236647768079251e+01) (274, 5.71533051681203900785e+01) (275, 1.29814882399257555790e+02) (276, 1.29709770584222212619e+02) (277, 1.29649160185572043247e+02) (278, 1.29736745113250151462e+02) (279, 1.29726330438372031040e+02) (280, 1.29827221812423601932e+02) (281, 1.29820201413449183292e+02) (282, 1.29740623922761812992e+02) (283, 1.29689980460074082202e+02) (284, 1.29715440505858794040e+02) (285, 5.72248926189227162808e+01) (286, 3.43924329236222021677e+01) (287, 1.87906141135572468670e+01) (288, 1.28383180486149068855e+01) (289, 5.50384080938055717525e+01) (290, 3.09908475145504610282e+02) (291, 3.09876321669474975806e+02) (292, 7.88126569530201592784e+00) (293, -2.60157515029911801108e-02) (294, 7.57683531781924934911e-01) (295, 7.52385409018291206884e-01) (296, 7.90414260169757576513e-01) (297, 5.71986090918966993968e+00) (298, 3.10329073722748525199e+01) (299, 1.78268538594122212260e+01) (300, 5.72743783023638783902e+01) (301, 5.71990469273610173673e+01) (302, 5.73129989009780942411e+01) (303, 1.29767677144822016544e+02) (304, 1.29824128688987627811e+02) (305, 1.29796962158497706241e+02) (306, 1.29747199626382723636e+02) (307, 1.29698539348062411136e+02) (308, 1.29810762436803713626e+02) (309, 1.29648584829386606998e+02) (310, 1.29789509864267245121e+02) (311, 1.29802624331530466861e+02) (312, 1.29833426328119173832e+02) (313, 5.72117648784501611203e+01) (314, 5.71742358681244908780e+01) (315, 5.20621432994805886096e+01) (316, 5.50052072933867179927e+01) (317, 1.17271653382680085542e+02) (318, 1.29640156822022333927e+02) (319, 8.01772242825465752958e+01) (320, 1.10096651451501692520e+01) (321, 4.67858152172098673560e+00) (322, -1.64171120568602546541e+00) (323, -1.58695299222558006136e+00) (324, -2.35416533736735678062e+00) (325, 5.34123611659242580885e+00) (326, 1.57611894691942104885e+01) (327, 5.21281801347934319324e+01) (328, 5.21455493455134941883e+01) (329, 5.72936866831464826078e+01) (330, 5.72824240278883038968e+01) (331, 1.29718940341588393039e+02) (332, 1.29823391692456141300e+02) (333, 1.29726081015285387821e+02) (334, 1.29651257568713560886e+02) (335, 1.29812160448845759220e+02) (336, 1.29687683256086245365e+02) (337, 1.29763097287830248661e+02) (338, 1.29675339886661902256e+02) (339, 1.29663085775193110294e+02) (340, 1.29776322202500239200e+02) (341, 1.29829489843663111515e+02) (342, 1.29830350192006960697e+02) (343, 1.17370337026766208055e+02) (344, 1.17284852212867406251e+02) (345, 1.17248183558336165788e+02) (346, 1.29652535611506834812e+02) (347, 5.04978637484912553646e+01) (348, 1.34624238218462863870e+01) (349, 2.22549378590936219879e+00) (350, -1.50929618944695054239e+00) (351, -2.89856743852958809171e+00) (352, -2.74239492571676235499e+00) (353, -4.83629032965314920034e+00) (354, 1.35383370677233454416e+01) (355, 3.42325288489063623842e+01) (356, 1.17396592351249125841e+02) (357, 1.29740465135988131351e+02) (358, 5.72565594789071141690e+01) (359, 1.29762196974572077579e+02) (360, 1.29681800899770394153e+02) (361, 1.29669641585763827152e+02) (362, 1.29645777398463621921e+02) (363, 1.29669832670804396457e+02) (364, 1.29760362686332598514e+02) (365, 1.29661675059911146946e+02) (366, 1.29646633201953306980e+02) (367, 1.29812686027702227420e+02) (368, 1.29789412425574198551e+02) (369, 1.29686613173898592777e+02) (370, 1.29640411885198489017e+02) (371, 1.17326323109320071580e+02) (372, 1.17276691509983209016e+02) (373, 1.29635402159508601017e+02) (374, 1.29669403383251562900e+02) (375, 5.04112912727598825313e+01) (376, 8.15658174041982420022e+00) (377, 1.76180854409406895122e+00) (378, -5.61079930315706132404e+00) (379, -2.25892077842535989873e+01) (380, -3.83721640580757172856e+00) (381, -2.66844948873106035947e+00) (382, 1.35012389281988856027e+01) (383, 4.64569745615160201169e+01) (384, 1.17426450389078524950e+02) (385, 1.17342125574699309709e+02) (386, 5.72593487602157651395e+01) (387, 5.73127769779844342679e+01) (388, 1.29651282379146948642e+02) (389, 1.29646566325541868991e+02) (390, 1.29722623044368162937e+02) (391, 1.29697723367926016635e+02) (392, 1.29680847992863789386e+02) (393, 1.29733040528115168399e+02) (394, 1.29732196116563216037e+02) (395, 1.29805850760754481144e+02) (396, 1.29759355658408537693e+02) (397, 1.29743469411250487155e+02) (398, 1.29783176870759859867e+02) (399, 1.29713408166285887546e+02) (400, 1.29794722677883044071e+02) (401, 1.29788228841241732425e+02) (402, 1.29808422954496279544e+02) (403, 5.47771385125586434128e+01) (404, 5.49253037459918900254e+01) (405, -2.20041842272924448309e+00) (406, -2.44467944863112407461e+01) (407, -4.32114278275829803988e+01) (408, -2.25348845968634847736e+00) (409, 6.62007773355031470253e-01) (410, 1.72941239143713012538e+01) (411, 6.20582443004090436034e+01) (412, 1.17330953443995383623e+02) (413, 1.17412134292176631334e+02) (414, 1.29713850492354765720e+02) (415, 5.72471380856318532437e+01) (416, 1.29727003121491804905e+02) (417, 1.29820848332461252994e+02) (418, 1.29690573153760567493e+02) (419, 1.29742925578471556491e+02) (420, 1.29832054750737086124e+02) (421, 1.29777836279686823673e+02) (422, 1.29805289046582117862e+02) (423, 1.29677542818453446216e+02) (424, 1.29675516886379853077e+02) (425, 1.29702125245448485202e+02) (426, 5.71650246631784497708e+01) (427, 1.29799512641247645206e+02) (428, 1.29810234741982355899e+02) (429, 1.29795850621279612369e+02) (430, 5.53602592242238600306e+01) (431, 5.49066301472255631211e+01) (432, 5.48857522196838303330e+01) (433, -1.78957475082506545228e+00) (434, -9.30409325076370485874e+00) (435, -5.94645205994182912690e+00) (436, -2.34948780265787693367e+00) (437, 3.51094798398026508579e+00) (438, 6.41163073235879181766e+01) (439, 6.20074230333406575255e+01) (440, 7.49980064716991989826e+01) (441, 1.17311374219706920030e+02) (442, 1.29647573547181025333e+02) (443, 5.72827521514577924222e+01) (444, 1.29696251770224705524e+02) (445, 1.29726064117368593998e+02) (446, 1.29660548323508635349e+02) (447, 1.29787894980725184269e+02) (448, 1.29711552539583578891e+02) (449, 1.29715761566277876682e+02) (450, 1.29695460645225182361e+02) (451, 1.29708247357722655124e+02) (452, 1.29658237928267851657e+02) (453, 5.71823807608766614408e+01) (454, 5.72674212705774365872e+01) (455, 5.72153858941478787870e+01) (456, 1.29732155086215868778e+02) (457, 1.29763104023155108280e+02) (458, 5.53452459466931898646e+01) (459, 5.53897282374379713588e+01) (460, 1.59399317308912973346e+01) (461, -8.71486602724992759361e-02) (462, -2.87106940556058543024e+00) (463, -2.33407773403966734005e-01) (464, 2.07833969241944638284e+00) (465, 1.27911700366419722741e+02) (466, 6.41480731272826432132e+01) (467, 8.02426281649606778501e+01) (468, 7.51547979202923386310e+01) (469, 1.29739324660714999027e+02) (470, 5.73400703024549542874e+01) (471, 5.71706546124501286954e+01) (472, 1.29819390551861658878e+02) (473, 1.29835292936977282352e+02) (474, 1.29784064860757723636e+02) (475, 1.29680282396938935108e+02) (476, 1.29725997136649027652e+02) (477, 1.29809253277000323124e+02) (478, 1.29832817451771632022e+02) (479, 1.29802189754065409488e+02) (480, 1.29689654918130770511e+02) (481, 5.72099091809673367948e+01) (482, 5.71920681994838773221e+01) (483, 5.72295239296240865201e+01) (484, 5.72399390291853009671e+01) (485, 1.29790147559460535831e+02) (486, 9.12426133090184237062e+01) (487, 2.00311289062887816215e+01) (488, 8.55458826500421665173e+00) (489, 3.39089371003476092170e+00) (490, -2.61954396576192527490e+00) (491, 8.48661306294208728218e+00) (492, 5.71108817897408087561e+01) (493, 5.68907640732109030068e+01) (494, 4.07684248115460547979e+01) (495, 8.02570420134800031065e+01) (496, 8.01424568746226384519e+01) (497, 1.29675586191680565662e+02) (498, 5.71808111619634686917e+01) (499, 5.73467504036111890287e+01) (500, 1.29779550926503077335e+02) (501, 1.29651539550837412662e+02) (502, 1.29648063095029726810e+02) (503, 1.29763581560667887516e+02) (504, 1.29651472570117846317e+02) (505, 1.29796768041070833988e+02) (506, 1.29808504046615496463e+02) (507, 1.29742109799500838108e+02) (508, 5.72876523834152280301e+01) (509, 5.73229525786323605985e+01) (510, 5.72259306338114797086e+01) (511, 5.73419473868293820829e+01) (512, 5.71805108514113484830e+01) (513, 1.29748656915243998355e+02) (514, 9.11691748136208559572e+01) (515, 1.50911628760159377549e+01) (516, 3.38160222533738563655e-01) (517, 3.44294777630391557466e+00) (518, 3.84404701195800835301e-01) (519, 1.23316242416742323229e+01) (520, 1.97192960088457169832e+01) (521, 9.12585899466202761232e+01) (522, 4.07174467544595870550e+01) (523, 8.01467625055449559568e+01) (524, 1.29653505379077330417e+02) (525, 1.29729103857394591159e+02) (526, 1.29767954515036478824e+02) (527, 5.71773482885642110318e+01) (528, 1.29769330130633250064e+02) (529, 1.29796414764341250248e+02) (530, 1.29654756771143809146e+02) (531, 1.29713521146890059299e+02) (532, 1.29812594400462046451e+02) (533, 1.29667459958907500095e+02) (534, 1.29641742797311678714e+02) (535, 1.29828707055863276310e+02) (536, 5.73458590757532178372e+01) (537, 5.73318779271526395291e+01) (538, 5.72524479281587659329e+01) (539, 5.72811605584306775540e+01) (540, 5.73024795901460706204e+01) (541, 1.29809036643918886966e+02) (542, 9.12208114349768663942e+01) (543, 1.55579671573517810401e+01) (544, 6.78196606633507315109e+00) (545, 3.36784691254205892363e+00) (546, 1.41019055603432907908e+00) (547, 7.89039817401409315778e+00) (548, 1.15571814050671584084e+01) (549, 4.07902318115870627935e+01) (550, 4.07017385761778029973e+01) (551, 8.03021312359707906126e+01) (552, 1.29785712541755572147e+02) (553, 1.29662417614575758762e+02) (554, 1.29813043730076685733e+02) (555, 1.29803857998665705509e+02) (556, 1.29756161557253733463e+02) (557, 1.29745638334866896457e+02) (558, 1.29828855382021799869e+02) (559, 1.29690131773915425129e+02) (560, 1.29706693174060717411e+02) (561, 1.29648252235468760318e+02) (562, 1.29768293009814158268e+02) (563, 1.29683927660551205463e+02) (564, 5.71973432738764344663e+01) (565, 5.72916668903513013333e+01) (566, 5.71942658003850041837e+01) (567, 5.71908514377160130948e+01) (568, 1.29754202896472349948e+02) (569, 8.02776168737547948240e+01) (570, 4.53724365446611344055e+01) (571, 2.91128393141927652721e+01) (572, 1.02223627637572995752e+01) (573, 7.47639361646523781246e-01) (574, 5.96397016995769857495e-01) (575, 4.61620229175207796857e+00) (576, 1.65424914216802001476e+01) (577, 3.13412035543073095312e+01) (578, 5.04700849441890397884e+01) (579, 1.29698404902335539646e+02) (580, 1.29770824866112604923e+02) (581, 1.29698755422350302524e+02) (582, 1.29664931172248259372e+02) (583, 1.29721177482720747776e+02) (584, 1.29725813122209444828e+02) (585, 1.29642614992078677005e+02) (586, 1.29689675559964314289e+02) (587, 1.29646614761766329593e+02) (588, 1.29752893412228957004e+02) (589, 1.29683171020563975162e+02) (590, 1.29701386624690428562e+02) (591, 1.29824226664122477359e+02) (592, 5.72130543392581998319e+01) (593, 5.73513107251806317777e+01) (594, 5.71897854086442052335e+01) (595, 1.29741055698808565921e+02) (596, 8.02738807503121449827e+01) (597, 5.03917135832910219051e+01) (598, 3.50072996039879598129e+01) (599, 1.42530778810552192226e+01) (600, 2.62815338172854531251e+01) (601, -3.04372475605140246913e+00) (602, -2.45744991519522093526e+00) (603, 1.54370601148228359101e+00) (604, 1.36604588217438163156e+01) (605, 5.04857149211768785335e+01) (606, 8.02753172520535542844e+01) (607, 1.29703474575396910495e+02) (608, 1.29750007578846350498e+02) (609, 1.29732792952772513217e+02) (610, 1.29766519563015833683e+02) (611, 1.29685472516086235828e+02) (612, 1.29796188460406199283e+02) (613, 1.29796090813096895999e+02) (614, 1.29771290080365076847e+02) (615, 1.29686641664918795414e+02) (616, 1.29803345890458956546e+02) (617, 1.29825605721887484378e+02) (618, 1.29697896519419089145e+02) (619, 1.29720879377540484256e+02) (620, 1.29673416832205191440e+02) (621, 1.29763923229392901249e+02) (622, 1.29709746123966112918e+02) (623, 8.02343653071659161924e+01) (624, 5.04398873088960328914e+01) (625, 4.10280277183366877125e+01) (626, 3.48675594125879086960e+01) (627, 3.49289021884095944870e+01) (628, 2.68980103016569991325e+01) (629, 1.01265298938704102483e+01) (630, 3.87400630030560977346e+00) (631, 5.78191252553055967667e+00) (632, 5.03725231153969446041e+01) (633, 5.03613723119799772121e+01) (634, 1.29784941212948695011e+02) (635, 1.29692741593089237995e+02) (636, 1.29657718742009535617e+02) (637, 1.29724653506394759006e+02) (638, 1.29760856242593661136e+02) (639, 1.29772366406139269657e+02) (640, 1.29822086529549494571e+02) (641, 1.29692015887912646122e+02) (642, 1.29822479011234179325e+02) (643, 1.29782915072258845157e+02) (644, 1.29652746783312693424e+02) (645, 1.29758409166451826877e+02) (646, 1.29834196837362185306e+02) (647, 1.29820732759055033512e+02) (648, 1.29748654970642462558e+02) (649, 1.29696733435359135456e+02) (650, 1.29706252218898669071e+02) (651, 8.02869569364922597288e+01) (652, 5.05023010311727205135e+01) (653, 4.34331930424500285426e+01) (654, 4.33380268435407458583e+01) (655, 3.40092172879216434467e+01) (656, 1.18484473064721917979e+01) (657, 8.11804616717727967057e+00) (658, 6.63233879952089910859e+00) (659, 8.69831284964755546696e+00) (660, 8.01388258416193082212e+01) (661, 1.29741536447521582431e+02) (662, 1.29696160593744650669e+02) (663, 1.29698739709075823612e+02) (664, 1.29790544556197062320e+02) (665, 1.29645741888996496982e+02) (666, 1.29756121383723154850e+02) (667, 1.29812903376039400882e+02) (668, 1.29735035473224058933e+02) (669, 1.29681617712345257587e+02) (670, 1.29749909871932402439e+02) (671, 1.29721762099977866001e+02) (672, 1.29738273689266577549e+02) (673, 1.29737028950568571872e+02) (674, 1.29669317261990443058e+02) (675, 1.29755660557862654514e+02) (676, 1.29660078206774130649e+02) (677, 1.29668154181655779666e+02) (678, 1.29741033399220839328e+02) (679, 1.29773373262699976749e+02) (680, 1.29729527706023588962e+02) (681, 8.03121707443135335325e+01) (682, 8.02249702889459683774e+01) (683, 8.02197095829980924009e+01) (684, 8.02574492547648503660e+01) (685, 8.02750826034682347654e+01) (686, 8.01371695402997090696e+01) (687, 1.29814303429540530033e+02) (688, 1.29829405994829073734e+02) (689, 1.29820183353241816349e+02) (690, 1.29662572735663786716e+02) (691, 1.29832626865919962711e+02) (692, 1.29726359868165388889e+02) (693, 1.29723373414691820926e+02) (694, 1.29696006664749518222e+02) (695, 1.29681544502940312213e+02) (696, 1.29733755388971701450e+02) (697, 1.29816768126305476017e+02) (698, 1.29659087972458735294e+02) (699, 1.29833430962380305118e+02) (700, 1.29663025924679175205e+02) (701, 1.29773637922223940677e+02) (702, 1.29719833129760161228e+02) (703, 1.29765939699229136295e+02) (704, 1.29675306966271534748e+02) (705, 1.29753790484484568424e+02) (706, 1.29686240335669651813e+02) (707, 1.29700025254603758640e+02) (708, 1.29786584751423731632e+02) (709, 5.73089048218412457913e+01) (710, 5.71550296049995480985e+01) (711, 5.71977435339672624082e+01) (712, 5.72854706000967084378e+01) (713, 5.72443949234170972318e+01) (714, 5.72818481576128064603e+01) (715, 5.72073148888034879178e+01) (716, 5.71838725533766805142e+01) (717, 1.29766421736892596073e+02) (718, 1.29669267410155669040e+02) (719, 1.29660927632566824741e+02) (720, 1.29751245164986983127e+02) (721, 1.29696480223652258701e+02) (722, 1.29658194588240519352e+02) (723, 1.29642245108004942722e+02) (724, 1.29784493716176882572e+02) (725, 1.29718841338273421115e+02) (726, 1.29688429696228638477e+02) (727, 1.29682889198627606220e+02) (728, 1.29700249546882048435e+02) (729, 1.29712157750245467014e+02) (730, 1.29680960232135191745e+02) (731, 1.29727915564295187778e+02) (732, 1.29650435762223139591e+02) (733, 1.29765433447178736515e+02) (734, 1.29658495345827475376e+02) (735, 1.29690382810052767582e+02) (736, 5.72008550081832467527e+01) (737, 5.72263667609973012418e+01) (738, 5.72720391478819905728e+01) (739, 5.73520798486156522245e+01) (740, 5.71829206597490369290e+01) (741, 5.72747178402228414029e+01) (742, 5.71974724594934045285e+01) (743, 5.73160403322858869046e+01) (744, 1.29649770850058928318e+02) (745, 1.29809978710230723209e+02) (746, 1.29654013314958945102e+02) (747, 1.29681292494502201862e+02) (748, 1.29741040521975889988e+02) (749, 1.29687920806672707386e+02) (750, 1.29706860216077700443e+02) (751, 1.29656925761815443821e+02) (752, 1.29749041111883059330e+02) (753, 1.29729694889601603336e+02) (754, 1.29663810955103770084e+02) (755, 1.29698174925264254398e+02) (756, 1.29813176305707827396e+02) (757, 1.29716880732890501804e+02) (758, 1.29745704205449953861e+02) (759, 1.29678065938618317432e+02) (760, 1.29793678583320513553e+02) (761, 1.29791304530319109745e+02) (762, 1.29770621584471598453e+02) (763, 1.29808754415925875492e+02) (764, 1.29721378052350416965e+02) (765, 1.29793757008131876773e+02) (766, 1.29663777315732374973e+02) (767, 1.29769882159050837345e+02) (768, 1.29667772853490248508e+02) (769, 1.29783465550955668277e+02) (770, 1.29769611077126398868e+02) (771, 1.29698342600580588169e+02) (772, 1.29705832475539580173e+02) (773, 1.29814732627686396427e+02) (774, 1.29662032024678126163e+02) (775, 1.29720243418332472629e+02) (776, 1.29789351420220270938e+02) (777, 1.29680685428645745105e+02) (778, 1.29766176001843348331e+02) (779, 1.29695032028224602527e+02) (780, 1.29733246320601836032e+02) (781, 1.29637676292773619480e+02) (782, 1.29716597871598139591e+02) (783, 1.29646927522238627262e+02) (784, -1.28952748952196174059e+02) (0, 1.29745048911985293216e+02) (1, 1.29709742532786265201e+02) (2, 1.29709827655669585056e+02) (3, 1.29826569737609759159e+02) (4, 1.29820086823519602603e+02) (5, 1.29752533683296576328e+02) (6, 1.29784888403233424015e+02) (7, 1.29776031436141863651e+02) (8, 1.29687795350071326084e+02) (9, 1.29758282894011870212e+02) (10, 1.29662049563344851322e+02) (11, 1.29646192440506354160e+02) (12, 1.29786700309928789920e+02) (13, 1.29796571807679072208e+02) (14, 1.29678605383005276508e+02) (15, 1.29734805935737028904e+02) (16, 1.29730822967108622379e+02) (17, 1.29741588065143957920e+02) (18, 1.29805278496559992618e+02) (19, 1.29710195684548750705e+02) (20, 1.29768260182556048221e+02) (21, 1.29690162000920906848e+02) (22, 1.29664187187072172947e+02) (23, 1.29813585685309305973e+02) (24, 1.29820978076871767826e+02) (25, 1.29723859296854868717e+02) (26, 1.29711472088214293308e+02) (27, 1.29823294462379351444e+02) (28, 1.29805097253736391849e+02) (29, 1.29723039695736304111e+02) (30, 1.29719945812341109104e+02) (31, 1.29714786248024836368e+02) (32, 1.29797422306355372257e+02) (33, 1.29794413553294077701e+02) (34, 1.29705996060487166233e+02) (35, 1.29782149212178126163e+02) (36, 1.29711587318893805332e+02) (37, 1.29655524538573160953e+02) (38, 1.29722820723172560520e+02) (39, 1.29764022754248514957e+02) (40, 1.29778447525318995304e+02) (41, 1.29749510371800795383e+02) (42, 1.29774855272587672061e+02) (43, 1.29729787910100355930e+02) (44, 1.29710722261783018894e+02) (45, 1.29818100752052203006e+02) (46, 1.29829233931120768375e+02) (47, 1.29806185321625605411e+02) (48, 1.29724328899499312229e+02) (49, 1.29799152509983912296e+02) (50, 1.29681021077301636524e+02) (51, 1.29657229164358511753e+02) (52, 1.29653954604383841342e+02) (53, 1.29709848345931902713e+02) (54, 1.29635454931970969028e+02) (55, 1.29639572771009341068e+02) (56, 1.29798347728070154972e+02) (57, 1.29711567112919226474e+02) (58, 1.29827507318672076053e+02) (59, 1.29768085064109698124e+02) (60, 1.29799246893938914127e+02) (61, 1.29712093213316336460e+02) (62, 1.29647511394437685794e+02) (63, 1.29761309282597437686e+02) (64, 1.29671146848913565464e+02) (65, 1.29718147540208235569e+02) (66, 1.29708098584529295749e+02) (67, 1.29747374245640173740e+02) (68, 1.29738312171515360660e+02) (69, 1.29795559392985239811e+02) (70, 1.29676037085917130298e+02) (71, 1.29681399775412216968e+02) (72, 1.29709709847089186496e+02) (73, 1.29815532447513476200e+02) (74, 1.29775827767070666141e+02) (75, 1.29785072194155588932e+02) (76, 1.29798273281868830509e+02) (77, 1.29769701780494585819e+02) (78, 1.29755897590633765049e+02) (79, 1.29687242259946003742e+02) (80, 1.29733494380232230014e+02) (81, 1.29801558749493494815e+02) (82, 1.29709111505862608738e+02) (83, 1.29752089069899454898e+02) (84, 1.29676047181453839130e+02) (85, 1.29709206523116961307e+02) (86, 1.29756301926192179508e+02) (87, 1.29639034995552435703e+02) (88, 1.29785413713868990726e+02) (89, 1.29748449319716826267e+02) (90, 1.29771760137494936771e+02) (91, 1.29749300690111056156e+02) (92, 1.29825182618316546268e+02) (93, 1.29783911617216006107e+02) (94, 1.29675250066187516040e+02) (95, 1.29660969549533263034e+02) (96, 1.29666699239727392978e+02) (97, 1.29747988732274905033e+02) (98, 1.29772983880456820316e+02) (99, 1.29769651489075556583e+02) (100, 1.29708188215013876743e+02) (101, 1.29813661055382624454e+02) (102, 1.29815691353496447391e+02) (103, 1.29782538147386446781e+02) (104, 1.29793833570298090763e+02) (105, 1.29756159210320845432e+02) (106, 1.29732250423845187015e+02) (107, 1.29756746941920653171e+02) (108, 1.29690501065668001957e+02) (109, 1.29652788096782103366e+02) (110, 1.29808629290875330753e+02) (111, 1.29788635523733034915e+02) (112, 1.29818986924108401126e+02) (113, 1.29682380875315800495e+02) (114, 1.29705364683386221714e+02) (115, 1.29659674191590681858e+02) (116, 1.29756227487441435642e+02) (117, 1.29826306687411204166e+02) (118, 1.29663349272426501102e+02) (119, 1.29706281291064158268e+02) (120, 1.29739396089431181736e+02) (121, 1.29799749510105982608e+02) (122, 1.29820222066458597965e+02) (123, 5.37782566751864052890e+01) (124, 5.37973390873100854037e+01) (125, 2.35078975530425644536e+01) (126, 5.38038663100030518649e+01) (127, 5.38286784123208619235e+01) (128, 1.29772741036232844181e+02) (129, 1.29692452383902207202e+02) (130, 1.29713932113465205020e+02) (131, 1.29645569333549872226e+02) (132, 1.29670753517862692661e+02) (133, 1.29694263549264803714e+02) (134, 1.29792747573670283145e+02) (135, 1.29829227180894747562e+02) (136, 1.29815062837418452091e+02) (137, 1.29689638068642750568e+02) (138, 1.29750614212569132633e+02) (139, 1.29670203977939024753e+02) (140, 1.29707066246982947177e+02) (141, 1.29723883578297034092e+02) (142, 1.29823479609307185001e+02) (143, 1.29690693257119789905e+02) (144, 1.29770904542621508426e+02) (145, 1.29693484363820687122e+02) (146, 1.29715007537719145603e+02) (147, 1.29691772104915514774e+02) (148, 1.29684431133535042591e+02) (149, 5.37920347805645562289e+01) (150, 5.38117313663985825656e+01) (151, 5.38375051896598435519e+01) (152, 5.37564243580725289462e+01) (153, 5.37965935226109124301e+01) (154, 3.13755958994407286866e+01) (155, 1.69030534172302644436e+01) (156, 1.89568055332799438872e+01) (157, 1.68845203364139955227e+01) (158, 2.07623993686180803309e+01) (159, 8.02099340934293820737e+01) (160, 8.01591322127717091917e+01) (161, 1.29643180573102370090e+02) (162, 1.29719898463901415653e+02) (163, 1.29694280763831272907e+02) (164, 1.29702084207650557346e+02) (165, 1.29677286112424269504e+02) (166, 1.29688148030754462070e+02) (167, 1.29681787131097451038e+02) (168, 1.29731564270075693912e+02) (169, 1.29803402321156397647e+02) (170, 1.29716631198045149631e+02) (171, 1.29803270594891444034e+02) (172, 1.29691925974306002445e+02) (173, 1.29704750882204905338e+02) (174, 1.29658603938039675540e+02) (175, 1.29827470602210894413e+02) (176, 5.38119132201697922824e+01) (177, 5.37872894461777306674e+01) (178, 5.37329206708397961734e+01) (179, 5.38609844278123475192e+01) (180, 3.13391582464356055482e+01) (181, 1.89957139552731995025e+01) (182, 4.20255211362789715679e+00) (183, 8.54400384844031002274e+00) (184, 8.47617191942181413822e+00) (185, 7.68904179181697955414e+00) (186, 1.67856085816270272915e+01) (187, 2.06581510609727594385e+01) (188, 8.02787000391619756101e+01) (189, 1.29832131402310267276e+02) (190, 1.29734689207490816898e+02) (191, 1.29801982240494623966e+02) (192, 1.29639952065166369266e+02) (193, 1.29819227771576777286e+02) (194, 1.29660903082903757877e+02) (195, 1.29706676358100310154e+02) (196, 1.29661153958853617496e+02) (197, 1.29713691198941603488e+02) (198, 1.29753103578206435031e+02) (199, 1.29757358306762114353e+02) (200, 1.29681733598675862140e+02) (201, 1.29834374861534968204e+02) (202, 1.29725268991407290287e+02) (203, 1.29738299661990538425e+02) (204, 3.31279066267715833760e+01) (205, 3.31726538229094884969e+01) (206, 8.02306553948658063291e+01) (207, 3.10057384613708393317e+02) (208, 1.82142085966915885820e+02) (209, 3.99370108294883507938e+01) (210, 2.94271333216313557557e+00) (211, 1.36348465629762660711e+00) (212, 6.02096521992285094171e+00) (213, 1.72546345472563089629e+01) (214, 1.68272140914446275417e+01) (215, 3.30669826108323476888e+01) (216, 8.02144672278302266477e+01) (217, 1.29812011481937304325e+02) (218, 1.29667841965075865573e+02) (219, 1.29657317245122328586e+02) (220, 1.29808782966550722904e+02) (221, 1.29767171265300646610e+02) (222, 1.29823939578350916690e+02) (223, 1.29813375131901636905e+02) (224, 1.29751039096828833408e+02) (225, 1.29649482736107245273e+02) (226, 1.29684691561129227466e+02) (227, 1.29776833148416415042e+02) (228, 1.29727814020332232303e+02) (229, 5.73194262188358365506e+01) (230, 5.72158225354237615079e+01) (231, 3.66662816215518816421e+01) (232, 1.97273381646659800026e+01) (233, 1.97146286215570398781e+01) (234, 3.09903230830834047538e+02) (235, 3.09895959440425770026e+02) (236, 9.41850597771148159154e+01) (237, 3.84274943254874017384e+01) (238, 4.46336387747858664987e-01) (239, -2.25770330513081329826e+00) (240, -4.84174716355482287478e-02) (241, 6.35559850811363258316e+00) (242, 2.07423027909141275416e+01) (243, 3.32593217331277273274e+01) (244, 3.66325811926487787673e+01) (245, 5.71706313442869245023e+01) (246, 5.71596538003964482755e+01) (247, 1.29819349543866053409e+02) (248, 1.29830291913565531559e+02) (249, 1.29675144849088326282e+02) (250, 1.29641306871291533298e+02) (251, 1.29803714962419405765e+02) (252, 1.29806956188496485538e+02) (253, 1.29829886527475252933e+02) (254, 1.29781730161723032779e+02) (255, 1.29722635375079050846e+02) (256, 5.71610003438277303189e+01) (257, 5.73480528098030148954e+01) (258, 3.65562025193337305495e+01) (259, 1.87650677490710293682e+01) (260, 1.28914315911120649361e+01) (261, 2.55310727034029980587e+01) (262, 1.43910192001033351517e+02) (263, 3.09990330744341747504e+02) (264, 2.92458321360677082623e+01) (265, 5.38744045935114623802e+00) (266, 1.05718314543957747631e+00) (267, -2.69288760872423149628e-01) (268, -3.62906729133664840425e-01) (269, 7.17400419804252509337e-01) (270, 9.77169472965235286210e+00) (271, 7.11897635606634615613e+00) (272, 3.67241602797273500869e+01) (273, 5.72562161338014661283e+01) (274, 5.72510800015611707181e+01) (275, 1.29737193712707892246e+02) (276, 1.29757505567487612552e+02) (277, 1.29741391891356840915e+02) (278, 1.29721183338877096958e+02) (279, 1.29752437563356295414e+02) (280, 1.29781176822003260440e+02) (281, 1.29727130288001433200e+02) (282, 1.29720792608078852481e+02) (283, 1.29752773092802897281e+02) (284, 1.29721656905230418033e+02) (285, 5.71841538574976979703e+01) (286, 3.43786614641619436838e+01) (287, 1.87589106339692150982e+01) (288, 1.27561592297739263557e+01) (289, 1.31499646410597620161e+02) (290, 3.10057513255432979804e+02) (291, 3.10051745328859226447e+02) (292, 1.85573334403623988464e+01) (293, -2.44690780262951657065e-02) (294, 9.40135271342027317720e-02) (295, 1.46122686663411882613e-01) (296, -2.63743405492841698212e-01) (297, 4.07429502905184925954e-01) (298, 5.17880950914624627046e+00) (299, 1.77771615415687840311e+01) (300, 5.72286450293345509976e+01) (301, 5.72304576736373959989e+01) (302, 5.71874559622688352079e+01) (303, 1.29708360472437277622e+02) (304, 1.29817331896838084049e+02) (305, 1.29769194053229227848e+02) (306, 1.29810194270428553409e+02) (307, 1.29739477546628847904e+02) (308, 1.29675226030614510364e+02) (309, 1.29696017691608801670e+02) (310, 1.29656555199738875217e+02) (311, 1.29821042941626444644e+02) (312, 1.29787788064893618412e+02) (313, 5.72589788910431920499e+01) (314, 5.72554471146745740384e+01) (315, 1.17270033469996121767e+02) (316, 1.31604640014721212538e+02) (317, 2.81233335971769292883e+02) (318, 3.09995134863809482795e+02) (319, 1.92261795266730644016e+02) (320, 2.63216158991644100240e+01) (321, 4.75649427330623186805e+00) (322, -8.81694233798872795127e-01) (323, -9.71032230937373008750e-01) (324, -5.20210390264704419794e-02) (325, 6.98011052104000606633e-01) (326, 1.56681803512034782955e+01) (327, 1.24615378947270301069e+02) (328, 5.21418766414128853626e+01) (329, 5.72738827791495381803e+01) (330, 5.71719308074994145841e+01) (331, 1.29669534379359618015e+02) (332, 1.29834998534735575504e+02) (333, 1.29690044862892762012e+02) (334, 1.29742534929629698581e+02) (335, 1.29816970528777972049e+02) (336, 1.29823879005130663700e+02) (337, 1.29717369289811983890e+02) (338, 1.29721088157709971256e+02) (339, 1.29663745114323035068e+02) (340, 1.29778027074154749698e+02) (341, 1.29742283435281649417e+02) (342, 1.29649428130802050418e+02) (343, 1.17326403635195163133e+02) (344, 2.81139102622803648046e+02) (345, 2.81242715552386243871e+02) (346, 3.09995283756212131721e+02) (347, 1.20672061247134223549e+02) (348, 3.19678389967388660864e+01) (349, 6.55292438437003799123e-01) (350, -8.52588111140291315948e-01) (351, -1.39803238244482797015e+00) (352, -1.30652657657042103878e+00) (353, -4.84575094278467233266e+00) (354, 1.33974305996895548532e+01) (355, 8.17073294407252461724e+01) (356, 1.17380811544707682970e+02) (357, 1.29706549571570292301e+02) (358, 5.71986501615924893827e+01) (359, 1.29742743486281767673e+02) (360, 1.29828081445511713810e+02) (361, 1.29701239065941706485e+02) (362, 1.29776917950924769229e+02) (363, 1.29827720062550440616e+02) (364, 1.29755924010392561740e+02) (365, 1.29684092966582909412e+02) (366, 1.29809330658730402774e+02) (367, 1.29744443090375796146e+02) (368, 1.29766102345403567142e+02) (369, 1.29695058902468815631e+02) (370, 1.29772828297432795353e+02) (371, 1.17304717908254531267e+02) (372, 2.81292173631426294378e+02) (373, 3.10012999895767109138e+02) (374, 3.10029968175844089728e+02) (375, 1.20700252843403831093e+02) (376, 1.93742959864671853154e+01) (377, 4.84737529716197101948e-01) (378, -5.56306950549575685017e+00) (379, -2.25696952724638002508e+01) (380, -3.74059083187444718632e+00) (381, -2.72992040708843264341e+00) (382, 1.34242010796666857431e+01) (383, 1.11081438658949423370e+02) (384, 1.17355518857589629533e+02) (385, 1.17324181253662970903e+02) (386, 1.29765307085331812686e+02) (387, 5.72260646623058377713e+01) (388, 1.29799422504123583622e+02) (389, 1.29811606334265604801e+02) (390, 1.29816457228478327579e+02) (391, 1.29792144017037287540e+02) (392, 1.29677485478785172290e+02) (393, 1.29758015269156828708e+02) (394, 1.29784504146989718265e+02) (395, 1.29798049585636988468e+02) (396, 1.29806748332198992557e+02) (397, 1.29758474895473852939e+02) (398, 1.29707132750865355320e+02) (399, 1.29737490745004549808e+02) (400, 3.10044277284101383430e+02) (401, 3.09870704505399601203e+02) (402, 3.10037003714398281318e+02) (403, 1.31373583849710485083e+02) (404, 1.31384925168198606116e+02) (405, -2.06347961983131478192e+00) (406, -2.44208569961460071340e+01) (407, -1.81143773356725930057e+01) (408, -5.52998351829642142974e+00) (409, 5.35675061926627393838e-01) (410, 1.73732865902586475215e+01) (411, 6.19429148187477238707e+01) (412, 1.17343149820915130022e+02) (413, 1.17414259123257068040e+02) (414, 1.29818578736599818058e+02) (415, 1.29671411925670042820e+02) (416, 1.29711183631535902805e+02) (417, 1.29748525911685362644e+02) (418, 1.29745125682767763919e+02) (419, 1.29675246206786766834e+02) (420, 1.29724772328254118747e+02) (421, 1.29726223008450403995e+02) (422, 1.29832030312832728214e+02) (423, 1.29766897903498545475e+02) (424, 1.29648878359910384006e+02) (425, 1.29781174542125597782e+02) (426, 1.29729587556537524051e+02) (427, 1.29820266769942179508e+02) (428, 1.29704289527353182621e+02) (429, 3.10027463767484562140e+02) (430, 1.32620782714164477056e+02) (431, 1.31275890946579238516e+02) (432, 1.31399389054817220313e+02) (433, -6.97771351937929606990e-01) (434, -9.44189668608932741733e+00) (435, -2.02361491269553450678e+00) (436, -2.36523492512444111213e+00) (437, 3.59908203807481807956e+00) (438, 1.53728403216639264883e+02) (439, 6.19797208768863328032e+01) (440, 7.51598078098949997639e+01) (441, 1.17319935719123748186e+02) (442, 1.29704541915770903415e+02) (443, 5.72567498710436879605e+01) (444, 1.29706938104447260685e+02) (445, 1.29687760742124453373e+02) (446, 1.29775810884055033512e+02) (447, 1.29782761813815966434e+02) (448, 1.29800926746543780155e+02) (449, 1.29685576649125948734e+02) (450, 1.29822648109611407108e+02) (451, 1.29690339149650469608e+02) (452, 1.29776439742859736270e+02) (453, 5.73363094877882062406e+01) (454, 5.73388681363744794339e+01) (455, 5.73069491934461652249e+01) (456, 1.29765133114274874515e+02) (457, 3.09942208152071373206e+02) (458, 1.32673250164664011663e+02) (459, 1.32732447843826037115e+02) (460, 3.78612194090852867134e+01) (461, -1.29994535297294794285e-01) (462, -2.53277053217419911846e+00) (463, -2.13015206484639951778e-01) (464, 2.08280791736213055643e+00) (465, 1.27818435760569741433e+02) (466, 6.42382143566141365909e+01) (467, 8.02313492674367978452e+01) (468, 7.51496673610863297199e+01) (469, 1.29758864724751845188e+02) (470, 5.73010892522020398587e+01) (471, 5.73273253988905011624e+01) (472, 1.29647492119785681552e+02) (473, 1.29653280252334013767e+02) (474, 1.29714733348902598209e+02) (475, 1.29719070309516325779e+02) (476, 1.29705681079741850681e+02) (477, 1.29655184315260783023e+02) (478, 1.29666472205635443515e+02) (479, 1.29671247893687620945e+02) (480, 1.29705401057120695896e+02) (481, 5.71707513880415021390e+01) (482, 5.72432181265635549039e+01) (483, 5.71634718727750836820e+01) (484, 5.71547099601907788724e+01) (485, 3.09938847731605903846e+02) (486, 2.18581900650581872014e+02) (487, 4.75347235818954985120e+01) (488, 3.35781934882046773083e+00) (489, 1.11801513103716776421e+00) (490, -1.31433043706962715547e+00) (491, 8.32072112503057503829e+00) (492, 5.72058645851581175634e+01) (493, 1.36340814585030244643e+02) (494, 4.06229254554550323064e+01) (495, 8.01564930308597638486e+01) (496, 8.01685128737228467344e+01) (497, 1.29820228056725397892e+02) (498, 5.72689832773490010709e+01) (499, 5.71676758405251561612e+01) (500, 1.29743732878681555576e+02) (501, 1.29700730623420611209e+02) (502, 1.29825659336265459842e+02) (503, 1.29755865083750620670e+02) (504, 1.29718650961038008518e+02) (505, 1.29705032760020628757e+02) (506, 1.29639575468119517154e+02) (507, 1.29788972111162081546e+02) (508, 5.72418481585068761319e+01) (509, 5.71876787569804250211e+01) (510, 2.36726454319516754765e+01) (511, 2.36426836224357224125e+01) (512, 5.72060792249126492948e+01) (513, 1.29715727308508292026e+02) (514, 2.18586840758046662359e+02) (515, 1.50315021916985873673e+01) (516, -6.00500389700250325475e-02) (517, 1.23769945152245508524e+00) (518, -2.36665126235499206908e-02) (519, 1.22968889569285391161e+01) (520, 4.67198195366679769336e+01) (521, 2.18535236084780251531e+02) (522, 9.73217127062596887299e+01) (523, 8.03089750561850621580e+01) (524, 1.29735696041699782199e+02) (525, 1.29782977299507990665e+02) (526, 1.29829618068155184574e+02) (527, 5.72855949502868710965e+01) (528, 1.29767845438536539859e+02) (529, 1.29746250444766417331e+02) (530, 1.29783928887661829776e+02) (531, 1.29676218399521246738e+02) (532, 1.29811621146019831485e+02) (533, 1.29774228291329279728e+02) (534, 1.29796723561104670353e+02) (535, 1.29694912185635701007e+02) (536, 5.71608921315951405973e+01) (537, 2.36487244488755798955e+01) (538, 2.34963097171942330021e+01) (539, 2.35811837138692474980e+01) (540, 5.71532579537911473722e+01) (541, 1.29638024555262461490e+02) (542, 9.11599821606205011904e+01) (543, 1.54343138907728683051e+01) (544, 2.54227871028530394426e+00) (545, 1.02401582536110757893e+00) (546, 3.28786803465223709253e-01) (547, 1.83760000839412072082e+01) (548, 2.72110837353130428085e+01) (549, 9.72998993061699479767e+01) (550, 9.73576219417371362397e+01) (551, 8.01418226439493253110e+01) (552, 1.29653356918808356113e+02) (553, 1.29712780618783369846e+02) (554, 1.29814947681244746036e+02) (555, 1.29753693038340941257e+02) (556, 1.29660397993143931217e+02) (557, 1.29809205846604243106e+02) (558, 1.29686937076714173145e+02) (559, 1.29792883516963854618e+02) (560, 1.29720096366223231144e+02) (561, 1.29635506042953863926e+02) (562, 1.29833741994317904300e+02) (563, 1.29696357590820923633e+02) (564, 5.72913654249591886014e+01) (565, 2.36428909869948959965e+01) (566, 2.36036952035585976262e+01) (567, 2.36307009877721405644e+01) (568, 5.38097227345731354831e+01) (569, 3.31932151454793356038e+01) (570, 4.52507205780490338043e+01) (571, 2.91700996114315920238e+01) (572, 2.51851980067652725381e+01) (573, 2.48458656595629534536e+00) (574, 3.12391574929260107396e+00) (575, 2.30472800022967518885e+01) (576, 3.94336476256597592283e+01) (577, 7.47417688595679834407e+01) (578, 5.03725591464047113277e+01) (579, 1.29731381894763842411e+02) (580, 1.29825892286118403263e+02) (581, 1.29652219826098814792e+02) (582, 1.29737599575635329074e+02) (583, 1.29643889294680491275e+02) (584, 1.29729640530165568180e+02) (585, 1.29717187339183226413e+02) (586, 1.29762222425755396671e+02) (587, 1.29754678601142302341e+02) (588, 1.29691033264365330524e+02) (589, 1.29813799576577082462e+02) (590, 1.29712202200409308261e+02) (591, 1.29775769712146654911e+02) (592, 5.73309367251081525296e+01) (593, 5.72275752749724446744e+01) (594, 2.34845527233640289921e+01) (595, 2.36007455634037590642e+01) (596, 3.30944708126889608479e+01) (597, 2.07551083198528978357e+01) (598, 1.42611151501706672207e+01) (599, 1.43562541321090293422e+01) (600, 2.70886444444955962751e+01) (601, -4.70662636223456498641e-01) (602, 1.49893044127994340409e-01) (603, 5.19314583837378496156e+00) (604, 3.20960890871036781391e+01) (605, 5.03797585157756486751e+01) (606, 8.01470669586198880552e+01) (607, 1.29780688421543970890e+02) (608, 1.29794344277795687503e+02) (609, 1.29707016857084170169e+02) (610, 1.29676710406061545200e+02) (611, 1.29784876661118403263e+02) (612, 1.29723876768466368503e+02) (613, 1.29778950066980257816e+02) (614, 1.29793406026181116886e+02) (615, 1.29818157391365900821e+02) (616, 1.29660777488466635532e+02) (617, 1.29720268534239664859e+02) (618, 1.29737476074811354465e+02) (619, 1.29716450834390059299e+02) (620, 1.29698708200570479221e+02) (621, 1.29814318360504046268e+02) (622, 5.37058985139753914950e+01) (623, 3.31014348070429704762e+01) (624, 2.06873337036710474024e+01) (625, 1.67409937450534265224e+01) (626, 1.43554935023358893886e+01) (627, 1.42851120025089812771e+01) (628, 4.49099721716006072825e+00) (629, 3.95380586744189921333e+00) (630, 3.80053653482127673513e+00) (631, 5.76991859578679289200e+00) (632, 5.04478048769836107112e+01) (633, 5.04483390985135713436e+01) (634, 1.29827948273834124393e+02) (635, 1.29784721867855921573e+02) (636, 1.29638729126867190189e+02) (637, 1.29639410258945360965e+02) (638, 1.29730050379153624363e+02) (639, 1.29797713489946261234e+02) (640, 1.29711067193862334079e+02) (641, 1.29771400885399714298e+02) (642, 1.29747230225917235202e+02) (643, 1.29799584047612086124e+02) (644, 1.29714991027232542820e+02) (645, 1.29705276341852083988e+02) (646, 1.29782381521281138248e+02) (647, 1.29740408593531981296e+02) (648, 1.29790184961375132389e+02) (649, 1.29684497674670353717e+02) (650, 1.29821499528106585331e+02) (651, 8.01537782926099851011e+01) (652, 2.06612470975857469568e+01) (653, 1.77139373025349335933e+01) (654, 1.77664044028571801448e+01) (655, 1.38735106477097875910e+01) (656, 4.61327666160556315589e+00) (657, 8.08311953662069626603e+00) (658, 6.62051183728830938691e+00) (659, 8.82545767436102046588e+00) (660, 8.01799372065799786924e+01) (661, 1.29656239719804659671e+02) (662, 1.29811311484989062137e+02) (663, 1.29815132828172579593e+02) (664, 1.29792214618739023990e+02) (665, 1.29803899841126337833e+02) (666, 1.29764494793232813663e+02) (667, 1.29795583830889597721e+02) (668, 1.29807950170453921146e+02) (669, 1.29659185262140169925e+02) (670, 1.29757937395688429660e+02) (671, 1.29683657450344696827e+02) (672, 1.29795226232823267765e+02) (673, 1.29669807703908816165e+02) (674, 1.29647881583985224552e+02) (675, 1.29674857327457800693e+02) (676, 1.29739724131044283695e+02) (677, 1.29794903190549746341e+02) (678, 1.29779906006273165531e+02) (679, 1.29694549174722567386e+02) (680, 1.29644040951248541660e+02) (681, 8.02662906650441243528e+01) (682, 8.02129675526159360288e+01) (683, 8.01723821986454083799e+01) (684, 8.02739309821265294431e+01) (685, 8.02730749700205876707e+01) (686, 8.02546612028019978879e+01) (687, 1.29804234446700945682e+02) (688, 1.29792471723374262638e+02) (689, 1.29725848043080702610e+02) (690, 1.29779648558911219425e+02) (691, 1.29636803971346751041e+02) (692, 1.29746727848168745822e+02) (693, 1.29755600118752852268e+02) (694, 1.29816576884802714176e+02) (695, 1.29703582549210921115e+02) (696, 1.29724140034731760807e+02) (697, 1.29745711767789259738e+02) (698, 1.29663806454953089542e+02) (699, 1.29696730287488833255e+02) (700, 1.29769537107762232608e+02) (701, 1.29786383943375483341e+02) (702, 1.29745027826842203922e+02) (703, 1.29729403415438071079e+02) (704, 1.29820831732567683048e+02) (705, 1.29757549496110812015e+02) (706, 1.29768900828179255313e+02) (707, 1.29725195945915118045e+02) (708, 1.29717092768963709659e+02) (709, 5.72304379146976529569e+01) (710, 5.73013762038631497830e+01) (711, 5.72427648034377156705e+01) (712, 5.71611236062331258267e+01) (713, 5.71787387978715955228e+01) (714, 5.72795420390052854032e+01) (715, 5.72994496178312360257e+01) (716, 5.73162088048143445462e+01) (717, 1.29681607274081841297e+02) (718, 1.29751333148893252201e+02) (719, 1.29756329620000258274e+02) (720, 1.29772095398720637149e+02) (721, 1.29695621786382332630e+02) (722, 1.29757773669179812259e+02) (723, 1.29683463332917824573e+02) (724, 1.29815861986693278141e+02) (725, 1.29738990651186838932e+02) (726, 1.29751685963686838932e+02) (727, 1.29704642111178770847e+02) (728, 1.29649342493828669376e+02) (729, 1.29780132503923312015e+02) (730, 1.29766012476500407047e+02) (731, 1.29783519701775446720e+02) (732, 1.29731156522151366062e+02) (733, 1.29675680381920471973e+02) (734, 1.29677563188340798206e+02) (735, 1.29716628337022200412e+02) (736, 5.73148609649820386380e+01) (737, 5.73280951034708081693e+01) (738, 5.73234553736133634061e+01) (739, 5.71965938125236093015e+01) (740, 5.72061821025295316190e+01) (741, 5.72724806543870030850e+01) (742, 5.72870076995773374051e+01) (743, 5.72149547961039601773e+01) (744, 1.29781877534207239933e+02) (745, 1.29697207821276322193e+02) (746, 1.29645062515255347080e+02) (747, 1.29745735430833235569e+02) (748, 1.29743455180641547031e+02) (749, 1.29761035756882563419e+02) (750, 1.29666705125686064548e+02) (751, 1.29680190665390625782e+02) (752, 1.29821297617372408695e+02) (753, 1.29789118887599840946e+02) (754, 1.29728294083591833896e+02) (755, 1.29801799686368838138e+02) (756, 1.29692749617364540882e+02) (757, 1.29644620129581824131e+02) (758, 1.29671081879850760288e+02) (759, 1.29706732192751303501e+02) (760, 1.29789392726239100284e+02) (761, 1.29801734449085131473e+02) (762, 1.29654891969379320926e+02) (763, 1.29685189334418907947e+02) (764, 1.29642054909583464450e+02) (765, 1.29697095246728792972e+02) (766, 1.29766457752999201603e+02) (767, 1.29804564954456225223e+02) (768, 1.29672839427110091037e+02) (769, 1.29737562210973635501e+02) (770, 1.29648807855066195316e+02) (771, 1.29726670616980925388e+02) (772, 1.29657691957172289676e+02) (773, 1.29783464641984835453e+02) (774, 1.29789274500426188297e+02) (775, 1.29804209576662913150e+02) (776, 1.29645312549289599247e+02) (777, 1.29798977093514338321e+02) (778, 1.29714585089799300022e+02) (779, 1.29753407822665110416e+02) (780, 1.29724652932700053043e+02) (781, 1.29745930308219328708e+02) (782, 1.29798238577064410038e+02) (783, 1.29710590624925032444e+02) (784, -1.28985070941732459460e+02) (0, 1.29691172731783524341e+02) (1, 1.29677030404772892780e+02) (2, 1.29757078977044955082e+02) (3, 1.29700432950374022312e+02) (4, 1.29712752366181746311e+02) (5, 1.29828451247629061527e+02) (6, 1.29654465758916273899e+02) (7, 1.29679126893844738788e+02) (8, 1.29647983306762114353e+02) (9, 1.29704295182343855686e+02) (10, 1.29685821888711586780e+02) (11, 1.29709718638774290866e+02) (12, 1.29635393017646208591e+02) (13, 1.29655026921745673008e+02) (14, 1.29747198151167765445e+02) (15, 1.29737595313903227634e+02) (16, 1.29668474862095251865e+02) (17, 1.29638508850451842136e+02) (18, 1.29759927356358900852e+02) (19, 1.29816579596814051456e+02) (20, 1.29792423443611994571e+02) (21, 1.29728777015324965305e+02) (22, 1.29826532216485873050e+02) (23, 1.29756040619429484195e+02) (24, 1.29808002190407648868e+02) (25, 1.29744580121454134769e+02) (26, 1.29645333634432688541e+02) (27, 1.29718572580930128879e+02) (28, 1.29707458773371115512e+02) (29, 1.29720564352091685123e+02) (30, 1.29782901944335833377e+02) (31, 1.29763271586712733097e+02) (32, 1.29762234838422671146e+02) (33, 1.29704621003683939762e+02) (34, 1.29828344629820719547e+02) (35, 1.29639627286907568759e+02) (36, 1.29697712333616152591e+02) (37, 1.29647450478490725345e+02) (38, 1.29683394269760981388e+02) (39, 1.29710335725661650486e+02) (40, 1.29716385738667383976e+02) (41, 1.29733856240030661411e+02) (42, 1.29784694449719324894e+02) (43, 1.29716418841596976108e+02) (44, 1.29753523254510298557e+02) (45, 1.29696532679464951343e+02) (46, 1.29818654240783587284e+02) (47, 1.29786638201888933963e+02) (48, 1.29699681618925467319e+02) (49, 1.29743221686896220035e+02) (50, 1.29767857866104975528e+02) (51, 1.29656745137390032596e+02) (52, 1.29636638784524336643e+02) (53, 1.29759030172344580478e+02) (54, 1.29777425842102900333e+02) (55, 1.29809281067665949649e+02) (56, 1.29668250376101866550e+02) (57, 1.29787399561818972415e+02) (58, 1.29692493727173939533e+02) (59, 1.29740349242206946201e+02) (60, 1.29672604003664389438e+02) (61, 1.29640035750087633915e+02) (62, 1.29668260911222830600e+02) (63, 1.29799478919919863529e+02) (64, 1.29709296839054957218e+02) (65, 1.29661245638247862644e+02) (66, 1.29803746299561396427e+02) (67, 1.29771649257954493351e+02) (68, 1.29673336194571390934e+02) (69, 1.29651780651625529117e+02) (70, 1.29646625073369875736e+02) (71, 1.29754362018522158451e+02) (72, 1.29750276976939574070e+02) (73, 1.29795959608372584171e+02) (74, 1.29635420942422285862e+02) (75, 1.29668440306302443332e+02) (76, 1.29657132366415396518e+02) (77, 1.29818715275939837284e+02) (78, 1.29819718586024180240e+02) (79, 1.29721454078074827976e+02) (80, 1.29726577037688628025e+02) (81, 1.29752216526981726474e+02) (82, 1.29742839300748244113e+02) (83, 1.29727855900045767612e+02) (84, 1.29675886777904167957e+02) (85, 1.29684905228879586048e+02) (86, 1.29701777042564287967e+02) (87, 1.29708777243014708347e+02) (88, 1.29636944876727000064e+02) (89, 1.29758910858746901340e+02) (90, 1.29813766555603876895e+02) (91, 1.29674188958224192447e+02) (92, 1.29763586701568499393e+02) (93, 1.29646667564031019992e+02) (94, 1.29638307967897787876e+02) (95, 1.29637523615476027317e+02) (96, 1.29672553280111685581e+02) (97, 1.29806694345291987247e+02) (98, 1.29773812966164484806e+02) (99, 1.29710529559966460056e+02) (100, 1.29823115082200899906e+02) (101, 1.29785078124817744083e+02) (102, 1.29829531671222582645e+02) (103, 1.29738032148894205875e+02) (104, 1.29745677815493479557e+02) (105, 1.29829592691477671451e+02) (106, 1.29771112533029452152e+02) (107, 1.29767450259741679019e+02) (108, 1.29812948049720660038e+02) (109, 1.29755471201356783695e+02) (110, 1.29653544420119658298e+02) (111, 1.29704165154811278171e+02) (112, 1.29672327810641661472e+02) (113, 1.29761023806151285953e+02) (114, 1.29796661155041590519e+02) (115, 1.29712854677554503269e+02) (116, 1.29810569124039545841e+02) (117, 1.29663078272458449192e+02) (118, 1.29786272005852595157e+02) (119, 1.29812154071148768253e+02) (120, 1.29786629216488734073e+02) (121, 1.29764678658660784549e+02) (122, 1.29650983119126692600e+02) (123, 1.29714855992909804172e+02) (124, 1.29775986300524607486e+02) (125, 5.71709221627993642301e+01) (126, 1.29717019701119795627e+02) (127, 1.29813179658469096012e+02) (128, 1.29825265602883234806e+02) (129, 1.29655472742136851139e+02) (130, 1.29688349308189287967e+02) (131, 1.29813020767387286014e+02) (132, 1.29805190952237978763e+02) (133, 1.29682521054264441318e+02) (134, 1.29715692991134062595e+02) (135, 1.29715508842584029026e+02) (136, 1.29676753824319973774e+02) (137, 1.29651445606466666050e+02) (138, 1.29647599184628859348e+02) (139, 1.29654341952618494815e+02) (140, 1.29771556900557413883e+02) (141, 1.29665783697482481784e+02) (142, 1.29723147192713156528e+02) (143, 1.29808524789031878299e+02) (144, 1.29791447581466570682e+02) (145, 1.29684448418882027454e+02) (146, 1.29686019548889532871e+02) (147, 1.29766656772908106632e+02) (148, 1.29712166780349150486e+02) (149, 1.29636931637045279331e+02) (150, 1.29743450933810606784e+02) (151, 1.29663436079141035862e+02) (152, 1.29766250373538866825e+02) (153, 1.29759074138220682926e+02) (154, 7.60890864098145129901e+01) (155, 4.09877238398505312489e+01) (156, 4.61027453699571410084e+01) (157, 4.11054390272213083790e+01) (158, 5.03617007782761731960e+01) (159, 8.02677961144583775877e+01) (160, 8.01449498090880467771e+01) (161, 1.29737685890611544437e+02) (162, 1.29745211923238173313e+02) (163, 1.29814535798248186893e+02) (164, 1.29784847022708788700e+02) (165, 1.29825544999655619449e+02) (166, 1.29694684723135367221e+02) (167, 1.29826240928586855716e+02) (168, 1.29641630688425436801e+02) (169, 1.29706923993047610111e+02) (170, 1.29645222970959082431e+02) (171, 1.29777827666815653629e+02) (172, 1.29737347775813475437e+02) (173, 1.29733010248955622501e+02) (174, 1.29750992545601263828e+02) (175, 1.29693435432132616825e+02) (176, 1.29782098756846323795e+02) (177, 1.29801652179774180240e+02) (178, 1.29824732305225268192e+02) (179, 1.29658905619498625583e+02) (180, 7.61493781545831325275e+01) (181, 4.60579232954842368031e+01) (182, 4.12447994569490994365e+00) (183, 8.56020309448923732987e+00) (184, 2.01726658731490431364e+01) (185, 1.89817104707257513496e+01) (186, 4.10864782681776148365e+01) (187, 5.04758272854690233089e+01) (188, 8.02840310785906865476e+01) (189, 1.29654967756685152835e+02) (190, 1.29731014149006739444e+02) (191, 1.29793130891140833683e+02) (192, 1.29757293732580080814e+02) (193, 1.29640866147097483463e+02) (194, 1.29772306756791010685e+02) (195, 1.29706780837592020816e+02) (196, 1.29831051232036486454e+02) (197, 1.29831631572660342044e+02) (198, 1.29697661855932608432e+02) (199, 1.29637321995314493961e+02) (200, 1.29703195655461684055e+02) (201, 1.29707524904724493808e+02) (202, 1.29779789762314692325e+02) (203, 1.29805183516558543033e+02) (204, 8.03054202947753026365e+01) (205, 8.01956674199538781522e+01) (206, 8.01635040793555333494e+01) (207, 1.29751914070662394352e+02) (208, 7.60078688898755672199e+01) (209, 1.66935364887823993740e+01) (210, 6.76059306042207630583e+00) (211, 2.01844274403533452400e+00) (212, 2.50537457282616893295e+00) (213, 7.33023501432836166458e+00) (214, 4.10091801336122614430e+01) (215, 8.02715174708502843259e+01) (216, 8.02865207795041158079e+01) (217, 1.29698604302224055118e+02) (218, 1.29734735497948065586e+02) (219, 1.29734701858576670475e+02) (220, 1.29718212144192591495e+02) (221, 1.29830389724787607975e+02) (222, 1.29692472824570074863e+02) (223, 1.29640145959075823612e+02) (224, 1.29635895954188242740e+02) (225, 1.29829419674095049686e+02) (226, 1.29711566881951227970e+02) (227, 1.29831587271508112735e+02) (228, 1.29825691329058543033e+02) (229, 5.72908598136587201566e+01) (230, 5.73505403500480710477e+01) (231, 3.65856209915343626449e+01) (232, 1.95719218250301310036e+01) (233, 1.97038671966579386208e+01) (234, 1.29663350665685072727e+02) (235, 3.10041952524141208869e+02) (236, 9.41212077053527309545e+01) (237, 3.83465662121758725789e+01) (238, 5.12962303215597770212e-01) (239, -1.17778678008689645651e+01) (240, 1.38914057542668833989e+00) (241, 1.69086795060013272973e+01) (242, 5.03356193317179361202e+01) (243, 8.03235012147563054441e+01) (244, 3.65563187856439455459e+01) (245, 5.72685791727585851163e+01) (246, 5.72761596542282163114e+01) (247, 1.29815140681084528751e+02) (248, 1.29814832554873362369e+02) (249, 1.29658544243987932987e+02) (250, 1.29714482621964350528e+02) (251, 1.29697684785094395465e+02) (252, 1.29653574051078692264e+02) (253, 1.29771595539268389530e+02) (254, 1.29702470825728312320e+02) (255, 1.29654110090550318546e+02) (256, 5.72826462936086713285e+01) (257, 5.72956687909050046414e+01) (258, 3.65424313578966959426e+01) (259, 1.87845909971474682720e+01) (260, 1.28104811670369382881e+01) (261, 1.07083550477672382328e+01) (262, 1.44049054629523084259e+02) (263, 3.09953963968709842902e+02) (264, 1.97189030845042907458e+01) (265, 5.31252628705939056175e+00) (266, 1.98855685556825489968e+00) (267, -3.65411675559267679070e-01) (268, -4.61205071793780008171e-01) (269, 2.21951987863200450590e+00) (270, 2.39650607215657380777e+01) (271, 1.77768005013342182963e+01) (272, 3.65346303168896540114e+01) (273, 5.71631104302091657132e+01) (274, 5.72760830622596799344e+01) (275, 1.29671401345845595188e+02) (276, 1.29762347699817553348e+02) (277, 1.29682900817808047123e+02) (278, 1.29651182116683855838e+02) (279, 1.29741820329543486423e+02) (280, 1.29706085139628783054e+02) (281, 1.29730304823931589908e+02) (282, 1.29804145203646555728e+02) (283, 1.29724299275990858860e+02) (284, 1.29666540438052550144e+02) (285, 5.71882471021695195645e+01) (286, 3.44816623658014052012e+01) (287, 1.88254401091217076214e+01) (288, 1.29078684659785505318e+01) (289, 5.49959186918094360408e+01) (290, 1.29717462593432799167e+02) (291, 1.29696400759484902210e+02) (292, 7.91136531820727029185e+00) (293, 4.46270712136764835520e-04) (294, 8.86015297314418526220e-01) (295, 8.24094028612865181493e-01) (296, 8.00155089637531014013e-01) (297, 2.47219603184779801452e+00) (298, 1.30718873429290773913e+01) (299, 1.77713204502935688822e+01) (300, 5.73489155721349774808e+01) (301, 5.71899435025138913602e+01) (302, 5.72185426827950536222e+01) (303, 1.29639101052400008030e+02) (304, 1.29683712025847569294e+02) (305, 1.29825283841904536075e+02) (306, 1.29675142483528986759e+02) (307, 1.29810699792322054691e+02) (308, 1.29672824742015734500e+02) (309, 1.29690964681770935840e+02) (310, 1.29717160219069853611e+02) (311, 1.29743549974378481693e+02) (312, 1.29785909594711199588e+02) (313, 5.72029364917857705564e+01) (314, 5.73494803261442243070e+01) (315, 5.21657264863454415149e+01) (316, 5.49597333974197113093e+01) (317, 1.17336127291074660661e+02) (318, 1.29778566004451647586e+02) (319, 8.02013008076685025571e+01) (320, 1.10316496701750601517e+01) (321, 4.65208153134713686683e+00) (322, -1.57145221575587257234e+00) (323, -1.53486885174601539461e+00) (324, 3.56468214711084585566e-01) (325, 2.36742341008881718167e+00) (326, 6.66312419778859688080e+00) (327, 5.21378829961024834461e+01) (328, 5.20908058842026306934e+01) (329, 5.72573794227523862332e+01) (330, 5.72365934726281224698e+01) (331, 1.29738734157499209232e+02) (332, 1.29777980999764338321e+02) (333, 1.29785794244822398014e+02) (334, 1.29742475295182600803e+02) (335, 1.29826333122071162052e+02) (336, 1.29775718169030085392e+02) (337, 1.29782257871445551700e+02) (338, 1.29801673011597529239e+02) (339, 1.29813183011230364627e+02) (340, 1.29637862631794348545e+02) (341, 1.29683473298069372959e+02) (342, 1.29721373060461417026e+02) (343, 1.17384360718181994798e+02) (344, 1.17330007294765380266e+02) (345, 1.17314450899711516740e+02) (346, 1.29770142512139216251e+02) (347, 5.04975449381475129940e+01) (348, 1.35931650753415027566e+01) (349, 2.28150985854024357380e+00) (350, -1.48553847466876565164e+00) (351, -2.94584167044029365812e+00) (352, -2.71287883973443966212e+00) (353, -1.77667283771545347903e+00) (354, 5.84292547274501572474e+00) (355, 3.42620069667299631533e+01) (356, 1.17289199794283774736e+02) (357, 1.29669067824002638645e+02) (358, 5.72957404505891858548e+01) (359, 1.29800060974177256412e+02) (360, 1.29774096326645747013e+02) (361, 1.29662992009636298008e+02) (362, 1.29703435221430197544e+02) (363, 1.29716717423614397831e+02) (364, 1.29813426332291498966e+02) (365, 1.29810550601896181888e+02) (366, 1.29707690627988711185e+02) (367, 1.29753784591075316257e+02) (368, 1.29757448548194304294e+02) (369, 1.29674003714438811130e+02) (370, 1.29731607684608832187e+02) (371, 1.17355899679115680101e+02) (372, 1.17318065511635211351e+02) (373, 1.29817620830353632755e+02) (374, 1.29713003659364119358e+02) (375, 5.04978203414086976863e+01) (376, 8.20506774220939405495e+00) (377, 1.72301571785877505327e+00) (378, -1.27051058038400785932e+01) (379, -2.18371804765882480126e+01) (380, -4.62159323925836940106e+00) (381, -2.75848152235332522153e+00) (382, 5.73297042269380519031e+00) (383, 4.65037138864433501340e+01) (384, 1.17430435063889888170e+02) (385, 1.17278888496211436632e+02) (386, 5.73355662029666959256e+01) (387, 5.72093691032810269803e+01) (388, 1.29716647999104395694e+02) (389, 1.29761964739974871463e+02) (390, 1.29657079169269934482e+02) (391, 1.29655384415503874607e+02) (392, 1.29789596827443972415e+02) (393, 1.29725154483434096164e+02) (394, 1.29736741931852236576e+02) (395, 1.29767663256939783878e+02) (396, 1.29700345167633429355e+02) (397, 1.29809072645124331302e+02) (398, 1.29686087934043541736e+02) (399, 1.29822433801111117191e+02) (400, 1.29647716441866293735e+02) (401, 1.29782335700210467166e+02) (402, 1.29747025156136885471e+02) (403, 5.48715062774488373520e+01) (404, 5.49016292579242630723e+01) (405, -4.31595097648255165979e+00) (406, -1.02131245369747709617e+01) (407, -1.79492159942438362918e+01) (408, -6.37621890891188769501e+00) (409, -8.90007467849052269493e-01) (410, 7.33123718253527290045e+00) (411, 6.20188771834213383727e+01) (412, 1.17308028521588710191e+02) (413, 