FANN_FLO_2.1
num_layers=3
learning_rate=0.700000
connection_rate=1.000000
network_type=0
learning_momentum=0.000000
training_algorithm=2
train_error_function=1
train_stop_function=0
cascade_output_change_fraction=0.010000
quickprop_decay=-0.000100
quickprop_mu=1.750000
rprop_increase_factor=1.200000
rprop_decrease_factor=0.500000
rprop_delta_min=0.000000
rprop_delta_max=50.000000
rprop_delta_zero=0.100000
cascade_output_stagnation_epochs=12
cascade_candidate_change_fraction=0.010000
cascade_candidate_stagnation_epochs=12
cascade_max_out_epochs=150
cascade_max_cand_epochs=150
cascade_num_candidate_groups=2
bit_fail_limit=3.49999999999999977796e-01
cascade_candidate_limit=1.00000000000000000000e+03
cascade_weight_multiplier=4.00000000000000022204e-01
cascade_activation_functions_count=10
cascade_activation_functions=3 5 7 8 10 11 14 15 16 17 
cascade_activation_steepnesses_count=4
cascade_activation_steepnesses=2.50000000000000000000e-01 5.00000000000000000000e-01 7.50000000000000000000e-01 1.00000000000000000000e+00 
layer_sizes=785 16 11 
scale_included=0
neurons (num_inputs, activation_function, activation_steepness)=(0, 0, 0.00000000000000000000e+00) (0, 0, 0.00000000000000000000e+00) (0, 0, 0.00000000000000000000e+00) (0, 0, 0.00000000000000000000e+00) (0, 0, 0.00000000000000000000e+00) (0, 0, 0.00000000000000000000e+00) (0, 0, 0.00000000000000000000e+00) (0, 0, 0.00000000000000000000e+00) (0, 0, 0.00000000000000000000e+00) (0, 0, 0.00000000000000000000e+00) (0, 0, 0.00000000000000000000e+00) (0, 0, 0.00000000000000000000e+00) (0, 0, 0.00000000000000000000e+00) (0, 0, 0.00000000000000000000e+00) (0, 0, 0.00000000000000000000e+00) (0, 0, 0.00000000000000000000e+00) (0, 0, 0.00000000000000000000e+00) (0, 0, 0.00000000000000000000e+00) (0, 0, 0.00000000000000000000e+00) (0, 0, 0.00000000000000000000e+00) (0, 0, 0.00000000000000000000e+00) (0, 0, 0.00000000000000000000e+00) (0, 0, 0.00000000000000000000e+00) (0, 0, 0.00000000000000000000e+00) (0, 0, 0.00000000000000000000e+00) (0, 0, 0.00000000000000000000e+00) (0, 0, 0.00000000000000000000e+00) (0, 0, 0.00000000000000000000e+00) (0, 0, 0.00000000000000000000e+00) (0, 0, 0.00000000000000000000e+00) (0, 0, 0.00000000000000000000e+00) (0, 0, 0.00000000000000000000e+00) (0, 0, 0.00000000000000000000e+00) (0, 0, 0.00000000000000000000e+00) (0, 0, 0.00000000000000000000e+00) (0, 0, 0.00000000000000000000e+00) (0, 0, 0.00000000000000000000e+00) (0, 0, 0.00000000000000000000e+00) (0, 0, 0.00000000000000000000e+00) (0, 0, 0.00000000000000000000e+00) (0, 0, 0.00000000000000000000e+00) (0, 0, 0.00000000000000000000e+00) (0, 0, 0.00000000000000000000e+00) (0, 0, 0.00000000000000000000e+00) (0, 0, 0.00000000000000000000e+00) (0, 0, 0.00000000000000000000e+00) (0, 0, 0.00000000000000000000e+00) (0, 0, 0.00000000000000000000e+00) (0, 0, 0.00000000000000000000e+00) (0, 0, 0.00000000000000000000e+00) (0, 0, 0.00000000000000000000e+00) (0, 0, 0.00000000000000000000e+00) (0, 0, 0.00000000000000000000e+00) (0, 0, 0.00000000000000000000e+00) (0, 0, 0.00000000000000000000e+00) (0, 0, 0.00000000000000000000e+00) (0, 0, 0.00000000000000000000e+00) (0, 0, 0.00000000000000000000e+00) (0, 0, 0.00000000000000000000e+00) (0, 0, 0.00000000000000000000e+00) (0, 0, 0.00000000000000000000e+00) (0, 0, 0.00000000000000000000e+00) (0, 0, 0.00000000000000000000e+00) (0, 0, 0.00000000000000000000e+00) (0, 0, 0.00000000000000000000e+00) (0, 0, 0.00000000000000000000e+00) (0, 0, 0.00000000000000000000e+00) (0, 0, 0.00000000000000000000e+00) (0, 0, 0.00000000000000000000e+00) (0, 0, 0.00000000000000000000e+00) (0, 0, 0.00000000000000000000e+00) (0, 0, 0.00000000000000000000e+00) (0, 0, 0.00000000000000000000e+00) (0, 0, 0.00000000000000000000e+00) (0, 0, 0.00000000000000000000e+00) (0, 0, 0.00000000000000000000e+00) (0, 0, 0.00000000000000000000e+00) (0, 0, 0.00000000000000000000e+00) (0, 0, 0.00000000000000000000e+00) (0, 0, 0.00000000000000000000e+00) (0, 0, 0.00000000000000000000e+00) (0, 0, 0.00000000000000000000e+00) (0, 0, 0.00000000000000000000e+00) (0, 0, 0.00000000000000000000e+00) (0, 0, 0.00000000000000000000e+00) (0, 0, 0.00000000000000000000e+00) (0, 0, 0.00000000000000000000e+00) (0, 0, 0.00000000000000000000e+00) (0, 0, 0.00000000000000000000e+00) (0, 0, 0.00000000000000000000e+00) (0, 0, 0.00000000000000000000e+00) (0, 0, 0.00000000000000000000e+00) (0, 0, 0.00000000000000000000e+00) (0, 0, 0.00000000000000000000e+00) (0, 0, 0.00000000000000000000e+00) (0, 0, 0.00000000000000000000e+00) (0, 0, 0.00000000000000000000e+00) (0, 0, 0.00000000000000000000e+00) (0, 0, 0.00000000000000000000e+00) (0, 0, 0.00000000000000000000e+00) (0, 0, 0.00000000000000000000e+00) (0, 0, 0.00000000000000000000e+00) (0, 0, 0.00000000000000000000e+00) (0, 0, 0.00000000000000000000e+00) (0, 0, 0.00000000000000000000e+00) (0, 0, 0.00000000000000000000e+00) (0, 0, 0.00000000000000000000e+00) (0, 0, 0.00000000000000000000e+00) (0, 0, 0.00000000000000000000e+00) (0, 0, 0.00000000000000000000e+00) (0, 0, 0.00000000000000000000e+00) (0, 0, 0.00000000000000000000e+00) (0, 0, 0.00000000000000000000e+00) (0, 0, 0.00000000000000000000e+00) (0, 0, 0.00000000000000000000e+00) (0, 0, 0.00000000000000000000e+00) (0, 0, 0.00000000000000000000e+00) (0, 0, 0.00000000000000000000e+00) (0, 0, 0.00000000000000000000e+00) (0, 0, 0.00000000000000000000e+00) (0, 0, 0.00000000000000000000e+00) (0, 0, 0.00000000000000000000e+00) (0, 0, 0.00000000000000000000e+00) (0, 0, 0.00000000000000000000e+00) (0, 0, 0.00000000000000000000e+00) (0, 0, 0.00000000000000000000e+00) (0, 0, 0.00000000000000000000e+00) (0, 0, 0.00000000000000000000e+00) (0, 0, 0.00000000000000000000e+00) (0, 0, 0.00000000000000000000e+00) (0, 0, 0.00000000000000000000e+00) (0, 0, 0.00000000000000000000e+00) (0, 0, 0.00000000000000000000e+00) (0, 0, 0.00000000000000000000e+00) (0, 0, 0.00000000000000000000e+00) (0, 0, 0.00000000000000000000e+00) (0, 0, 0.00000000000000000000e+00) (0, 0, 0.00000000000000000000e+00) (0, 0, 0.00000000000000000000e+00) (0, 0, 0.00000000000000000000e+00) (0, 0, 0.00000000000000000000e+00) (0, 0, 0.00000000000000000000e+00) (0, 0, 0.00000000000000000000e+00) (0, 0, 0.00000000000000000000e+00) (0, 0, 0.00000000000000000000e+00) (0, 0, 0.00000000000000000000e+00) (0, 0, 0.00000000000000000000e+00) (0, 0, 0.00000000000000000000e+00) (0, 0, 0.00000000000000000000e+00) (0, 0, 0.00000000000000000000e+00) (0, 0, 0.00000000000000000000e+00) (0, 0, 0.00000000000000000000e+00) (0, 0, 0.00000000000000000000e+00) (0, 0, 0.00000000000000000000e+00) (0, 0, 0.00000000000000000000e+00) (0, 0, 0.00000000000000000000e+00) (0, 0, 0.00000000000000000000e+00) (0, 0, 0.00000000000000000000e+00) (0, 0, 0.00000000000000000000e+00) (0, 0, 0.00000000000000000000e+00) (0, 0, 0.00000000000000000000e+00) (0, 0, 0.00000000000000000000e+00) (0, 0, 0.00000000000000000000e+00) (0, 0, 0.00000000000000000000e+00) (0, 0, 0.00000000000000000000e+00) (0, 0, 0.00000000000000000000e+00) (0, 0, 0.00000000000000000000e+00) (0, 0, 0.00000000000000000000e+00) (0, 0, 0.00000000000000000000e+00) (0, 0, 0.00000000000000000000e+00) (0, 0, 0.00000000000000000000e+00) (0, 0, 0.00000000000000000000e+00) (0, 0, 0.00000000000000000000e+00) (0, 0, 0.00000000000000000000e+00) (0, 0, 0.00000000000000000000e+00) (0, 0, 0.00000000000000000000e+00) (0, 0, 0.00000000000000000000e+00) (0, 0, 0.00000000000000000000e+00) (0, 0, 0.00000000000000000000e+00) (0, 0, 0.00000000000000000000e+00) (0, 0, 0.00000000000000000000e+00) (0, 0, 0.00000000000000000000e+00) (0, 0, 0.00000000000000000000e+00) (0, 0, 0.00000000000000000000e+00) (0, 0, 0.00000000000000000000e+00) (0, 0, 0.00000000000000000000e+00) (0, 0, 0.00000000000000000000e+00) (0, 0, 0.00000000000000000000e+00) (0, 0, 0.00000000000000000000e+00) (0, 0, 0.00000000000000000000e+00) (0, 0, 0.00000000000000000000e+00) (0, 0, 0.00000000000000000000e+00) (0, 0, 0.00000000000000000000e+00) (0, 0, 0.00000000000000000000e+00) (0, 0, 0.00000000000000000000e+00) (0, 0, 0.00000000000000000000e+00) (0, 0, 0.00000000000000000000e+00) (0, 0, 0.00000000000000000000e+00) (0, 0, 0.00000000000000000000e+00) (0, 0, 0.00000000000000000000e+00) (0, 0, 0.00000000000000000000e+00) (0, 0, 0.00000000000000000000e+00) (0, 0, 0.00000000000000000000e+00) (0, 0, 0.00000000000000000000e+00) (0, 0, 0.00000000000000000000e+00) (0, 0, 0.00000000000000000000e+00) (0, 0, 0.00000000000000000000e+00) (0, 0, 0.00000000000000000000e+00) (0, 0, 0.00000000000000000000e+00) (0, 0, 0.00000000000000000000e+00) (0, 0, 0.00000000000000000000e+00) (0, 0, 0.00000000000000000000e+00) (0, 0, 0.00000000000000000000e+00) (0, 0, 0.00000000000000000000e+00) (0, 0, 0.00000000000000000000e+00) (0, 0, 0.00000000000000000000e+00) (0, 0, 0.00000000000000000000e+00) (0, 0, 0.00000000000000000000e+00) (0, 0, 0.00000000000000000000e+00) (0, 0, 0.00000000000000000000e+00) (0, 0, 0.00000000000000000000e+00) (0, 0, 0.00000000000000000000e+00) (0, 0, 0.00000000000000000000e+00) (0, 0, 0.00000000000000000000e+00) (0, 0, 0.00000000000000000000e+00) (0, 0, 0.00000000000000000000e+00) (0, 0, 0.00000000000000000000e+00) (0, 0, 0.00000000000000000000e+00) (0, 0, 0.00000000000000000000e+00) (0, 0, 0.00000000000000000000e+00) (0, 0, 0.00000000000000000000e+00) (0, 0, 0.00000000000000000000e+00) (0, 0, 0.00000000000000000000e+00) (0, 0, 0.00000000000000000000e+00) (0, 0, 0.00000000000000000000e+00) (0, 0, 0.00000000000000000000e+00) (0, 0, 0.00000000000000000000e+00) (0, 0, 0.00000000000000000000e+00) (0, 0, 0.00000000000000000000e+00) (0, 0, 0.00000000000000000000e+00) (0, 0, 0.00000000000000000000e+00) (0, 0, 0.00000000000000000000e+00) (0, 0, 0.00000000000000000000e+00) (0, 0, 0.00000000000000000000e+00) (0, 0, 0.00000000000000000000e+00) (0, 0, 0.00000000000000000000e+00) (0, 0, 0.00000000000000000000e+00) (0, 0, 0.00000000000000000000e+00) (0, 0, 0.00000000000000000000e+00) (0, 0, 0.00000000000000000000e+00) (0, 0, 0.00000000000000000000e+00) (0, 0, 0.00000000000000000000e+00) (0, 0, 0.00000000000000000000e+00) (0, 0, 0.00000000000000000000e+00) (0, 0, 0.00000000000000000000e+00) (0, 0, 0.00000000000000000000e+00) (0, 0, 0.00000000000000000000e+00) (0, 0, 0.00000000000000000000e+00) (0, 0, 0.00000000000000000000e+00) (0, 0, 0.00000000000000000000e+00) (0, 0, 0.00000000000000000000e+00) (0, 0, 0.00000000000000000000e+00) (0, 0, 0.00000000000000000000e+00) (0, 0, 0.00000000000000000000e+00) (0, 0, 0.00000000000000000000e+00) (0, 0, 0.00000000000000000000e+00) (0, 0, 0.00000000000000000000e+00) (0, 0, 0.00000000000000000000e+00) (0, 0, 0.00000000000000000000e+00) (0, 0, 0.00000000000000000000e+00) (0, 0, 0.00000000000000000000e+00) (0, 0, 0.00000000000000000000e+00) (0, 0, 0.00000000000000000000e+00) (0, 0, 0.00000000000000000000e+00) (0, 0, 0.00000000000000000000e+00) (0, 0, 0.00000000000000000000e+00) (0, 0, 0.00000000000000000000e+00) (0, 0, 0.00000000000000000000e+00) (0, 0, 0.00000000000000000000e+00) (0, 0, 0.00000000000000000000e+00) (0, 0, 0.00000000000000000000e+00) (0, 0, 0.00000000000000000000e+00) (0, 0, 0.00000000000000000000e+00) (0, 0, 0.00000000000000000000e+00) (0, 0, 0.00000000000000000000e+00) (0, 0, 0.00000000000000000000e+00) (0, 0, 0.00000000000000000000e+00) (0, 0, 0.00000000000000000000e+00) (0, 0, 0.00000000000000000000e+00) (0, 0, 0.00000000000000000000e+00) (0, 0, 0.00000000000000000000e+00) (0, 0, 0.00000000000000000000e+00) (0, 0, 0.00000000000000000000e+00) (0, 0, 0.00000000000000000000e+00) (0, 0, 0.00000000000000000000e+00) (0, 0, 0.00000000000000000000e+00) (0, 0, 0.00000000000000000000e+00) (0, 0, 0.00000000000000000000e+00) (0, 0, 0.00000000000000000000e+00) (0, 0, 0.00000000000000000000e+00) (0, 0, 0.00000000000000000000e+00) (0, 0, 0.00000000000000000000e+00) (0, 0, 0.00000000000000000000e+00) (0, 0, 0.00000000000000000000e+00) (0, 0, 0.00000000000000000000e+00) (0, 0, 0.00000000000000000000e+00) (0, 0, 0.00000000000000000000e+00) (0, 0, 0.00000000000000000000e+00) (0, 0, 0.00000000000000000000e+00) (0, 0, 0.00000000000000000000e+00) (0, 0, 0.00000000000000000000e+00) (0, 0, 0.00000000000000000000e+00) (0, 0, 0.00000000000000000000e+00) (0, 0, 0.00000000000000000000e+00) (0, 0, 0.00000000000000000000e+00) (0, 0, 0.00000000000000000000e+00) (0, 0, 0.00000000000000000000e+00) (0, 0, 0.00000000000000000000e+00) (0, 0, 0.00000000000000000000e+00) (0, 0, 0.00000000000000000000e+00) (0, 0, 0.00000000000000000000e+00) (0, 0, 0.00000000000000000000e+00) (0, 0, 0.00000000000000000000e+00) (0, 0, 0.00000000000000000000e+00) (0, 0, 0.00000000000000000000e+00) (0, 0, 0.00000000000000000000e+00) (0, 0, 0.00000000000000000000e+00) (0, 0, 0.00000000000000000000e+00) (0, 0, 0.00000000000000000000e+00) (0, 0, 0.00000000000000000000e+00) (0, 0, 0.00000000000000000000e+00) (0, 0, 0.00000000000000000000e+00) (0, 0, 0.00000000000000000000e+00) (0, 0, 0.00000000000000000000e+00) (0, 0, 0.00000000000000000000e+00) (0, 0, 0.00000000000000000000e+00) (0, 0, 0.00000000000000000000e+00) (0, 0, 0.00000000000000000000e+00) (0, 0, 0.00000000000000000000e+00) (0, 0, 0.00000000000000000000e+00) (0, 0, 0.00000000000000000000e+00) (0, 0, 0.00000000000000000000e+00) (0, 0, 0.00000000000000000000e+00) (0, 0, 0.00000000000000000000e+00) (0, 0, 0.00000000000000000000e+00) (0, 0, 0.00000000000000000000e+00) (0, 0, 0.00000000000000000000e+00) (0, 0, 0.00000000000000000000e+00) (0, 0, 0.00000000000000000000e+00) (0, 0, 0.00000000000000000000e+00) (0, 0, 0.00000000000000000000e+00) (0, 0, 0.00000000000000000000e+00) (0, 0, 0.00000000000000000000e+00) (0, 0, 0.00000000000000000000e+00) (0, 0, 0.00000000000000000000e+00) (0, 0, 0.00000000000000000000e+00) (0, 0, 0.00000000000000000000e+00) (0, 0, 0.00000000000000000000e+00) (0, 0, 0.00000000000000000000e+00) (0, 0, 0.00000000000000000000e+00) (0, 0, 0.00000000000000000000e+00) (0, 0, 0.00000000000000000000e+00) (0, 0, 0.00000000000000000000e+00) (0, 0, 0.00000000000000000000e+00) (0, 0, 0.00000000000000000000e+00) (0, 0, 0.00000000000000000000e+00) (0, 0, 0.00000000000000000000e+00) (0, 0, 0.00000000000000000000e+00) (0, 0, 0.00000000000000000000e+00) (0, 0, 0.00000000000000000000e+00) (0, 0, 0.00000000000000000000e+00) (0, 0, 0.00000000000000000000e+00) (0, 0, 0.00000000000000000000e+00) (0, 0, 0.00000000000000000000e+00) (0, 0, 0.00000000000000000000e+00) (0, 0, 0.00000000000000000000e+00) (0, 0, 0.00000000000000000000e+00) (0, 0, 0.00000000000000000000e+00) (0, 0, 0.00000000000000000000e+00) (0, 0, 0.00000000000000000000e+00) (0, 0, 0.00000000000000000000e+00) (0, 0, 0.00000000000000000000e+00) (0, 0, 0.00000000000000000000e+00) (0, 0, 0.00000000000000000000e+00) (0, 0, 0.00000000000000000000e+00) (0, 0, 0.00000000000000000000e+00) (0, 0, 0.00000000000000000000e+00) (0, 0, 0.00000000000000000000e+00) (0, 0, 0.00000000000000000000e+00) (0, 0, 0.00000000000000000000e+00) (0, 0, 0.00000000000000000000e+00) (0, 0, 0.00000000000000000000e+00) (0, 0, 0.00000000000000000000e+00) (0, 0, 0.00000000000000000000e+00) (0, 0, 0.00000000000000000000e+00) (0, 0, 0.00000000000000000000e+00) (0, 0, 0.00000000000000000000e+00) (0, 0, 0.00000000000000000000e+00) (0, 0, 0.00000000000000000000e+00) (0, 0, 0.00000000000000000000e+00) (0, 0, 0.00000000000000000000e+00) (0, 0, 0.00000000000000000000e+00) (0, 0, 0.00000000000000000000e+00) (0, 0, 0.00000000000000000000e+00) (0, 0, 0.00000000000000000000e+00) (0, 0, 0.00000000000000000000e+00) (0, 0, 0.00000000000000000000e+00) (0, 0, 0.00000000000000000000e+00) (0, 0, 0.00000000000000000000e+00) (0, 0, 0.00000000000000000000e+00) (0, 0, 0.00000000000000000000e+00) (0, 0, 0.00000000000000000000e+00) (0, 0, 0.00000000000000000000e+00) (0, 0, 0.00000000000000000000e+00) (0, 0, 0.00000000000000000000e+00) (0, 0, 0.00000000000000000000e+00) (0, 0, 0.00000000000000000000e+00) (0, 0, 0.00000000000000000000e+00) (0, 0, 0.00000000000000000000e+00) (0, 0, 0.00000000000000000000e+00) (0, 0, 0.00000000000000000000e+00) (0, 0, 0.00000000000000000000e+00) (0, 0, 0.00000000000000000000e+00) (0, 0, 0.00000000000000000000e+00) (0, 0, 0.00000000000000000000e+00) (0, 0, 0.00000000000000000000e+00) (0, 0, 0.00000000000000000000e+00) (0, 0, 0.00000000000000000000e+00) (0, 0, 0.00000000000000000000e+00) (0, 0, 0.00000000000000000000e+00) (0, 0, 0.00000000000000000000e+00) (0, 0, 0.00000000000000000000e+00) (0, 0, 0.00000000000000000000e+00) (0, 0, 0.00000000000000000000e+00) (0, 0, 0.00000000000000000000e+00) (0, 0, 0.00000000000000000000e+00) (0, 0, 0.00000000000000000000e+00) (0, 0, 0.00000000000000000000e+00) (0, 0, 0.00000000000000000000e+00) (0, 0, 0.00000000000000000000e+00) (0, 0, 0.00000000000000000000e+00) (0, 0, 0.00000000000000000000e+00) (0, 0, 0.00000000000000000000e+00) (0, 0, 0.00000000000000000000e+00) (0, 0, 0.00000000000000000000e+00) (0, 0, 0.00000000000000000000e+00) (0, 0, 0.00000000000000000000e+00) (0, 0, 0.00000000000000000000e+00) (0, 0, 0.00000000000000000000e+00) (0, 0, 0.00000000000000000000e+00) (0, 0, 0.00000000000000000000e+00) (0, 0, 0.00000000000000000000e+00) (0, 0, 0.00000000000000000000e+00) (0, 0, 0.00000000000000000000e+00) (0, 0, 0.00000000000000000000e+00) (0, 0, 0.00000000000000000000e+00) (0, 0, 0.00000000000000000000e+00) (0, 0, 0.00000000000000000000e+00) (0, 0, 0.00000000000000000000e+00) (0, 0, 0.00000000000000000000e+00) (0, 0, 0.00000000000000000000e+00) (0, 0, 0.00000000000000000000e+00) (0, 0, 0.00000000000000000000e+00) (0, 0, 0.00000000000000000000e+00) (0, 0, 0.00000000000000000000e+00) (0, 0, 0.00000000000000000000e+00) (0, 0, 0.00000000000000000000e+00) (0, 0, 0.00000000000000000000e+00) (0, 0, 0.00000000000000000000e+00) (0, 0, 0.00000000000000000000e+00) (0, 0, 0.00000000000000000000e+00) (0, 0, 0.00000000000000000000e+00) (0, 0, 0.00000000000000000000e+00) (0, 0, 0.00000000000000000000e+00) (0, 0, 0.00000000000000000000e+00) (0, 0, 0.00000000000000000000e+00) (0, 0, 0.00000000000000000000e+00) (0, 0, 0.00000000000000000000e+00) (0, 0, 0.00000000000000000000e+00) (0, 0, 0.00000000000000000000e+00) (0, 0, 0.00000000000000000000e+00) (0, 0, 0.00000000000000000000e+00) (0, 0, 0.00000000000000000000e+00) (0, 0, 0.00000000000000000000e+00) (0, 0, 0.00000000000000000000e+00) (0, 0, 0.00000000000000000000e+00) (0, 0, 0.00000000000000000000e+00) (0, 0, 0.00000000000000000000e+00) (0, 0, 0.00000000000000000000e+00) (0, 0, 0.00000000000000000000e+00) (0, 0, 0.00000000000000000000e+00) (0, 0, 0.00000000000000000000e+00) (0, 0, 0.00000000000000000000e+00) (0, 0, 0.00000000000000000000e+00) (0, 0, 0.00000000000000000000e+00) (0, 0, 0.00000000000000000000e+00) (0, 0, 0.00000000000000000000e+00) (0, 0, 0.00000000000000000000e+00) (0, 0, 0.00000000000000000000e+00) (0, 0, 0.00000000000000000000e+00) (0, 0, 0.00000000000000000000e+00) (0, 0, 0.00000000000000000000e+00) (0, 0, 0.00000000000000000000e+00) (0, 0, 0.00000000000000000000e+00) (0, 0, 0.00000000000000000000e+00) (0, 0, 0.00000000000000000000e+00) (0, 0, 0.00000000000000000000e+00) (0, 0, 0.00000000000000000000e+00) (0, 0, 0.00000000000000000000e+00) (0, 0, 0.00000000000000000000e+00) (0, 0, 0.00000000000000000000e+00) (0, 0, 0.00000000000000000000e+00) (0, 0, 0.00000000000000000000e+00) (0, 0, 0.00000000000000000000e+00) (0, 0, 0.00000000000000000000e+00) (0, 0, 0.00000000000000000000e+00) (0, 0, 0.00000000000000000000e+00) (0, 0, 0.00000000000000000000e+00) (0, 0, 0.00000000000000000000e+00) (0, 0, 0.00000000000000000000e+00) (0, 0, 0.00000000000000000000e+00) (0, 0, 0.00000000000000000000e+00) (0, 0, 0.00000000000000000000e+00) (0, 0, 0.00000000000000000000e+00) (0, 0, 0.00000000000000000000e+00) (0, 0, 0.00000000000000000000e+00) (0, 0, 0.00000000000000000000e+00) (0, 0, 0.00000000000000000000e+00) (0, 0, 0.00000000000000000000e+00) (0, 0, 0.00000000000000000000e+00) (0, 0, 0.00000000000000000000e+00) (0, 0, 0.00000000000000000000e+00) (0, 0, 0.00000000000000000000e+00) (0, 0, 0.00000000000000000000e+00) (0, 0, 0.00000000000000000000e+00) (0, 0, 0.00000000000000000000e+00) (0, 0, 0.00000000000000000000e+00) (0, 0, 0.00000000000000000000e+00) (0, 0, 0.00000000000000000000e+00) (0, 0, 0.00000000000000000000e+00) (0, 0, 0.00000000000000000000e+00) (0, 0, 0.00000000000000000000e+00) (0, 0, 0.00000000000000000000e+00) (0, 0, 0.00000000000000000000e+00) (0, 0, 0.00000000000000000000e+00) (0, 0, 0.00000000000000000000e+00) (0, 0, 0.00000000000000000000e+00) (0, 0, 0.00000000000000000000e+00) (0, 0, 0.00000000000000000000e+00) (0, 0, 0.00000000000000000000e+00) (0, 0, 0.00000000000000000000e+00) (0, 0, 0.00000000000000000000e+00) (0, 0, 0.00000000000000000000e+00) (0, 0, 0.00000000000000000000e+00) (0, 0, 0.00000000000000000000e+00) (0, 0, 0.00000000000000000000e+00) (0, 0, 0.00000000000000000000e+00) (0, 0, 0.00000000000000000000e+00) (0, 0, 0.00000000000000000000e+00) (0, 0, 0.00000000000000000000e+00) (0, 0, 0.00000000000000000000e+00) (0, 0, 0.00000000000000000000e+00) (0, 0, 0.00000000000000000000e+00) (0, 0, 0.00000000000000000000e+00) (0, 0, 0.00000000000000000000e+00) (0, 0, 0.00000000000000000000e+00) (0, 0, 0.00000000000000000000e+00) (0, 0, 0.00000000000000000000e+00) (0, 0, 0.00000000000000000000e+00) (0, 0, 0.00000000000000000000e+00) (0, 0, 0.00000000000000000000e+00) (0, 0, 0.00000000000000000000e+00) (0, 0, 0.00000000000000000000e+00) (0, 0, 0.00000000000000000000e+00) (0, 0, 0.00000000000000000000e+00) (0, 0, 0.00000000000000000000e+00) (0, 0, 0.00000000000000000000e+00) (0, 0, 0.00000000000000000000e+00) (0, 0, 0.00000000000000000000e+00) (0, 0, 0.00000000000000000000e+00) (0, 0, 0.00000000000000000000e+00) (0, 0, 0.00000000000000000000e+00) (0, 0, 0.00000000000000000000e+00) (0, 0, 0.00000000000000000000e+00) (0, 0, 0.00000000000000000000e+00) (0, 0, 0.00000000000000000000e+00) (0, 0, 0.00000000000000000000e+00) (0, 0, 0.00000000000000000000e+00) (0, 0, 0.00000000000000000000e+00) (0, 0, 0.00000000000000000000e+00) (0, 0, 0.00000000000000000000e+00) (0, 0, 0.00000000000000000000e+00) (0, 0, 0.00000000000000000000e+00) (0, 0, 0.00000000000000000000e+00) (0, 0, 0.00000000000000000000e+00) (0, 0, 0.00000000000000000000e+00) (0, 0, 0.00000000000000000000e+00) (0, 0, 0.00000000000000000000e+00) (0, 0, 0.00000000000000000000e+00) (0, 0, 0.00000000000000000000e+00) (0, 0, 0.00000000000000000000e+00) (0, 0, 0.00000000000000000000e+00) (0, 0, 0.00000000000000000000e+00) (0, 0, 0.00000000000000000000e+00) (0, 0, 0.00000000000000000000e+00) (0, 0, 0.00000000000000000000e+00) (0, 0, 0.00000000000000000000e+00) (0, 0, 0.00000000000000000000e+00) (0, 0, 0.00000000000000000000e+00) (0, 0, 0.00000000000000000000e+00) (0, 0, 0.00000000000000000000e+00) (0, 0, 0.00000000000000000000e+00) (0, 0, 0.00000000000000000000e+00) (0, 0, 0.00000000000000000000e+00) (0, 0, 0.00000000000000000000e+00) (0, 0, 0.00000000000000000000e+00) (0, 0, 0.00000000000000000000e+00) (0, 0, 0.00000000000000000000e+00) (0, 0, 0.00000000000000000000e+00) (0, 0, 0.00000000000000000000e+00) (0, 0, 0.00000000000000000000e+00) (0, 0, 0.00000000000000000000e+00) (0, 0, 0.00000000000000000000e+00) (0, 0, 0.00000000000000000000e+00) (0, 0, 0.00000000000000000000e+00) (0, 0, 0.00000000000000000000e+00) (0, 0, 0.00000000000000000000e+00) (0, 0, 0.00000000000000000000e+00) (0, 0, 0.00000000000000000000e+00) (0, 0, 0.00000000000000000000e+00) (0, 0, 0.00000000000000000000e+00) (0, 0, 0.00000000000000000000e+00) (0, 0, 0.00000000000000000000e+00) (0, 0, 0.00000000000000000000e+00) (0, 0, 0.00000000000000000000e+00) (0, 0, 0.00000000000000000000e+00) (0, 0, 0.00000000000000000000e+00) (0, 0, 0.00000000000000000000e+00) (0, 0, 0.00000000000000000000e+00) (0, 0, 0.00000000000000000000e+00) (0, 0, 0.00000000000000000000e+00) (0, 0, 0.00000000000000000000e+00) (0, 0, 0.00000000000000000000e+00) (0, 0, 0.00000000000000000000e+00) (0, 0, 0.00000000000000000000e+00) (0, 0, 0.00000000000000000000e+00) (0, 0, 0.00000000000000000000e+00) (0, 0, 0.00000000000000000000e+00) (0, 0, 0.00000000000000000000e+00) (0, 0, 0.00000000000000000000e+00) (0, 0, 0.00000000000000000000e+00) (0, 0, 0.00000000000000000000e+00) (0, 0, 0.00000000000000000000e+00) (0, 0, 0.00000000000000000000e+00) (0, 0, 0.00000000000000000000e+00) (0, 0, 0.00000000000000000000e+00) (0, 0, 0.00000000000000000000e+00) (0, 0, 0.00000000000000000000e+00) (0, 0, 0.00000000000000000000e+00) (0, 0, 0.00000000000000000000e+00) (0, 0, 0.00000000000000000000e+00) (0, 0, 0.00000000000000000000e+00) (0, 0, 0.00000000000000000000e+00) (0, 0, 0.00000000000000000000e+00) (0, 0, 0.00000000000000000000e+00) (0, 0, 0.00000000000000000000e+00) (0, 0, 0.00000000000000000000e+00) (0, 0, 0.00000000000000000000e+00) (0, 0, 0.00000000000000000000e+00) (0, 0, 0.00000000000000000000e+00) (0, 0, 0.00000000000000000000e+00) (0, 0, 0.00000000000000000000e+00) (0, 0, 0.00000000000000000000e+00) (0, 0, 0.00000000000000000000e+00) (0, 0, 0.00000000000000000000e+00) (0, 0, 0.00000000000000000000e+00) (0, 0, 0.00000000000000000000e+00) (0, 0, 0.00000000000000000000e+00) (0, 0, 0.00000000000000000000e+00) (0, 0, 0.00000000000000000000e+00) (0, 0, 0.00000000000000000000e+00) (0, 0, 0.00000000000000000000e+00) (0, 0, 0.00000000000000000000e+00) (0, 0, 0.00000000000000000000e+00) (0, 0, 0.00000000000000000000e+00) (0, 0, 0.00000000000000000000e+00) (0, 0, 0.00000000000000000000e+00) (0, 0, 0.00000000000000000000e+00) (0, 0, 0.00000000000000000000e+00) (0, 0, 0.00000000000000000000e+00) (0, 0, 0.00000000000000000000e+00) (0, 0, 0.00000000000000000000e+00) (0, 0, 0.00000000000000000000e+00) (0, 0, 0.00000000000000000000e+00) (0, 0, 0.00000000000000000000e+00) (0, 0, 0.00000000000000000000e+00) (0, 0, 0.00000000000000000000e+00) (0, 0, 0.00000000000000000000e+00) (0, 0, 0.00000000000000000000e+00) (0, 0, 0.00000000000000000000e+00) (0, 0, 0.00000000000000000000e+00) (0, 0, 0.00000000000000000000e+00) (0, 0, 0.00000000000000000000e+00) (0, 0, 0.00000000000000000000e+00) (0, 0, 0.00000000000000000000e+00) (0, 0, 0.00000000000000000000e+00) (0, 0, 0.00000000000000000000e+00) (0, 0, 0.00000000000000000000e+00) (0, 0, 0.00000000000000000000e+00) (0, 0, 0.00000000000000000000e+00) (0, 0, 0.00000000000000000000e+00) (0, 0, 0.00000000000000000000e+00) (0, 0, 0.00000000000000000000e+00) (0, 0, 0.00000000000000000000e+00) (0, 0, 0.00000000000000000000e+00) (0, 0, 0.00000000000000000000e+00) (0, 0, 0.00000000000000000000e+00) (0, 0, 0.00000000000000000000e+00) (0, 0, 0.00000000000000000000e+00) (0, 0, 0.00000000000000000000e+00) (0, 0, 0.00000000000000000000e+00) (0, 0, 0.00000000000000000000e+00) (0, 0, 0.00000000000000000000e+00) (0, 0, 0.00000000000000000000e+00) (0, 0, 0.00000000000000000000e+00) (0, 0, 0.00000000000000000000e+00) (0, 0, 0.00000000000000000000e+00) (0, 0, 0.00000000000000000000e+00) (0, 0, 0.00000000000000000000e+00) (0, 0, 0.00000000000000000000e+00) (0, 0, 0.00000000000000000000e+00) (0, 0, 0.00000000000000000000e+00) (0, 0, 0.00000000000000000000e+00) (0, 0, 0.00000000000000000000e+00) (0, 0, 0.00000000000000000000e+00) (0, 0, 0.00000000000000000000e+00) (0, 0, 0.00000000000000000000e+00) (0, 0, 0.00000000000000000000e+00) (0, 0, 0.00000000000000000000e+00) (0, 0, 0.00000000000000000000e+00) (0, 0, 0.00000000000000000000e+00) (0, 0, 0.00000000000000000000e+00) (0, 0, 0.00000000000000000000e+00) (0, 0, 0.00000000000000000000e+00) (0, 0, 0.00000000000000000000e+00) (0, 0, 0.00000000000000000000e+00) (0, 0, 0.00000000000000000000e+00) (0, 0, 0.00000000000000000000e+00) (0, 0, 0.00000000000000000000e+00) (0, 0, 0.00000000000000000000e+00) (0, 0, 0.00000000000000000000e+00) (0, 0, 0.00000000000000000000e+00) (0, 0, 0.00000000000000000000e+00) (0, 0, 0.00000000000000000000e+00) (0, 0, 0.00000000000000000000e+00) (0, 0, 0.00000000000000000000e+00) (0, 0, 0.00000000000000000000e+00) (0, 0, 0.00000000000000000000e+00) (0, 0, 0.00000000000000000000e+00) (0, 0, 0.00000000000000000000e+00) (0, 0, 0.00000000000000000000e+00) (0, 0, 0.00000000000000000000e+00) (0, 0, 0.00000000000000000000e+00) (0, 0, 0.00000000000000000000e+00) (0, 0, 0.00000000000000000000e+00) (0, 0, 0.00000000000000000000e+00) (0, 0, 0.00000000000000000000e+00) (0, 0, 0.00000000000000000000e+00) (0, 0, 0.00000000000000000000e+00) (0, 0, 0.00000000000000000000e+00) (0, 0, 0.00000000000000000000e+00) (0, 0, 0.00000000000000000000e+00) (0, 0, 0.00000000000000000000e+00) (0, 0, 0.00000000000000000000e+00) (0, 0, 0.00000000000000000000e+00) (0, 0, 0.00000000000000000000e+00) (0, 0, 0.00000000000000000000e+00) (0, 0, 0.00000000000000000000e+00) (0, 0, 0.00000000000000000000e+00) (0, 0, 0.00000000000000000000e+00) (0, 0, 0.00000000000000000000e+00) (0, 0, 0.00000000000000000000e+00) (0, 0, 0.00000000000000000000e+00) (0, 0, 0.00000000000000000000e+00) (0, 0, 0.00000000000000000000e+00) (785, 4, 5.00000000000000000000e-01) (785, 4, 5.00000000000000000000e-01) (785, 4, 5.00000000000000000000e-01) (785, 4, 5.00000000000000000000e-01) (785, 4, 5.00000000000000000000e-01) (785, 4, 5.00000000000000000000e-01) (785, 4, 5.00000000000000000000e-01) (785, 4, 5.00000000000000000000e-01) (785, 4, 5.00000000000000000000e-01) (785, 4, 5.00000000000000000000e-01) (785, 4, 5.00000000000000000000e-01) (785, 4, 5.00000000000000000000e-01) (785, 4, 5.00000000000000000000e-01) (785, 4, 5.00000000000000000000e-01) (785, 4, 5.00000000000000000000e-01) (0, 0, 0.00000000000000000000e+00) (16, 5, 5.00000000000000000000e-01) (16, 5, 5.00000000000000000000e-01) (16, 5, 5.00000000000000000000e-01) (16, 5, 5.00000000000000000000e-01) (16, 5, 5.00000000000000000000e-01) (16, 5, 5.00000000000000000000e-01) (16, 5, 5.00000000000000000000e-01) (16, 5, 5.00000000000000000000e-01) (16, 5, 5.00000000000000000000e-01) (16, 5, 5.00000000000000000000e-01) (0, 5, 0.00000000000000000000e+00) 
connections (connected_to_neuron, weight)=(0, 5.09128357079692150933e+01) (1, 5.08217957449026371819e+01) (2, 5.09156947192616726738e+01) (3, 5.08957770225472714287e+01) (4, 5.08398208376832272393e+01) (5, 5.07794948351450230462e+01) (6, 5.08243380171127583367e+01) (7, 5.07965815347500111443e+01) (8, 5.07684281003542210442e+01) (9, 5.07432005611129071099e+01) (10, 5.07744007912345196587e+01) (11, 5.08883405235476757866e+01) (12, 5.09319664147563244683e+01) (13, 5.08381113913722302300e+01) (14, 5.08096503448553349358e+01) (15, 5.09370255675978924614e+01) (16, 5.07436115127868916375e+01) (17, 5.07730239760942723137e+01) (18, 5.08953246232934262139e+01) (19, 5.08158334848351742608e+01) (20, 5.08097803947396542412e+01) (21, 5.08419344556398655754e+01) (22, 5.08666699063844944817e+01) (23, 5.08626097646422650200e+01) (24, 5.07510603424973751885e+01) (25, 5.07921709996528889519e+01) (26, 5.08675204572148587090e+01) (27, 5.08168520164556767327e+01) (28, 5.08831434157557751519e+01) (29, 5.07841564436323906762e+01) (30, 5.08239240107007290703e+01) (31, 5.08535771203108097893e+01) (32, 5.08635502067275311333e+01) (33, 5.07972167339988018853e+01) (34, 5.08069521692462231499e+01) (35, 5.07609690633483197075e+01) (36, 5.08343095910616185051e+01) (37, 5.08888882008261944634e+01) (38, 5.08151486200161244255e+01) (39, 5.08603357058830525261e+01) (40, 5.08896867838568951470e+01) (41, 5.08471474406190182549e+01) (42, 5.08062742483682896477e+01) (43, 5.08792512175507809502e+01) (44, 5.07428568509288098198e+01) (45, 5.08735226002402569634e+01) (46, 5.08738748040862347466e+01) (47, 5.07440663856334950310e+01) (48, 5.09041446057029034478e+01) (49, 5.08267974537678028923e+01) (50, 5.08174978849358822686e+01) (51, 5.07715230193801190239e+01) (52, 5.09263299313254620415e+01) (53, 5.09417658057875897271e+01) (54, 5.08917308059401776177e+01) (55, 5.09349882957406308037e+01) (56, 5.07915348281033303124e+01) (57, 5.08168492671914364678e+01) (58, 5.08094383311338688713e+01) (59, 5.09322762546010281426e+01) (60, 5.08586037364669110161e+01) (61, 5.08909603563018109185e+01) (62, 5.08434514012999798638e+01) (63, 5.07797519621320034844e+01) (64, 5.07457751092381741387e+01) (65, 5.09080015924639965874e+01) (66, 5.07983190436728264672e+01) (67, 5.08376827222175862175e+01) (68, 5.08544878196783329827e+01) (69, 5.08710656818814541680e+01) (70, 5.07556164470382000786e+01) (71, 2.13717195912012272174e+01) (72, 2.13457581138917618091e+01) (73, 2.13894356748768501575e+01) (74, 5.09386218693919445855e+01) (75, 5.07762660217352177483e+01) (76, 5.07506093365021015984e+01) (77, 5.08700946924157406670e+01) (78, 5.07779304218359257561e+01) (79, 5.09123519715733792168e+01) (80, 5.07544901651211048943e+01) (81, 5.08530263286896015984e+01) (82, 5.09414730128712918145e+01) (83, 5.09384181109137799126e+01) (84, 5.08523901534147526604e+01) (85, 5.08908018377490307671e+01) (86, 5.09310044255919720513e+01) (87, 5.09015230146117474419e+01) (88, 5.07652491164274479729e+01) (89, 5.07980407756634022576e+01) (90, 5.08913972881503369194e+01) (91, 5.08814508822627331597e+01) (92, 5.07465991509027745110e+01) (93, 1.42590122412710940125e+02) (94, 2.17489405563335367333e+02) (95, 2.17320577001433321129e+02) (96, 2.17328651039164014946e+02) (97, 5.96646392176361857196e+01) (98, 5.09668718394491975232e+01) (99, 2.13872023061613703021e+01) (100, 2.14204517886738443622e+01) (101, 2.13755376473765039691e+01) (102, 2.14465729580025339374e+01) (103, 2.14538609669308328876e+01) (104, 5.09355542269416119439e+01) (105, 5.09257226941056515557e+01) (106, 5.07706548479266430718e+01) (107, 5.07437615898318554741e+01) (108, 5.08534154054589535576e+01) (109, 5.08061832916803624016e+01) (110, 5.09137115684218670708e+01) (111, 5.08655035924978520256e+01) (112, 5.09168076571889187676e+01) (113, 5.09127826002307202202e+01) (114, 5.08615197297997738701e+01) (115, 5.08267958295412327629e+01) (116, 5.08611824494667317254e+01) (117, 5.08501221743293072564e+01) (118, 1.21592542564882222678e+02) (119, 1.21690655297054235007e+02) (120, 1.66970939354462444726e+02) (121, 2.17505516877632089745e+02) (122, 2.17393683193485685479e+02) (123, 2.77865887124061600844e+02) (124, 4.84266487750477779173e+02) (125, 2.45941135913083542164e+02) (126, 3.83947279386667261747e+01) (127, 6.77374925059110655212e+00) (128, 5.28266669859304460743e+00) (129, 9.20926107987752651240e+00) (130, 5.10499502312991921826e+01) (131, 2.13098431103627348193e+01) (132, 2.14535151854853296527e+01) (133, 5.08625554523328062828e+01) (134, 5.07871617843277718407e+01) (135, 5.09295972791381146294e+01) (136, 5.08987529781527783257e+01) (137, 5.08154146504469181878e+01) (138, 5.09309569057889248711e+01) (139, 5.08097664025492932183e+01) (140, 5.08791959640450741631e+01) (141, 5.09022664931483532769e+01) (142, 5.09328680095143582207e+01) (143, 5.08536016327209736687e+01) (144, 5.08726471123166348320e+01) (145, 1.21658611482395116354e+02) (146, 1.21691744380645502588e+02) (147, 1.66856605959547579232e+02) (148, 2.17330310685794302117e+02) (149, 2.17352115070681520592e+02) (150, 4.84777466100114622805e+02) (151, 4.84767475869911947939e+02) (152, 4.84618431445616522524e+02) (153, 2.46317224424324933807e+02) (154, 3.46957895581315156619e+00) (155, 2.63717381677159989906e+00) (156, 4.40573631841904678197e+00) (157, 1.00767608459600168658e+01) (158, 5.68383795881405475825e+01) (159, 3.23424249297918493085e+02) (160, 4.25225260070778176669e+02) (161, 2.17431308878819891106e+02) (162, 2.17434050906123331970e+02) (163, 2.17561249751271418518e+02) (164, 2.17457215975643805450e+02) (165, 1.21661954900635663535e+02) (166, 1.21731589248789731528e+02) (167, 5.07900854405827786309e+01) (168, 5.09283418712086941582e+01) (169, 5.09135184493727948052e+01) (170, 5.08574498650498654229e+01) (171, 5.08651358467407490593e+01) (172, 1.21680008670700971152e+02) (173, 1.21654541610194627310e+02) (174, 1.21530084402315367242e+02) (175, 1.66868806471539556924e+02) (176, 9.11646410077322144616e+01) (177, 9.11790703236568589318e+01) (178, 4.25334188609637067202e+02) (179, 4.84256334542549836897e+02) (180, 4.84292568235911119245e+02) (181, 1.91828128342036450249e+01) (182, 1.15008078961575632704e+00) (183, 1.40143009191716449990e+00) (184, 2.38632832318932450733e+01) (185, 5.72301707652750550892e+01) (186, 1.03447791925626290777e+02) (187, 4.25324576637960717562e+02) (188, 4.25308566405690953616e+02) (189, 4.25330737083472058657e+02) (190, 2.77816767115116135756e+02) (191, 2.77837160469373941396e+02) (192, 2.17390985902072600311e+02) (193, 2.17552487078727892822e+02) (194, 1.21630346639467660452e+02) (195, 5.08588368427820469719e+01) (196, 5.08419327569074894768e+01) (197, 5.08062824812598492485e+01) (198, 5.09065203127331997734e+01) (199, 5.08278726396031643731e+01) (200, 5.07773989421196247918e+01) (201, 5.07686913764932867821e+01) (202, 5.06977296925047156151e+01) (203, 5.13918329109532692200e+01) (204, 4.15701961013177552218e+01) (205, 4.65309400282435348117e+01) (206, 1.08786578927380318760e+02) (207, 1.29557955052455668010e+02) (208, -4.75804647429900384736e+00) (209, -5.08194110114917840804e+00) (210, -4.56697853840868006614e+00) (211, -1.80818628498836801555e+02) (212, 3.34564977882626450878e+01) (213, 7.10776670477718766961e+02) (214, 4.84742452162771655821e+02) (215, 4.25597412314671373679e+02) (216, 3.23412981002570802502e+02) (217, 3.23421434788943940930e+02) (218, 2.17424241824309774529e+02) (219, 2.77842365400275468801e+02) (220, 2.77872989871880292867e+02) (221, 2.17395554806710890716e+02) (222, 1.42770064850529422529e+02) (223, 5.08892864939637448174e+01) (224, 5.07586768475241925103e+01) (225, 5.08008312863178517205e+01) (226, 5.08057213556833531243e+01) (227, 5.08582076263494755608e+01) (228, 5.08647117969460751397e+01) (229, 5.07698396724529530388e+01) (230, 4.08504624832844314142e+01) (231, 5.83967624940658236454e+00) (232, 5.09532783175822179267e-01) (233, -1.10738439618535222664e+00) (234, -8.45455292215301668080e+00) (235, -4.16567642024108053533e+00) (236, -1.72917202654430326447e+01) (237, -2.47593927070082429509e+02) (238, -4.24897689773051396855e+01) (239, -1.26696807184037769645e+01) (240, -9.27820379942526756167e+01) (241, -1.44492781622362031158e+02) (242, 3.46134177008869528436e+02) (243, 3.44811613633135550572e+02) (244, 5.41434307425516010426e+01) (245, 1.32024758639898351475e+02) (246, 1.06409669703157163667e+02) (247, 1.21724041512621823813e+02) (248, 2.17485004316689185089e+02) (249, 2.17414019331009797042e+02) (250, 1.21615199162079278494e+02) (251, 5.07833049093253876549e+01) (252, 5.08202090990610386712e+01) (253, 5.07856838126547600609e+01) (254, 5.09301894214816357476e+01) (255, 5.08364839685030247551e+01) (256, 5.08441131246156956536e+01) (257, 4.09531697998229589075e+01) (258, 1.03211716369494403978e+01) (259, 3.05645492184173805938e-01) (260, 2.13879536535131697939e-01) (261, -4.62850086101922109094e+00) (262, -4.85896869240204032359e-01) (263, -3.25130043883686958850e+00) (264, -1.07040016020172473077e+02) (265, -2.46067665478182675542e+02) (266, -4.20963369548934807085e+01) (267, -1.01531494553241415701e+02) (268, -1.01408972062962590144e+02) (269, 1.33869130549931503182e+00) (270, 2.71985234826787838358e+01) (271, 2.95213634962441744847e+02) (272, 6.29260653126655711276e+00) (273, 4.63772685195423122195e+01) (274, 2.01545518877031923921e+01) (275, 4.09612844655696477503e+01) (276, 5.09056729433007504326e+01) (277, 2.17372135366918257660e+02) (278, 1.21583262993408624197e+02) (279, 5.08247937616772915703e+01) (280, 5.07967896667189862114e+01) (281, 5.08428087589211727959e+01) (282, 5.08656966891951825005e+01) (283, 5.08745967951483990532e+01) (284, 5.08860905823178555352e+01) (285, 3.64891800503849310644e+01) (286, -6.82319602844594719215e+00) (287, -6.85694989794057718768e+00) (288, -3.01043107921489028200e-01) (289, 5.14734960833968302474e-01) (290, -3.60754401355390275086e-01) (291, -6.94064218422089140859e+01) (292, -4.45965317858605345691e+01) (293, -4.27233628688149735808e+01) (294, -4.21692409330848931859e+01) (295, -1.01570828896248144702e+02) (296, -7.71356245330687499973e+01) (297, 2.05989160298797848725e+01) (298, 8.49733519124679759216e+01) (299, 3.57756975726317492104e+01) (300, -1.18241809391594703271e+01) (301, -1.78976067284809907676e+01) (302, -7.11977808601032258196e+00) (303, 3.64857655262262596807e+01) (304, 5.09373184946246411187e+01) (305, 5.07652611491151120049e+01) (306, 5.07621678990192677361e+01) (307, 5.09005894568629528862e+01) (308, 5.07715130132503773552e+01) (309, 5.07964032013781334740e+01) (310, 5.07829812337525154931e+01) (311, 5.08259006944365765435e+01) (312, 5.08968099859423901421e+01) (313, 4.10659369448606099695e+01) (314, 2.23086730611763144339e+01) (315, 1.39225769633420046745e+01) (316, 4.48688781193978130091e+01) (317, 8.32027515951632494762e+01) (318, 1.25047061063120139579e+01) (319, 3.47347637552510946080e+01) (320, 6.27287544481909264960e-01) (321, -1.22427130362958741516e-01) (322, -6.16807720491697253351e+00) (323, -2.94657510266328304116e-01) (324, 1.00233778249729321708e+00) (325, 1.83376649557824080716e+01) (326, 1.80919843376143347768e+01) (327, 8.52636218502548501874e+01) (328, 8.45061472892017206959e+00) (329, -1.78997180293070634605e+01) (330, -2.93491624642941539847e+00) (331, 1.53502290793282423209e+01) (332, 5.08118595686621929985e+01) (333, 5.09253985044427182061e+01) (334, 5.07788298335738446099e+01) (335, 5.08067760822243954522e+01) (336, 5.07482576799459721428e+01) (337, 5.07985957545109059197e+01) (338, 5.07649635505743290764e+01) (339, 5.07773687076635624749e+01) (340, 5.08525969740815426690e+01) (341, 4.44624672789086474722e+01) (342, 8.71402851604459556256e+01) (343, 3.20260956448180067468e+01) (344, 3.53971881428285897186e+01) (345, 1.19080692401134285774e+02) (346, 8.37221534727946448129e+01) (347, 1.35181342628012970408e+01) (348, 8.27778598484196947993e+00) (349, 2.01743822707834086216e+00) (350, 1.76551125431739963645e+00) (351, 7.39422386316917146232e-01) (352, 3.56642012218722026518e+00) (353, 4.25146112251368037960e+01) (354, 1.23370296223213173903e+01) (355, 2.26903295013883337106e+01) (356, -2.96050601597135676357e+00) (357, 4.99535617842225931895e+00) (358, 5.97043064861055228221e+00) (359, 1.54011753224355611991e+01) (360, 5.08492387068338658196e+01) (361, 5.07736953628130223137e+01) (362, 5.07451150399513508660e+01) (363, 5.09186962899632717949e+01) (364, 5.07566918936438824517e+01) (365, 5.07815428991682793480e+01) (366, 5.07830703985758091790e+01) (367, 5.07625475955076481682e+01) (368, 5.08377366793222691399e+01) (369, 1.06388875800840310148e+02) (370, 9.79344487061917448045e+01) (371, 6.57290879092782347470e+01) (372, 7.14325148332595745160e+01) (373, 2.45371391723008741792e+02) (374, 5.57871625414553136579e+02) (375, 2.46450035843269233737e+02) (376, 8.52969143038807260382e+01) (377, 3.53391481679018548689e+00) (378, 5.93674497373770426734e-01) (379, 1.91615797874537796552e+00) (380, 3.66743169332055440890e+00) (381, 1.61286590735911836703e+01) (382, 1.02646437172847821984e+01) (383, 8.13315663634962149331e+00) (384, -1.14265453254969751029e+00) (385, 8.29955241066777760217e-01) (386, 6.00954554109330985057e+00) (387, 1.54065675162298116874e+01) (388, 5.07805461591938254173e+01) (389, 5.07851265986330773217e+01) (390, 5.08014534694023396355e+01) (391, 5.09402597007222439629e+01) (392, 5.08164199870891835076e+01) (393, 5.08041665275461937767e+01) (394, 5.09165540245242382866e+01) (395, 5.08307099026508595330e+01) (396, 5.08433074486322666985e+01) (397, 1.21510971338503111383e+02) (398, 4.08286989006419460679e+01) (399, 1.29581574847020306152e+02) (400, 4.26396377979203364816e+01) (401, 1.02324672300704619943e+02) (402, 1.50047496280911900612e+02) (403, 2.45380678577663047690e+02) (404, 2.45513400977791889090e+02) (405, 8.91847676368589747931e-01) (406, 1.90778869943543005760e+00) (407, 1.68556692570471500225e+00) (408, 1.01113987750975820035e+00) (409, 1.67762328969548200064e+01) (410, 2.80320980022230470396e+00) (411, -4.47246923763164716537e-01) (412, 1.70174211497491900680e-01) (413, 2.04641786177437057237e-01) (414, 8.30963892276561111316e+00) (415, 1.71784338075474352081e+01) (416, 5.08742592713692900475e+01) (417, 5.08852261063523556572e+01) (418, 5.08937265929646756035e+01) (419, 5.08181570750541951043e+01) (420, 5.09279507306285168511e+01) (421, 5.07527780738539959771e+01) (422, 5.08160148021645809990e+01) (423, 5.08019687254793907982e+01) (424, 1.21621168336285535361e+02) (425, 1.06320533858896709489e+02) (426, 9.80272110460519456865e+01) (427, 8.52791250761063679420e+01) (428, 4.26738226785529661811e+01) (429, 1.01969789800837958182e+02) (430, 2.44958068821599681542e+02) (431, 2.45437948417436928139e+02) (432, 7.44795447137893873446e+00) (433, 3.73302593991765974124e+00) (434, 2.44483030203785212109e+00) (435, -6.46323362845629828533e-02) (436, 3.66383854265126807093e+00) (437, 4.83631292797758533197e+02) (438, 3.54807482317860163334e+01) (439, 6.47745595103034310647e-01) (440, 1.81013773793418986102e-01) (441, 2.09753502674674685569e-01) (442, 3.84486242538571643124e+00) (443, 1.87401872248100467289e+01) (444, 5.08870665809968230064e+01) (445, 5.07828861481407400902e+01) (446, 5.08851678726144101006e+01) (447, 5.09246774968571926934e+01) (448, 5.07785870862074162346e+01) (449, 5.08364924696154858452e+01) (450, 5.08004325945742394310e+01) (451, 5.07641358283229138237e+01) (452, 1.21653494267178956534e+02) (453, 9.80109798072099351884e+01) (454, 7.70310007570422499157e+01) (455, 1.55968822547944530044e+01) (456, 7.59567391221304699656e+00) (457, 4.36283698584766899131e+00) (458, 6.27248234984347874388e+00) (459, 1.77619722574883276422e+01) (460, 2.26028102321619350779e-01) (461, 5.66031392092739116251e-01) (462, 5.23782305746880894048e+00) (463, 2.21833179087696485965e+00) (464, 4.60901260775498329281e+01) (465, 1.02470907641834628521e+02) (466, 3.55831438189245190529e+01) (467, 6.54716285661722685596e-01) (468, 1.02440742813062410366e-01) (469, 6.21811320571244885436e-01) (470, 8.69010786679986324543e+00) (471, 4.46675229537979774364e+01) (472, 1.21691169180922258874e+02) (473, 1.21621132275475446249e+02) (474, 1.21619268520189706351e+02) (475, 5.09349616971678997857e+01) (476, 5.09078675565190579277e+01) (477, 5.07554086950488354546e+01) (478, 1.21723862937106076743e+02) (479, 1.21550678363455716635e+02) (480, 1.21603248083047617456e+02) (481, 9.79122022224783563615e+01) (482, 2.01085852401378275545e+01) (483, 3.67454528690850379391e+00) (484, 1.73941011478389651046e+00) (485, 1.10105551385515121332e+00) (486, 2.49806045965594275549e-01) (487, 1.41005798533581971910e-01) (488, 2.15718176723573740183e-01) (489, 8.19616221285987767153e-01) (490, 1.15018163775141557537e+00) (491, 9.93507683909338190631e+00) (492, 4.27793566785149721454e+01) (493, 9.26000154237318753303e+01) (494, 1.24590120082499966614e+00) (495, 5.23628739581787905344e-01) (496, 2.81588894032368530773e-01) (497, 4.91140137111298447081e-01) (498, 1.56793196985041589642e+01) (499, 1.21622928389363039514e+02) (500, 1.21547701262883890649e+02) (501, 1.21709389826668683554e+02) (502, 1.21622382900132123495e+02) (503, 5.07889706698127056939e+01) (504, 5.07748686951465870720e+01) (505, 5.08859980163045193535e+01) (506, 1.21588156098885718848e+02) (507, 1.21746959975375119711e+02) (508, 1.21652753644637812158e+02) (509, 8.70357833616969855939e+01) (510, 2.02847836853983523042e+01) (511, 4.04236561372686509230e+00) (512, 3.85065181079662866015e-01) (513, 1.45759891177084766056e-01) (514, 7.39273559465635499155e-02) (515, -5.47484075600741526557e-01) (516, -3.72376346331752261509e-01) (517, 2.82416419733248436064e-01) (518, 7.80134619642609661305e-01) (519, 2.27014656548697901783e+00) (520, 3.80069509118606916331e+01) (521, 4.09265932144612598620e+00) (522, -6.97929977766256648408e-01) (523, 5.79496416273823755638e-01) (524, 1.12577224417976462512e+00) (525, 8.97693239497040451624e+00) (526, 3.68663337547217722090e+01) (527, 1.21502086230568636438e+02) (528, 1.21688986011795748254e+02) (529, 1.21633524744225923087e+02) (530, 1.21681740558160726096e+02) (531, 5.07867875118620659691e+01) (532, 5.07872611750729348046e+01) (533, 5.07484700512953068596e+01) (534, 1.21639981909109536673e+02) (535, 1.66884906270963966790e+02) (536, 1.21645814993433702966e+02) (537, 9.83722990484762078722e+01) (538, 2.05233389725616319765e+01) (539, 9.07756094234083832362e+00) (540, 6.21841026028180143825e-01) (541, 1.48806518091751216470e-01) (542, -5.12186229757405242502e-01) (543, -3.25232411747457739182e+00) (544, -4.25915432801730702295e+01) (545, -4.25445180772808413394e+01) (546, -2.21569895032204505769e-01) (547, 7.84179462788198478052e+00) (548, 2.01855003131510613912e+02) (549, 1.12013614030649621967e+00) (550, -1.87013155416524545771e+00) (551, 5.76224161254825895107e-01) (552, 9.06993267284725845911e+00) (553, 3.70294019821916933211e+01) (554, 5.13938026507480003602e+01) (555, 1.21504497730188120386e+02) (556, 1.21669640311054934045e+02) (557, 1.21721758252395574118e+02) (558, 1.21563309898985806967e+02) (559, 5.09087265488572384697e+01) (560, 5.07996295970745350701e+01) (561, 5.08893970605798031670e+01) (562, 1.21559737792624417807e+02) (563, 1.66962543985668673940e+02) (564, 1.66960643516344845239e+02) (565, 1.21960695250127088229e+02) (566, 9.84216291488933450182e+01) (567, 4.69544092822115430863e+01) (568, 1.39175474942318810889e+01) (569, 2.41871935692250183969e-01) (570, 5.50131966927753721097e-03) (571, -1.97922105889976727155e+01) (572, -2.45380406892381699890e+02) (573, -2.45278081202031899011e+02) (574, -9.38342920883821030031e+00) (575, 1.82991920937641481260e+01) (576, 1.17868299102135978274e+01) (577, 1.13154877575209100726e+00) (578, -1.90432379961884157282e+00) (579, 3.27976915258405270492e+01) (580, 3.69879054818188066633e+01) (581, 4.50225356575275625914e+01) (582, 1.21538932376556147119e+02) (583, 1.21521144078128088495e+02) (584, 1.21603758201949347040e+02) (585, 1.21559756873561326529e+02) (586, 1.21582367746545259024e+02) (587, 5.08234987390108372551e+01) (588, 5.09258617219395901543e+01) (589, 5.07900242415137554985e+01) (590, 1.21596449019773189093e+02) (591, 1.21589715050919238593e+02) (592, 1.67002197699112713281e+02) (593, 1.66865711787206947747e+02) (594, 1.67313234581255755984e+02) (595, 3.23917013418061003449e+02) (596, 5.72286826459112702992e+01) (597, 3.29795089710992570531e+01) (598, 5.23719387729609353599e-01) (599, -2.38507404054629890133e-01) (600, -5.07511842877051932987e+01) (601, -1.45198585688041191588e+02) (602, -4.28328957858491676802e+00) (603, 1.10386220418280345257e+00) (604, 3.88684508791405036732e-01) (605, 2.79690001281206956918e+00) (606, 4.56309546171090616440e+01) (607, 4.14480704012015976900e+01) (608, 5.13287435774786331422e+01) (609, 1.21682623573593843957e+02) (610, 1.21691562273554552576e+02) (611, 1.21525394097916830560e+02) (612, 1.21622379788212526819e+02) (613, 1.21587220585359517599e+02) (614, 1.21603264110548678900e+02) (615, 5.07762382310695912224e+01) (616, 5.07913240623541142327e+01) (617, 5.08299784493513371331e+01) (618, 1.21663960701240483786e+02) (619, 1.21581409512473527457e+02) (620, 1.66995655908111586996e+02) (621, 1.66969934703273594323e+02) (622, 1.66880649545652687493e+02) (623, 3.23899149011952147248e+02) (624, 1.35444081537265901716e+02) (625, 1.03289207830088628270e+02) (626, 1.03350861034350884893e+02) (627, 1.03090765962219734320e+02) (628, 8.85101674556804773886e+00) (629, 1.18431611541600105397e+02) (630, 4.92575033229405150337e+01) (631, 2.07772157473657976823e+01) (632, 9.57426512473776547552e+00) (633, 7.81934664371941039462e+01) (634, 1.21517408945612658044e+02) (635, 1.21521819935195196649e+02) (636, 1.21569316097550142786e+02) (637, 1.21651099630646456262e+02) (638, 1.21584374369137037775e+02) (639, 1.21672204711489428064e+02) (640, 1.21690449139489118124e+02) (641, 1.21632662577940408255e+02) (642, 5.07476990354128147942e+01) (643, 5.08100523558326031548e+01) (644, 5.08642297592826153618e+01) (645, 5.08019354623623158318e+01) (646, 1.21650514325512830283e+02) (647, 1.21719777560247365500e+02) (648, 1.21696137657774869467e+02) (649, 1.21565447336448613669e+02) (650, 1.21499282569639433405e+02) (651, 1.66889889055354416314e+02) (652, 3.23585226877571756177e+02) (653, 4.25300137772477910403e+02) (654, 1.85578266821301269829e+02) (655, 1.02713890094048466040e+02) (656, 1.02486488672072169948e+02) (657, 1.02484065765613792109e+02) (658, 4.28778669530461797876e+01) (659, 7.72193721722853325673e+01) (660, 1.34669327870754415244e+02) (661, 5.07567397062279539455e+01) (662, 1.21641113528065432092e+02) (663, 1.21500982739977587244e+02) (664, 1.21586676673047293207e+02) (665, 1.21715248411907140280e+02) (666, 1.21579528613401834036e+02) (667, 1.21712718716277066733e+02) (668, 1.21670197187377397086e+02) (669, 5.08611263987489010674e+01) (670, 5.08821468409962918145e+01) (671, 5.08049929273195530754e+01) (672, 5.07447612789340283257e+01) (673, 5.08874439057774807793e+01) (674, 5.08726432976193692070e+01) (675, 1.21673214776827279593e+02) (676, 5.07469773796267773491e+01) (677, 5.07741299328274990899e+01) (678, 5.08373389375276829583e+01) (679, 5.08940873351760174614e+01) (680, 5.07905495819516445977e+01) (681, 1.21647096341861669089e+02) (682, 5.06922449971145496761e+01) (683, 2.89849903342660475403e+01) (684, 5.63196403734507313743e+01) (685, 5.61914896644773236289e+01) (686, 5.61715522162737599388e+01) (687, 8.86499955080305035438e+00) (688, 2.12912315768234137181e+01) (689, 5.07481246796317364556e+01) (690, 5.07859134978512045677e+01) (691, 5.08956678119368817192e+01) (692, 5.08994902578063275200e+01) (693, 1.21590378677858296896e+02) (694, 1.21707125386609021689e+02) (695, 1.21596641770018521811e+02) (696, 1.21556599406911317374e+02) (697, 5.09310005959935452324e+01) (698, 5.07537070792980458123e+01) (699, 5.08711431977219845635e+01) (700, 5.08497250211305882317e+01) (701, 5.08934519347615506035e+01) (702, 5.09337341395087506157e+01) (703, 5.08520843219824101311e+01) (704, 5.08384938594765927178e+01) (705, 5.08639754635162617546e+01) (706, 5.07762714085049893242e+01) (707, 5.08430692535705830437e+01) (708, 5.08957034108109738213e+01) (709, 5.08712083754010464531e+01) (710, 5.07947546151347424370e+01) (711, 5.07438510191507603508e+01) (712, 5.07692770195074345452e+01) (713, 5.08287486714191700798e+01) (714, 5.07707726192541386467e+01) (715, 5.07435465586252476555e+01) (716, 5.08748675045438076836e+01) (717, 5.07969539967246319634e+01) (718, 5.08098603618212010247e+01) (719, 5.08106076774068142754e+01) (720, 1.21609302407516423727e+02) (721, 1.21712874403609220053e+02) (722, 1.21570499224974099661e+02) (723, 1.21566390691710893179e+02) (724, 5.07475996744699742180e+01) (725, 5.09219712075658108574e+01) (726, 5.08073790577121044976e+01) (727, 5.07551713940568234307e+01) (728, 5.09105698373980786187e+01) (729, 5.08186841663785244805e+01) (730, 5.08839126136966015679e+01) (731, 5.08178928774662281853e+01) (732, 5.07697341275282170159e+01) (733, 5.08752447572417523247e+01) (734, 5.09275752213664318901e+01) (735, 5.08658260089226033074e+01) (736, 5.07968182434208657128e+01) (737, 5.07614446413584019524e+01) (738, 5.07664932814307476860e+01) (739, 5.07501196768946911675e+01) (740, 5.08902510461278225762e+01) (741, 5.08188459184832836968e+01) (742, 5.07515687105126644951e+01) (743, 5.09171260652013089043e+01) (744, 5.09051926192708279473e+01) (745, 5.07799393554098870140e+01) (746, 5.09182706531949307305e+01) (747, 5.08376581353016163689e+01) (748, 5.08344913777776028496e+01) (749, 1.21592354739470664526e+02) (750, 5.09058638271756436211e+01) (751, 5.08947660979695584160e+01) (752, 5.07495757398076321465e+01) (753, 5.09273353722758557183e+01) (754, 5.09121290949054028374e+01) (755, 5.07547734361953999382e+01) (756, 5.09069045987792279107e+01) (757, 5.07771061790056492669e+01) (758, 5.07675428521700169426e+01) (759, 5.08750724551148678643e+01) (760, 5.08533883524008061272e+01) (761, 5.09090534803338314873e+01) (762, 5.07505633515186573845e+01) (763, 5.08807205018468167168e+01) (764, 5.08418962565131451470e+01) (765, 5.09357366022534634453e+01) (766, 5.08041445297069813591e+01) (767, 5.08963125255770947319e+01) (768, 5.07547792550988461358e+01) (769, 5.08282358330555226189e+01) (770, 5.09040302094884182793e+01) (771, 5.09026283082433010918e+01) (772, 5.09046797809071804863e+01) (773, 5.09131969419188763482e+01) (774, 5.08773524072833325249e+01) (775, 5.08674704042144085747e+01) (776, 5.07507343199916149956e+01) (777, 5.08532210794158245903e+01) (778, 5.07627265584535862786e+01) (779, 5.08428237196870114190e+01) (780, 5.08965481427378918511e+01) (781, 5.09261884149976040703e+01) (782, 5.07951878328688408715e+01) (783, 5.09037218895621563775e+01) (784, -3.80934281151479368077e+01) (0, -1.63245840689603660678e+01) (1, -1.61734056642715309238e+01) (2, -1.62138745954696510410e+01) (3, -1.62898798717622135257e+01) (4, -1.61482647976343010043e+01) (5, -1.62812041214172218417e+01) (6, -1.61788934937183235263e+01) (7, -1.61816132983629081821e+01) (8, -1.62730427479807708835e+01) (9, -1.62405749654833648776e+01) (10, -1.62821190303627822971e+01) (11, -1.62797081416909072971e+01) (12, -1.61788324138585899448e+01) (13, -1.63282084932987068271e+01) (14, -1.62673308646742675876e+01) (15, -1.62929985544149253940e+01) (16, -1.61665802618924949741e+01) (17, -1.63071045337681148624e+01) (18, -1.63307207620207641696e+01) (19, -1.61957852861348960971e+01) (20, -1.61721541008416984653e+01) (21, -1.62056523284379814243e+01) (22, -1.61874529442254875278e+01) (23, -1.62613350099388931369e+01) (24, -1.61853277406160209750e+01) (25, -1.62870312093262050723e+01) (26, -1.63071888557140205478e+01) (27, -1.62015413215820167636e+01) (28, -1.62342453470889900302e+01) (29, -1.63458689397637222385e+01) (30, -1.62328215038840149020e+01) (31, -1.62117323896352623080e+01) (32, -1.61721775701705787753e+01) (33, -1.62995990610186431979e+01) (34, -1.61545152238075111484e+01) (35, -1.61733453443710182285e+01) (36, -1.62337061411206100559e+01) (37, -1.61863116642896507358e+01) (38, -1.62078616043989036655e+01) (39, -1.61596518477861259555e+01) (40, -1.62797895914379928684e+01) (41, -1.63428835964266632175e+01) (42, -1.62922629548673008060e+01) (43, -1.63115249669615600681e+01) (44, -1.63239950484101150607e+01) (45, -1.62124967745010231113e+01) (46, -1.62574264800612304782e+01) (47, -1.63434782719675872897e+01) (48, -1.61725042632285926913e+01) (49, -1.62410501933161590671e+01) (50, -1.61921665242378089999e+01) (51, -1.61975613406364296054e+01) (52, -1.62996054871444080447e+01) (53, -1.62325224301282737827e+01) (54, -1.63117993122402999973e+01) (55, -1.63378361931506965732e+01) (56, -1.61724565944139335727e+01) (57, -1.62718911266390655612e+01) (58, -1.61922804734174583530e+01) (59, -1.62596049106184814548e+01) (60, -1.62706630250875328159e+01) (61, -1.62780049240652893161e+01) (62, -1.63242402470175598239e+01) (63, -1.62957435569230888461e+01) (64, -1.62305069437686775302e+01) (65, -1.63316584250394676303e+01) (66, -1.63219918480579231357e+01) (67, -1.63171160465542648410e+01) (68, -1.61708730629150245761e+01) (69, -1.61827564111415718173e+01) (70, -1.22110405093033183022e+01) (71, -1.21849352506894934578e+01) (72, -1.20599126046497691078e+01) (73, -1.21562064265806544228e+01) (74, -1.62679935193125579929e+01) (75, -1.61554409733478401279e+01) (76, -1.63402365168992851352e+01) (77, -1.61783229580585334872e+01) (78, -1.61518221965495918369e+01) (79, -1.61656437388126228427e+01) (80, -1.62722761130396698093e+01) (81, -1.61968916824523780917e+01) (82, -1.62161080411140297031e+01) (83, -1.62247845625941131686e+01) (84, -1.62823170667950485324e+01) (85, -1.61808103045884941196e+01) (86, -1.62155237218801353549e+01) (87, -1.63076766191486690616e+01) (88, -1.63056043928925369357e+01) (89, -1.62607071495119903659e+01) (90, -1.62201844772760246371e+01) (91, -1.62291703692142341708e+01) (92, -1.61916150322620246982e+01) (93, -1.61973276904289100742e+01) (94, -1.61778168848220680331e+01) (95, -1.62750249302450988864e+01) (96, -1.61818890741531227206e+01) (97, -1.61527117064658973788e+01) (98, -1.21264135887820589943e+01) (99, -5.24674855013843011164e+00) (100, -5.22945451577659081721e+00) (101, -1.21089874109227526588e+01) (102, -1.20435032969314921303e+01) (103, -1.21011866455871928139e+01) (104, -1.61553574970428321933e+01) (105, -1.62830301469628189182e+01) (106, -1.62281609273020599460e+01) (107, -1.61484969726268623447e+01) (108, -1.63142560666863296603e+01) (109, -1.62328860855166290378e+01) (110, -1.61670436880056236362e+01) (111, -1.62394351458613250827e+01) (112, -1.62826807296339843845e+01) (113, -1.62360546982352111911e+01) (114, -1.63171226701204155063e+01) (115, -1.62179007551137779330e+01) (116, -1.62697679644886825656e+01) (117, -1.61855493357841346835e+01) (118, -1.61784803441230629062e+01) (119, -1.62282753086153839206e+01) (120, -3.86795924887128137470e+01) (121, -9.20459069038539468011e+01) (122, -9.21046877677350579461e+01) (123, -9.21380165542274056634e+01) (124, -9.20961375559478341302e+01) (125, -3.89799544977225522757e+01) (126, -1.06001892255661473996e+01) (127, -4.69940232561134330069e+00) (128, -3.13614648455444910979e+00) (129, -3.02049952632294882449e+00) (130, -6.96678199953050558690e+00) (131, -6.95958064085454886083e+00) (132, -3.13465181288214811417e+00) (133, -5.25127860744948815608e+00) (134, -5.30176058997865151667e+00) (135, -1.21397030701835024757e+01) (136, -1.63461282721225593662e+01) (137, -1.63417410349909637546e+01) (138, -1.62597333586279724216e+01) (139, -1.63132872974936340427e+01) (140, -1.62275300866429184055e+01) (141, -1.62796800082985733127e+01) (142, -1.62056254020397041415e+01) (143, -1.61631137749616478061e+01) (144, -1.61686376503173683261e+01) (145, -3.85560840651459955097e+01) (146, -3.86143505185909532429e+01) (147, -9.20856476972609101495e+01) (148, -1.31483478558662568503e+02) (149, -1.31534676005545293265e+02) (150, -1.31441862074139748984e+02) (151, -2.60355227235494226079e+02) (152, -2.60358833018479913335e+02) (153, -2.26041557260952501451e+01) (154, -2.96403796009662734434e+00) (155, -7.74965281775776504425e-01) (156, -1.92222936565694553224e+01) (157, -4.30032888647039612806e+01) (158, -2.84320109183786442486e+01) (159, -3.66627875374219982518e+01) (160, -2.91898141933123422831e+00) (161, -1.89023269614873989930e+00) (162, -2.02977947492489940728e+00) (163, -5.25376900871749352717e+00) (164, -1.21064956610996592445e+01) (165, -1.62837362980906341647e+01) (166, -1.63239219433132980441e+01) (167, -1.62241572535101745700e+01) (168, -1.62783802843157623386e+01) (169, -1.62365582680765960788e+01) (170, -1.61903475096885536288e+01) (171, -1.61588133147422645663e+01) (172, -3.85495742693610452534e+01) (173, -3.86293089002437852741e+01) (174, -9.19691691647081910332e+01) (175, -1.31460057062509690695e+02) (176, -1.84685463508148529854e+02) (177, -3.75465805573968509634e+02) (178, -3.75539048461823085745e+02) (179, -3.75548591225056270559e+02) (180, -1.97803276863925589169e+02) (181, 5.13565714501820451687e+01) (182, 3.64555619120776563946e+00) (183, -1.72410290755137696195e+00) (184, -1.02206230997585038267e+02) (185, -4.84227287274809953033e+02) (186, -4.84384055665342373231e+02) (187, -3.75535692593662361105e+02) (188, -8.72009906025124763573e+01) (189, -1.14446399217802703419e+01) (190, -2.04194133630691654346e+00) (191, -2.01012878766952640675e+00) (192, -5.20278830667491387629e+00) (193, -1.22181653430659640236e+01) (194, -1.61475125125114296054e+01) (195, -1.62397338396374557590e+01) (196, -1.62734349465433929538e+01) (197, -1.63243374249402855014e+01) (198, -1.63167940473620269870e+01) (199, -1.62047181895439003085e+01) (200, -3.85942316934533380390e+01) (201, -9.19543836216240464410e+01) (202, -9.20107735941916047295e+01) (203, -1.31505218063893948965e+02) (204, -1.31531198551359807425e+02) (205, -3.75448322570530990561e+02) (206, -2.60468489143786996465e+02) (207, -1.97815578755967749203e+02) (208, 2.12506835133982079356e+01) (209, 1.01366410314616786081e+01) (210, 2.86110111273265523835e+01) (211, 1.92441123056695273519e+00) (212, -1.01884779906344334677e+02) (213, -4.83632768895412539223e+02) (214, -4.84572366563446962573e+02) (215, -3.75486392869262317618e+02) (216, -9.00778500339613259484e+01) (217, -9.47498699809379161252e+01) (218, -2.80524604723493560243e+01) (219, -4.33829758861675962578e+00) (220, -4.26127605402583231609e+00) (221, -1.21146874478061068459e+01) (222, -1.63450013494555328464e+01) (223, -1.62940023450617168521e+01) (224, -1.62230164504114959811e+01) (225, -1.63454168236319397067e+01) (226, -1.61866391471092079257e+01) (227, -1.61493543556396339511e+01) (228, -1.65203198339597250310e+01) (229, -1.63539987724081541387e+01) (230, -3.87626635413391085194e+01) (231, -3.87450468372327705424e+01) (232, -2.72544895097297086295e+01) (233, -8.78161000326059770771e+00) (234, 8.37089432582887411627e+01) (235, 3.46888383416289229899e+01) (236, 2.63789422437297027546e-01) (237, 8.82540656128759337662e+01) (238, 3.34161239296261580733e+00) (239, 7.23040275699919909869e+00) (240, 1.48995033396651717084e+01) (241, -4.10745985738121021313e+02) (242, -7.24382980670377492061e+02) (243, -4.84468026413230461458e+02) (244, -2.64434422528950733522e+02) (245, -2.07906248834286941474e+02) (246, -1.09546719737659046245e+02) (247, -3.87015693545408510090e+01) (248, -2.71717728141671841513e+01) (249, -1.21999670764405596657e+01) (250, -1.61842136702005241489e+01) (251, -1.61941193810169075107e+01) (252, -1.62048181912366722202e+01) (253, -1.61821179857913826083e+01) (254, -1.63410246914688919162e+01) (255, -1.62807376033131454562e+01) (256, -5.22152121206279229426e+00) (257, -1.22595990623623869453e+01) (258, -1.17012901923882388644e+01) (259, -1.79639012573843430687e+01) (260, -8.31839387800245688709e-01) (261, 1.16713154732609840636e+01) (262, 2.06338205948146757862e+00) (263, 8.54684699954318116699e-02) (264, 1.91441191673284771824e+00) (265, 4.71410332965999934185e-01) (266, 1.02004228472138265715e+02) (267, 1.01750551128912888998e+02) (268, 2.52903875876244743637e+00) (269, -2.46333214686907183477e+02) (270, -4.84599534642117475869e+02) (271, -4.84380221715776485780e+02) (272, -4.84359398535100979188e+02) (273, -4.84422728499977154115e+02) (274, -3.75497004138885358770e+02) (275, -1.31507799019518529349e+02) (276, -3.85811148867078088642e+01) (277, -1.22261378517348635597e+01) (278, -1.62124630829755638217e+01) (279, -1.63154067194525573825e+01) (280, -1.63162686026160095309e+01) (281, -1.62495797148410652255e+01) (282, -1.61624290666047905063e+01) (283, -1.61739897450868461704e+01) (284, -5.32568410997744035029e+00) (285, -1.15746519736277484469e+01) (286, -7.86038299390467631866e+00) (287, -3.99460827750239433342e+00) (288, -8.31859951402693198474e-01) (289, 4.16404196788793790063e+00) (290, -2.24167601664365356839e+00) (291, -4.18816789936167488406e+00) (292, 6.03197535964189057722e+00) (293, 1.78511467476565464096e+01) (294, 2.44722308529000315502e+02) (295, 1.01884629992921077246e+02) (296, -1.63189087290309953193e-01) (297, -1.02842836033729213341e+02) (298, -4.84519726513533157686e+02) (299, -4.84409834704010052064e+02) (300, -4.84487170344798130373e+02) (301, -4.84508915490119022706e+02) (302, -4.84438808380274338106e+02) (303, -4.84495320836661619524e+02) (304, -3.85566779658265303965e+01) (305, -1.61804094037477348422e+01) (306, -1.61824965795938346957e+01) (307, -1.62298297381464813327e+01) (308, -1.61780805757705543613e+01) (309, -1.62478626242343757724e+01) (310, -1.61981394162837837314e+01) (311, -1.61472521445218895053e+01) (312, -5.19142874916549157405e+00) (313, -1.16317667088734530978e+01) (314, -1.15924401155936145358e+01) (315, -1.80957522450571488548e+01) (316, 1.34336085228963009186e+00) (317, 3.82589755879356729906e-01) (318, -1.78839674191483908317e+01) (319, -4.27962483398186179784e+01) (320, -2.60420170750258535008e+02) (321, 8.36813596890758404356e+00) (322, 1.01954868171640569585e+02) (323, 1.01782450195678407567e+02) (324, -2.45329414072826740290e-01) (325, -4.29551464836944703052e+01) (326, -2.45758693525794569723e+02) (327, -4.84486575624553722719e+02) (328, -4.84457525564937157014e+02) (329, -4.84513146078793567995e+02) (330, -4.84545162281600994447e+02) (331, -4.84393447867242855409e+02) (332, -1.31536037725809251242e+02) (333, -1.62285716033045623874e+01) (334, -1.63333696445886467075e+01) (335, -1.62958103960816238498e+01) (336, -1.62618839836184356784e+01) (337, -1.61687691977683876132e+01) (338, -1.61785431078140113925e+01) (339, -1.62928675173286769962e+01) (340, -1.23485670487672827278e+01) (341, -1.64272481050149465887e+01) (342, -9.20873617294042645653e+01) (343, -3.75476938104836563070e+02) (344, -2.33541650179642346075e+01) (345, -1.80292005505907972918e+01) (346, -4.29314152397136936656e+01) (347, -4.84375744989721340517e+02) (348, -3.44581141414516196164e+02) (349, 8.92375380624977587729e+00) (350, 1.02027533509312547721e+02) (351, 1.02125827249614872017e+02) (352, -8.66010292505692835796e-02) (353, -2.96281829845873474483e+01) (354, -5.81098877181930149050e+01) (355, -3.89542874230651420930e+02) (356, -4.84452045782117409090e+02) (357, -4.84365454068986934999e+02) (358, -4.84478200613169235567e+02) (359, -4.84358323297111553529e+02) (360, -2.68815663181408581295e+02) (361, -1.62679638361994598483e+01) (362, -1.61963721087638710117e+01) (363, -1.62427665686671112155e+01) (364, -1.61494383981887672519e+01) (365, -1.61826447120372627353e+01) (366, -1.61914799234334800815e+01) (367, -1.62642253434721801852e+01) (368, -3.85847499057717584492e+01) (369, -3.86033590197630189778e+01) (370, -4.84414146831838650087e+02) (371, -4.84530905610529941896e+02) (372, -4.28835690318079798544e+01) (373, -4.28738017328005085460e+01) (374, -2.45790887996788796954e+02) (375, -4.84458428292183441499e+02) (376, -8.17533512274749227799e+01) (377, 7.10046275191897890977e+00) (378, 1.02093342391889564169e+02) (379, 4.84086965611646519392e+02) (380, 1.19875464401471258924e+01) (381, 1.34668874441775532347e+01) (382, 8.67330397807793929132e+00) (383, -7.13213518288530394784e+01) (384, -1.61851853223450632413e+02) (385, -4.84358953407613796571e+02) (386, -4.84362064174024624208e+02) (387, -4.84473245634345573762e+02) (388, -2.68661470532580551662e+02) (389, -1.62848657316033218478e+01) (390, -1.62761698758665893649e+01) (391, -1.63451125046674583530e+01) (392, -1.62057325264875267123e+01) (393, -1.63254449462954376315e+01) (394, -1.62407820245687339877e+01) (395, -1.62080739012424324130e+01) (396, -3.85414256587691568257e+01) (397, -4.84489315922020239213e+02) (398, -4.84529353215007347444e+02) (399, -4.84422363451330227235e+02) (400, -1.02450854965346749736e+02) (401, -2.45726548373933610492e+02) (402, -2.45736317396398362689e+02) (403, -4.84523462256996197084e+02) (404, 1.38051756454622553960e+00) (405, 2.46758246820559975276e+02) (406, 1.44475506496780553789e+03) (407, 7.27721727947051476804e+02) (408, 4.53941786905100919114e+00) (409, 4.66642665924755029039e+00) (410, 1.80435940821601263906e+01) (411, -3.24428962154893440584e+02) (412, -4.84436857296733421663e+02) (413, -4.84512145197598499635e+02) (414, -4.84448152704743904451e+02) (415, -4.84458057141511005739e+02) (416, -2.68808161638840374508e+02) (417, -1.62548178231779907321e+01) (418, -1.61759037098352287387e+01) (419, -1.63376109620992515659e+01) (420, -1.61925865134660575961e+01) (421, -1.63049765473667953586e+01) (422, -1.63356264180008743381e+01) (423, -1.62512220090691421603e+01) (424, -3.86637574866481088520e+01) (425, -4.84433462417332691530e+02) (426, -4.84516349880604309419e+02) (427, -4.84501371039657158235e+02) (428, -2.45705826670165834003e+02) (429, -2.45828751422699269824e+02) (430, -4.26980190492496944898e+01) (431, -1.02038097924751525625e+02) (432, 1.35788471030238859782e+01) (433, 9.69998156669415266151e+02) (434, 1.21808077865616814961e+03) (435, 1.21805313269571797719e+03) (436, 1.95565817086064384966e+02) (437, -3.02942213693900384897e+02) (438, -7.24392274473313591443e+02) (439, -4.84595401917763524580e+02) (440, -4.84448107382862133363e+02) (441, -4.84390891558138889650e+02) (442, -4.84384987420050663331e+02) (443, -4.84533716632632774690e+02) (444, -2.68640099778934654751e+02) (445, -1.62777410692040298557e+01) (446, -1.62363747155730102634e+01) (447, -1.63162402233545158481e+01) (448, -1.61854618510667656039e+01) (449, -1.62651813870732162570e+01) (450, -1.63067541404132221317e+01) (451, -1.62309513336483810519e+01) (452, -3.86034939274258874775e+01) (453, -4.84499434525726599077e+02) (454, -4.84539227313010258058e+02) (455, -4.84363439312784237245e+02) (456, -2.45715945273872193866e+02) (457, -1.78867024364759998889e+01) (458, -4.23574711083624393382e+01) (459, 1.71224654712788737498e+00) (460, 4.86827073761558949627e+02) (461, 9.69886615375853807564e+02) (462, 1.21800230979697244038e+03) (463, 5.02570701082838240836e+02) (464, 3.44782467931532821126e+01) (465, -4.84501601051705335976e+02) (466, -7.24441147443358204328e+02) (467, -4.84523067974664741087e+02) (468, -4.84616419167437129545e+02) (469, -4.84531451559273762086e+02) (470, -4.84390965810625118593e+02) (471, -4.84425150490014118532e+02) (472, -9.19612831721811829766e+01) (473, -1.62205541601840828037e+01) (474, -1.62034680566255424594e+01) (475, -1.61674847325746391391e+01) (476, -1.61511981955234382724e+01) (477, -1.62927457338635299777e+01) (478, -1.63366279175941322421e+01) (479, -1.61895630082551811313e+01) (480, -5.50391941695605950713e+01) (481, -4.84500436025319856981e+02) (482, -4.84477568312196297029e+02) (483, -4.84490944950489563325e+02) (484, -2.45782918885584649615e+02) (485, -1.78707636576359085723e+01) (486, 1.03620238313241477823e-01) (487, 5.27348193914093030799e+01) (488, 4.86855981217062890209e+02) (489, 7.26116029700963508731e+02) (490, 9.69891709665633470649e+02) (491, 1.89114452893101372410e+01) (492, -4.10824613595272669642e+00) (493, -4.84414568534700435976e+02) (494, -7.24370776895884773694e+02) (495, -4.84592695173986726331e+02) (496, -3.75593956005938878207e+02) (497, -2.60494864456145137410e+02) (498, -3.75388263097612480124e+02) (499, -1.31548091237846051627e+02) (500, -3.86664395205743574024e+01) (501, -1.62238257995311592197e+01) (502, -1.61526184549991462802e+01) (503, -1.63058535179559562778e+01) (504, -1.62972829251055095767e+01) (505, -1.62089894732896659946e+01) (506, -1.63262412121955726718e+01) (507, -3.86818171091444753529e+01) (508, -1.31424013388755952292e+02) (509, -3.75519927142767528494e+02) (510, -4.84548001049665970186e+02) (511, -4.84422522223202747682e+02) (512, -2.45803407453234967761e+02) (513, -8.20337125541127498707e+00) (514, 2.19286112822169552972e-02) (515, 1.05870907257752918440e+02) (516, 2.49416723261585957516e+02) (517, 7.26067372879712593203e+02) (518, 1.05696227599022250843e+02) (519, 1.71785823868974922846e+01) (520, -1.70788802270184021381e+01) (521, -4.84560847194113307523e+02) (522, -4.84507798158742957639e+02) (523, -2.43614188776530738778e+02) (524, -9.48020411069459498776e+01) (525, -1.65708657899214585996e+02) (526, -9.20695720265417634209e+01) (527, -3.86668975897200368763e+01) (528, -1.62183927616540763950e+01) (529, -1.63122439181868408298e+01) (530, -1.62180835327569816684e+01) (531, -1.61573022177879188632e+01) (532, -1.61889726689521644687e+01) (533, -1.62236049568716858005e+01) (534, -1.63160586899582717990e+01) (535, -3.87195915937490724446e+01) (536, -9.20798365126162110528e+01) (537, -2.60484264343766540151e+02) (538, -3.75497600654719690283e+02) (539, -3.75497193592248777350e+02) (540, -4.84468028916625542024e+02) (541, -5.07447003196884249832e+00) (542, 1.91511264793373270354e-01) (543, 2.18391296651667516926e+01) (544, 1.03720721035128306653e+02) (545, 2.47545743979228461740e+02) (546, 4.69691169979437432858e+01) (547, 1.58027070167204808371e+01) (548, -2.43162917496185961852e+01) (549, -5.84618991502552987072e+01) (550, -9.92600228354305897938e+01) (551, -7.14583963653339537814e+01) (552, -7.14165259328283354989e+01) (553, -9.20181592653303681573e+01) (554, -9.19843605856209336480e+01) (555, -2.87419737087752302784e+01) (556, -1.63364099434081886386e+01) (557, -1.63181573396984909152e+01) (558, -1.61856214276019905185e+01) (559, -1.62077056637470100497e+01) (560, -1.62833042240206573581e+01) (561, -1.62566079294745300388e+01) (562, -3.85983438775010370136e+01) (563, -3.87056128963895105244e+01) (564, -9.21274549688010750970e+01) (565, -2.60375933978496163945e+02) (566, -2.07894288812135471289e+02) (567, -1.97894938816361559475e+02) (568, -3.75539133383540729483e+02) (569, -2.34491337285691558989e+00) (570, 1.05093235972724824423e-01) (571, 2.19967410987684459656e+01) (572, 2.47514336265338386056e+02) (573, 4.84955620167790073083e+02) (574, 1.11826108017340473566e+02) (575, -2.55419257886901185373e+01) (576, -1.15852158944166649945e+01) (577, -6.31010899142817915930e+00) (578, 5.13404407494746095608e+01) (579, -7.14089697328008696786e+01) (580, -5.28343911397574927946e+01) (581, -8.28450245679667318655e+01) (582, -2.88177335368658980030e+01) (583, -1.21249134516317713661e+01) (584, -1.62614380663697097873e+01) (585, -1.61649381688300941562e+01) (586, -1.63427006921235893344e+01) (587, -1.62507509684626434421e+01) (588, -1.63359984850947235202e+01) (589, -1.61812250784103248691e+01) (590, -1.63113596087757919406e+01) (591, -3.86526386946506761433e+01) (592, -9.20850750940650044640e+01) (593, -2.60371234882412522893e+02) (594, -2.07827335920487655585e+02) (595, -1.97900177394085062588e+02) (596, -2.07798996296082748358e+02) (597, -1.61952136139652964175e+02) (598, -6.98411623526524194538e-01) (599, -4.63162840699402542088e-02) (600, 6.21071194160676487428e+00) (601, 6.60353188527625007964e+01) (602, -2.23832047775583227178e+01) (603, -2.48944829315640447476e+02) (604, -4.16591016053736353797e+01) (605, 8.44920877554503668705e+00) (606, -7.14773531135715529672e+01) (607, -5.19754316613183462437e+01) (608, -6.45081666531392414754e+01) (609, -1.16045674400264040571e+01) (610, -4.96190351840560239793e+00) (611, -1.21064369058210719032e+01) (612, -1.61892242750589225864e+01) (613, -1.61565997621480796909e+01) (614, -1.63215140199725006198e+01) (615, -1.63035653068188999271e+01) (616, -1.61744409075443122958e+01) (617, -1.63171176707808349704e+01) (618, -1.62072192451421592807e+01) (619, -3.85437753781743310810e+01) (620, -9.19455848286657868584e+01) (621, -9.19658209184914170464e+01) (622, -2.60477512456266254048e+02) (623, -2.60483946133194535832e+02) (624, -3.75410713231770614584e+02) (625, -4.84395793429224056581e+02) (626, -4.85191475332000379694e+02) (627, -9.68505479778869471374e+02) (628, -9.74626484619373968599e+02) (629, -4.96674467693589576811e+02) (630, -2.58270113406661891986e+02) (631, -4.90822759699827713575e+02) (632, -4.56309559349586564281e+01) (633, -1.15915590663396741888e+02) (634, -5.37328474264614399658e+01) (635, -2.46849693066651738604e+01) (636, -1.16712007390195147138e+01) (637, -2.33425010653472053690e+00) (638, -5.38393123289103936457e+00) (639, -1.21954979946811068459e+01) (640, -1.62839317938749168491e+01) (641, -1.61774338057700965976e+01) (642, -1.61920985749427650546e+01) (643, -1.63260590305988166904e+01) (644, -1.61869365146819923496e+01) (645, -1.61665155461494300937e+01) (646, -1.62825272998277519321e+01) (647, -3.85947134181924127461e+01) (648, -3.87169692203469537617e+01) (649, -9.21369886125236092766e+01) (650, -9.20248648102193413933e+01) (651, -1.31610060078504716330e+02) (652, -2.60356095734773248296e+02) (653, -3.75376034683196166952e+02) (654, -4.84551721099930261971e+02) (655, -4.84489744011478876473e+02) (656, -4.85157437942285696408e+02) (657, -2.46041147183155487710e+02) (658, -2.46036037694191406899e+02) (659, -4.84538457191197437623e+02) (660, -6.83684665129662789695e+01) (661, -5.95752497402478269350e+01) (662, -6.49010287108054306771e+00) (663, -2.20822762610650169535e+00) (664, -2.49183463202727573105e+00) (665, -5.24023249586577843928e+00) (666, -1.21027433996994364662e+01) (667, -1.61934383383457038974e+01) (668, -1.63314744851056907748e+01) (669, -1.62171245089237068271e+01) (670, -1.61604696533147667026e+01) (671, -1.62683092451159332370e+01) (672, -1.62474612689082000827e+01) (673, -1.62054711750213478183e+01) (674, -1.62472712343994949435e+01) (675, -1.62873007564310405826e+01) (676, -3.86053227171368860127e+01) (677, -3.85631345197625350352e+01) (678, -9.19488232235222398003e+01) (679, -9.20086679409056245049e+01) (680, -9.19725930641203461846e+01) (681, -9.20322518746166764458e+01) (682, -9.20022557477264939507e+01) (683, -9.19925302813559113702e+01) (684, -9.20570344651847420891e+01) (685, -9.19436311821251450738e+01) (686, -9.20719286228328286370e+01) (687, -6.84030497127355374687e+01) (688, -1.20494825368721354408e+01) (689, -1.21726704550881255074e+01) (690, -5.36031591733451318049e+00) (691, -5.35953941782470177913e+00) (692, -5.34314162870402764582e+00) (693, -1.20955211048920023842e+01) (694, -1.63247589191858146762e+01) (695, -1.62772568559710357761e+01) (696, -1.62662034875218246555e+01) (697, -1.61990356466237876987e+01) (698, -1.63235981559817169284e+01) (699, -1.62505809313122604465e+01) (700, -1.62690631172124717807e+01) (701, -1.63369707709614608859e+01) (702, -1.61717931351129386996e+01) (703, -1.61694273522559974765e+01) (704, -1.61953448972169731235e+01) (705, -1.62719673311774108981e+01) (706, -1.63096310591761444186e+01) (707, -1.62731375491682861423e+01) (708, -1.65052344087318445531e+01) (709, -1.23960503961236021553e+01) (710, -5.38145278980489205622e+00) (711, -5.37981214215512704158e+00) (712, -5.24891729494090508723e+00) (713, -6.95836830303281672627e+00) (714, -6.94700217411130793721e+00) (715, -7.08061152115672953755e+00) (716, -5.24446743567939233088e+00) (717, -5.36139873256440591121e+00) (718, -5.34944188808556031489e+00) (719, -1.21057694753606188698e+01) (720, -1.62645190528098915195e+01) (721, -1.62804938650194976901e+01) (722, -1.61957587471668098544e+01) (723, -1.62194801887933586215e+01) (724, -1.61475482901994560336e+01) (725, -1.61734206250373695468e+01) (726, -1.61496400108997200107e+01) (727, -1.62666547393862579440e+01) (728, -1.62253592407767150974e+01) (729, -1.63261411285464141940e+01) (730, -1.61701386293832634067e+01) (731, -1.61473253241245124912e+01) (732, -1.63160148507420394992e+01) (733, -1.61948347261611793613e+01) (734, -1.61696556231443260288e+01) (735, -1.61642627140943382358e+01) (736, -5.36078847040887307429e+00) (737, -5.37327310284133385920e+00) (738, -5.33138667633290719294e+00) (739, -5.32126320739741753840e+00) (740, -5.34319418137426804805e+00) (741, -5.32465897341723870539e+00) (742, -7.02899076953739054829e+00) (743, -6.92002690002530940205e+00) (744, -7.09484678670972712666e+00) (745, -7.07171654120296366841e+00) (746, -1.63391826471750114536e+01) (747, -1.61939543655578468417e+01) (748, -1.62877554206613872623e+01) (749, -1.63004440425400112247e+01) (750, -1.62712571492854927158e+01) (751, -1.62051774433318946933e+01) (752, -1.62338408699695442294e+01) (753, -1.63199188655678604221e+01) (754, -1.62775605863396499728e+01) (755, -1.62342921292845581149e+01) (756, -1.63462424671713684177e+01) (757, -1.62801035589043472385e+01) (758, -1.61538498273555610751e+01) (759, -1.62245046591822479343e+01) (760, -1.62591476461355064487e+01) (761, -1.61768914184038017368e+01) (762, -1.62247329449717376804e+01) (763, -1.62280654555622909641e+01) (764, -1.62246291062299583530e+01) (765, -1.62472915297810409641e+01) (766, -1.62452311387721870517e+01) (767, -1.61972370913688514804e+01) (768, -1.62323841324512336826e+01) (769, -1.61884373149339531039e+01) (770, -1.63303198090259407138e+01) (771, -1.61873978248302314853e+01) (772, -1.63249158060614441013e+01) (773, -1.62550341731373642062e+01) (774, -1.62031483224098060703e+01) (775, -1.63154861873452041721e+01) (776, -1.62224743163649414157e+01) (777, -1.61952339282695625400e+01) (778, -1.61623435190383766269e+01) (779, -1.61631326845352027988e+01) (780, -1.61485809257690284824e+01) (781, -1.62865036337141368961e+01) (782, -1.62212130895320747470e+01) (783, -1.62353247648541305637e+01) (784, 2.17941237761883428448e+01) (0, -6.03824559628836632363e-02) (1, -2.31225677210079805235e-01) (2, -1.67176708954559993803e-01) (3, -1.93388980257498399595e-01) (4, -2.37978458780037538389e-01) (5, -2.44584337252365724424e-01) (6, -1.05439573901879066198e-01) (7, -6.77728358685843468301e-02) (8, -1.22220233458267921178e-01) (9, -1.86407998579727784971e-01) (10, -1.45304903763520010251e-01) (11, -2.22414732354866639952e-01) (12, -8.45421109378211160790e-02) (13, -1.95444953072058336119e-01) (14, -1.07701823490845435827e-01) (15, -1.25882387536751516599e-01) (16, -1.78667717057453767637e-01) (17, -1.48002624887215383787e-01) (18, -1.03701144832359995474e-01) (19, -8.66048488795630594383e-02) (20, -2.04053901511418001036e-01) (21, -7.20902834117285590265e-02) (22, -1.61982126909481716215e-01) (23, -2.52190791445957684935e-01) (24, -8.73367641150824686180e-02) (25, -1.78017773109661714415e-01) (26, -2.53674686330544074675e-01) (27, -2.26743363219486848692e-01) (28, -2.52133816856133008422e-01) (29, -1.41902409869419821042e-01) (30, -1.38971783596264608640e-01) (31, -5.67134175479285240762e-02) (32, -1.17325216907250159948e-01) (33, -2.50345617908226625303e-01) (34, -1.94299519437538759092e-01) (35, -9.95008055150382181298e-02) (36, -2.39127077537762300352e-01) (37, -2.43936233597981111387e-01) (38, -1.32364948476665578170e-01) (39, -1.26438622559421648406e-01) (40, -1.95435536290519656921e-01) (41, -2.21866988773458423401e-01) (42, -9.30504847420387803947e-02) (43, -2.03280598300682679991e-01) (44, -1.40614889937626608152e-01) (45, -1.24055266755806678503e-01) (46, -9.42542899502449571525e-02) (47, -6.34797368228308539484e-02) (48, -2.16255020725714341978e-01) (49, -1.21258393305527442663e-01) (50, -9.42817334115378519188e-02) (51, -1.64506055790173244535e-01) (52, -1.37545824426399954099e-01) (53, -2.00460981953131334166e-01) (54, -1.60893977063881588041e-01) (55, -1.69079728800045625547e-01) (56, -1.22675881165253394811e-01) (57, -1.58765800672756862699e-01) (58, -1.40020214396702535886e-01) (59, -1.19006827849137061803e-01) (60, -2.44865343350159303526e-01) (61, -2.23189123350369111876e-01) (62, -1.19917363303887122838e-01) (63, -1.27281864370220265670e-01) (64, -2.38626045371406497742e-01) (65, -7.93081868542366563712e-02) (66, -1.70979802693241172973e-01) (67, -2.39646625459837614436e-01) (68, -2.85137929708409121332e-01) (69, -2.64458571869192471393e-01) (70, -3.09502710896787991413e-01) (71, -3.36560735746591732642e-01) (72, -7.61464377975190287451e-01) (73, -6.77692009246075754980e-01) (74, -5.39973161810233248659e-01) (75, -4.07010348781316921851e-01) (76, -2.58403545991175376262e-01) (77, -2.53320908919565879192e-01) (78, -2.64306550110691096389e-01) (79, -1.16749827946537099166e-01) (80, -1.95776392149912492613e-01) (81, -8.18912390649191995751e-02) (82, -2.04558842259632722715e-01) (83, -7.75193426787726402871e-02) (84, -2.26549350100742952208e-01) (85, -1.09649956601845496862e-01) (86, -1.90796204286800996641e-01) (87, -9.34223685443274637352e-02) (88, -2.12612878906714097837e-01) (89, -7.50135485112540384423e-02) (90, -1.56626329201447200834e-01) (91, -1.94441248607891248312e-01) (92, -2.35165704918163465109e-01) (93, -2.12452224278463497331e-01) (94, -2.15130888054697017031e-01) (95, -1.57848845871780205097e-02) (96, -3.41822020806955700900e-02) (97, 3.54412419906420667060e-02) (98, -1.64402232259026392924e-01) (99, -2.52687048853087126155e-01) (100, -6.50968655888455649539e-01) (101, -3.18558958973527328595e+00) (102, -7.46914097082277983475e+00) (103, -1.79030243032156377581e+01) (104, -3.50468219476314768457e+00) (105, -6.07749819451167017093e-01) (106, -2.30251861113367317646e-01) (107, -2.56419857229106928909e-01) (108, -2.75952440883033722763e-01) (109, -1.59156322854744625150e-01) (110, -7.55784664332739830606e-02) (111, -1.95031784850346223692e-01) (112, -1.85244687277065889219e-01) (113, -2.24334441500889436583e-01) (114, -2.16748260337101594786e-01) (115, -1.55991174656140041410e-01) (116, -7.81815204799048563133e-02) (117, -1.44507502150791389273e-01) (118, -1.85322060072435512712e-01) (119, -1.90825365708494038008e-01) (120, -1.13927238435788141802e-01) (121, 2.19235284176419187308e-01) (122, 1.77404392469998173354e+00) (123, 4.36362817272459011519e+01) (124, 1.03667994287126958852e+02) (125, 2.03475639096199536482e+01) (126, 2.93982833396422060801e+00) (127, 1.60115771299599107813e+00) (128, 7.25805778667726331221e-01) (129, 7.00712982120837435396e-02) (130, -5.38815312694637532642e-02) (131, -5.53987290491497308409e+00) (132, -3.29229337223492724007e+00) (133, -7.63348438345028412755e+00) (134, -1.60568636517631491145e+00) (135, -3.60025281354158510627e-01) (136, -1.98623073483817996765e-01) (137, -1.60307348150002193510e-01) (138, -1.68473251539456025938e-01) (139, -1.76984288173901216368e-01) (140, -6.36608008324972968195e-02) (141, -1.88248850780712739805e-01) (142, -1.16213202851998084753e-01) (143, -1.93102620917545930723e-01) (144, -1.49546329808490974234e-01) (145, -6.66397428672631797486e-02) (146, -3.93045001680924904752e-02) (147, 7.30737584246492766216e-02) (148, 7.70693206485025505970e+00) (149, 1.03496267650538399607e+02) (150, 2.47688490590215621978e+02) (151, 2.47758591605485378295e+02) (152, 4.88257096444082890230e+02) (153, 7.32837059131318255822e+02) (154, 4.86634387497828868163e+02) (155, 2.47395842928819263307e+02) (156, 1.02693846653417310222e+02) (157, 4.31065123467723907424e+01) (158, 7.64848413298847873421e+00) (159, 2.93063558096812504239e-01) (160, -2.57338244501152599297e-02) (161, -1.96562277437532051394e+00) (162, -3.11114785130858706452e+00) (163, -7.77547605213784520650e-01) (164, -3.42292974039285768928e-01) (165, -5.88956031978003502481e-02) (166, -1.50089741128670461912e-01) (167, -9.29441455781333109032e-02) (168, -1.63400084155785274564e-01) (169, -6.27601299464575768106e-02) (170, -2.14125570285307542662e-01) (171, -1.64023918044822858420e-01) (172, -1.86917497599138393571e-01) (173, -1.92820883253520015954e-02) (174, 1.43675065280327723949e-01) (175, 7.73978171820871452269e+00) (176, 4.36979392975483875716e+01) (177, 2.47700792512060104400e+02) (178, 2.47627298465133605987e+02) (179, 2.49602357550622343751e+02) (180, 1.07394160663023612301e+02) (181, 2.49874542351006311947e+02) (182, 4.86736190458547469007e+02) (183, 4.85001809507828397727e+02) (184, 4.84118067251032186959e+02) (185, 1.06059835383082642579e+02) (186, 8.17294037695583597269e+00) (187, 3.56570830458958276665e+00) (188, 5.13789621534000651160e-01) (189, 4.63413853668908581884e-01) (190, -7.50184513027580268663e-02) (191, -3.54011106596080815656e-01) (192, -1.82406431809656766063e-01) (193, -9.54246271504097659522e-02) (194, -2.54135899621235450407e-01) (195, -1.74621634560810701231e-01) (196, -7.76231888711325646035e-02) (197, -1.48422778028237112302e-01) (198, -2.11762916672217027525e-01) (199, -1.77986306083458112326e-01) (200, -1.44861175731929164856e-01) (201, -1.21842727626587446488e-01) (202, 1.79589152219764874863e-01) (203, 7.65541965749767250315e+00) (204, 1.80105111631770888891e+01) (205, 7.97042637341261972495e+00) (206, 4.04249170275064795277e+00) (207, 8.02116011315718147046e+00) (208, 1.83551424466506993838e+01) (209, 4.40906368338372303128e+01) (210, 4.36110428851877216516e+01) (211, 4.66655292818767506446e+01) (212, 1.92128361073317925900e+01) (213, 1.02183885506166802770e+02) (214, 4.33775547770584921636e+01) (215, 1.88597911625451715167e+01) (216, 1.85449911604046384639e+01) (217, 1.84544018458374692315e+00) (218, 1.35195595391671669061e-01) (219, -1.78628734779800707466e-01) (220, -1.84238124823858817614e-01) (221, -9.92445470216447855893e-02) (222, -2.45608561116444246153e-01) (223, -1.74820736426102296690e-01) (224, -1.25206232446419485349e-01) (225, -2.43941598016010896544e-01) (226, -9.36395082652442117821e-02) (227, -1.39792446923511781698e-01) (228, -1.25057435162407221130e-01) (229, -1.93368181120726789768e-01) (230, 7.16461849655722488039e-02) (231, -1.44997768461120946082e-01) (232, 7.96350425717313459284e-02) (233, 6.55282473735283943483e+00) (234, 4.17419519041065214537e+01) (235, 4.43581144111587732937e+01) (236, 1.71963487688791936137e+01) (237, 6.03062637892158415198e-01) (238, 1.81623058460810256065e+01) (239, 4.37593625086198798613e+01) (240, 1.07438709199661914795e+02) (241, 1.01147222203971438148e+02) (242, 1.95214034863147638532e+01) (243, 2.50927378604103409998e+02) (244, 2.46257390389804982078e+02) (245, 4.32245247928929572367e+01) (246, 3.17219530800121596315e+00) (247, 3.47917054364749872564e-02) (248, -1.85224367488683677729e-01) (249, -1.49272804093616706655e-01) (250, -1.10715371501701548285e-01) (251, -1.38351321595894583005e-01) (252, -2.07182679700838701109e-01) (253, -1.07755154746758216588e-01) (254, -5.73691878497473717324e-02) (255, -6.93519235971147146591e-02) (256, -8.69810369957862289381e-02) (257, -7.95848579168661196537e-02) (258, -1.27771345572039507488e-01) (259, -1.71833840233700851918e-01) (260, -4.37567212062312194121e+00) (261, -8.02297808968047974076e+01) (262, -3.32315838715879197096e+00) (263, -1.04698607093635857268e+02) (264, -1.04236025860663602316e+02) (265, -7.45956467343036955242e+00) (266, 7.27595729864404994203e+00) (267, 4.22308101379191782598e+01) (268, 4.32835775565792246766e+01) (269, 1.06562805529105389724e+02) (270, 1.15461306093575245768e+02) (271, 4.84546779517760114686e+02) (272, 4.29494327091444105804e+01) (273, 7.57201644493127901114e+00) (274, 1.49207162326987541334e+00) (275, 1.75261025034775697051e-01) (276, 8.75848072788073250816e-02) (277, -1.14048122251047351350e-01) (278, -1.64167490732925580588e-01) (279, -7.69704584061972618692e-02) (280, -2.23040767389523164610e-01) (281, -2.33548187094914094786e-01) (282, -1.59518905359493923246e-01) (283, -1.67186473441379712668e-01) (284, -8.55004940211646219383e-02) (285, -1.74106124973585740801e-01) (286, -3.04618458977802597509e-01) (287, -6.75178221044186557265e+01) (288, -4.84414069137346416483e+02) (289, -2.45521406219473135479e+02) (290, -7.25086023939404412886e+02) (291, -4.94068995828699939921e+02) (292, -4.29602324558739425697e+01) (293, -4.77252544138027872123e+01) (294, 1.70735568427445052464e+01) (295, 7.64593187504188520620e+00) (296, 4.32904311966587229676e+01) (297, 4.60946728388491351325e+01) (298, 6.42556194804910685292e+00) (299, 2.46233376369518452975e+02) (300, 7.70410833524821292428e+00) (301, 7.63291660411144334830e+00) (302, 1.39098146151754020750e+00) (303, 2.19553435144569930593e-01) (304, -4.06981463978842578078e-02) (305, -5.20834762692586744626e-02) (306, -9.42069263580018745330e-02) (307, -8.24099633872382303368e-02) (308, -1.26905948299156939862e-01) (309, -2.17039741951214448790e-01) (310, -1.03577554601418223013e-01) (311, -9.41438529670111795555e-02) (312, -2.15679236884229602600e-01) (313, -4.16712514381543774888e-01) (314, -2.33170601273299205047e+00) (315, -1.02416391101059730318e+02) (316, -2.45578611585288285823e+02) (317, -2.45566358068158876904e+02) (318, -4.84329452273720221456e+02) (319, -4.84270842212062746057e+02) (320, -2.46982389221221637854e+02) (321, -4.89793725797538996858e+01) (322, -9.45424529729705254155e-01) (323, 3.13825641438554958640e-01) (324, 4.07358478166261694930e-01) (325, -6.57232352499783978317e+00) (326, -3.07789616734586424229e+00) (327, 1.54326303413318566271e+00) (328, 3.37587329397703683753e+00) (329, 7.67838222279688009664e-01) (330, 6.60944802050959290263e-01) (331, 1.34711314953598421118e-01) (332, 9.91789697749015722317e-03) (333, -2.05788039547460721579e-01) (334, -1.93335079032169954161e-01) (335, -1.41775295513855703611e-01) (336, -2.17591356861578599791e-01) (337, -2.38973237949597017149e-01) (338, -1.68382391709076539854e-01) (339, -8.86944387137763162743e-02) (340, -2.80738872780341819357e-01) (341, -4.26875249253929778259e-01) (342, -7.33370433080354011679e+00) (343, -1.02331100728688056734e+02) (344, -2.45532595418343760230e+02) (345, -2.45448941737363554694e+02) (346, -2.45522067741623175152e+02) (347, -5.95122489815461932494e+01) (348, -2.09976362310834163694e+00) (349, -4.73183319596657359085e+00) (350, -1.80296867724970013569e+01) (351, -1.76895042801847957037e+01) (352, -7.31099286321062713512e+00) (353, -1.89463502283023004225e+01) (354, -1.03327133568061512392e+02) (355, -1.26244520041351365736e-01) (356, 2.49362206064619285062e-01) (357, 1.52765702184420093523e-01) (358, 1.18147141213432407825e-01) (359, 1.69068941700668856631e-01) (360, -5.34724715307624207106e-02) (361, -1.87159852069872068014e-01) (362, -2.01933924484240190367e-01) (363, -1.44945860284554250974e-01) (364, -1.51613220947968196928e-01) (365, -1.39466144520031698484e-01) (366, -2.30918288606392518858e-01) (367, -1.13401711362587684362e-01) (368, -2.03165271623868687323e-01) (369, -3.54215976553381606262e-01) (370, -7.35296218919911659384e+00) (371, -1.02157864139714064322e+02) (372, -2.45468799635718085028e+02) (373, -2.45582473453084446646e+02) (374, -1.19236550517323053100e+02) (375, 2.09556714061894105994e-01) (376, 3.88902894102509222307e-01) (377, -4.47981386232555944815e+00) (378, -1.07446494930475935803e+02) (379, -2.48913230150104595850e+02) (380, -2.45984509463871006574e+02) (381, -1.00898881844273574870e+02) (382, -2.46996020624835466606e+02) (383, -1.87732876213788415498e+02) (384, -6.76437225458238811093e-01) (385, -3.31995757199355367995e-01) (386, 5.63375674356786024233e-02) (387, 1.16132141547714978769e-01) (388, 1.15722034001801057229e-02) (389, -2.19856169951217816916e-01) (390, -1.99711237478243486265e-01) (391, -1.40653536099182852048e-01) (392, -1.65681347626434993803e-01) (393, -1.45842299240814932126e-01) (394, -2.29796529191719667296e-01) (395, -8.23858726872139651709e-02) (396, -6.51264524227347513241e-02) (397, 5.58883648149316458742e-02) (398, -8.09674992242604307791e-01) (399, -4.23720159025928850838e+01) (400, -1.02065834227457941097e+02) (401, -4.24852576533398504921e+01) (402, -1.25220502143409601059e-01) (403, 8.40613071280325740986e+00) (404, 3.24561123161097020429e+00) (405, -1.61683471007452927992e+00) (406, -2.31490822197867132104e+01) (407, -4.84744030535067395249e+02) (408, -1.01798717621654304821e+02) (409, -4.71941367055202292136e+01) (410, -2.11054084990081802786e+00) (411, -2.86704635601363699848e+00) (412, -7.11971219829063706186e+00) (413, -3.73175919269460321104e+00) (414, -5.32495169068572415938e-01) (415, 8.98582510879931406489e-02) (416, -7.74638031913306573939e-02) (417, -1.33251366150635042196e-01) (418, -6.43603922250444021591e-02) (419, -1.62497289854275417387e-01) (420, -1.11772865432488197057e-01) (421, -2.15502877163874284605e-01) (422, -2.47347951310860292296e-01) (423, -2.21651353317486421446e-01) (424, 6.75427123439507753888e-02) (425, 5.15075493947565188346e-02) (426, 2.02374077452663947430e-01) (427, -2.25330957608017634630e-01) (428, -1.02056337967913762554e+02) (429, -7.18562799167481358609e+00) (430, 4.86684001441910416008e-02) (431, 1.26779067836982606288e+00) (432, 2.33285503770560831427e+00) (433, -1.14604964492695304834e+00) (434, -4.83285984475774270663e+01) (435, -4.86435187757221115135e+02) (436, -2.10195843691586858881e+01) (437, -2.16729614344386263269e+01) (438, 1.11603257363969965432e+00) (439, 3.22619585151331644823e+00) (440, 1.73895263949757267197e-01) (441, -5.62106481916168979063e-02) (442, 1.46754932552295325188e-01) (443, 8.30003603412089313585e-02) (444, 8.40609172986481328893e-02) (445, -2.21409317982452558127e-01) (446, -9.45844174745256172088e-02) (447, -8.94539956033103128563e-02) (448, -1.13326013463722938268e-01) (449, -1.17610171812760108678e-01) (450, -1.96148414540278093199e-01) (451, -1.62061911952751325217e-01) (452, 1.13272858577268487057e-01) (453, 1.35041764603601871508e-01) (454, 5.49547256082615898087e-01) (455, 3.90580077730376118428e-01) (456, -8.64305275209917289736e-02) (457, 1.33262360668317592083e-01) (458, -7.36852507138530010700e-01) (459, -3.67876749863636298699e+00) (460, -5.10948378297498493339e+01) (461, -8.76817845235774662171e+00) (462, -1.07666144584434618992e+02) (463, -2.45065702366815798996e+02) (464, -1.04474130313981902418e+02) (465, 8.86942866446560351790e+00) (466, 7.63340101848250007777e+00) (467, 3.33820987542058755793e+00) (468, 1.57982092992846334667e+00) (469, 4.73443673964642625096e-02) (470, 1.24074257313648600443e-01) (471, 7.89048459440681304589e-02) (472, 1.05735769422205333479e-01) (473, -2.23520907267572677135e-01) (474, -1.09926131499069407171e-01) (475, -1.01962101590889170355e-01) (476, 