FANN_FLO_2.1
num_layers=3
learning_rate=0.400000
connection_rate=1.000000
network_type=0
learning_momentum=0.000000
training_algorithm=2
train_error_function=1
train_stop_function=0
cascade_output_change_fraction=0.010000
quickprop_decay=-0.000100
quickprop_mu=1.750000
rprop_increase_factor=1.200000
rprop_decrease_factor=0.500000
rprop_delta_min=0.000000
rprop_delta_max=50.000000
rprop_delta_zero=0.100000
cascade_output_stagnation_epochs=12
cascade_candidate_change_fraction=0.010000
cascade_candidate_stagnation_epochs=12
cascade_max_out_epochs=150
cascade_max_cand_epochs=150
cascade_num_candidate_groups=2
bit_fail_limit=3.49999999999999977796e-01
cascade_candidate_limit=1.00000000000000000000e+03
cascade_weight_multiplier=4.00000000000000022204e-01
cascade_activation_functions_count=10
cascade_activation_functions=3 5 7 8 10 11 14 15 16 17 
cascade_activation_steepnesses_count=4
cascade_activation_steepnesses=2.50000000000000000000e-01 5.00000000000000000000e-01 7.50000000000000000000e-01 1.00000000000000000000e+00 
layer_sizes=785 101 2 
scale_included=0
neurons (num_inputs, activation_function, activation_steepness)=(0, 0, 0.00000000000000000000e+00) (0, 0, 0.00000000000000000000e+00) (0, 0, 0.00000000000000000000e+00) (0, 0, 0.00000000000000000000e+00) (0, 0, 0.00000000000000000000e+00) (0, 0, 0.00000000000000000000e+00) (0, 0, 0.00000000000000000000e+00) (0, 0, 0.00000000000000000000e+00) (0, 0, 0.00000000000000000000e+00) (0, 0, 0.00000000000000000000e+00) (0, 0, 0.00000000000000000000e+00) (0, 0, 0.00000000000000000000e+00) (0, 0, 0.00000000000000000000e+00) (0, 0, 0.00000000000000000000e+00) (0, 0, 0.00000000000000000000e+00) (0, 0, 0.00000000000000000000e+00) (0, 0, 0.00000000000000000000e+00) (0, 0, 0.00000000000000000000e+00) (0, 0, 0.00000000000000000000e+00) (0, 0, 0.00000000000000000000e+00) (0, 0, 0.00000000000000000000e+00) (0, 0, 0.00000000000000000000e+00) (0, 0, 0.00000000000000000000e+00) (0, 0, 0.00000000000000000000e+00) (0, 0, 0.00000000000000000000e+00) (0, 0, 0.00000000000000000000e+00) (0, 0, 0.00000000000000000000e+00) (0, 0, 0.00000000000000000000e+00) (0, 0, 0.00000000000000000000e+00) (0, 0, 0.00000000000000000000e+00) (0, 0, 0.00000000000000000000e+00) (0, 0, 0.00000000000000000000e+00) (0, 0, 0.00000000000000000000e+00) (0, 0, 0.00000000000000000000e+00) (0, 0, 0.00000000000000000000e+00) (0, 0, 0.00000000000000000000e+00) (0, 0, 0.00000000000000000000e+00) (0, 0, 0.00000000000000000000e+00) (0, 0, 0.00000000000000000000e+00) (0, 0, 0.00000000000000000000e+00) (0, 0, 0.00000000000000000000e+00) (0, 0, 0.00000000000000000000e+00) (0, 0, 0.00000000000000000000e+00) (0, 0, 0.00000000000000000000e+00) (0, 0, 0.00000000000000000000e+00) (0, 0, 0.00000000000000000000e+00) (0, 0, 0.00000000000000000000e+00) (0, 0, 0.00000000000000000000e+00) (0, 0, 0.00000000000000000000e+00) (0, 0, 0.00000000000000000000e+00) (0, 0, 0.00000000000000000000e+00) (0, 0, 0.00000000000000000000e+00) (0, 0, 0.00000000000000000000e+00) (0, 0, 0.00000000000000000000e+00) (0, 0, 0.00000000000000000000e+00) (0, 0, 0.00000000000000000000e+00) (0, 0, 0.00000000000000000000e+00) (0, 0, 0.00000000000000000000e+00) (0, 0, 0.00000000000000000000e+00) (0, 0, 0.00000000000000000000e+00) (0, 0, 0.00000000000000000000e+00) (0, 0, 0.00000000000000000000e+00) (0, 0, 0.00000000000000000000e+00) (0, 0, 0.00000000000000000000e+00) (0, 0, 0.00000000000000000000e+00) (0, 0, 0.00000000000000000000e+00) (0, 0, 0.00000000000000000000e+00) (0, 0, 0.00000000000000000000e+00) (0, 0, 0.00000000000000000000e+00) (0, 0, 0.00000000000000000000e+00) (0, 0, 0.00000000000000000000e+00) (0, 0, 0.00000000000000000000e+00) (0, 0, 0.00000000000000000000e+00) (0, 0, 0.00000000000000000000e+00) (0, 0, 0.00000000000000000000e+00) (0, 0, 0.00000000000000000000e+00) (0, 0, 0.00000000000000000000e+00) (0, 0, 0.00000000000000000000e+00) (0, 0, 0.00000000000000000000e+00) (0, 0, 0.00000000000000000000e+00) (0, 0, 0.00000000000000000000e+00) (0, 0, 0.00000000000000000000e+00) (0, 0, 0.00000000000000000000e+00) (0, 0, 0.00000000000000000000e+00) (0, 0, 0.00000000000000000000e+00) (0, 0, 0.00000000000000000000e+00) (0, 0, 0.00000000000000000000e+00) (0, 0, 0.00000000000000000000e+00) (0, 0, 0.00000000000000000000e+00) (0, 0, 0.00000000000000000000e+00) (0, 0, 0.00000000000000000000e+00) (0, 0, 0.00000000000000000000e+00) (0, 0, 0.00000000000000000000e+00) (0, 0, 0.00000000000000000000e+00) (0, 0, 0.00000000000000000000e+00) (0, 0, 0.00000000000000000000e+00) (0, 0, 0.00000000000000000000e+00) (0, 0, 0.00000000000000000000e+00) (0, 0, 0.00000000000000000000e+00) (0, 0, 0.00000000000000000000e+00) (0, 0, 0.00000000000000000000e+00) (0, 0, 0.00000000000000000000e+00) (0, 0, 0.00000000000000000000e+00) (0, 0, 0.00000000000000000000e+00) (0, 0, 0.00000000000000000000e+00) (0, 0, 0.00000000000000000000e+00) (0, 0, 0.00000000000000000000e+00) (0, 0, 0.00000000000000000000e+00) (0, 0, 0.00000000000000000000e+00) (0, 0, 0.00000000000000000000e+00) (0, 0, 0.00000000000000000000e+00) (0, 0, 0.00000000000000000000e+00) (0, 0, 0.00000000000000000000e+00) (0, 0, 0.00000000000000000000e+00) (0, 0, 0.00000000000000000000e+00) (0, 0, 0.00000000000000000000e+00) (0, 0, 0.00000000000000000000e+00) (0, 0, 0.00000000000000000000e+00) (0, 0, 0.00000000000000000000e+00) (0, 0, 0.00000000000000000000e+00) (0, 0, 0.00000000000000000000e+00) (0, 0, 0.00000000000000000000e+00) (0, 0, 0.00000000000000000000e+00) (0, 0, 0.00000000000000000000e+00) (0, 0, 0.00000000000000000000e+00) (0, 0, 0.00000000000000000000e+00) (0, 0, 0.00000000000000000000e+00) (0, 0, 0.00000000000000000000e+00) (0, 0, 0.00000000000000000000e+00) (0, 0, 0.00000000000000000000e+00) (0, 0, 0.00000000000000000000e+00) (0, 0, 0.00000000000000000000e+00) (0, 0, 0.00000000000000000000e+00) (0, 0, 0.00000000000000000000e+00) (0, 0, 0.00000000000000000000e+00) (0, 0, 0.00000000000000000000e+00) (0, 0, 0.00000000000000000000e+00) (0, 0, 0.00000000000000000000e+00) (0, 0, 0.00000000000000000000e+00) (0, 0, 0.00000000000000000000e+00) (0, 0, 0.00000000000000000000e+00) (0, 0, 0.00000000000000000000e+00) (0, 0, 0.00000000000000000000e+00) (0, 0, 0.00000000000000000000e+00) (0, 0, 0.00000000000000000000e+00) (0, 0, 0.00000000000000000000e+00) (0, 0, 0.00000000000000000000e+00) (0, 0, 0.00000000000000000000e+00) (0, 0, 0.00000000000000000000e+00) (0, 0, 0.00000000000000000000e+00) (0, 0, 0.00000000000000000000e+00) (0, 0, 0.00000000000000000000e+00) (0, 0, 0.00000000000000000000e+00) (0, 0, 0.00000000000000000000e+00) (0, 0, 0.00000000000000000000e+00) (0, 0, 0.00000000000000000000e+00) (0, 0, 0.00000000000000000000e+00) (0, 0, 0.00000000000000000000e+00) (0, 0, 0.00000000000000000000e+00) (0, 0, 0.00000000000000000000e+00) (0, 0, 0.00000000000000000000e+00) (0, 0, 0.00000000000000000000e+00) (0, 0, 0.00000000000000000000e+00) (0, 0, 0.00000000000000000000e+00) (0, 0, 0.00000000000000000000e+00) (0, 0, 0.00000000000000000000e+00) (0, 0, 0.00000000000000000000e+00) (0, 0, 0.00000000000000000000e+00) (0, 0, 0.00000000000000000000e+00) (0, 0, 0.00000000000000000000e+00) (0, 0, 0.00000000000000000000e+00) (0, 0, 0.00000000000000000000e+00) (0, 0, 0.00000000000000000000e+00) (0, 0, 0.00000000000000000000e+00) (0, 0, 0.00000000000000000000e+00) (0, 0, 0.00000000000000000000e+00) (0, 0, 0.00000000000000000000e+00) (0, 0, 0.00000000000000000000e+00) (0, 0, 0.00000000000000000000e+00) (0, 0, 0.00000000000000000000e+00) (0, 0, 0.00000000000000000000e+00) (0, 0, 0.00000000000000000000e+00) (0, 0, 0.00000000000000000000e+00) (0, 0, 0.00000000000000000000e+00) (0, 0, 0.00000000000000000000e+00) (0, 0, 0.00000000000000000000e+00) (0, 0, 0.00000000000000000000e+00) (0, 0, 0.00000000000000000000e+00) (0, 0, 0.00000000000000000000e+00) (0, 0, 0.00000000000000000000e+00) (0, 0, 0.00000000000000000000e+00) (0, 0, 0.00000000000000000000e+00) (0, 0, 0.00000000000000000000e+00) (0, 0, 0.00000000000000000000e+00) (0, 0, 0.00000000000000000000e+00) (0, 0, 0.00000000000000000000e+00) (0, 0, 0.00000000000000000000e+00) (0, 0, 0.00000000000000000000e+00) (0, 0, 0.00000000000000000000e+00) (0, 0, 0.00000000000000000000e+00) (0, 0, 0.00000000000000000000e+00) (0, 0, 0.00000000000000000000e+00) (0, 0, 0.00000000000000000000e+00) (0, 0, 0.00000000000000000000e+00) (0, 0, 0.00000000000000000000e+00) (0, 0, 0.00000000000000000000e+00) (0, 0, 0.00000000000000000000e+00) (0, 0, 0.00000000000000000000e+00) (0, 0, 0.00000000000000000000e+00) (0, 0, 0.00000000000000000000e+00) (0, 0, 0.00000000000000000000e+00) (0, 0, 0.00000000000000000000e+00) (0, 0, 0.00000000000000000000e+00) (0, 0, 0.00000000000000000000e+00) (0, 0, 0.00000000000000000000e+00) (0, 0, 0.00000000000000000000e+00) (0, 0, 0.00000000000000000000e+00) (0, 0, 0.00000000000000000000e+00) (0, 0, 0.00000000000000000000e+00) (0, 0, 0.00000000000000000000e+00) (0, 0, 0.00000000000000000000e+00) (0, 0, 0.00000000000000000000e+00) (0, 0, 0.00000000000000000000e+00) (0, 0, 0.00000000000000000000e+00) (0, 0, 0.00000000000000000000e+00) (0, 0, 0.00000000000000000000e+00) (0, 0, 0.00000000000000000000e+00) (0, 0, 0.00000000000000000000e+00) (0, 0, 0.00000000000000000000e+00) (0, 0, 0.00000000000000000000e+00) (0, 0, 0.00000000000000000000e+00) (0, 0, 0.00000000000000000000e+00) (0, 0, 0.00000000000000000000e+00) (0, 0, 0.00000000000000000000e+00) (0, 0, 0.00000000000000000000e+00) (0, 0, 0.00000000000000000000e+00) (0, 0, 0.00000000000000000000e+00) (0, 0, 0.00000000000000000000e+00) (0, 0, 0.00000000000000000000e+00) (0, 0, 0.00000000000000000000e+00) (0, 0, 0.00000000000000000000e+00) (0, 0, 0.00000000000000000000e+00) (0, 0, 0.00000000000000000000e+00) (0, 0, 0.00000000000000000000e+00) (0, 0, 0.00000000000000000000e+00) (0, 0, 0.00000000000000000000e+00) (0, 0, 0.00000000000000000000e+00) (0, 0, 0.00000000000000000000e+00) (0, 0, 0.00000000000000000000e+00) (0, 0, 0.00000000000000000000e+00) (0, 0, 0.00000000000000000000e+00) (0, 0, 0.00000000000000000000e+00) (0, 0, 0.00000000000000000000e+00) (0, 0, 0.00000000000000000000e+00) (0, 0, 0.00000000000000000000e+00) (0, 0, 0.00000000000000000000e+00) (0, 0, 0.00000000000000000000e+00) (0, 0, 0.00000000000000000000e+00) (0, 0, 0.00000000000000000000e+00) (0, 0, 0.00000000000000000000e+00) (0, 0, 0.00000000000000000000e+00) (0, 0, 0.00000000000000000000e+00) (0, 0, 0.00000000000000000000e+00) (0, 0, 0.00000000000000000000e+00) (0, 0, 0.00000000000000000000e+00) (0, 0, 0.00000000000000000000e+00) (0, 0, 0.00000000000000000000e+00) (0, 0, 0.00000000000000000000e+00) (0, 0, 0.00000000000000000000e+00) (0, 0, 0.00000000000000000000e+00) (0, 0, 0.00000000000000000000e+00) (0, 0, 0.00000000000000000000e+00) (0, 0, 0.00000000000000000000e+00) (0, 0, 0.00000000000000000000e+00) (0, 0, 0.00000000000000000000e+00) (0, 0, 0.00000000000000000000e+00) (0, 0, 0.00000000000000000000e+00) (0, 0, 0.00000000000000000000e+00) (0, 0, 0.00000000000000000000e+00) (0, 0, 0.00000000000000000000e+00) (0, 0, 0.00000000000000000000e+00) (0, 0, 0.00000000000000000000e+00) (0, 0, 0.00000000000000000000e+00) (0, 0, 0.00000000000000000000e+00) (0, 0, 0.00000000000000000000e+00) (0, 0, 0.00000000000000000000e+00) (0, 0, 0.00000000000000000000e+00) (0, 0, 0.00000000000000000000e+00) (0, 0, 0.00000000000000000000e+00) (0, 0, 0.00000000000000000000e+00) (0, 0, 0.00000000000000000000e+00) (0, 0, 0.00000000000000000000e+00) (0, 0, 0.00000000000000000000e+00) (0, 0, 0.00000000000000000000e+00) (0, 0, 0.00000000000000000000e+00) (0, 0, 0.00000000000000000000e+00) (0, 0, 0.00000000000000000000e+00) (0, 0, 0.00000000000000000000e+00) (0, 0, 0.00000000000000000000e+00) (0, 0, 0.00000000000000000000e+00) (0, 0, 0.00000000000000000000e+00) (0, 0, 0.00000000000000000000e+00) (0, 0, 0.00000000000000000000e+00) (0, 0, 0.00000000000000000000e+00) (0, 0, 0.00000000000000000000e+00) (0, 0, 0.00000000000000000000e+00) (0, 0, 0.00000000000000000000e+00) (0, 0, 0.00000000000000000000e+00) (0, 0, 0.00000000000000000000e+00) (0, 0, 0.00000000000000000000e+00) (0, 0, 0.00000000000000000000e+00) (0, 0, 0.00000000000000000000e+00) (0, 0, 0.00000000000000000000e+00) (0, 0, 0.00000000000000000000e+00) (0, 0, 0.00000000000000000000e+00) (0, 0, 0.00000000000000000000e+00) (0, 0, 0.00000000000000000000e+00) (0, 0, 0.00000000000000000000e+00) (0, 0, 0.00000000000000000000e+00) (0, 0, 0.00000000000000000000e+00) (0, 0, 0.00000000000000000000e+00) (0, 0, 0.00000000000000000000e+00) (0, 0, 0.00000000000000000000e+00) (0, 0, 0.00000000000000000000e+00) (0, 0, 0.00000000000000000000e+00) (0, 0, 0.00000000000000000000e+00) (0, 0, 0.00000000000000000000e+00) (0, 0, 0.00000000000000000000e+00) (0, 0, 0.00000000000000000000e+00) (0, 0, 0.00000000000000000000e+00) (0, 0, 0.00000000000000000000e+00) (0, 0, 0.00000000000000000000e+00) (0, 0, 0.00000000000000000000e+00) (0, 0, 0.00000000000000000000e+00) (0, 0, 0.00000000000000000000e+00) (0, 0, 0.00000000000000000000e+00) (0, 0, 0.00000000000000000000e+00) (0, 0, 0.00000000000000000000e+00) (0, 0, 0.00000000000000000000e+00) (0, 0, 0.00000000000000000000e+00) (0, 0, 0.00000000000000000000e+00) (0, 0, 0.00000000000000000000e+00) (0, 0, 0.00000000000000000000e+00) (0, 0, 0.00000000000000000000e+00) (0, 0, 0.00000000000000000000e+00) (0, 0, 0.00000000000000000000e+00) (0, 0, 0.00000000000000000000e+00) (0, 0, 0.00000000000000000000e+00) (0, 0, 0.00000000000000000000e+00) (0, 0, 0.00000000000000000000e+00) (0, 0, 0.00000000000000000000e+00) (0, 0, 0.00000000000000000000e+00) (0, 0, 0.00000000000000000000e+00) (0, 0, 0.00000000000000000000e+00) (0, 0, 0.00000000000000000000e+00) (0, 0, 0.00000000000000000000e+00) (0, 0, 0.00000000000000000000e+00) (0, 0, 0.00000000000000000000e+00) (0, 0, 0.00000000000000000000e+00) (0, 0, 0.00000000000000000000e+00) (0, 0, 0.00000000000000000000e+00) (0, 0, 0.00000000000000000000e+00) (0, 0, 0.00000000000000000000e+00) (0, 0, 0.00000000000000000000e+00) (0, 0, 0.00000000000000000000e+00) (0, 0, 0.00000000000000000000e+00) (0, 0, 0.00000000000000000000e+00) (0, 0, 0.00000000000000000000e+00) (0, 0, 0.00000000000000000000e+00) (0, 0, 0.00000000000000000000e+00) (0, 0, 0.00000000000000000000e+00) (0, 0, 0.00000000000000000000e+00) (0, 0, 0.00000000000000000000e+00) (0, 0, 0.00000000000000000000e+00) (0, 0, 0.00000000000000000000e+00) (0, 0, 0.00000000000000000000e+00) (0, 0, 0.00000000000000000000e+00) (0, 0, 0.00000000000000000000e+00) (0, 0, 0.00000000000000000000e+00) (0, 0, 0.00000000000000000000e+00) (0, 0, 0.00000000000000000000e+00) (0, 0, 0.00000000000000000000e+00) (0, 0, 0.00000000000000000000e+00) (0, 0, 0.00000000000000000000e+00) (0, 0, 0.00000000000000000000e+00) (0, 0, 0.00000000000000000000e+00) (0, 0, 0.00000000000000000000e+00) (0, 0, 0.00000000000000000000e+00) (0, 0, 0.00000000000000000000e+00) (0, 0, 0.00000000000000000000e+00) (0, 0, 0.00000000000000000000e+00) (0, 0, 0.00000000000000000000e+00) (0, 0, 0.00000000000000000000e+00) (0, 0, 0.00000000000000000000e+00) (0, 0, 0.00000000000000000000e+00) (0, 0, 0.00000000000000000000e+00) (0, 0, 0.00000000000000000000e+00) (0, 0, 0.00000000000000000000e+00) (0, 0, 0.00000000000000000000e+00) (0, 0, 0.00000000000000000000e+00) (0, 0, 0.00000000000000000000e+00) (0, 0, 0.00000000000000000000e+00) (0, 0, 0.00000000000000000000e+00) (0, 0, 0.00000000000000000000e+00) (0, 0, 0.00000000000000000000e+00) (0, 0, 0.00000000000000000000e+00) (0, 0, 0.00000000000000000000e+00) (0, 0, 0.00000000000000000000e+00) (0, 0, 0.00000000000000000000e+00) (0, 0, 0.00000000000000000000e+00) (0, 0, 0.00000000000000000000e+00) (0, 0, 0.00000000000000000000e+00) (0, 0, 0.00000000000000000000e+00) (0, 0, 0.00000000000000000000e+00) (0, 0, 0.00000000000000000000e+00) (0, 0, 0.00000000000000000000e+00) (0, 0, 0.00000000000000000000e+00) (0, 0, 0.00000000000000000000e+00) (0, 0, 0.00000000000000000000e+00) (0, 0, 0.00000000000000000000e+00) (0, 0, 0.00000000000000000000e+00) (0, 0, 0.00000000000000000000e+00) (0, 0, 0.00000000000000000000e+00) (0, 0, 0.00000000000000000000e+00) (0, 0, 0.00000000000000000000e+00) (0, 0, 0.00000000000000000000e+00) (0, 0, 0.00000000000000000000e+00) (0, 0, 0.00000000000000000000e+00) (0, 0, 0.00000000000000000000e+00) (0, 0, 0.00000000000000000000e+00) (0, 0, 0.00000000000000000000e+00) (0, 0, 0.00000000000000000000e+00) (0, 0, 0.00000000000000000000e+00) (0, 0, 0.00000000000000000000e+00) (0, 0, 0.00000000000000000000e+00) (0, 0, 0.00000000000000000000e+00) (0, 0, 0.00000000000000000000e+00) (0, 0, 0.00000000000000000000e+00) (0, 0, 0.00000000000000000000e+00) (0, 0, 0.00000000000000000000e+00) (0, 0, 0.00000000000000000000e+00) (0, 0, 0.00000000000000000000e+00) (0, 0, 0.00000000000000000000e+00) (0, 0, 0.00000000000000000000e+00) (0, 0, 0.00000000000000000000e+00) (0, 0, 0.00000000000000000000e+00) (0, 0, 0.00000000000000000000e+00) (0, 0, 0.00000000000000000000e+00) (0, 0, 0.00000000000000000000e+00) (0, 0, 0.00000000000000000000e+00) (0, 0, 0.00000000000000000000e+00) (0, 0, 0.00000000000000000000e+00) (0, 0, 0.00000000000000000000e+00) (0, 0, 0.00000000000000000000e+00) (0, 0, 0.00000000000000000000e+00) (0, 0, 0.00000000000000000000e+00) (0, 0, 0.00000000000000000000e+00) (0, 0, 0.00000000000000000000e+00) (0, 0, 0.00000000000000000000e+00) (0, 0, 0.00000000000000000000e+00) (0, 0, 0.00000000000000000000e+00) (0, 0, 0.00000000000000000000e+00) (0, 0, 0.00000000000000000000e+00) (0, 0, 0.00000000000000000000e+00) (0, 0, 0.00000000000000000000e+00) (0, 0, 0.00000000000000000000e+00) (0, 0, 0.00000000000000000000e+00) (0, 0, 0.00000000000000000000e+00) (0, 0, 0.00000000000000000000e+00) (0, 0, 0.00000000000000000000e+00) (0, 0, 0.00000000000000000000e+00) (0, 0, 0.00000000000000000000e+00) (0, 0, 0.00000000000000000000e+00) (0, 0, 0.00000000000000000000e+00) (0, 0, 0.00000000000000000000e+00) (0, 0, 0.00000000000000000000e+00) (0, 0, 0.00000000000000000000e+00) (0, 0, 0.00000000000000000000e+00) (0, 0, 0.00000000000000000000e+00) (0, 0, 0.00000000000000000000e+00) (0, 0, 0.00000000000000000000e+00) (0, 0, 0.00000000000000000000e+00) (0, 0, 0.00000000000000000000e+00) (0, 0, 0.00000000000000000000e+00) (0, 0, 0.00000000000000000000e+00) (0, 0, 0.00000000000000000000e+00) (0, 0, 0.00000000000000000000e+00) (0, 0, 0.00000000000000000000e+00) (0, 0, 0.00000000000000000000e+00) (0, 0, 0.00000000000000000000e+00) (0, 0, 0.00000000000000000000e+00) (0, 0, 0.00000000000000000000e+00) (0, 0, 0.00000000000000000000e+00) (0, 0, 0.00000000000000000000e+00) (0, 0, 0.00000000000000000000e+00) (0, 0, 0.00000000000000000000e+00) (0, 0, 0.00000000000000000000e+00) (0, 0, 0.00000000000000000000e+00) (0, 0, 0.00000000000000000000e+00) (0, 0, 0.00000000000000000000e+00) (0, 0, 0.00000000000000000000e+00) (0, 0, 0.00000000000000000000e+00) (0, 0, 0.00000000000000000000e+00) (0, 0, 0.00000000000000000000e+00) (0, 0, 0.00000000000000000000e+00) (0, 0, 0.00000000000000000000e+00) (0, 0, 0.00000000000000000000e+00) (0, 0, 0.00000000000000000000e+00) (0, 0, 0.00000000000000000000e+00) (0, 0, 0.00000000000000000000e+00) (0, 0, 0.00000000000000000000e+00) (0, 0, 0.00000000000000000000e+00) (0, 0, 0.00000000000000000000e+00) (0, 0, 0.00000000000000000000e+00) (0, 0, 0.00000000000000000000e+00) (0, 0, 0.00000000000000000000e+00) (0, 0, 0.00000000000000000000e+00) (0, 0, 0.00000000000000000000e+00) (0, 0, 0.00000000000000000000e+00) (0, 0, 0.00000000000000000000e+00) (0, 0, 0.00000000000000000000e+00) (0, 0, 0.00000000000000000000e+00) (0, 0, 0.00000000000000000000e+00) (0, 0, 0.00000000000000000000e+00) (0, 0, 0.00000000000000000000e+00) (0, 0, 0.00000000000000000000e+00) (0, 0, 0.00000000000000000000e+00) (0, 0, 0.00000000000000000000e+00) (0, 0, 0.00000000000000000000e+00) (0, 0, 0.00000000000000000000e+00) (0, 0, 0.00000000000000000000e+00) (0, 0, 0.00000000000000000000e+00) (0, 0, 0.00000000000000000000e+00) (0, 0, 0.00000000000000000000e+00) (0, 0, 0.00000000000000000000e+00) (0, 0, 0.00000000000000000000e+00) (0, 0, 0.00000000000000000000e+00) (0, 0, 0.00000000000000000000e+00) (0, 0, 0.00000000000000000000e+00) (0, 0, 0.00000000000000000000e+00) (0, 0, 0.00000000000000000000e+00) (0, 0, 0.00000000000000000000e+00) (0, 0, 0.00000000000000000000e+00) (0, 0, 0.00000000000000000000e+00) (0, 0, 0.00000000000000000000e+00) (0, 0, 0.00000000000000000000e+00) (0, 0, 0.00000000000000000000e+00) (0, 0, 0.00000000000000000000e+00) (0, 0, 0.00000000000000000000e+00) (0, 0, 0.00000000000000000000e+00) (0, 0, 0.00000000000000000000e+00) (0, 0, 0.00000000000000000000e+00) (0, 0, 0.00000000000000000000e+00) (0, 0, 0.00000000000000000000e+00) (0, 0, 0.00000000000000000000e+00) (0, 0, 0.00000000000000000000e+00) (0, 0, 0.00000000000000000000e+00) (0, 0, 0.00000000000000000000e+00) (0, 0, 0.00000000000000000000e+00) (0, 0, 0.00000000000000000000e+00) (0, 0, 0.00000000000000000000e+00) (0, 0, 0.00000000000000000000e+00) (0, 0, 0.00000000000000000000e+00) (0, 0, 0.00000000000000000000e+00) (0, 0, 0.00000000000000000000e+00) (0, 0, 0.00000000000000000000e+00) (0, 0, 0.00000000000000000000e+00) (0, 0, 0.00000000000000000000e+00) (0, 0, 0.00000000000000000000e+00) (0, 0, 0.00000000000000000000e+00) (0, 0, 0.00000000000000000000e+00) (0, 0, 0.00000000000000000000e+00) (0, 0, 0.00000000000000000000e+00) (0, 0, 0.00000000000000000000e+00) (0, 0, 0.00000000000000000000e+00) (0, 0, 0.00000000000000000000e+00) (0, 0, 0.00000000000000000000e+00) (0, 0, 0.00000000000000000000e+00) (0, 0, 0.00000000000000000000e+00) (0, 0, 0.00000000000000000000e+00) (0, 0, 0.00000000000000000000e+00) (0, 0, 0.00000000000000000000e+00) (0, 0, 0.00000000000000000000e+00) (0, 0, 0.00000000000000000000e+00) (0, 0, 0.00000000000000000000e+00) (0, 0, 0.00000000000000000000e+00) (0, 0, 0.00000000000000000000e+00) (0, 0, 0.00000000000000000000e+00) (0, 0, 0.00000000000000000000e+00) (0, 0, 0.00000000000000000000e+00) (0, 0, 0.00000000000000000000e+00) (0, 0, 0.00000000000000000000e+00) (0, 0, 0.00000000000000000000e+00) (0, 0, 0.00000000000000000000e+00) (0, 0, 0.00000000000000000000e+00) (0, 0, 0.00000000000000000000e+00) (0, 0, 0.00000000000000000000e+00) (0, 0, 0.00000000000000000000e+00) (0, 0, 0.00000000000000000000e+00) (0, 0, 0.00000000000000000000e+00) (0, 0, 0.00000000000000000000e+00) (0, 0, 0.00000000000000000000e+00) (0, 0, 0.00000000000000000000e+00) (0, 0, 0.00000000000000000000e+00) (0, 0, 0.00000000000000000000e+00) (0, 0, 0.00000000000000000000e+00) (0, 0, 0.00000000000000000000e+00) (0, 0, 0.00000000000000000000e+00) (0, 0, 0.00000000000000000000e+00) (0, 0, 0.00000000000000000000e+00) (0, 0, 0.00000000000000000000e+00) (0, 0, 0.00000000000000000000e+00) (0, 0, 0.00000000000000000000e+00) (0, 0, 0.00000000000000000000e+00) (0, 0, 0.00000000000000000000e+00) (0, 0, 0.00000000000000000000e+00) (0, 0, 0.00000000000000000000e+00) (0, 0, 0.00000000000000000000e+00) (0, 0, 0.00000000000000000000e+00) (0, 0, 0.00000000000000000000e+00) (0, 0, 0.00000000000000000000e+00) (0, 0, 0.00000000000000000000e+00) (0, 0, 0.00000000000000000000e+00) (0, 0, 0.00000000000000000000e+00) (0, 0, 0.00000000000000000000e+00) (0, 0, 0.00000000000000000000e+00) (0, 0, 0.00000000000000000000e+00) (0, 0, 0.00000000000000000000e+00) (0, 0, 0.00000000000000000000e+00) (0, 0, 0.00000000000000000000e+00) (0, 0, 0.00000000000000000000e+00) (0, 0, 0.00000000000000000000e+00) (0, 0, 0.00000000000000000000e+00) (0, 0, 0.00000000000000000000e+00) (0, 0, 0.00000000000000000000e+00) (0, 0, 0.00000000000000000000e+00) (0, 0, 0.00000000000000000000e+00) (0, 0, 0.00000000000000000000e+00) (0, 0, 0.00000000000000000000e+00) (0, 0, 0.00000000000000000000e+00) (0, 0, 0.00000000000000000000e+00) (0, 0, 0.00000000000000000000e+00) (0, 0, 0.00000000000000000000e+00) (0, 0, 0.00000000000000000000e+00) (0, 0, 0.00000000000000000000e+00) (0, 0, 0.00000000000000000000e+00) (0, 0, 0.00000000000000000000e+00) (0, 0, 0.00000000000000000000e+00) (0, 0, 0.00000000000000000000e+00) (0, 0, 0.00000000000000000000e+00) (0, 0, 0.00000000000000000000e+00) (0, 0, 0.00000000000000000000e+00) (0, 0, 0.00000000000000000000e+00) (0, 0, 0.00000000000000000000e+00) (0, 0, 0.00000000000000000000e+00) (0, 0, 0.00000000000000000000e+00) (0, 0, 0.00000000000000000000e+00) (0, 0, 0.00000000000000000000e+00) (0, 0, 0.00000000000000000000e+00) (0, 0, 0.00000000000000000000e+00) (0, 0, 0.00000000000000000000e+00) (0, 0, 0.00000000000000000000e+00) (0, 0, 0.00000000000000000000e+00) (0, 0, 0.00000000000000000000e+00) (0, 0, 0.00000000000000000000e+00) (0, 0, 0.00000000000000000000e+00) (0, 0, 0.00000000000000000000e+00) (0, 0, 0.00000000000000000000e+00) (0, 0, 0.00000000000000000000e+00) (0, 0, 0.00000000000000000000e+00) (0, 0, 0.00000000000000000000e+00) (0, 0, 0.00000000000000000000e+00) (0, 0, 0.00000000000000000000e+00) (0, 0, 0.00000000000000000000e+00) (0, 0, 0.00000000000000000000e+00) (0, 0, 0.00000000000000000000e+00) (0, 0, 0.00000000000000000000e+00) (0, 0, 0.00000000000000000000e+00) (0, 0, 0.00000000000000000000e+00) (0, 0, 0.00000000000000000000e+00) (0, 0, 0.00000000000000000000e+00) (0, 0, 0.00000000000000000000e+00) (0, 0, 0.00000000000000000000e+00) (0, 0, 0.00000000000000000000e+00) (0, 0, 0.00000000000000000000e+00) (0, 0, 0.00000000000000000000e+00) (0, 0, 0.00000000000000000000e+00) (0, 0, 0.00000000000000000000e+00) (0, 0, 0.00000000000000000000e+00) (0, 0, 0.00000000000000000000e+00) (0, 0, 0.00000000000000000000e+00) (0, 0, 0.00000000000000000000e+00) (0, 0, 0.00000000000000000000e+00) (0, 0, 0.00000000000000000000e+00) (0, 0, 0.00000000000000000000e+00) (0, 0, 0.00000000000000000000e+00) (0, 0, 0.00000000000000000000e+00) (0, 0, 0.00000000000000000000e+00) (0, 0, 0.00000000000000000000e+00) (0, 0, 0.00000000000000000000e+00) (0, 0, 0.00000000000000000000e+00) (0, 0, 0.00000000000000000000e+00) (0, 0, 0.00000000000000000000e+00) (0, 0, 0.00000000000000000000e+00) (0, 0, 0.00000000000000000000e+00) (0, 0, 0.00000000000000000000e+00) (0, 0, 0.00000000000000000000e+00) (0, 0, 0.00000000000000000000e+00) (0, 0, 0.00000000000000000000e+00) (0, 0, 0.00000000000000000000e+00) (0, 0, 0.00000000000000000000e+00) (0, 0, 0.00000000000000000000e+00) (0, 0, 0.00000000000000000000e+00) (0, 0, 0.00000000000000000000e+00) (0, 0, 0.00000000000000000000e+00) (0, 0, 0.00000000000000000000e+00) (0, 0, 0.00000000000000000000e+00) (0, 0, 0.00000000000000000000e+00) (0, 0, 0.00000000000000000000e+00) (0, 0, 0.00000000000000000000e+00) (0, 0, 0.00000000000000000000e+00) (0, 0, 0.00000000000000000000e+00) (0, 0, 0.00000000000000000000e+00) (0, 0, 0.00000000000000000000e+00) (0, 0, 0.00000000000000000000e+00) (0, 0, 0.00000000000000000000e+00) (0, 0, 0.00000000000000000000e+00) (0, 0, 0.00000000000000000000e+00) (0, 0, 0.00000000000000000000e+00) (0, 0, 0.00000000000000000000e+00) (0, 0, 0.00000000000000000000e+00) (0, 0, 0.00000000000000000000e+00) (0, 0, 0.00000000000000000000e+00) (0, 0, 0.00000000000000000000e+00) (0, 0, 0.00000000000000000000e+00) (0, 0, 0.00000000000000000000e+00) (0, 0, 0.00000000000000000000e+00) (0, 0, 0.00000000000000000000e+00) (0, 0, 0.00000000000000000000e+00) (0, 0, 0.00000000000000000000e+00) (0, 0, 0.00000000000000000000e+00) (0, 0, 0.00000000000000000000e+00) (0, 0, 0.00000000000000000000e+00) (0, 0, 0.00000000000000000000e+00) (0, 0, 0.00000000000000000000e+00) (0, 0, 0.00000000000000000000e+00) (0, 0, 0.00000000000000000000e+00) (0, 0, 0.00000000000000000000e+00) (0, 0, 0.00000000000000000000e+00) (0, 0, 0.00000000000000000000e+00) (0, 0, 0.00000000000000000000e+00) (0, 0, 0.00000000000000000000e+00) (0, 0, 0.00000000000000000000e+00) (0, 0, 0.00000000000000000000e+00) (0, 0, 0.00000000000000000000e+00) (0, 0, 0.00000000000000000000e+00) (0, 0, 0.00000000000000000000e+00) (0, 0, 0.00000000000000000000e+00) (0, 0, 0.00000000000000000000e+00) (0, 0, 0.00000000000000000000e+00) (0, 0, 0.00000000000000000000e+00) (0, 0, 0.00000000000000000000e+00) (0, 0, 0.00000000000000000000e+00) (0, 0, 0.00000000000000000000e+00) (0, 0, 0.00000000000000000000e+00) (0, 0, 0.00000000000000000000e+00) (0, 0, 0.00000000000000000000e+00) (0, 0, 0.00000000000000000000e+00) (0, 0, 0.00000000000000000000e+00) (0, 0, 0.00000000000000000000e+00) (0, 0, 0.00000000000000000000e+00) (0, 0, 0.00000000000000000000e+00) (0, 0, 0.00000000000000000000e+00) (0, 0, 0.00000000000000000000e+00) (0, 0, 0.00000000000000000000e+00) (0, 0, 0.00000000000000000000e+00) (0, 0, 0.00000000000000000000e+00) (0, 0, 0.00000000000000000000e+00) (0, 0, 0.00000000000000000000e+00) (0, 0, 0.00000000000000000000e+00) (0, 0, 0.00000000000000000000e+00) (0, 0, 0.00000000000000000000e+00) (0, 0, 0.00000000000000000000e+00) (0, 0, 0.00000000000000000000e+00) (0, 0, 0.00000000000000000000e+00) (785, 4, 5.00000000000000000000e-01) (785, 4, 5.00000000000000000000e-01) (785, 4, 5.00000000000000000000e-01) (785, 4, 5.00000000000000000000e-01) (785, 4, 5.00000000000000000000e-01) (785, 4, 5.00000000000000000000e-01) (785, 4, 5.00000000000000000000e-01) (785, 4, 5.00000000000000000000e-01) (785, 4, 5.00000000000000000000e-01) (785, 4, 5.00000000000000000000e-01) (785, 4, 5.00000000000000000000e-01) (785, 4, 5.00000000000000000000e-01) (785, 4, 5.00000000000000000000e-01) (785, 4, 5.00000000000000000000e-01) (785, 4, 5.00000000000000000000e-01) (785, 4, 5.00000000000000000000e-01) (785, 4, 5.00000000000000000000e-01) (785, 4, 5.00000000000000000000e-01) (785, 4, 5.00000000000000000000e-01) (785, 4, 5.00000000000000000000e-01) (785, 4, 5.00000000000000000000e-01) (785, 4, 5.00000000000000000000e-01) (785, 4, 5.00000000000000000000e-01) (785, 4, 5.00000000000000000000e-01) (785, 4, 5.00000000000000000000e-01) (785, 4, 5.00000000000000000000e-01) (785, 4, 5.00000000000000000000e-01) (785, 4, 5.00000000000000000000e-01) (785, 4, 5.00000000000000000000e-01) (785, 4, 5.00000000000000000000e-01) (785, 4, 5.00000000000000000000e-01) (785, 4, 5.00000000000000000000e-01) (785, 4, 5.00000000000000000000e-01) (785, 4, 5.00000000000000000000e-01) (785, 4, 5.00000000000000000000e-01) (785, 4, 5.00000000000000000000e-01) (785, 4, 5.00000000000000000000e-01) (785, 4, 5.00000000000000000000e-01) (785, 4, 5.00000000000000000000e-01) (785, 4, 5.00000000000000000000e-01) (785, 4, 5.00000000000000000000e-01) (785, 4, 5.00000000000000000000e-01) (785, 4, 5.00000000000000000000e-01) (785, 4, 5.00000000000000000000e-01) (785, 4, 5.00000000000000000000e-01) (785, 4, 5.00000000000000000000e-01) (785, 4, 5.00000000000000000000e-01) (785, 4, 5.00000000000000000000e-01) (785, 4, 5.00000000000000000000e-01) (785, 4, 5.00000000000000000000e-01) (785, 4, 5.00000000000000000000e-01) (785, 4, 5.00000000000000000000e-01) (785, 4, 5.00000000000000000000e-01) (785, 4, 5.00000000000000000000e-01) (785, 4, 5.00000000000000000000e-01) (785, 4, 5.00000000000000000000e-01) (785, 4, 5.00000000000000000000e-01) (785, 4, 5.00000000000000000000e-01) (785, 4, 5.00000000000000000000e-01) (785, 4, 5.00000000000000000000e-01) (785, 4, 5.00000000000000000000e-01) (785, 4, 5.00000000000000000000e-01) (785, 4, 5.00000000000000000000e-01) (785, 4, 5.00000000000000000000e-01) (785, 4, 5.00000000000000000000e-01) (785, 4, 5.00000000000000000000e-01) (785, 4, 5.00000000000000000000e-01) (785, 4, 5.00000000000000000000e-01) (785, 4, 5.00000000000000000000e-01) (785, 4, 5.00000000000000000000e-01) (785, 4, 5.00000000000000000000e-01) (785, 4, 5.00000000000000000000e-01) (785, 4, 5.00000000000000000000e-01) (785, 4, 5.00000000000000000000e-01) (785, 4, 5.00000000000000000000e-01) (785, 4, 5.00000000000000000000e-01) (785, 4, 5.00000000000000000000e-01) (785, 4, 5.00000000000000000000e-01) (785, 4, 5.00000000000000000000e-01) (785, 4, 5.00000000000000000000e-01) (785, 4, 5.00000000000000000000e-01) (785, 4, 5.00000000000000000000e-01) (785, 4, 5.00000000000000000000e-01) (785, 4, 5.00000000000000000000e-01) (785, 4, 5.00000000000000000000e-01) (785, 4, 5.00000000000000000000e-01) (785, 4, 5.00000000000000000000e-01) (785, 4, 5.00000000000000000000e-01) (785, 4, 5.00000000000000000000e-01) (785, 4, 5.00000000000000000000e-01) (785, 4, 5.00000000000000000000e-01) (785, 4, 5.00000000000000000000e-01) (785, 4, 5.00000000000000000000e-01) (785, 4, 5.00000000000000000000e-01) (785, 4, 5.00000000000000000000e-01) (785, 4, 5.00000000000000000000e-01) (785, 4, 5.00000000000000000000e-01) (785, 4, 5.00000000000000000000e-01) (785, 4, 5.00000000000000000000e-01) (785, 4, 5.00000000000000000000e-01) (0, 0, 0.00000000000000000000e+00) (101, 5, 5.00000000000000000000e-01) (0, 5, 0.00000000000000000000e+00) 
connections (connected_to_neuron, weight)=(0, 7.63974020810871623510e-01) (1, 7.44593093724995158667e-01) (2, 7.65613044234066508764e-01) (3, 7.88976455660610698217e-01) (4, 6.87564308377056621069e-01) (5, 6.77030148537903331274e-01) (6, 6.13595376344471477026e-01) (7, 7.06708225043564342016e-01) (8, 6.17197910877018474096e-01) (9, 7.42156694265156291479e-01) (10, 7.52058039041309855932e-01) (11, 6.74585002096443675512e-01) (12, 7.03117097349911235327e-01) (13, 7.83205980988293193334e-01) (14, 6.00894282193928264135e-01) (15, 6.64091641636639140600e-01) (16, 7.82812798949032329077e-01) (17, 6.52611690195351146215e-01) (18, 6.20240213902740977758e-01) (19, 7.84279043408184550756e-01) (20, 6.83174336882381938452e-01) (21, 7.42658803792744182104e-01) (22, 6.89261759253292582983e-01) (23, 6.36171212973146937841e-01) (24, 6.49272213311939738745e-01) (25, 6.67016329797058604711e-01) (26, 7.27052772970943950170e-01) (27, 6.07933203311710856909e-01) (28, 5.97089121671467326635e-01) (29, 6.13941150339394114965e-01) (30, 6.49667935999184154028e-01) (31, 7.66286263795643352026e-01) (32, 7.63757372828274272436e-01) (33, 6.20504098566322825903e-01) (34, 7.60485837789326213354e-01) (35, 6.56544792087822459692e-01) (36, 7.02757368417530559057e-01) (37, 7.79304335447102092260e-01) (38, 7.68476138444691203588e-01) (39, 7.25178400607853435034e-01) (40, 7.26684148045330546850e-01) (41, 7.25757295819073222631e-01) (42, 6.04986513586788676733e-01) (43, 6.35024363728313945288e-01) (44, 7.14186395140438579077e-01) (45, 6.11103917094021342749e-01) (46, 7.04339119227676890844e-01) (47, 7.02222312422543071264e-01) (48, 6.68938728602676890844e-01) (49, 7.29802469344883464331e-01) (50, 6.91724474163799785131e-01) (51, 7.57336194248943828100e-01) (52, 6.77684391470699809545e-01) (53, 7.86209354730396769995e-01) (54, 5.98730521829872630590e-01) (55, 7.32179726095943950170e-01) (56, 6.58448795409946940893e-01) (57, 7.31006408663540385717e-01) (58, 7.45336050720959208959e-01) (59, 6.60761045845299266333e-01) (60, 7.50170687766819499487e-01) (61, 6.00227105053215526098e-01) (62, 6.32270427974014781469e-01) (63, 7.19151171477585338110e-01) (64, 6.25954317482262156958e-01) (65, 5.97979384096413157934e-01) (66, 7.80919084878712199682e-01) (67, 7.33934814663677714819e-01) (68, 7.82506848307400248999e-01) (69, 7.54618341656475566381e-01) (70, 6.64336318703442119116e-01) (71, 7.14414107235222362036e-01) (72, 6.85598763259201549047e-01) (73, 6.74545953603535197729e-01) (74, 7.54661599727421306127e-01) (75, 6.05008269282131694311e-01) (76, 6.90872999461441539282e-01) (77, 6.64223844738750957006e-01) (78, 7.12453695567398570532e-01) (79, 7.65034849377422832006e-01) (80, 5.99249424966125987524e-01) (81, 6.09401288064270518774e-01) (82, 7.27594147058277629370e-01) (83, 6.82156937750130198950e-01) (84, 6.00833761127739451879e-01) (85, 7.31547797652035258764e-01) (86, 6.19559782179146312231e-01) (87, 6.64505677850990794653e-01) (88, 6.67777324648647807592e-01) (89, 7.70118946762829326147e-01) (90, 7.30489845009594462866e-01) (91, 6.23171123297958873266e-01) (92, 7.75569180579929851049e-01) (93, 7.67983386846333049292e-01) (94, 7.47545416088848613256e-01) (95, 6.06746616395264171118e-01) (96, 7.71185899706631206030e-01) (97, 7.33687634201794169897e-01) (98, 7.45904544921665690893e-01) (99, 7.58627866324215416327e-01) (100, 6.93529086740761302465e-01) (101, 6.15463981958179973120e-01) (102, 6.78553091915398143286e-01) (103, 7.82923929655911843284e-01) (104, 6.95233056875019572729e-01) (105, 6.38437813701181910986e-01) (106, 7.94582361908703349584e-01) (107, 7.91329185100346110815e-01) (108, 7.07884776027946971411e-01) (109, 7.12259183259754680151e-01) (110, 7.61587137909679912084e-01) (111, 7.12357329757957957739e-01) (112, 7.26883585186749003881e-01) (113, 6.94404418202190898413e-01) (114, 5.99737378390579722875e-01) (115, 7.32940475078373454565e-01) (116, 6.31175326736717723364e-01) (117, 6.24520289333611033911e-01) (118, 6.02669271262436412329e-01) (119, 7.04175772698669932836e-01) (120, 5.99862361880093120092e-01) (121, 7.38382230134754680151e-01) (122, 7.31142975652577797874e-01) (123, 7.79227622115971962913e-01) (124, 7.10161701107385079368e-01) (125, 6.83623517502190969353e-01) (126, 7.90909367252232931023e-01) (127, 2.21766354076989996580e-01) (128, 6.20922274273515650833e-01) (129, 7.43174562119001791416e-01) (130, 6.51847246615166131534e-01) (131, 7.22712009726042214908e-01) (132, 7.63012118900182167991e-01) (133, 7.34485917055966774925e-01) (134, 7.12575587065964244360e-01) (135, 6.64895350666790507788e-01) (136, 7.79573897453098796362e-01) (137, 7.12381074758320353979e-01) (138, 6.61447646649628184790e-01) (139, 6.92681784363537333959e-01) (140, 6.29863368900566600317e-01) (141, 6.28257902892380259985e-01) (142, 6.10262232454567454809e-01) (143, 7.61970082851200603002e-01) (144, 7.27885434957294963354e-01) (145, 6.15222732158451579565e-01) (146, 7.00133668812065623754e-01) (147, 7.60107321424969617496e-01) (148, 6.40273451128083204154e-01) (149, 7.02719863294464230918e-01) (150, 6.71126110771870232341e-01) (151, 1.85439225683557584734e-01) (152, -2.15471774692244455451e+00) (153, -2.18632402809312598180e+00) (154, -3.98815102584001168751e+00) (155, -3.53838163093613156107e+00) (156, -3.75082225164252580640e+00) (157, -3.81290057040727559112e+00) (158, -3.45916299756029888002e+00) (159, -3.45340333123748299826e+00) (160, 3.01915882706106919464e-01) (161, 7.12078754355827348022e-01) (162, 6.52258629495802266796e-01) (163, 7.48237831278332654605e-01) (164, 6.60160096915512584204e-01) (165, 7.77533347340374492163e-01) (166, 6.22532869311123393530e-01) (167, 6.44957112701683543676e-01) (168, 6.95137532981186412329e-01) (169, 6.89203629823475383276e-01) (170, 7.42862025829105876440e-01) (171, 7.30224038096218608374e-01) (172, 7.22684661479740642065e-01) (173, 7.50871370131674154003e-01) (174, 6.89941229815187795360e-01) (175, 4.92694386877555401405e-01) (176, 6.15694390275019820535e-01) (177, -1.52035992651704043865e+00) (178, -2.15845684806831972224e+00) (179, -1.45756613230910003765e+00) (180, -8.26268647008214562888e-01) (181, 4.47918666640174711890e-01) (182, 8.89818612826552945982e-01) (183, 8.21754409084787917905e-01) (184, 8.40002744474206641812e-01) (185, -1.65127458939660454185e+00) (186, -8.03307763800926943887e-01) (187, 1.56195017785758238915e+00) (188, -2.07573288152965362841e+00) (189, -3.61701919602315591362e+00) (190, 6.09446352637793231644e-01) (191, 6.49212135599552264686e-01) (192, 7.30202565486135823924e-01) (193, 6.29856730433254741186e-01) (194, 7.10022541316299937719e-01) (195, 6.03061782749443553442e-01) (196, 6.12613196106701396459e-01) (197, 7.37778539391308330053e-01) (198, 6.53242013039141200537e-01) (199, 7.12973857851772807592e-01) (200, 6.24729278082552297313e-01) (201, 5.95224731114049832037e-01) (202, 4.93931343471513295551e-01) (203, 6.05623392080769984425e-01) (204, -4.03642582286085715992e+00) (205, -2.03699599059762981312e+00) (206, -1.05564351461728467285e+00) (207, 1.03885013154314354011e+00) (208, 7.58880960795639047944e-01) (209, 3.53961923657696830858e+00) (210, 8.55979738431138414967e+00) (211, 7.83860753087047701371e+00) (212, 8.88530691050287479982e+00) (213, 9.47444876181397077630e+00) (214, -6.89346183773958953722e-02) (215, 1.79834375446671934640e+00) (216, 1.60492795175410418729e+00) (217, -3.73518969805579681420e+00) (218, -1.50593477814357568079e+00) (219, 6.31373267584087072279e-01) (220, 6.20832791810500106422e-01) (221, 6.90721275838165782446e-01) (222, 7.30473826261311076635e-01) (223, 7.71729210944920085424e-01) (224, 7.25801120134144328588e-01) (225, 6.45719485910683177465e-01) (226, 7.80014107557087443823e-01) (227, 7.39460868521222058902e-01) (228, 7.80726416295039138404e-01) (229, 6.11318050423899972401e-01) (230, 5.07344750380025577563e-01) (231, -1.21182287996045889855e+00) (232, -2.24391131207024674410e+00) (233, -3.32280099255701566463e-01) (234, 2.00549816185835965143e+01) (235, 4.31465125652212067031e-01) (236, 9.24929497841572190175e-01) (237, 1.17403267591312610030e+00) (238, 6.51748240545748647179e+00) (239, 6.21096571453039469901e+00) (240, 5.76927957989385031823e+00) (241, 6.57175010247065150004e-01) (242, 4.05970228260485177518e-01) (243, 3.04983985570009918931e+00) (244, 1.46194356896261168366e+00) (245, -2.46164712667645080302e+00) (246, -1.15001433667604779920e+00) (247, 5.45700438302522683465e-01) (248, 5.94495103206773678473e-01) (249, 6.57847650611760537132e-01) (250, 6.21997805865555308813e-01) (251, 6.34648161562233470434e-01) (252, 7.55219096871166728491e-01) (253, 7.57694760890751384252e-01) (254, 6.11600483389645122045e-01) (255, 6.82066758854874555240e-01) (256, 6.02534935321947018316e-01) (257, 5.89107007956289674411e-01) (258, 6.26299578498016651373e-01) (259, -3.97962768861697846479e-01) (260, -1.48150499374635336025e+00) (261, 2.55789069155221260310e-01) (262, 6.75423719731337635075e-01) (263, 6.71371073619655089892e-01) (264, -2.31038689307748762447e-01) (265, -1.37981662370516056093e+00) (266, 7.76935996283897090109e+00) (267, 7.89127327759465746482e+00) (268, -7.41212617722228284123e+00) (269, 5.40181104872721307153e-01) (270, 4.37241000625687381564e-01) (271, -4.84282304269395558194e-01) (272, 9.50565306206407667489e-01) (273, -5.20202074746982878750e-01) (274, 6.72721058681644556998e-01) (275, 6.83428634256099010180e-01) (276, 6.51161252529390166544e-01) (277, 7.18579242559223674292e-01) (278, 7.38338152499943278784e-01) (279, 6.64157929452209971899e-01) (280, 7.83077056141644023413e-01) (281, 7.65559072228222392553e-01) (282, 7.04029212327747844213e-01) (283, 7.42092229688527504905e-01) (284, 7.21300921411283324503e-01) (285, 7.13676786989934752725e-01) (286, 6.28486568611904550252e-01) (287, 7.83786411232844093533e-01) (288, 8.57581664024061662843e-01) (289, 1.82005724202970142755e+00) (290, 2.88330518237321120623e+00) (291, 3.03688244037102528239e+00) (292, -4.86061173040604976858e-01) (293, -1.53782146433429511845e+00) (294, -8.02902211501193008303e-01) (295, -1.10381579552472075534e+00) (296, -1.46026924552356840437e+00) (297, 1.97901206417408115357e+00) (298, 5.49724773092139740172e-01) (299, 1.02764738351255724425e+00) (300, 7.89252546881623051611e-01) (301, 3.00321865791094211318e-01) (302, 6.15846174065133866726e-01) (303, 7.18461724525002898289e-01) (304, 7.27089613653166710883e-01) (305, 6.08164737554340861792e-01) (306, 6.20163696440010570043e-01) (307, 5.98892169626503489965e-01) (308, 7.31967116328030131811e-01) (309, 7.63724962802677653784e-01) (310, 6.68273220392017863745e-01) (311, 7.20267290802746318334e-01) (312, 7.33080111706616799339e-01) (313, 8.24772960091030404861e-01) (314, 7.15579853079049144071e-01) (315, 8.57557962619055702547e-01) (316, 5.15077025963101586825e+00) (317, 2.33862622700946420906e+00) (318, 1.85011077332771312065e+00) (319, -7.50432187185348320568e-01) (320, -2.07704131520193424620e+00) (321, -5.24951262495115478224e-01) (322, 4.39335670769715080919e-01) (323, 8.59888098267164946442e-01) (324, 9.12458556546589694136e-01) (325, 3.09485865764346579354e+00) (326, 1.57123192743933381976e+00) (327, 4.47194678581172944121e+00) (328, 9.10011167824669842119e-01) (329, 7.45553902070801410851e-01) (330, 7.03319713651971323287e-01) (331, 7.38486254476065084873e-01) (332, 7.82179305883198283667e-01) (333, 7.13741923304348491186e-01) (334, 6.70021424623280070776e-01) (335, 7.22734207840710185522e-01) (336, 7.27129782171993754858e-01) (337, 6.95408234926014445776e-01) (338, 7.26849491329937480444e-01) (339, 6.64320016833096049780e-01) (340, 7.19964533726813682435e-01) (341, 6.50840374134669663597e-01) (342, 9.76783194906617247000e-01) (343, 1.49923014418017985783e+00) (344, -4.98297774669501536415e-01) (345, 2.43527359671416121500e+00) (346, 1.29544990714314689484e+00) (347, -1.43782344085912705545e+00) (348, -2.01210014199997422324e+00) (349, 4.13941287952078296186e-01) (350, 1.00221134971368153188e+00) (351, 1.60929585166755351189e+00) (352, 8.54206166857677295923e+00) (353, 1.05271513943664207780e+00) (354, 3.32977759281506768829e+00) (355, 8.07380121300334785417e+00) (356, 6.18666367936799632687e-01) (357, 8.31107324070895270296e-01) (358, 6.67676086529208512310e-01) (359, 6.86721107291979215859e-01) (360, 6.75248021813183330053e-01) (361, 7.37794513436108134741e-01) (362, 6.31887870462685130590e-01) (363, 6.62650453480034373754e-01) (364, 6.56759551348238490576e-01) (365, 7.07132408948689006323e-01) (366, 7.90607775183468364233e-01) (367, 7.89112458558826945776e-01) (368, 6.64244207906137140718e-01) (369, 7.94723603856269167345e-01) (370, 8.12992139763531129759e-01) (371, 1.18129139102561242503e+00) (372, -2.12994452445404602869e+00) (373, 2.20780324785775006191e+00) (374, 2.23583353708274618077e-01) (375, -1.86594716042505970321e+00) (376, -1.62683661940208862395e-01) (377, 1.06457550173119463999e+00) (378, 1.57680240798985393802e+00) (379, 7.68725367439681317450e+00) (380, 1.07557856112587679753e+00) (381, 1.65199982505427089841e+00) (382, 3.02479566204932659446e+00) (383, 1.98461141945112262697e+00) (384, 3.34285148150038680104e-01) (385, 7.18461175213475855550e-01) (386, 6.06888728316818060193e-01) (387, 7.11590797263724650357e-01) (388, 6.03243408484944287906e-01) (389, 6.56510590197592280859e-01) (390, 6.11343766184597514624e-01) (391, 6.87891128094940684790e-01) (392, 5.99528225692062877172e-01) (393, 6.48454761685877345556e-01) (394, 7.55764702888279460424e-01) (395, 6.61510894628315471167e-01) (396, 8.16751182887734850091e-01) (397, 7.99690038680017867279e-01) (398, 7.05023262852746634977e-01) (399, 8.82186795226098441347e-01) (400, -7.86307051122820954703e+00) (401, 2.30520614244774524337e+00) (402, 1.43452265756597641122e+00) (403, 3.48593952269937612520e-01) (404, 8.20170303360467034537e-01) (405, 5.99854016325497152451e+00) (406, 3.28595653196422388120e+00) (407, 1.54575071082758785934e+00) (408, 2.08345216802710497817e+00) (409, 2.23334540549267179799e+00) (410, -7.41835901492342575381e+00) (411, -3.46339346998387365151e-01) (412, -3.67845952171739154490e-01) (413, 2.41205368198672803759e-01) (414, 7.47960482987872210536e-01) (415, 5.78990727431279217363e-01) (416, 7.53147237568842831124e-01) (417, 7.69057045312672160620e-01) (418, 7.28473404975681804174e-01) (419, 7.74073074193745158667e-01) (420, 6.30790757568626903051e-01) (421, 7.45040292473583720678e-01) (422, 6.67187313171177409643e-01) (423, 6.35542100848703883642e-01) (424, 6.19451242022525327968e-01) (425, 6.26771190555474255746e-01) (426, 7.10101811238210367527e-01) (427, 5.85219786831745469868e-01) (428, 6.34296558219522244038e-01) (429, -8.73234666504385614871e+00) (430, 2.66968050096029241303e+00) (431, 3.54367930664925800954e+00) (432, 1.26102405052372601446e+00) (433, 7.14743783682537991986e-01) (434, -9.45495088649504267231e-01) (435, -1.96425631612513390545e-01) (436, 1.83591176075670414747e+00) (437, 9.75294717706413516467e-01) (438, 1.15206784155521946289e+00) (439, -1.82789493376421008364e+00) (440, -2.97195580789615254602e+00) (441, -3.54496259147074121998e+00) (442, 1.86146487272014965475e-01) (443, 6.65629920423736476387e-01) (444, 7.14334466129290523995e-01) (445, 6.58186013432293437475e-01) (446, 7.08719323011189006323e-01) (447, 6.89270275266914866918e-01) (448, 6.32466177078037761206e-01) (449, 6.42415842594652675146e-01) (450, 6.68566467793732188696e-01) (451, 6.68480055959969066137e-01) (452, 7.91862279682557401728e-01) (453, 7.37303245485363634160e-01) (454, 7.07814789869526062027e-01) (455, 1.41101451881711970060e-01) (456, 3.84503576656258727606e-01) (457, 2.99307980646789317802e-01) (458, 3.35673092935757777511e+00) (459, 1.90872234869436940841e+00) (460, 1.25626789640738700804e+00) (461, -3.86548674650515122764e-01) (462, 4.55755267612749648265e-01) (463, 5.00813434855444605809e-01) (464, 1.29726025155056468030e+00) (465, 6.18072956907516068981e-01) (466, -4.73702602928692151352e-01) (467, -2.06336161149787100655e+00) (468, -3.81647606548208173649e+00) (469, -2.95989400735500707285e+00) (470, 2.75160041427841561834e-01) (471, 5.95870398030168613168e-01) (472, 7.50972820704447707740e-01) (473, 6.80888580711632274145e-01) (474, 6.61808224948196910375e-01) (475, 6.86807850929050944799e-01) (476, 7.44297708006649516577e-01) (477, 7.75750661822109721655e-01) (478, 7.81301254959850810522e-01) (479, 7.81987006397991679663e-01) (480, 6.21962584817769448264e-01) (481, 6.48464374386365283165e-01) (482, -3.59001410572664311771e-02) (483, -2.16399797128168325244e+00) (484, -1.98023565469565054897e+00) (485, 1.08108455387806401404e+00) (486, 5.06694211952425255241e-01) (487, 7.10499263355542032272e-01) (488, 6.96559012836891144893e-01) (489, 4.17976578323763359180e+00) (490, 2.72444134132926341074e-01) (491, 6.30628613063176635123e-01) (492, 4.96144053186379330178e-01) (493, 6.71555920834965958122e-01) (494, -1.09279636029426652222e+00) (495, -2.11620480123610033019e+00) (496, -3.21901117699427441465e+00) (497, -8.10566932450375077224e+00) (498, 3.59044359075878061205e-01) (499, 5.61215228354866924043e-01) (500, 7.71000964825617751686e-01) (501, 7.30164567561893962377e-01) (502, 6.67396607430725596899e-01) (503, 7.43186349602489970678e-01) (504, 6.16276266606598399633e-01) (505, 7.34427953692226909155e-01) (506, 6.35217318864613078588e-01) (507, 7.65797088475971721167e-01) (508, 7.11225164814480725894e-01) (509, 4.68097693723117269649e-01) (510, -1.06585778671668807149e+00) (511, -4.04949093854969088824e+00) (512, -2.04309263712033217786e+00) (513, -5.72945127808953014181e-01) (514, -3.23316547570496048980e-01) (515, -5.26748265594591091876e-01) (516, 2.50684653751813701916e+00) (517, 3.29167841557939677699e+00) (518, -2.07018380605361906888e+00) (519, 5.84849682801832693180e-01) (520, 3.34388586796355025132e-01) (521, -2.84458483227178993147e+00) (522, -6.02087441020491498378e-01) (523, -2.05797249435793272454e+00) (524, -3.20785926058222026214e+00) (525, -1.85304954945917210729e+00) (526, 5.27262753714960341611e-01) (527, 7.63404789622272206273e-01) (528, 6.71852780764567336647e-01) (529, 7.20266799064426921362e-01) (530, 6.79438466759472392553e-01) (531, 6.64066309662609599584e-01) (532, 6.55654477508812449926e-01) (533, 7.52058202954082988256e-01) (534, 6.12475777598171733374e-01) (535, 6.77153857978134654516e-01) (536, 6.87532698495873395572e-01) (537, 4.90305884325232754772e-01) (538, -1.16227392478355695538e+00) (539, -3.80439067693574983764e+00) (540, -4.17297601187702493775e+00) (541, -3.20945568621196342107e+00) (542, -3.06017993754794837002e+00) (543, -1.92626297236186894146e+00) (544, -5.46788155629330738239e-02) (545, 4.36343925925362441376e+00) (546, -4.51104063098997198900e-01) (547, 1.13353443124079883431e-01) (548, -2.14192232085818716480e-02) (549, -1.39376221399760091835e+00) (550, -1.41075989092145026582e+00) (551, -2.04316725193369963520e+00) (552, -3.15151759639908757293e+00) (553, 6.02037298057302439069e-01) (554, 4.74875148734664853656e-01) (555, 6.05728300804796560008e-01) (556, 6.41981493944289605125e-01) (557, 6.48668727459459804052e-01) (558, 7.88288796873837016577e-01) (559, 7.28479156823902629370e-01) (560, 7.74158651562481425756e-01) (561, 6.72950389416962169165e-01) (562, 5.97768584819584392065e-01) (563, 6.35036239953785441870e-01) (564, 6.28804654145600716575e-01) (565, 5.16959797673973708854e-01) (566, -1.09303478150138166924e+00) (567, -3.82261442030668696646e+00) (568, -3.86896086222276069932e+00) (569, -3.97885119478183524322e+00) (570, -3.13337097711705059311e+00) (571, -2.14272729234169556634e+00) (572, -1.35930095635542502741e+00) (573, -1.85920796323836484687e-01) (574, -1.13639411731078143752e+00) (575, 5.87899780670710470076e-01) (576, -1.87408796199763560963e+00) (577, -1.13166297860597953040e+00) (578, -2.10909731866158800528e+00) (579, -2.35061007526413945357e+00) (580, -3.57222656920861136864e-02) (581, 5.44935841543526588993e-01) (582, 7.44194591934385640819e-01) (583, 7.21086663885601941715e-01) (584, 6.52608594479113124365e-01) (585, 6.27897577913551829809e-01) (586, 7.43690664501934550756e-01) (587, 7.01240251394062541479e-01) (588, 6.81789430411606334204e-01) (589, 7.37202579708843730444e-01) (590, 6.34942530276327632421e-01) (591, 6.61171192856579326147e-01) (592, 6.13949045801522652610e-01) (593, 6.31307784610087741051e-01) (594, 6.19192653597964604018e-01) (595, -5.88806603744833179093e+00) (596, -3.79648012102255272282e+00) (597, -3.30697251833892336137e+00) (598, -2.15260812334564821668e+00) (599, -6.80910968624350942946e+00) (600, -9.47478717185011531932e-01) (601, -2.35171732454487830699e-01) (602, -4.02661539515858757365e-01) (603, -2.76538531073028082119e+00) (604, -1.44682941016749078145e+00) (605, -2.22502147869164446092e+00) (606, -5.50290384195939985545e+00) (607, 6.60872233783738605162e-01) (608, 6.25593984319909757197e-01) (609, 6.42622615968943766696e-01) (610, 7.10958076401242200504e-01) (611, 7.87344776356580178245e-01) (612, 7.10822510154991649145e-01) (613, 6.72028342815189860815e-01) (614, 7.19258176716118358129e-01) (615, 7.68654222222118876928e-01) (616, 7.05149042042046092504e-01) (617, 6.68171959551125071997e-01) (618, 6.75117599399834178442e-01) (619, 7.92161578865795634741e-01) (620, 6.09170615935685555442e-01) (621, 7.07288524394499740211e-01) (622, 5.58501285602329367030e-01) (623, -4.17278535310119558233e+00) (624, -3.24877629030114256636e+00) (625, -2.02858659129214657924e+00) (626, -1.88030581296938748004e+00) (627, -1.07106495205606355725e+00) (628, -2.48104330376682513659e+00) (629, -1.76246678451578353553e+00) (630, -2.38206029127230456410e+00) (631, -1.41576839871527893067e+00) (632, -2.18738242154886464164e+00) (633, -2.63710399470012690770e+00) (634, 6.97934244019165261896e-01) (635, 6.33635891752330482340e-01) (636, 7.05425258802790167145e-01) (637, 6.00048048182019178043e-01) (638, 7.82187544072034279807e-01) (639, 7.59929175110607646459e-01) (640, 6.59370260866432689184e-01) (641, 7.03972349496632121557e-01) (642, 7.53924111457615397924e-01) (643, 7.75415892334728740209e-01) (644, 7.81223813625126384252e-01) (645, 6.78405406506805919165e-01) (646, 7.49293247791080974096e-01) (647, 6.91595974000244639868e-01) (648, 7.51800487371235393042e-01) (649, 6.25457389040478650699e-01) (650, 6.80985948329436263649e-01) (651, 6.67566661824463003505e-01) (652, -2.03297573294106337372e+00) (653, -1.96659889310919266947e+00) (654, -1.96399297119672389123e+00) (655, -1.06958564703301339804e+00) (656, -1.02440655021509741118e+00) (657, -2.84910191226790932006e+00) (658, -5.13890467534854789022e+00) (659, -4.78769278510444529218e+00) (660, 1.24386715767605460226e-01) (661, 5.21641682849967702751e-01) (662, 6.97526186655295976635e-01) (663, 5.89000747775816346774e-01) (664, 8.35790204332445108015e-01) (665, 7.72444777803648507941e-01) (666, 7.25855012378777808557e-01) (667, 7.25556409576974870035e-01) (668, 7.53998932974211943936e-01) (669, 6.59995051654129527563e-01) (670, 6.73189895780830882543e-01) (671, 6.00033308001308940405e-01) (672, 7.69190529914646647924e-01) (673, 6.32337114395647548193e-01) (674, 7.80672321649342082495e-01) (675, 7.55637461872845195288e-01) (676, 7.15965638490467570776e-01) (677, 7.35188672872334025854e-01) (678, 6.52456550480871699804e-01) (679, 6.65860418097134476589e-01) (680, 7.62916918710823899197e-01) (681, 7.66894948983549373800e-01) (682, 6.48149100831476476792e-01) (683, 6.19398009521993420101e-01) (684, -3.68037621835517303470e-01) (685, 5.41750708754786258758e-02) (686, -1.16808181006420513937e-01) (687, 4.70958833152372136066e-01) (688, 7.39318405587359950282e-01) (689, 1.01565266292218003841e+00) (690, 1.02690370439596079244e+00) (691, 1.02534319681742780439e+00) (692, 7.79129040492648305971e-01) (693, 7.50861700045476587739e-01) (694, 7.97052837590815910218e-01) (695, 7.22557766999307404809e-01) (696, 6.25596570404320262426e-01) (697, 6.17825085850506328100e-01) (698, 6.14494609268456004614e-01) (699, 7.66259605618267558569e-01) (700, 6.83043258817940257543e-01) (701, 6.92907618912010692114e-01) (702, 7.71516034932880900854e-01) (703, 6.57456907065659068579e-01) (704, 7.30467850895672343725e-01) (705, 7.75970471637122405362e-01) (706, 6.18317487271576426977e-01) (707, 6.70215615616910231900e-01) (708, 7.16382270293109191250e-01) (709, 6.93949349501109979954e-01) (710, 7.47292957807583202445e-01) (711, 6.32141686287425730306e-01) (712, 9.42292110920550429753e-01) (713, 7.59022289625534640756e-01) (714, 6.85269348293056967947e-01) (715, 8.31609418211322060088e-01) (716, 1.01131485948089028248e+00) (717, 1.03269621409862732975e+00) (718, 1.16610117436440030581e+00) (719, 9.72186280907123334671e-01) (720, 7.41760400973114020218e-01) (721, 7.98616033171393846501e-01) (722, 8.02694138004846347023e-01) (723, 7.81068278090827239346e-01) (724, 6.42053010495453380102e-01) (725, 6.94687309296875499243e-01) (726, 6.68966288300304912084e-01) (727, 6.72872694762497447485e-01) (728, 7.17735516460686229223e-01) (729, 6.88684011431484721655e-01) (730, 6.44355433614998363012e-01) (731, 6.06001901062279246801e-01) (732, 7.86814744206219218725e-01) (733, 6.21094594331532023901e-01) (734, 6.68681929441242717260e-01) (735, 7.22505728336124919409e-01) (736, 8.00680645775053823066e-01) (737, 7.13546949224900806108e-01) (738, 8.00709365572038422876e-01) (739, 6.88357092209236354208e-01) (740, 7.95526725631922837501e-01) (741, 7.35419444535171162869e-01) (742, 8.20106958626997228912e-01) (743, 6.17458960482747398757e-01) (744, 7.00626435311584971899e-01) (745, 8.21139415818859519369e-01) (746, 8.04191168263025057961e-01) (747, 8.00954030644613790280e-01) (748, 6.86671765906698094994e-01) (749, 7.49327404038779509854e-01) (750, 7.55625958176403544897e-01) (751, 6.87451096804886363500e-01) (752, 6.78440148564129374975e-01) (753, 7.08868632646351359838e-01) (754, 6.55183500232248805517e-01) (755, 7.25716287823467753881e-01) (756, 6.08779075177460216040e-01) (757, 7.29372913571148417944e-01) (758, 6.03812093468456767553e-01) (759, 7.31737712951450847143e-01) (760, 6.23280035885124705786e-01) (761, 6.53390644671469233984e-01) (762, 7.42962727876453898901e-01) (763, 6.15317905874996684545e-01) (764, 6.79708364041595958227e-01) (765, 6.16867783101349376196e-01) (766, 7.43046755524426005834e-01) (767, 6.68660672934799693579e-01) (768, 7.14313449891357921118e-01) (769, 7.27655346127300761694e-01) (770, 7.79218388335578215909e-01) (771, 6.92979382904320262426e-01) (772, 6.47356024565248988623e-01) (773, 7.30973357888012431616e-01) (774, 7.04749079974442027563e-01) (775, 7.53205592366009257788e-01) (776, 7.10234942467957042211e-01) (777, 6.59488807054310344213e-01) (778, 7.05525124998837016577e-01) (779, 7.48103643389492534155e-01) (780, 5.95480332704334758276e-01) (781, 6.66374194057732127661e-01) (782, 6.40777847351580165380e-01) (783, 6.79143602581768535131e-01) (784, -8.81380445659244865508e-02) (0, 7.00663779537638808925e-01) (1, 6.09562319378813888271e-01) (2, 7.93947477500399734218e-01) (3, 6.35259807716569091518e-01) (4, 6.18597534160575057705e-01) (5, 7.30908293883761550624e-01) (6, 6.63762961189707900722e-01) (7, 6.77211303870638992031e-01) (8, 6.79094147543868209560e-01) (9, 6.84303988378008987148e-01) (10, 7.62142781774958755214e-01) (11, 7.01185044507941390712e-01) (12, 6.32573858510216857631e-01) (13, 6.36026573042830611904e-01) (14, 6.20721612732371474941e-01) (15, 7.65452314774951125820e-01) (16, 6.01909075539073135097e-01) (17, 7.18924116949996139248e-01) (18, 6.18031461398562576015e-01) (19, 7.38105554740389968593e-01) (20, 6.28896322708090926845e-01) (21, 7.76460160176715041835e-01) (22, 6.53563619266709472377e-01) (23, 6.93608251075705672939e-01) (24, 6.87208410959204818447e-01) (25, 6.06890369813403274257e-01) (26, 6.94311705093344833095e-01) (27, 7.58805711429080154140e-01) (28, 6.52891342203578139980e-01) (29, 7.78678436438998367031e-01) (30, 7.44494800131281997402e-01) (31, 7.59298939864596511562e-01) (32, 7.93984551589450027187e-01) (33, 7.44186062972506667812e-01) (34, 6.00302544097861434658e-01) (35, 6.18325885992011214931e-01) (36, 6.80838164548834945400e-01) (37, 6.69809308509787704189e-01) (38, 7.01280985634287978847e-01) (39, 7.65676115314921523769e-01) (40, 7.59857092659434463222e-01) (41, 6.69167567651232864101e-01) (42, 6.72604967515429641445e-01) (43, 5.98174755136927749355e-01) (44, 7.08070320855125112658e-01) (45, 6.99070383470019485195e-01) (46, 7.69370873134097243984e-01) (47, 7.18590822677573348720e-01) (48, 6.23738300662001754482e-01) (49, 7.93146137754878188808e-01) (50, 6.62440177659949447353e-01) (51, 6.58378419141730453212e-01) (52, 7.75350098173579360683e-01) (53, 7.21747596423586990078e-01) (54, 7.57730488340815688808e-01) (55, 6.68302301924189712246e-01) (56, 7.34381769459208633144e-01) (57, 6.57785986225566055019e-01) (58, 6.32851821045836593349e-01) (59, 7.93016929786166335781e-01) (60, 6.42208219181260253627e-01) (61, 7.83090416948756362636e-01) (62, 7.58059654991587783535e-01) (63, 6.41936571012696410854e-01) (64, 7.33020280163249160488e-01) (65, 7.64105994861086990078e-01) (66, 6.66006256501635696132e-01) (67, 6.19602237503489639003e-01) (68, 6.39659107338151122768e-01) (69, 7.73031045358142043789e-01) (70, 7.91022156040629531581e-01) (71, 6.05260011415442611415e-01) (72, 6.47942405800780441005e-01) (73, 6.69370916347464706142e-01) (74, 6.09178569774588729580e-01) (75, 7.64624152939280654628e-01) (76, 7.74185095589121963222e-01) (77, 7.84293253581484939296e-01) (78, 6.88958775858840133388e-01) (79, 6.03667203943690444667e-01) (80, 7.83183176677188064296e-01) (81, 7.57142756741007949550e-01) (82, 6.67789426307639266689e-01) (83, 7.64277075092753555019e-01) (84, 6.84634145956000472744e-01) (85, 6.31263714890441085537e-01) (86, 6.38323173533639098842e-01) (87, 6.24759723107775832851e-01) (88, 6.94793496887644912441e-01) (89, 6.76918801526984359462e-01) (90, 6.23520445685347701748e-01) (91, 7.42745537917575027187e-01) (92, 6.65753018717726852138e-01) (93, 7.87323911349734451015e-01) (94, 7.81531990007470978021e-01) (95, 5.95623188153814209223e-01) (96, 7.48279795483659637689e-01) (97, 6.52722839257692144521e-01) (98, 6.18992177346134320182e-01) (99, 5.91705647805118695182e-01) (100, 6.30639033410072546992e-01) (101, 6.15697039852676097915e-01) (102, 6.11542279635853724962e-01) (103, 7.06249743927652273712e-01) (104, 6.99705670391507106309e-01) (105, 6.26464652632660823350e-01) (106, 6.65004965524634505947e-01) (107, 6.81672718982657577236e-01) (108, 6.18539836864432479580e-01) (109, 7.59707529704531814296e-01) (110, 6.91083726148566390712e-01) (111, 6.07466813783606673915e-01) (112, 7.22594101588687087734e-01) (113, 7.64616955678424026210e-01) (114, 7.77487699549159194667e-01) (115, 6.12972040336093093593e-01) (116, 6.01624463360270644863e-01) (117, 6.21554669599494125087e-01) (118, 6.34022455654119299062e-01) (119, 6.91290815868759289664e-01) (120, 6.93346319296741619986e-01) (121, 6.58938890099281415758e-01) (122, 6.42679647608327520025e-01) (123, 7.67742653443145406378e-01) (124, 6.57836069418716085089e-01) (125, 6.38561345078754061255e-01) (126, 7.71221403200632704689e-01) (127, 1.40793044862114996585e-01) (128, 6.98517164516823330089e-01) (129, 6.04913369594847316613e-01) (130, 6.27189915623322047367e-01) (131, 7.53463705136108052862e-01) (132, 6.45983384056615483892e-01) (133, 6.48398217810916555059e-01) (134, 6.48015027642006025133e-01) (135, 7.61442442100009109218e-01) (136, 6.90616269271334792812e-01) (137, 7.32564721863230849941e-01) (138, 6.48858965049943114956e-01) (139, 7.14899909357985641201e-01) (140, 6.98016059260329391201e-01) (141, 7.45686490695437576015e-01) (142, 7.28110526363810683925e-01) (143, 6.26353946189841415126e-01) (144, 7.16047239165267135341e-01) (145, 7.00471048751258984488e-01) (146, 6.31268864273780927476e-01) (147, 7.08949917788035066657e-01) (148, 7.23656094885357648039e-01) (149, 6.79304762995728284025e-01) (150, 6.15891502963450299113e-01) (151, 1.64868761742701236406e-01) (152, -2.03430330987750673799e+00) (153, -2.11878087132071923904e+00) (154, -4.51013079343064582361e+00) (155, -4.53123570216041837710e+00) (156, -4.69800071483760106617e+00) (157, -4.95734722929118643009e+00) (158, -5.77187713240086175404e+00) (159, -3.66036773078566124440e+00) (160, 1.51714032302748019765e-01) (161, 7.05677690234378318657e-01) (162, 6.13923474534618929255e-01) (163, 6.94782219215500429499e-01) (164, 7.72824694910431042594e-01) (165, 6.92636018465503378039e-01) (166, 6.75988879661521102626e-01) (167, 6.80055712025126601894e-01) (168, 6.33812159906586791713e-01) (169, 7.30591644208392287929e-01) (170, 6.00699421625098373134e-01) (171, 7.37572018663844253261e-01) (172, 6.71150980093860760611e-01) (173, 7.20533333107101991999e-01) (174, 7.55649349971878603327e-01) (175, 4.39583210753827502426e-01) (176, 4.70972211511660465710e-01) (177, -1.28311625759284120285e+00) (178, -2.16555074539213388007e+00) (179, -1.47021425780536185712e+00) (180, -5.81752289128342425784e-01) (181, 4.99830134328038300229e-01) (182, 6.71940173536507839858e-02) (183, 9.07881293227732366624e-01) (184, 7.00243835151821564233e-02) (185, -5.71828952662986500499e-01) (186, 9.26477573553268540785e-01) (187, -4.30414809546520782391e-01) (188, -2.20454855538973770734e+00) (189, -3.82284655198542466792e+00) (190, 4.75668671600163350810e-01) (191, 6.59586072192667405290e-01) (192, 7.46943108125794008600e-01) (193, 6.98846799829387799186e-01) (194, 6.72217828729534283561e-01) (195, 7.50402976434191848476e-01) (196, 6.10965204100569869716e-01) (197, 7.64821474115809585292e-01) (198, 6.33894061957677612540e-01) (199, 6.39650208452129498404e-01) (200, 6.87136515363323763239e-01) (201, 6.28625299169886186945e-01) (202, 6.13169630469608928358e-01) (203, 6.08255316914845134413e-01) (204, -4.24903023867715745610e+00) (205, -2.01692887036424473024e+00) (206, -9.70067057166466573115e-01) (207, 2.16204857148327223015e+00) (208, 5.06720717234790618555e-01) (209, 3.50646173248199932715e+00) (210, 7.03741165645593369504e+00) (211, 6.69556089707609736195e+00) (212, 8.42830477677695100169e+00) (213, 5.71796383440861077929e+00) (214, 1.67542732058174936860e+00) (215, 5.23431778555014926013e+00) (216, 1.01486967771933933591e+00) (217, -3.32801299764813318660e+00) (218, -1.80619840177037072060e+00) (219, 5.32345156917981565670e-01) (220, 6.06720089300739839899e-01) (221, 6.62335968085418058671e-01) (222, 6.72977162101650372428e-01) (223, 7.87447829406222488124e-01) (224, 5.94717872004470016201e-01) (225, 7.70372296040138015982e-01) (226, 7.32723643579864636344e-01) (227, 5.96961283916956575446e-01) (228, 7.29225582762825563776e-01) (229, 7.46383146330654945189e-01) (230, 4.90549325862596752312e-01) (231, -1.33463183158327369782e+00) (232, -2.25015156259379178749e+00) (233, 4.28631821562367121281e-01) (234, 1.71310259273099352306e+00) (235, 3.73863639086405741274e-01) (236, 1.13377170007333205604e+00) (237, 1.66122177697121187201e+00) (238, 6.61211595216915259954e+00) (239, 4.34289612534102520414e+00) (240, 3.22122622202545239034e+00) (241, 4.72508416704084777127e-01) (242, 4.36996687697363217495e-01) (243, 5.67669761731534183724e+00) (244, -4.83211009650561518214e-01) (245, -3.22133423821451003732e+00) (246, -1.44315677040015555299e+00) (247, 4.91246008158553848499e-01) (248, 7.75322394734966113816e-01) (249, 6.87417814368731172614e-01) (250, 7.20779304900550976676e-01) (251, 6.16815742711981918056e-01) (252, 7.86883522431811477382e-01) (253, 6.18374569188102407580e-01) (254, 5.99136402407074109000e-01) (255, 7.72879594797617586188e-01) (256, 5.85646293445694521296e-01) (257, 7.42213325531950962599e-01) (258, 5.87383435996047031935e-01) (259, -2.71262847206683976875e-01) (260, -1.03303557973698412198e+00) (261, 7.08100423401626821729e-01) (262, 6.48104196706967505826e-01) (263, 8.99169707132815299033e-01) (264, 1.64772882150896027298e+00) (265, -1.62624099782343023435e+00) (266, 7.84503220001189838229e+00) (267, 1.09889940139801201013e+01) (268, -8.25142952100700632911e+00) (269, 9.54668483753942642700e-01) (270, 3.18332624269316299959e-01) (271, -2.01401835623787617280e+00) (272, -3.06169177147406212924e-01) (273, -6.17919461206648201745e-01) (274, 3.91558547179409799366e-01) (275, 6.17096893822305148092e-01) (276, 6.18888264811384036790e-01) (277, 7.14643744528049573717e-01) (278, 6.52805571952247754020e-01) (279, 6.29972559075316573818e-01) (280, 6.36071880023440505703e-01) (281, 5.98202979038699789172e-01) (282, 6.41661138781690731925e-01) (283, 6.14233599836355836921e-01) (284, 6.14036186917889192927e-01) (285, 6.51150831909647953566e-01) (286, 6.08359648344625858485e-01) (287, 6.74106488554379601474e-01) (288, 7.17809498728770867260e-01) (289, 1.96658820362069697296e+00) (290, 3.71286784401605718386e+00) (291, -2.04864158157605918964e-01) (292, -4.77850195637495378520e+00) (293, -3.02142943014077536290e+00) (294, -2.70717980851480133353e-01) (295, -8.40961071158293216321e-01) (296, -1.61471041925045177834e+00) (297, 1.54888545486853407285e-01) (298, 5.07850869999227461093e-01) (299, 1.09092443867572286287e+00) (300, 5.06079206493447397719e-01) (301, 3.18444173370577954252e-01) (302, 6.75816631678918255943e-01) (303, 7.13934367823975124523e-01) (304, 7.47335636848932893805e-01) (305, 7.06898180344486370963e-01) (306, 7.77489800612887527187e-01) (307, 6.01442341368159438808e-01) (308, 6.51957616816720153530e-01) (309, 6.44042508523210210925e-01) (310, 6.26287733712577954215e-01) (311, 6.79972370862716779527e-01) (312, 6.42188904467976273693e-01) (313, 7.40131576655304712631e-01) (314, 7.75251847880083500009e-01) (315, 8.60183967430573237500e-01) (316, 4.73849415603541945785e+00) (317, 3.68753968646961682865e+00) (318, 5.25504905973602554070e+00) (319, -2.41269499755911664973e-01) (320, -2.24025034353677243715e+00) (321, -4.14786292633865627533e-01) (322, 5.96135224373995797897e-01) (323, 8.13706411889571268325e-01) (324, 8.52687232155433738612e-01) (325, 3.08579559090742838734e+00) (326, 1.56543083986263620311e+00) (327, 4.77008887357405342300e+00) (328, 1.26434423268321927125e+00) (329, 7.73527176031290619740e-01) (330, 7.89682798415095255073e-01) (331, 7.19684219955978754513e-01) (332, 6.02152293124580517691e-01) (333, 6.60234561036571188097e-01) (334, 6.62249480049571181972e-01) (335, 7.80568291108569289882e-01) (336, 7.86615137617549087246e-01) (337, 6.43174646710237274405e-01) (338, 7.84886812637790365343e-01) (339, 6.35990491276808622700e-01) (340, 7.00715997772739740412e-01) (341, 6.89648011203035538053e-01) (342, 8.91915124865893638173e-01) (343, 1.62898946503267860741e+00) (344, -3.74609171329425727492e-01) (345, 1.94583324703020554836e+00) (346, 2.33283432058863127168e+00) (347, -1.53176861174315481762e+00) (348, -2.33451867789999401026e+00) (349, 5.24714407274463390252e-01) (350, 9.10098423041737492056e-01) (351, 1.11663573599316690022e+00) (352, 8.46608138184085667888e+00) (353, 1.06935356446050455759e+00) (354, 5.13585668527241345771e+00) (355, 4.68205801074565730602e+00) (356, 4.57168961000452256371e+00) (357, 9.20146085150846060330e-01) (358, 6.54486202031046793159e-01) (359, 7.45295080371249807349e-01) (360, 6.29329787143850460929e-01) (361, 5.98429707386875286979e-01) (362, 6.79612847333034286734e-01) (363, 6.58967804770430709560e-01) (364, 6.78146657209357406337e-01) (365, 7.49914546172579909999e-01) (366, 6.42971465652068863150e-01) (367, 6.71073442638593808951e-01) (368, 6.53988074562433352455e-01) (369, 6.98341066488304740290e-01) (370, 8.66752917732711458676e-01) (371, 1.20071485079162676435e+00) (372, -5.72829407539982682351e-01) (373, 3.07473894767754485358e+00) (374, -3.71584908590086016034e+00) (375, -3.65004282225390186412e+00) (376, -6.78298070567650984719e-02) (377, 1.00030411334785762634e+00) (378, 1.52421354272108988681e+00) (379, 8.49036266283036233915e+00) (380, 1.49138606393070793921e+00) (381, 1.73774992692867158439e+00) (382, -6.30882201035780987297e+00) (383, 1.70771479558891536854e+00) (384, 2.80602883724314766667e+00) (385, 7.40662248294260194825e-01) (386, 6.64580850333190253920e-01) (387, 7.11315224661057010636e-01) (388, 7.58141479774582460749e-01) (389, 7.03509373166942730826e-01) (390, 6.81105913882335434195e-01) (391, 6.18106444041690017421e-01) (392, 7.29424808781108047206e-01) (393, 7.71079410474261428554e-01) (394, 6.80509629016002426383e-01) (395, 6.13883121252733365836e-01) (396, 7.79584411582830538734e-01) (397, 7.86709564735384780931e-01) (398, 7.39304766666845636358e-01) (399, 8.46168181612841130423e-01) (400, -4.40662474599962372679e+00) (401, 6.45155358858532324007e+00) (402, 1.09954771851306731811e+00) (403, 3.90498629294702859216e-01) (404, 7.21515855591933541469e-01) (405, 5.96968782029698274982e+00) (406, 4.64389982613652652077e+00) (407, 1.49401965654647228554e+00) (408, 1.54009444685940644071e+00) (409, 1.97748608520839175284e+00) (410, -6.32410072561587810469e+00) (411, 1.22596555780580068751e-01) (412, 5.30820839951779421817e-01) (413, 2.36607375718356910399e-01) (414, 4.25895760164323955443e-01) (415, 6.12040606545199317168e-01) (416, 7.04240165039169863093e-01) (417, 6.73416008749389782828e-01) (418, 5.96365180473288680751e-01) (419, 6.96166273813208724697e-01) (420, 6.04411099712809707363e-01) (421, 6.85523328046759750087e-01) (422, 7.17708090608199844596e-01) (423, 7.40147566736417905631e-01) (424, 6.65579395493607006706e-01) (425, 6.08672010244074579433e-01) (426, 7.39281367070212414028e-01) (427, 4.40218160767648358789e-01) (428, 7.68239531471517578254e-01) (429, -1.08709050282405250698e+01) (430, 2.42791573822614159539e+00) (431, 3.60123556285026502621e+00) (432, 1.16245774406748081375e+00) (433, 8.57552984012219687848e-01) (434, -1.19042212259275981268e+00) (435, -5.32694000714389326312e-02) (436, 1.68105961069277975994e+00) (437, 8.69882151280855331343e-01) (438, 1.07091144517957514992e+00) (439, -1.16063368957458701303e+00) (440, -3.33935425871103896966e+00) (441, -4.93360059736360856419e+00) (442, -9.46372786158428791481e-01) (443, 6.90785242464409088292e-01) (444, 5.87517514213192537653e-01) (445, 7.37327983179474011344e-01) (446, 6.35078845833619842765e-01) (447, 7.25542311232051040371e-01) (448, 6.38229720901211883266e-01) (449, 6.39496256272753860195e-01) (450, 6.25143954818328628775e-01) (451, 6.47237037645537305330e-01) (452, 7.22437339043446424824e-01) (453, 7.46216712656016523120e-01) (454, 7.46458512521703254627e-01) (455, 5.97559565992862584682e-02) (456, 3.36520095975444244463e-01) (457, -3.06103486933445745333e-01) (458, 1.90327486202950968419e+00) (459, 1.78124303207229317536e+00) (460, 1.11331458741209243790e+00) (461, -7.30807442568403575756e-01) (462, 3.54544712392511507382e-01) (463, 5.14397414763413940442e-01) (464, 1.34007209744338240398e+00) (465, 8.42428993598035358303e-01) (466, 7.82656766138224213591e-01) (467, -2.11419405372698898660e+00) (468, -3.35098856016835799920e+00) (469, -5.47516592714638239414e+00) (470, -1.07168522625576034812e+00) (471, 4.48468094741338751952e-01) (472, 5.96759355946648195612e-01) (473, 7.46297156014824047965e-01) (474, 6.22774267857154617545e-01) (475, 6.18061494688948775966e-01) (476, 7.11110879342517043789e-01) (477, 6.68213759224375869472e-01) (478, 7.38476639190101757926e-01) (479, 7.44213437238121167105e-01) (480, 7.08412331395106953380e-01) (481, 7.72248352839161489314e-01) (482, -3.62266127384863800831e-01) (483, -2.15288031370370624984e+00) (484, -1.62629105765912007620e+00) (485, -1.04865020755330537461e-02) (486, 4.12079958155754821902e-01) (487, -1.41287149658890276438e-01) (488, -2.60529813605344440219e-01) (489, 1.07040372659955895784e+00) (490, -6.91168386973051607214e+00) (491, 4.42894355031080155793e-01) (492, 1.50133671070469820741e-01) (493, 7.70725676432703177277e-01) (494, -1.26915254232979157756e+00) (495, -2.04038140501195464083e+00) (496, -3.53122565744343752669e+00) (497, -9.14099700166256390332e+00) (498, 4.79343174242830349918e-01) (499, 5.26370543144318858708e-01) (500, 6.89882858975994661677e-01) (501, 5.97443742254161969107e-01) (502, 7.86457557837924148281e-01) (503, 7.20426846902331496914e-01) (504, 7.71226633946856643398e-01) (505, 6.17284041504820968349e-01) (506, 7.41364514301761312609e-01) (507, 6.77210336127662793082e-01) (508, 6.76776008541113527350e-01) (509, 2.39300903067681786096e-01) (510, -1.82779482952058525136e+00) (511, -4.33181080344854141373e+00) (512, -2.13130458775450692954e+00) (513, -1.51107209363545114122e+00) (514, 2.45187189497438895458e+00) (515, 1.45532758687612928661e+00) (516, -1.97841188766501446805e-01) (517, 1.05068098661448683373e+00) (518, 8.37158436422887584916e-04) (519, 4.46712821881665167467e-01) (520, 5.00637485849012686678e-01) (521, -2.92084138122638092838e+00) (522, -1.45482727517187515609e+00) (523, -2.17962128188957215968e+00) (524, -3.60055694794555147809e+00) (525, -2.06625791100396893896e+00) (526, 4.54500790509191843203e-01) (527, 6.79668907762345120283e-01) (528, 7.41122252627480104792e-01) (529, 7.32645486989402905387e-01) (530, 6.33137252788504745205e-01) (531, 6.64789733152350570400e-01) (532, 7.57574950020274306972e-01) (533, 6.25338595967253829677e-01) (534, 7.88651967709144363639e-01) (535, 7.23674421706581250113e-01) (536, 6.33900841558701189093e-01) (537, 4.61013003830105017045e-01) (538, -2.88471698859538605575e+00) (539, -4.84497324014832120298e+00) (540, -4.24642090398573124332e+00) (541, -3.38546458169209696365e+00) (542, -3.33391616274003377285e+00) (543, -1.93833456651262414638e+00) (544, 7.57661780717863941881e-01) (545, 7.69922436594914660901e-01) (546, -2.36847887848979116177e-01) (547, -9.97989606761899517018e-01) (548, -5.97244121022329835236e-02) (549, -1.88626255251336316654e+00) (550, -1.44871562114930885201e+00) (551, -2.01884450283397631765e+00) (552, -3.84046437105198901207e+00) (553, 5.71779077863482920741e-01) (554, 5.97006775446237814009e-01) (555, 6.57631553097832277643e-01) (556, 7.25606118394660604132e-01) (557, 7.22650622795566244250e-01) (558, 7.74551276724299575527e-01) (559, 6.94464017312487746914e-01) (560, 6.74778488140067245205e-01) (561, 6.13432329754790450771e-01) (562, 7.64997561137637283046e-01) (563, 6.29203338609050644159e-01) (564, 6.36543282373475682867e-01) (565, 6.50022692190539208568e-01) (566, -3.41348387194866109695e+00) (567, -7.01246459027224755545e+00) (568, -5.54929531967873224119e+00) (569, -5.01552783814578440058e+00) (570, -3.82640862864317687908e+00) (571, -2.39159885286056539400e+00) (572, -8.28888653611266512655e+00) (573, -1.00164838121986554675e+00) (574, -2.08412268812617051950e+00) (575, -3.88659389940503974259e-01) (576, -1.74392190193434659662e+00) (577, -1.51712939028992921386e+00) (578, -2.16007274716456088015e+00) (579, -2.39339462482813258859e+00) (580, -2.57153900627531850631e-01) (581, 4.32189419873061420052e-01) (582, 5.82520767434704378473e-01) (583, 7.78944799537188203864e-01) (584, 7.67061101412602308613e-01) (585, 7.74369603336530820670e-01) (586, 6.70806158940753127773e-01) (587, 7.14708518843611861904e-01) (588, 7.05063786964377547939e-01) (589, 6.51101235907038833339e-01) (590, 6.14916336398085738857e-01) (591, 7.74715115824127331656e-01) (592, 6.62305918587970388067e-01) (593, 7.69753219809726219047e-01) (594, 1.55964976975898172995e-01) (595, -1.32416132868698426250e+01) (596, -5.50457393980259546140e+00) (597, -3.37247387920255858873e+00) (598, -1.35573687276407572888e+00) (599, -7.25576616622939418733e+00) (600, -8.69817300017403982615e-01) (601, -1.19192613948832057402e-01) (602, -1.70198810767267194599e+00) (603, -3.07305428913562694859e+00) (604, -1.24477447962369858203e+00) (605, -2.41875755471797226903e+00) (606, -6.15533680359658319503e+00) (607, 6.77388626916814784451e-01) (608, 6.18754190527015079937e-01) (609, 6.97968884690868929255e-01) (610, 5.87681082061520920767e-01) (611, 6.81758017708660513101e-01) (612, 7.25000357568937436881e-01) (613, 6.00573104481658126552e-01) (614, 6.83408793668707992275e-01) (615, 7.05563460152110244472e-01) (616, 7.80118648569544936855e-01) (617, 7.59958763282260085781e-01) (618, 6.26015779237708236415e-01) (619, 6.80055273273372784537e-01) (620, 6.08832341684627187384e-01) (621, 6.32655508204567507136e-01) (622, 5.70577069329153863109e-01) (623, -1.07866201916923216686e+01) (624, -3.95435641532667236930e+00) (625, -2.05760910978773248203e+00) (626, -1.66836321799500764129e+00) (627, -3.20117433035256837570e+00) (628, -7.33934291600620292151e-01) (629, -1.97045739561943955565e+00) (630, -7.69179207290247135553e-01) (631, -2.29936868909314195975e+00) (632, -3.36866276145835819023e+00) (633, -4.29795467813706633109e+00) (634, 5.43796816792531889639e-01) (635, 5.47699924678742622319e-01) (636, 6.39803702693099496379e-01) (637, 7.14313590759760530524e-01) (638, 6.12991081048847585855e-01) (639, 7.05630569101053373160e-01) (640, 6.47080140501934186759e-01) (641, 6.19519588212927962978e-01) (642, 5.95061120252570296962e-01) (643, 7.76688594977816726406e-01) (644, 6.25836503367385055263e-01) (645, 6.84213717143496658046e-01) (646, 6.87995855371913100917e-01) (647, 6.02805041209768188715e-01) (648, 6.36115347742790326890e-01) (649, 7.05289849872118623786e-01) (650, 6.94348580523598268854e-01) (651, 5.60784823404681054271e-01) (652, -2.13615679564457527917e+00) (653, -2.32749185891715582031e+00) (654, -1.86971728854257324137e+00) (655, -1.52476299105047008453e+00) (656, -1.43815181341493536493e+00) (657, -2.66940074539481919658e+00) (658, -4.36338747732624643305e+00) (659, -4.09756972228603633113e+00) (660, -2.33740343121993365827e+00) (661, 4.88660389852978049863e-01) (662, 5.86245694315958743026e-01) (663, 7.75855468543044102248e-01) (664, 6.49259710779533816272e-01) (665, 8.13253078492456649151e-01) (666, 6.46372215516476056330e-01) (667, 6.74442459306125896568e-01) (668, 7.01695850432592527213e-01) (669, 6.64685223858317519863e-01) (670, 7.83907224099597121914e-01) (671, 7.53384087841471816738e-01) (672, 6.89948615293463851650e-01) (673, 7.84712155024966384609e-01) (674, 7.35816483061274673183e-01) (675, 7.21528921883067275722e-01) (676, 6.63798695006752148551e-01) (677, 6.19244376215458136592e-01) (678, 7.25540491503135154261e-01) (679, 7.13409818539345819133e-01) (680, 7.39709028423265357866e-01) (681, 6.42661795025539328563e-01) (682, 5.90012194340269080506e-01) (683, 5.32740937970535233248e-01) (684, -4.16545210819366851229e-01) (685, -1.30476107160374873994e-02) (686, 1.44183522430326671593e-01) (687, 5.60581668761940710155e-01) (688, 7.34226929294206964727e-01) (689, 9.77473716239462442346e-01) (690, 9.00944440574408256239e-01) (691, 9.16019750594633475060e-01) (692, 7.34663917040689784521e-01) (693, 7.45023078479774891747e-01) (694, 6.91491435045774816004e-01) (695, 6.95050519368057506675e-01) (696, 6.68926237464624540152e-01) (697, 6.89681465094169388053e-01) (698, 7.72553284327944900234e-01) (699, 7.75230188529452468593e-01) (700, 7.62418915193041946132e-01) (701, 7.62204293768366958339e-01) (702, 7.34358061711749221523e-01) (703, 6.58111330728491927822e-01) (704, 7.52660234134158279140e-01) (705, 6.76486200035291806998e-01) (706, 7.85951918304639951529e-01) (707, 6.33073703061303283413e-01) (708, 7.11654832339596477020e-01) (709, 7.22408956623724729518e-01) (710, 7.20383814953917900326e-01) (711, 6.15722567032625067718e-01) (712, 1.09409719764371549111e+00) (713, 7.27133535038282041718e-01) (714, 6.80497363178974468134e-01) (715, 7.12300549251462800093e-01) (716, 1.13845131110416142306e+00) (717, 1.14130021583474672298e+00) (718, 9.51304089364955252073e-01) (719, 1.06068406250270319546e+00) (720, 8.20210647384421620565e-01) (721, 7.38433031951381990687e-01) (722, 6.17540924192148343863e-01) (723, 6.41544943988996640982e-01) (724, 7.91826744239291335781e-01) (725, 6.65509191017111922939e-01) (726, 7.40429659049471999843e-01) (727, 6.65928926925620223720e-01) (728, 7.63242874901255752285e-01) (729, 7.18726728718241836269e-01) (730, 6.46902900795897628505e-01) (731, 7.31405590336283828456e-01) (732, 6.87242685199457303824e-01) (733, 7.87572628200727598013e-01) (734, 5.95828576327043668570e-01) (735, 6.45646727026182309928e-01) (736, 6.70008670946960704917e-01) (737, 7.88668022576668015233e-01) (738, 6.91409527490954856077e-01) (739, 7.79899999045096992134e-01) (740, 7.23099327459242102734e-01) (741, 6.65512703288005602609e-01) (742, 7.14290923166648217268e-01) (743, 7.08697707453393110910e-01) (744, 6.48527520091014997305e-01) (745, 6.71543659782238844258e-01) (746, 8.18864602047548406638e-01) (747, 6.74538071650610082663e-01) (748, 7.03156019944295995749e-01) (749, 6.14921031833368436637e-01) (750, 6.01669868767934934439e-01) (751, 6.19179977417665616812e-01) (752, 7.10170355300864364345e-01) (753, 6.23818886141738082607e-01) (754, 6.65333022038897659023e-01) (755, 7.07740899782141830165e-01) (756, 6.95071887831648971279e-01) (757, 6.11506481330355788906e-01) (758, 7.79413629929980422695e-01) (759, 6.64058570425471450527e-01) (760, 7.35977013270815993984e-01) (761, 6.32060330967864181240e-01) (762, 6.01207968454322005947e-01) (763, 6.28963506162840024771e-01) (764, 6.25376759410577909293e-01) (765, 6.02780348003584043326e-01) (766, 6.79786181390958921256e-01) (767, 6.99787473619657651724e-01) (768, 5.94912728608328000846e-01) (769, 7.68858511607607986171e-01) (770, 6.91160282433706418814e-01) (771, 7.19452967713817281847e-01) (772, 6.30522100101455373888e-01) (773, 7.56858890722736044054e-01) (774, 6.42100283722623510485e-01) (775, 6.87093187730273391445e-01) (776, 6.45340029756983901699e-01) (777, 6.23227794330081130703e-01) (778, 7.21594414056020871939e-01) (779, 7.07891341905554916103e-01) (780, 6.43324770640095855434e-01) (781, 7.27872376005610610683e-01) (782, 7.32247267525157119472e-01) (783, 7.59238917987307693203e-01) (784, -9.63076067483133180236e-02) (0, 5.31591933606612165875e-02) (1, 1.22558721566055919827e-01) (2, 1.08085849547241791280e-01) (3, 7.04094779132352910356e-02) (4, 1.07716151738022430928e-01) (5, 1.77888223194931721638e-01) (6, 2.12130301856850361775e-01) (7, 1.45520293378685688923e-01) (8, 1.84839987420891499470e-01) (9, 4.62697532413947065777e-02) (10, 1.76072993540619587849e-01) (11, 1.92796283626412129353e-01) (12, 1.31231875383709672978e-01) (13, 8.10364049314008794145e-02) (14, 1.92884975337837910603e-01) (15, 1.05834190958593948872e-01) (16, 1.77372628116463398884e-01) (17, 1.20949358904217374455e-01) (18, 1.44967706167553639363e-01) (19, 1.42842949592922902058e-01) (20, 1.71661072635506367634e-01) (21, 2.37804704570625996540e-01) (22, 1.93926790022705769490e-01) (23, 2.00632670187805867146e-01) (24, 1.64575063848351216267e-01) (25, 1.07561924719666107686e-01) (26, 4.97012373445975264019e-02) (27, 9.81912289200770060926e-02) (28, 4.55529999373900373882e-02) (29, 2.14683973455284810017e-01) (30, 6.13700982569205105710e-02) (31, 5.46208929656493147320e-02) (32, 9.31513991592870793657e-02) (33, 1.25364654922341084431e-01) (34, 8.09390779970632634477e-02) (35, 1.56776258015488362263e-01) (36, 5.91615748046385586667e-02) (37, 4.89780839918600996441e-02) (38, 5.82052480815398037839e-02) (39, 1.99910276794289326618e-01) (40, 5.11565369008528669781e-02) (41, 1.90186956190918660115e-01) (42, 1.48615264558647847126e-01) (43, 1.38297126853321766804e-01) (44, 2.26380758274744658953e-01) (45, 9.74089365838514964491e-02) (46, 2.00040021204804158161e-01) (47, 1.60413407945488667439e-01) (48, 1.74267002606247639607e-01) (49, 1.00916435235594431630e-01) (50, 5.91650542257773220944e-02) (51, 1.01836775654410044423e-01) (52, 9.46298439441668193250e-02) (53, 2.09000551366661763142e-01) (54, 5.83781462548720181394e-02) (55, 2.15113603734825825642e-01) (56, 7.24711802242742619828e-02) (57, 6.39880907176481189547e-02) (58, 6.92135405181394658403e-02) (59, 7.39328872798429570512e-02) (60, 2.34580763840531086872e-01) (61, 8.64923458932386479692e-02) (62, 8.44624910889612279252e-02) (63, 8.36408745883451543168e-02) (64, 1.67765700483177876423e-01) (65, 1.21310272478912961613e-01) (66, 1.96325832271431660603e-01) (67, 1.82835989856575703572e-01) (68, 1.26197063588951829960e-01) (69, 2.10439794921730732868e-01) (70, 1.38654963338230824421e-01) (71, 1.33262307607983354618e-01) (72, 1.56535447800015187214e-01) (73, 2.43178942465637898396e-01) (74, 2.27468141579483723591e-01) (75, 1.39576220178459858845e-01) (76, 9.64965794621454875379e-02) (77, 1.83416866922234272907e-01) (78, 5.58983248113142927593e-02) (79, 2.26672285461281514118e-01) (80, 2.40242013001297688435e-01) (81, 7.09720936058508000688e-02) (82, 8.44177615283475957231e-02) (83, 9.07805610834108434037e-02) (84, 2.35881337189530110310e-01) (85, 9.87046149013983409315e-02) (86, 6.18028726814734141737e-02) (87, 6.42612290023313464937e-02) (88, 1.18601412737225173077e-01) (89, 8.69251240430818639116e-02) (90, 9.41028196750628154188e-02) (91, 1.09090888166283234151e-01) (92, 1.29326173329209093144e-01) (93, 1.34474017882202867558e-01) (94, 1.48640462422226643513e-01) (95, 5.30005779503333052105e-02) (96, 2.11692997479294514607e-01) (97, 9.98045074590192815567e-02) (98, 1.89875934640361371253e-01) (99, 9.19294286467566557075e-02) (100, 6.53541725077165791546e-02) (101, 8.59897423679815559039e-02) (102, 1.82969787382935261677e-01) (103, 1.79667675161217427204e-01) (104, 8.53965852795587621049e-02) (105, 1.66346633100365376423e-01) (106, 7.51525920270429692582e-02) (107, 1.37801864409302449177e-01) (108, 1.05672207885836227925e-01) (109, 8.69596239565359196977e-02) (110, 1.20382854008530257306e-01) (111, 1.01822921299790064564e-01) (112, 1.13840424680565474591e-01) (113, 1.60709322655056691120e-01) (114, 1.48512193226670002888e-01) (115, 1.05630473458622559102e-01) (116, 2.15322652125214314411e-01) (117, 1.66223773026322102497e-01) (118, 1.25800402128552174519e-01) (119, 8.98327652750955663041e-02) (120, 2.07507467661429939598e-01) (121, 1.73973799823333302728e-01) (122, 1.52994224010516682855e-01) (123, 9.21351376218333406598e-02) (124, 6.40373143596185967485e-02) (125, 5.72241905374064052658e-02) (126, 9.81698622961379718799e-02) (127, 1.79516454979929185320e-01) (128, 1.11133350994143675905e-01) (129, 4.58238339085914603288e-02) (130, 8.13464994771017635422e-02) (131, 1.37140131298972650642e-01) (132, 9.15232476037039083261e-02) (133, 2.20832190309096898506e-01) (134, 7.33237106543077749032e-02) (135, 1.33579835066033991708e-01) (136, 1.44637675249432301472e-01) (137, 1.05935146325682266744e-01) (138, 2.28089251780365681599e-01) (139, 2.06218593978737568806e-01) (140, 1.48803481125687336872e-01) (141, 1.04380813652132614644e-01) (142, 6.39502194164739551363e-02) (143, 2.18552612924431566288e-01) (144, 2.20998847150658372929e-01) (145, 1.66820972059299049706e-01) (146, 7.82536502466692346358e-02) (147, 1.87517502745280562060e-01) (148, 8.38594863451581490343e-02) (149, 1.55496655856145304941e-01) (150, 2.36133516906310597649e-01) (151, 5.12064527797747703203e-03) (152, -3.01395327573714122416e-01) (153, -2.45164839710268728235e-01) (154, -3.26543515260004024725e-01) (155, -2.33414227694299158955e+00) (156, -1.39910297245202763783e+00) (157, -3.50019176094455375381e-01) (158, -2.92393059313428738122e-01) (159, -1.67389077953846027169e-01) (160, 1.15857836010900508428e-01) (161, 1.38098416689739850183e-01) (162, 1.25385192000376982646e-01) (163, 2.15784174086127628067e-01) (164, 1.21483421717216003022e-01) (165, 1.61314353634070067889e-01) (166, 1.10815466606472595723e-01) (167, 2.23579936885689500858e-01) (168, 2.23909520768975023319e-01) (169, 9.48134225247847239881e-02) (170, 1.85707235002373433064e-01) (171, 1.28621698582028154423e-01) (172, 1.53552799318362770409e-01) (173, 2.00853460868487654345e-01) (174, 9.70979680408128043023e-02) (175, 1.25706239496243904474e-01) (176, 1.23541726623547995501e-01) (177, -4.04735090476847081398e-02) (178, -3.33283788617952381195e-01) (179, -2.04061014145663521813e-01) (180, -3.13137775512187410687e-01) (181, 6.97387126334288731666e-02) (182, 1.92835406296263778270e-01) (183, 3.86699297353588655746e-01) (184, 7.42416675785128599152e-01) (185, -3.89870525670748813152e-01) (186, -1.34349363539248811694e-01) (187, -7.64504996490375926532e-02) (188, -2.25014616720327048638e-01) (189, -1.83669128368365297543e-01) (190, 7.91337167391167189967e-02) (191, 9.07174961901765913863e-02) (192, 1.33873782800566915041e-01) (193, 1.76190188918639717430e-01) (194, 7.37983893989072881059e-02) (195, 2.18589180374001268437e-01) (196, 9.57146931825625102430e-02) (197, 1.40522555672978138874e-01) (198, 1.98077821397637104939e-01) (199, 7.39827741127504628915e-02) (200, 1.86531984647403059618e-01) (201, 1.31561710629152422980e-01) (202, 1.47062637787523486921e-01) (203, 1.89102509134536321544e-02) (204, -4.38262472799698876713e-01) (205, -1.82528115454883732571e-01) (206, -1.46124290851146726444e-01) (207, 8.08133278327814036368e-02) (208, -1.17086473661555778847e+00) (209, -5.33123877397040146775e-01) (210, -7.57826220727741639571e-01) (211, 5.58033476675474537920e-01) (212, -5.72142079422856886239e-01) (213, 8.17309705297775579425e-01) (214, 1.56054133399395489334e+00) (215, -8.40764214389374819891e-02) (216, -1.98884179986700077025e-01) (217, -3.69316726525463157049e-01) (218, -1.94081615435860860286e-01) (219, 1.74570229581681279907e-01) (220, 1.04996873264081733157e-01) (221, 8.42803217712287527918e-02) (222, 4.52970180850520015570e-02) (223, 2.13006847762917256306e-01) (224, 2.25309842491005662968e-01) (225, 7.65542548535810551957e-02) (226, 1.85635362187816205237e-01) (227, 7.21893503084518051161e-02) (228, 1.64853467735933428839e-01) (229, 1.28490560632410266706e-01) (230, 2.48623072700037868465e-02) (231, -5.26069158829746141848e-01) (232, -1.74033015250296269061e-01) (233, -1.21238907850964583446e-01) (234, -2.36263509263758442192e-01) (235, -3.92305412715027224113e-01) (236, 2.02161911011305983621e+00) (237, 1.78181188135328105737e+00) (238, 1.65907936961513646779e+00) (239, 4.86207873369664245189e+00) (240, 1.02640433844557188436e+00) (241, 1.54597076083185375195e-01) (242, 1.90493160533777933230e-01) (243, -5.51778257875913946684e-01) (244, 1.23740643188583066686e-02) (245, -3.35968442388116905750e-01) (246, -1.74485723985094737243e-01) (247, 9.26943696056076738010e-02) (248, 1.60878593813784220856e-01) (249, 5.48739864352815118198e-02) (250, 1.02151996288825444581e-01) (251, 4.85297825573431929058e-02) (252, 1.13933892214153884015e-01) (253, 1.05387495721195739717e-01) (254, 2.15575997153712839438e-01) (255, 8.93793401588317826256e-02) (256, 1.26466600422628305811e-01) (257, 1.29505543242696946615e-01) (258, 1.08514277146895279924e-01) (259, -3.23400400949642341519e-01) (260, -3.10891496068564032740e-01) (261, -3.95355369218335417347e-01) (262, -8.50350542944425386027e-02) (263, 1.86016527090889643992e-01) (264, 1.74022948785060838084e+00) (265, -2.72329449088248715105e-02) (266, -2.55502630678085929095e-01) (267, -1.60317659273006074550e+00) (268, -2.82226100303029081573e-01) (269, -3.05893242588190783504e-01) (270, 8.05598329949805957995e-01) (271, -5.96417679189962357533e-01) (272, 9.40641417220678399680e-02) (273, -1.08934351726815689676e-01) (274, -9.70842361295725340964e-03) (275, -1.70244588158069531936e-01) (276, 9.90930672401261758431e-02) (277, 1.10719233499896207995e-01) (278, 1.57193786297370491356e-01) (279, 4.44628682373511274761e-02) (280, 1.38765418195580220173e-01) (281, 2.17284267658804597367e-01) (282, 4.70320176281466273416e-02) (283, 2.02834911393058064943e-01) (284, 6.82671202466561682920e-02) (285, 2.13872263725956857083e-01) (286, 5.15740366894806220865e-02) (287, 2.04117450009864809246e-01) (288, 1.86163676038193781626e-01) (289, -2.77654501751169624502e-01) (290, 9.29335049392482792641e-01) (291, 1.41460256854863675180e+00) (292, -2.00636546758538508728e-01) (293, -6.04170059782059398756e-01) (294, 1.76595510574812847304e-01) (295, -5.29174392325216569333e-01) (296, -9.18262603694530304965e-02) (297, 3.16800055548261072502e+00) (298, 4.68704739231536271493e-01) (299, 5.72848909418557372675e-01) (300, 6.00023418453465920419e-02) (301, 1.69654538347062261439e-01) (302, 2.14566195923575814275e-01) (303, 1.67644968694097173945e-01) (304, 2.17591479993688441397e-01) (305, 7.44734106151595104395e-02) (306, 1.90370225572441792439e-01) (307, 9.86628879247652690321e-02) (308, 1.47673310005520558308e-01) (309, 1.04271561194609188594e-01) (310, 9.71651229955687589790e-02) (311, 2.37440327156958869148e-01) (312, 7.55817399141170825905e-02) (313, 1.33592502833226017822e-01) (314, 2.53572430699734119308e-01) (315, 1.54507827055502949820e-01) (316, 3.04186997885971421862e-01) (317, 1.04912506671999916641e+00) (318, 6.86314431470654628953e-01) (319, -1.91522692585789078290e-01) (320, -6.41868567232682596391e-01) (321, 4.15972560042402461633e-02) (322, -1.57438428016380360663e-01) (323, 1.14500316040152066988e-01) (324, 6.59550581212402092790e-02) (325, 5.31524763078814799222e-01) (326, 8.36610108170948892081e-03) (327, 1.58130247043463501022e+00) (328, 2.41935826347940335923e-01) (329, 2.31448841133280264204e-01) (330, 1.50982382625819533395e-01) (331, 1.92808596640002549716e-01) (332, 1.69336867214713415741e-01) (333, 1.29615792298172716190e-01) (334, 1.41257287227963185261e-01) (335, 1.59359322154377675007e-01) (336, 1.60796747767780995320e-01) (337, 8.75362132130609593705e-02) (338, 2.13930913472031331013e-01) (339, 6.07053563301899468119e-02) (340, 1.55195036156870441735e-01) (341, 1.27204835610071509411e-01) (342, 1.21373833212974679974e-01) (343, 4.42363121871280240427e-01) (344, -1.93207563505723489694e-01) (345, 8.98307355231163451315e-01) (346, -2.69697565539051720140e-01) (347, -2.68878367628450187787e-01) (348, -1.96415340293666612626e-01) (349, 2.07038326888882122379e-02) (350, 4.23880971547252391463e-02) (351, -6.88120397127618254468e-03) (352, 1.21764863168374271041e+00) (353, 5.90969768508945558771e-01) (354, 1.58287747956996094345e+00) (355, 1.92536000866532086562e+00) (356, 1.72788183731410055488e-01) (357, 1.40822181836409210387e-01) (358, 1.36637767356946160380e-01) (359, 2.31261667316197155886e-01) (360, 6.82105909981264579844e-02) (361, 2.37861998666475921160e-01) (362, 1.86707281732414936970e-01) (363, 2.00069406294678425740e-01) (364, 1.24137790167187400669e-01) (365, 8.38732693730341039018e-02) (366, 1.15337425136421797833e-01) (367, 2.40044407316877012049e-01) (368, 1.70227154582674622407e-01) (369, 1.42669588779101241816e-01) (370, 1.15916913385609554599e-01) (371, 4.21384744973732017215e-01) (372, -1.23987759847539513736e+00) (373, 8.34661855066273772330e-01) (374, 1.11069260637027197869e-01) (375, -3.84059190711594999890e-01) (376, -1.07122001951533596387e-01) (377, 2.11900573782592138716e-01) (378, 7.38952279654573995771e-01) (379, 2.25838516436813430133e+00) (380, 2.02573889569616483186e+00) (381, 1.57484501592566128458e+00) (382, 1.40121888546906814277e+00) (383, 3.81659622297739808960e-01) (384, 2.01804916759407398930e-01) (385, 2.33510234318519721564e-01) (386, 1.54014967182216216957e-01) (387, 1.18907185327422365573e-01) (388, 7.97017831915732832826e-02) (389, 4.44582391720309139105e-02) (390, 1.12169870400284393819e-01) (391, 1.11751535200928314717e-01) (392, 2.40530365371559834431e-01) (393, 5.47858562706458052105e-02) (394, 6.77296381829725208101e-02) (395, 1.19778029391004098292e-01) (396, 1.34288590522884693224e-01) (397, 1.94375494038061036317e-01) (398, 1.64535337127341863006e-01) (399, 2.09554234683875406642e-01) (400, 3.56124882983910664991e-02) (401, 7.27439341751811574532e-01) (402, -3.94484587668048225506e-01) (403, 1.44008177229407278996e-02) (404, 1.75894877251227127468e-01) (405, 3.43309931431765968934e-01) (406, 7.42311734978100323801e-01) (407, 4.85360758524862490049e-01) (408, 3.26743952048842478675e+00) (409, 2.45625750596393332970e+00) (410, 3.10925248914954266422e-01) (411, 3.63395211026621561823e-02) (412, 5.73580418084352061658e-02) (413, 1.27213763436520993499e-01) (414, 1.00098257913537061481e-01) (415, 