FANN_FLO_2.1
num_layers=3
learning_rate=0.400000
connection_rate=1.000000
network_type=0
learning_momentum=0.000000
training_algorithm=2
train_error_function=1
train_stop_function=0
cascade_output_change_fraction=0.010000
quickprop_decay=-0.000100
quickprop_mu=1.750000
rprop_increase_factor=1.200000
rprop_decrease_factor=0.500000
rprop_delta_min=0.000000
rprop_delta_max=50.000000
rprop_delta_zero=0.100000
cascade_output_stagnation_epochs=12
cascade_candidate_change_fraction=0.010000
cascade_candidate_stagnation_epochs=12
cascade_max_out_epochs=150
cascade_max_cand_epochs=150
cascade_num_candidate_groups=2
bit_fail_limit=3.49999999999999977796e-01
cascade_candidate_limit=1.00000000000000000000e+03
cascade_weight_multiplier=4.00000000000000022204e-01
cascade_activation_functions_count=10
cascade_activation_functions=3 5 7 8 10 11 14 15 16 17 
cascade_activation_steepnesses_count=4
cascade_activation_steepnesses=2.50000000000000000000e-01 5.00000000000000000000e-01 7.50000000000000000000e-01 1.00000000000000000000e+00 
layer_sizes=785 101 2 
scale_included=0
neurons (num_inputs, activation_function, activation_steepness)=(0, 0, 0.00000000000000000000e+00) (0, 0, 0.00000000000000000000e+00) (0, 0, 0.00000000000000000000e+00) (0, 0, 0.00000000000000000000e+00) (0, 0, 0.00000000000000000000e+00) (0, 0, 0.00000000000000000000e+00) (0, 0, 0.00000000000000000000e+00) (0, 0, 0.00000000000000000000e+00) (0, 0, 0.00000000000000000000e+00) (0, 0, 0.00000000000000000000e+00) (0, 0, 0.00000000000000000000e+00) (0, 0, 0.00000000000000000000e+00) (0, 0, 0.00000000000000000000e+00) (0, 0, 0.00000000000000000000e+00) (0, 0, 0.00000000000000000000e+00) (0, 0, 0.00000000000000000000e+00) (0, 0, 0.00000000000000000000e+00) (0, 0, 0.00000000000000000000e+00) (0, 0, 0.00000000000000000000e+00) (0, 0, 0.00000000000000000000e+00) (0, 0, 0.00000000000000000000e+00) (0, 0, 0.00000000000000000000e+00) (0, 0, 0.00000000000000000000e+00) (0, 0, 0.00000000000000000000e+00) (0, 0, 0.00000000000000000000e+00) (0, 0, 0.00000000000000000000e+00) (0, 0, 0.00000000000000000000e+00) (0, 0, 0.00000000000000000000e+00) (0, 0, 0.00000000000000000000e+00) (0, 0, 0.00000000000000000000e+00) (0, 0, 0.00000000000000000000e+00) (0, 0, 0.00000000000000000000e+00) (0, 0, 0.00000000000000000000e+00) (0, 0, 0.00000000000000000000e+00) (0, 0, 0.00000000000000000000e+00) (0, 0, 0.00000000000000000000e+00) (0, 0, 0.00000000000000000000e+00) (0, 0, 0.00000000000000000000e+00) (0, 0, 0.00000000000000000000e+00) (0, 0, 0.00000000000000000000e+00) (0, 0, 0.00000000000000000000e+00) (0, 0, 0.00000000000000000000e+00) (0, 0, 0.00000000000000000000e+00) (0, 0, 0.00000000000000000000e+00) (0, 0, 0.00000000000000000000e+00) (0, 0, 0.00000000000000000000e+00) (0, 0, 0.00000000000000000000e+00) (0, 0, 0.00000000000000000000e+00) (0, 0, 0.00000000000000000000e+00) (0, 0, 0.00000000000000000000e+00) (0, 0, 0.00000000000000000000e+00) (0, 0, 0.00000000000000000000e+00) (0, 0, 0.00000000000000000000e+00) (0, 0, 0.00000000000000000000e+00) (0, 0, 0.00000000000000000000e+00) (0, 0, 0.00000000000000000000e+00) (0, 0, 0.00000000000000000000e+00) (0, 0, 0.00000000000000000000e+00) (0, 0, 0.00000000000000000000e+00) (0, 0, 0.00000000000000000000e+00) (0, 0, 0.00000000000000000000e+00) (0, 0, 0.00000000000000000000e+00) (0, 0, 0.00000000000000000000e+00) (0, 0, 0.00000000000000000000e+00) (0, 0, 0.00000000000000000000e+00) (0, 0, 0.00000000000000000000e+00) (0, 0, 0.00000000000000000000e+00) (0, 0, 0.00000000000000000000e+00) (0, 0, 0.00000000000000000000e+00) (0, 0, 0.00000000000000000000e+00) (0, 0, 0.00000000000000000000e+00) (0, 0, 0.00000000000000000000e+00) (0, 0, 0.00000000000000000000e+00) (0, 0, 0.00000000000000000000e+00) (0, 0, 0.00000000000000000000e+00) (0, 0, 0.00000000000000000000e+00) (0, 0, 0.00000000000000000000e+00) (0, 0, 0.00000000000000000000e+00) (0, 0, 0.00000000000000000000e+00) (0, 0, 0.00000000000000000000e+00) (0, 0, 0.00000000000000000000e+00) (0, 0, 0.00000000000000000000e+00) (0, 0, 0.00000000000000000000e+00) (0, 0, 0.00000000000000000000e+00) (0, 0, 0.00000000000000000000e+00) (0, 0, 0.00000000000000000000e+00) (0, 0, 0.00000000000000000000e+00) (0, 0, 0.00000000000000000000e+00) (0, 0, 0.00000000000000000000e+00) (0, 0, 0.00000000000000000000e+00) (0, 0, 0.00000000000000000000e+00) (0, 0, 0.00000000000000000000e+00) (0, 0, 0.00000000000000000000e+00) (0, 0, 0.00000000000000000000e+00) (0, 0, 0.00000000000000000000e+00) (0, 0, 0.00000000000000000000e+00) (0, 0, 0.00000000000000000000e+00) (0, 0, 0.00000000000000000000e+00) (0, 0, 0.00000000000000000000e+00) (0, 0, 0.00000000000000000000e+00) (0, 0, 0.00000000000000000000e+00) (0, 0, 0.00000000000000000000e+00) (0, 0, 0.00000000000000000000e+00) (0, 0, 0.00000000000000000000e+00) (0, 0, 0.00000000000000000000e+00) (0, 0, 0.00000000000000000000e+00) (0, 0, 0.00000000000000000000e+00) (0, 0, 0.00000000000000000000e+00) (0, 0, 0.00000000000000000000e+00) (0, 0, 0.00000000000000000000e+00) (0, 0, 0.00000000000000000000e+00) (0, 0, 0.00000000000000000000e+00) (0, 0, 0.00000000000000000000e+00) (0, 0, 0.00000000000000000000e+00) (0, 0, 0.00000000000000000000e+00) (0, 0, 0.00000000000000000000e+00) (0, 0, 0.00000000000000000000e+00) (0, 0, 0.00000000000000000000e+00) (0, 0, 0.00000000000000000000e+00) (0, 0, 0.00000000000000000000e+00) (0, 0, 0.00000000000000000000e+00) (0, 0, 0.00000000000000000000e+00) (0, 0, 0.00000000000000000000e+00) (0, 0, 0.00000000000000000000e+00) (0, 0, 0.00000000000000000000e+00) (0, 0, 0.00000000000000000000e+00) (0, 0, 0.00000000000000000000e+00) (0, 0, 0.00000000000000000000e+00) (0, 0, 0.00000000000000000000e+00) (0, 0, 0.00000000000000000000e+00) (0, 0, 0.00000000000000000000e+00) (0, 0, 0.00000000000000000000e+00) (0, 0, 0.00000000000000000000e+00) (0, 0, 0.00000000000000000000e+00) (0, 0, 0.00000000000000000000e+00) (0, 0, 0.00000000000000000000e+00) (0, 0, 0.00000000000000000000e+00) (0, 0, 0.00000000000000000000e+00) (0, 0, 0.00000000000000000000e+00) (0, 0, 0.00000000000000000000e+00) (0, 0, 0.00000000000000000000e+00) (0, 0, 0.00000000000000000000e+00) (0, 0, 0.00000000000000000000e+00) (0, 0, 0.00000000000000000000e+00) (0, 0, 0.00000000000000000000e+00) (0, 0, 0.00000000000000000000e+00) (0, 0, 0.00000000000000000000e+00) (0, 0, 0.00000000000000000000e+00) (0, 0, 0.00000000000000000000e+00) (0, 0, 0.00000000000000000000e+00) (0, 0, 0.00000000000000000000e+00) (0, 0, 0.00000000000000000000e+00) (0, 0, 0.00000000000000000000e+00) (0, 0, 0.00000000000000000000e+00) (0, 0, 0.00000000000000000000e+00) (0, 0, 0.00000000000000000000e+00) (0, 0, 0.00000000000000000000e+00) (0, 0, 0.00000000000000000000e+00) (0, 0, 0.00000000000000000000e+00) (0, 0, 0.00000000000000000000e+00) (0, 0, 0.00000000000000000000e+00) (0, 0, 0.00000000000000000000e+00) (0, 0, 0.00000000000000000000e+00) (0, 0, 0.00000000000000000000e+00) (0, 0, 0.00000000000000000000e+00) (0, 0, 0.00000000000000000000e+00) (0, 0, 0.00000000000000000000e+00) (0, 0, 0.00000000000000000000e+00) (0, 0, 0.00000000000000000000e+00) (0, 0, 0.00000000000000000000e+00) (0, 0, 0.00000000000000000000e+00) (0, 0, 0.00000000000000000000e+00) (0, 0, 0.00000000000000000000e+00) (0, 0, 0.00000000000000000000e+00) (0, 0, 0.00000000000000000000e+00) (0, 0, 0.00000000000000000000e+00) (0, 0, 0.00000000000000000000e+00) (0, 0, 0.00000000000000000000e+00) (0, 0, 0.00000000000000000000e+00) (0, 0, 0.00000000000000000000e+00) (0, 0, 0.00000000000000000000e+00) (0, 0, 0.00000000000000000000e+00) (0, 0, 0.00000000000000000000e+00) (0, 0, 0.00000000000000000000e+00) (0, 0, 0.00000000000000000000e+00) (0, 0, 0.00000000000000000000e+00) (0, 0, 0.00000000000000000000e+00) (0, 0, 0.00000000000000000000e+00) (0, 0, 0.00000000000000000000e+00) (0, 0, 0.00000000000000000000e+00) (0, 0, 0.00000000000000000000e+00) (0, 0, 0.00000000000000000000e+00) (0, 0, 0.00000000000000000000e+00) (0, 0, 0.00000000000000000000e+00) (0, 0, 0.00000000000000000000e+00) (0, 0, 0.00000000000000000000e+00) (0, 0, 0.00000000000000000000e+00) (0, 0, 0.00000000000000000000e+00) (0, 0, 0.00000000000000000000e+00) (0, 0, 0.00000000000000000000e+00) (0, 0, 0.00000000000000000000e+00) (0, 0, 0.00000000000000000000e+00) (0, 0, 0.00000000000000000000e+00) (0, 0, 0.00000000000000000000e+00) (0, 0, 0.00000000000000000000e+00) (0, 0, 0.00000000000000000000e+00) (0, 0, 0.00000000000000000000e+00) (0, 0, 0.00000000000000000000e+00) (0, 0, 0.00000000000000000000e+00) (0, 0, 0.00000000000000000000e+00) (0, 0, 0.00000000000000000000e+00) (0, 0, 0.00000000000000000000e+00) (0, 0, 0.00000000000000000000e+00) (0, 0, 0.00000000000000000000e+00) (0, 0, 0.00000000000000000000e+00) (0, 0, 0.00000000000000000000e+00) (0, 0, 0.00000000000000000000e+00) (0, 0, 0.00000000000000000000e+00) (0, 0, 0.00000000000000000000e+00) (0, 0, 0.00000000000000000000e+00) (0, 0, 0.00000000000000000000e+00) (0, 0, 0.00000000000000000000e+00) (0, 0, 0.00000000000000000000e+00) (0, 0, 0.00000000000000000000e+00) (0, 0, 0.00000000000000000000e+00) (0, 0, 0.00000000000000000000e+00) (0, 0, 0.00000000000000000000e+00) (0, 0, 0.00000000000000000000e+00) (0, 0, 0.00000000000000000000e+00) (0, 0, 0.00000000000000000000e+00) (0, 0, 0.00000000000000000000e+00) (0, 0, 0.00000000000000000000e+00) (0, 0, 0.00000000000000000000e+00) (0, 0, 0.00000000000000000000e+00) (0, 0, 0.00000000000000000000e+00) (0, 0, 0.00000000000000000000e+00) (0, 0, 0.00000000000000000000e+00) (0, 0, 0.00000000000000000000e+00) (0, 0, 0.00000000000000000000e+00) (0, 0, 0.00000000000000000000e+00) (0, 0, 0.00000000000000000000e+00) (0, 0, 0.00000000000000000000e+00) (0, 0, 0.00000000000000000000e+00) (0, 0, 0.00000000000000000000e+00) (0, 0, 0.00000000000000000000e+00) (0, 0, 0.00000000000000000000e+00) (0, 0, 0.00000000000000000000e+00) (0, 0, 0.00000000000000000000e+00) (0, 0, 0.00000000000000000000e+00) (0, 0, 0.00000000000000000000e+00) (0, 0, 0.00000000000000000000e+00) (0, 0, 0.00000000000000000000e+00) (0, 0, 0.00000000000000000000e+00) (0, 0, 0.00000000000000000000e+00) (0, 0, 0.00000000000000000000e+00) (0, 0, 0.00000000000000000000e+00) (0, 0, 0.00000000000000000000e+00) (0, 0, 0.00000000000000000000e+00) (0, 0, 0.00000000000000000000e+00) (0, 0, 0.00000000000000000000e+00) (0, 0, 0.00000000000000000000e+00) (0, 0, 0.00000000000000000000e+00) (0, 0, 0.00000000000000000000e+00) (0, 0, 0.00000000000000000000e+00) (0, 0, 0.00000000000000000000e+00) (0, 0, 0.00000000000000000000e+00) (0, 0, 0.00000000000000000000e+00) (0, 0, 0.00000000000000000000e+00) (0, 0, 0.00000000000000000000e+00) (0, 0, 0.00000000000000000000e+00) (0, 0, 0.00000000000000000000e+00) (0, 0, 0.00000000000000000000e+00) (0, 0, 0.00000000000000000000e+00) (0, 0, 0.00000000000000000000e+00) (0, 0, 0.00000000000000000000e+00) (0, 0, 0.00000000000000000000e+00) (0, 0, 0.00000000000000000000e+00) (0, 0, 0.00000000000000000000e+00) (0, 0, 0.00000000000000000000e+00) (0, 0, 0.00000000000000000000e+00) (0, 0, 0.00000000000000000000e+00) (0, 0, 0.00000000000000000000e+00) (0, 0, 0.00000000000000000000e+00) (0, 0, 0.00000000000000000000e+00) (0, 0, 0.00000000000000000000e+00) (0, 0, 0.00000000000000000000e+00) (0, 0, 0.00000000000000000000e+00) (0, 0, 0.00000000000000000000e+00) (0, 0, 0.00000000000000000000e+00) (0, 0, 0.00000000000000000000e+00) (0, 0, 0.00000000000000000000e+00) (0, 0, 0.00000000000000000000e+00) (0, 0, 0.00000000000000000000e+00) (0, 0, 0.00000000000000000000e+00) (0, 0, 0.00000000000000000000e+00) (0, 0, 0.00000000000000000000e+00) (0, 0, 0.00000000000000000000e+00) (0, 0, 0.00000000000000000000e+00) (0, 0, 0.00000000000000000000e+00) (0, 0, 0.00000000000000000000e+00) (0, 0, 0.00000000000000000000e+00) (0, 0, 0.00000000000000000000e+00) (0, 0, 0.00000000000000000000e+00) (0, 0, 0.00000000000000000000e+00) (0, 0, 0.00000000000000000000e+00) (0, 0, 0.00000000000000000000e+00) (0, 0, 0.00000000000000000000e+00) (0, 0, 0.00000000000000000000e+00) (0, 0, 0.00000000000000000000e+00) (0, 0, 0.00000000000000000000e+00) (0, 0, 0.00000000000000000000e+00) (0, 0, 0.00000000000000000000e+00) (0, 0, 0.00000000000000000000e+00) (0, 0, 0.00000000000000000000e+00) (0, 0, 0.00000000000000000000e+00) (0, 0, 0.00000000000000000000e+00) (0, 0, 0.00000000000000000000e+00) (0, 0, 0.00000000000000000000e+00) (0, 0, 0.00000000000000000000e+00) (0, 0, 0.00000000000000000000e+00) (0, 0, 0.00000000000000000000e+00) (0, 0, 0.00000000000000000000e+00) (0, 0, 0.00000000000000000000e+00) (0, 0, 0.00000000000000000000e+00) (0, 0, 0.00000000000000000000e+00) (0, 0, 0.00000000000000000000e+00) (0, 0, 0.00000000000000000000e+00) (0, 0, 0.00000000000000000000e+00) (0, 0, 0.00000000000000000000e+00) (0, 0, 0.00000000000000000000e+00) (0, 0, 0.00000000000000000000e+00) (0, 0, 0.00000000000000000000e+00) (0, 0, 0.00000000000000000000e+00) (0, 0, 0.00000000000000000000e+00) (0, 0, 0.00000000000000000000e+00) (0, 0, 0.00000000000000000000e+00) (0, 0, 0.00000000000000000000e+00) (0, 0, 0.00000000000000000000e+00) (0, 0, 0.00000000000000000000e+00) (0, 0, 0.00000000000000000000e+00) (0, 0, 0.00000000000000000000e+00) (0, 0, 0.00000000000000000000e+00) (0, 0, 0.00000000000000000000e+00) (0, 0, 0.00000000000000000000e+00) (0, 0, 0.00000000000000000000e+00) (0, 0, 0.00000000000000000000e+00) (0, 0, 0.00000000000000000000e+00) (0, 0, 0.00000000000000000000e+00) (0, 0, 0.00000000000000000000e+00) (0, 0, 0.00000000000000000000e+00) (0, 0, 0.00000000000000000000e+00) (0, 0, 0.00000000000000000000e+00) (0, 0, 0.00000000000000000000e+00) (0, 0, 0.00000000000000000000e+00) (0, 0, 0.00000000000000000000e+00) (0, 0, 0.00000000000000000000e+00) (0, 0, 0.00000000000000000000e+00) (0, 0, 0.00000000000000000000e+00) (0, 0, 0.00000000000000000000e+00) (0, 0, 0.00000000000000000000e+00) (0, 0, 0.00000000000000000000e+00) (0, 0, 0.00000000000000000000e+00) (0, 0, 0.00000000000000000000e+00) (0, 0, 0.00000000000000000000e+00) (0, 0, 0.00000000000000000000e+00) (0, 0, 0.00000000000000000000e+00) (0, 0, 0.00000000000000000000e+00) (0, 0, 0.00000000000000000000e+00) (0, 0, 0.00000000000000000000e+00) (0, 0, 0.00000000000000000000e+00) (0, 0, 0.00000000000000000000e+00) (0, 0, 0.00000000000000000000e+00) (0, 0, 0.00000000000000000000e+00) (0, 0, 0.00000000000000000000e+00) (0, 0, 0.00000000000000000000e+00) (0, 0, 0.00000000000000000000e+00) (0, 0, 0.00000000000000000000e+00) (0, 0, 0.00000000000000000000e+00) (0, 0, 0.00000000000000000000e+00) (0, 0, 0.00000000000000000000e+00) (0, 0, 0.00000000000000000000e+00) (0, 0, 0.00000000000000000000e+00) (0, 0, 0.00000000000000000000e+00) (0, 0, 0.00000000000000000000e+00) (0, 0, 0.00000000000000000000e+00) (0, 0, 0.00000000000000000000e+00) (0, 0, 0.00000000000000000000e+00) (0, 0, 0.00000000000000000000e+00) (0, 0, 0.00000000000000000000e+00) (0, 0, 0.00000000000000000000e+00) (0, 0, 0.00000000000000000000e+00) (0, 0, 0.00000000000000000000e+00) (0, 0, 0.00000000000000000000e+00) (0, 0, 0.00000000000000000000e+00) (0, 0, 0.00000000000000000000e+00) (0, 0, 0.00000000000000000000e+00) (0, 0, 0.00000000000000000000e+00) (0, 0, 0.00000000000000000000e+00) (0, 0, 0.00000000000000000000e+00) (0, 0, 0.00000000000000000000e+00) (0, 0, 0.00000000000000000000e+00) (0, 0, 0.00000000000000000000e+00) (0, 0, 0.00000000000000000000e+00) (0, 0, 0.00000000000000000000e+00) (0, 0, 0.00000000000000000000e+00) (0, 0, 0.00000000000000000000e+00) (0, 0, 0.00000000000000000000e+00) (0, 0, 0.00000000000000000000e+00) (0, 0, 0.00000000000000000000e+00) (0, 0, 0.00000000000000000000e+00) (0, 0, 0.00000000000000000000e+00) (0, 0, 0.00000000000000000000e+00) (0, 0, 0.00000000000000000000e+00) (0, 0, 0.00000000000000000000e+00) (0, 0, 0.00000000000000000000e+00) (0, 0, 0.00000000000000000000e+00) (0, 0, 0.00000000000000000000e+00) (0, 0, 0.00000000000000000000e+00) (0, 0, 0.00000000000000000000e+00) (0, 0, 0.00000000000000000000e+00) (0, 0, 0.00000000000000000000e+00) (0, 0, 0.00000000000000000000e+00) (0, 0, 0.00000000000000000000e+00) (0, 0, 0.00000000000000000000e+00) (0, 0, 0.00000000000000000000e+00) (0, 0, 0.00000000000000000000e+00) (0, 0, 0.00000000000000000000e+00) (0, 0, 0.00000000000000000000e+00) (0, 0, 0.00000000000000000000e+00) (0, 0, 0.00000000000000000000e+00) (0, 0, 0.00000000000000000000e+00) (0, 0, 0.00000000000000000000e+00) (0, 0, 0.00000000000000000000e+00) (0, 0, 0.00000000000000000000e+00) (0, 0, 0.00000000000000000000e+00) (0, 0, 0.00000000000000000000e+00) (0, 0, 0.00000000000000000000e+00) (0, 0, 0.00000000000000000000e+00) (0, 0, 0.00000000000000000000e+00) (0, 0, 0.00000000000000000000e+00) (0, 0, 0.00000000000000000000e+00) (0, 0, 0.00000000000000000000e+00) (0, 0, 0.00000000000000000000e+00) (0, 0, 0.00000000000000000000e+00) (0, 0, 0.00000000000000000000e+00) (0, 0, 0.00000000000000000000e+00) (0, 0, 0.00000000000000000000e+00) (0, 0, 0.00000000000000000000e+00) (0, 0, 0.00000000000000000000e+00) (0, 0, 0.00000000000000000000e+00) (0, 0, 0.00000000000000000000e+00) (0, 0, 0.00000000000000000000e+00) (0, 0, 0.00000000000000000000e+00) (0, 0, 0.00000000000000000000e+00) (0, 0, 0.00000000000000000000e+00) (0, 0, 0.00000000000000000000e+00) (0, 0, 0.00000000000000000000e+00) (0, 0, 0.00000000000000000000e+00) (0, 0, 0.00000000000000000000e+00) (0, 0, 0.00000000000000000000e+00) (0, 0, 0.00000000000000000000e+00) (0, 0, 0.00000000000000000000e+00) (0, 0, 0.00000000000000000000e+00) (0, 0, 0.00000000000000000000e+00) (0, 0, 0.00000000000000000000e+00) (0, 0, 0.00000000000000000000e+00) (0, 0, 0.00000000000000000000e+00) (0, 0, 0.00000000000000000000e+00) (0, 0, 0.00000000000000000000e+00) (0, 0, 0.00000000000000000000e+00) (0, 0, 0.00000000000000000000e+00) (0, 0, 0.00000000000000000000e+00) (0, 0, 0.00000000000000000000e+00) (0, 0, 0.00000000000000000000e+00) (0, 0, 0.00000000000000000000e+00) (0, 0, 0.00000000000000000000e+00) (0, 0, 0.00000000000000000000e+00) (0, 0, 0.00000000000000000000e+00) (0, 0, 0.00000000000000000000e+00) (0, 0, 0.00000000000000000000e+00) (0, 0, 0.00000000000000000000e+00) (0, 0, 0.00000000000000000000e+00) (0, 0, 0.00000000000000000000e+00) (0, 0, 0.00000000000000000000e+00) (0, 0, 0.00000000000000000000e+00) (0, 0, 0.00000000000000000000e+00) (0, 0, 0.00000000000000000000e+00) (0, 0, 0.00000000000000000000e+00) (0, 0, 0.00000000000000000000e+00) (0, 0, 0.00000000000000000000e+00) (0, 0, 0.00000000000000000000e+00) (0, 0, 0.00000000000000000000e+00) (0, 0, 0.00000000000000000000e+00) (0, 0, 0.00000000000000000000e+00) (0, 0, 0.00000000000000000000e+00) (0, 0, 0.00000000000000000000e+00) (0, 0, 0.00000000000000000000e+00) (0, 0, 0.00000000000000000000e+00) (0, 0, 0.00000000000000000000e+00) (0, 0, 0.00000000000000000000e+00) (0, 0, 0.00000000000000000000e+00) (0, 0, 0.00000000000000000000e+00) (0, 0, 0.00000000000000000000e+00) (0, 0, 0.00000000000000000000e+00) (0, 0, 0.00000000000000000000e+00) (0, 0, 0.00000000000000000000e+00) (0, 0, 0.00000000000000000000e+00) (0, 0, 0.00000000000000000000e+00) (0, 0, 0.00000000000000000000e+00) (0, 0, 0.00000000000000000000e+00) (0, 0, 0.00000000000000000000e+00) (0, 0, 0.00000000000000000000e+00) (0, 0, 0.00000000000000000000e+00) (0, 0, 0.00000000000000000000e+00) (0, 0, 0.00000000000000000000e+00) (0, 0, 0.00000000000000000000e+00) (0, 0, 0.00000000000000000000e+00) (0, 0, 0.00000000000000000000e+00) (0, 0, 0.00000000000000000000e+00) (0, 0, 0.00000000000000000000e+00) (0, 0, 0.00000000000000000000e+00) (0, 0, 0.00000000000000000000e+00) (0, 0, 0.00000000000000000000e+00) (0, 0, 0.00000000000000000000e+00) (0, 0, 0.00000000000000000000e+00) (0, 0, 0.00000000000000000000e+00) (0, 0, 0.00000000000000000000e+00) (0, 0, 0.00000000000000000000e+00) (0, 0, 0.00000000000000000000e+00) (0, 0, 0.00000000000000000000e+00) (0, 0, 0.00000000000000000000e+00) (0, 0, 0.00000000000000000000e+00) (0, 0, 0.00000000000000000000e+00) (0, 0, 0.00000000000000000000e+00) (0, 0, 0.00000000000000000000e+00) (0, 0, 0.00000000000000000000e+00) (0, 0, 0.00000000000000000000e+00) (0, 0, 0.00000000000000000000e+00) (0, 0, 0.00000000000000000000e+00) (0, 0, 0.00000000000000000000e+00) (0, 0, 0.00000000000000000000e+00) (0, 0, 0.00000000000000000000e+00) (0, 0, 0.00000000000000000000e+00) (0, 0, 0.00000000000000000000e+00) (0, 0, 0.00000000000000000000e+00) (0, 0, 0.00000000000000000000e+00) (0, 0, 0.00000000000000000000e+00) (0, 0, 0.00000000000000000000e+00) (0, 0, 0.00000000000000000000e+00) (0, 0, 0.00000000000000000000e+00) (0, 0, 0.00000000000000000000e+00) (0, 0, 0.00000000000000000000e+00) (0, 0, 0.00000000000000000000e+00) (0, 0, 0.00000000000000000000e+00) (0, 0, 0.00000000000000000000e+00) (0, 0, 0.00000000000000000000e+00) (0, 0, 0.00000000000000000000e+00) (0, 0, 0.00000000000000000000e+00) (0, 0, 0.00000000000000000000e+00) (0, 0, 0.00000000000000000000e+00) (0, 0, 0.00000000000000000000e+00) (0, 0, 0.00000000000000000000e+00) (0, 0, 0.00000000000000000000e+00) (0, 0, 0.00000000000000000000e+00) (0, 0, 0.00000000000000000000e+00) (0, 0, 0.00000000000000000000e+00) (0, 0, 0.00000000000000000000e+00) (0, 0, 0.00000000000000000000e+00) (0, 0, 0.00000000000000000000e+00) (0, 0, 0.00000000000000000000e+00) (0, 0, 0.00000000000000000000e+00) (0, 0, 0.00000000000000000000e+00) (0, 0, 0.00000000000000000000e+00) (0, 0, 0.00000000000000000000e+00) (0, 0, 0.00000000000000000000e+00) (0, 0, 0.00000000000000000000e+00) (0, 0, 0.00000000000000000000e+00) (0, 0, 0.00000000000000000000e+00) (0, 0, 0.00000000000000000000e+00) (0, 0, 0.00000000000000000000e+00) (0, 0, 0.00000000000000000000e+00) (0, 0, 0.00000000000000000000e+00) (0, 0, 0.00000000000000000000e+00) (0, 0, 0.00000000000000000000e+00) (0, 0, 0.00000000000000000000e+00) (0, 0, 0.00000000000000000000e+00) (0, 0, 0.00000000000000000000e+00) (0, 0, 0.00000000000000000000e+00) (0, 0, 0.00000000000000000000e+00) (0, 0, 0.00000000000000000000e+00) (0, 0, 0.00000000000000000000e+00) (0, 0, 0.00000000000000000000e+00) (0, 0, 0.00000000000000000000e+00) (0, 0, 0.00000000000000000000e+00) (0, 0, 0.00000000000000000000e+00) (0, 0, 0.00000000000000000000e+00) (0, 0, 0.00000000000000000000e+00) (0, 0, 0.00000000000000000000e+00) (0, 0, 0.00000000000000000000e+00) (0, 0, 0.00000000000000000000e+00) (0, 0, 0.00000000000000000000e+00) (0, 0, 0.00000000000000000000e+00) (0, 0, 0.00000000000000000000e+00) (0, 0, 0.00000000000000000000e+00) (0, 0, 0.00000000000000000000e+00) (0, 0, 0.00000000000000000000e+00) (0, 0, 0.00000000000000000000e+00) (0, 0, 0.00000000000000000000e+00) (0, 0, 0.00000000000000000000e+00) (0, 0, 0.00000000000000000000e+00) (0, 0, 0.00000000000000000000e+00) (0, 0, 0.00000000000000000000e+00) (0, 0, 0.00000000000000000000e+00) (0, 0, 0.00000000000000000000e+00) (0, 0, 0.00000000000000000000e+00) (0, 0, 0.00000000000000000000e+00) (0, 0, 0.00000000000000000000e+00) (0, 0, 0.00000000000000000000e+00) (0, 0, 0.00000000000000000000e+00) (0, 0, 0.00000000000000000000e+00) (0, 0, 0.00000000000000000000e+00) (0, 0, 0.00000000000000000000e+00) (0, 0, 0.00000000000000000000e+00) (0, 0, 0.00000000000000000000e+00) (0, 0, 0.00000000000000000000e+00) (0, 0, 0.00000000000000000000e+00) (0, 0, 0.00000000000000000000e+00) (0, 0, 0.00000000000000000000e+00) (0, 0, 0.00000000000000000000e+00) (0, 0, 0.00000000000000000000e+00) (0, 0, 0.00000000000000000000e+00) (0, 0, 0.00000000000000000000e+00) (0, 0, 0.00000000000000000000e+00) (0, 0, 0.00000000000000000000e+00) (0, 0, 0.00000000000000000000e+00) (0, 0, 0.00000000000000000000e+00) (0, 0, 0.00000000000000000000e+00) (0, 0, 0.00000000000000000000e+00) (0, 0, 0.00000000000000000000e+00) (0, 0, 0.00000000000000000000e+00) (0, 0, 0.00000000000000000000e+00) (0, 0, 0.00000000000000000000e+00) (0, 0, 0.00000000000000000000e+00) (0, 0, 0.00000000000000000000e+00) (0, 0, 0.00000000000000000000e+00) (0, 0, 0.00000000000000000000e+00) (0, 0, 0.00000000000000000000e+00) (0, 0, 0.00000000000000000000e+00) (0, 0, 0.00000000000000000000e+00) (0, 0, 0.00000000000000000000e+00) (0, 0, 0.00000000000000000000e+00) (0, 0, 0.00000000000000000000e+00) (0, 0, 0.00000000000000000000e+00) (0, 0, 0.00000000000000000000e+00) (0, 0, 0.00000000000000000000e+00) (0, 0, 0.00000000000000000000e+00) (0, 0, 0.00000000000000000000e+00) (0, 0, 0.00000000000000000000e+00) (0, 0, 0.00000000000000000000e+00) (0, 0, 0.00000000000000000000e+00) (0, 0, 0.00000000000000000000e+00) (0, 0, 0.00000000000000000000e+00) (0, 0, 0.00000000000000000000e+00) (0, 0, 0.00000000000000000000e+00) (0, 0, 0.00000000000000000000e+00) (0, 0, 0.00000000000000000000e+00) (0, 0, 0.00000000000000000000e+00) (0, 0, 0.00000000000000000000e+00) (0, 0, 0.00000000000000000000e+00) (0, 0, 0.00000000000000000000e+00) (0, 0, 0.00000000000000000000e+00) (0, 0, 0.00000000000000000000e+00) (0, 0, 0.00000000000000000000e+00) (0, 0, 0.00000000000000000000e+00) (0, 0, 0.00000000000000000000e+00) (0, 0, 0.00000000000000000000e+00) (0, 0, 0.00000000000000000000e+00) (0, 0, 0.00000000000000000000e+00) (0, 0, 0.00000000000000000000e+00) (0, 0, 0.00000000000000000000e+00) (0, 0, 0.00000000000000000000e+00) (0, 0, 0.00000000000000000000e+00) (0, 0, 0.00000000000000000000e+00) (0, 0, 0.00000000000000000000e+00) (0, 0, 0.00000000000000000000e+00) (0, 0, 0.00000000000000000000e+00) (0, 0, 0.00000000000000000000e+00) (0, 0, 0.00000000000000000000e+00) (0, 0, 0.00000000000000000000e+00) (0, 0, 0.00000000000000000000e+00) (0, 0, 0.00000000000000000000e+00) (0, 0, 0.00000000000000000000e+00) (0, 0, 0.00000000000000000000e+00) (0, 0, 0.00000000000000000000e+00) (0, 0, 0.00000000000000000000e+00) (0, 0, 0.00000000000000000000e+00) (0, 0, 0.00000000000000000000e+00) (0, 0, 0.00000000000000000000e+00) (0, 0, 0.00000000000000000000e+00) (0, 0, 0.00000000000000000000e+00) (0, 0, 0.00000000000000000000e+00) (0, 0, 0.00000000000000000000e+00) (0, 0, 0.00000000000000000000e+00) (0, 0, 0.00000000000000000000e+00) (0, 0, 0.00000000000000000000e+00) (0, 0, 0.00000000000000000000e+00) (0, 0, 0.00000000000000000000e+00) (0, 0, 0.00000000000000000000e+00) (0, 0, 0.00000000000000000000e+00) (0, 0, 0.00000000000000000000e+00) (0, 0, 0.00000000000000000000e+00) (0, 0, 0.00000000000000000000e+00) (0, 0, 0.00000000000000000000e+00) (0, 0, 0.00000000000000000000e+00) (0, 0, 0.00000000000000000000e+00) (0, 0, 0.00000000000000000000e+00) (0, 0, 0.00000000000000000000e+00) (0, 0, 0.00000000000000000000e+00) (0, 0, 0.00000000000000000000e+00) (0, 0, 0.00000000000000000000e+00) (0, 0, 0.00000000000000000000e+00) (0, 0, 0.00000000000000000000e+00) (0, 0, 0.00000000000000000000e+00) (0, 0, 0.00000000000000000000e+00) (0, 0, 0.00000000000000000000e+00) (0, 0, 0.00000000000000000000e+00) (0, 0, 0.00000000000000000000e+00) (0, 0, 0.00000000000000000000e+00) (0, 0, 0.00000000000000000000e+00) (0, 0, 0.00000000000000000000e+00) (0, 0, 0.00000000000000000000e+00) (0, 0, 0.00000000000000000000e+00) (0, 0, 0.00000000000000000000e+00) (0, 0, 0.00000000000000000000e+00) (0, 0, 0.00000000000000000000e+00) (0, 0, 0.00000000000000000000e+00) (0, 0, 0.00000000000000000000e+00) (0, 0, 0.00000000000000000000e+00) (0, 0, 0.00000000000000000000e+00) (0, 0, 0.00000000000000000000e+00) (0, 0, 0.00000000000000000000e+00) (0, 0, 0.00000000000000000000e+00) (0, 0, 0.00000000000000000000e+00) (0, 0, 0.00000000000000000000e+00) (0, 0, 0.00000000000000000000e+00) (0, 0, 0.00000000000000000000e+00) (0, 0, 0.00000000000000000000e+00) (0, 0, 0.00000000000000000000e+00) (0, 0, 0.00000000000000000000e+00) (0, 0, 0.00000000000000000000e+00) (0, 0, 0.00000000000000000000e+00) (0, 0, 0.00000000000000000000e+00) (0, 0, 0.00000000000000000000e+00) (0, 0, 0.00000000000000000000e+00) (0, 0, 0.00000000000000000000e+00) (0, 0, 0.00000000000000000000e+00) (0, 0, 0.00000000000000000000e+00) (0, 0, 0.00000000000000000000e+00) (0, 0, 0.00000000000000000000e+00) (0, 0, 0.00000000000000000000e+00) (0, 0, 0.00000000000000000000e+00) (0, 0, 0.00000000000000000000e+00) (0, 0, 0.00000000000000000000e+00) (0, 0, 0.00000000000000000000e+00) (0, 0, 0.00000000000000000000e+00) (0, 0, 0.00000000000000000000e+00) (0, 0, 0.00000000000000000000e+00) (0, 0, 0.00000000000000000000e+00) (0, 0, 0.00000000000000000000e+00) (0, 0, 0.00000000000000000000e+00) (0, 0, 0.00000000000000000000e+00) (0, 0, 0.00000000000000000000e+00) (0, 0, 0.00000000000000000000e+00) (0, 0, 0.00000000000000000000e+00) (0, 0, 0.00000000000000000000e+00) (0, 0, 0.00000000000000000000e+00) (0, 0, 0.00000000000000000000e+00) (0, 0, 0.00000000000000000000e+00) (0, 0, 0.00000000000000000000e+00) (0, 0, 0.00000000000000000000e+00) (0, 0, 0.00000000000000000000e+00) (0, 0, 0.00000000000000000000e+00) (0, 0, 0.00000000000000000000e+00) (0, 0, 0.00000000000000000000e+00) (0, 0, 0.00000000000000000000e+00) (785, 4, 5.00000000000000000000e-01) (785, 4, 5.00000000000000000000e-01) (785, 4, 5.00000000000000000000e-01) (785, 4, 5.00000000000000000000e-01) (785, 4, 5.00000000000000000000e-01) (785, 4, 5.00000000000000000000e-01) (785, 4, 5.00000000000000000000e-01) (785, 4, 5.00000000000000000000e-01) (785, 4, 5.00000000000000000000e-01) (785, 4, 5.00000000000000000000e-01) (785, 4, 5.00000000000000000000e-01) (785, 4, 5.00000000000000000000e-01) (785, 4, 5.00000000000000000000e-01) (785, 4, 5.00000000000000000000e-01) (785, 4, 5.00000000000000000000e-01) (785, 4, 5.00000000000000000000e-01) (785, 4, 5.00000000000000000000e-01) (785, 4, 5.00000000000000000000e-01) (785, 4, 5.00000000000000000000e-01) (785, 4, 5.00000000000000000000e-01) (785, 4, 5.00000000000000000000e-01) (785, 4, 5.00000000000000000000e-01) (785, 4, 5.00000000000000000000e-01) (785, 4, 5.00000000000000000000e-01) (785, 4, 5.00000000000000000000e-01) (785, 4, 5.00000000000000000000e-01) (785, 4, 5.00000000000000000000e-01) (785, 4, 5.00000000000000000000e-01) (785, 4, 5.00000000000000000000e-01) (785, 4, 5.00000000000000000000e-01) (785, 4, 5.00000000000000000000e-01) (785, 4, 5.00000000000000000000e-01) (785, 4, 5.00000000000000000000e-01) (785, 4, 5.00000000000000000000e-01) (785, 4, 5.00000000000000000000e-01) (785, 4, 5.00000000000000000000e-01) (785, 4, 5.00000000000000000000e-01) (785, 4, 5.00000000000000000000e-01) (785, 4, 5.00000000000000000000e-01) (785, 4, 5.00000000000000000000e-01) (785, 4, 5.00000000000000000000e-01) (785, 4, 5.00000000000000000000e-01) (785, 4, 5.00000000000000000000e-01) (785, 4, 5.00000000000000000000e-01) (785, 4, 5.00000000000000000000e-01) (785, 4, 5.00000000000000000000e-01) (785, 4, 5.00000000000000000000e-01) (785, 4, 5.00000000000000000000e-01) (785, 4, 5.00000000000000000000e-01) (785, 4, 5.00000000000000000000e-01) (785, 4, 5.00000000000000000000e-01) (785, 4, 5.00000000000000000000e-01) (785, 4, 5.00000000000000000000e-01) (785, 4, 5.00000000000000000000e-01) (785, 4, 5.00000000000000000000e-01) (785, 4, 5.00000000000000000000e-01) (785, 4, 5.00000000000000000000e-01) (785, 4, 5.00000000000000000000e-01) (785, 4, 5.00000000000000000000e-01) (785, 4, 5.00000000000000000000e-01) (785, 4, 5.00000000000000000000e-01) (785, 4, 5.00000000000000000000e-01) (785, 4, 5.00000000000000000000e-01) (785, 4, 5.00000000000000000000e-01) (785, 4, 5.00000000000000000000e-01) (785, 4, 5.00000000000000000000e-01) (785, 4, 5.00000000000000000000e-01) (785, 4, 5.00000000000000000000e-01) (785, 4, 5.00000000000000000000e-01) (785, 4, 5.00000000000000000000e-01) (785, 4, 5.00000000000000000000e-01) (785, 4, 5.00000000000000000000e-01) (785, 4, 5.00000000000000000000e-01) (785, 4, 5.00000000000000000000e-01) (785, 4, 5.00000000000000000000e-01) (785, 4, 5.00000000000000000000e-01) (785, 4, 5.00000000000000000000e-01) (785, 4, 5.00000000000000000000e-01) (785, 4, 5.00000000000000000000e-01) (785, 4, 5.00000000000000000000e-01) (785, 4, 5.00000000000000000000e-01) (785, 4, 5.00000000000000000000e-01) (785, 4, 5.00000000000000000000e-01) (785, 4, 5.00000000000000000000e-01) (785, 4, 5.00000000000000000000e-01) (785, 4, 5.00000000000000000000e-01) (785, 4, 5.00000000000000000000e-01) (785, 4, 5.00000000000000000000e-01) (785, 4, 5.00000000000000000000e-01) (785, 4, 5.00000000000000000000e-01) (785, 4, 5.00000000000000000000e-01) (785, 4, 5.00000000000000000000e-01) (785, 4, 5.00000000000000000000e-01) (785, 4, 5.00000000000000000000e-01) (785, 4, 5.00000000000000000000e-01) (785, 4, 5.00000000000000000000e-01) (785, 4, 5.00000000000000000000e-01) (785, 4, 5.00000000000000000000e-01) (785, 4, 5.00000000000000000000e-01) (785, 4, 5.00000000000000000000e-01) (0, 0, 0.00000000000000000000e+00) (101, 5, 5.00000000000000000000e-01) (0, 5, 0.00000000000000000000e+00) 
connections (connected_to_neuron, weight)=(0, 7.35458953956370953264e-01) (1, 8.09606528559928539934e-01) (2, 6.74334636608367565813e-01) (3, 7.53579063991313580217e-01) (4, 8.23095566312080029192e-01) (5, 7.06948875168567303362e-01) (6, 8.23425016084914807024e-01) (7, 6.80105375776296261492e-01) (8, 8.13704616109138134661e-01) (9, 8.22892314473395947161e-01) (10, 7.19284652451282147112e-01) (11, 8.24559262672668102923e-01) (12, 6.76457076052432659807e-01) (13, 7.13722004274135235491e-01) (14, 7.24006122628455761614e-01) (15, 7.63817711452251080217e-01) (16, 8.34198421517615917864e-01) (17, 6.61045356372600201311e-01) (18, 7.48870475867992047014e-01) (19, 6.83422404060369137468e-01) (20, 6.94478298256402615252e-01) (21, 7.50958828905826214495e-01) (22, 7.92894652763610485735e-01) (23, 7.00902069637780789080e-01) (24, 7.75839335004096630755e-01) (25, 6.70233777443175915423e-01) (26, 7.29588216820960644426e-01) (27, 7.46937094906573895159e-01) (28, 7.93014160076385143938e-01) (29, 7.87680840770011547747e-01) (30, 7.69897094646697643938e-01) (31, 6.88850524554257992449e-01) (32, 7.57664783576732281389e-01) (33, 8.04609155932670239153e-01) (34, 8.02807009497886303606e-01) (35, 7.41137786487346295061e-01) (36, 6.71935452798610333147e-01) (37, 7.86609462181335095110e-01) (38, 7.81620583215957287493e-01) (39, 6.46017498055701855364e-01) (40, 7.69879198352103832903e-01) (41, 6.61282657364612225237e-01) (42, 8.32912585507827873954e-01) (43, 8.09030248669319274057e-01) (44, 7.35852478897052408868e-01) (45, 7.15337722281222943010e-01) (46, 7.30908839682345989885e-01) (47, 7.29957929531341198626e-01) (48, 7.36760495880847576800e-01) (49, 6.40156737247710827532e-01) (50, 7.73757747093444470110e-01) (51, 7.91616222540145519915e-01) (52, 7.51492983380561474505e-01) (53, 7.27029829005008343401e-01) (54, 6.52895710150008801165e-01) (55, 6.87709740082030895891e-01) (56, 7.57641023675208691301e-01) (57, 7.42861359099155071917e-01) (58, 7.95024252215629223528e-01) (59, 7.11032597998386028948e-01) (60, 6.90919614115958813372e-01) (61, 7.25298768559699658098e-01) (62, 7.60260550955539349260e-01) (63, 8.08961829820876721087e-01) (64, 6.89918149882703279907e-01) (65, 3.21343830613097625193e-01) (66, 3.09737168453563527226e-01) (67, 3.23232018275306509647e-01) (68, 2.73024053290126522686e-01) (69, 2.56521850624728764423e-01) (70, 3.33958213749866061892e-01) (71, 4.60388299256046629182e-01) (72, 3.03224298901562716591e-01) (73, 3.21566497115195970569e-01) (74, 3.68413374645755575809e-01) (75, 3.70528415663287924442e-01) (76, 3.95535289526497635393e-01) (77, 2.59699643476054897739e-01) (78, 6.60229972282653454485e-01) (79, 6.93177814314370754900e-01) (80, 6.59600003341441754046e-01) (81, 7.94365158954864147844e-01) (82, 6.45171462277179363909e-01) (83, 7.71470418850188854876e-01) (84, 6.81772398481374386492e-01) (85, 6.58444597104793194475e-01) (86, 8.19557583609824780169e-01) (87, 7.99790850559478405657e-01) (88, 7.61683373430972698870e-01) (89, 7.74959257522826794329e-01) (90, 6.71200870255237225237e-01) (91, 4.13247014252136057877e-01) (92, 2.56126815510207439530e-01) (93, 9.68726364798372652221e-02) (94, 8.35788966012703943287e-02) (95, 1.17280766541698749927e-02) (96, 4.07837635673413429621e-03) (97, -1.76249737024172549449e-02) (98, 1.28792008564999838072e-01) (99, 6.60635356166175968795e-01) (100, 1.99350212187941555619e+00) (101, 1.83827461334000775983e-02) (102, -6.18038559534590282996e-03) (103, 2.07380228067867607156e-02) (104, 3.60973181086570171772e-01) (105, 3.92156808799201395122e-01) (106, 4.29908124278320202816e-01) (107, 7.20763942877059582415e-01) (108, 8.15136722007995251360e-01) (109, 6.51418587843185070696e-01) (110, 7.74319178143745068255e-01) (111, 8.35114142576461437883e-01) (112, 8.06161156574493054094e-01) (113, 7.79868057647948864641e-01) (114, 7.66961983124023083391e-01) (115, 6.48310980478530529680e-01) (116, 7.98690086880927685442e-01) (117, 7.47617180529830505087e-01) (118, 4.09113050324962423954e-01) (119, 2.89177671031996749718e-02) (120, -1.53925393890440940364e-02) (121, -7.65455772929972133589e-02) (122, -2.90522433960921713791e-02) (123, -8.64149109481204477645e-03) (124, 1.19975752278841787946e-01) (125, 4.77667167225024835719e-01) (126, 2.05255792964634231623e+00) (127, 1.18572144405877004658e+01) (128, 1.25769400439161516125e+00) (129, 7.29093573152800322745e-01) (130, 6.85900301012690727376e-01) (131, 7.67123588404948208996e-01) (132, 8.15764865656122051263e-01) (133, 7.16079352636616039973e-01) (134, 7.33170701037081706808e-01) (135, 2.96828061360202566377e-01) (136, 6.75943354295333809212e-01) (137, 7.28473907768293793552e-01) (138, 7.79460779110198620501e-01) (139, 6.54659307280784252825e-01) (140, 7.40662581006293896380e-01) (141, 7.14157386401897076311e-01) (142, 6.50150871554618481341e-01) (143, 7.07671574210601450616e-01) (144, 6.54402873197799328508e-01) (145, 3.79578686960197198008e-01) (146, 3.84092135686524074889e-02) (147, 1.02158338697210693269e-01) (148, -1.21253976967040641433e-01) (149, -2.16440811317955533744e-01) (150, -3.89282863159707059886e-01) (151, -3.19752577102139712295e+00) (152, -7.32531854462617204593e-02) (153, 5.15891783272273807270e-01) (154, 2.28768154061908735031e+00) (155, 3.83014962160257654844e+00) (156, -1.25303168846772328138e+00) (157, 6.81036885158315286048e-01) (158, 8.68690463710896199068e-01) (159, -8.13843960400412180789e-01) (160, 7.19208393061057660312e-01) (161, 3.90910706969082866191e-01) (162, 3.87727574006617614621e-01) (163, 3.44910650197082890855e-01) (164, 3.62919822031370298276e-01) (165, 2.92830911351487810368e-01) (166, 8.08919972459083203020e-01) (167, 8.05034628788238171282e-01) (168, 7.81441128531699780169e-01) (169, 7.48758180717235211077e-01) (170, 8.20071360746627453508e-01) (171, 6.84439531337219353446e-01) (172, 8.23292991796737316790e-01) (173, 4.29696337567252450995e-01) (174, 4.07203359051818009062e-02) (175, 7.06335026254730213857e-02) (176, -3.34285949804644766381e-01) (177, -3.66455836559747538672e+00) (178, -2.43011126193509646720e-01) (179, 3.38709490545301486475e-02) (180, -6.51807717002581277210e-02) (181, -3.33565976689728538318e-01) (182, 1.56986487674203090137e-01) (183, 3.27603489368587130759e-01) (184, 1.32459416394167556197e-01) (185, 2.19547649608743428162e-01) (186, 6.71442570892392898152e-01) (187, -9.24959800780424856725e+00) (188, -2.17137678824892293994e-01) (189, -6.22009468092486472734e-02) (190, 1.05355507623707322917e-01) (191, 3.43181669065479172387e-02) (192, 6.43242179026787125329e-02) (193, 3.54177005100863806497e-01) (194, 8.26645037809615734758e-01) (195, 6.70446007231479290667e-01) (196, 8.07479030171638134661e-01) (197, 7.95942417064910534563e-01) (198, 8.35858068147903088274e-01) (199, 7.49297580400710705462e-01) (200, 3.05711828990028133823e-01) (201, 1.16330925239995747189e-01) (202, 6.61826108712213062590e-02) (203, -1.68116148246412133727e-01) (204, -3.53377921171430120495e+00) (205, -4.26656938204217017763e-01) (206, -1.80425535141027604258e-01) (207, -2.68740459866536718359e-01) (208, -4.28321041863406748451e-01) (209, -5.24561459693379417146e-01) (210, 8.21685391776119378182e-02) (211, 2.12534415992698022535e+00) (212, -3.76407947641098972191e-01) (213, -4.15793181358365682154e-01) (214, 4.19218503129070163560e-01) (215, -2.26323698965715386366e-01) (216, 2.52912612593772845315e-01) (217, -4.64685120181919930626e-02) (218, -2.60129228280556457076e-02) (219, -7.66692964115267550085e-03) (220, 4.23237491868254309124e-02) (221, 1.50399547178322740004e-01) (222, 7.61189146617656353655e-01) (223, 6.41538402715926769915e-01) (224, 7.42936334291701916399e-01) (225, 7.48211606124644879046e-01) (226, 6.70935370464964986326e-01) (227, 7.09366329451247334958e-01) (228, 3.02831294692455177398e-01) (229, -2.82592033267893318060e-02) (230, 9.51196609656937974719e-02) (231, -7.20679822772848782675e-02) (232, -3.19219821205825038390e-01) (233, -1.08074025596910386349e-01) (234, 7.97278862254180153979e-02) (235, -2.74487868480397079196e-01) (236, -1.31441141148880280554e-01) (237, -4.94932470565393134443e-01) (238, 1.01147746528356966000e-01) (239, 2.43731245351120051623e+00) (240, 1.29778119876299724567e+00) (241, 3.67623479385516782614e+00) (242, 5.50331634623956733599e-01) (243, 2.10345258337575197194e-01) (244, -5.83026039678237253949e-02) (245, -2.04319048009156366275e-02) (246, -1.75166277367452515035e-02) (247, -7.78092223666414506411e-02) (248, 6.51892474052816334185e-02) (249, 6.69277644830445356261e-02) (250, 3.03304345233485872502e-01) (251, 6.57506241182094219866e-01) (252, 7.32901735881572369280e-01) (253, 8.22810665209933400632e-01) (254, 6.57995611866160512449e-01) (255, 8.34789023240252614499e-01) (256, 3.28917510044986205475e-01) (257, -4.53819109227971036191e-03) (258, -1.18643986016205675582e-02) (259, 5.12540152303281107415e-02) (260, -9.88378115881230895345e-02) (261, -5.96201445244288544267e-02) (262, -2.72453567043576483364e-01) (263, -2.47356969529820364118e-01) (264, -2.51458971324908409084e-01) (265, 2.60244914886145317645e-01) (266, 2.85261844227626504278e+00) (267, 2.67291849361085187553e+00) (268, 1.52456072208086457209e+00) (269, -2.12851206639628891537e+01) (270, 4.11586819454766383863e-01) (271, -1.85727910035488573415e-02) (272, -1.15695377741881488820e-01) (273, 2.35156879982544447794e-02) (274, -7.52056800799346530928e-02) (275, 4.38422116586025811813e-02) (276, -1.90262875921605699447e-02) (277, 7.24276967759315548623e-02) (278, 8.00717702785735729876e-01) (279, 7.98828548470740917864e-01) (280, 6.58915339688068035784e-01) (281, 6.62339203496619344236e-01) (282, 8.15285757620974660398e-01) (283, 7.50448843504496698742e-01) (284, 2.46680061078963674959e-01) (285, 1.39812196063729937690e-01) (286, 2.71637912824279174895e-02) (287, -1.56901338632091241765e-02) (288, -5.82241301595226648513e-02) (289, 7.89967070598316944974e-02) (290, -2.94901160664913120080e-01) (291, 5.75367315095338138775e+00) (292, 7.78258812837769736737e-02) (293, 8.35643370310850452931e-01) (294, 2.55147531256823212331e+00) (295, 2.67981083721802715303e+00) (296, 1.84189750571784460753e+00) (297, 7.89594959721885381043e+00) (298, 1.20155062488902925066e-01) (299, 3.45126496960103217038e-03) (300, -1.46134279930247246160e-01) (301, -9.88986886253429287041e-02) (302, -4.49746537304393581569e-02) (303, -5.15547345127155033639e-03) (304, 1.05069174593582739807e-01) (305, 3.26184222797736622645e-01) (306, 6.62379695752864483538e-01) (307, 6.40035672763591412249e-01) (308, 6.43262020031219128313e-01) (309, 8.23474815765624645891e-01) (310, 7.97815189202471852781e-01) (311, 6.60809127654143457775e-01) (312, 2.46924219054240612348e-01) (313, 8.37661744380042289082e-02) (314, 6.42440567910325249779e-02) (315, -8.26315319993834590528e-02) (316, 4.29277562619551147916e-02) (317, -7.03543902190885972470e-02) (318, -2.34952440303029669311e-01) (319, -1.39822896260249851519e-01) (320, 5.85614134901046079484e-01) (321, 6.57898597185161548850e+00) (322, -7.82113151536224027183e+00) (323, 3.12020819482582822957e+00) (324, 1.28088247637238494825e+00) (325, 7.02144945320348906614e-02) (326, -4.08748393415236721538e-01) (327, 3.58335404266453619315e-02) (328, -1.06272418317795741549e-01) (329, -4.20864001677385343725e-02) (330, -2.87831476905465594163e-02) (331, -5.09138574965346465961e-02) (332, 2.81740420947653558148e-01) (333, 3.46774363182124623073e-01) (334, 7.38802111426597241106e-01) (335, 6.52469246367221478167e-01) (336, 8.38150313774352673235e-01) (337, 7.61559231857066754046e-01) (338, 6.52515143776088213379e-01) (339, 6.41422562921195482666e-01) (340, 7.45880498439307482172e-01) (341, 4.02702145390184840235e-01) (342, -4.07184416181685382430e-02) (343, 3.05847094790259593777e-02) (344, 2.62106409088071930225e-02) (345, 8.34431419981763733418e-02) (346, -2.32740853305500455805e-01) (347, -4.00973656375259002171e-01) (348, 4.28118741781568779015e-01) (349, 1.56886643885294461143e+01) (350, -1.10517056101733199824e+01) (351, 2.00806494667737034376e+00) (352, 9.17857609040803268385e+00) (353, -1.63666763651839874960e+00) (354, -9.63198140558410020873e-01) (355, 7.53309377701370658231e-02) (356, -1.09193018760324351418e-02) (357, 6.16032558241723163239e-02) (358, 2.88741292110857895870e-02) (359, 2.32087784848993422537e-02) (360, 4.00178940485102552227e-01) (361, 7.92047774848901653399e-01) (362, 7.42184242883926037493e-01) (363, 6.59536583999400738421e-01) (364, 7.03196643570666912737e-01) (365, 6.41363776007896069231e-01) (366, 6.72383262494807842913e-01) (367, 7.03682782869535561332e-01) (368, 7.64357734821723311391e-01) (369, 2.75210154458387645793e-01) (370, -2.31685446521060585054e-03) (371, -5.41047735608299884547e-02) (372, -3.95764399392053572990e-02) (373, 1.01830701005726689118e-02) (374, -3.28172917753559334475e-01) (375, -4.87922344911231542497e-01) (376, 1.42594396146806587922e+01) (377, -3.02708205219983250700e+00) (378, -9.37488852546694317880e+00) (379, 5.03529884029083385499e-01) (380, 5.91385609898870878709e+00) (381, -2.07828451291261107059e+00) (382, -9.40666692671470405784e-01) (383, 6.60149164828780082859e-02) (384, 5.18540887591210503116e-02) (385, 8.48582744701369406926e-02) (386, 3.43218361699044183233e-02) (387, -6.06771059360373607450e-02) (388, 2.50375383935754897147e-02) (389, 2.42094995081454267272e-01) (390, 7.32303106414630478049e-01) (391, 6.93575042018895748797e-01) (392, 7.99952766577010754290e-01) (393, 8.35453054586654308977e-01) (394, 7.13959454452472330743e-01) (395, 6.66184377290153340034e-01) (396, 8.37194255272155407610e-01) (397, 3.33196140377416738509e-01) (398, 1.31610080008446629629e-02) (399, 3.49759516462893327304e-02) (400, 6.89608777600089206672e-02) (401, 5.21407848333254111961e-02) (402, -3.25359570159528654898e-01) (403, -3.19357088441768599552e+00) (404, -4.19282346467532889278e+01) (405, -7.92085778127643269642e+00) (406, -8.08047601756839029008e+00) (407, 6.81909679280487179831e-01) (408, 6.41588686310456735029e-01) (409, -2.27807048816052670759e+00) (410, -4.68793723830186137569e-01) (411, -1.41686439164948080327e-01) (412, -1.71476706501605749566e-02) (413, -4.42788279414069660400e-02) (414, -2.90261900127280723927e-02) (415, -6.39013842803824866357e-02) (416, 1.27340551069923951788e-01) (417, 3.88586745483920859012e-01) (418, 6.57595454434161785784e-01) (419, 7.07489243427520397844e-01) (420, 7.93642810264831188860e-01) (421, 7.50864273587470654192e-01) (422, 7.63400106500583763847e-01) (423, 7.54443391119914652521e-01) (424, 3.46610095275844465323e-01) (425, 1.35098788131009950320e-01) (426, 6.41864097095084795708e-02) (427, 1.01507147390686534166e-02) (428, -2.44737822142552206850e-02) (429, -1.28431923352680804618e-01) (430, -5.38115466598826919231e-01) (431, -1.18154856405974872935e+00) (432, 2.15152649884070896746e+01) (433, -1.32844467432781421223e+01) (434, -6.91132926442988004823e+00) (435, 1.08616318828235467464e+01) (436, 4.48950614015198534723e-01) (437, -2.66016025700418845545e+00) (438, -4.69014394438592940872e-01) (439, -8.43144670338506596607e-01) (440, 4.18882391544685567242e-02) (441, -3.61517118943604498504e-02) (442, 5.82273134886872184568e-02) (443, 8.56849209478551324115e-03) (444, 1.98782119667021035803e-02) (445, 4.09896388161795965921e-01) (446, 7.15110837200885418596e-01) (447, 6.98341163525586727800e-01) (448, 7.58954233208900097551e-01) (449, 7.33083716312652233782e-01) (450, 7.66678220486121775323e-01) (451, 7.12974457720523480120e-01) (452, 2.44240742100680807702e-01) (453, -1.08638849754030420575e-02) (454, 9.33761172338294087591e-02) (455, -2.14530622281722038736e-01) (456, -5.00278326818435203904e-01) (457, -3.61111988206020556591e-02) (458, -1.61514536467555896992e-01) (459, -8.84167733439391367867e-01) (460, 1.38589660369989839950e+01) (461, -8.53026828397775318535e+01) (462, -4.00772228708299138589e+00) (463, 3.66815642302686706344e+00) (464, 1.25985009794338953526e+00) (465, -1.28100872228044138090e+00) (466, -3.12226178810703525190e-01) (467, -4.17884668033705108936e-01) (468, 1.03266241562561030681e-02) (469, -4.04723531170567696336e-02) (470, 4.43543714164497532293e-02) (471, 9.33903049032991511291e-02) (472, 3.56316301738707139068e-02) (473, 1.81675953866092983191e-02) (474, 6.60117893198733929339e-01) (475, 8.06632241884475353899e-01) (476, 6.67582495788341168108e-01) (477, 7.35606155077224377337e-01) (478, 6.65350823382144573870e-01) (479, 7.86914161125426891985e-01) (480, 4.28327411614288222630e-01) (481, 8.09430308680664928334e-02) (482, -1.37434676455142207319e-01) (483, -6.41439377515192976631e-01) (484, -1.10398758553210152300e+00) (485, -2.03730989658645306184e-01) (486, -7.20108458671608608892e-02) (487, -4.62993926258330024126e-01) (488, 1.08907503321080643133e+01) (489, -2.87835566900644268529e+00) (490, 1.64588893959879567497e+00) (491, -4.13201926537257624439e-01) (492, -8.79644431693413331175e-01) (493, -4.49125907750517694428e-01) (494, -3.67278721883447845098e-01) (495, 4.15820776642186196170e-02) (496, -1.18578722602350347670e-01) (497, 3.96269582506580952952e-02) (498, -6.74205221137482314103e-03) (499, 1.18636375614907960130e-01) (500, 1.34901831846848091478e-01) (501, -3.78852793871314250107e-02) (502, 7.67136624733214977923e-01) (503, 7.21937707344298962298e-01) (504, 6.97486973086600903216e-01) (505, 7.87631935158973339739e-01) (506, 6.88947367200856808367e-01) (507, 7.25446893552547100725e-01) (508, 2.81514360395869578380e-01) (509, 1.22754192867228053079e-03) (510, -3.70027710000415721581e+00) (511, -9.73920856107125532120e-01) (512, -3.94541646278019397798e+00) (513, -3.08822893759248273682e+00) (514, -2.13954147524377469303e-01) (515, 5.60701392278908627986e+00) (516, 3.39971451751005115938e+00) (517, 3.39959253958644791460e-01) (518, 4.40904063646668009646e-01) (519, -2.42251033276562222074e-01) (520, -4.74742814895084019877e-01) (521, -4.56957342977479308299e-01) (522, -2.70056431912452155064e-01) (523, -6.61937316178101420316e-02) (524, -4.34461204797872355132e-02) (525, -1.36337171121775693750e-02) (526, -9.08521117937462069358e-02) (527, 2.14630260774056821904e-02) (528, -1.12255519625580318238e-02) (529, 4.60890596738003158195e-02) (530, 6.91598660031562451067e-01) (531, 6.68964623192554119768e-01) (532, 7.17681436518436077776e-01) (533, 8.19112709442382458391e-01) (534, 7.51279740313296917620e-01) (535, 7.75178626799731707031e-01) (536, 3.57264982990444179833e-01) (537, -8.06857151581060610956e-03) (538, -3.14593384882786819556e-01) (539, -1.99047482792470281643e-01) (540, -9.98544683002807964556e+00) (541, -4.40668730866857039086e-01) (542, -2.62011947022856572787e-01) (543, 2.03364557583272507202e+01) (544, -1.02391128318680069142e+00) (545, 1.42994723156853509316e+00) (546, 1.05337768574243884068e+00) (547, 5.91295180209075108002e-03) (548, 2.22397336399667577833e-01) (549, -2.57754695777827225189e-01) (550, -1.01770831144412224334e-01) (551, 7.03767954594072958630e-02) (552, -5.66430922284608534545e-02) (553, -5.53976223235605538808e-02) (554, -3.56788029263520253820e-02) (555, 3.63168428360608128158e-02) (556, 1.08406791110182629256e-01) (557, 1.65945083095081630242e-02) (558, 8.01900884786849621477e-01) (559, 8.16297045627837780657e-01) (560, 7.63229398707156780901e-01) (561, 6.53876966515784863176e-01) (562, 6.45639083067184094133e-01) (563, 6.40070600212641949156e-01) (564, 4.23697344148684373888e-01) (565, 2.10520107899146748098e-02) (566, 4.98215356459126221256e-02) (567, 1.67058554475798572148e-03) (568, -1.46381262133901235423e-01) (569, 3.19370575606161555271e-01) (570, 2.50794928480281120731e-01) (571, 2.10710428230287227791e+00) (572, 1.32690345472481729949e+00) (573, -2.75670531216115186623e+01) (574, 6.08059478848656098648e+00) (575, -2.68968059941338211161e-01) (576, 2.92526828521553294848e+00) (577, 4.45688291023828853099e+00) (578, 8.79709400000900920702e+00) (579, 1.27231563776794898146e-01) (580, -6.09584896170323881082e-02) (581, -4.45975934657784761628e-02) (582, 3.98472409723080386867e-02) (583, 1.35967108129647403642e-02) (584, 7.88912937237270933677e-02) (585, 4.03763398252441174652e-01) (586, 7.87217831889396313372e-01) (587, 6.86639106551414135637e-01) (588, 6.46528481224780682268e-01) (589, 7.49496130923038128557e-01) (590, 6.62095909715720409849e-01) (591, 7.69604919445567525749e-01) (592, 3.62475452499641359605e-01) (593, -2.19219527064965225005e-02) (594, 8.04517957156645618921e-02) (595, 3.85064768683658006920e-02) (596, 7.90958279730137325814e-02) (597, 9.83598890764957434207e-01) (598, 1.43233070332622389742e+01) (599, 3.56819159776769700976e-01) (600, 2.45892998757331282533e-01) (601, 5.64618233541973046918e-01) (602, -2.73418910951344594495e-02) (603, -2.64916516403769453092e-01) (604, 7.12378243195709082158e-01) (605, -1.64820523502323936782e+01) (606, 1.31498537426996442434e+01) (607, 1.59333599034509720838e-01) (608, 1.15669390659119603049e-01) (609, 1.90053251135463251165e-02) (610, -5.46622600343680403734e-03) (611, -3.30538505808605151404e-02) (612, 8.80985121217141425864e-02) (613, 4.14239332897708700809e-01) (614, 7.24414414445167187395e-01) (615, 6.68737067559962872210e-01) (616, 7.74057722369437817278e-01) (617, 6.72009668031936291399e-01) (618, 7.13844734562846250370e-01) (619, 7.79054771496268338993e-01) (620, 3.84461582698318260487e-01) (621, 3.43703676497658150435e-01) (622, 3.94884455144527898862e-02) (623, 1.38495213871962959129e-02) (624, 3.10342386064351216657e-01) (625, 8.78950799341146504773e-01) (626, 5.85453860324315455976e-01) (627, 2.40437622081363794324e-01) (628, -1.02365627816385940108e+00) (629, -2.05885089982464852820e-01) (630, 2.80518760609113460003e-01) (631, 1.65198106145713161652e+01) (632, -7.03223550497621641142e+00) (633, -1.15399357233290302815e+01) (634, 1.35314989938831313765e+01) (635, 2.46300542278425016463e-01) (636, 1.26236898881877612766e-01) (637, 6.40743309743906502840e-02) (638, 8.60969531506478313876e-02) (639, 3.80596527598360878653e-01) (640, 4.12267939074085043583e-01) (641, 6.39979502836471203508e-01) (642, 8.12869406024222973528e-01) (643, 7.31998122016196850481e-01) (644, 8.13962465802436474505e-01) (645, 6.97661245892053250017e-01) (646, 7.61112614253764752092e-01) (647, 7.48397594968085888567e-01) (648, 7.30048334876304272356e-01) (649, 8.39288644757888779857e-01) (650, 2.90277979150499132466e-01) (651, 3.02931142155533350557e-01) (652, 7.31089003919075830495e-01) (653, 8.93532295742113458203e-01) (654, 7.27652728677363969112e-01) (655, 5.51334886963472103893e-01) (656, 7.29732733698475133366e-01) (657, -1.47802356758995112607e+00) (658, -4.47035145845173698120e+00) (659, -3.58290618827723861273e+00) (660, 2.80640782307445268984e-01) (661, 1.84369282134929601824e+00) (662, 1.07164462779778563162e-01) (663, 4.07848757388942426139e-02) (664, 2.21984244017849954855e-02) (665, 8.03075231135523363857e-04) (666, 2.78069954922819828624e-01) (667, 2.47505969233748457370e-01) (668, 8.00706077364593094003e-01) (669, 8.30767503658538464251e-01) (670, 8.03986108755546213800e-01) (671, 7.72880843559508923235e-01) (672, 8.31124431172614697161e-01) (673, 7.76762536445861462298e-01) (674, 6.65256394723659161272e-01) (675, 8.05464318672423962298e-01) (676, 8.34801203290229443255e-01) (677, 7.86162369558211615583e-01) (678, 3.13336265753043963223e-01) (679, 3.21130265484573129697e-01) (680, 9.04549145895468947876e-02) (681, 6.96261323726621861319e-02) (682, 3.96350908522152822755e-02) (683, -6.27524426569791571318e-02) (684, -5.79977596094461006482e-02) (685, -8.22047621226104863190e-01) (686, -2.37171914174355125127e+00) (687, -1.47737402157129493752e-01) (688, -3.11616309795618370848e-02) (689, 1.31408139201529439166e-01) (690, 1.35022582205984703618e-01) (691, 2.47141517833564222650e-01) (692, 4.19175113399185228502e-01) (693, 3.18034370660079612758e-01) (694, 7.08982220569854382219e-01) (695, 6.69840056446700637949e-01) (696, 7.63746819177871349993e-01) (697, 7.56146556591468455011e-01) (698, 6.83003830442433956804e-01) (699, 7.24993525723224285784e-01) (700, 7.46821074465518597307e-01) (701, 6.46896957138782147112e-01) (702, 6.58251790980105999651e-01) (703, 7.38322934786086682024e-01) (704, 7.84036910811668041887e-01) (705, 6.83885602930789593401e-01) (706, 3.04798462314651241734e-01) (707, 3.79849330408618734989e-01) (708, 4.34698104582740552093e-01) (709, 1.09299638886595593124e-01) (710, -3.15773702442201098517e-02) (711, 7.74827917237211200030e-02) (712, 6.90337421512283045538e-03) (713, 5.96172594691157659019e-02) (714, 9.30446293412775793374e-02) (715, 1.25461520264175466211e-02) (716, 3.86337860527097787244e-01) (717, 2.81431421959206784500e-01) (718, 3.18591561481532836719e-01) (719, 6.99228773541995196616e-01) (720, 6.58720486303015828611e-01) (721, 6.95428195128446224871e-01) (722, 7.08593985716109875383e-01) (723, 6.40021755079036358538e-01) (724, 7.70639843026404980364e-01) (725, 7.77953630963569287005e-01) (726, 6.70402436236148480120e-01) (727, 6.94764091352229717913e-01) (728, 6.94007205495839718523e-01) (729, 7.13783687630897167864e-01) (730, 7.80135026851897839251e-01) (731, 8.01205715814834240618e-01) (732, 7.21058069447284344378e-01) (733, 7.98764249960189465227e-01) (734, 6.99906064847713116350e-01) (735, 6.65472401956325176897e-01) (736, 2.43661061747119378484e-01) (737, 3.65081944389388846073e-01) (738, 4.05331949559638804459e-01) (739, 4.33511076043380627620e-01) (740, 3.02115649002872299622e-01) (741, 4.26726057356292154399e-01) (742, 3.59876323431018718679e-01) (743, 7.62149567268619931859e-01) (744, 7.71333456726550292792e-01) (745, 7.47327366984419927398e-01) (746, 6.76666610379859090330e-01) (747, 7.33178325434371114255e-01) (748, 7.94919729669734120847e-01) (749, 7.61392234543567303362e-01) (750, 7.96160644570594433489e-01) (751, 8.16870561519866589251e-01) (752, 8.17197850624328259173e-01) (753, 6.65132059434657696428e-01) (754, 8.17269748727088574114e-01) (755, 7.48215122798686627092e-01) (756, 8.03463107625251415911e-01) (757, 6.48049606660609844866e-01) (758, 8.03356638828521374407e-01) (759, 6.57847745994334820452e-01) (760, 7.22210718969112042132e-01) (761, 7.43869087377792004290e-01) (762, 8.19430879036193493548e-01) (763, 8.03646213094001415911e-01) (764, 7.03010759035354260149e-01) (765, 6.79714369306569698992e-01) (766, 8.29496032277351025286e-01) (767, 7.06415443400149944964e-01) (768, 8.04539954940086010637e-01) (769, 7.94938808957343701067e-01) (770, 7.01207018176322582903e-01) (771, 6.68524375835662487688e-01) (772, 7.85578942576652172747e-01) (773, 8.32130393663650158587e-01) (774, 7.96400493661170605364e-01) (775, 7.19707189778094891253e-01) (776, 7.41373582462077740374e-01) (777, 8.34870985428100231829e-01) (778, 8.14689404050117138567e-01) (779, 6.98097194263940457049e-01) (780, 7.56640641669040325823e-01) (781, 7.71227485219245556536e-01) (782, 6.75345188657050732317e-01) (783, 7.34215913990741375628e-01) (784, -1.94388404302194783835e-01) (0, -2.39110948716824672777e-01) (1, -2.49294849311535920977e-01) (2, -1.31525801693623572985e-01) (3, -2.30683917378609798510e-01) (4, -8.55608007065708636718e-02) (5, -1.13300623571103306619e-01) (6, -1.48095773731892699221e-01) (7, -1.81314284180825374682e-01) (8, -1.33492337738698008121e-01) (9, -1.84072131489937923510e-01) (10, -1.17926107918446751444e-01) (11, -9.34005400292332171874e-02) (12, -1.94198677515214107592e-01) (13, -2.51133235370343210757e-01) (14, -1.28483170842354804675e-01) (15, -2.38882439409917018969e-01) (16, -1.89548785065835140307e-01) (17, -9.95813777796680926757e-02) (18, -9.29260870568211078124e-02) (19, -1.97040973430102489550e-01) (20, -1.42803462421124571780e-01) (21, -2.12841460680192079424e-01) (22, -9.52899625651295184570e-02) (23, -1.47555047845070952395e-01) (24, -2.37774627482121608812e-01) (25, -2.36815350329106472094e-01) (26, -2.30536991929238460619e-01) (27, -1.06169717585271120019e-01) (28, -2.01092736994450654864e-01) (29, -1.35943645810311347644e-01) (30, -1.49055334006970519045e-01) (31, -1.87722945784752986986e-01) (32, -1.32757770096486094058e-01) (33, -2.28100406204884670336e-01) (34, -1.65926130687420958498e-01) (35, -1.65837833856766814211e-01) (36, -8.39355625710810349105e-02) (37, -5.65564223132456536658e-02) (38, -8.96866359315241501449e-02) (39, -1.69931912993615263918e-01) (40, -1.93132577662890575487e-01) (41, -1.60116756533806914309e-01) (42, -2.12253277606037293879e-01) (43, -1.36252076781061243205e-01) (44, -1.58769259428208464602e-01) (45, -8.68541618935520648437e-02) (46, -1.21252225910847874490e-01) (47, -9.58373120181019305663e-02) (48, -1.33954817628090860904e-01) (49, -1.61697568570798033694e-01) (50, -2.40397567128365657885e-01) (51, -2.24277550553506038744e-01) (52, -1.22058304225629063455e-01) (53, -8.32068046681339740234e-02) (54, -1.19351880823796482889e-01) (55, -1.07352199231808900781e-01) (56, -6.75414225212986746305e-02) (57, -9.74081328265125750976e-02) (58, -1.61041187321370238283e-01) (59, -2.16153430020039644122e-01) (60, -1.80871064042275569994e-01) (61, -5.76157888523990552310e-02) (62, -1.51395650779431456545e-01) (63, -5.61633594832743401892e-02) (64, -2.28171704170653938393e-01) (65, -5.43069617606002294496e-02) (66, -1.64270669817237119359e-01) (67, -6.40921238101099660645e-02) (68, -7.10500195145990082191e-02) (69, -2.18632950674825826676e-01) (70, -1.89063324820333694687e-01) (71, -2.19906384195346388255e-01) (72, -1.26268974732691052765e-01) (73, -1.46140417094439672985e-01) (74, -9.83246652844221580292e-02) (75, -2.32021958983209819483e-01) (76, -1.78706699195649826306e-01) (77, -1.60709869166406560392e-01) (78, -7.39769956223423758024e-02) (79, -6.13447448365146419391e-02) (80, -7.49114623419697284179e-02) (81, -6.18938228241855403766e-02) (82, -2.33141573344891689379e-01) (83, -1.44489037071889037112e-01) (84, -9.26198979966099261718e-02) (85, -1.00012721692746400781e-01) (86, -1.99360499357407711107e-01) (87, -1.07680591022198915430e-01) (88, -1.44940132474129790285e-01) (89, -1.07920946752255678125e-01) (90, -7.13532885662968435758e-02) (91, -7.04339592540151188116e-02) (92, -1.02291518856890792377e-01) (93, -1.42621433746821901778e-01) (94, -2.17231390365857611469e-02) (95, -3.39392495165128302292e-02) (96, -7.95864555209780388800e-02) (97, -1.02536423654303765485e-01) (98, -6.18036255752356100679e-02) (99, -1.62133749198720172879e-01) (100, -1.36687307903782390150e-01) (101, -2.49721399688197343014e-01) (102, -1.68058990728193469177e-01) (103, -2.38924616161134445447e-01) (104, -1.30324784454166203718e-01) (105, -2.01481762641934541991e-01) (106, -2.12340553649816410342e-01) (107, -6.31604640567189623557e-02) (108, -1.23778181349461821603e-01) (109, -2.39724526380723140795e-01) (110, -7.49209990851337909179e-02) (111, -1.46208914195721739748e-01) (112, -2.49137619709199037432e-01) (113, -5.55818399540836255435e-02) (114, -2.38217214321320674975e-01) (115, -8.92767926804478167968e-02) (116, -1.03113832151120424219e-01) (117, -1.85096973752205989916e-01) (118, -1.38588940152082368273e-01) (119, -1.76308181304208694273e-01) (120, -1.77954365966357053175e-01) (121, 7.67021239202191340567e-02) (122, -1.11163701941501512349e-03) (123, 1.17345882430949635666e-01) (124, 1.06049191529802577794e-02) (125, -1.52891721762659915651e-01) (126, -7.12292347474686032838e-02) (127, 9.74226817122749305655e-02) (128, -1.57788592074304123702e-01) (129, -2.12045632981282400342e-01) (130, -1.63842361922081763970e-01) (131, -2.70715145483663766068e-01) (132, -3.49403454917428857307e-01) (133, -2.19829350873121276422e-01) (134, -9.76907281935400911843e-02) (135, -8.02873942048841632291e-02) (136, -2.30554956128652732694e-01) (137, -6.10108020938013792533e-02) (138, -9.38992073885853290038e-02) (139, -1.05875225936597108789e-01) (140, -5.38374802224094312075e-02) (141, -1.16339476978009434549e-01) (142, -1.99603414361899517138e-01) (143, -2.50494385337059977115e-01) (144, -1.19440587436383457987e-01) (145, -1.82443387695539555038e-01) (146, -3.59685148714751698473e-02) (147, -6.78608063108980807954e-02) (148, 1.35249986058789711807e-01) (149, 7.05482125073984972508e-02) (150, 1.14248618492473252850e-01) (151, 1.27802622671703725032e-01) (152, 1.25372167318281352300e-01) (153, 1.39561014127445714300e-02) (154, -4.92414802696034215046e-01) (155, -2.19681068777453608609e-01) (156, -1.19299993363318368456e-01) (157, -4.60147490996160146715e-01) (158, -1.85215012509631737903e-01) (159, -3.16695610641349378778e-01) (160, -3.90714820078528979330e-01) (161, -5.09991602169421076596e-01) (162, -5.13146419862942737566e-01) (163, -1.57261366926945506117e-01) (164, -2.07977562328632459288e-01) (165, -1.19029808502410475168e-01) (166, -1.62590386544888609865e-01) (167, -1.94097439026063106615e-01) (168, -1.38804706012433137774e-01) (169, -2.04008868163054551959e-01) (170, -2.47491942917531154711e-01) (171, -1.40161464189713591555e-01) (172, -6.78676089398319998258e-02) (173, -1.77160831306409138897e-01) (174, -3.87958028835279494784e-02) (175, 9.50849525649074822642e-02) (176, 2.55912839158998761668e-01) (177, 4.82596577243360302933e-01) (178, 8.61976387088092543820e-02) (179, 9.62872565937194918595e-02) (180, 1.48536979736406365982e-01) (181, -3.76880059263111411028e-01) (182, -5.47213946942985307587e-01) (183, 2.09829401486735678262e-01) (184, -8.54265797884439653798e-02) (185, -2.28705379640813666331e-01) (186, -3.44324833000026253593e-01) (187, -2.86954648734374706542e-01) (188, -3.38887853758512769264e-01) (189, -4.87586517720188905578e-01) (190, -1.77543121454032226669e-01) (191, -1.16037164426245911764e-01) (192, -1.55047352223757928247e-01) (193, -1.34411927100478945096e-01) (194, -1.60752512403715186462e-01) (195, -1.23954342877095488595e-01) (196, -2.14965189074700441241e-01) (197, -7.37586638085301199430e-02) (198, -6.55710419766361990446e-02) (199, -1.01289155160611391016e-01) (200, -2.22390301414716801132e-01) (201, -4.28236663430206429548e-02) (202, 3.31631138811830719626e-02) (203, 3.54587569501543381500e-02) (204, 3.04035501008856845484e-01) (205, 4.80654674040502938315e-01) (206, 1.80542872991964309382e-01) (207, 4.16941868245109925617e-01) (208, 4.84306972344025032928e-01) (209, 2.17631576949285032718e-01) (210, -1.68517545440036248250e-01) (211, 1.60986266296971824996e-01) (212, -3.98905629129994077076e+00) (213, 7.20013603419734082856e-02) (214, -2.35216508583724892567e-01) (215, -4.90310125725974654820e-01) (216, -4.79396330960005986888e-02) (217, 1.26649067331610049036e-01) (218, 3.76411767675377470499e-02) (219, 1.71671075194756161952e-02) (220, -3.90176732527919550159e-03) (221, -2.21152244273852605083e-01) (222, -2.25532153820222042162e-01) (223, -1.67177634512608641604e-01) (224, -1.28879482125466376941e-01) (225, -1.36700438534443885485e-01) (226, -2.38651240443413875658e-01) (227, -9.13639387242252826171e-02) (228, -1.51576190480414346728e-01) (229, -2.32836215759757297894e-01) (230, 8.15574467549088910623e-02) (231, 9.54599069231685387615e-02) (232, 5.47951811559333035184e-01) (233, 2.94806069601053877260e-01) (234, 3.89843148367522485120e-01) (235, 1.83895716520064489430e+00) (236, 1.63075277049390066075e+00) (237, -8.17779028459178353172e-02) (238, -4.98118286894460637892e-01) (239, -2.87836684288279076593e-01) (240, -3.79620129463461852826e-01) (241, 5.00051549132937145359e-02) (242, -2.97524887618707371828e-02) (243, -5.58660943629722198112e-02) (244, 5.56865138947005081094e-02) (245, 1.07578165809305223433e-01) (246, 8.20494469640825098422e-03) (247, 9.88240287045687388137e-04) (248, 8.50242028813803785159e-02) (249, -7.55292682218284272544e-02) (250, -1.60712825333302611330e-01) (251, -1.35549495195572883288e-01) (252, -1.13281296765034886209e-01) (253, -1.33764239227002146304e-01) (254, -2.50246400212472075442e-01) (255, -1.89680041944211147387e-01) (256, -2.10540398702696057720e-01) (257, -1.83571352376598356804e-01) (258, -7.59779692365267298598e-03) (259, 1.02438724796266644734e-01) (260, -3.87870786536582447257e-03) (261, 1.07711668890889580852e-01) (262, 9.97855145114059483014e-01) (263, 1.78111683439758472502e+00) (264, 9.92290335980273385807e-01) (265, -7.32690403354609820497e+00) (266, -1.59580412982939323641e+00) (267, -3.67388183710226690071e-01) (268, 3.77226491107339523268e+00) (269, 7.68050695331699562196e-01) (270, 2.83094974969236412576e-01) (271, 2.12372681653601375062e-01) (272, 9.26494214455781534001e-02) (273, 6.76876171302901452620e-02) (274, 6.96217543599569055335e-02) (275, -1.80943244619456884703e-02) (276, 7.65236426518915626577e-03) (277, -5.48057465123862677658e-02) (278, -2.00240564717281382956e-01) (279, -8.92579129092152118163e-02) (280, -1.81107731734936855394e-01) (281, -1.12521173631375523416e-01) (282, -1.72326686059659117678e-01) (283, -2.38108837243665771854e-01) (284, -1.87222162773423184134e-01) (285, -1.51114935165854696875e-01) (286, -7.75047890280284729192e-02) (287, 6.66124217314434663439e-02) (288, 7.04659309279705992068e-02) (289, 2.70665111067980246329e-01) (290, 9.62658471631955503511e-01) (291, 8.99027602854195029281e-01) (292, -2.14592118701439947895e-03) (293, -3.77956771228003862717e-01) (294, -4.85740234867835596333e+00) (295, -6.13763178274564710768e-02) (296, 8.20243316080713213978e+00) (297, 6.44992072149981443552e-01) (298, 3.63148264908917772775e-01) (299, 2.71945349868186303510e-01) (300, 1.48587541466352474062e-02) (301, 5.69633455557756948617e-02) (302, 1.15807925244003045995e-01) (303, 1.37054706582233093437e-01) (304, -1.54039470720023861233e-02) (305, -2.00872732980767187971e-01) (306, -6.74237043049906725756e-02) (307, -2.23482052063172481615e-01) (308, -6.15314563862735530719e-02) (309, -2.25966947352116726000e-01) (310, -6.02592399470264425410e-02) (311, -1.89255497926062721259e-01) (312, -8.02806701520190763022e-02) (313, -1.61610050718866887776e-01) (314, -7.74643586842553577565e-02) (315, 9.88569044455136353156e-03) (316, 1.29493158026670246441e-01) (317, 3.19450183676992738313e-01) (318, 1.06274301429017214993e+00) (319, 2.93779641540529989907e-01) (320, 2.37543243090094946535e-01) (321, -1.96992917543069960551e-02) (322, -3.03775280539297165561e+00) (323, -2.04015618593865388775e+00) (324, 2.59277482224850031045e+00) (325, 1.72713952032257117564e-01) (326, 1.35002499834291000980e+00) (327, 2.41882445046458588456e-01) (328, 3.90109498726350784059e-02) (329, 3.09215573912529880299e-03) (330, 1.42916432018613676069e-01) (331, -7.96793982392891009248e-02) (332, -1.11826083625796490750e-01) (333, -1.27135981814120752054e-01) (334, -1.67122111840475151556e-01) (335, -1.45281361614888304690e-01) (336, -8.90488794199879168945e-02) (337, -1.92848494475310466845e-01) (338, -1.16282688652699681131e-01) (339, -9.77948062818462943158e-02) (340, -1.63214841665918486413e-01) (341, -1.05566045861326673894e-01) (342, -1.35572733734863809518e-01) (343, 2.35979507923348569287e-02) (344, -2.89190528174394050065e-02) (345, 2.58430481500669717576e-01) (346, 1.93012084887794554966e+00) (347, 5.35830153944618858830e-01) (348, 4.94369079122302712559e-01) (349, -8.22669220370489995275e+00) (350, -3.30221763642022603236e+00) (351, -4.17782113281038203212e+00) (352, -5.00732189997188936736e-01) (353, 7.34431279830647376627e-01) (354, 1.03828784461691547847e+00) (355, 3.19361332398424735413e-01) (356, 3.88050241237985898968e-02) (357, 1.46450497957571340590e-01) (358, -1.47060035245561854245e-02) (359, -5.84562050605037450413e-02) (360, -2.28932507500727855376e-01) (361, -5.06366165439830484551e-02) (362, -1.92115511795076326917e-01) (363, -1.17717283045476170389e-01) (364, -1.38919698273366060137e-01) (365, -1.15790145670598240701e-01) (366, -2.10517918889945115923e-01) (367, -1.76889398551252574610e-01) (368, -5.32613991582280010828e-02) (369, -5.65612852662078988142e-02) (370, -1.20902130757587947252e-01) (371, 5.63579069134512861128e-02) (372, 7.68124989666029572843e-02) (373, 2.17159776364709317109e-01) (374, 2.02749214356007767535e+00) (375, 1.16179089291127168870e+00) (376, 6.91937644042364685681e-01) (377, -2.96044261257089491579e-01) (378, 7.57559142490541237436e-01) (379, -4.91175036543165344227e+00) (380, -5.69189298389288733659e+00) (381, 4.29474375297840182952e+00) (382, 1.82313734901666690824e+00) (383, 3.06676016995388933672e-01) (384, 1.72593407769050001532e-02) (385, -2.26039459400075963547e-02) (386, 6.03995071275091124918e-02) (387, -3.17750415125993071475e-02) (388, -9.97475557567866454034e-03) (389, -1.29919725193301083266e-01) (390, -1.86668948711421311959e-01) (391, -2.50865863835042002261e-01) (392, -1.41596520518487117846e-01) (393, -1.37611659442608891268e-01) (394, -1.16102399503415318338e-01) (395, -2.29437024748590678858e-01) (396, -1.97719770802343403071e-01) (397, -5.63810110180847437467e-02) (398, -5.05165174094221111623e-02) (399, 2.14793786049613660838e-02) (400, 1.33263011239783374373e-01) (401, 6.90870643853656263289e-01) (402, 2.14165172248241297837e+00) (403, 1.65923409190478765574e+00) (404, 1.43452571626837332985e+00) (405, -1.11381467534303268963e+00) (406, -3.51012285605702700764e+00) (407, -1.43683805522053331671e+00) (408, -1.11003204119344953682e+01) (409, 5.44345374512896995611e+00) (410, 1.89201635152994573907e+00) (411, 5.78669783935790299489e-02) (412, 7.52701128018249676632e-02) (413, 1.14255095522425770271e-01) (414, -7.25741225869791202821e-04) (415, 2.91329712475264963889e-03) (416, -4.51698113414534946353e-02) (417, -1.18256754384349418996e-01) (418, -1.79053733324235103685e-01) (419, -1.09342562233632326074e-01) (420, -2.08369458293145265460e-01) (421, -1.19565131341641636697e-01) (422, -1.08370883400649348216e-01) (423, -9.81284361436074170637e-02) (424, -2.01799549051511789566e-01) (425, -1.53590784975814104163e-01) (426, 2.74860919031121656020e-02) (427, 7.86833763164987570748e-02) (428, 5.08522208624591284809e-02) (429, 6.53566200076335812597e-01) (430, 5.41190032324274650222e-01) (431, 9.85414069421707061736e-01) (432, 1.29556231439401581262e+00) (433, -5.77223915408248178238e+00) (434, -5.23542982968842807168e+00) (435, 1.66393321086270778997e-01) (436, 3.79813877030393731715e+00) (437, 8.80171328090936810895e+00) (438, 1.07388417472429975597e+00) (439, 2.32487791698987381062e-02) (440, 6.40555800758938476136e-02) (441, -2.36492378977463599266e-02) (442, 7.60438745250395370379e-02) (443, 1.54505607944338152482e-01) (444, -4.93828017446288486392e-02) (445, -1.04437748624602200209e-01) (446, -1.10414209043210240213e-01) (447, -1.47618854617303008059e-01) (448, -1.82887481724446437914e-01) (449, -2.36987212871735714037e-01) (450, -2.05123877163142342983e-01) (451, -1.38776207541649904131e-01) (452, -9.90868546567286179183e-02) (453, -7.65691774985500280687e-03) (454, 3.75586454988230469820e-02) (455, 2.90496102783482090803e-01) (456, 5.76249611476717826797e-01) (457, 4.90785214155923299462e-01) (458, 4.81260949774094004550e-01) (459, 6.06068112771051215049e-01) (460, 1.03330929584246167252e+00) (461, -2.84255710533484773350e+00) (462, -4.38749032138257177849e+00) (463, 2.01629517229837129655e-01) (464, 6.72986942832346635157e+00) (465, 4.24890636492098661137e+00) (466, 1.41716347931830655149e+00) (467, 4.92108371719007856027e-02) (468, 5.32351152216680445495e-02) (469, 1.85446946411628073303e-02) (470, 5.24518573944625296490e-02) (471, 1.30827262428804491634e-01) (472, -9.62656937030337139793e-02) (473, -4.14888650267593514509e-02) (474, -1.00765272864091995353e-01) (475, -2.46467324172680996019e-01) (476, -1.17911460076993199197e-01) (477, -1.61595264648621672610e-01) (478, -1.41605446314042232592e-01) (479, -2.48318212305730007250e-01) (480, -1.41116995414289403410e-01) (481, 6.26844202750731754187e-03) (482, 8.91896471629149562022e-02) (483, 1.15827383268785416570e-01) (484, 2.19601388617902459899e-01) (485, 5.71106027594006304682e-01) (486, 4.37544105496790181054e-01) (487, 5.07233917683803436915e-01) (488, -8.67058810773792654203e-01) (489, -2.06303958809752741033e+00) (490, -5.07299872487171654711e+00) (491, 1.38915110145809772568e+00) (492, 4.42946785168163437163e+00) (493, 3.54353538725547512200e+00) (494, 6.88518879334570232942e-01) (495, 1.83809850086969456262e-01) (496, 1.11699485338276643942e-01) (497, 1.15064578418788230479e-02) (498, 1.41096567967464336935e-01) (499, -1.60774918211945457014e-02) (500, -5.77884330836317197666e-02) (501, -1.42902508895847296655e-01) (502, -7.71780481688435077148e-02) (503, -1.02625535999959230371e-01) (504, -2.01583957498496141314e-01) (505, -1.28359088873093635241e-01) (506, -9.66121276966984271484e-02) (507, -6.41181765878087589483e-02) (508, -2.31071434208575232638e-01) (509, 3.23158679811451285402e-02) (510, 1.87753769364898986938e-01) (511, 1.73323200385390563394e-01) (512, 2.30610187536698957311e-01) (513, 4.93103238708706315130e-01) (514, 5.48995449160619375384e-01) (515, 7.59366780820790565620e-01) (516, -6.80404422845131251485e-01) (517, 8.22232815731435984219e+00) (518, -5.18468861030196936923e+00) (519, -1.30732674202299031796e-01) (520, 3.28094130327632838018e+00) (521, 2.97001081039423864283e+00) (522, 6.50454599484254325503e-01) (523, 2.15333798287999117482e-01) (524, 3.85806346543338535282e-02) (525, 1.67981717253676166024e-01) (526, 4.61791317117778155055e-02) (527, -2.33822290635527160751e-02) (528, -1.12336796447782383268e-01) (529, -2.00195840282956061262e-01) (530, -2.31567094301407955248e-01) (531, -1.15649031674092503397e-01) (532, -1.49239326094811552981e-01) (533, -5.62644025437290112857e-02) (534, -1.65793830727761382082e-01) (535, -9.54460351550465851966e-02) (536, -1.22311440657977235635e-01) (537, 1.45680559030619046629e-02) (538, 1.18956717274417020369e-01) (539, 1.10370370468329634384e-01) (540, 1.66884697987069174907e-01) (541, 5.09157113495167679140e-01) (542, 4.23428429772509884454e-01) (543, 7.45818087303077192907e-01) (544, 3.51602010709722057058e+00) (545, -1.24681069470243777175e+00) (546, -2.01587158130725585536e+00) (547, -9.86323609724092720263e-01) (548, 2.07363961257750650802e+00) (549, 2.17382431332562431336e+00) (550, 8.75486917918837509456e-02) (551, 7.33381190758929102369e-02) (552, 4.35727512785906365145e-02) (553, 1.22826133264055809002e-01) (554, 1.69748174312375321726e-01) (555, 1.17886780513820121907e-01) (556, -4.92403211838987400761e-02) (557, -1.78208027084859804701e-01) (558, -9.46863629422510788558e-02) (559, -5.88195940606052319888e-02) (560, -1.37614878093426762362e-01) (561, -7.87574669472630023437e-02) (562, -1.21389739293545906307e-01) (563, -2.29915174855161219547e-01) (564, -8.10611076692931975529e-02) (565, -1.76453205252734057762e-01) (566, 1.39417032341948965435e-01) (567, 4.94257126994295178934e-02) (568, 1.81757646121605553891e-02) (569, 2.77277162814599964502e-01) (570, 3.13864183889499659408e-01) (571, 1.77213460130203004361e-01) (572, -1.97728635010942821459e+00) (573, -7.72608605538674830804e-01) (574, -1.14631115905383579312e-01) (575, -1.02524211752041405354e+00) (576, 1.52779000845328249980e+00) (577, 2.09799834402815088552e+00) (578, 1.74554324759175830128e-02) (579, 2.19730301736436262061e-01) (580, 9.75279740353600238523e-02) (581, 3.70986219323891086574e-02) (582, -2.28265016112726079611e-02) (583, -1.90550170844767330358e-01) (584, -1.83043893427874915236e-01) (585, -2.41738956471475557874e-01) (586, -9.35040601096476242660e-02) (587, -8.12619200102741717773e-02) (588, -1.77435750340645931322e-01) (589, -1.45679170464699858645e-01) (590, -8.62623561486593054548e-02) (591, -5.81115886701826789285e-02) (592, -1.63613658186256227811e-01) (593, -1.50936522055453270497e-01) (594, -3.71814765174289033056e-02) (595, -2.93460942205360075102e-03) (596, -3.16526518898749442688e-01) (597, -2.52279830865525411809e-01) (598, 3.81987398363063538134e-03) (599, 1.24543247344651442088e-01) (600, -5.13812347789564943801e-02) (601, 2.31570919283660026089e-01) (602, -9.50389202210349059996e-01) (603, -3.54083580430817057572e-01) (604, 7.91188215950596851478e-01) (605, -5.38979018278820457000e-02) (606, -6.03340615047863321196e-02) (607, 1.17547167008770839236e-01) (608, 1.97753447357373775273e-02) (609, -1.96917614708448894534e-02) (610, -1.49651536230969543773e-02) (611, -8.71743519293972403406e-03) (612, -1.59723829527887273283e-01) (613, -1.01504143146018604993e-01) (614, -2.52436006640618437746e-01) (615, -1.44485423540299529055e-01) (616, -9.83673801772053241210e-02) (617, -9.84440764538700580077e-02) (618, -1.71928193078934199445e-01) (619, -2.21679165116344945030e-01) (620, -1.87193317200004538670e-01) (621, -5.07405828415332549319e-01) (622, -6.72048224378555381087e-01) (623, -3.44322146611120594173e-01) (624, -9.91363590330510469073e-01) (625, -4.64237680092595528247e-01) (626, -1.56425855911449529501e-01) (627, -7.74068921490370792649e-02) (628, 1.82421482595319678355e-01) (629, 2.39791559079647859098e-01) (630, -2.96906616188147842728e-01) (631, -1.80329443730462224416e-01) (632, -8.99744462150964957603e-02) (633, 5.73125342870697412900e-02) (634, -2.50969873813019606068e-01) (635, 1.00067804264558607441e-01) (636, -1.51446003142523710761e-01) (637, -1.63148681032890568998e-01) (638, -8.92243070769042773138e-02) (639, -1.63236340993334894112e-01) (640, -1.83623010221776905571e-01) (641, -2.01552948182051744341e-01) (642, -1.87739337062066219408e-01) (643, -1.01433756028836488672e-01) (644, -5.31966110817844312075e-02) (645, -1.87694603776162288744e-01) (646, -1.93438461249297283251e-01) (647, -9.90832617632801532226e-02) (648, -2.31037702229957259137e-01) (649, -3.21378889816229418308e-01) (650, -7.96446170617366222544e-01) (651, -4.13395369499965026350e-01) (652, -3.05616115864010273739e-01) (653, -3.38995500510215708179e-01) (654, -3.03441984571343581489e-01) (655, -1.23928017818095273506e-01) (656, -2.12230939386535200075e-01) (657, 6.23950267112440948303e-01) (658, 3.97169833179649378607e+00) (659, -1.22474928529238039077e-01) (660, -8.05966191847501955969e-02) (661, 2.77911249264733376668e-03) (662, -2.45231438722955767673e-02) (663, -1.68861056282871652146e-01) (664, -4.42042669181043207383e-02) (665, -7.72525608624965998139e-02) (666, -4.69616799578454341413e-02) (667, -7.10958789127263124374e-02) (668, -2.34304582209851564034e-01) (669, -1.48844087695305937746e-01) (670, -2.06146037216395516811e-01) (671, -1.77352944587891719896e-01) (672, -9.79163071267063617187e-02) (673, -1.40761444544022701342e-01) (674, -2.26305978571599147875e-01) (675, -9.86321887127811908202e-02) (676, -7.59753307454044818359e-02) (677, -1.67794208072113565366e-01) (678, -1.44121996977584765354e-01) (679, -5.70985130933722717650e-02) (680, -2.28953284767051651327e-01) (681, -1.46624615380237244278e-01) (682, -1.59106064217435366759e-01) (683, -1.90400119350940394414e-01) (684, -6.01360381779343575182e-02) (685, 6.65593937439287880453e-02) (686, 1.20370611097390625699e-01) (687, 9.42734263009700756974e-02) (688, -8.75426577825927920706e-02) (689, -9.44118675502224335983e-02) (690, -7.32689644257771138802e-02) (691, -1.91792702302403778036e-01) (692, -1.49963043519247107849e-01) (693, -1.62153185761240187235e-01) (694, -1.53840648209279173830e-01) (695, -1.87748197124897486798e-01) (696, -1.92564921652501247484e-01) (697, -1.61833705579465025881e-01) (698, -2.14408768539851274371e-01) (699, -1.80711949443047664721e-01) (700, -5.81970533482486646060e-02) (701, -1.67430879747098082522e-01) (702, -1.05584161554997682519e-01) (703, -1.03632630979245424219e-01) (704, -5.57115992657596509341e-02) (705, -7.94094225518162249999e-02) (706, -1.49479297618191842023e-01) (707, -7.83032435413067162688e-02) (708, -1.95476781741287797267e-01) (709, -2.30724402702036202051e-01) (710, -6.31797874181043161990e-02) (711, -1.47913378655194799327e-01) (712, -1.34130514660548455508e-01) (713, -1.55331872087870276333e-01) (714, -1.10150757142160785063e-01) (715, -5.12286522031505341113e-03) (716, -9.06868138487390285096e-02) (717, -2.18758946876608434406e-01) (718, -1.33726954207495002391e-01) (719, -2.00211634126056692295e-01) (720, -1.32879979797590225266e-01) (721, -1.84968466138070247728e-01) (722, -1.49725707446759337405e-01) (723, -2.36155303394024990160e-01) (724, -9.32393690697605609374e-02) (725, -2.51085633610909464419e-01) (726, -1.72761196469491118410e-01) (727, -2.33323561226552150805e-01) (728, -1.60438599263852232912e-01) (729, -1.34689236258690836490e-01) (730, -1.61554778193657988528e-01) (731, -1.66154930566971892336e-01) (732, -2.49639393960660205263e-01) (733, -2.14658221428816881060e-01) (734, -2.17002032021802043760e-01) (735, -5.25654607217723723878e-02) (736, -2.41282103280347021146e-01) (737, -1.14610197221463414041e-01) (738, -7.02084030798713204513e-02) (739, -1.69139580363747626945e-01) (740, -9.52802326372901436935e-02) (741, -1.03998024978438269317e-01) (742, -9.13022986047546114552e-02) (743, -1.95535800217751659646e-01) (744, -5.80137993983070032744e-02) (745, -2.13048308664149366187e-01) (746, -2.13751921629136171221e-01) (747, -1.27796100651448280017e-01) (748, -1.98724633281653545458e-01) (749, -1.02441700374310731836e-01) (750, -7.93264528862888812499e-02) (751, -8.20203891150410174804e-02) (752, -2.34929429566090725023e-01) (753, -1.76571438287919185717e-01) (754, -6.56949600331242361539e-02) (755, -7.56880661599094867187e-02) (756, -1.75176339422886989672e-01) (757, -1.85975427006905696947e-01) (758, -5.65308949105197827700e-02) (759, -8.31342062107975482421e-02) (760, -6.81839307896549978727e-02) (761, -1.65604951059048766115e-01) (762, -1.96808414732640407641e-01) (763, -6.53425922743733206266e-02) (764, -1.27782436286633521716e-01) (765, -1.61634514307206267336e-01) (766, -6.57321235291416922086e-02) (767, -1.16888614570325108377e-01) (768, -2.23763982032960079271e-01) (769, -9.28471109024937152343e-02) (770, -2.47706445132916591723e-01) (771, -7.59508034340794085937e-02) (772, -1.51359388803666228274e-01) (773, -9.67625400177891253906e-02) (774, -2.28393214022343776781e-01) (775, -1.66279802297776335696e-01) (776, -5.82330694548541943911e-02) (777, -1.89664403175538204271e-01) (778, -2.41595166002934597094e-01) (779, -2.04476973240798082232e-01) (780, -2.39625374054139278490e-01) (781, -6.84408864132817068571e-02) (782, -2.34016621684258602221e-01) (783, -2.22074071144288148760e-01) (784, 4.85365897740966556473e-01) (0, 6.44232232384909009326e-01) (1, 6.46181669347513532031e-01) (2, 7.76235875003565167773e-01) (3, 7.10737537853945111621e-01) (4, 6.42131503932703351367e-01) (5, 7.45582398288477277148e-01) (6, 6.95034332834709500659e-01) (7, 7.29007277899015759814e-01) (8, 8.01254730932939862598e-01) (9, 6.82172473781336163867e-01) (10, 6.53705571108091687549e-01) (11, 6.92100934945572232593e-01) (12, 6.68921087198484753955e-01) (13, 7.89297681563127850879e-01) (14, 7.20817689113844251025e-01) (15, 8.28554716222513532031e-01) (16, 7.94071983807314252246e-01) (17, 6.97347603999603604663e-01) (18, 7.29676042013395642627e-01) (19, 7.49790165834654187549e-01) (20, 7.21435118727911328662e-01) (21, 8.15876972191561078418e-01) (22, 7.44037825875509595264e-01) (23, 7.84251448028314923633e-01) (24, 8.26762538664568280566e-01) (25, 7.92041581385362958301e-01) (26, 7.97106813900698041309e-01) (27, 8.10802381746996259082e-01) (28, 8.10505684726465558398e-01) (29, 8.27513467781771039355e-01) (30, 6.70751516037214612354e-01) (31, 8.15755572431314801563e-01) (32, 8.34712784998644208301e-01) (33, 8.08005046360720013965e-01) (34, 6.87510751449097012866e-01) (35, 8.37861936800707196582e-01) (36, 7.14605089538324689258e-01) (37, 7.43562732153166150439e-01) (38, 7.27886867039430951465e-01) (39, 6.76877454184521054614e-01) (40, 7.86752861254442548145e-01) (41, 7.42610086016882275928e-01) (42, 7.31633701145575243707e-01) (43, 8.19363653077242903855e-01) (44, 6.93395819950998637538e-01) (45, 8.11831366532076215137e-01) (46, 8.06263949983347272266e-01) (47, 6.48015041165579175342e-01) (48, 6.70196619146097516406e-01) (49, 6.96957633160580014575e-01) (50, 7.58822854869592999805e-01) (51, 7.52649385743368481982e-01) (52, 6.73852253966558789600e-01) (53, 6.63878325634229993213e-01) (54, 6.97918489836681699146e-01) (55, 6.61632437520254468311e-01) (56, 8.16937547438371991504e-01) (57, 6.56042944901216840137e-01) (58, 8.33452474587190961230e-01) (59, 7.88460891955126141895e-01) (60, 6.44574065022695874561e-01) (61, 6.65221635513532971729e-01) (62, 7.65234109275568341602e-01) (63, 6.40304494910467481006e-01) (64, 8.34244337194193219531e-01) (65, 4.12235824890638868911e-01) (66, 2.39018678607874512920e-01) (67, 3.09701658728056827830e-01) (68, 3.20614348117079617229e-01) (69, 3.32492736975608549344e-01) (70, 3.52500288679797102454e-01) (71, 2.96881440243283167835e-01) (72, 4.48262779851522796815e-01) (73, 4.40444049487811017940e-01) (74, 2.44456416424780442753e-01) (75, 2.86293184813528889254e-01) (76, 4.11120255305309267868e-01) (77, 4.11738014277487740511e-01) (78, 6.94692079239118909229e-01) (79, 6.42839130275476788867e-01) (80, 6.69079493992555951465e-01) (81, 8.14532589428652142871e-01) (82, 7.56506163888204907764e-01) (83, 7.03949388377893781055e-01) (84, 6.39428552501428937305e-01) (85, 8.15442305319536542285e-01) (86, 7.26599473767507886279e-01) (87, 8.17383762710321759570e-01) (88, 8.32502898090113019336e-01) (89, 7.21069593243826245654e-01) (90, 7.66862299554575299609e-01) (91, 4.38728413042098031038e-01) (92, 3.43750037672568786729e-01) (93, -9.57662952643480776954e-04) (94, -5.81069673652354415361e-02) (95, 4.50471480136212173995e-02) (96, -3.60140584506420504199e-03) (97, -3.10525587288912399697e-02) (98, 1.46329208481640160588e-01) (99, 2.98690063915923953441e-01) (100, 9.12202514684122500732e-01) (101, 5.69070109920774835910e-02) (102, 1.02435654548661839169e-01) (103, 4.40794855328010271034e-02) (104, 3.20029094926546575639e-01) (105, 3.76136367842646035520e-01) (106, 3.67679644395640270460e-01) (107, 6.94671388976801251758e-01) (108, 7.51347888522375439990e-01) (109, 8.23845472448099469531e-01) (110, 6.98528167121637677539e-01) (111, 7.81445022933710431445e-01) (112, 7.99395706765879010547e-01) (113, 8.16051986329782819141e-01) (114, 6.46412063651312207568e-01) (115, 7.99841907136667584766e-01) (116, 7.92511936538446759570e-01) (117, 7.34499592770040843348e-01) (118, 3.78877094444304451937e-01) (119, 9.43271332191885081286e-02) (120, 1.18824555762110525836e-01) (121, -9.67506564264382883100e-03) (122, 5.99210412196325356571e-02) (123, 1.37946827135050908986e-02) (124, 8.90569282344043922084e-02) (125, 2.38697716127743542192e-01) (126, 1.69276401730482772834e+00) (127, 7.34248464450607052356e+00) (128, 1.63510745881473162910e+00) (129, 8.07793777898063058984e-01) (130, 6.89704837401850956446e-01) (131, 7.67104048218066325582e-01) (132, 7.29505740624625476087e-01) (133, 8.26576439031970311433e-01) (134, 7.55209966970876833692e-01) (135, 3.67759852228045358569e-01) (136, 7.70331401999829301630e-01) (137, 6.87194712502745774785e-01) (138, 8.24493270628679608691e-01) (139, 6.85451787226427411426e-01) (140, 6.72450494282472943652e-01) (141, 6.84039078914154385913e-01) (142, 8.27914458029497479785e-01) (143, 8.33334248948992106776e-01) (144, 6.60309513805998005154e-01) (145, 4.37012371669512678096e-01) (146, 1.14219883597482974036e-01) (147, 1.06300335711527194071e-01) (148, -7.94906192059169902642e-02) (149, -1.87285974516944814239e-01) (150, -3.66220215954037420225e-01) (151, -7.49477643930559178642e+00) (152, 6.06828600420299402174e-02) (153, 1.63478240271385855120e-01) (154, 2.72663006939335472723e+00) (155, 3.90440840651938803063e+00) (156, 1.59502481056488426558e-01) (157, 7.37412515358224496254e-01) (158, 7.27944103899788474976e-01) (159, 4.32201467222379717703e-02) (160, 7.06841245579424848344e-01) (161, 4.39064670022459302423e-01) (162, 4.33624787368311948033e-01) (163, 3.88773665251780975449e-01) (164, 3.21754051539807461868e-01) (165, 3.57942029776507353311e-01) (166, 7.22154382877577161182e-01) (167, 6.58003192656267499316e-01) (168, 8.06712474935282086719e-01) (169, 7.07665298395384168018e-01) (170, 7.04472627752054547656e-01) (171, 6.41818270802424151178e-01) (172, 7.51922821401250995876e-01) (173, 2.90605762598608374780e-01) (174, 1.26411721812004412824e-01) (175, 1.41976445802091989778e-02) (176, -4.41950151395043122626e-01) (177, -1.03760950922416075315e+01) (178, -4.83022762685371864766e-01) (179, 7.41658302289174755501e-03) (180, -5.11878932091940075377e-02) (181, -5.83434337426176202746e-02) (182, 8.93987900882811326042e-01) (183, 1.92452007187582985193e-01) (184, 8.90366522736357413059e-01) (185, 6.06849669518402690116e-01) (186, 6.84253048154174425832e-01) (187, -1.00392781662998444858e+01) (188, -1.80726378176573193590e-01) (189, -2.85876113585078420881e-03) (190, 2.60795445213208715307e-02) (191, -2.69946374724842237669e-02) (192, -2.94834206336838100526e-02) (193, 3.19188189746977379890e-01) (194, 8.06698676460016583789e-01) (195, 7.34937023632753705371e-01) (196, 6.39040764682520245898e-01) (197, 6.89870707952011441577e-01) (198, 7.53957864158380841602e-01) (199, 8.06770872586000775684e-01) (200, 3.58388252499037718302e-01) (201, 1.21761310240103642899e-01) (202, 8.48759447389137999807e-02) (203, -1.86911374923999645814e-01) (204, -5.46300292654457653185e+00) (205, -2.85882816212971180292e+00) (206, -7.09143769850981431357e-02) (207, 5.25336484070899889520e-03) (208, -3.60461302581555731450e-01) (209, -4.65166470849957380818e-01) (210, -2.78308869472694231373e-01) (211, 2.63874573605717399616e+00) (212, -2.34288580178671240750e-01) (213, -7.24547008197567676824e-01) (214, 4.15519148376294888969e-01) (215, -3.90308273876492528576e-01) (216, 1.19914698046800674569e-01) (217, -3.02895241677414960024e-02) (218, 8.34917722977645132554e-02) (219, 5.84081374811590836593e-02) (220, 1.14094631821857167564e-01) (221, -2.09868699383620564702e-02) (222, 7.64479678385485028613e-01) (223, 8.20057850592363690723e-01) (224, 7.37760808580149030078e-01) (225, 7.32195992284048413623e-01) (226, 7.16012526564825391162e-01) (227, 7.37819213681448315967e-01) (228, 3.82330665777209255385e-01) (229, 1.36342639868760856503e-01) (230, -1.64882674641063202425e-02) (231, -1.25590519940489614426e-01) (232, -2.18816877967021317097e-01) (233, -1.98749964844318727231e-01) (234, -4.20210440891275859715e-03) (235, -4.42306722209072245011e-01) (236, 1.66166737069031761331e-01) (237, -4.60268315491333235290e-01) (238, 5.35910630597800752284e-01) (239, -3.25660086020476469137e-01) (240, 1.31121894375372582964e+00) (241, 3.14036971460276781443e+00) (242, -1.94588616585606360987e-01) (243, 1.79959867913873583500e-01) (244, 2.89661954392234771705e-02) (245, -7.19249446376280798798e-02) (246, -1.41170962919142661818e-02) (247, 6.82218992698399168129e-02) (248, 2.80652885148389152903e-02) (249, -2.24359855127219572080e-02) (250, 3.13585101124316145693e-01) (251, 6.93028584383953427661e-01) (252, 6.73223492019403790820e-01) (253, 8.38448625319231366504e-01) (254, 6.74104083590734814990e-01) (255, 7.72001948468912457813e-01) (256, 3.28572598919363412229e-01) (257, 5.57395712021035022454e-02) (258, -4.94108756117052488888e-02) (259, -7.04101335775299264075e-02) (260, -8.29137520364684049712e-02) (261, -9.63009196505864618898e-03) (262, -2.61017472628685132108e-01) (263, 9.17169603828361795772e-02) (264, -3.01769606423380687410e-01) (265, 3.52250398151962074156e-01) (266, 2.84375068232151217984e+00) (267, 2.62593851971646818910e+00) (268, 1.49629446544120603413e+00) (269, -4.80393098530270123980e-01) (270, -1.22081103226776996329e-01) (271, -1.50235403491773000795e-01) (272, -7.99979900842423957696e-02) (273, -8.15209704191804072904e-03) (274, -3.97003225507514476145e-02) (275, -4.08286880497093912501e-02) (276, 9.61540163043182460889e-02) (277, 1.11537853396524722083e-01) (278, 6.59236256294477795947e-01) (279, 6.75557147972811078418e-01) (280, 8.07437371723879193652e-01) (281, 7.33205203228224133838e-01) (282, 7.29603376500833844531e-01) (283, 6.41678508632410382617e-01) (284, 3.31917779932501766371e-01) (285, 6.93304360392730661955e-02) (286, 5.33197138941569614978e-02) (287, 7.10515402965885556341e-02) (288, -6.93672888949723592811e-02) (289, 6.91222370131255731129e-02) (290, -3.30389246334778841074e-01) (291, 1.26963548041381599774e+01) (292, 9.67524879600885068243e-01) (293, 8.94163951569719839263e-01) (294, 2.53223878396680301961e+00) (295, 2.67231772852082505310e+00) (296, 1.90160779003080082639e+00) (297, 1.11049077617953404484e+01) (298, -2.24579295056749755899e-01) (299, 7.55964090833143170789e-02) (300, -7.74133680976342719582e-02) (301, 7.23964482885641885668e-02) (302, 9.70943666881255579293e-02) (303, 9.39249219685988900874e-02) (304, 4.34029413477408157473e-02) (305, 3.03752512534044671888e-01) (306, 6.74007285647619580615e-01) (307, 6.91422794275511121143e-01) (308, 6.58396888785589551318e-01) (309, 6.94261189811457013477e-01) (310, 7.27997590117681836475e-01) (311, 8.26851915829408978809e-01) (312, 3.87730354855540249037e-01) (313, 1.27203963690349475257e-01) (314, 1.20450268799002849218e-01) (315, -4.90951702804202430586e-02) (316, 1.03199197158164220761e-02) (317, 1.03242362457476866133e-02) (318, -3.24323656066841881085e-01) (319, -1.84974669477081715696e-01) (320, 5.73426059781391606052e-01) (321, -4.18798587573478453550e+00) (322, -1.76099611381876144378e+01) (323, 3.22559085735806672091e+00) (324, 1.37365668882749836222e+00) (325, 3.00076946750963552413e-02) (326, -9.08740543748811857583e-01) (327, -1.09851156230590819157e-02) (328, -1.10047913452941403811e-01) (329, 1.15789165244012341033e-02) (330, -2.04713173137137339694e-03) (331, 1.64846439728386362500e-02) (332, 3.06045465160985796782e-01) (333, 3.14571759231592695816e-01) (334, 7.02959466986883496631e-01) (335, 8.14092483632791852344e-01) (336, 7.83453982584703778613e-01) (337, 7.37984400503862714160e-01) (338, 6.66532922797430371631e-01) (339, 8.02868511789072369922e-01) (340, 7.93709350183020245773e-01) (341, 3.46323355885720773895e-01) (342, 8.59733424800755430262e-02) (343, 2.12586044160127489444e-02) (344, 1.34021039245733383088e-02) (345, 6.55004247146147994263e-02) (346, -2.15713801542724514793e-01) (347, -2.73465231557257493211e-01) (348, 4.79658395647302282505e-01) (349, 1.37915848557103650762e+01) (350, -1.51908616848842985547e+01) (351, 2.11713167818746139659e+00) (352, 8.24664984148261126506e+00) (353, -1.74965490795829881066e+00) (354, -9.16589374022574898682e-01) (355, -7.52288002576976949642e-02) (356, 4.96862772272542302376e-02) (357, 1.61378638880092274699e-02) (358, 3.26676850156433495886e-02) (359, 8.10292161254499709866e-02) (360, 4.07206185151716137938e-01) (361, 8.21954581661156424843e-01) (362, 6.66216146462190961230e-01) (363, 6.90615140162933682788e-01) (364, 7.01030530296791409839e-01) (365, 7.30193253867853497852e-01) (366, 6.65725272410143231738e-01) (367, 6.47139810740874010797e-01) (368, 8.30229702300490091105e-01) (369, 2.83760342677209231876e-01) (370, 1.04332888175258348129e-01) (371, 6.22017058052111021516e-02) (372, 1.13007429754341470751e-01) (373, 4.30474017395872307623e-02) (374, -4.32731992942651577660e-01) (375, -6.62806493358184978248e-01) (376, 1.65575726506398162030e+01) (377, -3.37270109898323422470e+00) (378, -7.87156701804945502232e+00) (379, 1.80684295349686241394e+00) (380, 3.48652181053573029246e+00) (381, -2.26815568103934950273e+00) (382, -9.27249600048998368074e-01) (383, -8.60137403062595923275e-02) (384, -4.38365793249337193371e-02) (385, -5.25593935780628296328e-02) (386, -6.44157002528350924875e-02) (387, 1.06862739209349827396e-01) (388, 4.08627188882445119278e-02) (389, 3.45403743609877023069e-01) (390, 7.56326578802309135163e-01) (391, 7.15706158690679883350e-01) (392, 7.33425494544733380664e-01) (393, 7.84947853796709393848e-01) (394, 7.67809357930124614100e-01) (395, 7.97111340582297045465e-01) (396, 6.76158760004270886768e-01) (397, 3.81766477877520771234e-01) (398, 9.16616190297091237849e-02) (399, -5.72126379541344348700e-02) (400, -7.30030472838597010998e-02) (401, 