FANN_FLO_2.1
num_layers=3
learning_rate=0.400000
connection_rate=1.000000
network_type=0
learning_momentum=0.000000
training_algorithm=2
train_error_function=1
train_stop_function=0
cascade_output_change_fraction=0.010000
quickprop_decay=-0.000100
quickprop_mu=1.750000
rprop_increase_factor=1.200000
rprop_decrease_factor=0.500000
rprop_delta_min=0.000000
rprop_delta_max=50.000000
rprop_delta_zero=0.100000
cascade_output_stagnation_epochs=12
cascade_candidate_change_fraction=0.010000
cascade_candidate_stagnation_epochs=12
cascade_max_out_epochs=150
cascade_max_cand_epochs=150
cascade_num_candidate_groups=2
bit_fail_limit=3.49999999999999977796e-01
cascade_candidate_limit=1.00000000000000000000e+03
cascade_weight_multiplier=4.00000000000000022204e-01
cascade_activation_functions_count=10
cascade_activation_functions=3 5 7 8 10 11 14 15 16 17 
cascade_activation_steepnesses_count=4
cascade_activation_steepnesses=2.50000000000000000000e-01 5.00000000000000000000e-01 7.50000000000000000000e-01 1.00000000000000000000e+00 
layer_sizes=785 101 2 
scale_included=0
neurons (num_inputs, activation_function, activation_steepness)=(0, 0, 0.00000000000000000000e+00) (0, 0, 0.00000000000000000000e+00) (0, 0, 0.00000000000000000000e+00) (0, 0, 0.00000000000000000000e+00) (0, 0, 0.00000000000000000000e+00) (0, 0, 0.00000000000000000000e+00) (0, 0, 0.00000000000000000000e+00) (0, 0, 0.00000000000000000000e+00) (0, 0, 0.00000000000000000000e+00) (0, 0, 0.00000000000000000000e+00) (0, 0, 0.00000000000000000000e+00) (0, 0, 0.00000000000000000000e+00) (0, 0, 0.00000000000000000000e+00) (0, 0, 0.00000000000000000000e+00) (0, 0, 0.00000000000000000000e+00) (0, 0, 0.00000000000000000000e+00) (0, 0, 0.00000000000000000000e+00) (0, 0, 0.00000000000000000000e+00) (0, 0, 0.00000000000000000000e+00) (0, 0, 0.00000000000000000000e+00) (0, 0, 0.00000000000000000000e+00) (0, 0, 0.00000000000000000000e+00) (0, 0, 0.00000000000000000000e+00) (0, 0, 0.00000000000000000000e+00) (0, 0, 0.00000000000000000000e+00) (0, 0, 0.00000000000000000000e+00) (0, 0, 0.00000000000000000000e+00) (0, 0, 0.00000000000000000000e+00) (0, 0, 0.00000000000000000000e+00) (0, 0, 0.00000000000000000000e+00) (0, 0, 0.00000000000000000000e+00) (0, 0, 0.00000000000000000000e+00) (0, 0, 0.00000000000000000000e+00) (0, 0, 0.00000000000000000000e+00) (0, 0, 0.00000000000000000000e+00) (0, 0, 0.00000000000000000000e+00) (0, 0, 0.00000000000000000000e+00) (0, 0, 0.00000000000000000000e+00) (0, 0, 0.00000000000000000000e+00) (0, 0, 0.00000000000000000000e+00) (0, 0, 0.00000000000000000000e+00) (0, 0, 0.00000000000000000000e+00) (0, 0, 0.00000000000000000000e+00) (0, 0, 0.00000000000000000000e+00) (0, 0, 0.00000000000000000000e+00) (0, 0, 0.00000000000000000000e+00) (0, 0, 0.00000000000000000000e+00) (0, 0, 0.00000000000000000000e+00) (0, 0, 0.00000000000000000000e+00) (0, 0, 0.00000000000000000000e+00) (0, 0, 0.00000000000000000000e+00) (0, 0, 0.00000000000000000000e+00) (0, 0, 0.00000000000000000000e+00) (0, 0, 0.00000000000000000000e+00) (0, 0, 0.00000000000000000000e+00) (0, 0, 0.00000000000000000000e+00) (0, 0, 0.00000000000000000000e+00) (0, 0, 0.00000000000000000000e+00) (0, 0, 0.00000000000000000000e+00) (0, 0, 0.00000000000000000000e+00) (0, 0, 0.00000000000000000000e+00) (0, 0, 0.00000000000000000000e+00) (0, 0, 0.00000000000000000000e+00) (0, 0, 0.00000000000000000000e+00) (0, 0, 0.00000000000000000000e+00) (0, 0, 0.00000000000000000000e+00) (0, 0, 0.00000000000000000000e+00) (0, 0, 0.00000000000000000000e+00) (0, 0, 0.00000000000000000000e+00) (0, 0, 0.00000000000000000000e+00) (0, 0, 0.00000000000000000000e+00) (0, 0, 0.00000000000000000000e+00) (0, 0, 0.00000000000000000000e+00) (0, 0, 0.00000000000000000000e+00) (0, 0, 0.00000000000000000000e+00) (0, 0, 0.00000000000000000000e+00) (0, 0, 0.00000000000000000000e+00) (0, 0, 0.00000000000000000000e+00) (0, 0, 0.00000000000000000000e+00) (0, 0, 0.00000000000000000000e+00) (0, 0, 0.00000000000000000000e+00) (0, 0, 0.00000000000000000000e+00) (0, 0, 0.00000000000000000000e+00) (0, 0, 0.00000000000000000000e+00) (0, 0, 0.00000000000000000000e+00) (0, 0, 0.00000000000000000000e+00) (0, 0, 0.00000000000000000000e+00) (0, 0, 0.00000000000000000000e+00) (0, 0, 0.00000000000000000000e+00) (0, 0, 0.00000000000000000000e+00) (0, 0, 0.00000000000000000000e+00) (0, 0, 0.00000000000000000000e+00) (0, 0, 0.00000000000000000000e+00) (0, 0, 0.00000000000000000000e+00) (0, 0, 0.00000000000000000000e+00) (0, 0, 0.00000000000000000000e+00) (0, 0, 0.00000000000000000000e+00) (0, 0, 0.00000000000000000000e+00) (0, 0, 0.00000000000000000000e+00) (0, 0, 0.00000000000000000000e+00) (0, 0, 0.00000000000000000000e+00) (0, 0, 0.00000000000000000000e+00) (0, 0, 0.00000000000000000000e+00) (0, 0, 0.00000000000000000000e+00) (0, 0, 0.00000000000000000000e+00) (0, 0, 0.00000000000000000000e+00) (0, 0, 0.00000000000000000000e+00) (0, 0, 0.00000000000000000000e+00) (0, 0, 0.00000000000000000000e+00) (0, 0, 0.00000000000000000000e+00) (0, 0, 0.00000000000000000000e+00) (0, 0, 0.00000000000000000000e+00) (0, 0, 0.00000000000000000000e+00) (0, 0, 0.00000000000000000000e+00) (0, 0, 0.00000000000000000000e+00) (0, 0, 0.00000000000000000000e+00) (0, 0, 0.00000000000000000000e+00) (0, 0, 0.00000000000000000000e+00) (0, 0, 0.00000000000000000000e+00) (0, 0, 0.00000000000000000000e+00) (0, 0, 0.00000000000000000000e+00) (0, 0, 0.00000000000000000000e+00) (0, 0, 0.00000000000000000000e+00) (0, 0, 0.00000000000000000000e+00) (0, 0, 0.00000000000000000000e+00) (0, 0, 0.00000000000000000000e+00) (0, 0, 0.00000000000000000000e+00) (0, 0, 0.00000000000000000000e+00) (0, 0, 0.00000000000000000000e+00) (0, 0, 0.00000000000000000000e+00) (0, 0, 0.00000000000000000000e+00) (0, 0, 0.00000000000000000000e+00) (0, 0, 0.00000000000000000000e+00) (0, 0, 0.00000000000000000000e+00) (0, 0, 0.00000000000000000000e+00) (0, 0, 0.00000000000000000000e+00) (0, 0, 0.00000000000000000000e+00) (0, 0, 0.00000000000000000000e+00) (0, 0, 0.00000000000000000000e+00) (0, 0, 0.00000000000000000000e+00) (0, 0, 0.00000000000000000000e+00) (0, 0, 0.00000000000000000000e+00) (0, 0, 0.00000000000000000000e+00) (0, 0, 0.00000000000000000000e+00) (0, 0, 0.00000000000000000000e+00) (0, 0, 0.00000000000000000000e+00) (0, 0, 0.00000000000000000000e+00) (0, 0, 0.00000000000000000000e+00) (0, 0, 0.00000000000000000000e+00) (0, 0, 0.00000000000000000000e+00) (0, 0, 0.00000000000000000000e+00) (0, 0, 0.00000000000000000000e+00) (0, 0, 0.00000000000000000000e+00) (0, 0, 0.00000000000000000000e+00) (0, 0, 0.00000000000000000000e+00) (0, 0, 0.00000000000000000000e+00) (0, 0, 0.00000000000000000000e+00) (0, 0, 0.00000000000000000000e+00) (0, 0, 0.00000000000000000000e+00) (0, 0, 0.00000000000000000000e+00) (0, 0, 0.00000000000000000000e+00) (0, 0, 0.00000000000000000000e+00) (0, 0, 0.00000000000000000000e+00) (0, 0, 0.00000000000000000000e+00) (0, 0, 0.00000000000000000000e+00) (0, 0, 0.00000000000000000000e+00) (0, 0, 0.00000000000000000000e+00) (0, 0, 0.00000000000000000000e+00) (0, 0, 0.00000000000000000000e+00) (0, 0, 0.00000000000000000000e+00) (0, 0, 0.00000000000000000000e+00) (0, 0, 0.00000000000000000000e+00) (0, 0, 0.00000000000000000000e+00) (0, 0, 0.00000000000000000000e+00) (0, 0, 0.00000000000000000000e+00) (0, 0, 0.00000000000000000000e+00) (0, 0, 0.00000000000000000000e+00) (0, 0, 0.00000000000000000000e+00) (0, 0, 0.00000000000000000000e+00) (0, 0, 0.00000000000000000000e+00) (0, 0, 0.00000000000000000000e+00) (0, 0, 0.00000000000000000000e+00) (0, 0, 0.00000000000000000000e+00) (0, 0, 0.00000000000000000000e+00) (0, 0, 0.00000000000000000000e+00) (0, 0, 0.00000000000000000000e+00) (0, 0, 0.00000000000000000000e+00) (0, 0, 0.00000000000000000000e+00) (0, 0, 0.00000000000000000000e+00) (0, 0, 0.00000000000000000000e+00) (0, 0, 0.00000000000000000000e+00) (0, 0, 0.00000000000000000000e+00) (0, 0, 0.00000000000000000000e+00) (0, 0, 0.00000000000000000000e+00) (0, 0, 0.00000000000000000000e+00) (0, 0, 0.00000000000000000000e+00) (0, 0, 0.00000000000000000000e+00) (0, 0, 0.00000000000000000000e+00) (0, 0, 0.00000000000000000000e+00) (0, 0, 0.00000000000000000000e+00) (0, 0, 0.00000000000000000000e+00) (0, 0, 0.00000000000000000000e+00) (0, 0, 0.00000000000000000000e+00) (0, 0, 0.00000000000000000000e+00) (0, 0, 0.00000000000000000000e+00) (0, 0, 0.00000000000000000000e+00) (0, 0, 0.00000000000000000000e+00) (0, 0, 0.00000000000000000000e+00) (0, 0, 0.00000000000000000000e+00) (0, 0, 0.00000000000000000000e+00) (0, 0, 0.00000000000000000000e+00) (0, 0, 0.00000000000000000000e+00) (0, 0, 0.00000000000000000000e+00) (0, 0, 0.00000000000000000000e+00) (0, 0, 0.00000000000000000000e+00) (0, 0, 0.00000000000000000000e+00) (0, 0, 0.00000000000000000000e+00) (0, 0, 0.00000000000000000000e+00) (0, 0, 0.00000000000000000000e+00) (0, 0, 0.00000000000000000000e+00) (0, 0, 0.00000000000000000000e+00) (0, 0, 0.00000000000000000000e+00) (0, 0, 0.00000000000000000000e+00) (0, 0, 0.00000000000000000000e+00) (0, 0, 0.00000000000000000000e+00) (0, 0, 0.00000000000000000000e+00) (0, 0, 0.00000000000000000000e+00) (0, 0, 0.00000000000000000000e+00) (0, 0, 0.00000000000000000000e+00) (0, 0, 0.00000000000000000000e+00) (0, 0, 0.00000000000000000000e+00) (0, 0, 0.00000000000000000000e+00) (0, 0, 0.00000000000000000000e+00) (0, 0, 0.00000000000000000000e+00) (0, 0, 0.00000000000000000000e+00) (0, 0, 0.00000000000000000000e+00) (0, 0, 0.00000000000000000000e+00) (0, 0, 0.00000000000000000000e+00) (0, 0, 0.00000000000000000000e+00) (0, 0, 0.00000000000000000000e+00) (0, 0, 0.00000000000000000000e+00) (0, 0, 0.00000000000000000000e+00) (0, 0, 0.00000000000000000000e+00) (0, 0, 0.00000000000000000000e+00) (0, 0, 0.00000000000000000000e+00) (0, 0, 0.00000000000000000000e+00) (0, 0, 0.00000000000000000000e+00) (0, 0, 0.00000000000000000000e+00) (0, 0, 0.00000000000000000000e+00) (0, 0, 0.00000000000000000000e+00) (0, 0, 0.00000000000000000000e+00) (0, 0, 0.00000000000000000000e+00) (0, 0, 0.00000000000000000000e+00) (0, 0, 0.00000000000000000000e+00) (0, 0, 0.00000000000000000000e+00) (0, 0, 0.00000000000000000000e+00) (0, 0, 0.00000000000000000000e+00) (0, 0, 0.00000000000000000000e+00) (0, 0, 0.00000000000000000000e+00) (0, 0, 0.00000000000000000000e+00) (0, 0, 0.00000000000000000000e+00) (0, 0, 0.00000000000000000000e+00) (0, 0, 0.00000000000000000000e+00) (0, 0, 0.00000000000000000000e+00) (0, 0, 0.00000000000000000000e+00) (0, 0, 0.00000000000000000000e+00) (0, 0, 0.00000000000000000000e+00) (0, 0, 0.00000000000000000000e+00) (0, 0, 0.00000000000000000000e+00) (0, 0, 0.00000000000000000000e+00) (0, 0, 0.00000000000000000000e+00) (0, 0, 0.00000000000000000000e+00) (0, 0, 0.00000000000000000000e+00) (0, 0, 0.00000000000000000000e+00) (0, 0, 0.00000000000000000000e+00) (0, 0, 0.00000000000000000000e+00) (0, 0, 0.00000000000000000000e+00) (0, 0, 0.00000000000000000000e+00) (0, 0, 0.00000000000000000000e+00) (0, 0, 0.00000000000000000000e+00) (0, 0, 0.00000000000000000000e+00) (0, 0, 0.00000000000000000000e+00) (0, 0, 0.00000000000000000000e+00) (0, 0, 0.00000000000000000000e+00) (0, 0, 0.00000000000000000000e+00) (0, 0, 0.00000000000000000000e+00) (0, 0, 0.00000000000000000000e+00) (0, 0, 0.00000000000000000000e+00) (0, 0, 0.00000000000000000000e+00) (0, 0, 0.00000000000000000000e+00) (0, 0, 0.00000000000000000000e+00) (0, 0, 0.00000000000000000000e+00) (0, 0, 0.00000000000000000000e+00) (0, 0, 0.00000000000000000000e+00) (0, 0, 0.00000000000000000000e+00) (0, 0, 0.00000000000000000000e+00) (0, 0, 0.00000000000000000000e+00) (0, 0, 0.00000000000000000000e+00) (0, 0, 0.00000000000000000000e+00) (0, 0, 0.00000000000000000000e+00) (0, 0, 0.00000000000000000000e+00) (0, 0, 0.00000000000000000000e+00) (0, 0, 0.00000000000000000000e+00) (0, 0, 0.00000000000000000000e+00) (0, 0, 0.00000000000000000000e+00) (0, 0, 0.00000000000000000000e+00) (0, 0, 0.00000000000000000000e+00) (0, 0, 0.00000000000000000000e+00) (0, 0, 0.00000000000000000000e+00) (0, 0, 0.00000000000000000000e+00) (0, 0, 0.00000000000000000000e+00) (0, 0, 0.00000000000000000000e+00) (0, 0, 0.00000000000000000000e+00) (0, 0, 0.00000000000000000000e+00) (0, 0, 0.00000000000000000000e+00) (0, 0, 0.00000000000000000000e+00) (0, 0, 0.00000000000000000000e+00) (0, 0, 0.00000000000000000000e+00) (0, 0, 0.00000000000000000000e+00) (0, 0, 0.00000000000000000000e+00) (0, 0, 0.00000000000000000000e+00) (0, 0, 0.00000000000000000000e+00) (0, 0, 0.00000000000000000000e+00) (0, 0, 0.00000000000000000000e+00) (0, 0, 0.00000000000000000000e+00) (0, 0, 0.00000000000000000000e+00) (0, 0, 0.00000000000000000000e+00) (0, 0, 0.00000000000000000000e+00) (0, 0, 0.00000000000000000000e+00) (0, 0, 0.00000000000000000000e+00) (0, 0, 0.00000000000000000000e+00) (0, 0, 0.00000000000000000000e+00) (0, 0, 0.00000000000000000000e+00) (0, 0, 0.00000000000000000000e+00) (0, 0, 0.00000000000000000000e+00) (0, 0, 0.00000000000000000000e+00) (0, 0, 0.00000000000000000000e+00) (0, 0, 0.00000000000000000000e+00) (0, 0, 0.00000000000000000000e+00) (0, 0, 0.00000000000000000000e+00) (0, 0, 0.00000000000000000000e+00) (0, 0, 0.00000000000000000000e+00) (0, 0, 0.00000000000000000000e+00) (0, 0, 0.00000000000000000000e+00) (0, 0, 0.00000000000000000000e+00) (0, 0, 0.00000000000000000000e+00) (0, 0, 0.00000000000000000000e+00) (0, 0, 0.00000000000000000000e+00) (0, 0, 0.00000000000000000000e+00) (0, 0, 0.00000000000000000000e+00) (0, 0, 0.00000000000000000000e+00) (0, 0, 0.00000000000000000000e+00) (0, 0, 0.00000000000000000000e+00) (0, 0, 0.00000000000000000000e+00) (0, 0, 0.00000000000000000000e+00) (0, 0, 0.00000000000000000000e+00) (0, 0, 0.00000000000000000000e+00) (0, 0, 0.00000000000000000000e+00) (0, 0, 0.00000000000000000000e+00) (0, 0, 0.00000000000000000000e+00) (0, 0, 0.00000000000000000000e+00) (0, 0, 0.00000000000000000000e+00) (0, 0, 0.00000000000000000000e+00) (0, 0, 0.00000000000000000000e+00) (0, 0, 0.00000000000000000000e+00) (0, 0, 0.00000000000000000000e+00) (0, 0, 0.00000000000000000000e+00) (0, 0, 0.00000000000000000000e+00) (0, 0, 0.00000000000000000000e+00) (0, 0, 0.00000000000000000000e+00) (0, 0, 0.00000000000000000000e+00) (0, 0, 0.00000000000000000000e+00) (0, 0, 0.00000000000000000000e+00) (0, 0, 0.00000000000000000000e+00) (0, 0, 0.00000000000000000000e+00) (0, 0, 0.00000000000000000000e+00) (0, 0, 0.00000000000000000000e+00) (0, 0, 0.00000000000000000000e+00) (0, 0, 0.00000000000000000000e+00) (0, 0, 0.00000000000000000000e+00) (0, 0, 0.00000000000000000000e+00) (0, 0, 0.00000000000000000000e+00) (0, 0, 0.00000000000000000000e+00) (0, 0, 0.00000000000000000000e+00) (0, 0, 0.00000000000000000000e+00) (0, 0, 0.00000000000000000000e+00) (0, 0, 0.00000000000000000000e+00) (0, 0, 0.00000000000000000000e+00) (0, 0, 0.00000000000000000000e+00) (0, 0, 0.00000000000000000000e+00) (0, 0, 0.00000000000000000000e+00) (0, 0, 0.00000000000000000000e+00) (0, 0, 0.00000000000000000000e+00) (0, 0, 0.00000000000000000000e+00) (0, 0, 0.00000000000000000000e+00) (0, 0, 0.00000000000000000000e+00) (0, 0, 0.00000000000000000000e+00) (0, 0, 0.00000000000000000000e+00) (0, 0, 0.00000000000000000000e+00) (0, 0, 0.00000000000000000000e+00) (0, 0, 0.00000000000000000000e+00) (0, 0, 0.00000000000000000000e+00) (0, 0, 0.00000000000000000000e+00) (0, 0, 0.00000000000000000000e+00) (0, 0, 0.00000000000000000000e+00) (0, 0, 0.00000000000000000000e+00) (0, 0, 0.00000000000000000000e+00) (0, 0, 0.00000000000000000000e+00) (0, 0, 0.00000000000000000000e+00) (0, 0, 0.00000000000000000000e+00) (0, 0, 0.00000000000000000000e+00) (0, 0, 0.00000000000000000000e+00) (0, 0, 0.00000000000000000000e+00) (0, 0, 0.00000000000000000000e+00) (0, 0, 0.00000000000000000000e+00) (0, 0, 0.00000000000000000000e+00) (0, 0, 0.00000000000000000000e+00) (0, 0, 0.00000000000000000000e+00) (0, 0, 0.00000000000000000000e+00) (0, 0, 0.00000000000000000000e+00) (0, 0, 0.00000000000000000000e+00) (0, 0, 0.00000000000000000000e+00) (0, 0, 0.00000000000000000000e+00) (0, 0, 0.00000000000000000000e+00) (0, 0, 0.00000000000000000000e+00) (0, 0, 0.00000000000000000000e+00) (0, 0, 0.00000000000000000000e+00) (0, 0, 0.00000000000000000000e+00) (0, 0, 0.00000000000000000000e+00) (0, 0, 0.00000000000000000000e+00) (0, 0, 0.00000000000000000000e+00) (0, 0, 0.00000000000000000000e+00) (0, 0, 0.00000000000000000000e+00) (0, 0, 0.00000000000000000000e+00) (0, 0, 0.00000000000000000000e+00) (0, 0, 0.00000000000000000000e+00) (0, 0, 0.00000000000000000000e+00) (0, 0, 0.00000000000000000000e+00) (0, 0, 0.00000000000000000000e+00) (0, 0, 0.00000000000000000000e+00) (0, 0, 0.00000000000000000000e+00) (0, 0, 0.00000000000000000000e+00) (0, 0, 0.00000000000000000000e+00) (0, 0, 0.00000000000000000000e+00) (0, 0, 0.00000000000000000000e+00) (0, 0, 0.00000000000000000000e+00) (0, 0, 0.00000000000000000000e+00) (0, 0, 0.00000000000000000000e+00) (0, 0, 0.00000000000000000000e+00) (0, 0, 0.00000000000000000000e+00) (0, 0, 0.00000000000000000000e+00) (0, 0, 0.00000000000000000000e+00) (0, 0, 0.00000000000000000000e+00) (0, 0, 0.00000000000000000000e+00) (0, 0, 0.00000000000000000000e+00) (0, 0, 0.00000000000000000000e+00) (0, 0, 0.00000000000000000000e+00) (0, 0, 0.00000000000000000000e+00) (0, 0, 0.00000000000000000000e+00) (0, 0, 0.00000000000000000000e+00) (0, 0, 0.00000000000000000000e+00) (0, 0, 0.00000000000000000000e+00) (0, 0, 0.00000000000000000000e+00) (0, 0, 0.00000000000000000000e+00) (0, 0, 0.00000000000000000000e+00) (0, 0, 0.00000000000000000000e+00) (0, 0, 0.00000000000000000000e+00) (0, 0, 0.00000000000000000000e+00) (0, 0, 0.00000000000000000000e+00) (0, 0, 0.00000000000000000000e+00) (0, 0, 0.00000000000000000000e+00) (0, 0, 0.00000000000000000000e+00) (0, 0, 0.00000000000000000000e+00) (0, 0, 0.00000000000000000000e+00) (0, 0, 0.00000000000000000000e+00) (0, 0, 0.00000000000000000000e+00) (0, 0, 0.00000000000000000000e+00) (0, 0, 0.00000000000000000000e+00) (0, 0, 0.00000000000000000000e+00) (0, 0, 0.00000000000000000000e+00) (0, 0, 0.00000000000000000000e+00) (0, 0, 0.00000000000000000000e+00) (0, 0, 0.00000000000000000000e+00) (0, 0, 0.00000000000000000000e+00) (0, 0, 0.00000000000000000000e+00) (0, 0, 0.00000000000000000000e+00) (0, 0, 0.00000000000000000000e+00) (0, 0, 0.00000000000000000000e+00) (0, 0, 0.00000000000000000000e+00) (0, 0, 0.00000000000000000000e+00) (0, 0, 0.00000000000000000000e+00) (0, 0, 0.00000000000000000000e+00) (0, 0, 0.00000000000000000000e+00) (0, 0, 0.00000000000000000000e+00) (0, 0, 0.00000000000000000000e+00) (0, 0, 0.00000000000000000000e+00) (0, 0, 0.00000000000000000000e+00) (0, 0, 0.00000000000000000000e+00) (0, 0, 0.00000000000000000000e+00) (0, 0, 0.00000000000000000000e+00) (0, 0, 0.00000000000000000000e+00) (0, 0, 0.00000000000000000000e+00) (0, 0, 0.00000000000000000000e+00) (0, 0, 0.00000000000000000000e+00) (0, 0, 0.00000000000000000000e+00) (0, 0, 0.00000000000000000000e+00) (0, 0, 0.00000000000000000000e+00) (0, 0, 0.00000000000000000000e+00) (0, 0, 0.00000000000000000000e+00) (0, 0, 0.00000000000000000000e+00) (0, 0, 0.00000000000000000000e+00) (0, 0, 0.00000000000000000000e+00) (0, 0, 0.00000000000000000000e+00) (0, 0, 0.00000000000000000000e+00) (0, 0, 0.00000000000000000000e+00) (0, 0, 0.00000000000000000000e+00) (0, 0, 0.00000000000000000000e+00) (0, 0, 0.00000000000000000000e+00) (0, 0, 0.00000000000000000000e+00) (0, 0, 0.00000000000000000000e+00) (0, 0, 0.00000000000000000000e+00) (0, 0, 0.00000000000000000000e+00) (0, 0, 0.00000000000000000000e+00) (0, 0, 0.00000000000000000000e+00) (0, 0, 0.00000000000000000000e+00) (0, 0, 0.00000000000000000000e+00) (0, 0, 0.00000000000000000000e+00) (0, 0, 0.00000000000000000000e+00) (0, 0, 0.00000000000000000000e+00) (0, 0, 0.00000000000000000000e+00) (0, 0, 0.00000000000000000000e+00) (0, 0, 0.00000000000000000000e+00) (0, 0, 0.00000000000000000000e+00) (0, 0, 0.00000000000000000000e+00) (0, 0, 0.00000000000000000000e+00) (0, 0, 0.00000000000000000000e+00) (0, 0, 0.00000000000000000000e+00) (0, 0, 0.00000000000000000000e+00) (0, 0, 0.00000000000000000000e+00) (0, 0, 0.00000000000000000000e+00) (0, 0, 0.00000000000000000000e+00) (0, 0, 0.00000000000000000000e+00) (0, 0, 0.00000000000000000000e+00) (0, 0, 0.00000000000000000000e+00) (0, 0, 0.00000000000000000000e+00) (0, 0, 0.00000000000000000000e+00) (0, 0, 0.00000000000000000000e+00) (0, 0, 0.00000000000000000000e+00) (0, 0, 0.00000000000000000000e+00) (0, 0, 0.00000000000000000000e+00) (0, 0, 0.00000000000000000000e+00) (0, 0, 0.00000000000000000000e+00) (0, 0, 0.00000000000000000000e+00) (0, 0, 0.00000000000000000000e+00) (0, 0, 0.00000000000000000000e+00) (0, 0, 0.00000000000000000000e+00) (0, 0, 0.00000000000000000000e+00) (0, 0, 0.00000000000000000000e+00) (0, 0, 0.00000000000000000000e+00) (0, 0, 0.00000000000000000000e+00) (0, 0, 0.00000000000000000000e+00) (0, 0, 0.00000000000000000000e+00) (0, 0, 0.00000000000000000000e+00) (0, 0, 0.00000000000000000000e+00) (0, 0, 0.00000000000000000000e+00) (0, 0, 0.00000000000000000000e+00) (0, 0, 0.00000000000000000000e+00) (0, 0, 0.00000000000000000000e+00) (0, 0, 0.00000000000000000000e+00) (0, 0, 0.00000000000000000000e+00) (0, 0, 0.00000000000000000000e+00) (0, 0, 0.00000000000000000000e+00) (0, 0, 0.00000000000000000000e+00) (0, 0, 0.00000000000000000000e+00) (0, 0, 0.00000000000000000000e+00) (0, 0, 0.00000000000000000000e+00) (0, 0, 0.00000000000000000000e+00) (0, 0, 0.00000000000000000000e+00) (0, 0, 0.00000000000000000000e+00) (0, 0, 0.00000000000000000000e+00) (0, 0, 0.00000000000000000000e+00) (0, 0, 0.00000000000000000000e+00) (0, 0, 0.00000000000000000000e+00) (0, 0, 0.00000000000000000000e+00) (0, 0, 0.00000000000000000000e+00) (0, 0, 0.00000000000000000000e+00) (0, 0, 0.00000000000000000000e+00) (0, 0, 0.00000000000000000000e+00) (0, 0, 0.00000000000000000000e+00) (0, 0, 0.00000000000000000000e+00) (0, 0, 0.00000000000000000000e+00) (0, 0, 0.00000000000000000000e+00) (0, 0, 0.00000000000000000000e+00) (0, 0, 0.00000000000000000000e+00) (0, 0, 0.00000000000000000000e+00) (0, 0, 0.00000000000000000000e+00) (0, 0, 0.00000000000000000000e+00) (0, 0, 0.00000000000000000000e+00) (0, 0, 0.00000000000000000000e+00) (0, 0, 0.00000000000000000000e+00) (0, 0, 0.00000000000000000000e+00) (0, 0, 0.00000000000000000000e+00) (0, 0, 0.00000000000000000000e+00) (0, 0, 0.00000000000000000000e+00) (0, 0, 0.00000000000000000000e+00) (0, 0, 0.00000000000000000000e+00) (0, 0, 0.00000000000000000000e+00) (0, 0, 0.00000000000000000000e+00) (0, 0, 0.00000000000000000000e+00) (0, 0, 0.00000000000000000000e+00) (0, 0, 0.00000000000000000000e+00) (0, 0, 0.00000000000000000000e+00) (0, 0, 0.00000000000000000000e+00) (0, 0, 0.00000000000000000000e+00) (0, 0, 0.00000000000000000000e+00) (0, 0, 0.00000000000000000000e+00) (0, 0, 0.00000000000000000000e+00) (0, 0, 0.00000000000000000000e+00) (0, 0, 0.00000000000000000000e+00) (0, 0, 0.00000000000000000000e+00) (0, 0, 0.00000000000000000000e+00) (0, 0, 0.00000000000000000000e+00) (0, 0, 0.00000000000000000000e+00) (0, 0, 0.00000000000000000000e+00) (0, 0, 0.00000000000000000000e+00) (0, 0, 0.00000000000000000000e+00) (0, 0, 0.00000000000000000000e+00) (0, 0, 0.00000000000000000000e+00) (0, 0, 0.00000000000000000000e+00) (0, 0, 0.00000000000000000000e+00) (0, 0, 0.00000000000000000000e+00) (0, 0, 0.00000000000000000000e+00) (0, 0, 0.00000000000000000000e+00) (0, 0, 0.00000000000000000000e+00) (0, 0, 0.00000000000000000000e+00) (0, 0, 0.00000000000000000000e+00) (0, 0, 0.00000000000000000000e+00) (0, 0, 0.00000000000000000000e+00) (0, 0, 0.00000000000000000000e+00) (0, 0, 0.00000000000000000000e+00) (0, 0, 0.00000000000000000000e+00) (0, 0, 0.00000000000000000000e+00) (0, 0, 0.00000000000000000000e+00) (0, 0, 0.00000000000000000000e+00) (0, 0, 0.00000000000000000000e+00) (0, 0, 0.00000000000000000000e+00) (0, 0, 0.00000000000000000000e+00) (0, 0, 0.00000000000000000000e+00) (0, 0, 0.00000000000000000000e+00) (0, 0, 0.00000000000000000000e+00) (0, 0, 0.00000000000000000000e+00) (0, 0, 0.00000000000000000000e+00) (0, 0, 0.00000000000000000000e+00) (0, 0, 0.00000000000000000000e+00) (0, 0, 0.00000000000000000000e+00) (0, 0, 0.00000000000000000000e+00) (0, 0, 0.00000000000000000000e+00) (0, 0, 0.00000000000000000000e+00) (0, 0, 0.00000000000000000000e+00) (0, 0, 0.00000000000000000000e+00) (0, 0, 0.00000000000000000000e+00) (0, 0, 0.00000000000000000000e+00) (0, 0, 0.00000000000000000000e+00) (0, 0, 0.00000000000000000000e+00) (0, 0, 0.00000000000000000000e+00) (0, 0, 0.00000000000000000000e+00) (0, 0, 0.00000000000000000000e+00) (0, 0, 0.00000000000000000000e+00) (0, 0, 0.00000000000000000000e+00) (0, 0, 0.00000000000000000000e+00) (0, 0, 0.00000000000000000000e+00) (0, 0, 0.00000000000000000000e+00) (0, 0, 0.00000000000000000000e+00) (0, 0, 0.00000000000000000000e+00) (0, 0, 0.00000000000000000000e+00) (0, 0, 0.00000000000000000000e+00) (0, 0, 0.00000000000000000000e+00) (0, 0, 0.00000000000000000000e+00) (0, 0, 0.00000000000000000000e+00) (0, 0, 0.00000000000000000000e+00) (0, 0, 0.00000000000000000000e+00) (0, 0, 0.00000000000000000000e+00) (0, 0, 0.00000000000000000000e+00) (0, 0, 0.00000000000000000000e+00) (0, 0, 0.00000000000000000000e+00) (0, 0, 0.00000000000000000000e+00) (0, 0, 0.00000000000000000000e+00) (0, 0, 0.00000000000000000000e+00) (0, 0, 0.00000000000000000000e+00) (0, 0, 0.00000000000000000000e+00) (0, 0, 0.00000000000000000000e+00) (0, 0, 0.00000000000000000000e+00) (0, 0, 0.00000000000000000000e+00) (0, 0, 0.00000000000000000000e+00) (0, 0, 0.00000000000000000000e+00) (0, 0, 0.00000000000000000000e+00) (0, 0, 0.00000000000000000000e+00) (0, 0, 0.00000000000000000000e+00) (0, 0, 0.00000000000000000000e+00) (0, 0, 0.00000000000000000000e+00) (0, 0, 0.00000000000000000000e+00) (0, 0, 0.00000000000000000000e+00) (0, 0, 0.00000000000000000000e+00) (0, 0, 0.00000000000000000000e+00) (0, 0, 0.00000000000000000000e+00) (0, 0, 0.00000000000000000000e+00) (0, 0, 0.00000000000000000000e+00) (0, 0, 0.00000000000000000000e+00) (0, 0, 0.00000000000000000000e+00) (0, 0, 0.00000000000000000000e+00) (0, 0, 0.00000000000000000000e+00) (0, 0, 0.00000000000000000000e+00) (0, 0, 0.00000000000000000000e+00) (0, 0, 0.00000000000000000000e+00) (0, 0, 0.00000000000000000000e+00) (0, 0, 0.00000000000000000000e+00) (0, 0, 0.00000000000000000000e+00) (0, 0, 0.00000000000000000000e+00) (0, 0, 0.00000000000000000000e+00) (0, 0, 0.00000000000000000000e+00) (0, 0, 0.00000000000000000000e+00) (0, 0, 0.00000000000000000000e+00) (0, 0, 0.00000000000000000000e+00) (0, 0, 0.00000000000000000000e+00) (0, 0, 0.00000000000000000000e+00) (0, 0, 0.00000000000000000000e+00) (0, 0, 0.00000000000000000000e+00) (0, 0, 0.00000000000000000000e+00) (0, 0, 0.00000000000000000000e+00) (0, 0, 0.00000000000000000000e+00) (0, 0, 0.00000000000000000000e+00) (0, 0, 0.00000000000000000000e+00) (0, 0, 0.00000000000000000000e+00) (0, 0, 0.00000000000000000000e+00) (0, 0, 0.00000000000000000000e+00) (0, 0, 0.00000000000000000000e+00) (0, 0, 0.00000000000000000000e+00) (0, 0, 0.00000000000000000000e+00) (0, 0, 0.00000000000000000000e+00) (0, 0, 0.00000000000000000000e+00) (0, 0, 0.00000000000000000000e+00) (0, 0, 0.00000000000000000000e+00) (0, 0, 0.00000000000000000000e+00) (0, 0, 0.00000000000000000000e+00) (0, 0, 0.00000000000000000000e+00) (0, 0, 0.00000000000000000000e+00) (0, 0, 0.00000000000000000000e+00) (0, 0, 0.00000000000000000000e+00) (0, 0, 0.00000000000000000000e+00) (0, 0, 0.00000000000000000000e+00) (0, 0, 0.00000000000000000000e+00) (0, 0, 0.00000000000000000000e+00) (0, 0, 0.00000000000000000000e+00) (0, 0, 0.00000000000000000000e+00) (0, 0, 0.00000000000000000000e+00) (0, 0, 0.00000000000000000000e+00) (0, 0, 0.00000000000000000000e+00) (0, 0, 0.00000000000000000000e+00) (0, 0, 0.00000000000000000000e+00) (0, 0, 0.00000000000000000000e+00) (0, 0, 0.00000000000000000000e+00) (0, 0, 0.00000000000000000000e+00) (0, 0, 0.00000000000000000000e+00) (0, 0, 0.00000000000000000000e+00) (0, 0, 0.00000000000000000000e+00) (0, 0, 0.00000000000000000000e+00) (0, 0, 0.00000000000000000000e+00) (0, 0, 0.00000000000000000000e+00) (0, 0, 0.00000000000000000000e+00) (0, 0, 0.00000000000000000000e+00) (0, 0, 0.00000000000000000000e+00) (0, 0, 0.00000000000000000000e+00) (0, 0, 0.00000000000000000000e+00) (0, 0, 0.00000000000000000000e+00) (0, 0, 0.00000000000000000000e+00) (0, 0, 0.00000000000000000000e+00) (0, 0, 0.00000000000000000000e+00) (0, 0, 0.00000000000000000000e+00) (0, 0, 0.00000000000000000000e+00) (0, 0, 0.00000000000000000000e+00) (0, 0, 0.00000000000000000000e+00) (0, 0, 0.00000000000000000000e+00) (0, 0, 0.00000000000000000000e+00) (0, 0, 0.00000000000000000000e+00) (0, 0, 0.00000000000000000000e+00) (785, 4, 5.00000000000000000000e-01) (785, 4, 5.00000000000000000000e-01) (785, 4, 5.00000000000000000000e-01) (785, 4, 5.00000000000000000000e-01) (785, 4, 5.00000000000000000000e-01) (785, 4, 5.00000000000000000000e-01) (785, 4, 5.00000000000000000000e-01) (785, 4, 5.00000000000000000000e-01) (785, 4, 5.00000000000000000000e-01) (785, 4, 5.00000000000000000000e-01) (785, 4, 5.00000000000000000000e-01) (785, 4, 5.00000000000000000000e-01) (785, 4, 5.00000000000000000000e-01) (785, 4, 5.00000000000000000000e-01) (785, 4, 5.00000000000000000000e-01) (785, 4, 5.00000000000000000000e-01) (785, 4, 5.00000000000000000000e-01) (785, 4, 5.00000000000000000000e-01) (785, 4, 5.00000000000000000000e-01) (785, 4, 5.00000000000000000000e-01) (785, 4, 5.00000000000000000000e-01) (785, 4, 5.00000000000000000000e-01) (785, 4, 5.00000000000000000000e-01) (785, 4, 5.00000000000000000000e-01) (785, 4, 5.00000000000000000000e-01) (785, 4, 5.00000000000000000000e-01) (785, 4, 5.00000000000000000000e-01) (785, 4, 5.00000000000000000000e-01) (785, 4, 5.00000000000000000000e-01) (785, 4, 5.00000000000000000000e-01) (785, 4, 5.00000000000000000000e-01) (785, 4, 5.00000000000000000000e-01) (785, 4, 5.00000000000000000000e-01) (785, 4, 5.00000000000000000000e-01) (785, 4, 5.00000000000000000000e-01) (785, 4, 5.00000000000000000000e-01) (785, 4, 5.00000000000000000000e-01) (785, 4, 5.00000000000000000000e-01) (785, 4, 5.00000000000000000000e-01) (785, 4, 5.00000000000000000000e-01) (785, 4, 5.00000000000000000000e-01) (785, 4, 5.00000000000000000000e-01) (785, 4, 5.00000000000000000000e-01) (785, 4, 5.00000000000000000000e-01) (785, 4, 5.00000000000000000000e-01) (785, 4, 5.00000000000000000000e-01) (785, 4, 5.00000000000000000000e-01) (785, 4, 5.00000000000000000000e-01) (785, 4, 5.00000000000000000000e-01) (785, 4, 5.00000000000000000000e-01) (785, 4, 5.00000000000000000000e-01) (785, 4, 5.00000000000000000000e-01) (785, 4, 5.00000000000000000000e-01) (785, 4, 5.00000000000000000000e-01) (785, 4, 5.00000000000000000000e-01) (785, 4, 5.00000000000000000000e-01) (785, 4, 5.00000000000000000000e-01) (785, 4, 5.00000000000000000000e-01) (785, 4, 5.00000000000000000000e-01) (785, 4, 5.00000000000000000000e-01) (785, 4, 5.00000000000000000000e-01) (785, 4, 5.00000000000000000000e-01) (785, 4, 5.00000000000000000000e-01) (785, 4, 5.00000000000000000000e-01) (785, 4, 5.00000000000000000000e-01) (785, 4, 5.00000000000000000000e-01) (785, 4, 5.00000000000000000000e-01) (785, 4, 5.00000000000000000000e-01) (785, 4, 5.00000000000000000000e-01) (785, 4, 5.00000000000000000000e-01) (785, 4, 5.00000000000000000000e-01) (785, 4, 5.00000000000000000000e-01) (785, 4, 5.00000000000000000000e-01) (785, 4, 5.00000000000000000000e-01) (785, 4, 5.00000000000000000000e-01) (785, 4, 5.00000000000000000000e-01) (785, 4, 5.00000000000000000000e-01) (785, 4, 5.00000000000000000000e-01) (785, 4, 5.00000000000000000000e-01) (785, 4, 5.00000000000000000000e-01) (785, 4, 5.00000000000000000000e-01) (785, 4, 5.00000000000000000000e-01) (785, 4, 5.00000000000000000000e-01) (785, 4, 5.00000000000000000000e-01) (785, 4, 5.00000000000000000000e-01) (785, 4, 5.00000000000000000000e-01) (785, 4, 5.00000000000000000000e-01) (785, 4, 5.00000000000000000000e-01) (785, 4, 5.00000000000000000000e-01) (785, 4, 5.00000000000000000000e-01) (785, 4, 5.00000000000000000000e-01) (785, 4, 5.00000000000000000000e-01) (785, 4, 5.00000000000000000000e-01) (785, 4, 5.00000000000000000000e-01) (785, 4, 5.00000000000000000000e-01) (785, 4, 5.00000000000000000000e-01) (785, 4, 5.00000000000000000000e-01) (785, 4, 5.00000000000000000000e-01) (785, 4, 5.00000000000000000000e-01) (785, 4, 5.00000000000000000000e-01) (0, 0, 0.00000000000000000000e+00) (101, 5, 5.00000000000000000000e-01) (0, 5, 0.00000000000000000000e+00) 
connections (connected_to_neuron, weight)=(0, 5.98354308260310663314e-01) (1, 5.99875776422847284408e-01) (2, 5.93678666604388727279e-01) (3, 6.10845102322925104232e-01) (4, 7.34624406648505812178e-01) (5, 7.25748977018226271163e-01) (6, 5.99542824877131952377e-01) (7, 7.52970388484824781905e-01) (8, 6.98302237642634993087e-01) (9, 6.65917305601466780196e-01) (10, 6.65177589608062391768e-01) (11, 7.78233236027587538253e-01) (12, 7.44143938971389418136e-01) (13, 7.43179133487571363936e-01) (14, 7.24698921991218214522e-01) (15, 6.72332173539031630050e-01) (16, 7.01990319741595869552e-01) (17, 6.00507295084823145004e-01) (18, 7.15801677060950880538e-01) (19, 7.48186296177734022628e-01) (20, 6.81978432787288313399e-01) (21, 6.22915139747489465805e-01) (22, 6.60558758629191999923e-01) (23, 6.28140582097400201889e-01) (24, 7.56592056108344679366e-01) (25, 6.21671086502898706527e-01) (26, 7.47371098352302198897e-01) (27, 6.62997989309657698165e-01) (28, 5.98870350373614801498e-01) (29, 6.65714374137748365889e-01) (30, 6.90787127567161207686e-01) (31, 6.18648002249825967880e-01) (32, 6.87013483000625257979e-01) (33, 7.05889126611579542647e-01) (34, 6.50916448188651686202e-01) (35, 6.43061226559508924971e-01) (36, 6.53061455441344862471e-01) (37, 6.71882605505813246261e-01) (38, 6.17454948229421152206e-01) (39, 7.72787040425170546065e-01) (40, 7.59223243547309523116e-01) (41, 7.04055881453384047042e-01) (42, 7.72443613363135939132e-01) (43, 7.24790534330237989913e-01) (44, 6.68658351851333265792e-01) (45, 7.18565872264732008468e-01) (46, 6.18546041054357065292e-01) (47, 5.92072008503306879135e-01) (48, 7.40496507240165358077e-01) (49, 7.55771061731208448897e-01) (50, 7.61681637121070509444e-01) (51, 6.43898276937831526290e-01) (52, 6.00109530938495172592e-01) (53, 6.43663732660640364180e-01) (54, 6.93462191475261335860e-01) (55, 7.78124934388030653487e-01) (56, 6.86758159054149275313e-01) (57, 6.62256626737941389571e-01) (58, 6.62546260608066206466e-01) (59, 7.07051849318374281417e-01) (60, 7.49394333315719252120e-01) (61, 7.74756720615256910811e-01) (62, 7.47123202634681349288e-01) (63, 6.57831160677302961837e-01) (64, 7.02069199038375502120e-01) (65, 6.19462976557839883895e-01) (66, 7.22315734578002577315e-01) (67, 7.76553994370330458175e-01) (68, 6.82590771108833704872e-01) (69, 7.31015849500862513466e-01) (70, 7.41298783756592194472e-01) (71, 6.63595508502426545405e-01) (72, 4.92661638120803102581e-01) (73, 3.61726893652968783943e-01) (74, 2.63743362623415300572e-01) (75, 7.96106423545540842213e-01) (76, 6.83651181727314538605e-01) (77, 6.50133188999988953505e-01) (78, 5.60426551958683294430e-01) (79, 6.66540352953303938399e-01) (80, 6.56793153239120131026e-01) (81, 7.73355266404975538741e-01) (82, 7.31861969781745558272e-01) (83, 6.78326024068225508223e-01) (84, 6.38442324800122862349e-01) (85, 6.46747498167384748946e-01) (86, 6.77874295366634016524e-01) (87, 7.46623834920753126632e-01) (88, 7.30427464795936232100e-01) (89, 7.61843895865310316573e-01) (90, 6.75099013698924665938e-01) (91, 7.01245142472613935958e-01) (92, 7.31771214431626071395e-01) (93, 6.18222381268376364183e-01) (94, 5.55076468084687135729e-01) (95, 6.56093332265252127122e-01) (96, 6.58794301411313010242e-01) (97, 7.24238699627746229659e-01) (98, 6.94296069681023975129e-01) (99, 6.35329859244954220365e-01) (100, 8.04867484246296949202e-01) (101, 6.73105741728607820384e-01) (102, 8.68282177499673624155e-01) (103, 7.49671840123078969675e-01) (104, 7.00715182186996243807e-01) (105, 5.72807296712201874378e-01) (106, 5.83665322698452282424e-01) (107, 5.53956266602638525143e-01) (108, 6.95637790811885481368e-01) (109, 6.24804513854611887069e-01) (110, 6.71743681980003004561e-01) (111, 7.73854276491035109053e-01) (112, 6.19583109719384683700e-01) (113, 6.25028984946836008163e-01) (114, 6.73603652370799665938e-01) (115, 6.79448774410117750655e-01) (116, 6.93199811828960066329e-01) (117, 7.72901287628043776046e-01) (118, 6.20928799800545383469e-01) (119, 6.18483474545151401536e-01) (120, 7.29915781444412936629e-01) (121, 7.98449247879273182882e-01) (122, 8.86830818661340947173e-01) (123, 2.64435402387520568368e+00) (124, 3.54856275463775805434e+00) (125, 1.51431568659313544600e+01) (126, 9.03740756152104118826e+00) (127, 1.09988277810191110717e+01) (128, 1.00599512908529753474e+01) (129, 1.14532175660924129268e+00) (130, 7.76676080363588927646e-01) (131, 7.31127480980779509423e-01) (132, 6.67194897600609237998e-01) (133, 6.98383526611723093325e-01) (134, 6.99310954023064645924e-01) (135, 6.90767827301884240754e-01) (136, 6.96749616600372712050e-01) (137, 7.14513710094321852218e-01) (138, 7.16940483404029493819e-01) (139, 6.43276317370761518966e-01) (140, 7.60741552663673048507e-01) (141, 6.10107494843829645248e-01) (142, 6.38553941948045378219e-01) (143, 6.01748003018725885482e-01) (144, 6.56559823406566267501e-01) (145, 7.33935355070853834292e-01) (146, 6.76052978329331089036e-01) (147, 7.44615836136013675706e-01) (148, 7.80283085864955094912e-01) (149, 2.56844910386121405566e+00) (150, 3.34497994172239332400e+00) (151, 1.32891474758965841829e+01) (152, 7.47213798195322542739e+00) (153, 5.84673768922024095218e+00) (154, 5.78575085687287149483e+00) (155, 6.74569185199120635588e+00) (156, 5.60860110318898552606e+00) (157, 1.65084567636115697731e+00) (158, 3.14040746601244480374e-01) (159, 5.92254658250112475670e-01) (160, 6.73364251210334163744e-01) (161, 7.02155861743678610942e-01) (162, 5.85584456788744822653e-01) (163, 7.70776969159659097741e-01) (164, 5.91200622588062718599e-01) (165, 7.20981857133735304366e-01) (166, 6.70573180867065077315e-01) (167, 7.59808471752036695968e-01) (168, 6.56918889237273817550e-01) (169, 6.08936993730891718002e-01) (170, 6.24508129758466257186e-01) (171, 6.39438218299174909731e-01) (172, 6.40822267953181867739e-01) (173, 6.58272704644268680241e-01) (174, 6.35687997631699253098e-01) (175, 6.91883860222965885178e-01) (176, 7.74975758514359736040e-01) (177, 4.82967012893983405064e+00) (178, 4.59578371234293037162e+00) (179, 7.71507238880839096851e+00) (180, 5.20718235635172810305e+00) (181, 4.10925524980609235826e+00) (182, 4.47995004060491641695e+00) (183, 5.38596083482565113343e+00) (184, 3.50215608076952111816e+00) (185, 1.11042959750200953550e+00) (186, 6.54875836655891774285e-01) (187, 4.96722418901503981470e-01) (188, 7.67498158626038651242e-01) (189, 7.00270483023588519167e-01) (190, 8.73707636381839014561e-01) (191, 7.83192352405927327830e-01) (192, 7.37174239890884486215e-01) (193, 6.44862573703888330989e-01) (194, 6.07309175980914606185e-01) (195, 5.87548239482272638412e-01) (196, 6.17091486556161417099e-01) (197, 6.99305704189170485030e-01) (198, 7.68780058575500135909e-01) (199, 6.95433711958755140792e-01) (200, 7.30020462397361402651e-01) (201, 5.88498807115620192754e-01) (202, 7.29373706571728397385e-01) (203, 5.68538915008940271001e-01) (204, 6.94784932341253047561e-01) (205, 6.12606497378726411185e-01) (206, 6.88856854791953687744e-01) (207, -1.19268311548449773563e-01) (208, 1.13482066503791223511e+00) (209, 1.36909428353303219694e+00) (210, 1.25256288625672436154e+01) (211, 1.05769755812502399550e+01) (212, 7.62879769224540593697e-01) (213, 7.81048097236558103162e-01) (214, 2.59172073042883643890e-01) (215, 4.57408977146926021273e-01) (216, 7.72579213504578254934e-01) (217, 7.75676501819208552568e-01) (218, 1.04514132255830194396e+00) (219, 8.49841036847970521251e-01) (220, 4.84382312260878966637e-01) (221, 6.08446377187633946626e-01) (222, 5.85018297983039392562e-01) (223, 6.03881648136008752914e-01) (224, 7.25525340391029005538e-01) (225, 6.13750813854564203353e-01) (226, 6.12853227508891595932e-01) (227, 7.64394595149779920717e-01) (228, 7.34834297422195081850e-01) (229, 5.76843908591335829961e-01) (230, 6.58537318055438913866e-01) (231, 6.90311999640242701659e-01) (232, 7.32165727495356799537e-01) (233, 4.83557815354786812989e-01) (234, 3.16579877386694574781e-01) (235, -1.11784980260627664350e+00) (236, 1.53286076985660013605e+00) (237, -4.76424803112054462417e+00) (238, -1.20109786126194317823e+00) (239, 6.49649244291496730241e-01) (240, 1.66976590895003407233e+00) (241, 1.44183766534297159723e+01) (242, 4.15230635356189037299e-01) (243, 3.70415850944121882726e-01) (244, 7.63301429764662642263e-01) (245, 7.02178066646969689657e-01) (246, 9.27840515463752679715e-01) (247, 6.63980033612906361817e-01) (248, 9.02642014558766581089e-01) (249, 7.09287744896720973031e-01) (250, 6.55780202103484755050e-01) (251, 7.12524986220229750167e-01) (252, 7.76907509518493299971e-01) (253, 6.62221847427714949141e-01) (254, 7.37829989148009901534e-01) (255, 7.24210618857169752260e-01) (256, 6.97750425759578352114e-01) (257, 7.45989982820335240099e-01) (258, 6.85769459097688049987e-01) (259, 7.45704811906719999826e-01) (260, 5.16180421484788820585e-01) (261, -1.51707590277358861375e-01) (262, -9.71048158991396404005e-01) (263, -1.92765392213532149590e+00) (264, -1.80923982585178810822e+00) (265, -1.17979009845860871586e+00) (266, -1.18217184488250182106e+00) (267, -5.20532468309582441179e-01) (268, 8.21884289574479898199e-01) (269, 2.57577397922618001047e+00) (270, 1.15342901022010013712e+00) (271, 7.53258526717224596858e-01) (272, 7.09765206808260051830e-01) (273, -1.70793684189616534752e+01) (274, 1.01768619114746905474e+00) (275, 9.24832794016502757195e-01) (276, 3.52490952305974158953e-01) (277, 6.68590825237133423720e-01) (278, 5.94121350301135553451e-01) (279, 7.11986562562812452803e-01) (280, 6.45548222912181501876e-01) (281, 6.71324899745811110030e-01) (282, 6.45934900594581251632e-01) (283, 6.44233493927741651675e-01) (284, 7.55324526551986341616e-01) (285, 5.79188121676788458814e-01) (286, 7.18886625711393278948e-01) (287, 7.91980888355703016579e-01) (288, 1.29290154879983298919e+00) (289, -1.62199102492286223454e-01) (290, -1.20581748924192622141e+00) (291, -3.83361217531718256879e+00) (292, -1.53804189686655568003e+00) (293, -1.22987972905348419417e+00) (294, -1.27116721033474999736e+00) (295, -9.46064636729233021661e-01) (296, 6.46171621609817670162e-01) (297, 9.59193416191369863100e+00) (298, 3.51111492899250920985e+00) (299, 6.56195777827816462136e-01) (300, 7.83209733378836703288e-01) (301, -1.25076528653118721479e+01) (302, 1.17634703442961296993e+00) (303, 1.04005823845185663146e+00) (304, 7.07284879820655909555e-01) (305, 6.76672730237213526649e-01) (306, 6.44131658924449568282e-01) (307, 7.73453882289756422530e-01) (308, 6.26330631179440988632e-01) (309, 6.59676349116195326339e-01) (310, 7.06863781762946730147e-01) (311, 6.93656622294211988589e-01) (312, 7.30118035267646403597e-01) (313, 7.93896533712823093687e-01) (314, 1.13843323835070919792e+00) (315, 4.07585538205800279599e+00) (316, 7.46714358822634505231e+00) (317, -1.28626069628233064002e+00) (318, -3.45063409302993351346e+00) (319, 5.07609032125290626780e-01) (320, 1.01550922591166514763e+00) (321, 2.45036425525395307190e+00) (322, -4.86482163701779990461e-01) (323, -1.15822949949629827593e+00) (324, 7.98555002881756292865e-01) (325, 3.06883549533580390900e+00) (326, 3.00321513648935045637e+00) (327, 5.07819465873850628412e-01) (328, -3.23181984146406545144e-02) (329, -3.62420875446571377765e+00) (330, 2.24807203467522892515e-01) (331, 1.05416629145759910280e+00) (332, 6.93922876309211345003e-01) (333, 5.87344331992496027084e-01) (334, 6.49587018741000776778e-01) (335, 6.61718366993297224532e-01) (336, 7.15618556691039686690e-01) (337, 7.15142017556060438643e-01) (338, 6.56595586193431501876e-01) (339, 7.63726963523650770327e-01) (340, 5.70244712264890929454e-01) (341, 8.02723193892933561955e-01) (342, 4.24866098616037959346e+01) (343, 5.50741723101308693344e+01) (344, 1.08006723507154003272e+01) (345, -2.00491133640677476890e+00) (346, -2.77597869850477518838e-01) (347, -1.03493212600888243036e-01) (348, -6.97996562200754566696e-01) (349, 2.41384794300872052020e+00) (350, 2.17811950958353728325e+00) (351, -2.01548109416065823751e+00) (352, -2.47385405602053287666e+00) (353, 6.56718392085101410061e-01) (354, 8.21637372901604989828e-01) (355, 7.06720361150318554522e-01) (356, 5.33378030011861792303e-01) (357, -3.87438587454775884567e+00) (358, 2.02890288781709088317e-01) (359, 1.09076012138449973676e+00) (360, 4.28861891387319338342e-01) (361, 6.17969721163106777695e-01) (362, 5.98784862411845697494e-01) (363, 7.52179509354461317550e-01) (364, 6.25593414855826868148e-01) (365, 6.69795213592876081954e-01) (366, 6.35321205807555688949e-01) (367, 7.62989743474746351382e-01) (368, 6.32885920724303274731e-01) (369, -5.45785902518485670498e+01) (370, 4.25559429902349108943e+01) (371, 1.52654916615226703414e+01) (372, -6.22016023437965137610e-01) (373, -2.56015108521372214412e+00) (374, -2.05494844170233958991e+00) (375, -2.42996495924477917683e+00) (376, -2.57411873528162837843e+00) (377, -3.82660044379980623930e+00) (378, -3.09857127543151156246e+00) (379, -7.85747252314796806871e+00) (380, -6.75696125831619198721e-01) (381, 3.41363585003784886229e-01) (382, 8.51143269014865588851e-01) (383, 4.88079249151000316154e-01) (384, 2.91764671487719384757e+00) (385, -7.35430667684222716396e-01) (386, 4.62062836043523883500e-01) (387, 8.56839403393325205194e-01) (388, 6.25913444268712870766e-01) (389, 7.08639140425339375540e-01) (390, 6.45061458999706238693e-01) (391, 6.44999875081409101973e-01) (392, 7.45001739216674452315e-01) (393, 6.64125686837066298018e-01) (394, 6.18602717620957864852e-01) (395, 5.92372923020148767215e-01) (396, 7.88708504999693582604e-01) (397, -2.32622475760242792830e+01) (398, 3.34843083639599869983e+00) (399, 4.69504196646047589070e+00) (400, -9.19406520477972083460e-02) (401, -3.80260159438210054716e+00) (402, -3.60341566758151543581e+00) (403, -1.78733872971802654206e+00) (404, -3.30495133159281051505e+00) (405, -1.83804999157913009356e+01) (406, -7.96063437585126809637e+00) (407, -2.72314868550503907940e+00) (408, 5.48931077432495972968e-02) (409, 5.53284064050532653489e-01) (410, 3.98155502213359935304e-01) (411, 2.76759895675483669208e+00) (412, 2.83589024294491576228e+00) (413, 2.43386878570464065819e-01) (414, 5.42521477245264005518e-01) (415, 8.27733003460721317168e-01) (416, 7.37806026929362590572e-01) (417, 7.20698750488241501877e-01) (418, 6.02710076133277206090e-01) (419, 7.58564418507445936690e-01) (420, 6.45038424385417585860e-01) (421, 6.67073851776946669112e-01) (422, 6.24987623048652185531e-01) (423, 6.11463500512469781967e-01) (424, 7.26121952659703917554e-01) (425, 8.37863422830672721631e-01) (426, 5.93030434198531630763e-01) (427, 6.46750858678789009026e-01) (428, 1.61363470663218155909e-01) (429, -5.58874083612798333576e-01) (430, 4.97342029306155397617e-01) (431, 5.26014750451663792852e-01) (432, 2.80263300404041082459e+00) (433, 5.95938533119679703098e-01) (434, 4.81358813064327373255e-01) (435, 3.17399199782205099218e-01) (436, 9.06094194237440531126e-01) (437, 6.45361297333088113071e-01) (438, 2.62074665604193723922e+00) (439, 2.35589320274903285535e-01) (440, 8.35307171414369498130e-01) (441, 6.16624939240211999980e-01) (442, 8.76394208260273588351e-01) (443, 8.15122897156563719356e-01) (444, 6.02154412381323056458e-01) (445, 7.46330952861122720599e-01) (446, 5.52381261326877370799e-01) (447, 7.77321895910133009444e-01) (448, 7.06598079157699232589e-01) (449, 6.01928351772655023666e-01) (450, 7.57309636426795607100e-01) (451, 7.73889410417438416978e-01) (452, 6.91864047388958014473e-01) (453, 6.23398619045625212998e-01) (454, 5.85627892393859039721e-01) (455, 6.44614522681770663048e-01) (456, 4.54548281951185462191e-01) (457, 1.60704734874352506147e+00) (458, 9.31630630810923854312e+00) (459, 3.55398859066936712026e+00) (460, 2.40674457581397138739e+00) (461, 3.36482244848060751963e+00) (462, 1.72130663923952864636e+00) (463, 3.65643497459522892612e+00) (464, 2.78279292443608694541e+00) (465, 3.27928850372163660509e+00) (466, 6.59509358957796387735e-01) (467, 3.51364260527931737688e-01) (468, 4.46749863647761813468e-01) (469, 5.55554593519979378335e-01) (470, 6.03960625216310886820e-01) (471, 7.37341585032656898768e-01) (472, 5.85589880672132245820e-01) (473, 5.92310197457061704540e-01) (474, 6.41277419205861343166e-01) (475, 6.56317143095363264571e-01) (476, 6.05696855438579095932e-01) (477, 6.66954024089206343184e-01) (478, 6.55062368465293531905e-01) (479, 7.07327543832866667550e-01) (480, 6.68324364938549630999e-01) (481, 5.95331854497868628862e-01) (482, 6.48148526539220282139e-01) (483, 6.50587015308882299358e-01) (484, 1.67257187062856216286e+00) (485, 4.15646164800751183321e+00) (486, 4.86517318708637525049e+00) (487, 5.82071297359246653258e+00) (488, 7.06998333777950360712e+00) (489, 5.01303309533382002172e+00) (490, 5.62594726259167021709e+00) (491, 4.24692162833015895984e+00) (492, 7.85332019782132828567e+00) (493, 1.92230625057109372200e+00) (494, 3.75408750430011317611e-01) (495, 6.45376609456504990447e-01) (496, 3.27875795475271736290e-01) (497, 3.84099126219779263280e-01) (498, 5.29177220908354173368e-01) (499, 5.41961899306756089700e-01) (500, 5.38992360559005789789e-01) (501, 6.27534160854295253174e-01) (502, 6.30837923922149657052e-01) (503, 6.75844995630611067305e-01) (504, 6.89199744118083601485e-01) (505, 7.45410686684478407393e-01) (506, 7.53585478616584425460e-01) (507, 6.89929216243831633371e-01) (508, 6.12654857098822280825e-01) (509, 5.76735671796593019067e-01) (510, 1.61350657360573923604e+00) (511, 6.17223287940858256206e+00) (512, 3.22054173927069919969e+00) (513, 4.35663313624965908843e+00) (514, 6.57808783261447960200e+00) (515, 4.21228637832658847628e+00) (516, 3.78426476460062355400e+00) (517, 1.73735623032063934978e+00) (518, 2.47574446098487888079e+00) (519, 4.67181860025551998206e+00) (520, 9.03657932051010304164e-01) (521, 2.98979383237100215798e-01) (522, 2.17605804231232058399e+00) (523, 8.16837248662592663173e-01) (524, 4.88175566288876039422e-01) (525, 6.61088391263379593354e-01) (526, 6.68277831710188174874e-01) (527, 5.28668574958792381047e-01) (528, 3.17775065402494838462e-01) (529, 7.01024958729054237239e-01) (530, 6.26711747003425134750e-01) (531, 6.50248019350398664962e-01) (532, 5.97404381585944666000e-01) (533, 7.05363726569045668136e-01) (534, 7.47516354871619825850e-01) (535, 6.81636749841777800363e-01) (536, 6.50008639601291626775e-01) (537, 7.81303206027473384765e-01) (538, 2.39995373607424911100e+00) (539, 1.44145443726160960018e+00) (540, 4.95061999188309886932e+00) (541, 4.87039236653090323870e+00) (542, 5.08850658759392171504e+00) (543, 4.13292047438129372949e+00) (544, 9.63996606695235791484e-01) (545, 1.21063694990987502642e+00) (546, 5.40453292343728453062e+00) (547, 9.36744187011220086347e-01) (548, 3.50951174541340449320e-01) (549, 7.37393791940228138238e-01) (550, 4.61966149318687246961e+00) (551, -3.46803706069688146840e+01) (552, 1.96349419771826205761e+00) (553, 3.83893713046516138476e+00) (554, 1.38438489543386489267e+00) (555, 7.18391365323473807258e-01) (556, 6.12376850032560926529e-01) (557, 7.09786660375218647623e-01) (558, 7.29745483351577406417e-01) (559, 6.46552441967357283126e-01) (560, 6.81176318181384687911e-01) (561, 7.77880570245612745772e-01) (562, 7.18223801208366041671e-01) (563, 6.73613316454498289865e-01) (564, 6.81513591284544917315e-01) (565, 7.40626882360439053876e-01) (566, 2.65885769123790316470e+00) (567, 5.09655998555046618748e+00) (568, 5.39121518288986578682e+00) (569, 3.81418294844242433683e+00) (570, 4.13844161280606481768e+00) (571, 1.94816210561232971976e+00) (572, 8.35401212295519668416e-01) (573, 1.18389813243358332784e+00) (574, 6.07881323081703062172e-01) (575, 1.65307214854943973492e+00) (576, 1.04107468918526802071e+00) (577, -1.37275486531763779574e+00) (578, 9.91097119072624721525e+00) (579, 6.69969790436921108778e+00) (580, -4.86620089981101155985e+00) (581, 3.40746074943024934711e+00) (582, 1.47406282658578491329e+00) (583, 6.72039160333266716307e-01) (584, 6.81296516813256092249e-01) (585, 6.38418248929588316720e-01) (586, 6.16214601648677362533e-01) (587, 7.69473901344169264327e-01) (588, 6.21819442463744653793e-01) (589, 7.67383417440284376632e-01) (590, 6.37449683947194700728e-01) (591, 7.25563067550254792160e-01) (592, 7.40296616293994902414e-01) (593, 7.50844089812142123641e-01) (594, 2.10069935053985634710e+00) (595, 9.97215058204338689052e+00) (596, 5.45186175331860223281e+00) (597, 3.20995468892001190042e+00) (598, 4.98853189078984105009e+00) (599, 5.58403333779389443592e-01) (600, 1.70094411477263007804e-01) (601, -8.83296943622829622278e-01) (602, -2.85421921990079541231e-01) (603, -7.36480166830834637182e+00) (604, 1.56595629518072460007e-01) (605, 2.27911224610864521223e-01) (606, 1.03829615633988781020e+00) (607, 4.38579915658916430488e+00) (608, 4.08825289630378296835e+00) (609, 1.90231482556323006072e+00) (610, 8.10958459968114664385e-01) (611, 6.61500477434671108057e-01) (612, 6.47079863886576567289e-01) (613, 5.76776179765099428209e-01) (614, 7.24937593890060072432e-01) (615, 5.97479364229072107406e-01) (616, 6.88431656313766127120e-01) (617, 7.62575527978767042647e-01) (618, 5.88376602483619226547e-01) (619, 7.31674438668120985518e-01) (620, 7.25129558271271457137e-01) (621, 6.19233110313871626396e-01) (622, 7.45167651036038991563e-01) (623, 7.60799485145347786919e-01) (624, 2.64821394368138229858e-01) (625, 2.15700627945306616651e-01) (626, -4.03760286226702724832e+00) (627, -7.56968805071570272069e-01) (628, -1.04200440563890417422e+01) (629, -2.96511778000992842763e+00) (630, -2.13871172483903038142e+00) (631, -1.06589106759306484484e+00) (632, -4.80466736557973828070e+00) (633, 8.57602069675357792100e-01) (634, 4.35028940790390672433e-01) (635, 6.91604349888490177456e-01) (636, 6.64318969366027300971e-01) (637, 5.90765038761850269644e-01) (638, 6.34040700464694850780e-01) (639, 6.52831594725899355680e-01) (640, 6.82068472735864905765e-01) (641, 6.28502087993253244491e-01) (642, 5.79756861878264806442e-01) (643, 5.99650552821982874008e-01) (644, 6.52124760998119001876e-01) (645, 7.26117795658935194503e-01) (646, 6.18553253216374887558e-01) (647, 7.61979764653075819503e-01) (648, 6.80292945465210352474e-01) (649, 6.11572467671941732981e-01) (650, 7.84569128638556434474e-01) (651, 9.68450301974262406368e-01) (652, 9.84263837700800614527e-01) (653, 5.58541374880258789659e-01) (654, 2.69129842034232846792e-01) (655, -2.11992679950187801197e+00) (656, -2.70528976338289339765e+00) (657, -5.48254022937351481737e-01) (658, -9.46238679027260443100e-01) (659, -8.58125126582048869395e-02) (660, 1.11535400006974638742e+00) (661, 1.07865636471139292318e+00) (662, 6.04792708434926495897e-01) (663, 6.61680941780904197103e-01) (664, 5.91691117560062873615e-01) (665, 6.29022977685613771115e-01) (666, 7.41950941587454670945e-01) (667, 7.14172917526126771470e-01) (668, 6.50175063265193586837e-01) (669, 6.13393565965522302719e-01) (670, 6.09783618105281366439e-01) (671, 7.78180590225089674483e-01) (672, 6.63318990124095564376e-01) (673, 6.10963819874156488510e-01) (674, 5.99254479957450403305e-01) (675, 7.37221523050094251772e-01) (676, 7.29039374924995819960e-01) (677, 6.17422669727605732959e-01) (678, 7.36735303197599500358e-01) (679, 3.57865272467941752943e-01) (680, 8.23726818910977987009e-01) (681, 7.91490272632978109080e-01) (682, 7.29109809748075154978e-01) (683, 6.38154055109115048161e-01) (684, 1.04953392769866682421e+00) (685, 7.79806906474206362745e-01) (686, 6.51910835498471175065e-01) (687, 7.52674342685837438616e-01) (688, 9.32165849447954331097e-01) (689, 8.26787673945389767205e-01) (690, 5.89754481360106774801e-01) (691, 7.28676110292800993662e-01) (692, 6.27555407880637017293e-01) (693, 5.59570347437064685714e-01) (694, 5.81906366245595774167e-01) (695, 6.82375943613875990401e-01) (696, 6.27996983332265390487e-01) (697, 7.69512554956306105147e-01) (698, 6.17142623616088403793e-01) (699, 6.99595382762778883468e-01) (700, 6.04329457832206262680e-01) (701, 6.48349581611980085860e-01) (702, 6.99199309898246412764e-01) (703, 6.89071787846912031661e-01) (704, 6.80736733926166182052e-01) (705, 6.90411556698181549940e-01) (706, 6.30581502752613154428e-01) (707, 6.38856626648706349414e-01) (708, 6.03835566081883934331e-01) (709, 6.12359790243985679936e-01) (710, 7.95437341668489117374e-01) (711, 6.92781629117504738069e-01) (712, 6.90554184951665539494e-01) (713, 5.78906266586686424347e-01) (714, 6.98034531969827565234e-01) (715, 5.59077240128320496204e-01) (716, 6.52242426710437861459e-01) (717, 7.12557620901864918750e-01) (718, 6.70175222189779651316e-01) (719, 6.64481957884188068064e-01) (720, 6.81143165610185064018e-01) (721, 6.67289752155510340614e-01) (722, 6.31168152779308710976e-01) (723, 7.47004646450249110146e-01) (724, 7.05351015878547316085e-01) (725, 6.93115165782798414718e-01) (726, 6.80982088995803480636e-01) (727, 7.54771357727874403487e-01) (728, 6.84051050198901777755e-01) (729, 7.19548067403663282882e-01) (730, 6.75790069950450544845e-01) (731, 7.09803855372298841964e-01) (732, 5.89320971024859918685e-01) (733, 5.96412716759074701400e-01) (734, 6.20298980129588617416e-01) (735, 6.91481044841636305343e-01) (736, 7.37713178945411329757e-01) (737, 6.89084543240893965255e-01) (738, 7.73923843029761915346e-01) (739, 7.40022479418540601870e-01) (740, 6.99918067876124982973e-01) (741, 7.67838663359641682149e-01) (742, 6.52766457696914326192e-01) (743, 5.88949724038600463949e-01) (744, 7.76851101640487318178e-01) (745, 5.93674569252753747683e-01) (746, 5.90546114695895685287e-01) (747, 6.66943161142696028243e-01) (748, 7.49109482718337660323e-01) (749, 7.08141675544608717452e-01) (750, 5.78845439804423711472e-01) (751, 6.79364649904597883712e-01) (752, 6.27032930357087625595e-01) (753, 6.61615094495643263350e-01) (754, 6.77970795286525373946e-01) (755, 7.53807297302116041671e-01) (756, 7.76153585267890577803e-01) (757, 5.80376228643287195297e-01) (758, 7.30001977039207106124e-01) (759, 6.81627987278331404220e-01) (760, 7.21347621036399488936e-01) (761, 6.27215387625325693222e-01) (762, 6.12855172110427393051e-01) (763, 7.32091924501289015303e-01) (764, 6.45051440549720411788e-01) (765, 6.54577492130626326095e-01) (766, 6.44996313703883772384e-01) (767, 6.04187956405509485336e-01) (768, 7.65085375262130384932e-01) (769, 6.39989065332044249068e-01) (770, 7.65279343677390699874e-01) (771, 6.86072348011363630782e-01) (772, 6.28538476628888620468e-01) (773, 6.38756556762088423262e-01) (774, 6.95732830417979841720e-01) (775, 6.26458483142484201522e-01) (776, 6.53500033868182783614e-01) (777, 7.07702299905646925460e-01) (778, 7.14824980450500135909e-01) (779, 6.24032857222188486190e-01) (780, 6.37267304910052900802e-01) (781, 7.15093752694953566085e-01) (782, 7.24820843292106276046e-01) (783, 6.85723578883041029464e-01) (784, -2.28490632037768620632e-01) (0, 2.04656871263917024273e-02) (1, 5.72049135570462247147e-02) (2, -8.04017835808436276412e-03) (3, 2.22652556602890953907e-02) (4, 8.63023495721179298434e-03) (5, 9.50111488108570656497e-02) (6, 1.65036205411427744361e-01) (7, 5.72689587478573819412e-02) (8, 1.29289660811894691061e-01) (9, 1.18551496625417002173e-01) (10, 1.23743746638768470358e-01) (11, 5.29048985289889365374e-03) (12, -1.50288602109019103076e-02) (13, 1.49355042934888132544e-01) (14, -8.20079797459285012029e-03) (15, 4.63835487370427151932e-02) (16, 1.36057738423817881079e-01) (17, 9.92948973779614052493e-02) (18, 9.63453615312512001712e-02) (19, -3.76238280487697441049e-03) (20, 1.64510684316094522861e-02) (21, 1.44227195740216501685e-01) (22, 7.11609909539158425051e-02) (23, 1.45576704502576120825e-01) (24, 8.04755056505138954837e-02) (25, 1.16617191792004831763e-01) (26, 4.26734632300692848239e-03) (27, 1.69925952558453684238e-02) (28, 6.28613645439084073319e-02) (29, 1.11414257646077430319e-01) (30, 3.65481155221398304467e-02) (31, 1.08499694824689185690e-01) (32, -6.20819979859035028097e-03) (33, 5.36805728678639432205e-02) (34, 1.55937571287625559302e-01) (35, 2.75946708624299034962e-02) (36, 1.73864353657239206763e-01) (37, 1.46960135802956831652e-01) (38, 1.10849973067971507845e-01) (39, 1.29140358671876231966e-01) (40, 9.06842465254986407341e-02) (41, 5.97663561556065342506e-02) (42, 1.59603473052712691027e-01) (43, 1.00828033194276106554e-01) (44, 3.34803054337437580590e-02) (45, -2.34246959235941791533e-02) (46, 1.72384199008675825793e-01) (47, -4.47562684085719801608e-03) (48, 1.01042833432885420519e-01) (49, 9.39022044393742205681e-02) (50, 1.61209108536179632210e-02) (51, 1.41852814913266428443e-01) (52, 6.24883065228398343338e-02) (53, 1.12454537511342322897e-01) (54, 1.12602148414128577780e-01) (55, 1.68136436701291330786e-01) (56, 5.42443508510525723709e-02) (57, 1.42042119265073069068e-01) (58, 1.03016609554227034362e-02) (59, 1.42278347373479135962e-01) (60, 7.86289984588558754641e-02) (61, 7.20224196319515785891e-02) (62, 7.59506637458736977297e-02) (63, 9.75934380893642983157e-02) (64, 1.51689332232209456164e-01) (65, 5.70608714823658963455e-02) (66, 1.51174452409478438097e-01) (67, 1.49912599683278330298e-01) (68, 2.83799173538620934376e-02) (69, 8.63833467218601824822e-02) (70, 1.04796000836828190339e-01) (71, 1.74414961604469731515e-01) (72, 2.00686781672829106515e-01) (73, 1.19255734836793025888e-01) (74, 1.00849686495732421276e-01) (75, 6.05874977333060588114e-02) (76, 9.03699506018657006123e-02) (77, 6.70564952421931481652e-02) (78, 4.96152649507312290544e-02) (79, 1.45239162001336123697e-02) (80, -1.63857301468912884557e-02) (81, 8.95246679191525063235e-02) (82, -1.92643588180605694615e-02) (83, 7.12752083544666847903e-02) (84, 2.71518307034905419239e-02) (85, 1.18510429025166758032e-01) (86, 6.45842815046246271349e-02) (87, 1.06568817258351600241e-01) (88, 8.57251698379452309329e-02) (89, 1.00058574438565500708e-01) (90, 7.40197861795361122805e-02) (91, -3.31329107711633430444e-02) (92, -2.54060849974473736135e-02) (93, -4.75166216919740425073e-02) (94, 8.96331667472997639656e-02) (95, 1.50642171459404533573e-01) (96, 9.18822745287310727047e-03) (97, -6.44201872802012409647e-02) (98, 6.59637474540206020235e-02) (99, 1.06557307937666156938e-01) (100, 4.10393959141390624046e-02) (101, 1.32981045562626548628e-01) (102, 1.44521352958268317623e-01) (103, 5.84325242157641977503e-02) (104, 4.38334953962992504573e-02) (105, 2.12169524566144629407e-01) (106, 4.86598345566539372542e-02) (107, 1.04383655904272037995e-01) (108, 6.46470079872334124627e-02) (109, 1.20360244274609812232e-01) (110, 1.41882363915913828345e-01) (111, 7.26201946144039711672e-02) (112, 3.50575411920483609451e-02) (113, 1.47790629625790842505e-01) (114, 1.69068042397969492407e-01) (115, 8.73820001487667641360e-02) (116, 9.22873879525387408318e-02) (117, 5.96386532041752598365e-02) (118, -2.72255390697040714973e-03) (119, -2.02882364819368353481e-02) (120, -3.86035591790994392358e-02) (121, -5.90532543893897698961e-02) (122, -2.98896345268041940813e+00) (123, -3.15236432902247010190e+00) (124, -1.28236509576376445096e+00) (125, 1.04612314481532076016e+00) (126, -3.80654012763479154824e-01) (127, -5.05531221288767262934e-01) (128, -1.93353574341472295162e-01) (129, -1.89430031260225395506e-01) (130, 1.24026388773571721869e-01) (131, 1.35196351422491006788e-01) (132, 1.12900479070614928601e-01) (133, 8.08420593895622652258e-02) (134, 1.42124733261536795315e-01) (135, 1.27591548792790526745e-01) (136, 4.18443317398814670915e-02) (137, -1.71721016314303233374e-02) (138, 2.35240349774296746144e-02) (139, 1.29466120362752235007e-01) (140, 1.27547074318402564597e-01) (141, -9.42097955895106545232e-03) (142, 2.72589327995713219532e-02) (143, -1.14090477373873580569e-02) (144, 1.64355989799233687121e-01) (145, 2.24028542710553421656e-04) (146, 7.84858688730665499111e-02) (147, 5.75288757254758809090e-02) (148, -6.98891125347554376113e-02) (149, -4.64061297056285049223e+00) (150, 1.63489049575094913536e+00) (151, 8.81863341423191560153e-01) (152, 3.60140285829594191114e+01) (153, 2.41442894454421015382e+01) (154, 1.10778212083742033656e+01) (155, 2.21861062909640693874e+00) (156, 2.07323081381939688939e+00) (157, -3.15095392313645739080e+00) (158, 1.15095979508692186633e-01) (159, 9.39374359510363327042e-02) (160, -1.85531056328493669516e-02) (161, 5.26497139612189524183e-02) (162, 1.76115762592776364803e-01) (163, 1.18272869221638793347e-01) (164, 8.95852777291087365441e-02) (165, 7.47136215421879412713e-02) (166, 6.55771440314608690392e-03) (167, 1.53514746785634287329e-01) (168, 8.10867289309437355715e-02) (169, 5.52543888096745511307e-02) (170, 1.08967196449967662630e-01) (171, 3.46201288256371489394e-02) (172, 7.23901848182467722026e-02) (173, 1.39309485271645772109e-01) (174, 2.49102860707708199939e-02) (175, -3.79454690036290162580e-02) (176, -1.40869961980240931965e+00) (177, -1.94459969917318553634e+00) (178, -3.53149514020575483464e-01) (179, 8.57537621353285928194e+00) (180, 1.63319500782327082788e+01) (181, 9.11518713336309516215e-01) (182, -3.65439552600845540820e-01) (183, -4.69460949032991348151e-01) (184, -4.95579020379655565964e-01) (185, -9.57995609721031038397e-01) (186, 3.59747359190287996356e-01) (187, 2.11088028712933001296e-01) (188, 3.34212354924038668180e-01) (189, 3.14325714079816825874e-02) (190, 1.47326412584365018521e-01) (191, 1.28201196875155631894e-01) (192, 4.38537556622523999605e-02) (193, 4.09589866981296055193e-02) (194, 1.68454345569344771105e-01) (195, 1.54846806288235910865e-01) (196, 1.38647381425374277564e-01) (197, -6.29026233679462910137e-04) (198, 1.33534196973317392798e-01) (199, 4.57204471084797642311e-02) (200, 8.11821381435183786479e-02) (201, 4.55847352892887539011e-02) (202, 8.09380656892935146374e-02) (203, -8.55817337148199602792e-02) (204, -1.55814686823392192089e-02) (205, 3.28994573108033538933e-01) (206, 8.41545515888791118009e-01) (207, 3.49065832926417407567e-01) (208, 1.30229030143208007075e+02) (209, 1.18359557978778973109e+01) (210, 2.49628365401285989833e+01) (211, 1.57955160965892371649e+00) (212, -5.86493277099907173167e-01) (213, 5.85998428649584401917e-01) (214, -4.03442813388451959611e+00) (215, 7.77055443027192094263e-01) (216, 3.83250780660109202636e-01) (217, 4.16924463732840422381e-01) (218, 1.66903856987291848712e-01) (219, 2.26199539369158486579e-01) (220, 2.54626878750434833265e-02) (221, 2.78777117714671777982e-02) (222, -1.56460662629877879370e-02) (223, 4.66493258480961819901e-02) (224, 9.12410432701046547610e-02) (225, -2.36465295548502728307e-02) (226, 2.66687648599083886036e-02) (227, 5.64451972827701084490e-02) (228, -2.03784882872569302059e-02) (229, -3.58999848216044678550e-02) (230, 9.65850898638142829622e-02) (231, 8.54769714287362952776e-02) (232, 4.66906115092733053906e-01) (233, 6.10378155023670321278e-01) (234, -2.11561084307989616393e-01) (235, 1.22793774004322227000e+01) (236, 1.03939844107391330397e+01) (237, 5.20748634889242612012e-01) (238, -7.91992134394537972142e-02) (239, 3.86103831554086673883e-01) (240, 6.81585308526965527598e-01) (241, -6.23415100760717511008e+00) (242, -8.77033852199190833154e-01) (243, 1.17493494468854442481e+00) (244, 4.87699810578868631072e-01) (245, 4.54242918881720969537e-01) (246, 5.17099553587666127541e-01) (247, 2.74192099960080371002e-01) (248, 1.12463066908984138381e-01) (249, 1.19257838621808970325e-01) (250, 9.38479344103062274041e-02) (251, 5.40905485157902737869e-02) (252, 1.69181738257878550025e-01) (253, 1.01747069716923960181e-01) (254, 1.26726221546861000933e-01) (255, 8.69795541152743600932e-02) (256, 1.04657315729597050202e-01) (257, -4.64710858820448838302e-02) (258, 1.53596158222866208121e-01) (259, 5.32801635086465608104e-01) (260, 8.38609316338455257345e-01) (261, 7.42628335727489652385e-01) (262, 1.22711594472832485891e+00) (263, 5.26503583992587209650e+00) (264, 3.22374798624767677779e+00) (265, 2.62721226126224227659e-01) (266, 2.63431303654355020161e-01) (267, 2.41415687217850311042e-01) (268, -1.91897739353351831637e-01) (269, -3.12456691089246341164e+00) (270, -4.04955372337741426048e-01) (271, 8.49651833866829631070e-01) (272, 4.86450407252361438637e-01) (273, 8.63300987658904728228e-01) (274, 8.38099709469521725325e-01) (275, 9.04767199176991665510e-01) (276, 1.35476478303681924231e-01) (277, -7.53788548853112638781e-03) (278, 5.79059834334576389869e-02) (279, 1.64104346395009287329e-01) (280, 1.33766133547299631568e-01) (281, -2.47008835668627545201e-02) (282, 4.41812316629612705787e-02) (283, 1.29504644392469364655e-01) (284, 1.03602954267003943833e-01) (285, -9.27795860579820608205e-03) (286, 9.98062132259623646657e-02) (287, 9.89869817174154009720e-01) (288, 1.88337066938966457563e+00) (289, 2.39383129080008805190e+00) (290, 6.06703433882938014676e+00) (291, 5.61910653379495261817e+00) (292, 1.22364306902940467303e+00) (293, 7.19439716689963537632e-01) (294, 7.15300034454070532419e-01) (295, 1.07948567826284758109e-01) (296, 6.16064981191816254946e-02) (297, -1.77900358195096863767e+00) (298, -6.46507725517437070728e-01) (299, 4.06219293695214811457e-01) (300, 3.71549488802336402848e-01) (301, 1.59691286852258396145e+00) (302, 1.95450924875219600452e+00) (303, 4.30169951751389778583e-01) (304, 1.28940250633095859767e-01) (305, 8.02771339866840960564e-02) (306, 5.24534026389058133377e-02) (307, 1.18906611804898386386e-02) (308, 9.57140142326290688235e-02) (309, 1.34718302846425302954e-01) (310, 1.98135177824146661504e-03) (311, 5.60369278178004734392e-02) (312, 1.36893387429788515597e-01) (313, 1.57238879653915808454e-01) (314, 2.23578852801119953853e+00) (315, 8.18187028217518097506e+00) (316, 6.49232766418997897517e+00) (317, 1.39306521613535654325e+01) (318, 1.85685161760627899241e+01) (319, 4.45424213202895984409e+01) (320, 9.23190140774559075965e+00) (321, 4.82187813607291015927e+00) (322, 1.01030204004826251740e+00) (323, 6.52908489138937064844e-01) (324, -3.04993658516374589740e-02) (325, 1.70822627234072954572e+00) (326, -2.63841724530325949516e-01) (327, 2.70811261371459222058e-01) (328, 9.51179766519542613246e-01) (329, 1.35635107514630348646e+00) (330, 1.21270135093744890753e+00) (331, 5.11350088807125513490e-01) (332, 1.88116516750455015083e-01) (333, 1.68106142640584238501e-01) (334, 1.70496765733235605689e-01) (335, 7.87466282253201088626e-02) (336, 7.27421755199368080813e-02) (337, 4.81227899198468228592e-02) (338, 1.15809921384328134986e-01) (339, -4.98703020956231708738e-03) (340, 4.65175772302109311052e-02) (341, 2.79800286675584986007e-01) (342, 4.09625687937795674998e+01) (343, 3.34042349997572429743e+01) (344, 3.04646417924353229978e+01) (345, 7.35203948572524694782e+01) (346, 2.91706613540995647327e+01) (347, 1.80587609931956691867e+01) (348, 6.35586093195133550182e+00) (349, 1.03841852054758376767e+01) (350, 6.13966736683130953622e+00) (351, 1.43274461761221649780e+00) (352, 2.23846175971294281126e+00) (353, 7.31598907696018585511e+00) (354, -2.19471398082630442250e-01) (355, 8.36594940435644862653e-02) (356, 5.53686799350121727770e+00) (357, 1.20319088082868574929e+01) (358, 4.92301778668936051986e+00) (359, 7.85864284273658508795e-01) (360, 1.84271103663578461607e-01) (361, 8.01641160850460610110e-02) (362, 1.69728119135373362036e-01) (363, 1.35819766879552134009e-01) (364, 7.34428877239163002688e-02) (365, 1.65397513866894968482e-01) (366, 3.97390241031582852616e-02) (367, 1.72741838811376502427e-01) (368, 8.88193987314666172361e-02) (369, 7.07316396958873525591e+01) (370, 2.22327233660090513467e+02) (371, 3.21761225751149666507e+01) (372, 3.57555771508543607240e+00) (373, 1.09769404826677039466e+01) (374, 2.40804472995295562043e+01) (375, 4.72852388878488039126e+00) (376, 4.23117378845874547721e+00) (377, 1.47830126331317313060e+00) (378, 1.88161143982775258543e+00) (379, 1.27825295228604201014e+01) (380, 4.21334050114930747100e+00) (381, 6.49780976565048984384e+00) (382, 1.75171861963017749808e+00) (383, 1.99122632433693458331e+00) (384, 5.45656334424904976288e+00) (385, 5.91968902897838944455e+00) (386, 1.88685607560995127763e+00) (387, 5.23116091976045027856e-01) (388, 8.29446850215208447699e-02) (389, 1.68821159314297364329e-01) (390, -1.47153397793833573548e-02) (391, 3.51502562169964810623e-02) (392, 7.66907522683079323489e-02) (393, -1.98145841951433941686e-02) (394, -3.85734045458476859994e-03) (395, -2.33095948710651569569e-02) (396, 2.18154382594945850382e-01) (397, 1.00538419561630988142e+02) (398, 7.15422843257646334791e+00) (399, 2.25836988422241047303e+00) (400, 7.39607272180818453577e-01) (401, 7.76681209780634485007e-01) (402, 1.06066166703830599971e+00) (403, 5.88449549070776845028e-01) (404, 2.92431543023693762962e+00) (405, 1.37514274286430215888e+00) (406, 6.67377865815381543513e+00) (407, 1.81184355864514579082e+00) (408, 2.83284126553411086391e+00) (409, 1.54957939595341565031e+00) (410, 1.41803782522310473091e+00) (411, 8.40010905376847416548e-01) (412, 7.32414611110810298555e-01) (413, 1.32673450135835091501e+00) (414, 1.29273886869079057682e+00) (415, 5.45747824892764410443e-01) (416, 9.99665295659950686735e-02) (417, 1.67562648660095625530e-01) (418, 2.84604057242551743145e-02) (419, 1.43899549007886179419e-01) (420, 1.67469147801869638892e-01) (421, 6.15774059896405240311e-02) (422, 4.22244167374926857028e-03) (423, 6.93325216178829473179e-02) (424, 9.83217950863384537730e-02) (425, 1.17944994877041464676e-01) (426, 5.47317333511803227886e-01) (427, 9.01931387267346007519e-01) (428, 4.18749700547502434755e-01) (429, 4.71075692323855918509e-02) (430, 3.93231705296613442968e-01) (431, 2.23007281157869025057e-01) (432, 2.23892784875954653501e+00) (433, -1.62842239515387038340e-01) (434, 8.92230238116598184384e-01) (435, 3.91202508247216973469e-01) (436, 1.04039396389286831202e+00) (437, 1.48982064524202950651e+00) (438, 1.76560879299896811290e+00) (439, 5.90236983619453314809e-01) (440, 4.51447689691273135182e-01) (441, 4.87603346129506898254e-01) (442, 6.29546006920233103266e-01) (443, 5.64023201539995744369e-01) (444, 1.48569189516178118415e-01) (445, 1.26192500157406933825e-01) (446, 1.48487270815150534942e-01) (447, 1.45426431899006933235e-02) (448, 1.50351364374631174536e-01) (449, 4.94751746063168545975e-02) (450, -1.63851788039271160924e-02) (451, 1.42993141174786814185e-01) (452, 1.32845357066543989788e-01) (453, 4.49160108576400745467e-03) (454, 6.35931268797001597592e-02) (455, 3.67827294874781496326e-01) (456, -1.91232951209888580452e-03) (457, 2.05917914773214461022e+00) (458, -5.85660086852255634682e+00) (459, -1.06395584934582765335e+00) (460, -2.79420555461029396227e+00) (461, -2.83776768656212485809e-01) (462, -5.59951769793892578653e-02) (463, 8.00968230305468154029e+00) (464, 5.45924858876687579823e+00) (465, -4.94225737879570997668e-02) (466, 7.49057312949573228522e-01) (467, 4.69769250567801555096e-01) (468, 3.67496173934291014973e-01) (469, 4.13374031744770775720e-01) (470, 4.30078908020542438617e-01) (471, 4.71516276065048409172e-02) (472, -2.81690179249693486985e-02) (473, 4.74036128208620149982e-02) (474, 1.47875380267810357937e-01) (475, 1.63052413821690805884e-01) (476, 5.95016593341763516678e-02) (477, 1.72490898728841074439e-01) (478, 2.76768600987750343356e-03) (479, 1.03304954300092177721e-02) (480, 1.71099416688150589294e-02) (481, -4.26380285614461271293e-02) (482, -2.22199182254256027980e-01) (483, -2.83383967775697132030e-01) (484, -9.12846139922321858640e-02) (485, -4.98413019111141442075e-01) (486, -9.62032323741649819659e-01) (487, -1.65310695399294260710e+00) (488, -4.15215165523909313094e+00) (489, -6.55310268882539048718e+00) (490, -2.58243690275993653671e+00) (491, -7.07089824875804939808e+00) (492, -1.26655931049189351967e+00) (493, 2.81068484680481955884e-01) (494, 3.97079922046551792025e-01) (495, 3.72257434097963080255e-01) (496, 2.41492184378664237476e-01) (497, 4.45222440922928702767e-02) (498, -9.96947182813567867044e-03) (499, -3.06275901525793370350e-01) (500, -6.02890333130490008173e-01) (501, 1.12557035850637837671e-01) (502, 1.40862421138064658477e-01) (503, 3.55431886618073414330e-02) (504, 5.60834894185002347244e-02) (505, 1.64866034150594004126e-01) (506, 2.45819466862404779894e-02) (507, 1.16062627179400773558e-01) (508, 1.27146330158421527745e-01) (509, -7.63100188194639872385e-01) (510, -1.80810304230505547451e+00) (511, -1.16696814651144564756e+00) (512, -2.41213496499213253532e-01) (513, 4.50300201146516809736e-01) (514, -1.76618820131392206818e+00) (515, -1.58729511011925850106e+00) (516, -8.90258479498863586343e+00) (517, -9.78060461385418022928e+00) (518, -1.45066307787035899679e+01) (519, -5.01668774271731798819e+00) (520, -1.88167101666497105228e+00) (521, 3.98766194944134400036e-01) (522, 3.18771050421664370322e-01) (523, 1.23720846633520764613e+00) (524, 1.28598091926788032913e-01) (525, -2.06893270404622919151e-03) (526, -2.69638573872290621125e-01) (527, -9.38862893598999659339e-01) (528, -5.28964967399621954769e-01) (529, 4.44422819067049681974e-02) (530, 7.07001313140073750496e-02) (531, -1.91677396888796612584e-02) (532, 4.91676667933400174393e-02) (533, 8.40900505189831337649e-02) (534, 4.23617998811924717506e-02) (535, 1.05728627187983842406e-01) (536, 4.31312232992383109975e-02) (537, -8.51415294163228919544e-01) (538, -2.42768109277282650993e+00) (539, -2.44795861836056660721e+00) (540, -8.41576258604175148070e-02) (541, -1.32263638120202670079e-01) (542, -1.33028585440530822126e+00) (543, -5.23360630243381041993e+00) (544, -8.26669254380613871547e+00) (545, -6.60975857431087998606e+00) (546, -3.14272642067747209893e+00) (547, -1.45693066719072072956e+00) (548, -9.75699530658682756545e-01) (549, 2.47464924589812662603e+00) (550, 1.84015145160675541725e+00) (551, 5.49584441635144642646e+01) (552, 1.00878585269896809962e+01) (553, -2.48483095454231994736e+00) (554, -6.13047963500872139520e+00) (555, -8.67398270977820118333e+00) (556, 2.94420237924877988001e-03) (557, 1.46919363185843726560e-01) (558, 1.07879564123360249805e-01) (559, 1.35967228770726450415e-01) (560, 7.23764265184338173587e-02) (561, 4.90717405681546231522e-02) (562, 1.41972128510945566626e-01) (563, 1.24057009773460957813e-01) (564, 1.21083290047789296495e-01) (565, -4.49559834300135297003e-01) (566, -1.71662108304627958333e+00) (567, -1.02785274459457021123e+01) (568, -1.98896281819137987767e+00) (569, -3.75406811123739636571e+00) (570, -1.48758701524190217746e+00) (571, -2.78678059162311386743e+00) (572, 3.15917909143013431184e-01) (573, -9.08459231226112162716e-01) (574, -1.10033637345561086107e+00) (575, -2.50215070633479974571e-01) (576, 3.90470680129002545300e-01) (577, 3.93252603630019348380e-01) (578, -9.77680686354726380394e-01) (579, 2.88078913658775093154e+00) (580, 4.80161946433632191855e+00) (581, -2.33335555174266229272e+00) (582, -6.16479510343981473852e+00) (583, -9.07234090603179721413e-01) (584, 3.87190500626879360868e-02) (585, 1.19948879821078630004e-01) (586, 1.29089120984547889304e-01) (587, 7.69892299776012978274e-02) (588, 1.43843505740636118384e-01) (589, 8.48010147218639931399e-02) (590, 3.81290877466137975715e-02) (591, 1.87328531911054620152e-02) (592, 1.36385664301125114628e-01) (593, -1.67649462588725983725e-01) (594, -1.25384532056132846911e+00) (595, -4.53864895144602098487e-01) (596, 5.48343214280085256007e-01) (597, -1.57480936434030862614e+01) (598, -8.89778501098147267534e-01) (599, -8.67773225626781274933e-01) (600, -1.24745766256801071670e+00) (601, 2.18172707327350196005e-01) (602, 1.61465596064406136101e+00) (603, 7.43482839311259091630e+00) (604, 2.04797345448722012407e+00) (605, 1.88862620097995215218e+00) (606, -1.03279419591749983126e-02) (607, -1.27020393613831372726e+00) (608, -1.30923177256048495209e+00) (609, -1.68536110088859114597e+00) (610, -1.81647682403993626643e+00) (611, 1.13496405715615331609e-03) (612, -6.96414615205829829608e-03) (613, 3.67767661382833385697e-02) (614, 9.05705506210262856204e-02) (615, 1.42979029775136240454e-01) (616, 2.92531440262730584034e-02) (617, 4.48322931532795926346e-02) (618, 4.51408887510235806717e-02) (619, -1.73072123480479730245e-03) (620, 1.32146224336830736545e-01) (621, 1.09614480616517379064e-01) (622, 9.77421430284885865702e-04) (623, 8.70916393248216125222e-02) (624, 1.67493996857681737289e-01) (625, -3.20909645733011006374e-02) (626, 1.12658549086607578937e-01) (627, -1.44158877276206487394e+00) (628, 9.74276082382758623623e+00) (629, 1.04591306220893862644e+01) (630, 2.28812456244216484436e+01) (631, 3.62034453719486748469e+01) (632, 3.19253761889742406765e+01) (633, 1.52055412508669229865e+00) (634, 1.86247437144578503743e-01) (635, 1.27510240767372134973e-01) (636, -2.11861637849904915765e-01) (637, -8.13795072230125149382e-02) (638, -3.24992555757999679322e-02) (639, 9.62881328852206869184e-02) (640, 3.89455365778435466662e-02) (641, 8.35355634097988686282e-02) (642, 6.18234987113201878151e-02) (643, 1.08486477494710242819e-01) (644, 1.68144662142270334693e-01) (645, -2.32470368738238071515e-02) (646, 7.66381437187130531985e-02) (647, 2.25704351668293938526e-02) (648, 4.75716034624302647194e-02) (649, 1.78872126994465974192e-01) (650, 1.02619585225710296950e-01) (651, 8.06087992479857795569e-02) (652, 2.88005159644223907023e-01) (653, 3.26804851238922999812e-01) (654, 5.01158108913584476873e-01) (655, 1.19026184014099301045e+00) (656, 1.85245418562380805838e+01) (657, 5.08889709376787493511e+01) (658, 2.62642606453883900031e+01) (659, 3.25651772365631986261e+00) (660, 1.23602650686227732990e+00) (661, 1.32885714844327362805e+00) (662, 5.07358111064897143727e-01) (663, 1.28358323330610923918e-01) (664, 1.06254246018747333657e-01) (665, -1.78680606857738316640e-02) (666, 4.49670913185874557283e-02) (667, 1.15587596059315927954e-01) (668, 1.20627109170430429907e-01) (669, 8.28036183719570717532e-02) (670, 6.48616815214092951036e-02) (671, 8.97025710391360572848e-03) (672, -8.48819667053858639694e-03) (673, 1.51044089556210764380e-01) (674, 1.42629374027722605200e-01) (675, -1.37867693915577071984e-02) (676, 1.54353835700490882310e-01) (677, 7.66798093242160028193e-02) (678, 7.99709862853316827414e-02) (679, 9.66666107733852170147e-02) (680, 1.40831185495667116081e-01) (681, 3.81954155000033823697e-01) (682, 1.00776539528097419662e+00) (683, 5.22193223236746550953e-01) (684, 4.29681111502478452202e-01) (685, 4.60079072710930514489e-01) (686, 3.52273203493737918635e-01) (687, 5.15144691560188827673e-01) (688, 4.01483998391548413398e-01) (689, 4.50326675631659956167e-01) (690, 2.01469329280069442412e-01) (691, 2.02724399329398591307e-01) (692, 5.81141417236160848225e-02) (693, 5.98349524293732351610e-02) (694, 1.03142201669621957905e-01) (695, 1.69176224828236826392e-01) (696, 4.64555138950284024491e-02) (697, -2.20346187944475933873e-02) (698, 1.09936449885838782858e-01) (699, -7.74474793625514260076e-03) (700, 8.59416315560276589114e-02) (701, -2.92395944658982421226e-05) (702, 2.63981411461766228566e-02) (703, 1.03439774617883006869e-01) (704, -2.29988058355128192900e-02) (705, -4.41571223880960102293e-03) (706, 1.14689278969575841893e-01) (707, 1.56391296157648046483e-01) (708, 1.04123988612265933051e-01) (709, 1.86889153294756915624e-01) (710, 1.30864843457436721974e-02) (711, 1.14233845445463666479e-01) (712, 1.07986183437654953421e-01) (713, 1.15068414780447492163e-01) (714, 6.17104485362267377035e-02) (715, -8.51434134502219649998e-03) (716, 2.65336330924529871511e-02) (717, 7.20467354805011395147e-02) (718, 2.08061721459836646009e-01) (719, 1.29090849518056494105e-01) (720, -9.73351829338074507614e-03) (721, 1.33030910253995188208e-01) (722, 8.79979396912777545037e-02) (723, 4.24109737131321690162e-02) (724, -9.72736233425777058192e-03) (725, 1.70643406217034464267e-02) (726, 3.59461160604889820580e-02) (727, 6.19007835392888089432e-02) (728, 2.02023538057740335849e-02) (729, 1.71055201650136240454e-01) (730, 7.93286675815517983157e-02) (731, 1.31316606164448984595e-01) (732, -3.80141639662425834603e-03) (733, 1.30899433255666025611e-01) (734, 5.99290172311985752662e-02) (735, -1.62759025361889080215e-03) (736, 1.51085924610825789172e-01) (737, -2.27056790855282002867e-03) (738, -2.15547298207492930844e-02) (739, 4.06419123396663181658e-02) (740, -6.15493852045251570865e-03) (741, 1.49620859786019355653e-02) (742, 1.71683739416673586398e-01) (743, 1.18639226548746035128e-01) (744, 1.39577725051381995591e-01) (745, 4.89933381530964634498e-02) (746, 1.32346388206216108996e-01) (747, -1.13479380753313888186e-02) (748, 1.43656689882748850318e-01) (749, 1.25905011058324162176e-01) (750, 1.03597972751134193015e-01) (751, 1.54586453199857004615e-01) (752, 8.41085428600246987063e-02) (753, 1.59548225109513372444e-02) (754, 2.13563518826897676128e-02) (755, 9.95538199548657021243e-02) (756, 5.81917876605923672928e-02) (757, 8.24750999216969093997e-02) (758, -1.33727675075594742982e-02) (759, 1.03566769719594276022e-01) (760, 7.87029231195385536868e-02) (761, 9.11285395030911049563e-02) (762, 6.00560272340710660233e-02) (763, 1.00074131250851877661e-01) (764, 4.72006017570431729569e-02) (765, 1.44343961239331491919e-01) (766, 1.22805465221875464987e-01) (767, 2.26454438869889244923e-02) (768, 1.66432310104840525122e-01) (769, 1.25039223790639197897e-01) (770, 8.70758408908779701907e-02) (771, -1.59341504569117352330e-02) (772, 1.56848255753987558814e-01) (773, 8.22288582329685768801e-02) (774, 1.26174364448064152411e-01) (775, 1.20214466214650400611e-01) (776, 1.55581120610707529517e-01) (777, 8.28796589975292763430e-02) (778, 1.33225444913380869361e-01) (779, 1.24410454392903602194e-01) (780, 3.39572916035588284744e-02) (781, 6.19960466628010770096e-02) (782, 1.04169536591046607565e-01) (783, 1.43238473892682321997e-01) (784, 3.19233716057700400714e-01) (0, 7.59335597971643960769e-01) (1, 6.76601996639933145339e-01) (2, 5.95125002781118794815e-01) (3, 6.66983326891626870925e-01) (4, 6.88401861110891855056e-01) (5, 7.23864426830973184401e-01) (6, 7.70858874539103067214e-01) (7, 6.04703014711107655899e-01) (8, 6.09093068162168904678e-01) (9, 6.96105642238821542556e-01) (10, 6.77076248446669137770e-01) (11, 7.78609668830599344069e-01) (12, 6.44083740184273279006e-01) (13, 7.24894335488047159011e-01) (14, 7.70214607933725869948e-01) (15, 5.94295589247908040420e-01) (16, 6.37142794201340123550e-01) (17, 7.79453089455332315261e-01) (18, 7.76316469529833352858e-01) (19, 7.44544288138117349440e-01) (20, 7.30800082901682412917e-01) (21, 7.21703564742769754226e-01) (22, 7.25298037747110879714e-01) (23, 6.38852359721626683609e-01) (24, 6.80101631203856027419e-01) (25, 6.74881113687719857985e-01) (26, 6.97982279578413522536e-01) (27, 7.67270317295755899245e-01) (28, 6.04223271826471730606e-01) (29, 6.66393382469381845290e-01) (30, 6.95566443721022165114e-01) (31, 7.80094420531954324538e-01) (32, 7.59530922392572915847e-01) (33, 7.07226997235979593093e-01) (34, 6.63613295177187478835e-01) (35, 6.64468331257071054274e-01) (36, 6.47626956919397867019e-01) (37, 6.51007724920477426345e-01) (38, 6.85706896702017343337e-01) (39, 6.73255575815405404860e-01) (40, 7.63648917893137491042e-01) (41, 7.79318695882525003249e-01) (42, 6.68400792399611032302e-01) (43, 6.24268205831016942398e-01) (44, 7.20748564223017251784e-01) (45, 6.55150940636362588698e-01) (46, 6.35099338362183019058e-01) (47, 7.74426912883486306960e-01) (48, 6.51139570394720590407e-01) (49, 6.27951355645622655288e-01) (50, 7.35506763676371133620e-01) (51, 5.98475193599428578750e-01) (52, 7.66190459946360147292e-01) (53, 6.77340341726507699782e-01) (54, 6.53863100329603708083e-01) (55, 6.62827653804983651931e-01) (56, 7.68757006148066079909e-01) (57, 7.68380930641855752761e-01) (58, 6.46633511403765237624e-01) (59, 5.89515825728144093887e-01) (60, 6.51309868315424478347e-01) (61, 7.58735513309206521804e-01) (62, 5.86145794013704701797e-01) (63, 6.27376338461603566543e-01) (64, 6.82498050848211801345e-01) (65, 6.66294639924730813796e-01) (66, 7.08380220452513253981e-01) (67, 7.46660565952028787429e-01) (68, 7.03659746107165640083e-01) (69, 5.80444502886836244393e-01) (70, 6.15698362518163566648e-01) (71, 6.92698637014235951703e-01) (72, 6.20921000668979816695e-01) (73, 5.08410444548059614611e-01) (74, 5.41848545958925509325e-01) (75, 7.67828178525366333851e-01) (76, 5.71793190283866659129e-01) (77, 5.76683447173163998833e-01) (78, 7.05115750501464688682e-01) (79, 6.60749627271856820876e-01) (80, 6.50947934011187112624e-01) (81, 6.86765788117613351638e-01) (82, 6.75760371605124032790e-01) (83, 6.33673952887024327651e-01) (84, 7.80641665676798379714e-01) (85, 7.46159022668566263015e-01) (86, 7.13037153700556314284e-01) (87, 7.65934219578470742995e-01) (88, 7.31075515965189492995e-01) (89, 7.76206230739321267897e-01) (90, 7.71985596040453470046e-01) (91, 5.72353785593516795061e-01) (92, 7.24973381046932874305e-01) (93, 7.48163044933956800087e-01) (94, 6.16328921650332151039e-01) (95, 6.24006979648750959022e-01) (96, 6.30144249938913936226e-01) (97, 7.66962845428136419379e-01) (98, 6.28509238269043146730e-01) (99, 6.24164315076429776497e-01) (100, 6.16667704297302887717e-01) (101, 8.27897368195062433038e-01) (102, 1.08456435634218539832e+00) (103, 7.07822371439634778767e-01) (104, 6.45396607584142634195e-01) (105, 6.92697473973769572986e-01) (106, 7.48438239505813340813e-01) (107, 5.84620118210624428734e-01) (108, 7.32786765316690957839e-01) (109, 7.29474863032068765456e-01) (110, 6.91513029853071725661e-01) (111, 6.00270254532064839736e-01) (112, 6.32776187727417394058e-01) (113, 5.83808949211801819779e-01) (114, 6.50479761878218210036e-01) (115, 6.29953408608402654068e-01) (116, 7.46503522614206826979e-01) (117, 7.80052473763193643386e-01) (118, 5.85856040675647227189e-01) (119, 6.66761707805582637398e-01) (120, 7.46290341500919995887e-01) (121, 6.53385104888861811823e-01) (122, 8.33182448623194904513e-01) (123, 2.71886760924462267397e+00) (124, 6.51549326769335390708e+00) (125, 1.84091526126806037666e+01) (126, 1.12729258147175386284e+01) (127, 1.13312518132026287532e+01) (128, 1.02396860550844568394e+01) (129, 1.05113536940465368552e+00) (130, 7.14592761720446389972e-01) (131, 7.77246066253764689158e-01) (132, 6.91115963422342605149e-01) (133, 6.49316488758256982194e-01) (134, 6.23187852025427257985e-01) (135, 7.21197812898250467661e-01) (136, 7.42625855054900974039e-01) (137, 5.93872068444456502334e-01) (138, 7.73242538789476907546e-01) (139, 7.21197759727205789382e-01) (140, 7.39882474759783304030e-01) (141, 6.81291123846735513503e-01) (142, 7.38003557542528665358e-01) (143, 5.89194213966097279922e-01) (144, 6.81635623792376077468e-01) (145, 5.79022156568778978425e-01) (146, 6.09116034318215815446e-01) (147, 6.18107562620647033036e-01) (148, 6.53198679996224496058e-01) (149, 2.48163328081620893073e+00) (150, 3.82215575238075633280e+00) (151, 1.54395376586415267184e+01) (152, 9.23210447725693938992e+00) (153, 5.91487259723433922431e+00) (154, 5.87193990621098471649e+00) (155, 7.55531467590565242176e+00) (156, 5.86707036054528963120e+00) (157, 1.87948592951677051488e+00) (158, 6.24063313115264306496e-01) (159, 4.67196052828370067544e-01) (160, 6.49565347223384104147e-01) (161, 7.04269441186185507497e-01) (162, 4.09077949978684685117e-01) (163, 8.04938771182674317473e-01) (164, 7.21444248302074320200e-01) (165, 6.33523190388645573989e-01) (166, 7.24175920704569375808e-01) (167, 7.31136551121439492995e-01) (168, 6.43930809566940820510e-01) (169, 7.13954022148813760573e-01) (170, 6.68869851151670968825e-01) (171, 6.00919271640749874663e-01) (172, 6.12351114683123531890e-01) (173, 5.97412242116941438752e-01) (174, 5.79511468966014353654e-01) (175, 6.83384729285247405350e-01) (176, 7.85294007451926900920e-01) (177, 5.87897186691616635557e+00) (178, 4.69919190420175780787e+00) (179, 7.24884119912873003955e+00) (180, 5.60092314192522877647e+00) (181, 4.41378941030102645016e+00) (182, 4.70937157406097206547e+00) (183, 5.35692649586247338078e+00) (184, 4.36276464135852748427e+00) (185, 1.30317180284574929416e+00) (186, 7.59814251318893352227e-01) (187, 5.40927540021358788103e-01) (188, 6.45436277880143682850e-01) (189, 7.59155596016641287527e-01) (190, 1.10960072883048965764e+00) (191, 5.11220088838185926505e-01) (192, 6.15609650672215735767e-01) (193, 5.82427233527015419945e-01) (194, 6.50128936389650857741e-01) (195, 5.91963497916426106826e-01) (196, 6.62093712011541879470e-01) (197, 5.90840404847826405899e-01) (198, 7.39635592321123636061e-01) (199, 7.22560083488192117507e-01) (200, 7.21900406115027482024e-01) (201, 5.99044280620826707917e-01) (202, 7.12091591500231380074e-01) (203, 7.25301196711383822091e-01) (204, 6.34248057192632219703e-01) (205, 7.22274080186133815573e-01) (206, 5.60935723275196251869e-01) (207, 1.78588670495833601315e-01) (208, 1.65757718209936077969e+00) (209, 1.32106188503486876584e+00) (210, 1.75344993225241800872e+01) (211, 3.06825224278001620348e+01) (212, 8.27925018736586970647e-01) (213, 6.31236348272835257056e-01) (214, 1.85284723370214288174e-01) (215, 1.38533459070345577047e+00) (216, 7.65721169002587243035e-01) (217, 6.31329373468845878037e-01) (218, 3.72440423690354349695e-01) (219, 9.32435816362726765938e-01) (220, 6.56371410249726339181e-01) (221, 5.94768009228797689403e-01) (222, 6.71267686406340158278e-01) (223, 6.10876789311136647598e-01) (224, 6.44619854161705529982e-01) (225, 7.37932180980410135085e-01) (226, 6.19375837961401387588e-01) (227, 7.23819541566344315520e-01) (228, 7.45878564946623856535e-01) (229, 7.49550277861370184418e-01) (230, 6.35051523206179524550e-01) (231, 6.82187823900548551137e-01) (232, 6.93616983419001464917e-01) (233, 4.38187531134313357217e-01) (234, 1.28519388198216538699e-01) (235, -1.34510165520292335195e+00) (236, 5.94699255005384785910e-01) (237, -9.92741743698398693141e+00) (238, -1.06948951411279513657e+00) (239, 1.89716551586645770788e-01) (240, 1.72956636275212538578e+00) (241, 1.15486802677952216101e+01) (242, 6.09360109014092765634e-01) (243, 4.25686901157086017289e-01) (244, 7.87693426750279090953e-01) (245, 7.71079619107929881139e-01) (246, 1.09990136240503066922e+00) (247, 1.08193984462343539832e+00) (248, 4.97156917203236181635e-01) (249, 5.76901665968986288036e-01) (250, 7.38639554003443277175e-01) (251, 7.28175124148096597487e-01) (252, 6.30767876276935979263e-01) (253, 6.26442788163389607803e-01) (254, 7.55587464193071878249e-01) (255, 6.92493709557028824797e-01) (256, 7.81480940811606461516e-01) (257, 5.63421675426088341965e-01) (258, 6.03030720063694070099e-01) (259, 8.67037247824756884818e-01) (260, 5.32576536902301111986e-01) (261, -2.69971718102541800854e-02) (262, -1.02426810060064221730e+00) (263, -1.47663265744455052264e+00) (264, -1.83972971376807148403e+00) (265, -1.08848486001386390853e+00) (266, -1.06624688249683607921e+00) (267, -2.40220240632266018865e-01) (268, 7.56432761630529970631e-01) (269, 1.89455781551823676523e+00) (270, 2.73826592258704426541e+00) (271, 7.45637767371937543182e-01) (272, 6.97442148992672983354e-01) (273, 3.02824621599559673513e+00) (274, 1.01231840435502173925e+00) (275, 1.00225359861633078751e+00) (276, 3.93086399756943649653e-01) (277, 7.40241533894153591611e-01) (278, 6.14457925776209279434e-01) (279, 6.09063548961843892471e-01) (280, 7.75713404635157144362e-01) (281, 7.69633030513491189772e-01) (282, 7.53774216393198526198e-01) (283, 6.23587257050248089385e-01) (284, 6.12653794782610727765e-01) (285, 6.95016153327076224855e-01) (286, 8.47940105310680869444e-01) (287, 1.12577072025326252458e+00) (288, 2.45793361883948824342e+00) (289, -1.38408400894442618068e-01) (290, -1.15971465110519167396e+00) (291, -3.71689805897848213334e+00) (292, -1.56234514575055816188e+00) (293, -1.21676616908757484481e+00) (294, -1.30860564754100305862e+00) (295, -1.17645374921965784054e+00) (296, 8.12527641267445255302e-01) (297, 8.78448869607996485342e+00) (298, 8.04562547565359498236e-01) (299, 6.79373449894053127451e-01) (300, 7.96833922892423829332e-01) (301, 1.97050417983656345200e+00) (302, 1.85473883654456517256e+00) (303, 7.54766173039005616729e-01) (304, 5.83943202240558401073e-01) (305, 7.30113524254863088814e-01) (306, 6.90608521918024576003e-01) (307, 6.64287356654371774489e-01) (308, 7.37822106102671182448e-01) (309, 7.21601998428072488601e-01) (310, 6.89886456350054300124e-01) (311, 7.30641486875983292570e-01) (312, 6.85152012074473293346e-01) (313, 6.74749909599165698104e-01) (314, 1.97298136094185472267e+00) (315, 4.08261979160633803332e+00) (316, 1.15546508851380664851e+01) (317, -9.64047166497606689006e-01) (318, -2.38497274101679446190e+00) (319, 1.71179511249547955387e+00) (320, 3.36099144666150040361e-01) (321, 2.68777866852558844357e+00) (322, -4.31733474855179821805e-01) (323, -1.04069896944545736694e+00) (324, 6.52661740823864855443e-01) (325, 3.08269992669629777637e+00) (326, 2.86438844023183580845e+00) (327, 6.66600807098232328585e-01) (328, 3.18296438752084087653e+00) (329, 3.54906452418725049114e+00) (330, 1.64643841549672709235e+00) (331, 1.05081570224305131944e+00) (332, 6.64462032616141340391e-01) (333, 5.92866478482450887100e-01) (334, 5.90319408098425313369e-01) (335, 7.08312658587660348708e-01) (336, 7.69693722943033731276e-01) (337, 6.97463473299707925612e-01) (338, 5.89135570446218892471e-01) (339, 7.24621790282698685637e-01) (340, 6.14319696171375051463e-01) (341, 1.73766452721870834353e+00) (342, 1.24949056338168389857e+02) (343, 6.62703699208541934240e+01) (344, 3.68914098173170685868e+01) (345, -1.50647907324320318168e+00) (346, 3.39597048496815934193e-01) (347, 7.21767396377112624428e-01) (348, -7.20899907563546382683e-01) (349, 2.38497307551363491029e+00) (350, 2.30673694305769894086e+00) (351, -1.83826557470077700529e+00) (352, -2.33857132956869184781e+00) (353, 5.12164165383061531500e-01) (354, 9.16728605045629696413e-01) (355, 5.97856082742848404799e-01) (356, 7.22541304326733690999e+00) (357, 3.52607381297091704297e+00) (358, 1.60907326360548652566e+00) (359, 9.12756291045150991437e-01) (360, 7.32061423739033378943e-01) (361, 6.84594035888553276159e-01) (362, 6.01348925931600053474e-01) (363, 6.17436407128538533584e-01) (364, 6.93932829419340646560e-01) (365, 6.08989624301161214248e-01) (366, 7.42284616450037515456e-01) (367, 6.80732513599368149748e-01) (368, 7.62766190225261597746e-01) (369, 5.78041990878347533567e+00) (370, 1.24899147372342355311e+02) (371, 1.75859364040072385649e+01) (372, 4.12067770324395610260e+00) (373, -1.50308249396715054580e+00) (374, -1.80230426512519170679e+00) (375, -2.49951604272339400481e+00) (376, -2.40324622956445344002e+00) (377, -3.35306480645766269433e+00) (378, -1.79909803350318586723e+00) (379, -6.96439391042953648281e+00) (380, -1.26470740262777248120e+00) (381, 3.27512858029718134656e-01) (382, 1.07869646166650734465e+00) (383, 3.59792425671665982989e+00) (384, 4.01536749940617010424e+00) (385, 4.28901094566248719531e+00) (386, 9.14634761762540660079e-01) (387, 8.84444402013717545508e-01) (388, 6.61492412605459989550e-01) (389, 6.21282730991483234106e-01) (390, 7.75103323901534690954e-01) (391, 7.80316716054644143874e-01) (392, 7.22285827616419351394e-01) (393, 5.93710301438536092178e-01) (394, 6.14288670936788960830e-01) (395, 6.33324629448624554229e-01) (396, 6.59013003462928570464e-01) (397, 5.83719542277990832702e+00) (398, 3.46381285375569403229e+00) (399, 5.39711755355018674152e+00) (400, 7.72361340388711820060e-02) (401, -3.66467135222665785221e+00) (402, -3.29153297137413192175e+00) (403, -1.76628105834793336371e+00) (404, -2.54120583191560234226e+00) (405, -1.33692632871386845039e+01) (406, -6.55231987379146563200e+00) (407, -1.70818365004722316769e+00) (408, -7.61157605326826081082e-01) (409, -5.45801573620040350598e-02) (410, 6.10779170371966162456e-01) (411, 9.94278908963475416272e+00) (412, 4.06974172170548786909e+00) (413, 5.37564579723373570097e-01) (414, 7.01474712247310616675e-01) (415, 9.01007786501029195314e-01) (416, 7.84993167274575465164e-01) (417, 